<?xml version='1.0' encoding='utf-8'?>
<BIF VERSION="0.3">
  <NETWORK>
    <NAME>UNTITLED</NAME>
    <VARIABLE TYPE="nature">
      <NAME>0</NAME>
      <OUTCOME>0</OUTCOME>
      <OUTCOME>1</OUTCOME>
      <PROPERTY>weight = None</PROPERTY>
    </VARIABLE>
    <VARIABLE TYPE="nature">
      <NAME>1</NAME>
      <OUTCOME>0</OUTCOME>
      <OUTCOME>1</OUTCOME>
      <PROPERTY>weight = None</PROPERTY>
    </VARIABLE>
    <VARIABLE TYPE="nature">
      <NAME>10</NAME>
      <OUTCOME>0</OUTCOME>
      <OUTCOME>1</OUTCOME>
      <PROPERTY>weight = None</PROPERTY>
    </VARIABLE>
    <VARIABLE TYPE="nature">
      <NAME>11</NAME>
      <OUTCOME>0</OUTCOME>
      <OUTCOME>1</OUTCOME>
      <PROPERTY>weight = None</PROPERTY>
    </VARIABLE>
    <VARIABLE TYPE="nature">
      <NAME>12</NAME>
      <OUTCOME>0</OUTCOME>
      <OUTCOME>1</OUTCOME>
      <PROPERTY>weight = None</PROPERTY>
    </VARIABLE>
    <VARIABLE TYPE="nature">
      <NAME>2</NAME>
      <OUTCOME>0</OUTCOME>
      <OUTCOME>1</OUTCOME>
      <PROPERTY>weight = None</PROPERTY>
    </VARIABLE>
    <VARIABLE TYPE="nature">
      <NAME>3</NAME>
      <OUTCOME>0</OUTCOME>
      <OUTCOME>1</OUTCOME>
      <PROPERTY>weight = None</PROPERTY>
    </VARIABLE>
    <VARIABLE TYPE="nature">
      <NAME>4</NAME>
      <OUTCOME>0</OUTCOME>
      <OUTCOME>1</OUTCOME>
      <PROPERTY>weight = None</PROPERTY>
    </VARIABLE>
    <VARIABLE TYPE="nature">
      <NAME>5</NAME>
      <OUTCOME>0</OUTCOME>
      <OUTCOME>1</OUTCOME>
      <PROPERTY>weight = None</PROPERTY>
    </VARIABLE>
    <VARIABLE TYPE="nature">
      <NAME>6</NAME>
      <OUTCOME>0</OUTCOME>
      <OUTCOME>1</OUTCOME>
      <PROPERTY>weight = None</PROPERTY>
    </VARIABLE>
    <VARIABLE TYPE="nature">
      <NAME>7</NAME>
      <OUTCOME>0</OUTCOME>
      <OUTCOME>1</OUTCOME>
      <PROPERTY>weight = None</PROPERTY>
    </VARIABLE>
    <VARIABLE TYPE="nature">
      <NAME>8</NAME>
      <OUTCOME>0</OUTCOME>
      <OUTCOME>1</OUTCOME>
      <PROPERTY>weight = None</PROPERTY>
    </VARIABLE>
    <VARIABLE TYPE="nature">
      <NAME>9</NAME>
      <OUTCOME>0</OUTCOME>
      <OUTCOME>1</OUTCOME>
      <PROPERTY>weight = None</PROPERTY>
    </VARIABLE>
    <DEFINITION>
      <FOR>0</FOR>
      <TABLE>0.6221109758122939 0.3778890241877061 </TABLE>
    </DEFINITION>
    <DEFINITION>
      <FOR>1</FOR>
      <GIVEN>0</GIVEN>
      <TABLE>0.31882842627579 0.68117157372421 0.5510233456468685 0.4489766543531315 </TABLE>
    </DEFINITION>
    <DEFINITION>
      <FOR>10</FOR>
      <GIVEN>2</GIVEN>
      <GIVEN>6</GIVEN>
      <GIVEN>9</GIVEN>
      <GIVEN>8</GIVEN>
      <TABLE>0.5806476580927443 0.41935234190725584 0.366349205296004 0.633650794703996 0.37505369380412323 0.6249463061958769 0.30988914229288606 0.6901108577071139 0.3286827040451931 0.6713172959548068 0.5138517433052711 0.48614825669472894 0.7882132041151155 0.21178679588488442 0.8468588222197552 0.15314117778024489 0.14629945819049825 0.8537005418095018 0.622268700478722 0.37773129952127815 0.24316997616775474 0.7568300238322453 0.3842285756586418 0.6157714243413581 0.08893337894815169 0.9110666210518484 0.0876284441978999 0.9123715558021 0.42173507031345087 0.5782649296865492 0.8984532973168884 0.10154670268311163 </TABLE>
    </DEFINITION>
    <DEFINITION>
      <FOR>11</FOR>
      <GIVEN>2</GIVEN>
      <GIVEN>4</GIVEN>
      <GIVEN>6</GIVEN>
      <TABLE>0.6658276300701441 0.33417236992985594 0.16748725636337938 0.8325127436366206 0.171661913229249 0.8283380867707509 0.9692478183497287 0.030752181650271288 0.37677934279917213 0.6232206572008279 0.7408967255685232 0.25910327443147685 0.04357858220846727 0.9564214177915328 0.011202806203935683 0.9887971937960643 </TABLE>
    </DEFINITION>
    <DEFINITION>
      <FOR>12</FOR>
      <GIVEN>1</GIVEN>
      <GIVEN>3</GIVEN>
      <GIVEN>4</GIVEN>
      <GIVEN>6</GIVEN>
      <TABLE>0.6849806449373121 0.3150193550626879 0.2778913993559863 0.7221086006440137 0.6960088063324436 0.30399119366755645 0.523779909353109 0.47622009064689097 0.5556303586049276 0.44436964139507235 0.39952733614240604 0.600472663857594 0.8263730734895121 0.17362692651048783 0.39172959908996297 0.6082704009100369 0.5962147449796864 0.4037852550203137 0.5837277330865421 0.4162722669134578 0.6006006333646994 0.3993993666353006 0.23207192621012687 0.7679280737898732 0.6057617769813548 0.39423822301864525 0.42294322436439197 0.577056775635608 0.3350458575112445 0.6649541424887555 0.530361999637234 0.469638000362766 </TABLE>
    </DEFINITION>
    <DEFINITION>
      <FOR>2</FOR>
      <GIVEN>0</GIVEN>
      <GIVEN>1</GIVEN>
      <TABLE>0.0983734802472733 0.9016265197527267 0.9284908258557654 0.07150917414423467 0.7058655492553884 0.2941344507446117 0.06783252085517384 0.9321674791448261 </TABLE>
    </DEFINITION>
    <DEFINITION>
      <FOR>3</FOR>
      <GIVEN>1</GIVEN>
      <TABLE>0.5477785136923546 0.45222148630764547 0.7271271920243265 0.27287280797567354 </TABLE>
    </DEFINITION>
    <DEFINITION>
      <FOR>4</FOR>
      <GIVEN>1</GIVEN>
      <GIVEN>2</GIVEN>
      <TABLE>0.3118322350440311 0.6881677649559689 0.1819126771399547 0.8180873228600453 0.7363282892955676 0.26367171070443246 0.39867923923117 0.6013207607688299 </TABLE>
    </DEFINITION>
    <DEFINITION>
      <FOR>5</FOR>
      <GIVEN>1</GIVEN>
      <GIVEN>3</GIVEN>
      <GIVEN>4</GIVEN>
      <TABLE>0.6473168845128684 0.35268311548713155 0.29722572807210657 0.7027742719278934 0.019031667245670097 0.9809683327543299 0.5039407421954972 0.4960592578045028 0.603955895366763 0.39604410463323697 0.5460129391577326 0.4539870608422673 0.2217996157830941 0.7782003842169058 0.5259077436535201 0.47409225634647995 </TABLE>
    </DEFINITION>
    <DEFINITION>
      <FOR>6</FOR>
      <GIVEN>2</GIVEN>
      <GIVEN>5</GIVEN>
      <TABLE>0.4058053103599692 0.5941946896400307 0.5505526786331713 0.4494473213668287 0.5260714622086474 0.47392853779135263 0.9573431992447409 0.042656800755259114 </TABLE>
    </DEFINITION>
    <DEFINITION>
      <FOR>7</FOR>
      <GIVEN>1</GIVEN>
      <GIVEN>6</GIVEN>
      <TABLE>0.5786735886636084 0.42132641133639165 0.9698601620850323 0.030139837914967615 0.10029885821536405 0.8997011417846359 0.2592036992279645 0.7407963007720355 </TABLE>
    </DEFINITION>
    <DEFINITION>
      <FOR>8</FOR>
      <GIVEN>4</GIVEN>
      <GIVEN>5</GIVEN>
      <GIVEN>7</GIVEN>
      <GIVEN>6</GIVEN>
      <TABLE>0.6421818883705527 0.35781811162944727 0.4336579609806226 0.5663420390193774 0.09929518423052468 0.9007048157694755 0.2737732084101224 0.7262267915898776 0.9080174865050391 0.09198251349496092 0.9288314943376884 0.07116850566231157 0.5466828133319074 0.4533171866680926 0.49992088481671837 0.5000791151832817 0.032468723896960976 0.967531276103039 0.5602442281121053 0.43975577188789466 0.37268785565166557 0.6273121443483344 0.6001190320921137 0.3998809679078862 0.3109618896677045 0.6890381103322955 0.4020613640134401 0.5979386359865599 0.5636355854552091 0.43636441454479086 0.8385357114987677 0.16146428850123243 </TABLE>
    </DEFINITION>
    <DEFINITION>
      <FOR>9</FOR>
      <GIVEN>2</GIVEN>
      <GIVEN>5</GIVEN>
      <GIVEN>8</GIVEN>
      <TABLE>0.5781035665202778 0.42189643347972217 0.5662313925513158 0.4337686074486843 0.8395165727729478 0.16048342722705222 0.9248071104119635 0.07519288958803655 0.1423455903231203 0.8576544096768797 0.2523167204162481 0.7476832795837519 0.6694641530121132 0.33053584698788685 0.4841066379815148 0.5158933620184851 </TABLE>
    </DEFINITION>
  </NETWORK>
</BIF>
