<?xml version='1.0' encoding='utf-8'?>
<BIF VERSION="0.3">
  <NETWORK>
    <NAME>UNTITLED</NAME>
    <VARIABLE TYPE="nature">
      <NAME>0</NAME>
      <OUTCOME>0</OUTCOME>
      <OUTCOME>1</OUTCOME>
      <PROPERTY>weight = None</PROPERTY>
    </VARIABLE>
    <VARIABLE TYPE="nature">
      <NAME>1</NAME>
      <OUTCOME>0</OUTCOME>
      <OUTCOME>1</OUTCOME>
      <PROPERTY>weight = None</PROPERTY>
    </VARIABLE>
    <VARIABLE TYPE="nature">
      <NAME>10</NAME>
      <OUTCOME>0</OUTCOME>
      <OUTCOME>1</OUTCOME>
      <PROPERTY>weight = None</PROPERTY>
    </VARIABLE>
    <VARIABLE TYPE="nature">
      <NAME>11</NAME>
      <OUTCOME>0</OUTCOME>
      <OUTCOME>1</OUTCOME>
      <PROPERTY>weight = None</PROPERTY>
    </VARIABLE>
    <VARIABLE TYPE="nature">
      <NAME>12</NAME>
      <OUTCOME>0</OUTCOME>
      <OUTCOME>1</OUTCOME>
      <PROPERTY>weight = None</PROPERTY>
    </VARIABLE>
    <VARIABLE TYPE="nature">
      <NAME>2</NAME>
      <OUTCOME>0</OUTCOME>
      <OUTCOME>1</OUTCOME>
      <PROPERTY>weight = None</PROPERTY>
    </VARIABLE>
    <VARIABLE TYPE="nature">
      <NAME>3</NAME>
      <OUTCOME>0</OUTCOME>
      <OUTCOME>1</OUTCOME>
      <PROPERTY>weight = None</PROPERTY>
    </VARIABLE>
    <VARIABLE TYPE="nature">
      <NAME>4</NAME>
      <OUTCOME>0</OUTCOME>
      <OUTCOME>1</OUTCOME>
      <PROPERTY>weight = None</PROPERTY>
    </VARIABLE>
    <VARIABLE TYPE="nature">
      <NAME>5</NAME>
      <OUTCOME>0</OUTCOME>
      <OUTCOME>1</OUTCOME>
      <PROPERTY>weight = None</PROPERTY>
    </VARIABLE>
    <VARIABLE TYPE="nature">
      <NAME>6</NAME>
      <OUTCOME>0</OUTCOME>
      <OUTCOME>1</OUTCOME>
      <PROPERTY>weight = None</PROPERTY>
    </VARIABLE>
    <VARIABLE TYPE="nature">
      <NAME>7</NAME>
      <OUTCOME>0</OUTCOME>
      <OUTCOME>1</OUTCOME>
      <PROPERTY>weight = None</PROPERTY>
    </VARIABLE>
    <VARIABLE TYPE="nature">
      <NAME>8</NAME>
      <OUTCOME>0</OUTCOME>
      <OUTCOME>1</OUTCOME>
      <PROPERTY>weight = None</PROPERTY>
    </VARIABLE>
    <VARIABLE TYPE="nature">
      <NAME>9</NAME>
      <OUTCOME>0</OUTCOME>
      <OUTCOME>1</OUTCOME>
      <PROPERTY>weight = None</PROPERTY>
    </VARIABLE>
    <DEFINITION>
      <FOR>0</FOR>
      <TABLE>0.38899257881687055 0.6110074211831295 </TABLE>
    </DEFINITION>
    <DEFINITION>
      <FOR>1</FOR>
      <TABLE>0.2721555810666468 0.7278444189333532 </TABLE>
    </DEFINITION>
    <DEFINITION>
      <FOR>10</FOR>
      <GIVEN>5</GIVEN>
      <GIVEN>6</GIVEN>
      <GIVEN>2</GIVEN>
      <GIVEN>3</GIVEN>
      <TABLE>0.5882352678907938 0.41176473210920617 0.6126072502445639 0.3873927497554361 0.6504725244853993 0.34952747551460084 0.8976562884633057 0.10234371153669429 0.4381893015358445 0.5618106984641555 0.6529760827976099 0.3470239172023902 0.8270939670692111 0.1729060329307889 0.5409025659837399 0.45909743401626013 0.04473096199855929 0.9552690380014407 0.3732264444472959 0.6267735555527042 0.5213574042378152 0.4786425957621848 0.5176959209391707 0.4823040790608292 0.4037052844054922 0.5962947155945079 0.4327666700460002 0.5672333299539998 0.9390956198429278 0.060904380157072266 0.5640704774975009 0.4359295225024991 </TABLE>
    </DEFINITION>
    <DEFINITION>
      <FOR>11</FOR>
      <GIVEN>0</GIVEN>
      <GIVEN>5</GIVEN>
      <GIVEN>8</GIVEN>
      <GIVEN>10</GIVEN>
      <GIVEN>2</GIVEN>
      <GIVEN>4</GIVEN>
      <GIVEN>7</GIVEN>
      <TABLE>0.3644297338583338 0.6355702661416662 0.33339411346594244 0.6666058865340575 0.5232049978844436 0.4767950021155564 0.14961002369930418 0.8503899763006958 0.9477655700493607 0.05223442995063928 0.6031344022956225 0.3968655977043775 0.46159474086290186 0.5384052591370982 0.3739370982177051 0.626062901782295 0.35847061932337215 0.6415293806766278 0.13501762574172552 0.8649823742582745 0.35652308271371946 0.6434769172862805 0.6890519856472845 0.3109480143527154 0.5294777514802512 0.4705222485197489 0.5706487073217117 0.4293512926782883 0.9333592263190355 0.06664077368096454 0.3776688778497855 0.6223311221502145 0.9854209961672106 0.014579003832789468 0.15988397070523805 0.8401160292947619 0.8770118342294173 0.12298816577058272 0.28434507301665557 0.7156549269833444 0.9590852727801971 0.040914727219802986 0.3663624568910599 0.63363754310894 0.34190274221393535 0.6580972577860646 0.8006364696115313 0.19936353038846868 0.5969894190626064 0.40301058093739356 0.15312976743736634 0.8468702325626336 0.3172472788391046 0.6827527211608954 0.7270469991614371 0.2729530008385628 0.23428464234731575 0.7657153576526843 0.7609497989671781 0.2390502010328219 0.29649053119336344 0.7035094688066366 0.0697659528455119 0.9302340471544881 0.45419517061972137 0.5458048293802786 0.6834736762155533 0.31652632378444673 0.5419056744185051 0.4580943255814949 0.4430551491854974 0.5569448508145026 0.7874008347516762 0.2125991652483238 0.02243551023609196 0.9775644897639081 0.9836994593768766 0.01630054062312341 0.3508389336052536 0.6491610663947464 0.36145306947745315 0.6385469305225469 0.4740839415452013 0.5259160584547987 0.43085580473375124 0.5691441952662487 0.44106783002765365 0.5589321699723464 0.3827815369549091 0.617218463045091 0.1744947651422498 0.8255052348577502 0.6872790074317687 0.3127209925682312 0.5398201376478199 0.4601798623521801 0.46061667519336996 0.53938332480663 0.851229468146702 0.14877053185329797 0.8484983742576081 0.15150162574239193 0.3613680556436513 0.6386319443563486 0.6895076676610318 0.3104923323389682 0.2710431979924564 0.7289568020075435 0.528851793002919 0.47114820699708104 0.5249954416966202 0.4750045583033798 0.6824693371973827 0.3175306628026173 0.11971867341067798 0.880281326589322 0.8915259494812228 0.10847405051877722 0.8807101564710803 0.11928984352891968 0.6808207878916309 0.3191792121083691 0.5853760574541408 0.4146239425458593 0.6713774599928173 0.32862254000718266 0.5332299294949073 0.46677007050509267 0.7094962318537014 0.2905037681462986 0.4804319562773495 0.5195680437226505 0.5512354861588774 0.4487645138411226 0.4924278383151315 0.5075721616848686 0.7829739788780214 0.21702602112197852 0.6886425008800636 0.3113574991199364 0.41431480912937124 0.5856851908706288 0.8155399094307393 0.1844600905692607 0.7471870687898291 0.252812931210171 0.5522255406551239 0.4477744593448762 0.49307346624091664 0.5069265337590834 0.47706002536425657 0.5229399746357434 0.7358060754732053 0.2641939245267947 0.9750688066834716 0.02493119331652843 0.36210533704055764 0.6378946629594423 0.05405479448642259 0.9459452055135774 0.43650604808383503 0.5634939519161649 0.4604443765621887 0.5395556234378114 0.3691294875461685 0.6308705124538315 0.7698377511805299 0.2301622488194701 0.9108577877206889 0.08914221227931111 0.5480199388568504 0.45198006114314954 0.40403971601290617 0.5959602839870938 0.07262244230381192 0.9273775576961881 0.6778219413682672 0.3221780586317327 0.45417145018772187 0.5458285498122781 0.7769759301137614 0.2230240698862387 0.5903661437188586 0.40963385628114135 0.4245130718657167 0.5754869281342833 0.19571267095136957 0.8042873290486304 0.2712990810073193 0.7287009189926806 0.4156129910072013 0.5843870089927987 0.4714481853095903 0.5285518146904097 0.38118573881039497 0.618814261189605 0.7354007961807595 0.26459920381924046 0.42597507713284993 0.57402492286715 0.3677462557147202 0.6322537442852799 0.4109845566905256 0.5890154433094744 0.34617375183383226 0.6538262481661677 0.04678919050091388 0.9532108094990861 0.5420868482746077 0.4579131517253922 0.5446657134074748 0.4553342865925251 0.09966942820161924 0.9003305717983807 0.5339359705102751 0.4660640294897249 0.8170977437469715 0.18290225625302844 0.4134434370357727 0.5865565629642273 0.9386723912329896 0.0613276087670104 0.2915234286335722 0.7084765713664276 0.3520498102975859 0.6479501897024141 0.42212764744541437 0.5778723525545856 0.736819874199651 0.26318012580034916 0.7806185817797264 0.21938141822027354 0.9148474667487161 0.08515253325128393 0.9931796121763394 0.006820387823660523 0.4558084249128244 0.5441915750871756 0.28238730648497995 0.7176126935150201 0.49633861091802 0.5036613890819801 0.23352649082104093 0.766473509178959 0.4390159170157912 0.5609840829842089 0.6787554717857921 0.32124452821420785 0.4759721353550576 0.5240278646449423 0.5310210805288154 0.46897891947118464 0.3597842072290127 0.6402157927709873 0.4794092637200816 0.5205907362799184 </TABLE>
    </DEFINITION>
    <DEFINITION>
      <FOR>12</FOR>
      <GIVEN>6</GIVEN>
      <GIVEN>9</GIVEN>
      <GIVEN>2</GIVEN>
      <GIVEN>4</GIVEN>
      <TABLE>0.5402407592912254 0.4597592407087746 0.9802741071072231 0.019725892892776972 0.29951858198413706 0.7004814180158629 0.21420230559397382 0.7857976944060262 0.012784688959930776 0.9872153110400692 0.4220479203993179 0.5779520796006822 0.4684008321910912 0.5315991678089088 0.14488024204045966 0.8551197579595403 0.35916137489571753 0.6408386251042825 0.10623037433653078 0.8937696256634693 0.5071588506695798 0.49284114933042017 0.7260368602720682 0.27396313972793196 0.7923515357028205 0.2076484642971795 0.6863572924246322 0.3136427075753679 0.4323695159101334 0.5676304840898666 0.019054010511108006 0.980945989488892 </TABLE>
    </DEFINITION>
    <DEFINITION>
      <FOR>2</FOR>
      <GIVEN>1</GIVEN>
      <TABLE>0.6586740712066336 0.34132592879336643 0.24591550327145462 0.7540844967285454 </TABLE>
    </DEFINITION>
    <DEFINITION>
      <FOR>3</FOR>
      <GIVEN>1</GIVEN>
      <TABLE>0.6926750110892539 0.30732498891074606 0.7368767659582057 0.2631232340417942 </TABLE>
    </DEFINITION>
    <DEFINITION>
      <FOR>4</FOR>
      <GIVEN>2</GIVEN>
      <TABLE>0.357195383147009 0.642804616852991 0.6517903836398115 0.3482096163601886 </TABLE>
    </DEFINITION>
    <DEFINITION>
      <FOR>5</FOR>
      <GIVEN>0</GIVEN>
      <GIVEN>1</GIVEN>
      <TABLE>0.6420188023396375 0.3579811976603625 0.3921267182413795 0.6078732817586204 0.3040509817610193 0.6959490182389807 0.6324293036841276 0.36757069631587247 </TABLE>
    </DEFINITION>
    <DEFINITION>
      <FOR>6</FOR>
      <GIVEN>0</GIVEN>
      <GIVEN>5</GIVEN>
      <GIVEN>1</GIVEN>
      <GIVEN>2</GIVEN>
      <GIVEN>4</GIVEN>
      <TABLE>0.45410280438558687 0.5458971956144132 0.4551321997956404 0.5448678002043597 0.532237135090681 0.4677628649093189 0.24192383682393176 0.7580761631760683 0.7228920769000146 0.27710792309998544 0.4956762332672654 0.5043237667327347 0.34505056530028466 0.6549494346997153 0.858290160354885 0.1417098396451149 0.9356905018017586 0.06430949819824142 0.4552465284811927 0.5447534715188073 0.5260547506906869 0.47394524930931325 0.3081068488666254 0.6918931511333746 0.33922329477679747 0.6607767052232025 0.5714676276978294 0.4285323723021706 0.14873115768016748 0.8512688423198326 0.8238123247004533 0.17618767529954674 0.9001735139437242 0.09982648605627571 0.4769504105358357 0.5230495894641644 0.5014538195396088 0.4985461804603912 0.39111492175298435 0.6088850782470157 0.12810606898683466 0.8718939310131654 0.5679447793464728 0.43205522065352725 0.3850539491626916 0.6149460508373084 0.6502311185372512 0.34976888146274865 0.18772473821819774 0.8122752617818022 0.5368669305651629 0.46313306943483706 0.11864576038942079 0.8813542396105792 0.5471202912236066 0.4528797087763933 0.378166766986085 0.621833233013915 0.07508805767869935 0.9249119423213007 0.5070461166452007 0.4929538833547993 0.5012226685942834 0.4987773314057165 </TABLE>
    </DEFINITION>
    <DEFINITION>
      <FOR>7</FOR>
      <GIVEN>2</GIVEN>
      <TABLE>0.6442862237814001 0.3557137762185999 0.39301895500020356 0.6069810449997964 </TABLE>
    </DEFINITION>
    <DEFINITION>
      <FOR>8</FOR>
      <GIVEN>0</GIVEN>
      <GIVEN>5</GIVEN>
      <GIVEN>2</GIVEN>
      <GIVEN>7</GIVEN>
      <TABLE>0.6804514864005766 0.3195485135994233 0.5381292487595146 0.4618707512404854 0.9124271678268622 0.08757283217313788 0.4143224622131335 0.5856775377868665 0.5577835112064181 0.44221648879358194 0.6645481102715695 0.33545188972843054 0.46460728151948755 0.5353927184805124 0.23466568265923474 0.7653343173407653 0.570087269592377 0.4299127304076231 0.42411713578033555 0.5758828642196645 0.7533321733998086 0.2466678266001914 0.8088671894281505 0.19113281057184947 0.18316819242975937 0.8168318075702407 0.17656315826425775 0.8234368417357423 0.5745418112002756 0.4254581887997244 0.5137365252279117 0.48626347477208837 </TABLE>
    </DEFINITION>
    <DEFINITION>
      <FOR>9</FOR>
      <GIVEN>0</GIVEN>
      <GIVEN>6</GIVEN>
      <GIVEN>8</GIVEN>
      <GIVEN>4</GIVEN>
      <TABLE>0.376167030172141 0.6238329698278591 0.466340637691063 0.5336593623089371 0.5291668575590674 0.4708331424409326 0.581443022743452 0.418556977256548 0.5378709244779281 0.46212907552207183 0.6287154335146239 0.37128456648537617 0.8330641722946045 0.16693582770539547 0.5085957484277428 0.4914042515722571 0.6087625235340646 0.3912374764659354 0.9686793037638709 0.03132069623612914 0.23737883029154128 0.7626211697084588 0.24083337304161034 0.7591666269583897 0.6478255026490607 0.3521744973509394 0.11692471231700402 0.883075287682996 0.4399295045436813 0.5600704954563187 0.5006028016725418 0.4993971983274581 </TABLE>
    </DEFINITION>
  </NETWORK>
</BIF>
