<?xml version='1.0' encoding='utf-8'?>
<BIF VERSION="0.3">
  <NETWORK>
    <NAME>UNTITLED</NAME>
    <VARIABLE TYPE="nature">
      <NAME>0</NAME>
      <OUTCOME>0</OUTCOME>
      <OUTCOME>1</OUTCOME>
      <PROPERTY>weight = None</PROPERTY>
    </VARIABLE>
    <VARIABLE TYPE="nature">
      <NAME>1</NAME>
      <OUTCOME>0</OUTCOME>
      <OUTCOME>1</OUTCOME>
      <PROPERTY>weight = None</PROPERTY>
    </VARIABLE>
    <VARIABLE TYPE="nature">
      <NAME>10</NAME>
      <OUTCOME>0</OUTCOME>
      <OUTCOME>1</OUTCOME>
      <PROPERTY>weight = None</PROPERTY>
    </VARIABLE>
    <VARIABLE TYPE="nature">
      <NAME>11</NAME>
      <OUTCOME>0</OUTCOME>
      <OUTCOME>1</OUTCOME>
      <PROPERTY>weight = None</PROPERTY>
    </VARIABLE>
    <VARIABLE TYPE="nature">
      <NAME>12</NAME>
      <OUTCOME>0</OUTCOME>
      <OUTCOME>1</OUTCOME>
      <PROPERTY>weight = None</PROPERTY>
    </VARIABLE>
    <VARIABLE TYPE="nature">
      <NAME>13</NAME>
      <OUTCOME>0</OUTCOME>
      <OUTCOME>1</OUTCOME>
      <PROPERTY>weight = None</PROPERTY>
    </VARIABLE>
    <VARIABLE TYPE="nature">
      <NAME>14</NAME>
      <OUTCOME>0</OUTCOME>
      <OUTCOME>1</OUTCOME>
      <PROPERTY>weight = None</PROPERTY>
    </VARIABLE>
    <VARIABLE TYPE="nature">
      <NAME>15</NAME>
      <OUTCOME>0</OUTCOME>
      <OUTCOME>1</OUTCOME>
      <PROPERTY>weight = None</PROPERTY>
    </VARIABLE>
    <VARIABLE TYPE="nature">
      <NAME>16</NAME>
      <OUTCOME>0</OUTCOME>
      <OUTCOME>1</OUTCOME>
      <PROPERTY>weight = None</PROPERTY>
    </VARIABLE>
    <VARIABLE TYPE="nature">
      <NAME>17</NAME>
      <OUTCOME>0</OUTCOME>
      <OUTCOME>1</OUTCOME>
      <PROPERTY>weight = None</PROPERTY>
    </VARIABLE>
    <VARIABLE TYPE="nature">
      <NAME>18</NAME>
      <OUTCOME>0</OUTCOME>
      <OUTCOME>1</OUTCOME>
      <PROPERTY>weight = None</PROPERTY>
    </VARIABLE>
    <VARIABLE TYPE="nature">
      <NAME>19</NAME>
      <OUTCOME>0</OUTCOME>
      <OUTCOME>1</OUTCOME>
      <PROPERTY>weight = None</PROPERTY>
    </VARIABLE>
    <VARIABLE TYPE="nature">
      <NAME>2</NAME>
      <OUTCOME>0</OUTCOME>
      <OUTCOME>1</OUTCOME>
      <PROPERTY>weight = None</PROPERTY>
    </VARIABLE>
    <VARIABLE TYPE="nature">
      <NAME>20</NAME>
      <OUTCOME>0</OUTCOME>
      <OUTCOME>1</OUTCOME>
      <PROPERTY>weight = None</PROPERTY>
    </VARIABLE>
    <VARIABLE TYPE="nature">
      <NAME>3</NAME>
      <OUTCOME>0</OUTCOME>
      <OUTCOME>1</OUTCOME>
      <PROPERTY>weight = None</PROPERTY>
    </VARIABLE>
    <VARIABLE TYPE="nature">
      <NAME>4</NAME>
      <OUTCOME>0</OUTCOME>
      <OUTCOME>1</OUTCOME>
      <PROPERTY>weight = None</PROPERTY>
    </VARIABLE>
    <VARIABLE TYPE="nature">
      <NAME>5</NAME>
      <OUTCOME>0</OUTCOME>
      <OUTCOME>1</OUTCOME>
      <PROPERTY>weight = None</PROPERTY>
    </VARIABLE>
    <VARIABLE TYPE="nature">
      <NAME>6</NAME>
      <OUTCOME>0</OUTCOME>
      <OUTCOME>1</OUTCOME>
      <PROPERTY>weight = None</PROPERTY>
    </VARIABLE>
    <VARIABLE TYPE="nature">
      <NAME>7</NAME>
      <OUTCOME>0</OUTCOME>
      <OUTCOME>1</OUTCOME>
      <PROPERTY>weight = None</PROPERTY>
    </VARIABLE>
    <VARIABLE TYPE="nature">
      <NAME>8</NAME>
      <OUTCOME>0</OUTCOME>
      <OUTCOME>1</OUTCOME>
      <PROPERTY>weight = None</PROPERTY>
    </VARIABLE>
    <VARIABLE TYPE="nature">
      <NAME>9</NAME>
      <OUTCOME>0</OUTCOME>
      <OUTCOME>1</OUTCOME>
      <PROPERTY>weight = None</PROPERTY>
    </VARIABLE>
    <DEFINITION>
      <FOR>0</FOR>
      <TABLE>0.18205308911234774 0.8179469108876523 </TABLE>
    </DEFINITION>
    <DEFINITION>
      <FOR>1</FOR>
      <GIVEN>0</GIVEN>
      <TABLE>0.5117997915117014 0.4882002084882986 0.37749106557501416 0.6225089344249858 </TABLE>
    </DEFINITION>
    <DEFINITION>
      <FOR>10</FOR>
      <GIVEN>1</GIVEN>
      <GIVEN>8</GIVEN>
      <GIVEN>3</GIVEN>
      <GIVEN>7</GIVEN>
      <TABLE>0.46048823283898865 0.5395117671610112 0.674916714001081 0.32508328599891906 0.5113134386043474 0.4886865613956526 0.8754504902917357 0.12454950970826428 0.03288260083194462 0.9671173991680554 0.6420574049413348 0.35794259505866516 0.8454518263049744 0.1545481736950256 0.433098782069432 0.5669012179305681 0.5774002097796138 0.4225997902203862 0.2923120484696057 0.7076879515303943 0.5226769537007447 0.4773230462992552 0.9358265256488438 0.06417347435115615 0.6192189490671876 0.38078105093281234 0.9874769964672252 0.012523003532774787 0.25060216117011586 0.7493978388298842 0.49738640630699943 0.5026135936930005 </TABLE>
    </DEFINITION>
    <DEFINITION>
      <FOR>11</FOR>
      <GIVEN>0</GIVEN>
      <GIVEN>8</GIVEN>
      <GIVEN>10</GIVEN>
      <GIVEN>7</GIVEN>
      <TABLE>0.5175268666847161 0.4824731333152838 0.659622857743964 0.34037714225603605 0.41351009668077887 0.5864899033192211 0.9842967823355594 0.015703217664440626 0.2159542128915953 0.7840457871084047 0.7340162556688345 0.2659837443311655 0.11056008912832653 0.8894399108716735 0.8050757917604582 0.19492420823954185 0.508761734675945 0.491238265324055 0.6542385065806625 0.34576149341933754 0.8559538886542218 0.1440461113457782 0.6644981133149799 0.3355018866850201 0.29761875638271396 0.702381243617286 0.6586150597136726 0.3413849402863273 0.6623027661286746 0.33769723387132544 0.2752168853805936 0.7247831146194064 </TABLE>
    </DEFINITION>
    <DEFINITION>
      <FOR>12</FOR>
      <GIVEN>1</GIVEN>
      <GIVEN>4</GIVEN>
      <GIVEN>5</GIVEN>
      <GIVEN>2</GIVEN>
      <GIVEN>3</GIVEN>
      <TABLE>0.8606486575137419 0.13935134248625813 0.731719763083705 0.268280236916295 0.3546786441386312 0.6453213558613689 0.035575410172107635 0.9644245898278924 0.8778897799960516 0.12211022000394844 0.668904789833435 0.331095210166565 0.4164963752750187 0.5835036247249813 0.8153997700563027 0.18460022994369726 0.32556558044912515 0.6744344195508749 0.3135914388797957 0.6864085611202043 0.6565305400748349 0.34346945992516514 0.46224276491593697 0.5377572350840629 0.09017228333992094 0.9098277166600791 0.9062885767428245 0.0937114232571755 0.38341044651676087 0.6165895534832392 0.3419229057581576 0.6580770942418424 0.49580753081278545 0.5041924691872145 0.8928625099171277 0.10713749008287235 0.44553480704793186 0.5544651929520681 0.7473317938620426 0.2526682061379574 0.7793864817157842 0.22061351828421583 0.469151754349814 0.530848245650186 0.5231174044688198 0.4768825955311803 0.6568523180561686 0.34314768194383144 0.3809313426509187 0.6190686573490812 0.660913918493917 0.339086081506083 0.3986024253449704 0.6013975746550296 0.8077944618242863 0.19220553817571376 0.31445904672437336 0.6855409532756267 0.12578390647335483 0.8742160935266452 0.48415079283836415 0.5158492071616358 0.3657921799737623 0.6342078200262378 </TABLE>
    </DEFINITION>
    <DEFINITION>
      <FOR>13</FOR>
      <GIVEN>9</GIVEN>
      <GIVEN>11</GIVEN>
      <GIVEN>5</GIVEN>
      <GIVEN>12</GIVEN>
      <GIVEN>6</GIVEN>
      <GIVEN>3</GIVEN>
      <TABLE>0.9983245441182929 0.0016754558817071263 0.482990988814968 0.5170090111850321 0.45511538298805904 0.544884617011941 0.9549568471198505 0.045043152880149456 0.30296038817784343 0.6970396118221567 0.05947959259564802 0.9405204074043519 0.18376249550786855 0.8162375044921315 0.3426142195444702 0.6573857804555298 0.8057293110017435 0.19427068899825647 0.5984999517984834 0.4015000482015166 0.2817639800793866 0.7182360199206135 0.062481613215553455 0.9375183867844465 0.29404506427687566 0.7059549357231243 0.38563373089504427 0.6143662691049558 0.3911841133809727 0.6088158866190273 0.08029476176012752 0.9197052382398725 0.8128420497790285 0.18715795022097145 0.5388230648923666 0.46117693510763336 0.7759380094347706 0.22406199056522938 0.6545619860676035 0.3454380139323965 0.9259721628049874 0.07402783719501264 0.7553796244676045 0.24462037553239552 0.4279767615691625 0.5720232384308375 0.4445319319624068 0.5554680680375932 0.35718957249250394 0.6428104275074961 0.22548390059819504 0.774516099401805 0.3294690674888517 0.6705309325111483 0.059876349410429526 0.9401236505895705 0.6107726392323815 0.38922736076761844 0.25305422628784224 0.7469457737121578 0.48656798906973436 0.5134320109302657 0.40649293539887893 0.593507064601121 0.05214232679066536 0.9478576732093347 0.14715480137736944 0.8528451986226305 0.4910239879497058 0.5089760120502943 0.0038636914374054125 0.9961363085625946 0.7500350562637258 0.24996494373627418 0.4931727553699172 0.5068272446300828 0.3972216397307593 0.6027783602692407 0.3743931333743265 0.6256068666256736 0.6856659330313172 0.3143340669686827 0.574342786141068 0.4256572138589321 0.7805583548075442 0.2194416451924559 0.7867983963454991 0.21320160365450092 0.4785968894494853 0.5214031105505146 0.4744366308871695 0.5255633691128304 0.6471394935009924 0.3528605064990075 0.823167616394066 0.17683238360593406 0.27975742872088366 0.7202425712791163 0.5262829300726324 0.47371706992736756 0.048118317839585596 0.9518816821604144 0.6823586549107342 0.3176413450892657 0.15490778210479564 0.8450922178952044 0.9458980478972002 0.05410195210279976 0.904665212995959 0.09533478700404097 0.4326924758716302 0.5673075241283698 0.6007037347208675 0.3992962652791325 0.4016577829776646 0.5983422170223355 0.5768039187403253 0.42319608125967473 0.5645834153555715 0.43541658464442845 0.24161918722810605 0.7583808127718938 0.8514481508728678 0.14855184912713215 0.3611990688842287 0.6388009311157713 0.6220306625384052 0.3779693374615948 </TABLE>
    </DEFINITION>
    <DEFINITION>
      <FOR>14</FOR>
      <GIVEN>0</GIVEN>
      <GIVEN>4</GIVEN>
      <GIVEN>9</GIVEN>
      <GIVEN>11</GIVEN>
      <GIVEN>2</GIVEN>
      <TABLE>0.7018103710391124 0.2981896289608877 0.001804192826368116 0.9981958071736319 0.6503116203683985 0.34968837963160143 0.8444728594776582 0.15552714052234193 0.30774719495710073 0.6922528050428992 0.5992494201406966 0.40075057985930346 0.20422034545792264 0.7957796545420773 0.6209985537500023 0.3790014462499976 0.5452627007213058 0.4547372992786941 0.6765275750641231 0.3234724249358769 0.31393825538345027 0.6860617446165497 0.7195051766688155 0.2804948233311844 0.7582410083705022 0.24175899162949774 0.6261111190593733 0.3738888809406266 0.47116542138414036 0.5288345786158597 0.5314958428446676 0.46850415715533245 0.6933193289886429 0.3066806710113571 0.6282917235567331 0.3717082764432669 0.4755918995536495 0.5244081004463506 0.1708776791325096 0.8291223208674904 0.40034058924904475 0.5996594107509553 0.5087522963075575 0.4912477036924424 0.17448750113634862 0.8255124988636514 0.6377551342486839 0.36224486575131604 0.25531511695085984 0.7446848830491402 0.918060345227818 0.08193965477218212 0.07214513388284008 0.9278548661171598 0.5063781532447115 0.4936218467552886 0.8625965340255871 0.13740346597441289 0.9845221072944198 0.015477892705580216 0.17873020406082732 0.8212697959391727 0.19650032180974697 0.803499678190253 </TABLE>
    </DEFINITION>
    <DEFINITION>
      <FOR>15</FOR>
      <GIVEN>1</GIVEN>
      <GIVEN>4</GIVEN>
      <GIVEN>11</GIVEN>
      <GIVEN>14</GIVEN>
      <GIVEN>5</GIVEN>
      <GIVEN>8</GIVEN>
      <GIVEN>10</GIVEN>
      <GIVEN>12</GIVEN>
      <GIVEN>13</GIVEN>
      <GIVEN>6</GIVEN>
      <GIVEN>3</GIVEN>
      <GIVEN>7</GIVEN>
      <TABLE>0.7548019008937259 0.24519809910627405 0.22676231887309958 0.7732376811269005 0.5058266235981376 0.4941733764018625 0.5009703309322507 0.4990296690677493 0.6545825745777852 0.3454174254222148 0.018258274794023435 0.9817417252059766 0.09169494446472717 0.9083050555352729 0.709229713247156 0.29077028675284394 0.20270443913416927 0.7972955608658309 0.5951951618809136 0.40480483811908635 0.1274316536021426 0.8725683463978574 0.6897039574903893 0.3102960425096108 0.2601734173920169 0.7398265826079831 0.5230134265099454 0.4769865734900546 0.5057555776582924 0.4942444223417076 0.8210073304487799 0.17899266955122006 0.09115190134453956 0.9088480986554606 0.4349993321367993 0.5650006678632007 0.41523623219686856 0.5847637678031314 0.6443774122293777 0.3556225877706223 0.3904133316836077 0.6095866683163923 0.7308184111884569 0.2691815888115431 0.9183273605674168 0.08167263943258314 0.45856408174670504 0.541435918253295 0.14631322940521296 0.853686770594787 0.4733450770834657 0.5266549229165343 0.10868642360738343 0.8913135763926165 0.5397678959026391 0.460232104097361 0.9606685892477981 0.03933141075220194 0.5631774523130683 0.43682254768693174 0.6133661533273768 0.38663384667262324 0.534161086441653 0.465838913558347 0.11523757157656526 0.8847624284234348 0.4366405308910446 0.5633594691089554 0.6938530741585396 0.30614692584146036 0.42770363289430136 0.5722963671056986 0.3463368127212704 0.6536631872787295 0.4729629282112757 0.5270370717887242 0.78809125809971 0.2119087419002899 0.6912442602982054 0.3087557397017946 0.6426685952259864 0.35733140477401365 0.10891716455165515 0.8910828354483449 0.5646201201474408 0.4353798798525592 0.5385347482256236 0.4614652517743765 0.9721531655888971 0.027846834411102906 0.0046063650276945535 0.9953936349723055 0.2639704416847321 0.736029558315268 0.5529189415481833 0.44708105845181667 0.3808363650057416 0.6191636349942584 0.6374047744142061 0.362595225585794 0.5066066204024858 0.4933933795975141 0.3689187897915521 0.6310812102084479 0.703493453002193 0.29650654699780693 0.4021204396720396 0.5978795603279604 0.5060850583831021 0.4939149416168979 0.8656784812765337 0.13432151872346618 0.7323142415332646 0.2676857584667354 0.21488132119904768 0.7851186788009523 0.46468750227973254 0.5353124977202675 0.5296735349083164 0.4703264650916837 0.46780513200022794 0.5321948679997721 0.8937871550106632 0.10621284498933685 0.4742318968784546 0.5257681031215454 0.7418852028032571 0.258114797196743 0.48953969767057287 0.5104603023294272 0.45641309294651994 0.54358690705348 0.588805033335527 0.411194966664473 0.6947397897698582 0.3052602102301418 0.5398254486038228 0.46017455139617724 0.35947679083917566 0.6405232091608243 0.30732773270827785 0.692672267291722 0.6436436070526158 0.35635639294738414 0.7943843404376161 0.20561565956238392 0.4914361178862336 0.5085638821137664 0.8108718209691912 0.18912817903080875 0.8513103138469983 0.14868968615300168 0.7206269184995643 0.2793730815004357 0.33257368473520027 0.6674263152647998 0.5616644380204675 0.4383355619795325 0.18383194864937655 0.8161680513506234 0.3202940443012992 0.6797059556987008 0.6119809158149923 0.3880190841850077 0.19055248811044817 0.8094475118895519 0.25572557057769224 0.7442744294223077 0.7533123527449649 0.24668764725503506 0.4243897953300039 0.575610204669996 0.3527781458361772 0.6472218541638229 0.694944836898855 0.30505516310114494 0.589156709537594 0.410843290462406 0.15874291802062482 0.8412570819793752 0.2783358928671324 0.7216641071328675 0.21383443610284583 0.7861655638971542 0.6587050167382777 0.3412949832617222 0.18576588106152928 0.8142341189384706 0.5897575002324852 0.4102424997675148 0.2934145184637999 0.7065854815362 0.15912848373172397 0.840871516268276 0.5780125254483007 0.4219874745516993 0.5945377516113309 0.40546224838866907 0.5095334488613065 0.4904665511386935 0.33150009884051007 0.66849990115949 0.5590531435166823 0.4409468564833176 0.5283016031984926 0.4716983968015074 0.5861673009021685 0.4138326990978315 0.5751916520568001 0.4248083479431998 0.8664388806223067 0.13356111937769335 0.8612134080600191 0.13878659193998089 0.8001984530742242 0.1998015469257757 0.5714457275180347 0.4285542724819654 0.41673889138038117 0.5832611086196188 0.9200267767846209 0.0799732232153791 0.22142052425829678 0.7785794757417033 0.8915295145183818 0.1084704854816182 0.6224844585253221 0.37751554147467786 0.4142498166296938 0.5857501833703063 0.43037903220808876 0.5696209677919113 0.6117250630416436 0.38827493695835635 0.3650986587313577 0.6349013412686424 0.5196307068694135 0.4803692931305867 0.5338834795392613 0.4661165204607388 0.40259806440843665 0.5974019355915634 0.5335059979426084 0.4664940020573915 0.5069561812891272 0.4930438187108726 0.8286171795165902 0.17138282048340986 0.894575427204414 0.10542457279558609 0.4326974409602643 0.5673025590397358 0.3896144222301222 0.6103855777698778 0.5475992190691659 0.4524007809308342 0.8041027623503773 0.1958972376496228 0.4021765932898367 0.5978234067101633 0.3559114756727665 0.6440885243272334 0.6922680061181878 0.3077319938818121 0.3999612011879072 0.6000387988120929 0.2267684750885028 0.7732315249114972 0.38759317407172056 0.6124068259282794 0.0753350907966477 0.9246649092033522 0.6001599468458532 0.39984005315414684 0.7721920315823162 0.2278079684176837 0.6567762575047402 0.34322374249525966 0.27486052695990293 0.7251394730400971 0.6547414448121811 0.34525855518781895 0.23139587430199918 0.7686041256980009 0.6647897422704548 0.3352102577295451 0.5295063657853554 0.4704936342146446 0.4175801235311382 0.5824198764688617 0.3521942529771215 0.6478057470228785 0.7651485517104316 0.23485144828956833 0.7763551611309089 0.22364483886909114 0.6001034644912002 0.3998965355087999 0.5169430558786667 0.4830569441213333 0.0677011386597959 0.9322988613402041 0.3930508915648521 0.6069491084351479 0.03204222800557308 0.9679577719944269 0.8048083249068168 0.19519167509318325 0.21937259602145412 0.780627403978546 0.8438622563091199 0.15613774369088013 0.6399825443747623 0.3600174556252376 0.10839725135593713 0.8916027486440629 0.59456439443656 0.40543560556344 0.16818939047726314 0.8318106095227369 0.5157227029344164 0.4842772970655837 0.20595798402792673 0.7940420159720734 0.6387420780638794 0.36125792193612055 0.7590291715483705 0.24097082845162945 0.5156979345784395 0.48430206542156057 0.7817262321738496 0.21827376782615035 0.5721479502848874 0.4278520497151127 0.5075058128177772 0.49249418718222276 0.7258186316189376 0.2741813683810624 0.7094090811691461 0.29059091883085386 0.37179146402723917 0.6282085359727609 0.398221412802022 0.601778587197978 0.6153808046950282 0.3846191953049718 0.8170739804970407 0.18292601950295928 0.6918106136650418 0.3081893863349582 0.3456580750323385 0.6543419249676615 0.5560994231131545 0.4439005768868454 0.28978349466663406 0.710216505333366 0.43270751974827204 0.567292480251728 0.4322691610428533 0.5677308389571467 0.6997548941591695 0.3002451058408304 0.4010348967996959 0.598965103200304 0.6885803909085443 0.3114196090914558 0.6520666528505914 0.3479333471494085 0.7418168852903475 0.25818311470965255 0.3676921916026871 0.6323078083973128 0.10509541087811901 0.894904589121881 0.3388633795258803 0.6611366204741197 0.46121155315459333 0.5387884468454066 0.07878457216659827 0.9212154278334017 0.34200110811979556 0.6579988918802044 0.1353635948579097 0.8646364051420904 0.48074331126429565 0.5192566887357044 0.07123136592106387 0.9287686340789362 0.22653895265885907 0.773461047341141 0.47521177710708995 0.5247882228929102 0.77813832685878 0.2218616731412199 0.5015459355856966 0.4984540644143034 0.6283982532195606 0.3716017467804394 0.12087336060513854 0.8791266393948615 0.7867757014715108 0.21322429852848912 0.4896485738699834 0.5103514261300167 0.33266462044832373 0.6673353795516763 0.7203780495815797 0.27962195041842036 0.6208320329000397 0.37916796709996026 0.4415636015622159 0.558436398437784 0.6938085214420205 0.30619147855797935 0.8020464461653607 0.19795355383463928 0.6539409175778069 0.34605908242219313 0.6944388750290348 0.30556112497096527 0.13626467270767056 0.8637353272923294 0.2589442535548107 0.7410557464451892 0.43942524877687816 0.560574751223122 0.45658666193575925 0.5434133380642407 0.38806323379736785 0.6119367662026322 0.49823743181349517 0.501762568186505 0.6070219024113807 0.39297809758861946 0.3960279585008776 0.6039720414991224 0.35283994131868684 0.6471600586813131 0.5321073612153637 0.46789263878463627 0.3939077511876161 0.6060922488123839 0.7683251762083902 0.23167482379160972 0.49288478112553735 0.5071152188744626 0.5539916041298606 0.4460083958701394 0.5020021692992508 0.4979978307007492 0.6334969373667017 0.36650306263329835 0.10742375863970824 0.8925762413602918 0.410899022761788 0.589100977238212 0.37465591098154427 0.6253440890184557 0.28128493424490697 0.718715065755093 0.42927980627633017 0.5707201937236699 0.30841867835268705 0.6915813216473129 0.9202283117921768 0.07977168820782318 0.7101387146202333 0.2898612853797668 0.9247285020793828 0.07527149792061716 0.27961107843925354 0.7203889215607464 0.4044625375705465 0.5955374624294536 0.37486738962274985 0.6251326103772502 0.07209850321840053 0.9279014967815995 0.6474899956222175 0.3525100043777825 0.5886894644595874 0.4113105355404127 0.078791247791977 0.921208752208023 0.4867137322589235 0.5132862677410766 0.8220168719209026 0.17798312807909739 0.25446728874350033 0.7455327112564998 0.9794468601527624 0.020553139847237566 0.4086859156217196 0.5913140843782805 0.6630212617091871 0.33697873829081304 0.40135607667053236 0.5986439233294676 0.5883121354451066 0.41168786455489326 0.7098084208128295 0.29019157918717053 0.857902815090519 0.142097184909481 0.2782980293625846 0.7217019706374154 0.2506965783316956 0.7493034216683043 0.3402442856978228 0.6597557143021773 0.35003517995680405 0.649964820043196 0.8251574964444807 0.17484250355551928 0.46664454589711124 0.5333554541028888 0.15031237236160722 0.8496876276383928 0.6798165175322417 0.32018348246775824 0.10340332763520864 0.8965966723647913 0.52549766488512 0.47450233511488005 0.5937001810148409 0.40629981898515904 0.8963784878858392 0.10362151211416087 0.17302730270165187 0.8269726972983481 0.6757425353106364 0.3242574646893636 0.5895513453618163 0.41044865463818353 0.596219886692876 0.4037801133071241 0.43831814877210923 0.5616818512278907 0.9612689264215326 0.038731073578467334 0.7851218730091356 0.21487812699086442 0.4122346891483391 0.5877653108516608 0.8672591340304153 0.13274086596958465 0.6192115903619476 0.3807884096380522 0.7013036738419943 0.2986963261580057 0.6145219245858459 0.385478075414154 0.5488243784757529 0.45117562152424706 0.9095088259286658 0.0904911740713342 0.7242825316160267 0.27571746838397326 0.5781383584030437 0.42186164159695627 0.49375232830324195 0.506247671696758 0.938349053410255 0.061650946589744966 0.21908502217537643 0.7809149778246236 0.49965744308504967 0.5003425569149503 0.6038472223720618 0.3961527776279382 0.8854410094783387 0.11455899052166132 0.5937735975141806 0.40622640248581937 0.3056984935015541 0.6943015064984458 0.7264563513236427 0.27354364867635733 0.5727317211672538 0.4272682788327462 0.25888587768609295 0.741114122313907 0.20437658538939857 0.7956234146106015 0.7304401021199203 0.2695598978800798 0.5435426788497085 0.45645732115029136 0.3180528769050552 0.6819471230949448 0.5473284122861579 0.452671587713842 0.4268160052917539 0.5731839947082461 0.10823208941754128 0.8917679105824587 0.6296470720590043 0.3703529279409956 0.5623921017848629 0.4376078982151371 0.20408558156448797 0.795914418435512 0.4582843320656285 0.5417156679343714 0.5879839624518153 0.4120160375481847 0.6619070339998296 0.3380929660001703 0.12097830713104106 0.8790216928689589 0.9005244171398625 0.09947558286013743 0.582718480608514 0.4172815193914859 0.796566975288609 0.203433024711391 0.7505683806712569 0.2494316193287431 0.707536619083286 0.29246338091671403 0.7512983669337333 0.24870163306626672 0.44823957729219266 0.5517604227078073 0.5451535677696163 0.4548464322303837 0.3651254645273668 0.6348745354726332 0.4575020810254723 0.5424979189745277 0.04159438933496032 0.9584056106650397 0.08551268507124257 0.9144873149287573 0.4506035162931033 0.5493964837068968 0.7871692361413178 0.21283076385868216 0.5206085225527957 0.4793914774472043 0.39850054078425856 0.6014994592157414 0.7412238735995025 0.2587761264004976 0.7408566753531781 0.2591433246468218 0.6464273662590785 0.35357263374092146 0.4412748586213261 0.558725141378674 0.3211652601471367 0.6788347398528632 0.5981876898689948 0.40181231013100516 0.5500886007265658 0.44991139927343426 0.423475163561795 0.5765248364382051 0.30502958982312356 0.6949704101768764 0.6350238661709631 0.3649761338290368 0.45205191451407817 0.5479480854859219 0.7348037920430193 0.2651962079569806 0.3748244979266477 0.6251755020733523 0.43508225567857317 0.5649177443214268 0.5267495905545444 0.47325040944545566 0.39325330513591444 0.6067466948640855 0.2572814717908592 0.7427185282091409 0.20936873578064172 0.7906312642193584 0.2947009004556503 0.7052990995443497 0.720085066690042 0.27991493330995804 0.43432573931621815 0.5656742606837818 0.5783012035387337 0.42169879646126635 0.3809399036320046 0.6190600963679954 0.5407303051475326 0.4592696948524673 0.5186889282569994 0.48131107174300053 0.6178262819788521 0.3821737180211479 0.6437871542502875 0.35621284574971246 0.4968459415787146 0.5031540584212854 0.057786388211789594 0.9422136117882104 0.10749210178946302 0.892507898210537 0.48601545147922254 0.5139845485207775 0.4738553251693861 0.5261446748306138 0.3104691111794573 0.6895308888205427 0.44606908055640976 0.5539309194435902 0.6144239385733324 0.38557606142666756 0.26125842218827844 0.7387415778117217 0.5036282739532518 0.4963717260467482 0.6886614400499224 0.31133855995007764 0.6863509734921819 0.3136490265078181 0.7839463879711353 0.21605361202886478 0.36175068787312625 0.6382493121268737 0.3550294343670638 0.6449705656329362 0.5101029651439479 0.48989703485605207 0.4414016373169955 0.5585983626830046 0.32543543757307325 0.6745645624269268 0.8903943317427097 0.10960566825729035 0.26437435508431306 0.7356256449156868 0.4194725335045206 0.5805274664954794 0.7941656156216993 0.20583438437830065 0.8064001523564976 0.19359984764350233 0.9714982738480087 0.028501726151991362 0.5513070672484004 0.44869293275159955 0.47824465564226837 0.5217553443577316 0.2625259363136921 0.7374740636863079 0.3170081846799088 0.6829918153200912 0.7682526321119878 0.2317473678880122 0.5546005258171589 0.4453994741828409 0.667485515429862 0.332514484570138 0.2949203003796187 0.7050796996203812 0.501850885351085 0.49814911464891504 0.3862344926359449 0.6137655073640551 0.8300734033187354 0.16992659668126467 0.547128822221676 0.452871177778324 0.442416900764487 0.557583099235513 0.5801821127428661 0.4198178872571338 0.27064330328957903 0.729356696710421 0.8838904923253029 0.11610950767469705 0.2069585880898653 0.7930414119101347 0.8410513394684082 0.1589486605315918 0.5424815099846547 0.4575184900153453 0.4465992451372499 0.5534007548627501 0.5009665117609716 0.4990334882390284 0.8505257076531599 0.14947429234684007 0.1969356889221262 0.8030643110778738 0.4556844766474324 0.5443155233525677 0.5230522295554861 0.4769477704445139 0.026809334526392586 0.9731906654736074 0.6795366892389194 0.32046331076108064 0.4269956409130498 0.5730043590869502 0.5816411942056081 0.41835880579439194 0.45272739247769833 0.5472726075223018 0.4869886416788266 0.5130113583211733 0.1735146204404055 0.8264853795595946 0.4965662855306265 0.5034337144693736 0.591185671149527 0.40881432885047303 0.7665059130436781 0.23349408695632193 0.5358175878222934 0.4641824121777067 0.11843886120005115 0.8815611387999489 0.6249723484341535 0.37502765156584655 0.1693646161790322 0.8306353838209678 0.7432712778847494 0.2567287221152506 0.1890266034692631 0.8109733965307369 0.6904858020165676 0.3095141979834324 0.2967831303378948 0.7032168696621052 0.696830834863163 0.30316916513683695 0.1053397882398876 0.8946602117601123 0.2618319362082297 0.7381680637917702 0.07788000063262518 0.9221199993673748 0.7819167854990312 0.21808321450096876 0.47071088570794734 0.5292891142920526 0.9658525640079497 0.03414743599205032 0.25268489507690994 0.7473151049230901 0.16335359440017627 0.8366464055998237 0.1382843363574799 0.8617156636425202 0.0514288942900411 0.948571105709959 0.6954867643842384 0.3045132356157616 0.9368564192417844 0.06314358075821554 0.626200601903698 0.373799398096302 0.2457436699258482 0.7542563300741518 0.6558866713552731 0.34411332864472693 0.3041186716138214 0.6958813283861786 0.47139977512045955 0.5286002248795404 0.6206465061573586 0.3793534938426414 0.876358529901772 0.12364147009822805 0.3254687893744642 0.6745312106255358 0.7605558067836902 0.23944419321630983 0.07352780882021451 0.9264721911797855 0.432535329747799 0.5674646702522009 0.6976743769444919 0.30232562305550825 0.6833647557957954 0.3166352442042047 0.7616330038895065 0.23836699611049356 0.15733744695787463 0.8426625530421255 0.47899726070107934 0.5210027392989206 0.8037892270438503 0.19621077295614972 0.8651174337661695 0.13488256623383044 0.04639191426635676 0.9536080857336433 0.9515366180653068 0.04846338193469328 0.10107606658810263 0.8989239334118974 0.4709287214667778 0.5290712785332222 0.20003264239551127 0.7999673576044887 0.06913125169704742 0.9308687483029526 0.3910162504925399 0.60898374950746 0.5372428996599591 0.46275710034004086 0.5646859622576201 0.4353140377423798 0.6779963114714161 0.3220036885285839 0.5719157476138427 0.42808425238615727 0.37729845523328165 0.6227015447667182 0.48556565809907987 0.5144343419009201 0.8409882511927321 0.1590117488072679 0.4963141793052852 0.5036858206947148 0.547962262847452 0.452037737152548 0.08899087073323533 0.9110091292667647 0.20021907355978558 0.7997809264402145 0.4793083571500348 0.5206916428499652 0.34064857421573114 0.6593514257842688 0.11599546435978388 0.8840045356402161 0.4040359719124506 0.5959640280875493 0.03759363700011589 0.9624063629998842 0.47904350219992015 0.5209564978000799 0.4784408324151153 0.5215591675848846 0.3020285813491905 0.6979714186508096 0.5747469233118825 0.42525307668811757 0.6776584005764309 0.3223415994235691 0.19265509018873944 0.8073449098112606 0.561722049648228 0.4382779503517721 0.4812076271765961 0.518792372823404 0.47991165732171065 0.5200883426782893 0.983135430296563 0.01686456970343702 0.4601203825665232 0.5398796174334768 0.5617090139668014 0.43829098603319855 0.16048266052240479 0.8395173394775952 0.11130299672061528 0.8886970032793847 0.7085070671429985 0.2914929328570015 0.31951298319148014 0.6804870168085199 0.7790171483244097 0.22098285167559026 0.42915496830854105 0.5708450316914591 0.5198159541384281 0.48018404586157204 0.19917146941380645 0.8008285305861935 0.11442968241160971 0.8855703175883903 0.8535121299273772 0.1464878700726227 0.6937652780504567 0.3062347219495434 0.5137804335303126 0.4862195664696875 0.32655210650875743 0.6734478934912426 0.7318465251717841 0.268153474828216 0.9575953138890159 0.04240468611098413 0.48937052018994137 0.5106294798100586 0.7027901291734868 0.2972098708265132 0.48533448044658395 0.5146655195534161 0.45913906680872135 0.5408609331912787 0.5722461164450267 0.4277538835549734 0.5365005447729022 0.4634994552270978 0.06828757093304788 0.9317124290669522 0.8074424391304117 0.19255756086958825 0.6213196847958865 0.37868031520411344 0.47746647582223356 0.5225335241777664 0.40009504884172675 0.5999049511582732 0.3660877793677412 0.6339122206322588 0.7557990647063728 0.24420093529362719 0.008795687009931889 0.9912043129900681 0.4324520664879685 0.5675479335120315 0.6571066890797781 0.3428933109202219 0.3793355836591283 0.6206644163408717 0.3417962342196874 0.6582037657803126 0.11117739102835042 0.8888226089716496 0.915321769844615 0.08467823015538502 0.9081178494480179 0.09188215055198212 0.3666200370616699 0.63337996293833 0.3125262989013 0.6874737010987 0.33860634019105873 0.6613936598089413 0.5692652684528087 0.43073473154719133 0.8714581657426428 0.1285418342573572 0.12568936161882685 0.8743106383811732 0.5891469156769598 0.4108530843230402 0.0533961686615739 0.9466038313384261 0.5713623529166897 0.42863764708331037 0.4336750784499743 0.5663249215500257 0.514988967076939 0.485011032923061 0.6774703958393121 0.3225296041606879 0.5635519440820086 0.4364480559179914 0.5646044159725818 0.4353955840274182 0.6786993950058586 0.32130060499414137 0.9434592611126736 0.05654073888732638 0.4785526007443692 0.5214473992556308 0.7829648701090679 0.21703512989093207 0.661993940703946 0.3380060592960538 0.2072070302969964 0.7927929697030036 0.417018182583372 0.5829818174166279 0.5689339129707104 0.4310660870292896 0.6759684714901656 0.32403152850983447 0.4553045745764822 0.5446954254235178 0.41968156331072726 0.5803184366892727 0.4083482741650531 0.5916517258349469 0.26457978688502326 0.7354202131149767 0.6613425826324881 0.3386574173675118 0.5865155390615645 0.4134844609384355 0.33656570246176326 0.6634342975382368 0.5437058684521469 0.45629413154785325 0.940107177787099 0.05989282221290108 0.9213454356661981 0.07865456433380177 0.5669823376776006 0.43301766232239935 0.6999180616147314 0.30008193838526864 0.2697634391474741 0.730236560852526 0.28735583931815495 0.7126441606818451 0.6266616930412413 0.3733383069587588 0.6827058369998835 0.31729416300011637 0.31192318219726284 0.6880768178027371 0.38689181254612204 0.6131081874538779 0.5759554673067431 0.4240445326932569 0.5016577898760484 0.4983422101239516 0.43129851622171794 0.5687014837782822 0.3722275876414246 0.6277724123585753 0.46312928318628266 0.5368707168137175 0.7381941646116262 0.2618058353883737 0.5624924445066598 0.43750755549334014 0.8685865150359174 0.13141348496408256 0.20710109349773992 0.79289890650226 0.15768053538478954 0.8423194646152105 0.0020872295554568774 0.9979127704445431 0.5255200463736507 0.47447995362634937 0.7486049575556324 0.2513950424443676 0.6046521656574222 0.3953478343425778 0.7679976266057321 0.23200237339426794 0.6802119522934664 0.31978804770653363 0.022617017410691876 0.9773829825893081 0.42651817215009497 0.5734818278499051 0.4502042068418854 0.5497957931581146 0.50937224787522 0.49062775212478 0.8916716344930025 0.10832836550699752 0.13000632567105572 0.8699936743289443 0.5038471796092167 0.4961528203907833 0.7159760593024672 0.2840239406975327 0.9495133241955268 0.05048667580447323 0.7927766539964753 0.2072233460035247 0.2610108427642034 0.7389891572357965 0.9353105710028553 0.06468942899714475 0.3842851115068467 0.6157148884931533 0.42298035667390227 0.5770196433260977 0.5975119758399098 0.4024880241600903 0.05123369789686541 0.9487663021031346 0.5153701862575025 0.4846298137424974 0.1861610875080074 0.8138389124919926 0.3067302826999253 0.6932697173000747 0.573614611520754 0.42638538847924595 0.23950651326217207 0.7604934867378279 0.2932353840383533 0.7067646159616466 0.5079093270807641 0.49209067291923597 0.5108170854093358 0.48918291459066415 0.15449951487338698 0.8455004851266131 0.4028779596161663 0.5971220403838338 0.2712471914567724 0.7287528085432277 0.4053560019482135 0.5946439980517865 0.05702335695269992 0.9429766430473001 0.5903943392262062 0.40960566077379384 0.36818963585319825 0.6318103641468017 0.685716833933644 0.3142831660663558 0.19827921030422407 0.8017207896957759 0.01784033538621842 0.9821596646137816 0.5386947357417694 0.4613052642582307 0.19343654422879916 0.8065634557712009 0.28553961846152914 0.7144603815384708 0.7234055437004743 0.2765944562995257 0.8603524189335091 0.1396475810664908 0.12820760812932824 0.8717923918706717 0.9609232121743781 0.03907678782562185 0.062031281183031806 0.9379687188169683 0.30203644023967263 0.6979635597603274 0.6036221194859459 0.396377880514054 0.8703835159669482 0.12961648403305182 0.5240649941507263 0.4759350058492738 0.8660154943161026 0.1339845056838974 0.4999893447157859 0.5000106552842141 0.8138994226506372 0.18610057734936286 0.6831570172152226 0.3168429827847774 0.38640041432409084 0.6135995856759092 0.6693218462693642 0.33067815373063586 0.030831201730109198 0.9691687982698908 0.28614192602451677 0.7138580739754833 0.5035951188760248 0.4964048811239751 0.45004265593675774 0.5499573440632423 0.030121243578863945 0.9698787564211361 0.33442716905259795 0.665572830947402 0.6806507535844071 0.3193492464155929 0.7979250642077352 0.20207493579226476 0.7804551664702174 0.2195448335297826 0.6191525543175949 0.38084744568240514 0.3988091637733715 0.6011908362266284 0.6579600538757993 0.3420399461242008 0.7309258328901933 0.2690741671098067 0.24931748351018768 0.7506825164898123 0.5588476143566468 0.44115238564335335 0.03456778144232738 0.9654322185576726 0.05923493475732344 0.9407650652426766 0.5021135010997222 0.49788649890027786 0.7758833729019164 0.22411662709808364 0.887639350791517 0.11236064920848293 0.9020944411633376 0.09790555883666245 0.42983869076030806 0.5701613092396919 0.6430974561105721 0.3569025438894279 0.982175030767475 0.017824969232525 0.2687957074796863 0.7312042925203136 0.5597456608792195 0.4402543391207805 0.2793293155321003 0.7206706844678997 0.5236088795477639 0.47639112045223597 0.6452789504530505 0.3547210495469495 0.4080101297053744 0.5919898702946256 0.670559536346402 0.3294404636535981 0.6213361696862163 0.37866383031378364 0.7985068211232352 0.20149317887676474 0.3124680382512759 0.6875319617487242 0.7792106491050503 0.22078935089494967 0.13408029729006724 0.8659197027099329 0.32468607007003003 0.67531392992997 0.9887407679726472 0.011259232027352786 0.4775774674953353 0.5224225325046646 0.5025831912234381 0.49741680877656197 0.39089157206878744 0.6091084279312126 0.6709014007310505 0.32909859926894935 0.2516061885589552 0.7483938114410448 0.5319302318451121 0.4680697681548879 0.5265451198995208 0.4734548801004792 0.429121562294413 0.570878437705587 0.6676807871020783 0.33231921289792177 0.7906723872092203 0.20932761279077974 0.16962389476648407 0.8303761052335159 0.014533256320759464 0.9854667436792406 0.3805753672496858 0.6194246327503141 0.3931477148007889 0.606852285199211 0.11306581885356137 0.8869341811464386 0.5699779095674945 0.43002209043250555 0.0608964694958315 0.9391035305041685 0.11517551262179539 0.8848244873782046 0.6797828781540679 0.3202171218459321 0.3694406538197019 0.630559346180298 0.7956108526015031 0.20438914739849692 0.7204028315926413 0.27959716840735865 0.6945937088319949 0.30540629116800516 0.5850863349361268 0.41491366506387317 0.4699449209191274 0.5300550790808727 0.18351487782930065 0.8164851221706992 0.4815542966321724 0.5184457033678276 0.46548037555824695 0.534519624441753 0.5946642333007244 0.40533576669927557 0.3778639614842295 0.6221360385157705 0.18595251518276243 0.8140474848172375 0.8473445500327896 0.15265544996721037 0.5330586073408073 0.46694139265919266 0.641073155142479 0.35892684485752097 0.3503111104610137 0.6496888895389863 0.04234491124238657 0.9576550887576134 0.33071230439223076 0.6692876956077692 0.6558172075758943 0.3441827924241057 0.6023436343207887 0.3976563656792113 0.191746185024579 0.8082538149754211 0.3441692586087592 0.6558307413912408 0.6159757423544382 0.3840242576455618 0.9067543816190281 0.09324561838097191 0.3065359954064081 0.6934640045935919 0.41375963202766014 0.5862403679723398 0.9458437530865987 0.05415624691340128 0.4423894090804428 0.5576105909195572 0.7559359291048174 0.24406407089518253 0.1048280998431899 0.8951719001568101 0.7432252179142098 0.25677478208579024 0.6174467409726123 0.38255325902738757 0.3152086488611206 0.6847913511388793 0.7899646567994127 0.21003534320058728 0.8491390907425416 0.1508609092574584 0.7574733588258429 0.24252664117415718 0.7536944427285583 0.24630555727144166 0.9206721741615731 0.07932782583842694 0.33993028491529903 0.660069715084701 0.3119790987671541 0.688020901232846 0.24486662239038579 0.7551333776096142 0.47464707453003185 0.5253529254699681 0.7467018319018256 0.25329816809817435 0.9176315666954424 0.08236843330455759 0.960340572250155 0.03965942774984497 0.44437481311306537 0.5556251868869346 0.2878132577825023 0.7121867422174977 0.5971104398936864 0.4028895601063137 0.5473685069772186 0.45263149302278144 0.3330299692018632 0.6669700307981368 0.467193241845769 0.5328067581542311 0.8238303602859377 0.1761696397140622 0.7044306079636632 0.29556939203633675 0.029876246655095154 0.9701237533449049 0.5364381006383625 0.4635618993616374 0.9645935004300876 0.03540649956991232 0.07302445170484652 0.9269755482951535 0.9523020892077697 0.04769791079223031 0.42876342965982417 0.5712365703401757 0.5233902922569899 0.47660970774301015 0.5022402439795374 0.4977597560204627 0.48275702828400396 0.5172429717159961 0.11997756180389603 0.8800224381961039 0.5866623890313392 0.4133376109686608 0.01458916295742159 0.9854108370425784 0.9336097826114887 0.06639021738851128 0.4904027575720742 0.5095972424279259 0.5000110710738455 0.4999889289261545 0.42190098087572336 0.5780990191242766 0.03895683048172835 0.9610431695182716 0.5003258088962308 0.49967419110376926 0.5176949368169868 0.4823050631830132 0.5910486469858047 0.4089513530141953 0.15357167954487771 0.8464283204551223 0.8071208820162902 0.19287911798370977 0.6166623154176135 0.38333768458238643 0.9755535787398893 0.024446421260110613 0.5556453730760954 0.4443546269239046 0.6016867696916393 0.3983132303083607 0.9806543480533408 0.01934565194665905 0.6460877601858473 0.35391223981415254 0.508950592413141 0.49104940758685894 0.5834422366104068 0.41655776338959327 0.868750975458582 0.1312490245414179 0.5927084754994307 0.4072915245005693 0.28953208246837264 0.7104679175316273 0.5431138966032036 0.4568861033967963 0.33208842393181115 0.6679115760681889 0.08274614758411862 0.9172538524158813 0.721713843922945 0.2782861560770549 0.19009207207991674 0.8099079279200833 0.8241567097090471 0.17584329029095294 0.27377064092308606 0.7262293590769139 0.464380134723279 0.535619865276721 0.2059041852860537 0.7940958147139463 0.18406431232168466 0.8159356876783154 0.6864248580083678 0.31357514199163217 0.7067604962613996 0.2932395037386004 0.7570036719103631 0.24299632808963692 0.5278632144503564 0.4721367855496436 0.4024774782620116 0.5975225217379885 0.05194157101599467 0.9480584289840053 0.26123624541207996 0.7387637545879201 0.8740652267985437 0.12593477320145627 0.4504287478659452 0.5495712521340548 0.8895831142348634 0.11041688576513663 0.2968079916004355 0.7031920083995645 0.8350261786430776 0.1649738213569224 0.6354025662449716 0.3645974337550285 0.7907331776028864 0.2092668223971136 0.833194652056469 0.16680534794353097 0.6238920645343001 0.37610793546569987 0.5127026599911743 0.48729734000882574 0.6019572292105464 0.3980427707894536 0.46138878112552134 0.5386112188744787 0.8875476125399271 0.11245238746007305 0.3213369785168809 0.6786630214831191 0.985526332863197 0.014473667136802966 0.7251644355008184 0.2748355644991815 0.7871644732662121 0.21283552673378794 0.34320618607709685 0.6567938139229031 0.8008216489822375 0.19917835101776257 0.5469702824195393 0.4530297175804608 0.4024053129013018 0.5975946870986982 0.0989812260736854 0.9010187739263146 0.6664451047022362 0.33355489529776383 0.5659197446630864 0.4340802553369138 0.7447075321228812 0.25529246787711884 0.2740142130851426 0.7259857869148575 0.26964040626591934 0.7303595937340807 0.8631635497158775 0.13683645028412253 0.5877877986193072 0.4122122013806928 0.5605994078052041 0.4394005921947958 0.1773999508811094 0.8226000491188905 0.5678318306471276 0.4321681693528724 0.17128187651773402 0.8287181234822659 0.12633815614115115 0.8736618438588488 0.7268352901807524 0.2731647098192475 0.3781356553783604 0.6218643446216395 0.3339445641702494 0.6660554358297506 0.6605477746126759 0.3394522253873241 0.5640025123543653 0.4359974876456346 0.6691746414325831 0.33082535856741685 0.4438436378408265 0.5561563621591735 0.41004150179716614 0.5899584982028339 0.27656645310332806 0.7234335468966719 0.5536292320967947 0.44637076790320535 0.3854944954506833 0.6145055045493166 0.36420948944358417 0.6357905105564158 0.5206894293501243 0.4793105706498757 0.4644480257561066 0.5355519742438933 0.03831947209065749 0.9616805279093426 0.11180526991432997 0.8881947300856701 0.12869151326674405 0.8713084867332559 0.5216590625248099 0.4783409374751902 0.37558641154168876 0.6244135884583113 0.5540738761358697 0.4459261238641303 0.9514221353712602 0.048577864628739795 0.2320120621983806 0.7679879378016193 0.1083020201577954 0.8916979798422046 0.17994437140132408 0.820055628598676 0.6506750885623738 0.34932491143762634 0.41334359942784404 0.586656400572156 0.26262811291946025 0.7373718870805397 0.20624411659416517 0.7937558834058348 0.1820628440780101 0.8179371559219899 0.6096744936669198 0.39032550633308016 0.9081958685836448 0.0918041314163553 0.9061647775470438 0.09383522245295618 0.02845977344084209 0.971540226559158 0.25771591039695513 0.7422840896030449 0.8754774545943527 0.12452254540564736 0.3571652789170144 0.6428347210829857 0.5415479244061657 0.4584520755938342 0.6197246718892562 0.3802753281107438 0.2955440018505253 0.7044559981494747 0.6811676612101477 0.3188323387898523 0.27685289887535863 0.7231471011246414 0.5806298101205953 0.41937018987940466 0.13295134046015686 0.8670486595398431 0.3529872802639598 0.6470127197360401 0.9512791991674021 0.04872080083259785 0.553535764997145 0.44646423500285504 0.28743324863362196 0.712566751366378 0.7506174409747558 0.24938255902524414 0.492112029459887 0.5078879705401129 0.36775840017013317 0.6322415998298668 0.6171478693365885 0.38285213066341145 0.21045003807855256 0.7895499619214474 0.4801896152331678 0.5198103847668323 0.7053473424126836 0.2946526575873164 0.20760189059785775 0.7923981094021423 0.9663667538854098 0.03363324611459013 0.41042248099779555 0.5895775190022043 0.17770714428180537 0.8222928557181947 0.2545752889594506 0.7454247110405494 0.39127013219744106 0.608729867802559 0.7128067234375213 0.2871932765624788 0.9222254897785127 0.07777451022148729 0.242295919943175 0.757704080056825 0.573459778498264 0.42654022150173593 0.5305326258556461 0.46946737414435386 0.5120425777203261 0.48795742227967387 0.5234773376118057 0.47652266238819435 0.3375877577901957 0.6624122422098043 0.44132559720039954 0.5586744027996005 0.29215003671744993 0.7078499632825501 0.5919407987072759 0.40805920129272405 0.3518746585412005 0.6481253414587995 0.3424190516004373 0.6575809483995627 0.34098244121021 0.6590175587897901 0.3382962134776129 0.6617037865223871 0.03452144468033306 0.965478555319667 0.4784389624239415 0.5215610375760584 0.03259630531109686 0.9674036946889032 0.5234922825076054 0.4765077174923946 0.6750431867891248 0.3249568132108753 0.8725430063536934 0.12745699364630644 0.18854181687385405 0.8114581831261459 0.4630215838266322 0.5369784161733678 0.859708655944711 0.140291344055289 0.011247138311189874 0.9887528616888102 0.5576995122777172 0.44230048772228275 0.6748940993050363 0.32510590069496376 0.5810232461166391 0.4189767538833609 0.25160410760613705 0.748395892393863 0.8784268424486642 0.1215731575513358 0.19216250799288345 0.8078374920071165 0.3186682153862292 0.681331784613771 0.1947774477194466 0.8052225522805534 0.8240590538995857 0.17594094610041433 0.4047380141509625 0.5952619858490374 0.17354273711494592 0.8264572628850541 0.3299841046280857 0.6700158953719143 0.5104851083408156 0.4895148916591843 0.2668930604176078 0.7331069395823923 0.27327595971734536 0.7267240402826547 0.950008952260554 0.049991047739445967 0.21495261282217942 0.7850473871778206 0.34690934990748273 0.6530906500925172 0.3977694465345857 0.6022305534654143 0.24492785921462532 0.7550721407853747 0.7587493537183797 0.24125064628162027 0.5203049394208876 0.4796950605791123 0.18221643597577222 0.8177835640242278 0.6078176985264626 0.39218230147353733 0.5784292771102908 0.42157072288970915 0.4820937667200654 0.5179062332799347 0.6085451909288969 0.39145480907110297 0.5726831571285705 0.4273168428714295 0.489966739500593 0.510033260499407 0.23283187312229195 0.7671681268777081 0.93966660628549 0.060333393714510054 0.3235192041818193 0.6764807958181808 0.7976994024607729 0.20230059753922716 0.332397459262094 0.667602540737906 0.03735754432628578 0.9626424556737142 0.6464615822039526 0.35353841779604755 0.2960148992945623 0.7039851007054376 0.9608457932106437 0.03915420678935633 0.07316054049051246 0.9268394595094875 0.3900303089863246 0.6099696910136754 0.47521791983054074 0.5247820801694593 0.5032177081220969 0.4967822918779032 0.41771535616010236 0.5822846438398975 0.2526871569359908 0.7473128430640092 0.7741342390703565 0.22586576092964342 0.5546170974920291 0.4453829025079708 0.18851368847914543 0.8114863115208546 0.4340681276008141 0.565931872399186 0.5720604503341635 0.4279395496658364 0.4446295213895856 0.5553704786104143 0.570871184560445 0.42912881543955494 0.38113833787642987 0.6188616621235701 0.5229455406168712 0.4770544593831288 0.5644543571813461 0.435545642818654 0.5688647560000122 0.43113524399998787 0.8136779544898348 0.18632204551016518 0.4663447509695249 0.5336552490304751 0.8942873440229887 0.10571265597701127 0.6728638213335579 0.32713617866644196 0.6112416520285591 0.388758347971441 0.6534046756436992 0.34659532435630086 0.4982684066628204 0.5017315933371795 0.7487536646632006 0.25124633533679935 0.42453331142062967 0.5754666885793703 0.1574592741932708 0.8425407258067292 0.3768502394731866 0.6231497605268135 0.665207896850049 0.334792103149951 0.7059752254225009 0.29402477457749915 0.38569584905077975 0.6143041509492202 0.7528306377618152 0.24716936223818473 0.6760564841159276 0.3239435158840724 0.8558875544824224 0.14411244551757754 0.33135863730854137 0.6686413626914587 0.8791548023490388 0.12084519765096119 0.5368810806806803 0.4631189193193196 0.8890610302129709 0.11093896978702911 0.3293575863871543 0.6706424136128458 0.6687156368652095 0.3312843631347904 0.4586940287677147 0.5413059712322853 0.9001069395108579 0.09989306048914219 0.10260604986586194 0.897393950134138 0.4688373101064213 0.5311626898935787 0.3249257543379387 0.6750742456620613 0.25866747000209567 0.7413325299979043 0.7334089261062209 0.2665910738937791 0.5859196465837687 0.41408035341623134 0.568727050739331 0.4312729492606689 0.2548310865256044 0.7451689134743956 0.16072931432347679 0.8392706856765233 0.010692424178893977 0.9893075758211061 0.637326003515768 0.36267399648423193 0.14715327132996614 0.8528467286700339 0.46646024984435586 0.5335397501556441 0.44843732224497995 0.5515626777550201 0.33293888112219666 0.6670611188778033 0.4605568876500511 0.5394431123499489 0.8698121589475022 0.13018784105249784 0.5958921548725978 0.40410784512740217 0.39321912751088833 0.6067808724891117 0.19059963839353758 0.8094003616064626 0.571581137767267 0.428418862232733 0.44528913040811086 0.5547108695918891 0.5168763284067098 0.48312367159329017 0.8713154075425485 0.1286845924574514 0.7691696914706272 0.2308303085293729 0.48264826913857717 0.5173517308614228 0.7125940498044371 0.2874059501955628 0.4659298591292374 0.5340701408707627 0.43303613598779694 0.566963864012203 0.5427321490829663 0.45726785091703376 0.5435677202801598 0.4564322797198402 0.30790922338582954 0.6920907766141705 0.11249966608541759 0.8875003339145824 0.7975923221251162 0.20240767787488376 0.5206279824810983 0.4793720175189017 0.5803955724190136 0.41960442758098654 0.585155109154649 0.4148448908453511 0.5704073835265163 0.4295926164734837 0.4968124198974931 0.503187580102507 0.45662411749215703 0.543375882507843 0.8898230353626085 0.11017696463739148 0.46422457379942156 0.5357754262005785 0.34968911046065937 0.6503108895393407 0.7514946797821174 0.24850532021788263 0.39877348063852863 0.6012265193614714 0.96154811714462 0.03845188285538001 0.49913477767945275 0.5008652223205473 0.7770964379012629 0.22290356209873705 0.1043529014040416 0.8956470985959584 0.5072539571000511 0.492746042899949 0.7174263666211168 0.2825736333788832 0.37229895038748106 0.6277010496125189 0.45235884392509984 0.5476411560749002 0.7145024429885624 0.28549755701143764 0.7214687451851716 0.27853125481482843 0.5110983930239865 0.48890160697601354 0.4890509177201355 0.5109490822798646 0.10935747556276115 0.8906425244372388 0.14091680113536273 0.8590831988646372 0.9391353807439163 0.06086461925608367 0.9023737939248192 0.09762620607518081 0.08542373496376358 0.9145762650362365 0.8651558597559852 0.13484414024401478 0.22878428392934713 0.7712157160706529 0.41700337289753286 0.5829966271024671 0.3772858078669727 0.6227141921330273 0.5766156746124712 0.4233843253875288 0.7171478734879173 0.2828521265120827 0.7324394825790722 0.2675605174209277 0.474660368737125 0.5253396312628751 0.7697318164360948 0.23026818356390522 0.530730337516563 0.4692696624834371 0.67194989283261 0.3280501071673901 0.3468844102487381 0.6531155897512618 0.5271018511507964 0.4728981488492035 0.5868974414636017 0.41310255853639827 0.3335864348744044 0.6664135651255955 0.587284095433519 0.412715904566481 0.38995750507381777 0.6100424949261822 0.2602265046959922 0.7397734953040078 0.31624502544313066 0.6837549745568693 0.9341272177079148 0.06587278229208517 0.6340275291267238 0.3659724708732763 0.4755246797346677 0.5244753202653323 0.6783420658771682 0.3216579341228318 0.37981787706886994 0.62018212293113 0.4279611183193046 0.5720388816806954 0.5798368734869511 0.4201631265130488 0.38376469863530105 0.616235301364699 0.4919530016008036 0.5080469983991964 0.7626006231004497 0.23739937689955032 0.5005841715993634 0.4994158284006365 0.33132674088072983 0.6686732591192702 0.5419565958030301 0.45804340419696987 0.6530042981961299 0.34699570180387007 0.7026551455319233 0.2973448544680768 0.31716748317429755 0.6828325168257023 0.3091102667916807 0.6908897332083194 0.21128015968428632 0.7887198403157136 0.8608427556822499 0.1391572443177502 0.8079244641542205 0.19207553584577944 0.4458956230362328 0.5541043769637671 0.2147150408461996 0.7852849591538004 0.030528916875184685 0.9694710831248153 0.9680938139763147 0.03190618602368532 0.6432089740959529 0.3567910259040471 0.19606400063792528 0.8039359993620747 0.42201146913131626 0.5779885308686837 0.9765210111923042 0.023478988807695878 0.1264609782185772 0.8735390217814227 0.5069627697775767 0.49303723022242324 0.5414596156496898 0.45854038435031025 0.16569632817717744 0.8343036718228225 0.7172776182266193 0.2827223817733807 0.5830250374662506 0.4169749625337495 0.6152323948096846 0.38476760519031544 0.6029969672838495 0.39700303271615045 0.10023466855500675 0.8997653314449933 0.3802911584603947 0.6197088415396054 0.3601205173721187 0.6398794826278814 0.8088962223555899 0.1911037776444102 0.25464490564125825 0.7453550943587417 0.5475165541934603 0.45248344580653965 0.9393251505490199 0.06067484945098016 0.6368305974320102 0.3631694025679898 0.20704539933761265 0.7929546006623873 0.9104630469712328 0.08953695302876719 0.6069966425184151 0.3930033574815848 0.6011401310455343 0.3988598689544657 0.8758464257444764 0.12415357425552359 0.6697949783447458 0.33020502165525417 0.7111373029649123 0.28886269703508777 0.46793539524608924 0.5320646047539107 0.5172048491012343 0.48279515089876573 0.7442034179640254 0.2557965820359745 0.5710444089359474 0.4289555910640525 0.5130533465945941 0.4869466534054059 0.5911382040830252 0.40886179591697486 0.7358506109278795 0.26414938907212043 0.5968300855511135 0.4031699144488865 0.8177629581511567 0.18223704184884326 0.07347847540770197 0.9265215245922981 0.9016671417930541 0.09833285820694593 0.8569992604703192 0.14300073952968073 0.1701154640860896 0.8298845359139104 0.4662858354035456 0.5337141645964544 0.38177422084508766 0.6182257791549123 0.8653395972149659 0.13466040278503405 0.5027301011756777 0.49726989882432227 0.5886223312612954 0.4113776687387046 0.22081632000290452 0.7791836799970955 0.1353890657790365 0.8646109342209635 0.0007708645342486467 0.9992291354657513 0.6087928955621444 0.3912071044378555 0.13260659664417587 0.8673934033558242 0.30752513663337894 0.6924748633666211 0.5259795350272265 0.47402046497277345 0.42538842643398495 0.574611573566015 0.09101446352969071 0.9089855364703093 0.861438666354866 0.1385613336451339 0.709119230862398 0.29088076913760197 0.4808137925813674 0.5191862074186328 0.520838704253626 0.479161295746374 0.46054806080578686 0.5394519391942131 0.5487493679547563 0.4512506320452437 0.5921688542846485 0.4078311457153514 0.8168260941500843 0.18317390584991555 0.324279168515113 0.675720831484887 0.7710449548070208 0.22895504519297916 0.7641718884722333 0.23582811152776664 0.4237227275912172 0.5762772724087828 0.5300315158756134 0.4699684841243866 0.5028706536033914 0.4971293463966085 0.8261150830018725 0.17388491699812744 0.585759047846395 0.414240952153605 0.4389190306495971 0.5610809693504029 0.7345989872568324 0.26540101274316763 0.8564045335795069 0.14359546642049315 0.6790316564939067 0.3209683435060933 0.9459465602485309 0.05405343975146914 0.7552811021396291 0.24471889786037096 0.13595148860754402 0.864048511392456 0.5962781506455606 0.4037218493544396 0.3861140983862865 0.6138859016137135 0.49861210837015313 0.501387891629847 0.5753352404922627 0.42466475950773724 0.5065244669793019 0.49347553302069813 0.9536901933765539 0.04630980662344614 0.14906991419770743 0.8509300858022926 0.1653054924460292 0.8346945075539708 0.6181189363822722 0.3818810636177278 0.2722074931349881 0.7277925068650118 0.41181100346840643 0.5881889965315935 0.5212619345466196 0.47873806545338027 0.26190785763140434 0.7380921423685957 0.5534525726596412 0.4465474273403589 0.44844674273282126 0.5515532572671787 0.6518548527475168 0.34814514725248324 0.5316519849410659 0.4683480150589341 0.58484144191124 0.41515855808876 0.44085098521439436 0.5591490147856057 0.684198776384238 0.315801223615762 0.5746849663672322 0.42531503363276796 0.5458281433105738 0.4541718566894261 0.3011091377057168 0.6988908622942832 0.4463010608471295 0.5536989391528705 0.03264311927708415 0.9673568807229158 0.32516462809656177 0.6748353719034383 0.6040044200512713 0.39599557994872864 0.5029359430162136 0.49706405698378636 0.5724959420688365 0.4275040579311635 0.4003412582514597 0.5996587417485403 0.4809551693467704 0.5190448306532296 0.22024025437381 0.77975974562619 0.32137584694061844 0.6786241530593815 0.34503636569323937 0.6549636343067606 0.6334083978966639 0.3665916021033361 0.6612488473126407 0.33875115268735934 0.7763893145666365 0.22361068543336352 0.4572431696321413 0.5427568303678587 0.6800351213617081 0.31996487863829187 0.5631021932177084 0.4368978067822916 0.7909866229519023 0.20901337704809764 0.5440569990676744 0.4559430009323257 0.416860958786661 0.583139041213339 0.9539085061897014 0.04609149381029868 0.34310435483895024 0.6568956451610498 0.3656833513247975 0.6343166486752024 0.4795340224662881 0.5204659775337118 0.5203551606358643 0.4796448393641357 0.819830477721997 0.18016952227800304 0.44670332173431165 0.5532966782656883 0.29171227710716374 0.7082877228928361 0.6277358861179679 0.372264113882032 0.48283430810126576 0.5171656918987343 0.03836955538897458 0.9616304446110254 0.372867718082417 0.627132281917583 0.25113187633637724 0.7488681236636228 0.7493644987313947 0.25063550126860523 0.3712039543889449 0.6287960456110551 0.0649806969520138 0.9350193030479862 0.6608725399639589 0.3391274600360411 0.7507362755225679 0.2492637244774322 0.7080840339743124 0.2919159660256876 0.9184783543884231 0.08152164561157692 0.6358249381795548 0.3641750618204452 0.9467125894355071 0.0532874105644929 0.8420343423191724 0.15796565768082763 0.8413670460866471 0.15863295391335286 0.7970481881372194 0.20295181186278055 0.049117645331807756 0.9508823546681923 0.8852998509475859 0.114700149052414 0.3895060102674493 0.6104939897325506 0.32744894495196025 0.6725510550480397 0.3913367776328979 0.6086632223671021 0.48120203731005196 0.518797962689948 0.4820580125836036 0.5179419874163964 0.4280403757842728 0.5719596242157272 0.9629301306693209 0.037069869330679114 0.7893950971359709 0.21060490286402916 0.588562183965141 0.41143781603485885 0.5234014530369451 0.476598546963055 0.35225301757645927 0.6477469824235407 0.8042389040036733 0.1957610959963267 0.9474579889359989 0.052542011064001116 0.7960467080223095 0.20395329197769058 0.7646756507608894 0.2353243492391106 0.4909009243741927 0.5090990756258073 0.23738292240462008 0.7626170775953799 0.0025724108866016873 0.9974275891133983 0.7780672989269253 0.22193270107307472 0.5403289146103247 0.45967108538967527 0.5825950577310747 0.4174049422689253 0.5642385203147029 0.43576147968529716 0.3996996053000851 0.6003003946999149 0.615702031351825 0.38429796864817506 0.7034262080106606 0.2965737919893394 0.4392914498685931 0.560708550131407 0.17582219874121433 0.8241778012587857 0.3810402124986536 0.6189597875013464 0.2926779437794298 0.7073220562205702 0.33666085671324575 0.6633391432867544 0.29480232667121986 0.7051976733287801 0.4333737493424039 0.5666262506575961 0.8126896498195273 0.18731035018047265 0.03409737837124591 0.9659026216287541 0.9289086994266397 0.07109130057336033 0.2937835907644165 0.7062164092355836 0.5918311601948824 0.4081688398051177 0.11623154899572437 0.8837684510042756 0.47047329879844635 0.5295267012015537 0.40122365861643733 0.5987763413835627 0.2898880765552174 0.7101119234447826 0.5328670153420662 0.4671329846579339 0.3509852266824155 0.6490147733175846 0.7039951118107711 0.2960048881892289 0.06292333149930783 0.9370766685006922 0.6244016073071992 0.3755983926928008 0.9885719641220683 0.011428035877931779 0.5720286215508005 0.4279713784491994 0.321802056016488 0.6781979439835122 0.5015052038046611 0.4984947961953388 0.03967678406285323 0.9603232159371468 0.3916710623808443 0.6083289376191556 0.18512176490476648 0.8148782350952335 0.4575526346146551 0.5424473653853449 0.47635447729877234 0.5236455227012277 0.895230136509217 0.10476986349078296 0.3980711223409319 0.6019288776590681 0.7759642642194019 0.22403573578059813 0.7957554786080242 0.20424452139197583 0.480017890274904 0.519982109725096 0.5888661263400747 0.4111338736599253 0.3902675133546383 0.6097324866453618 0.7595534861025711 0.2404465138974289 0.35451134273744705 0.6454886572625529 0.638502588213705 0.361497411786295 0.6929942338152522 0.30700576618474784 0.08722375760644786 0.9127762423935522 0.29486122480029037 0.7051387751997097 0.004943761136827915 0.9950562388631721 0.40235714598048816 0.5976428540195119 0.29601858156182886 0.7039814184381712 0.7476604448860266 0.25233955511397343 0.4731316713694498 0.5268683286305503 0.507373264562463 0.49262673543753693 0.9581093308184656 0.041890669181534355 0.5049845190318946 0.4950154809681055 0.35079059599440415 0.6492094040055959 0.3489805608918424 0.6510194391081576 0.47689546783292747 0.5231045321670725 0.6034701032585545 0.3965298967414454 0.46687096440113757 0.5331290355988625 0.5031638281142042 0.49683617188579576 0.6974125097189179 0.30258749028108206 0.6818108188589379 0.3181891811410621 0.1617954807929865 0.8382045192070136 0.4729803505794492 0.5270196494205508 0.4258432454759997 0.5741567545240004 0.5351691363105557 0.46483086368944426 0.9545540407904245 0.04544595920957547 0.9955225223361011 0.004477477663898928 0.9999635124207363 3.6487579263629696e-05 0.709240134624753 0.29075986537524695 0.45508362840717864 0.5449163715928214 0.6417424460310557 0.35825755396894426 0.15155072664184743 0.8484492733581526 0.5968329634331717 0.4031670365668283 0.0624112145622589 0.9375887854377412 0.5914299312220529 0.4085700687779471 0.44060302187171635 0.5593969781282837 0.3428336807664843 0.6571663192335158 0.7477961265694607 0.2522038734305393 0.5634856065564819 0.4365143934435181 0.9610760998769342 0.0389239001230658 0.5015012519287988 0.4984987480712012 0.49072406208473546 0.5092759379152645 0.6898992153636546 0.3101007846363454 0.4213728496686941 0.578627150331306 0.6237001764108052 0.3762998235891947 0.5839596122440694 0.41604038775593044 0.6888653657466836 0.31113463425331644 0.47020306146274343 0.5297969385372566 0.8679857821731769 0.1320142178268231 0.40058431285971713 0.599415687140283 0.48114831585675916 0.5188516841432409 0.5468647935118733 0.45313520648812666 0.5656872503075949 0.43431274969240496 0.48002781431098757 0.5199721856890125 0.5431036304147954 0.4568963695852045 0.3116640968592355 0.6883359031407644 0.5225980363138687 0.47740196368613125 0.5084167953679974 0.49158320463200256 0.4833833386658856 0.5166166613341143 0.9490311059311086 0.050968894068891345 0.4062377587825812 0.5937622412174188 0.8530878843467009 0.1469121156532991 0.4394855687890477 0.5605144312109523 0.31592345067068833 0.6840765493293116 0.8049983518983249 0.19500164810167508 0.038409865342890946 0.9615901346571091 0.4204264784847598 0.5795735215152402 0.25728463555403835 0.7427153644459616 0.5435068351311884 0.45649316486881175 0.7062533200547201 0.2937466799452799 0.40357537986520214 0.5964246201347978 0.5181631888545611 0.4818368111454388 0.3543219564467282 0.6456780435532717 0.07203715502401337 0.9279628449759866 0.2816504355224996 0.7183495644775004 0.54324767628457 0.45675232371543006 0.1493370177078204 0.8506629822921797 0.48241593283773304 0.517584067162267 0.7848710715278799 0.21512892847212003 0.616544988033798 0.38345501196620196 0.6875460065422923 0.3124539934577078 0.5022851464222863 0.49771485357771367 0.17622720125255759 0.8237727987474425 0.15557174021488482 0.8444282597851152 0.17023336299826253 0.8297666370017375 0.3690582738647716 0.6309417261352285 0.3813100612525769 0.6186899387474232 0.18868057058689944 0.8113194294131006 0.5744780193117224 0.4255219806882777 0.5398294338341322 0.46017056616586777 0.11985616900796574 0.8801438309920343 0.39477730783615395 0.6052226921638459 0.6754001926999674 0.3245998073000326 0.9354115793597927 0.06458842064020731 0.5790930497130236 0.4209069502869765 0.3054093547748904 0.6945906452251096 0.6227098607396816 0.37729013926031835 0.37518339854503774 0.6248166014549622 0.45847089072371594 0.5415291092762841 0.38169050285576006 0.61830949714424 0.5291235205790099 0.47087647942099004 0.40715494675413283 0.5928450532458671 0.20257629060497254 0.7974237093950275 0.35622356987663206 0.6437764301233679 0.39454809020416326 0.6054519097958367 0.5863121328784664 0.4136878671215336 0.5908096954397967 0.40919030456020333 0.47427599199954246 0.5257240080004576 0.40197128857627507 0.5980287114237249 0.7305809055730647 0.2694190944269354 0.06481983788349545 0.9351801621165046 0.7615341371805954 0.23846586281940466 0.1691721793682686 0.8308278206317314 0.2991677581302056 0.7008322418697944 0.8375114184079651 0.16248858159203497 0.6406350634233794 0.3593649365766206 0.9908768122471109 0.009123187752889124 0.5398546525981773 0.4601453474018226 0.7077468850265874 0.29225311497341255 0.9898257256271125 0.010174274372887546 0.25934486423880027 0.7406551357611997 0.15005122136644172 0.8499487786335582 0.3930315919734736 0.6069684080265264 0.20541423825003852 0.7945857617499614 0.7095606370464428 0.29043936295355727 0.433596619374809 0.566403380625191 0.5718086969981406 0.4281913030018593 0.9680988303925206 0.031901169607479386 0.4181199139973639 0.5818800860026361 0.6391420840222484 0.3608579159777517 0.22890979794558544 0.7710902020544146 0.3380945216491165 0.6619054783508835 0.42832731453214273 0.5716726854678572 0.4830001894242721 0.516999810575728 0.7833161401397664 0.21668385986023359 0.10598368474034836 0.8940163152596516 0.3604794130363091 0.639520586963691 0.7949369879727385 0.20506301202726154 0.5008865387395076 0.4991134612604924 0.3742327031700031 0.6257672968299968 0.7302842579766536 0.26971574202334636 0.31143533656141575 0.6885646634385842 0.5030373929787956 0.4969626070212045 0.271342922046739 0.7286570779532611 0.4649902031255885 0.5350097968744115 0.441183457170733 0.5588165428292671 0.5709673069369692 0.4290326930630308 0.6834611216979329 0.31653887830206706 0.16574260269366115 0.8342573973063389 0.46234740746331504 0.5376525925366848 0.6771515061757862 0.3228484938242138 0.43224657122115223 0.5677534287788478 0.3951203531160458 0.6048796468839541 0.35445737338311023 0.6455426266168898 0.28138226141592854 0.7186177385840715 0.2706970289019162 0.7293029710980837 0.425456857866085 0.574543142133915 0.3702505768586555 0.6297494231413444 0.29796347017347524 0.7020365298265248 0.2051762751348303 0.7948237248651697 0.4363175061451826 0.5636824938548175 0.7626444704833396 0.23735552951666045 0.01690457357538256 0.9830954264246174 0.8566707562328395 0.14332924376716052 0.7205719464947322 0.2794280535052679 0.42425315580989414 0.5757468441901059 0.5370701061612697 0.46292989383873034 0.6050146920034839 0.39498530799651604 0.3968776753605519 0.6031223246394481 0.7048962943920571 0.29510370560794286 0.4863874925826206 0.5136125074173794 0.8287719458247245 0.17122805417527556 0.10221232725354586 0.8977876727464541 0.5097477638248292 0.49025223617517083 0.4130161335057729 0.5869838664942272 0.5928395311694196 0.40716046883058044 0.6973273363249268 0.30267266367507323 0.34507618468321566 0.6549238153167843 0.15777965738509095 0.8422203426149091 0.3128535405882522 0.6871464594117478 0.058078407797676035 0.941921592202324 0.48106026965126175 0.5189397303487383 0.2684749233598815 0.7315250766401186 0.1284896392010694 0.8715103607989305 0.5972518583811545 0.4027481416188454 0.14988856595775646 0.8501114340422435 0.42073747313998067 0.5792625268600192 0.7220306256703757 0.27796937432962443 0.4837592837470171 0.5162407162529828 0.5081551365967198 0.49184486340328015 0.791315721622316 0.20868427837768402 0.3367915198600693 0.6632084801399307 0.07997320987303667 0.9200267901269633 0.5447615928801647 0.4552384071198352 0.5593265117165684 0.44067348828343156 0.9966037683138369 0.003396231686163043 0.5445115709603985 0.45548842903960146 0.43256867952765476 0.5674313204723452 0.3048071386368802 0.6951928613631198 0.4580011186984625 0.5419988813015375 0.10573053652343879 0.8942694634765613 0.5728088555703398 0.4271911444296602 0.4307434597139575 0.5692565402860424 0.6088832370679104 0.3911167629320896 0.48432485513324425 0.5156751448667558 0.8475224808261256 0.15247751917387437 0.6203608660476614 0.37963913395233867 0.24303193820354232 0.7569680617964577 0.44089446991083225 0.5591055300891677 0.5323840888677159 0.46761591113228423 0.5573156531685202 0.4426843468314798 0.3446069076946966 0.6553930923053034 0.581879937471127 0.4181200625288731 0.13226658382385653 0.8677334161761434 0.7404820348198686 0.25951796518013137 0.7628624169007141 0.23713758309928595 0.376044091266772 0.623955908733228 0.6969924245969 0.30300757540309997 0.5978804654965683 0.4021195345034317 0.8085569372662677 0.19144306273373238 0.286067386349175 0.713932613650825 0.71825199227886 0.28174800772113995 0.7268385147428355 0.2731614852571645 0.12659021561742698 0.873409784382573 0.7504569160735549 0.2495430839264451 0.1434245257426437 0.8565754742573563 0.8098162553861589 0.1901837446138412 0.3016553562450846 0.6983446437549153 0.8229863513991823 0.1770136486008177 0.9693240258019069 0.03067597419809298 0.291557950094375 0.708442049905625 0.39316592458858196 0.6068340754114181 0.9196894013167878 0.08031059868321218 0.40258757946130314 0.5974124205386968 0.41992131953049516 0.5800786804695048 0.21574141599811686 0.7842585840018832 0.5886110533095938 0.41138894669040615 0.6099098738888208 0.39009012611117916 0.43438288347437615 0.5656171165256237 0.9949922192682152 0.005007780731784758 0.4707883055402614 0.5292116944597386 0.5467296998601757 0.4532703001398242 0.3128050874274647 0.6871949125725352 0.20655880639405866 0.7934411936059415 0.2641868470912024 0.7358131529087976 0.9498612875574907 0.05013871244250931 0.7302519145318704 0.2697480854681296 0.33623872917163744 0.6637612708283626 0.22777425693774314 0.7722257430622569 0.2642747794608554 0.7357252205391446 0.9573256933906764 0.0426743066093236 0.1746703015951935 0.8253296984048065 0.10083643912100448 0.8991635608789955 0.4788778340575335 0.5211221659424665 0.23305857337428476 0.7669414266257153 0.368776163833358 0.631223836166642 0.08888860086739522 0.9111113991326047 0.435089950512841 0.5649100494871591 0.27500602943849034 0.7249939705615096 0.8143081633219168 0.1856918366780832 0.6468949417266612 0.3531050582733389 0.3787846725135478 0.6212153274864523 0.383173611632729 0.616826388367271 0.0857000870400458 0.9142999129599542 0.8894308565192421 0.11056914348075784 0.763730690993039 0.23626930900696091 0.8956251768469923 0.10437482315300768 0.5048882827369828 0.49511171726301717 0.5616563140977319 0.4383436859022682 0.19862825273805204 0.8013717472619479 0.7597795607849793 0.24022043921502073 0.5034602039782207 0.49653979602177944 0.22169439854760264 0.7783056014523974 0.08899450631045384 0.9110054936895462 0.4233171444933337 0.5766828555066663 0.96913605854059 0.03086394145940991 0.42106435533148234 0.5789356446685177 0.6948338346896759 0.30516616531032403 0.732215863279819 0.267784136720181 0.15115038671628975 0.8488496132837102 0.5655781313401889 0.43442186865981114 0.23060549722124848 0.7693945027787515 0.4184007192838816 0.5815992807161184 0.8952066658485023 0.10479333415149769 0.865871352557082 0.13412864744291797 0.7013707292071706 0.2986292707928294 0.2312062993331194 0.7687937006668806 0.8140611513740399 0.18593884862596008 0.2545713346833035 0.7454286653166965 0.018028676661653222 0.9819713233383468 0.259634257358598 0.7403657426414021 0.5258709189343579 0.47412908106564206 0.7278051286531498 0.2721948713468502 0.5519004538464861 0.44809954615351383 0.762362719324937 0.2376372806750629 0.3563774088560902 0.6436225911439099 0.9788431331528826 0.0211568668471174 0.4841022897933681 0.5158977102066319 0.1426143308804912 0.8573856691195088 0.7359883328227875 0.2640116671772125 0.571549419189741 0.428450580810259 0.422798771207758 0.5772012287922419 0.6178107982338167 0.38218920176618326 0.6581241918027171 0.3418758081972829 0.2915970992521136 0.7084029007478865 0.9725791825928081 0.02742081740719195 0.16083620663992987 0.8391637933600701 0.6324320728179668 0.3675679271820332 0.6193485607998405 0.3806514392001595 0.6628399507545928 0.33716004924540727 0.4612205243695221 0.538779475630478 0.5200263632604021 0.4799736367395979 0.989401572155105 0.0105984278448951 0.1691244082483242 0.8308755917516758 0.626849846259954 0.37315015374004595 0.26652542326044637 0.7334745767395536 0.71644306580239 0.28355693419761 0.33083010500879884 0.6691698949912013 0.37594201433570973 0.6240579856642903 0.6664396458748699 0.3335603541251301 0.600669153250761 0.3993308467492389 0.4887981790296923 0.5112018209703078 0.7651640449712868 0.2348359550287132 0.41905601655585956 0.5809439834441404 0.1489099271795089 0.8510900728204911 0.7064788590193676 0.29352114098063253 0.587286917750909 0.412713082249091 0.5209133755085678 0.4790866244914323 0.5669742939759425 0.4330257060240575 0.45665271400615853 0.5433472859938415 0.2124774295533723 0.7875225704466278 0.4020718894116687 0.5979281105883313 0.5390789031196541 0.4609210968803458 0.8621635738700075 0.13783642612999245 0.7908538026484653 0.20914619735153475 0.9488184612887646 0.05118153871123541 0.9591748063949251 0.04082519360507487 0.9928249335536603 0.007175066446339704 0.39652723463715706 0.603472765362843 0.8775476283382362 0.12245237166176373 0.4071020742131138 0.5928979257868863 0.7286109013430567 0.27138909865694344 0.5688867288646702 0.4311132711353297 0.4465431885499085 0.5534568114500915 0.8605300862493842 0.13946991375061568 0.8517149026066374 0.14828509739336254 0.09801052909462349 0.9019894709053765 0.4807313632049707 0.5192686367950293 0.32275784169824345 0.6772421583017566 0.4616696827119843 0.5383303172880157 0.26461986571667084 0.7353801342833292 0.27036019284353036 0.7296398071564697 0.6349948575261012 0.36500514247389876 0.7502313420075899 0.24976865799241016 0.4075981913661778 0.5924018086338222 0.6999237009002705 0.30007629909972955 0.621960946586557 0.37803905341344296 0.34834766899914216 0.6516523310008578 0.4593297882046041 0.5406702117953959 0.5031260156075831 0.4968739843924169 0.07885817422107479 0.9211418257789252 0.585750849895644 0.41424915010435603 0.5739550736600101 0.4260449263399899 0.5840694847939494 0.4159305152060506 0.42172982099451645 0.5782701790054835 0.19091311692526775 0.8090868830747323 0.2435531674416726 0.7564468325583275 0.7022902542262428 0.2977097457737572 0.44647331981352434 0.5535266801864757 0.881258700350567 0.11874129964943303 0.6253909156000163 0.37460908439998375 0.35648619093414513 0.6435138090658549 0.5027174592838378 0.49728254071616224 0.4457385742543008 0.5542614257456991 0.2836384748854714 0.7163615251145287 0.24999347577956327 0.7500065242204368 0.46740846492870364 0.5325915350712963 0.5179593611430166 0.48204063885698345 0.7689358050908526 0.23106419490914745 0.46998263056099204 0.5300173694390079 0.7814702684197635 0.21852973158023642 0.30060702032822484 0.6993929796717752 0.4607195764442447 0.5392804235557552 0.9452174469840112 0.05478255301598879 0.4263975242737344 0.5736024757262655 0.7606862001131615 0.23931379988683854 0.5515499673144915 0.4484500326855086 0.5339333726638567 0.4660666273361434 0.8941876019065584 0.10581239809344158 0.5434556546642296 0.45654434533577043 0.6123598762875707 0.3876401237124293 0.6871404368176126 0.31285956318238745 0.18118683569461627 0.8188131643053838 0.7862681232324056 0.21373187676759436 0.30735371589643434 0.6926462841035657 0.10249058160132372 0.8975094183986763 0.1646220279645352 0.8353779720354648 0.39943572380173553 0.6005642761982645 0.5010879416742802 0.4989120583257198 0.46700412628916127 0.5329958737108388 0.47606876398886006 0.5239312360111399 0.8075128592307174 0.1924871407692827 0.4913951063861863 0.5086048936138138 0.3572961787176227 0.6427038212823774 0.37729316645074595 0.622706833549254 0.7172431720334159 0.282756827966584 0.3144411807619552 0.6855588192380448 0.23163023252418943 0.7683697674758105 0.7452656800668145 0.2547343199331856 0.4971041935838956 0.5028958064161043 0.014753070802222162 0.9852469291977778 0.4085500656747532 0.5914499343252468 0.7990976392781359 0.20090236072186407 0.560775008363033 0.43922499163696704 0.4086034550122458 0.5913965449877543 0.6549221582116329 0.34507784178836703 0.6511199957611193 0.3488800042388806 0.5252631292981661 0.47473687070183396 0.5344105774489118 0.46558942255108815 0.5577792792259448 0.4422207207740552 0.4828601535467075 0.5171398464532925 0.4214807589940674 0.5785192410059325 0.30771663466768556 0.6922833653323144 0.49044458705090355 0.5095554129490963 0.5937706157393501 0.4062293842606499 0.21829825539315958 0.7817017446068404 0.9589408756383959 0.041059124361604075 0.9870374576274515 0.012962542372548416 0.6893942835790394 0.3106057164209605 0.6051370620882638 0.3948629379117362 0.3688264095062579 0.6311735904937421 0.27589409480116645 0.7241059051988337 0.5397827907128447 0.4602172092871553 0.5305413953179781 0.46945860468202194 0.627091390115303 0.3729086098846971 0.275765832297378 0.7242341677026221 0.4614973929304697 0.5385026070695302 0.891552361953306 0.10844763804669394 0.21981377768236704 0.780186222317633 0.4274497153477585 0.5725502846522416 0.003424020808326925 0.9965759791916731 0.4733490239756771 0.526650976024323 0.32933047834972373 0.6706695216502763 0.4335251715446779 0.566474828455322 0.7054170134379686 0.29458298656203136 0.33185427903032416 0.6681457209696758 0.7147352826072665 0.28526471739273346 0.49208341815148465 0.5079165818485153 0.4168020357566398 0.5831979642433601 0.7771753607447519 0.2228246392552481 0.512742879070886 0.4872571209291141 0.517472570627191 0.482527429372809 0.5611935799818201 0.43880642001818 0.9205719260751578 0.07942807392484222 0.6725880658184731 0.32741193418152686 0.3824406773691116 0.6175593226308883 0.7361173555384334 0.26388264446156673 0.40475043815318557 0.5952495618468144 0.47978359259461906 0.520216407405381 0.8189164387785886 0.18108356122141148 0.2667196909630526 0.7332803090369474 0.5055700159236373 0.49442998407636274 0.8543933551884124 0.14560664481158764 0.16666886382879395 0.833331136171206 0.33831557472853624 0.6616844252714636 0.3200211513276558 0.6799788486723441 0.4997293405861137 0.5002706594138864 0.7357921499736598 0.2642078500263402 0.7276965038893136 0.2723034961106863 0.5914589266490323 0.4085410733509677 0.4629745171725149 0.537025482827485 0.2680273068185421 0.731972693181458 0.8626849725770914 0.13731502742290863 0.7000617390172458 0.2999382609827542 0.09547051688302868 0.9045294831169713 0.7139051013534268 0.2860948986465732 0.6646951136884882 0.3353048863115118 0.39337498039222996 0.60662501960777 0.6129132903085076 0.38708670969149245 0.5614534862233056 0.4385465137766944 0.4643150778230021 0.5356849221769979 0.6897476554178599 0.3102523445821401 0.6802143682072902 0.31978563179270986 0.8160983136461595 0.18390168635384058 0.3912395230150131 0.6087604769849869 0.5870532280142635 0.4129467719857363 0.49083091924137073 0.5091690807586292 0.5948684509319838 0.40513154906801613 0.4832180489876765 0.5167819510123235 0.22839523546025683 0.7716047645397431 0.38888603228629554 0.6111139677137045 0.25684971118057937 0.7431502888194206 0.6239015398399194 0.37609846016008064 0.7461955800460478 0.2538044199539522 0.8677783793543924 0.13222162064560747 0.564663973623016 0.43533602637698404 0.9173068014746733 0.08269319852532674 0.18663263402984326 0.8133673659701567 0.5831457208870071 0.4168542791129929 0.36628251760514935 0.6337174823948507 0.4731763983655134 0.5268236016344866 0.4172282397535227 0.5827717602464773 0.4277522831047829 0.572247716895217 0.5466225295221849 0.45337747047781507 0.6522791140802099 0.34772088591979017 0.020644669555963616 0.9793553304440363 0.7565948227803128 0.2434051772196873 0.3729318861775156 0.6270681138224845 0.6373628178114588 0.36263718218854124 0.8280605369988321 0.17193946300116789 0.475502600114026 0.524497399885974 0.5095397206153633 0.4904602793846366 0.48237823403981606 0.5176217659601839 0.5023995202911424 0.4976004797088576 0.4906459149263976 0.5093540850736025 0.3931972645648151 0.6068027354351849 0.034124103392529706 0.9658758966074703 0.8893735434196295 0.11062645658037057 0.8374642079676602 0.16253579203233984 0.058389793839103865 0.9416102061608961 0.38856655171050514 0.611433448289495 0.5332899515961159 0.46671004840388414 0.003826705512997476 0.9961732944870025 0.9478717341909726 0.052128265809027366 0.044530984322254254 0.9554690156777458 0.09538521971527723 0.9046147802847228 0.6606782789456201 0.33932172105437985 0.5683101807313337 0.4316898192686664 0.4645936824115849 0.5354063175884152 0.30256193645300206 0.697438063546998 0.3854928267488574 0.6145071732511426 0.21223575159459054 0.7877642484054096 0.14917743004333459 0.8508225699566654 0.6247217257795992 0.37527827422040094 0.2659148854340272 0.7340851145659728 0.40447265615098793 0.5955273438490121 0.5966675156329332 0.40333248436706676 0.6194680228421211 0.3805319771578789 0.733828779818421 0.266171220181579 0.3002793977133084 0.6997206022866915 0.536885655261452 0.4631143447385479 0.575804899446838 0.4241951005531619 0.5633383575185911 0.43666164248140893 0.05528357235332033 0.9447164276466796 0.5352545784265813 0.46474542157341864 0.949665805799066 0.050334194200934 0.3531220793407079 0.6468779206592922 0.700140409094159 0.2998595909058411 0.4219869880839727 0.5780130119160273 0.9706206597631193 0.029379340236880748 0.5003291945658523 0.49967080543414766 0.682870827843592 0.31712917215640807 0.7981271276304781 0.2018728723695218 0.8059379640239016 0.1940620359760984 0.022371742614294747 0.9776282573857052 0.5517299410811134 0.44827005891888655 0.964613231739885 0.03538676826011497 0.5545196246287978 0.4454803753712023 0.39844791117242373 0.6015520888275763 0.6270982981833195 0.3729017018166805 0.24715158681637142 0.7528484131836287 0.4518204912447059 0.5481795087552941 0.4638481484867875 0.5361518515132125 0.3228154438679287 0.6771845561320713 0.19926116410381728 0.8007388358961828 0.2064562888115213 0.7935437111884787 0.7561847540658627 0.24381524593413725 0.036874175138153185 0.9631258248618468 0.8319330844460537 0.16806691555394632 0.21021607695556466 0.7897839230444353 0.8552166670747438 0.14478333292525628 0.6070214801906104 0.39297851980938964 0.5209332099726062 0.47906679002739383 0.45701117921127166 0.5429888207887283 0.2881057074370684 0.7118942925629316 0.3762447351396194 0.6237552648603806 0.29065235638843556 0.7093476436115644 0.5599101128493277 0.44008988715067227 0.9216155806243826 0.07838441937561733 0.9571287819942547 0.042871218005745323 0.5774054809917243 0.42259451900827566 0.12213735370951616 0.8778626462904838 0.491085406770274 0.508914593229726 0.5309974601799243 0.4690025398200756 0.37049461927394906 0.629505380726051 0.6426904730465746 0.35730952695342555 0.16437463494098062 0.8356253650590194 0.49249002934464103 0.507509970655359 0.037895356405175 0.962104643594825 0.33319825767000927 0.6668017423299908 0.3821746132356661 0.6178253867643339 0.5335162496087522 0.46648375039124784 0.4429685385612049 0.5570314614387951 0.00809092230815096 0.991909077691849 0.2934296313999528 0.7065703686000473 0.3048903471186235 0.6951096528813764 0.4487072539285532 0.551292746071447 0.18805208676726268 0.8119479132327372 0.6949745978239459 0.305025402176054 0.8008617155397639 0.19913828446023613 0.4025181049464043 0.5974818950535957 0.5691618910392447 0.4308381089607553 0.2794846740767311 0.7205153259232688 0.46487825123002946 0.5351217487699705 0.2122608388319556 0.7877391611680444 0.46008985705686173 0.5399101429431382 0.3796335090280196 0.6203664909719804 0.5072570708257398 0.4927429291742602 0.43786838416129864 0.5621316158387014 0.7806637738757171 0.21933622612428294 0.6831282821337195 0.31687171786628054 0.565413434715204 0.43458656528479594 0.14368014255988087 0.8563198574401192 0.994445168639269 0.0055548313607310116 0.26053552837900523 0.7394644716209948 0.9694354456626617 0.03056455433733826 0.3320381010611093 0.6679618989388907 0.34206277744730573 0.6579372225526943 0.3989552498127466 0.6010447501872535 0.922127847344428 0.0778721526555719 0.8512553357551076 0.14874466424489238 0.017561392332401723 0.9824386076675983 0.6254773386664433 0.37452266133355666 0.231527403035145 0.768472596964855 0.7423164824184932 0.25768351758150687 0.014257308226522084 0.985742691773478 0.9979518060345296 0.0020481939654704105 0.0542262119251537 0.9457737880748464 0.034601886003305965 0.9653981139966941 0.4490080664398862 0.5509919335601138 0.6532144112432116 0.3467855887567885 0.06117589558428952 0.9388241044157105 0.6426476692226126 0.3573523307773874 0.772004254964973 0.2279957450350269 0.3107646889902182 0.6892353110097817 0.3202995594303752 0.6797004405696248 0.3627107756686847 0.6372892243313153 0.18857082619234639 0.8114291738076537 0.7441772360014741 0.2558227639985259 0.4010464534023994 0.5989535465976006 0.33711442646902384 0.6628855735309761 0.286397486390141 0.713602513609859 0.5398518822150293 0.4601481177849707 0.43617748879800483 0.5638225112019952 0.33421255421477924 0.6657874457852208 0.7528971501530224 0.24710284984697767 0.6040978466316614 0.3959021533683386 0.4560839252309698 0.5439160747690301 0.5180975758281613 0.4819024241718387 0.5934995057693636 0.40650049423063633 0.4342565427255477 0.5657434572744523 0.9075710976165517 0.0924289023834482 0.7310364233370347 0.26896357666296544 0.26230563608580754 0.7376943639141925 0.8000826121947483 0.19991738780525176 0.15651379652369724 0.8434862034763029 0.7988604934905436 0.20113950650945642 0.3763928287140797 0.6236071712859202 0.3855093016464969 0.6144906983535031 0.466561056474894 0.5334389435251061 0.3589554005976036 0.6410445994023963 0.8577956312418741 0.1422043687581258 0.7995178635261765 0.2004821364738235 0.21555141732200656 0.7844485826779934 0.7572367046104085 0.24276329538959165 0.7488551364114081 0.25114486358859195 0.4640598401235723 0.5359401598764276 0.9122967478541414 0.08770325214585867 0.5648295599251729 0.43517044007482714 0.6901751749781929 0.3098248250218071 0.5291670825998271 0.4708329174001729 0.8931299758810507 0.10687002411894928 0.20212603920624916 0.797873960793751 0.5997937621517224 0.4002062378482776 0.38278766811309606 0.6172123318869039 0.3473255554041801 0.6526744445958198 0.5264472084090274 0.4735527915909727 0.20773993660973236 0.7922600633902677 0.5724584489577096 0.42754155104229047 0.40234073551129557 0.5976592644887044 0.605087817348747 0.3949121826512531 0.05776205924542458 0.9422379407545755 0.6738841947837741 0.3261158052162259 0.01881569347718374 0.9811843065228163 0.31260592355751854 0.6873940764424814 0.43900974807494736 0.5609902519250527 0.37900069057705454 0.6209993094229453 0.39583862728221275 0.6041613727177872 0.6684328905175598 0.3315671094824401 0.7443144619283193 0.25568553807168076 0.669555945976627 0.3304440540233728 0.07552354002073773 0.9244764599792623 0.8826187005098525 0.11738129949014754 0.15807261943912904 0.8419273805608709 0.6887637799621996 0.3112362200378004 0.42292661701790685 0.5770733829820932 0.49392114265996245 0.5060788573400374 0.27958438638787136 0.7204156136121286 0.7047100351391202 0.2952899648608798 0.64507832353264 0.35492167646735984 0.42476199668574327 0.5752380033142567 0.17690678023854475 0.8230932197614552 0.8327085079075355 0.16729149209246452 0.5805488179591486 0.41945118204085147 0.9697639662940666 0.03023603370593351 0.9053960185748461 0.09460398142515387 0.8562092467013762 0.14379075329862384 0.6952869975617431 0.3047130024382569 0.5509521295585277 0.44904787044147226 0.43089053459059745 0.5691094654094027 0.06546106309846278 0.9345389369015372 0.6448806431228312 0.35511935687716867 0.40940230599760474 0.5905976940023953 0.043637146032492816 0.9563628539675072 0.8534470913601464 0.14655290863985362 0.49685638363782364 0.5031436163621764 0.49054770885605914 0.5094522911439409 0.6263163690768059 0.3736836309231942 0.6239134869231197 0.37608651307688035 0.5064101876879142 0.49358981231208576 0.14266596962425893 0.8573340303757412 0.5009139576936043 0.4990860423063958 0.4803201192578637 0.5196798807421364 0.23156332656530929 0.7684366734346906 0.09062681976584809 0.9093731802341519 0.5715207385668405 0.4284792614331595 0.9910285685989938 0.008971431401006239 0.46925067066784515 0.5307493293321548 0.5563238301862258 0.44367616981377417 0.2233981824227738 0.7766018175772262 0.7084267169097862 0.2915732830902138 0.5600138007987079 0.4399861992012921 0.5843480680925307 0.4156519319074692 0.720910594194644 0.279089405805356 0.1614977143043924 0.8385022856956076 0.6129741387660391 0.3870258612339608 0.3157058023239025 0.6842941976760976 0.5015520272501308 0.49844797274986913 0.5653204966158376 0.4346795033841624 0.42965821068514953 0.5703417893148505 0.1985385238899547 0.8014614761100454 0.6601225319358975 0.3398774680641024 0.29304255551462066 0.7069574444853792 0.8014334188832806 0.1985665811167194 0.006876235044276616 0.9931237649557234 0.23918385113289978 0.7608161488671004 0.5539344375539179 0.4460655624460821 0.4673780305827174 0.5326219694172825 0.5883135781535055 0.4116864218464945 0.8745254794674759 0.12547452053252414 0.8446645303863543 0.1553354696136458 0.46079123231588104 0.539208767684119 0.5484844384652526 0.4515155615347473 0.5081037903413397 0.49189620965866027 0.4986888553487927 0.5013111446512073 0.19567120899297183 0.8043287910070281 0.5131258760844718 0.4868741239155283 0.5435256181480493 0.45647438185195066 0.6333884176802302 0.36661158231976965 0.13731658938968752 0.8626834106103125 0.5205288777167886 0.47947112228321154 0.7194425698769371 0.28055743012306283 0.5245032045911392 0.47549679540886075 0.8567101114798741 0.14328988852012592 0.49021598911876857 0.5097840108812315 0.6504971072845803 0.3495028927154196 0.5998149304808483 0.40018506951915167 0.30416930090062294 0.6958306990993771 0.06522764114184755 0.9347723588581525 0.40576327447371674 0.5942367255262833 0.13004550566586282 0.8699544943341372 0.20383038441878892 0.796169615581211 0.4967800014280994 0.5032199985719006 0.2609944990580883 0.7390055009419118 0.7515740575647873 0.2484259424352126 0.9441402788858745 0.05585972111412548 0.7413293052652591 0.25867069473474086 0.5386329525387803 0.4613670474612197 0.2525842740000772 0.7474157259999229 0.918904466221074 0.081095533778926 0.8754022446962856 0.12459775530371449 0.3310492898926067 0.6689507101073934 0.32494412690957 0.67505587309043 0.10763849075265843 0.8923615092473416 0.7056514111500735 0.2943485888499265 0.3527782952814717 0.6472217047185282 0.47435411574087505 0.525645884259125 0.34271918267935597 0.657280817320644 0.10941401350674823 0.8905859864932518 0.3768686846339436 0.6231313153660564 0.04440339465861718 0.9555966053413828 0.3742610560827197 0.6257389439172804 0.08330385849238421 0.9166961415076158 0.8462520213682028 0.1537479786317972 0.4781300551919353 0.5218699448080647 0.8158403698085804 0.18415963019141954 0.27246842090668105 0.7275315790933189 0.5091861776337857 0.49081382236621424 0.29868041786790867 0.7013195821320913 0.42821502331540523 0.5717849766845948 0.7180373460685258 0.28196265393147424 0.5184650361971043 0.4815349638028958 0.3213158025428618 0.6786841974571381 0.2233055652099154 0.7766944347900846 0.3551473513762441 0.6448526486237559 0.00013393976715036073 0.9998660602328496 0.5610102126789297 0.4389897873210702 0.601645997429658 0.39835400257034215 0.5289120766850312 0.4710879233149688 0.5986213740445012 0.4013786259554988 0.7589698567420308 0.2410301432579691 0.48426897074132164 0.5157310292586784 0.6972793128982758 0.3027206871017242 0.4263812375729418 0.5736187624270583 0.21478780258178862 0.7852121974182114 0.5651971644347767 0.4348028355652233 0.4453825477236918 0.5546174522763083 0.91173894283379 0.08826105716620998 0.6361131962025068 0.3638868037974932 0.8135383603869814 0.18646163961301876 0.4664283554822275 0.5335716445177726 0.5080249432673367 0.4919750567326633 0.20054967634167475 0.7994503236583252 0.5055850865735876 0.49441491342641236 0.5285325634793949 0.47146743652060497 0.18293781975795095 0.817062180242049 0.2930696069905541 0.7069303930094459 0.7117739522720368 0.2882260477279632 0.5274676162889849 0.47253238371101525 0.3234206525967879 0.6765793474032121 0.13029141790755652 0.8697085820924435 0.5643195497089872 0.43568045029101277 0.4106315366917561 0.5893684633082439 0.5481004661271361 0.45189953387286386 0.3021167948283866 0.6978832051716134 0.6202902369960983 0.37970976300390163 0.5119419196115974 0.4880580803884026 0.3266340145071866 0.6733659854928133 0.21232230856573317 0.7876776914342668 0.4449355112938224 0.5550644887061776 0.01992552344060685 0.9800744765593932 0.12534844113603671 0.8746515588639634 0.2835623050469902 0.7164376949530098 0.4026261800157468 0.5973738199842532 0.5673773564516509 0.4326226435483492 0.3066604552198037 0.6933395447801963 0.7279985036342415 0.27200149636575843 0.36130363361191736 0.6386963663880827 0.5138543056222157 0.48614569437778427 0.023415404890039602 0.9765845951099604 0.5006394344618467 0.4993605655381534 0.7656020205159312 0.23439797948406885 0.6512423135087075 0.3487576864912925 0.5459059008743223 0.4540940991256777 0.5440607098223885 0.4559392901776116 0.6794160930472715 0.3205839069527286 0.2263475675379672 0.7736524324620329 0.6259429589987329 0.3740570410012672 0.561902974635935 0.438097025364065 0.03681447238073556 0.9631855276192645 0.5505836717686268 0.4494163282313732 0.33385979058135873 0.6661402094186413 0.8476686902093208 0.1523313097906792 0.4820312292293254 0.5179687707706745 0.4359767263399553 0.5640232736600447 0.9616987808253176 0.038301219174682474 0.7471175811163397 0.25288241888366025 0.3954873034284245 0.6045126965715756 0.1291668921386588 0.8708331078613412 0.16214176266814542 0.8378582373318546 0.4831815596937742 0.5168184403062258 0.464301067190226 0.535698932809774 0.50530847849192 0.49469152150808016 0.3593893074740412 0.6406106925259588 0.9706017038739022 0.0293982961260978 0.19032807511182187 0.8096719248881781 0.33090441549119903 0.669095584508801 0.617265462161626 0.3827345378383741 0.2363846318462165 0.7636153681537835 0.3626011397483328 0.6373988602516671 0.9682083208930549 0.031791679106945143 0.9797677770486248 0.02023222295137516 0.05131641809381975 0.9486835819061803 0.778892838861892 0.221107161138108 0.6406766413232733 0.3593233586767268 0.4924638769853744 0.5075361230146257 0.6756047903319586 0.32439520966804136 0.5198065799898015 0.4801934200101985 0.13892583550399593 0.861074164496004 0.3353503905344017 0.6646496094655984 0.5039357249192691 0.49606427508073103 0.5457575157873604 0.45424248421263963 0.3694037716300656 0.6305962283699343 0.7286411081565808 0.2713588918434192 0.3047132773849678 0.6952867226150322 0.6111233970346046 0.3888766029653953 0.4347587146000131 0.5652412853999869 0.8274510686545515 0.17254893134544846 0.7805239669608185 0.21947603303918156 0.5341069846820322 0.4658930153179677 0.7994499713576416 0.20055002864235838 0.4300653767191013 0.5699346232808986 0.6205326735631561 0.37946732643684394 0.4985094230139342 0.5014905769860658 0.40458475715475395 0.5954152428452459 0.010840298087951315 0.9891597019120487 0.6530983407085034 0.3469016592914966 0.39167840634113144 0.6083215936588685 0.01948047545312031 0.9805195245468797 0.5121005836985595 0.4878994163014405 0.4619691575153932 0.5380308424846068 0.4108838618393352 0.5891161381606649 0.6293008842530374 0.3706991157469625 0.1663590444749072 0.8336409555250927 0.5303928462365094 0.4696071537634905 0.800717116224172 0.19928288377582806 0.6129336917156545 0.3870663082843455 0.6866038569667786 0.31339614303322144 0.6024990605131983 0.39750093948680165 0.5560518049022709 0.443948195097729 0.7865114700091086 0.21348852999089143 0.764818368793682 0.23518163120631794 0.3406373319610651 0.659362668038935 0.5327663727691911 0.4672336272308088 0.19016071456611633 0.8098392854338836 0.3024758061372867 0.6975241938627134 0.6480157653035773 0.3519842346964226 0.34300229013127226 0.6569977098687277 0.3435480609923793 0.6564519390076207 0.02564641495650866 0.9743535850434913 0.4795520564516425 0.5204479435483574 0.493907281132351 0.5060927188676491 0.8200517396762663 0.1799482603237337 0.46781884063591955 0.5321811593640805 0.6671149787173748 0.3328850212826252 0.8870401187169421 0.11295988128305787 0.6515619914065576 0.34843800859344237 0.7864532635035062 0.21354673649649386 0.29487884296096134 0.7051211570390387 0.056025830752011924 0.943974169247988 0.6234208058455742 0.37657919415442576 0.9490388995566275 0.05096110044337253 0.47659799547452397 0.5234020045254761 0.8395262575692419 0.16047374243075796 0.2712320863748959 0.7287679136251041 0.6891053694299959 0.3108946305700041 0.3703719420632143 0.6296280579367857 0.30320164546740674 0.6967983545325932 0.5605908758982091 0.43940912410179095 0.7495182103044981 0.2504817896955019 0.8963187918049921 0.10368120819500788 0.6341871655639126 0.36581283443608753 0.4801906957006109 0.5198093042993891 0.061055998757306953 0.9389440012426931 0.48569034286780033 0.5143096571321997 0.5030591538744784 0.49694084612552153 0.06945598591767645 0.9305440140823236 0.231782324888515 0.768217675111485 0.062485568151218716 0.9375144318487812 0.5824504698397531 0.4175495301602469 0.19893289364195488 0.8010671063580451 0.8585465290806779 0.1414534709193221 0.6601144846010858 0.33988551539891415 0.5332786302831702 0.46672136971682987 0.10557013832300578 0.8944298616769942 0.7451333390213438 0.2548666609786561 0.23250281060036324 0.7674971893996367 0.8054632369588267 0.19453676304117334 0.7057978295118918 0.29420217048810815 0.4011373175574606 0.5988626824425395 0.3814065684064553 0.6185934315935446 0.3652562057676314 0.6347437942323687 0.7726437240079576 0.22735627599204242 0.09728227783414824 0.9027177221658518 0.4238866148673431 0.5761133851326569 0.09848070714997696 0.9015192928500231 0.4741853900284089 0.5258146099715911 0.0005081493182169232 0.999491850681783 0.4168144416776997 0.5831855583223002 0.3495176228227785 0.6504823771772215 0.15471006189756456 0.8452899381024355 0.17729482972079286 0.8227051702792072 0.8355195175463177 0.16448048245368227 0.24051356351534262 0.7594864364846574 0.5800611918166022 0.4199388081833978 0.8375913310642328 0.16240866893576728 0.8246557218655406 0.1753442781344594 0.5094700422862972 0.49052995771370284 0.5250479988147859 0.4749520011852141 0.23686036948979802 0.763139630510202 0.40053861698689036 0.5994613830131098 0.30024797010662796 0.699752029893372 0.5270109499270845 0.4729890500729155 0.48312677768095036 0.5168732223190495 0.19643863950635465 0.8035613604936453 0.6269135962214776 0.3730864037785225 0.6693050523231313 0.3306949476768687 0.5371663780317658 0.46283362196823424 0.9032598515861143 0.09674014841388569 0.5650458784881287 0.43495412151187124 0.8466207885674439 0.15337921143255603 0.48845609474219837 0.5115439052578016 0.9727585572980261 0.02724144270197395 0.48305162023590603 0.516948379764094 0.6305224107852818 0.3694775892147181 0.318048852254882 0.6819511477451181 0.40189999498325774 0.5981000050167423 0.21697119611250523 0.7830288038874947 0.5895967146984924 0.4104032853015077 0.2330287326185097 0.7669712673814902 0.14752706687071668 