<?xml version='1.0' encoding='UTF-8'?>
<BIF VERSION="0.3">
  <NETWORK>
    <NAME>UNTITLED</NAME>
    <VARIABLE TYPE="nature">
      <NAME>0</NAME>
      <OUTCOME>0</OUTCOME>
      <OUTCOME>1</OUTCOME>
      <PROPERTY>weight = None</PROPERTY>
    </VARIABLE>
    <VARIABLE TYPE="nature">
      <NAME>4</NAME>
      <OUTCOME>0</OUTCOME>
      <OUTCOME>1</OUTCOME>
      <PROPERTY>weight = None</PROPERTY>
    </VARIABLE>
    <VARIABLE TYPE="nature">
      <NAME>6</NAME>
      <OUTCOME>0</OUTCOME>
      <OUTCOME>1</OUTCOME>
      <PROPERTY>weight = None</PROPERTY>
    </VARIABLE>
    <VARIABLE TYPE="nature">
      <NAME>7</NAME>
      <OUTCOME>0</OUTCOME>
      <OUTCOME>1</OUTCOME>
      <PROPERTY>weight = None</PROPERTY>
    </VARIABLE>
    <VARIABLE TYPE="nature">
      <NAME>8</NAME>
      <OUTCOME>0</OUTCOME>
      <OUTCOME>1</OUTCOME>
      <PROPERTY>weight = None</PROPERTY>
    </VARIABLE>
    <VARIABLE TYPE="nature">
      <NAME>10</NAME>
      <OUTCOME>0</OUTCOME>
      <OUTCOME>1</OUTCOME>
      <PROPERTY>weight = None</PROPERTY>
    </VARIABLE>
    <VARIABLE TYPE="nature">
      <NAME>11</NAME>
      <OUTCOME>0</OUTCOME>
      <OUTCOME>1</OUTCOME>
      <PROPERTY>weight = None</PROPERTY>
    </VARIABLE>
    <VARIABLE TYPE="nature">
      <NAME>17</NAME>
      <OUTCOME>0</OUTCOME>
      <OUTCOME>1</OUTCOME>
      <PROPERTY>weight = None</PROPERTY>
    </VARIABLE>
    <VARIABLE TYPE="nature">
      <NAME>18</NAME>
      <OUTCOME>0</OUTCOME>
      <OUTCOME>1</OUTCOME>
      <PROPERTY>weight = None</PROPERTY>
    </VARIABLE>
    <VARIABLE TYPE="nature">
      <NAME>20</NAME>
      <OUTCOME>0</OUTCOME>
      <OUTCOME>1</OUTCOME>
      <PROPERTY>weight = None</PROPERTY>
    </VARIABLE>
    <VARIABLE TYPE="nature">
      <NAME>21</NAME>
      <OUTCOME>0</OUTCOME>
      <OUTCOME>1</OUTCOME>
      <PROPERTY>weight = None</PROPERTY>
    </VARIABLE>
    <VARIABLE TYPE="nature">
      <NAME>22</NAME>
      <OUTCOME>0</OUTCOME>
      <OUTCOME>1</OUTCOME>
      <PROPERTY>weight = None</PROPERTY>
    </VARIABLE>
    <VARIABLE TYPE="nature">
      <NAME>24</NAME>
      <OUTCOME>0</OUTCOME>
      <OUTCOME>1</OUTCOME>
      <PROPERTY>weight = None</PROPERTY>
    </VARIABLE>
    <VARIABLE TYPE="nature">
      <NAME>9</NAME>
      <OUTCOME>0</OUTCOME>
      <OUTCOME>1</OUTCOME>
      <PROPERTY>weight = None</PROPERTY>
    </VARIABLE>
    <VARIABLE TYPE="nature">
      <NAME>15</NAME>
      <OUTCOME>0</OUTCOME>
      <OUTCOME>1</OUTCOME>
      <PROPERTY>weight = None</PROPERTY>
    </VARIABLE>
    <VARIABLE TYPE="nature">
      <NAME>19</NAME>
      <OUTCOME>0</OUTCOME>
      <OUTCOME>1</OUTCOME>
      <PROPERTY>weight = None</PROPERTY>
    </VARIABLE>
    <VARIABLE TYPE="nature">
      <NAME>23</NAME>
      <OUTCOME>0</OUTCOME>
      <OUTCOME>1</OUTCOME>
      <PROPERTY>weight = None</PROPERTY>
    </VARIABLE>
    <VARIABLE TYPE="nature">
      <NAME>12</NAME>
      <OUTCOME>0</OUTCOME>
      <OUTCOME>1</OUTCOME>
      <PROPERTY>weight = None</PROPERTY>
    </VARIABLE>
    <VARIABLE TYPE="nature">
      <NAME>13</NAME>
      <OUTCOME>0</OUTCOME>
      <OUTCOME>1</OUTCOME>
      <PROPERTY>weight = None</PROPERTY>
    </VARIABLE>
    <VARIABLE TYPE="nature">
      <NAME>14</NAME>
      <OUTCOME>0</OUTCOME>
      <OUTCOME>1</OUTCOME>
      <PROPERTY>weight = None</PROPERTY>
    </VARIABLE>
    <VARIABLE TYPE="nature">
      <NAME>16</NAME>
      <OUTCOME>0</OUTCOME>
      <OUTCOME>1</OUTCOME>
      <PROPERTY>weight = None</PROPERTY>
    </VARIABLE>
    <VARIABLE TYPE="nature">
      <NAME>1</NAME>
      <OUTCOME>0</OUTCOME>
      <OUTCOME>1</OUTCOME>
      <PROPERTY>weight = None</PROPERTY>
    </VARIABLE>
    <VARIABLE TYPE="nature">
      <NAME>3</NAME>
      <OUTCOME>0</OUTCOME>
      <OUTCOME>1</OUTCOME>
      <PROPERTY>weight = None</PROPERTY>
    </VARIABLE>
    <VARIABLE TYPE="nature">
      <NAME>5</NAME>
      <OUTCOME>0</OUTCOME>
      <OUTCOME>1</OUTCOME>
      <PROPERTY>weight = None</PROPERTY>
    </VARIABLE>
    <VARIABLE TYPE="nature">
      <NAME>2</NAME>
      <OUTCOME>0</OUTCOME>
      <OUTCOME>1</OUTCOME>
      <PROPERTY>weight = None</PROPERTY>
    </VARIABLE>
    <DEFINITION>
      <FOR>0</FOR>
      <TABLE>0.7224778943868978 0.27752210561310214 </TABLE>
    </DEFINITION>
    <DEFINITION>
      <FOR>1</FOR>
      <TABLE>0.6372440727183872 0.3627559272816126 </TABLE>
    </DEFINITION>
    <DEFINITION>
      <FOR>2</FOR>
      <TABLE>0.5483634071784977 0.4516365928215023 </TABLE>
    </DEFINITION>
    <DEFINITION>
      <FOR>3</FOR>
      <GIVEN>1</GIVEN>
      <TABLE>0.8319629673690485 0.16803703263095154 0.4989324495568752 0.5010675504431248 </TABLE>
    </DEFINITION>
    <DEFINITION>
      <FOR>4</FOR>
      <GIVEN>0</GIVEN>
      <GIVEN>3</GIVEN>
      <GIVEN>2</GIVEN>
      <TABLE>0.009411247607833097 0.9905887523921669 0.6915071956763376 0.3084928043236625 0.6396171429405386 0.3603828570594613 0.10753018025675612 0.892469819743244 0.6020250602253873 0.39797493977461273 0.1903880414310602 0.8096119585689397 0.7430173395342646 0.2569826604657353 0.24450404098686332 0.7554959590131367 </TABLE>
    </DEFINITION>
    <DEFINITION>
      <FOR>5</FOR>
      <GIVEN>1</GIVEN>
      <GIVEN>2</GIVEN>
      <TABLE>0.5522490162342576 0.44775098376574235 0.611012879097854 0.38898712090214604 0.3418838601096625 0.6581161398903376 0.910382916640043 0.08961708335995704 </TABLE>
    </DEFINITION>
    <DEFINITION>
      <FOR>6</FOR>
      <GIVEN>0</GIVEN>
      <GIVEN>3</GIVEN>
      <GIVEN>5</GIVEN>
      <TABLE>0.2851047380234868 0.7148952619765132 0.6491314854069603 0.3508685145930396 0.11497703558492238 0.8850229644150777 0.40136961422677025 0.5986303857732298 0.23533359784193986 0.76466640215806 0.2787037126990438 0.7212962873009562 0.5319153806673539 0.4680846193326461 0.8902981781693816 0.10970182183061836 </TABLE>
    </DEFINITION>
    <DEFINITION>
      <FOR>7</FOR>
      <GIVEN>0</GIVEN>
      <GIVEN>6</GIVEN>
      <GIVEN>3</GIVEN>
      <GIVEN>2</GIVEN>
      <TABLE>0.9229368915802627 0.0770631084197373 0.9137040570884174 0.08629594291158264 0.9864517619627047 0.013548238037295228 0.6304413073109594 0.3695586926890406 0.5507046322178816 0.4492953677821185 0.7502630149777487 0.24973698502225142 0.44275142049533606 0.5572485795046639 0.07294025491994628 0.9270597450800537 0.901022970539481 0.09897702946051896 0.26121490371821593 0.738785096281784 0.775838947529904 0.22416105247009602 0.3821529235375125 0.6178470764624875 0.6547889592676249 0.34521104073237513 0.5279773241952377 0.4720226758047623 0.49046009219758185 0.5095399078024182 0.08997460800890787 0.9100253919910921 </TABLE>
    </DEFINITION>
    <DEFINITION>
      <FOR>8</FOR>
      <GIVEN>0</GIVEN>
      <GIVEN>4</GIVEN>
      <GIVEN>6</GIVEN>
      <GIVEN>7</GIVEN>
      <GIVEN>1</GIVEN>
      <GIVEN>3</GIVEN>
      <GIVEN>5</GIVEN>
      <GIVEN>2</GIVEN>
      <TABLE>0.25254473559371654 0.7474552644062834 0.7062342837220178 0.2937657162779822 0.24008286489239977 0.7599171351076002 0.6022296656882887 0.39777033431171127 0.9024129198187925 0.09758708018120753 0.7187476370289587 0.2812523629710413 0.5378352055387581 0.4621647944612419 0.5659396937156237 0.4340603062843763 0.5926839138458981 0.4073160861541018 0.6773366129804032 0.3226633870195969 0.7157308796708394 0.28426912032916074 0.1872491881007661 0.8127508118992339 0.48567011283329564 0.5143298871667044 0.056918915871625134 0.9430810841283749 0.2098467698723981 0.7901532301276019 0.8251672444612775 0.1748327555387226 0.2183421016640502 0.7816578983359498 0.8150196638226194 0.18498033617738066 0.9928542919667976 0.0071457080332023686 0.6461899300012776 0.35381006999872244 0.3633701081021138 0.6366298918978862 0.3627969726202586 0.6372030273797414 0.6348193985722083 0.3651806014277917 0.9699651392958274 0.030034860704172616 0.7620104040305751 0.23798959596942487 0.8485496699933445 0.15145033000665556 0.5855751322782989 0.41442486772170106 0.8635337789392687 0.13646622106073125 0.3902134689694944 0.6097865310305056 0.3268553881515387 0.6731446118484612 0.47720112442230417 0.5227988755776959 0.7427005720243611 0.2572994279756388 0.10543068004014475 0.8945693199598552 0.22647498541341807 0.773525014586582 0.3617882160784306 0.6382117839215694 0.42761031881611905 0.5723896811838809 0.2957275177501736 0.7042724822498264 0.35656608733737377 0.6434339126626263 0.5239688575934536 0.4760311424065464 0.19141199752111795 0.8085880024788821 0.46486753880849097 0.535132461191509 0.6683687521484988 0.3316312478515013 0.29389889075183084 0.7061011092481692 0.3732082030709256 0.6267917969290744 0.4968753335051163 0.5031246664948837 0.585401485643793 0.414598514356207 0.6339278560910153 0.3660721439089846 0.8913056091070038 0.10869439089299616 0.1425507650505626 0.8574492349494374 0.5056592823039863 0.4943407176960138 0.8678841376033686 0.13211586239663153 0.971066160800149 0.028933839199851024 0.27438582342154705 0.725614176578453 0.20458394830352303 0.795416051696477 0.9403830292951864 0.059616970704813574 0.48519024462047616 0.5148097553795239 0.9387392541742894 0.06126074582571061 0.3032443251993759 0.6967556748006242 0.3092652828612929 0.6907347171387072 0.40233074811666614 0.5976692518833339 0.20819196732667178 0.7918080326733282 0.516607757247792 0.483392242752208 0.4434445005795544 0.5565554994204456 0.8488564117400972 0.15114358825990282 0.22336877899805366 0.7766312210019464 0.0930065309501888 0.906993469049811 0.14244682344476056 0.8575531765552394 0.3743076390215818 0.6256923609784182 0.2885592400864836 0.7114407599135164 0.9546340128694891 0.04536598713051089 0.3189705986284457 0.6810294013715543 0.1431954142566693 0.8568045857433307 0.7419185429652023 0.25808145703479773 0.46883999743427973 0.5311600025657203 0.17338240845041974 0.8266175915495803 0.34552004037537226 0.6544799596246277 0.5686994275117381 0.4313005724882619 0.20581354007996558 0.7941864599200346 0.7745920542102271 0.22540794578977288 0.6743461631279468 0.32565383687205324 0.5995332130207226 0.40046678697927746 0.5557040602992707 0.44429593970072934 0.5586848029361141 0.44131519706388583 0.6785190556418959 0.3214809443581041 0.5503501211721743 0.4496498788278258 0.354920425522993 0.645079574477007 0.5118260823912743 0.48817391760872575 0.453636327521083 0.5463636724789169 0.8346813301511895 0.16531866984881052 0.5500827095501798 0.4499172904498202 0.46346362383399137 0.5365363761660087 0.8947933820469627 0.10520661795303737 0.9095266982460086 0.09047330175399138 0.41059149397241784 0.5894085060275821 0.7366822801829788 0.2633177198170213 0.5210198227841746 0.4789801772158255 0.5102762654212671 0.4897237345787329 0.9365987382792748 0.06340126172072527 0.31734303977909056 0.6826569602209096 0.9886338719258725 0.011366128074127518 0.97594257596726 0.024057424032740058 0.33461113302138495 0.6653888669786151 0.6264795316886037 0.3735204683113963 0.5685053138196378 0.43149468618036224 0.6892954193067335 0.3107045806932664 0.08704542036574181 0.9129545796342582 0.9201069538630635 0.0798930461369365 0.46894544560158297 0.5310545543984171 0.13494077249480307 0.8650592275051969 0.4775147224161069 0.5224852775838932 0.4460972727524398 0.5539027272475602 0.1286087467076515 0.8713912532923485 0.7975017276760948 0.2024982723239051 0.48994843688506223 0.5100515631149378 0.24239959132425762 0.7576004086757423 0.7948411090733825 0.20515889092661757 0.2947090943561713 0.7052909056438288 0.004586287417813115 0.9954137125821869 0.41585665162157825 0.5841433483784219 0.3282612041160151 0.6717387958839849 0.8560419490686435 0.1439580509313565 0.5031574401878189 0.4968425598121811 0.1418021974618086 0.8581978025381914 0.23923801378198806 0.7607619862180118 0.6494386298173119 0.35056137018268796 0.6841016060191681 0.3158983939808319 0.5934715587724649 0.4065284412275351 0.20904753284653158 0.7909524671534685 0.06862484813344824 0.9313751518665517 0.601886694409596 0.3981133055904041 0.6374195100355504 0.3625804899644495 0.45665023531089 0.54334976468911 0.18878471028718272 0.8112152897128174 0.4089697118622525 0.5910302881377476 0.2714087363291115 0.7285912636708886 0.8077155760933886 0.1922844239066114 0.33228253583753314 0.6677174641624669 0.48731512246171105 0.5126848775382891 0.7321721107821744 0.26782788921782563 0.1494972342342688 0.8505027657657311 0.5835420564280452 0.41645794357195476 0.5416507552220556 0.45834924477794436 0.2738886811938704 0.7261113188061297 0.2289686160307372 0.7710313839692627 0.5719076108244746 0.4280923891755254 0.6684354507126058 0.3315645492873942 0.375571274106198 0.624428725893802 0.6035479841957542 0.3964520158042458 0.5762085319180857 0.42379146808191437 0.5843252234012728 0.41567477659872726 0.6984441434314554 0.30155585656854456 0.09710165646975381 0.9028983435302462 0.742724552046097 0.257275447953903 0.7710259549786819 0.22897404502131816 0.5276828001498367 0.47231719985016335 0.4884737033599444 0.5115262966400556 0.24145326863631592 0.7585467313636841 0.25450687041457465 0.7454931295854254 0.8631496227587433 0.13685037724125682 0.5206485720455079 0.4793514279544922 0.508168696717682 0.4918313032823181 0.3659906180868015 0.6340093819131984 0.4293698908124498 0.5706301091875502 0.5434762923736045 0.45652370762639544 0.7263999582004176 0.27360004179958236 0.967775649419836 0.03222435058016402 0.30993586884426294 0.6900641311557371 0.1932216516180773 0.8067783483819227 0.40196740436805045 0.5980325956319494 0.4634285950609715 0.5365714049390286 0.482405270066949 0.517594729933051 0.5674276187568056 0.4325723812431944 0.6176045168899233 0.38239548311007665 0.36838661664826533 0.6316133833517347 0.4479339294505664 0.5520660705494336 0.8225177441427417 0.17748225585725835 0.25603264350891924 0.7439673564910808 0.4941450932822831 0.5058549067177168 0.5450598427008921 0.4549401572991078 0.5852489637492666 0.4147510362507334 0.4805507940248585 0.5194492059751414 0.3779105009519092 0.6220894990480909 0.27832191324366906 0.7216780867563309 0.7786371440822716 0.22136285591772828 0.15383636060029915 0.8461636393997009 0.5169023347850402 0.4830976652149598 0.9265569081476467 0.07344309185235331 0.14842234658324313 0.8515776534167568 0.45310796006175574 0.5468920399382443 0.4779947828410755 0.5220052171589246 0.6579202369067667 0.34207976309323335 0.29535696412936063 0.7046430358706394 0.40743299957349605 0.592567000426504 0.9105913705867189 0.0894086294132811 0.27705494349751586 0.7229450565024841 0.8860658587743668 0.11393414122563314 0.49813978029903777 0.5018602197009622 0.543840237105198 0.4561597628948021 0.3828654875123433 0.6171345124876567 0.46252276912584855 0.5374772308741514 0.3803645144990609 0.619635485500939 0.6100065316522584 0.3899934683477416 0.30664767636645385 0.6933523236335462 0.41640137877083877 0.5835986212291613 0.38103082077280165 0.6189691792271983 0.27362163848944576 0.7263783615105543 0.3304104363206744 0.6695895636793255 0.5915118987901186 0.4084881012098815 0.046993794899046044 0.9530062051009539 0.46148104909854903 0.5385189509014511 0.48720266084896835 0.5127973391510317 0.5722481299909737 0.4277518700090263 0.5230726677769671 0.47692733222303285 0.5519772559030076 0.44802274409699244 0.9312586988299633 0.06874130117003678 0.08487311395527643 0.9151268860447236 0.10145033950109511 0.898549660498905 0.9210867476173442 0.0789132523826558 0.07423607450901962 0.9257639254909804 0.4510269782031121 0.5489730217968879 0.423474067571776 0.5765259324282239 0.8791040440026545 0.12089595599734555 0.542413095209337 0.457586904790663 0.5994643722701928 0.4005356277298072 0.2854970455702741 0.7145029544297259 0.14198811353614582 0.8580118864638542 0.18690077054288023 0.8130992294571198 0.3899398698933584 0.6100601301066416 0.8049044702194069 0.19509552978059308 0.3115012949367773 0.6884987050632227 0.40955891377906317 0.5904410862209368 0.3935727184969621 0.6064272815030378 0.427680145640701 0.572319854359299 0.6008853604109101 0.3991146395890899 0.5729843438041547 0.4270156561958452 0.5207444537950255 0.47925554620497446 0.35844676234396483 0.6415532376560351 0.6921825045258226 0.30781749547417725 0.9625332587555407 0.03746674124445921 0.8797780077562339 0.12022199224376609 0.7656300685310967 0.23436993146890317 0.5392483389067217 0.4607516610932782 0.20188018966148102 0.798119810338519 0.21258415071034667 0.7874158492896534 0.2233489434467859 0.7766510565532141 0.5150112177629469 0.4849887822370531 0.54979513352984 0.45020486647016006 0.26775702925542594 0.7322429707445739 0.7298799681775665 0.27012003182243355 0.40924501150260234 0.5907549884973976 0.11972249902405918 0.8802775009759408 0.01714062720387949 0.9828593727961205 0.22116475685950504 0.7788352431404949 0.4720482899924231 0.5279517100075769 0.4179029657484515 0.5820970342515485 0.2670669282469004 0.7329330717530995 </TABLE>
    </DEFINITION>
    <DEFINITION>
      <FOR>9</FOR>
      <GIVEN>6</GIVEN>
      <GIVEN>7</GIVEN>
      <GIVEN>8</GIVEN>
      <GIVEN>1</GIVEN>
      <GIVEN>3</GIVEN>
      <TABLE>0.8357267243541117 0.16427327564588837 0.054696063653127756 0.9453039363468723 0.8998358718815463 0.10016412811845365 0.48173380293435747 0.5182661970656426 0.43737917718887065 0.5626208228111294 0.5215809866172154 0.47841901338278453 0.5039673347397018 0.49603266526029816 0.6911659171703308 0.3088340828296692 0.5871180757849127 0.4128819242150873 0.49752717022711346 0.5024728297728867 0.9609084483648271 0.03909155163517277 0.7811742110198522 0.21882578898014782 0.5008241335562298 0.4991758664437702 0.42686286299635007 0.5731371370036499 0.8066594095303339 0.19334059046966615 0.5435912945590892 0.4564087054409108 0.7511157817658308 0.24888421823416915 0.8350449152608943 0.16495508473910567 0.5214460577787058 0.47855394222129416 0.8753333446784933 0.12466665532150661 0.3789081573921382 0.6210918426078618 0.3088670937197248 0.6911329062802752 0.6408265051812571 0.359173494818743 0.23996968179910433 0.7600303182008956 0.3908888811116067 0.6091111188883933 0.21014951821566244 0.7898504817843375 0.3353562617584129 0.6646437382415872 0.5186929580600963 0.48130704193990376 0.2107567789523151 0.789243221047685 0.7477073069214297 0.25229269307857044 0.47316250780094943 0.5268374921990505 0.19806905116026371 0.8019309488397363 </TABLE>
    </DEFINITION>
    <DEFINITION>
      <FOR>10</FOR>
      <GIVEN>0</GIVEN>
      <GIVEN>4</GIVEN>
      <GIVEN>7</GIVEN>
      <GIVEN>8</GIVEN>
      <GIVEN>5</GIVEN>
      <GIVEN>9</GIVEN>
      <TABLE>0.3845201268359715 0.6154798731640285 0.60618339889528 0.39381660110472 0.5018096309783817 0.49819036902161834 0.7950417990285726 0.2049582009714274 0.4690292478758806 0.5309707521241194 0.5605629858789781 0.4394370141210218 0.48612255558298745 0.5138774444170126 0.5032110770283142 0.4967889229716857 0.8513756748876141 0.1486243251123859 0.40326827122957426 0.5967317287704258 0.5257292826663518 0.4742707173336483 0.4499937461214708 0.5500062538785292 0.3842896271409534 0.6157103728590466 0.48456635222873085 0.5154336477712692 0.8513669894725551 0.14863301052744488 0.4728926438961948 0.5271073561038051 0.2059078177372766 0.7940921822627234 0.7698819618892663 0.2301180381107337 0.11122569367854807 0.8887743063214519 0.45946979039486263 0.5405302096051373 0.23000456703349081 0.7699954329665092 0.3973968047581504 0.6026031952418497 0.7115232276796611 0.28847677232033886 0.4544119312411076 0.5455880687588924 0.44780249399106914 0.5521975060089308 0.362362760992902 0.637637239007098 0.6403806998110584 0.3596193001889416 0.6016479041801213 0.39835209581987874 0.679683502752722 0.3203164972472779 0.8501286507340217 0.14987134926597823 0.3229397090258592 0.6770602909741408 0.5941367965098293 0.4058632034901707 0.6170270938246848 0.3829729061753151 0.30847778157867434 0.6915222184213258 0.4278537051293517 0.5721462948706483 0.33737438113720675 0.6626256188627931 0.6598425997930997 0.3401574002069003 0.4584678188129035 0.5415321811870966 0.2701929459357159 0.7298070540642841 0.7565720418788169 0.24342795812118315 0.0634741330634343 0.9365258669365657 0.17095072212996237 0.8290492778700377 0.5302333138844404 0.46976668611555955 0.5255395956609589 0.4744604043390412 0.3386802511680509 0.6613197488319491 0.9630876845792444 0.036912315420755584 0.5774611750613323 0.4225388249386677 0.09832676361622558 0.9016732363837744 0.18015848895725065 0.8198415110427494 0.4339819424246562 0.5660180575753437 0.014719129068558347 0.9852808709314418 0.06917293879774349 0.9308270612022567 0.31037387628079455 0.6896261237192054 0.6316464822037982 0.36835351779620185 0.573835193929127 0.4261648060708731 0.40943198678302023 0.5905680132169797 0.27323269285541285 0.7267673071445871 0.6655648498343034 0.33443515016569664 0.4435601166153426 0.5564398833846573 0.5546505564804101 0.44534944351959 0.6319101043935882 0.36808989560641187 0.28837007236218365 0.7116299276378164 0.759446814364604 0.24055318563539582 0.6710395888515526 0.3289604111484475 </TABLE>
    </DEFINITION>
    <DEFINITION>
      <FOR>11</FOR>
      <GIVEN>0</GIVEN>
      <GIVEN>4</GIVEN>
      <GIVEN>6</GIVEN>
      <GIVEN>10</GIVEN>
      <GIVEN>1</GIVEN>
      <GIVEN>5</GIVEN>
      <GIVEN>9</GIVEN>
      <GIVEN>2</GIVEN>
      <TABLE>0.4191094962973089 0.5808905037026911 0.42918953067245813 0.5708104693275419 0.9412863476402508 0.05871365235974924 0.5461387531496491 0.4538612468503508 0.6190944257922523 0.38090557420774773 0.5101117065286362 0.48988829347136376 0.5859486204338824 0.41405137956611765 0.8080473047782826 0.19195269522171743 0.21788057575340303 0.782119424246597 0.5321684487736889 0.4678315512263112 0.2746180004109142 0.7253819995890858 0.7388143736577398 0.26118562634226006 0.16639671247391238 0.8336032875260876 0.44775053137711984 0.5522494686228802 0.7550857289519207 0.2449142710480793 0.3582942285534418 0.6417057714465583 0.5350553321489887 0.4649446678510113 0.5453157305301587 0.4546842694698413 0.11680142133386386 0.8831985786661362 0.459045950798424 0.5409540492015761 0.8909264001598244 0.10907359984017559 0.45120676115623554 0.5487932388437645 0.313197697185553 0.6868023028144471 0.39684094090367616 0.6031590590963238 0.2969013109197893 0.7030986890802108 0.4240052232668553 0.5759947767331446 0.5421208387151986 0.45787916128480144 0.8501767637152593 0.1498232362847407 0.08455346135214173 0.9154465386478583 0.6953219194464545 0.3046780805535454 0.632589597381965 0.367410402618035 0.5186590758096963 0.48134092419030367 0.9428501472390514 0.057149852760948666 0.056660058751111284 0.9433399412488888 0.3369425361654686 0.6630574638345315 0.4488835389046921 0.5511164610953079 0.6224200025840426 0.37757999741595744 0.7573880673380448 0.2426119326619552 0.15229491820538957 0.8477050817946105 0.33058508603597997 0.6694149139640201 0.47056641430497725 0.5294335856950227 0.5344511346484223 0.4655488653515777 0.591537017770551 0.40846298222944916 0.4987474540082571 0.5012525459917428 0.1560311910543207 0.8439688089456793 0.22717789493521928 0.7728221050647808 0.5816833278674947 0.41831667213250534 0.6164899153043223 0.3835100846956777 0.47304829634316964 0.5269517036568305 0.056926928720577925 0.9430730712794221 0.4881077795845355 0.5118922204154646 0.13330713139278833 0.8666928686072117 0.4298188574546073 0.5701811425453926 0.1573801985332064 0.8426198014667936 0.07164427063883981 0.9283557293611602 0.3005544234860556 0.6994455765139445 0.6626213693448687 0.33737863065513124 0.7623831564454894 0.23761684355451065 0.7450542887345981 0.2549457112654019 0.21448036260833644 0.7855196373916635 0.8604216355067389 0.13957836449326108 0.9059221618131026 0.09407783818689737 0.211504438284465 0.7884955617155349 0.6414169211937637 0.35858307880623624 0.2716721598947143 0.7283278401052857 0.4437871073459594 0.5562128926540405 0.45026235261158953 0.5497376473884105 0.6822679892723007 0.31773201072769935 0.7232054778727364 0.2767945221272636 0.4055260168765415 0.5944739831234586 0.4236581519689473 0.5763418480310527 0.5704145273862061 0.4295854726137938 0.14154531712030763 0.8584546828796924 0.4705186709907809 0.5294813290092191 0.15827216118555174 0.8417278388144482 0.1825429025933552 0.8174570974066447 0.5919147354717638 0.4080852645282362 0.6107639339428259 0.3892360660571741 0.6528416989842503 0.3471583010157497 0.12199388268098671 0.8780061173190132 0.9047736374114667 0.0952263625885334 0.19776793922379726 0.8022320607762028 0.7025661345796438 0.2974338654203562 0.7739432539717717 0.22605674602822834 0.8861131597830548 0.11388684021694519 0.9077495925060955 0.09225040749390444 0.8198558806670357 0.18014411933296437 0.3288523593546326 0.6711476406453675 0.4320991456504951 0.567900854349505 0.43813561587084743 0.5618643841291525 0.589606642645876 0.4103933573541239 0.47114436709481305 0.528855632905187 0.5688519900288759 0.4311480099711241 0.7345615261630521 0.2654384738369478 0.28533197023397877 0.7146680297660213 0.9471869038307172 0.0528130961692827 0.6620536425288602 0.33794635747113977 0.2795166973956981 0.7204833026043019 0.9523568476278762 0.04764315237212378 0.680886574482195 0.319113425517805 0.7720330273633967 0.22796697263660332 0.49731516455579056 0.5026848354442095 0.28208133034192256 0.7179186696580775 0.5549456802256769 0.44505431977432314 0.8313390736041838 0.16866092639581617 0.02209437162155378 0.9779056283784462 0.18492398069577265 0.8150760193042274 0.4169567230600901 0.5830432769399099 0.7535303850061885 0.24646961499381148 0.18037907325572053 0.8196209267442794 0.30176022072060776 0.6982397792793923 0.4147200306489476 0.5852799693510525 0.728143252322127 0.27185674767787305 0.916586851915489 0.0834131480845109 0.17611634848457103 0.823883651515429 0.7684540252280776 0.23154597477192243 0.9986100878334788 0.0013899121665211238 0.5103168922189991 0.4896831077810009 0.09315301728291467 0.9068469827170854 0.3402962866327291 0.659703713367271 0.35306579166889684 0.6469342083311033 0.7296881089194028 0.2703118910805971 0.26551550861834006 0.73448449138166 0.38412356503479705 0.615876434965203 0.822992668913014 0.17700733108698594 0.6721880409644962 0.3278119590355038 0.5488319944681928 0.45116800553180725 0.653570196417048 0.34642980358295206 0.6169694386310274 0.3830305613689726 0.8218647981414318 0.17813520185856827 0.702408947607437 0.297591052392563 0.6877349627892798 0.31226503721072024 0.9647835412148446 0.03521645878515539 0.548586902224462 0.4514130977755379 0.5404511978282065 0.45954880217179356 0.6797006622892303 0.3202993377107696 0.2501369564530296 0.7498630435469704 0.3247627768470873 0.6752372231529127 0.41170449274105314 0.5882955072589469 0.6374582299621514 0.36254177003784854 0.509664384320444 0.4903356156795559 0.7314374242346664 0.2685625757653337 0.6199862183480834 0.3800137816519166 0.11761658360015054 0.8823834163998494 0.38132075318920805 0.6186792468107919 0.49646739208371893 0.5035326079162811 0.6081485027850425 0.3918514972149574 0.2975210759864354 0.7024789240135647 0.5225472818392527 0.47745271816074725 0.41464314991359724 0.5853568500864027 0.73553666285838 0.26446333714161996 0.8463919244423675 0.15360807555763242 0.4395718152850367 0.5604281847149633 0.5490408571464765 0.45095914285352345 0.46906808469022976 0.5309319153097704 0.3698802338690578 0.6301197661309423 0.6801214065061617 0.3198785934938383 0.8999001445535094 0.10009985544649058 0.5637142484000571 0.4362857515999429 0.3576844496984334 0.6423155503015666 0.14516218035999756 0.8548378196400023 0.6098944592483373 0.3901055407516627 0.4021426827013341 0.597857317298666 0.46945339667756175 0.5305466033224382 0.47656315127269233 0.5234368487273077 0.4746724421248945 0.5253275578751055 0.5355376966246443 0.46446230337535566 0.04120550715753104 0.958794492842469 0.1030216187314242 0.8969783812685758 0.7373799508473557 0.2626200491526442 0.574289526360433 0.4257104736395671 0.23612677226337264 0.7638732277366274 0.46217790745671644 0.5378220925432836 0.49229839245060053 0.5077016075493994 0.44212795342780103 0.557872046572199 0.6247671539097498 0.37523284609025026 0.578235157010939 0.421764842989061 0.6408342560664846 0.35916574393351547 0.49078382722050745 0.5092161727794925 0.8826258449738903 0.11737415502610973 0.5439314798994452 0.45606852010055476 0.3071379711627135 0.6928620288372865 0.47136119787003505 0.528638802129965 0.04095923313960815 0.9590407668603919 0.2679302259978744 0.7320697740021256 0.6817376293828583 0.3182623706171417 0.9886366781187216 0.011363321881278463 0.05793388370199996 0.9420661162980001 0.34135778175833925 0.6586422182416608 0.26112078153834856 0.7388792184616513 0.7086540262618832 0.29134597373811694 0.3996334375234843 0.6003665624765157 0.6166889657138025 0.38331103428619756 0.36587650468419236 0.6341234953158076 0.005290896328051138 0.9947091036719489 0.3451100570401988 0.6548899429598012 0.7384882744028399 0.2615117255971601 0.23656973191948025 0.7634302680805197 0.608338086688011 0.3916619133119889 0.10169384347581928 0.8983061565241807 0.10808676053712171 0.8919132394628783 0.5811558906395505 0.4188441093604495 0.6796209840902357 0.32037901590976425 0.5043215970652477 0.49567840293475235 0.6660071182474754 0.3339928817525246 0.2884429617363257 0.7115570382636743 0.13720589151968046 0.8627941084803196 0.68613939697595 0.31386060302405017 0.58164695643425 0.4183530435657501 0.33056708898836273 0.6694329110116372 0.6583170080194949 0.34168299198050506 0.7308125683485192 0.2691874316514808 0.6804302025914316 0.31956979740856833 0.5008167662691678 0.4991832337308322 0.7261963769129676 0.2738036230870324 0.8555309480811955 0.14446905191880458 0.6898160652800831 0.31018393471991684 0.1518427636135614 0.8481572363864386 0.9730605622394023 0.02693943776059773 0.1412731031543344 0.8587268968456656 0.5706405293000824 0.4293594706999176 0.15054902015803442 0.8494509798419656 0.19549844204772673 0.8045015579522733 0.8324658727852374 0.1675341272147626 0.1264887381496554 0.8735112618503446 0.7778805901393887 0.22211940986061127 0.5925562258736339 0.40744377412636607 0.8156520360729895 0.1843479639270106 0.8418711220490201 0.15812887795097985 0.10590310444621463 0.8940968955537854 0.05128913981955374 0.9487108601804463 0.6955916024046337 0.3044083975953664 0.41071745332006143 0.5892825466799386 0.5740936206441161 0.42590637935588394 0.6970816339543271 0.3029183660456729 0.7996576572178767 0.2003423427821232 0.14278879722812127 0.8572112027718787 0.09913937640377651 0.9008606235962235 0.9872742294821732 0.012725770517826753 0.39097489345588815 0.6090251065441118 0.8139415093539163 0.1860584906460837 0.8731453127280379 0.1268546872719622 0.43375439315649034 0.5662456068435097 0.5551467921663059 0.444853207833694 0.4043704600041275 0.5956295399958724 0.4008511042165344 0.5991488957834655 0.7601391619866943 0.23986083801330582 0.1930653183857129 0.8069346816142872 0.7037238639654614 0.2962761360345386 0.896382954393562 0.103617045606438 0.6107360164876501 0.38926398351234986 0.07482279730685473 0.9251772026931453 0.051460283505445806 0.9485397164945542 0.9228806455408424 0.07711935445915778 0.5264425103774588 0.47355748962254113 0.724316684846545 0.275683315153455 </TABLE>
    </DEFINITION>
    <DEFINITION>
      <FOR>12</FOR>
      <GIVEN>7</GIVEN>
      <GIVEN>8</GIVEN>
      <GIVEN>11</GIVEN>
      <TABLE>0.4050577646442751 0.5949422353557249 0.5709378708859495 0.42906212911405056 0.32238704438383675 0.6776129556161633 0.257331363663431 0.7426686363365689 0.7610520416302103 0.2389479583697895 0.7301593854357603 0.2698406145642397 0.8211423150906204 0.1788576849093796 0.985015214124854 0.01498478587514612 </TABLE>
    </DEFINITION>
    <DEFINITION>
      <FOR>13</FOR>
      <GIVEN>7</GIVEN>
      <GIVEN>11</GIVEN>
      <GIVEN>3</GIVEN>
      <GIVEN>5</GIVEN>
      <GIVEN>12</GIVEN>
      <TABLE>0.11644599534217788 0.8835540046578221 0.14403365606246127 0.8559663439375387 0.0806489883790351 0.9193510116209649 0.4949387098504574 0.5050612901495425 0.37602944142587535 0.6239705585741248 0.5702676216198551 0.42973237838014483 0.6039717357786003 0.3960282642213997 0.034695821616406684 0.9653041783835933 0.24021142115283958 0.7597885788471604 0.033612044037041974 0.966387955962958 0.5586045669670431 0.441395433032957 0.8828869762536076 0.11711302374639243 0.5786458309390937 0.4213541690609062 0.5158112900606076 0.4841887099393925 0.1787481144061001 0.8212518855938999 0.34815270006709675 0.6518472999329032 0.5952666645856463 0.4047333354143538 0.7383424702026491 0.2616575297973509 0.2553179416249947 0.7446820583750052 0.09024034138888527 0.9097596586111149 0.03341038646071447 0.9665896135392855 0.24323041129435594 0.756769588705644 0.389200951486692 0.610799048513308 0.45462808526971815 0.5453719147302819 0.6822533434864579 0.317746656513542 0.7888295545857118 0.2111704454142881 0.05704257674979459 0.9429574232502054 0.46328292421365547 0.5367170757863444 0.5330804177499062 0.4669195822500938 0.6920232462120265 0.30797675378797357 0.18781299313137156 0.8121870068686284 0.004861051302815135 0.9951389486971849 </TABLE>
    </DEFINITION>
    <DEFINITION>
      <FOR>14</FOR>
      <GIVEN>7</GIVEN>
      <GIVEN>9</GIVEN>
      <GIVEN>2</GIVEN>
      <GIVEN>12</GIVEN>
      <TABLE>0.46799227070975463 0.5320077292902454 0.7047571178299266 0.29524288217007355 0.22838319426556386 0.7716168057344361 0.8301668069052937 0.1698331930947064 0.6548554344313064 0.34514456556869344 0.9093510058771547 0.09064899412284536 0.5121381877851825 0.48786181221481745 0.2861696603717995 0.7138303396282005 0.10252242122000728 0.8974775787799927 0.3567255618773587 0.6432744381226413 0.7360427277644562 0.26395727223554377 0.5244098943377572 0.47559010566224275 0.4195514275579284 0.5804485724420716 0.2524629685233339 0.7475370314766661 0.7813478107036073 0.21865218929639274 0.5677021332956861 0.4322978667043139 </TABLE>
    </DEFINITION>
    <DEFINITION>
      <FOR>15</FOR>
      <GIVEN>6</GIVEN>
      <GIVEN>10</GIVEN>
      <GIVEN>5</GIVEN>
      <GIVEN>12</GIVEN>
      <TABLE>0.015772518593924555 0.9842274814060754 0.09215102563107182 0.9078489743689282 0.5779594335175697 0.4220405664824304 0.4952332825969384 0.5047667174030616 0.36262705274010854 0.6373729472598915 0.5194872842461056 0.4805127157538944 0.6342763321628064 0.3657236678371936 0.6939192813343041 0.3060807186656959 0.459007845704009 0.5409921542959911 0.6218063316345994 0.37819366836540064 0.502604597295275 0.49739540270472504 0.25352111230290125 0.7464788876970987 0.7489304365688225 0.2510695634311775 0.828423377423308 0.1715766225766919 0.33493735556799986 0.665062644432 0.4176925512096421 0.5823074487903579 </TABLE>
    </DEFINITION>
    <DEFINITION>
      <FOR>16</FOR>
      <GIVEN>7</GIVEN>
      <GIVEN>10</GIVEN>
      <GIVEN>11</GIVEN>
      <GIVEN>5</GIVEN>
      <GIVEN>2</GIVEN>
      <GIVEN>13</GIVEN>
      <GIVEN>15</GIVEN>
      <TABLE>0.543988413582777 0.4560115864172229 0.7394794287946037 0.2605205712053963 0.5264666880052158 0.47353331199478416 0.8762622849147601 0.12373771508523991 0.21944292159367831 0.7805570784063217 0.4374973669795159 0.5625026330204841 0.379751221488695 0.6202487785113051 0.4143503994196594 0.5856496005803405 0.051299852149079714 0.9487001478509203 0.7266971027371599 0.2733028972628401 0.5478039040128123 0.4521960959871877 0.5422257279903584 0.4577742720096416 0.08902389841595879 0.9109761015840412 0.13896420874016563 0.8610357912598343 0.5355547798077809 0.4644452201922191 0.4092146791359883 0.5907853208640117 0.3635694134747704 0.6364305865252297 0.588078253439465 0.41192174656053504 0.3186208573802911 0.6813791426197088 0.3026705156054543 0.6973294843945457 0.936093176749321 0.063906823250679 0.6162929744198062 0.3837070255801937 0.5290418777530518 0.4709581222469483 0.48174674813824364 0.5182532518617564 0.8884168379181882 0.11158316208181183 0.5447938542221604 0.45520614577783963 0.4502299756297729 0.549770024370227 0.8803932932771151 0.1196067067228849 0.5688859801130172 0.4311140198869829 0.00677188494396532 0.9932281150560347 0.29482119222672604 0.7051788077732739 0.42746661307279993 0.5725333869272 0.3964219890998719 0.603578010900128 0.16111027080791734 0.8388897291920825 0.4255959141701498 0.5744040858298501 0.5443356734162352 0.4556643265837648 0.015286665289459017 0.9847133347105409 0.6792016259346597 0.3207983740653402 0.5763166546884013 0.4236833453115986 0.30503277454977107 0.6949672254502289 0.6174008007893476 0.38259919921065244 0.6028000313117988 0.39719996868820123 0.5354761575977338 0.4645238424022663 0.16357974255578878 0.8364202574442112 0.15658809179211883 0.8434119082078811 0.8435514809469595 0.1564485190530405 0.7468575614914237 0.2531424385085765 0.3060007517617221 0.693999248238278 0.6865827318470443 0.3134172681529557 0.42410733472574946 0.5758926652742506 0.08220667241061405 0.9177933275893859 0.16235399435325817 0.8376460056467419 0.5303730418449198 0.4696269581550802 0.36004623281084847 0.6399537671891514 0.03481748058426679 0.9651825194157332 0.14648677345127809 0.853513226548722 0.3365197543351228 0.6634802456648772 0.6903473996086905 0.3096526003913096 0.5568089445653752 0.44319105543462484 0.32828712622470374 0.6717128737752962 0.8808364262941246 0.1191635737058754 0.18768745285825786 0.8123125471417422 0.6384920115594855 0.3615079884405144 0.926499966428269 0.073500033571731 0.2545446311084453 0.7454553688915547 0.48755461748792467 0.5124453825120753 0.47234387720678295 0.527656122793217 0.5668372237090922 0.4331627762909078 0.6335396434438004 0.3664603565561995 0.45266803082162527 0.5473319691783748 0.7747360121825132 0.22526398781748685 0.44982002048805997 0.55017997951194 0.2907050637205423 0.7092949362794577 0.5588374837037835 0.44116251629621656 0.4541808557635265 0.5458191442364735 0.7017709793965208 0.2982290206034793 0.6490225408007773 0.3509774591992228 0.5751773874930488 0.42482261250695125 0.35130353074696447 0.6486964692530356 0.5946644903400929 0.4053355096599069 0.3819262449464388 0.6180737550535612 0.20567511746404366 0.7943248825359563 0.44536778313513414 0.5546322168648657 0.2856708914604554 0.7143291085395446 0.7105164041811853 0.28948359581881467 0.741331244531273 0.258668755468727 0.6106379720426922 0.38936202795730784 0.3794228131579348 0.6205771868420652 0.3805115396088508 0.619488460391149 0.21224033322522395 0.787759666774776 0.6669609730690671 0.3330390269309329 0.724129378567039 0.27587062143296104 0.8101956219479882 0.18980437805201172 0.9149867395160353 0.08501326048396468 0.9076226047709725 0.09237739522902759 0.42564223187394473 0.5743577681260553 0.8039730131564076 0.19602698684359243 0.7645997232612775 0.23540027673872255 0.49325587371919305 0.506744126280807 0.33479693532747073 0.6652030646725294 0.7807851906724064 0.21921480932759374 0.6564523744610181 0.34354762553898194 0.5238135821748688 0.4761864178251311 0.06349409526865399 0.936505904731346 0.5279231398469114 0.47207686015308864 0.8656696450324891 0.13433035496751092 0.07466786402540096 0.9253321359745991 0.4459836007270242 0.5540163992729757 0.5659007904089424 0.4340992095910577 0.5481620334660657 0.45183796653393427 0.05820809917546365 0.9417919008245363 0.4277029920243292 0.5722970079756708 0.5194404698977656 0.4805595301022344 0.20923193524165964 0.7907680647583405 0.090146335679066 0.909853664320934 0.5391748801977904 0.4608251198022095 0.17748261400435675 0.8225173859956433 0.7529130096620182 0.2470869903379818 0.2740782760546278 0.7259217239453722 0.5474231218674311 0.4525768781325688 0.9482672072257174 0.05173279277428259 0.6686022494172302 0.33139775058276966 0.639452376870855 0.36054762312914496 0.4910514157898612 0.5089485842101388 0.9219357941822032 0.07806420581779683 0.8531155139963685 0.1468844860036315 0.8670266334787323 0.13297336652126768 0.7968591342967347 0.20314086570326523 </TABLE>
    </DEFINITION>
    <DEFINITION>
      <FOR>17</FOR>
      <GIVEN>0</GIVEN>
      <GIVEN>4</GIVEN>
      <GIVEN>7</GIVEN>
      <GIVEN>8</GIVEN>
      <GIVEN>11</GIVEN>
      <GIVEN>1</GIVEN>
      <GIVEN>5</GIVEN>
      <GIVEN>2</GIVEN>
      <GIVEN>14</GIVEN>
      <GIVEN>16</GIVEN>
      <GIVEN>13</GIVEN>
      <GIVEN>12</GIVEN>
      <TABLE>0.1764008130023891 0.8235991869976109 0.14070153977721905 0.859298460222781 0.45831156618270996 0.5416884338172901 0.7014572382948817 0.29854276170511845 0.14055079475872617 0.8594492052412738 0.44260070330793116 0.5573992966920688 0.8233061380938496 0.17669386190615044 0.23002787438254368 0.7699721256174563 0.20329024150497882 0.7967097584950212 0.8516936378013853 0.14830636219861468 0.25546791020762394 0.7445320897923761 0.9545558758394247 0.04544412416057533 0.8319658716830879 0.16803412831691217 0.24696789357309804 0.753032106426902 0.4654380856609924 0.5345619143390076 0.8881203422244487 0.11187965777555128 0.4994954955770174 0.5005045044229826 0.4666515650246149 0.5333484349753851 0.6187602448315445 0.38123975516845565 0.556298099218627 0.44370190078137295 0.4606637029184787 0.5393362970815213 0.9463123612560285 0.05368763874397158 0.41668535632539877 0.5833146436746012 0.5560838020176341 0.44391619798236603 0.5269688006065155 0.4730311993934845 0.4121511464975276 0.5878488535024724 0.7595442109034389 0.24045578909656112 0.9522060546752394 0.04779394532476059 0.01885876589112453 0.9811412341088754 0.21969041105814696 0.780309588941853 0.5061530863175755 0.49384691368242456 0.3629391601307811 0.6370608398692189 0.734087403086823 0.2659125969131771 0.9184405832167126 0.08155941678328735 0.5356135041830635 0.4643864958169365 0.5567973789360513 0.4432026210639487 0.47088295515676903 0.529117044843231 0.07968329202820822 0.9203167079717918 0.49977504646211257 0.5002249535378873 0.5652766079505355 0.4347233920494645 0.8981939541398111 0.10180604586018899 0.8680463678942232 0.13195363210577685 0.7164296561126637 0.28357034388733626 0.6093416882420697 0.39065831175793025 0.6894485597802633 0.3105514402197367 0.8780688001749372 0.1219311998250629 0.34169725293586506 0.6583027470641349 0.4603619553341361 0.539638044665864 0.5245329570909516 0.47546704290904834 0.18076959201728054 0.8192304079827195 0.497325954711894 0.502674045288106 0.5994754704928892 0.4005245295071108 0.5163811280755787 0.48361887192442127 0.25238749972347596 0.747612500276524 0.3649355505460374 0.6350644494539626 0.2363255412122154 0.7636744587877846 0.6022164330122475 0.3977835669877526 0.5038255944628632 0.49617440553713665 0.31580226738674133 0.6841977326132587 0.6497025110997082 0.35029748890029183 0.5066444391242205 0.4933555608757795 0.419160729793525 0.5808392702064751 0.5166403225373876 0.4833596774626125 0.5301846271412788 0.46981537285872116 0.44461680594045255 0.5553831940595475 0.25708394757277037 0.7429160524272296 0.18979149325860553 0.8102085067413944 0.8607956111729478 0.13920438882705222 0.2857515936582564 0.7142484063417436 0.4859367458898645 0.5140632541101355 0.8413639808268503 0.1586360191731498 0.34084106309879936 0.6591589369012008 0.8427181223422381 0.15728187765776191 0.5999635191147242 0.40003648088527577 0.5768164511243968 0.42318354887560317 0.46048797322050444 0.5395120267794955 0.3153130387551172 0.6846869612448828 0.4581794816884832 0.5418205183115168 0.9774037521850342 0.022596247814965876 0.8093496924120126 0.1906503075879874 0.9675830629176682 0.03241693708233187 0.2672138137815025 0.7327861862184974 0.36284582867991216 0.6371541713200879 0.5628405019801797 0.4371594980198203 0.8188271392162462 0.1811728607837539 0.48973714485121334 0.5102628551487867 0.5350407352601059 0.46495926473989413 0.6759456573758619 0.324054342624138 0.09762629421950204 0.9023737057804979 0.4179028406489491 0.5820971593510509 0.7283291389606807 0.2716708610393193 0.16369953167723117 0.8363004683227688 0.44439684995889966 0.5556031500411003 0.3852893938242618 0.6147106061757383 0.5493990231045962 0.4506009768954038 0.5754765833154326 0.4245234166845674 0.5085753890360246 0.49142461096397544 0.26911696863340995 0.73088303136659 0.16344018569663 0.8365598143033701 0.44537460695543857 0.5546253930445615 0.31512587770899864 0.6848741222910013 0.33374387408099704 0.666256125919003 0.5789318489568496 0.42106815104315043 0.1636398516362867 0.8363601483637133 0.7483807897719581 0.2516192102280419 0.7774005596005832 0.22259944039941673 0.4930454125301898 0.5069545874698101 0.6391627865420182 0.3608372134579819 0.3404039925555187 0.6595960074444812 0.25336395958835717 0.7466360404116429 0.7053663430209046 0.2946336569790954 0.5689348159271148 0.43106518407288513 0.1993274408292114 0.8006725591707886 0.03326596221380284 0.9667340377861972 0.08491476545694551 0.9150852345430545 0.255555285372125 0.744444714627875 0.4771858166374299 0.5228141833625701 0.5514330497614852 0.4485669502385147 0.7409232556100557 0.25907674438994427 0.6116920815241129 0.3883079184758871 0.32642495470921545 0.6735750452907846 0.11409087236725207 0.885909127632748 0.37048597335228334 0.6295140266477167 0.9851751697021915 0.014824830297808485 0.14647846666206016 0.8535215333379398 0.7478829772424378 0.2521170227575622 0.4607653557550193 0.5392346442449807 0.4082250741765449 0.591774925823455 0.742616531931155 0.25738346806884504 0.16435166464616027 0.8356483353538398 0.20757090301990502 0.792429096980095 0.5145567663699315 0.48544323363006836 0.3521589820574151 0.6478410179425849 0.38675129235270855 0.6132487076472913 0.4352286983890317 0.5647713016109683 0.5619287399634462 0.43807126003655383 0.532573580785499 0.46742641921450095 0.6642360280557994 0.3357639719442006 0.5247220655692111 0.475277934430789 0.5665697988050544 0.4334302011949456 0.6816648194766752 0.31833518052332466 0.3430358787388785 0.6569641212611215 0.5204629182731825 0.4795370817268175 0.46753360718408815 0.5324663928159118 0.9608725882929325 0.03912741170706747 0.527899042158002 0.472100957841998 0.6409399919130392 0.3590600080869608 0.6275549684582438 0.3724450315417563 0.557297468920362 0.442702531079638 0.6847809824517866 0.31521901754821335 0.05838712638762128 0.9416128736123787 0.5205606134369679 0.47943938656303203 0.09270579108312854 0.9072942089168715 0.34913536389760774 0.6508646361023923 0.8548276802386188 0.14517231976138117 0.8448073629325268 0.15519263706747324 0.17570007288205197 0.824299927117948 0.9973189930061769 0.002681006993823161 0.6295825307511975 0.3704174692488024 0.2108615379894615 0.7891384620105385 0.7087096457315818 0.2912903542684182 0.4732342553516475 0.5267657446483525 0.749063236110059 0.2509367638899411 0.8881380055651188 0.11186199443488118 0.7970998370853978 0.20290016291460217 0.6269893426104876 0.37301065738951245 0.15464103107941213 0.8453589689205878 0.8040626167589946 0.19593738324100546 0.5277942114824313 0.4722057885175686 0.6011130816795469 0.39888691832045314 0.5096718338504588 0.49032816614954117 0.4194659096491621 0.5805340903508378 0.5065955500310714 0.4934044499689287 0.513635651068308 0.486364348931692 0.49962413585980453 0.5003758641401955 0.510861748227036 0.48913825177296405 0.7537520294619144 0.24624797053808564 0.5347561642222415 0.46524383577775846 0.534766277991427 0.46523372200857316 0.8643668457422915 0.13563315425770853 0.9879795543005421 0.01202044569945797 0.25236589258542025 0.7476341074145796 0.8959298699130007 0.10407013008699924 0.27595899761423387 0.724041002385766 0.5991858803073339 0.40081411969266617 0.5088871725495409 0.4911128274504592 0.5775390085100649 0.4224609914899351 0.759369341767016 0.240630658232984 0.9602375369576931 0.03976246304230685 0.6888057123835227 0.3111942876164772 0.4711931789428341 0.5288068210571659 0.12631202915506398 0.873687970844936 0.22163318505420754 0.7783668149457924 0.44837642210709855 0.5516235778929015 0.45039704253264734 0.5496029574673528 0.8440135567177982 0.15598644328220176 0.7746074012135313 0.22539259878646867 0.5296892035186919 0.4703107964813081 0.43571974166486843 0.5642802583351315 0.1880506416420117 0.8119493583579882 0.6720466976740122 0.32795330232598785 0.39620133450459905 0.603798665495401 0.19787698975883256 0.8021230102411674 0.41668070381725936 0.5833192961827406 0.03595736263805045 0.9640426373619495 0.6715964215406247 0.3284035784593753 0.007039161066183187 0.9929608389338168 0.6423548569634692 0.35764514303653083 0.004729286623560833 0.9952707133764391 0.8387592871552688 0.1612407128447311 0.3106710718013651 0.6893289281986349 0.82291883849014 0.17708116150986003 0.09618729928033615 0.9038127007196638 0.8157854967321396 0.1842145032678604 0.11232934140253896 0.8876706585974611 0.5623889402200762 0.4376110597799237 0.49519068753718154 0.5048093124628185 0.4878416499706753 0.5121583500293246 0.4107591327480741 0.589240867251926 0.3319283065321302 0.6680716934678699 0.7580203302274563 0.24197966977254365 0.36707309955136364 0.6329269004486363 0.41579789679117357 0.5842021032088264 0.896234011626919 0.1037659883730811 0.4816342182936914 0.5183657817063086 0.5757789737742128 0.42422102622578717 0.15573742407767185 0.8442625759223281 0.08265654009633604 0.917343459903664 0.051330921518379515 0.9486690784816205 0.03074200686039089 0.9692579931396091 0.5453569956931915 0.4546430043068085 0.37103282813723076 0.6289671718627692 0.40454839218049843 0.5954516078195016 0.31321866366811424 0.6867813363318859 0.2012764764661471 0.7987235235338529 0.6034700198705424 0.3965299801294576 0.3565443758542399 0.6434556241457601 0.5620057060314446 0.4379942939685554 0.5666852252362212 0.43331477476377894 0.6821026723991641 0.31789732760083594 0.8029095806223098 0.19709041937769037 0.9068584772695746 0.09314152273042542 0.5126642517982134 0.4873357482017867 0.4696201455000858 0.5303798544999142 0.10388543489049105 0.8961145651095089 0.5683335629793876 0.4316664370206125 0.5012604274681225 0.49873957253187756 0.10002254807549009 0.89997745192451 0.5728661327090848 0.4271338672909151 0.4408777183582158 0.5591222816417843 0.9379808866690484 0.06201911333095158 0.9435442465475733 0.056455753452426684 0.352516070923366 0.647483929076634 0.5228931398361684 0.4771068601638316 0.40755682293056517 0.5924431770694348 0.8986276158217781 0.10137238417822189 0.1378841515085363 0.8621158484914636 0.5347943687199023 0.4652056312800977 0.5136223111899747 0.4863776888100253 0.4004564132363726 0.5995435867636275 0.2916394098520096 0.7083605901479904 0.3490784114948947 0.6509215885051053 0.4700978762599108 0.5299021237400893 0.7990213274277923 0.20097867257220775 0.2278294464593792 0.7721705535406208 0.28976224180197474 0.7102377581980253 0.28701429217802416 0.7129857078219758 0.24535801321859776 0.7546419867814023 0.5484621487230938 0.4515378512769063 0.7515239407857722 0.2484760592142278 0.539665138814491 0.4603348611855089 0.26608861558597763 0.7339113844140224 0.30447908683122776 0.6955209131687722 0.009222244366015235 0.9907777556339847 0.5040346786648837 0.4959653213351162 0.4435859986178155 0.5564140013821844 0.6082867729736562 0.39171322702634376 0.8960664306004272 0.10393356939957281 0.9703419024133054 0.02965809758669459 0.055455762886604885 0.9445442371133951 0.20605859666182633 0.7939414033381736 0.743130604138791 0.256869395861209 0.23786752809379832 0.7621324719062016 0.6459037610738141 0.3540962389261859 0.5968950654898921 0.4031049345101079 0.3358413516090357 0.6641586483909643 0.5298629706707743 0.47013702932922574 0.523864628440874 0.47613537155912605 0.5265108120048207 0.4734891879951793 0.12845835962202945 0.8715416403779706 0.4103931132138037 0.5896068867861962 0.5194461277165718 0.48055387228342816 0.5190247118284783 0.4809752881715217 0.16532945159514026 0.8346705484048597 0.6204667780071366 0.3795332219928634 0.3083243384458934 0.6916756615541065 0.7561637720977404 0.24383622790225945 0.4135542196926546 0.5864457803073454 0.7988045507686866 0.20119544923131333 0.5038019693672579 0.49619803063274215 0.3590635592224319 0.6409364407775682 0.4140710369590296 0.5859289630409705 0.19666239992024476 0.8033376000797552 0.10750934668432917 0.8924906533156708 0.9101278104377882 0.08987218956221174 0.4525042525760958 0.5474957474239042 0.6511844071770182 0.3488155928229818 0.4749803367999594 0.5250196632000406 0.5143283393844428 0.4856716606155573 0.19286653851252994 0.8071334614874701 0.5577318460511529 0.442268153948847 0.5529800790978592 0.4470199209021408 0.44720372617098036 0.5527962738290196 0.4794388307285347 0.5205611692714653 0.011269577001388389 0.9887304229986116 0.2173257755777452 0.7826742244222548 0.20924378278949762 0.7907562172105024 0.46659784153798667 0.5334021584620133 0.8299793747573904 0.17002062524260958 0.720927827964086 0.27907217203591395 0.6872533427421799 0.3127466572578202 0.48316976260463357 0.5168302373953665 0.33604195672864345 0.6639580432713564 0.5253963917453265 0.47460360825467346 0.3069821765194173 0.6930178234805827 0.563940510099969 0.4360594899000309 0.16044787148224654 0.8395521285177535 0.18894919075177877 0.8110508092482213 0.8380721999203243 0.1619278000796758 0.45907382508687083 0.5409261749131291 0.22870309984336623 0.7712969001566338 0.3447366207772894 0.6552633792227106 0.7823712078713515 0.21762879212864847 0.14154269061675337 0.8584573093832466 0.34167223125910184 0.6583277687408982 0.7704724212623779 0.22952757873762206 0.6849088069492238 0.31509119305077615 0.630242220849249 0.36975777915075103 0.541699844546425 0.45830015545357505 0.3598229190979369 0.640177080902063 0.29282723987247483 0.7071727601275251 0.3756662966453395 0.6243337033546605 0.23143160814710237 0.7685683918528976 0.8241810005040089 0.17581899949599114 0.7626203558302793 0.23737964416972063 0.4664619587879316 0.5335380412120684 0.5215848931691376 0.47841510683086236 0.31549441025644015 0.6845055897435598 0.9145824233808616 0.08541757661913844 0.5534621624009902 0.4465378375990097 0.22605978127211532 0.7739402187278847 0.7966355760082784 0.20336442399172155 0.14030939395995437 0.8596906060400457 0.8340163552696466 0.16598364473035354 0.4936480286536373 0.5063519713463627 0.16289128933018018 0.8371087106698198 0.6901237669516128 0.30987623304838713 0.2956224780764695 0.7043775219235304 0.5556240925447173 0.44437590745528266 0.725873026637567 0.27412697336243286 0.7828584296606053 0.21714157033939474 0.440201462431581 0.559798537568419 0.6061201745934455 0.3938798254065546 0.47588917450631807 0.5241108254936819 0.586123949028161 0.413876050971839 0.417049617093976 0.5829503829060241 0.6689627329839288 0.33103726701607117 0.36619921476444245 0.6338007852355576 0.11355249167480977 0.8864475083251903 0.7045266603288507 0.29547333967114925 0.9078491697573725 0.09215083024262752 0.5306543946384794 0.46934560536152065 0.7174377032968704 0.2825622967031296 0.6648766986322692 0.33512330136773083 0.5695468983944639 0.43045310160553607 0.45372584749060213 0.5462741525093978 0.6856440570468385 0.3143559429531615 0.5006601732574101 0.49933982674258987 0.22357568241296338 0.7764243175870366 0.0363666460651318 0.9636333539348682 0.9665720516111933 0.03342794838880664 0.31891281762127943 0.6810871823787206 0.6658263074810353 0.3341736925189646 0.03133352735182504 0.968666472648175 0.4924044628064214 0.5075955371935786 0.1081940517026577 0.8918059482973423 0.20303406164331408 0.7969659383566859 0.19514532792154668 0.8048546720784534 0.48228005308090016 0.5177199469190998 0.30248997405651284 0.6975100259434872 0.04990262165218158 0.9500973783478184 0.8827176597267382 0.1172823402732618 0.8668347024150468 0.1331652975849532 0.21266872318114433 0.7873312768188557 0.47157315215549206 0.5284268478445079 0.6401712649896287 0.35982873501037116 0.5498068401101743 0.4501931598898256 0.49191172410632994 0.5080882758936701 0.5656405427103693 0.4343594572896307 0.24007063022309424 0.7599293697769057 0.8322812306026713 0.16771876939732863 0.3871023382489437 0.6128976617510563 0.8182928793897584 0.1817071206102416 0.40523390028747547 0.5947660997125246 0.9251464371693431 0.07485356283065689 0.270314994594824 0.729685005405176 0.5310081102879929 0.4689918897120072 0.5231259778813169 0.47687402211868324 0.8260528296980357 0.17394717030196427 0.6123428522472318 0.38765714775276816 0.29654568908624424 0.7034543109137558 0.8093269278179333 0.19067307218206678 0.5567980620581684 0.44320193794183155 0.5075275353398377 0.49247246466016215 0.2966368056190393 0.7033631943809606 0.44270881703065496 0.557291182969345 0.39568015736754525 0.6043198426324548 0.35618303838577126 0.6438169616142287 0.8153196873981936 0.18468031260180637 0.42915355603794986 0.5708464439620502 0.49076304621452116 0.5092369537854788 0.3260331067194298 0.6739668932805701 0.7291863991643903 0.2708136008356096 0.9311533208026037 0.06884667919739633 0.11154357267601246 0.8884564273239876 0.6092184598983955 0.3907815401016045 0.6795205490771689 0.32047945092283114 0.13102551611817853 0.8689744838818214 0.6067075661748141 0.39329243382518575 0.7257059515940607 0.2742940484059393 0.5022697485857922 0.49773025141420774 0.654275990357663 0.34572400964233685 0.3040973827257555 0.6959026172742444 0.20358552931902746 0.7964144706809725 0.650774938741896 0.3492250612581041 0.6173372183328578 0.3826627816671422 0.5135319537186235 0.4864680462813766 0.6166785200083864 0.3833214799916137 0.35361969642030083 0.6463803035796991 0.46699561277438706 0.5330043872256129 0.5482536440663116 0.45174635593368834 0.7303909052479803 0.26960909475201966 0.8542745477980911 0.14572545220190894 0.6812596503884999 0.3187403496115001 0.26148043917862573 0.7385195608213743 0.8073624072907263 0.19263759270927366 0.9625374556367118 0.03746254436328819 0.31237365692229174 0.6876263430777082 0.49064935571063945 0.5093506442893606 0.5429820551769916 0.4570179448230084 0.6863431266702545 0.3136568733297455 0.26218888507459814 0.7378111149254019 0.7535154665509972 0.24648453344900279 0.40438254383665845 0.5956174561633416 0.8142731100814868 0.1857268899185132 0.18888158668700558 0.8111184133129944 0.8706854022602218 0.1293145977397782 0.35252351911707247 0.6474764808829275 0.42760526201261173 0.5723947379873883 0.12590246748076295 0.874097532519237 0.19629116761987872 0.8037088323801213 0.8388411720156737 0.16115882798432637 0.047804632635829326 0.9521953673641707 0.26185452476345644 0.7381454752365436 0.430687639725113 0.569312360274887 0.8483211873817957 0.15167881261820423 0.6096299163788031 0.3903700836211969 0.7551698239709207 0.24483017602907933 0.5452661692371398 0.4547338307628602 0.02356345773024129 0.9764365422697587 0.8564833760086937 0.14351662399130627 0.4232340844013319 0.5767659155986681 0.7824404842448285 0.21755951575517155 0.4106518405711652 0.5893481594288349 0.35560863432753426 0.6443913656724659 0.5432323048970453 0.4567676951029547 0.510070483589186 0.489929516410814 0.8109077216526581 0.1890922783473419 0.5358905514371232 0.4641094485628767 0.0077934994996725375 0.9922065005003274 0.5301977592565674 0.4698022407434325 0.5385782074607891 0.46142179253921095 0.3805346695159934 0.6194653304840065 0.7557225168728882 0.2442774831271119 0.6312568765462389 0.3687431234537611 0.8067405092429651 0.19325949075703489 0.8466611286758309 0.15333887132416915 0.24160620548831538 0.7583937945116845 0.4691714263292642 0.5308285736707359 0.3372377075758557 0.6627622924241444 0.9054860138467103 0.09451398615328965 0.36507181164850266 0.6349281883514973 0.3997642966890984 0.6002357033109016 0.10619326042726179 0.8938067395727383 0.46568442001540616 0.5343155799845939 0.4783820039622422 0.5216179960377577 0.8057595973378412 0.19424040266215875 0.29477966054491445 0.7052203394550856 0.4694960360858326 0.5305039639141674 0.3881120782521575 0.6118879217478425 0.22645438736015694 0.7735456126398431 0.5486051383580947 0.45139486164190534 0.5757563873492121 0.4242436126507879 0.6352953490652823 0.3647046509347178 0.45662104728871855 0.5433789527112814 0.41612123536558243 0.5838787646344177 0.7500929985453734 0.24990700145462666 0.4721408497168488 0.5278591502831511 0.13865948635436315 0.8613405136456368 0.886885090969432 0.11311490903056805 0.5892458162407768 0.41075418375922323 0.49728514116437056 0.5027148588356295 0.024295398384065265 0.9757046016159348 0.6340741019410331 0.3659258980589669 0.4386470711397958 0.5613529288602043 0.020420761403954216 0.9795792385960458 0.5638765616416255 0.43612343835837447 0.5244486069914963 0.47555139300850363 0.653880708143488 0.346119291856512 0.47111187116269315 0.528888128837307 0.4701239542391532 0.5298760457608468 0.11370632792193434 0.8862936720780656 0.2232592106451622 0.7767407893548379 0.531876759067612 0.468123240932388 0.8186045836430548 0.1813954163569452 0.5203295389196353 0.47967046108036465 0.5038259569904049 0.49617404300959517 0.9422620985451874 0.05773790145481262 0.23492249913394572 0.7650775008660543 0.22912192283301897 0.7708780771669811 0.27810729765263076 0.7218927023473692 0.5127319426152372 0.48726805738476275 0.01410318742091598 0.985896812579084 0.6204224179036001 0.3795775820963999 0.11101957328418617 0.8889804267158139 0.5512429022813994 0.4487570977186005 0.006700078946786687 0.9932999210532133 0.46019560510171176 0.5398043948982882 0.1058126010390875 0.8941873989609125 0.3748301164177631 0.6251698835822368 0.4537657302635762 0.5462342697364237 0.257284003725785 0.7427159962742149 0.4764419273094075 0.5235580726905925 0.32443626768050166 0.6755637323194982 0.5931492648066062 0.4068507351933937 0.5927545039272454 0.4072454960727547 0.3447092914098684 0.6552907085901316 0.4262052752019131 0.5737947247980868 0.6004527243914777 0.3995472756085224 0.05609891336887646 0.9439010866311235 0.6397679279696301 0.36023207203036983 0.5128167877274751 0.487183212272525 0.4231835299328124 0.5768164700671876 0.4949136517905093 0.5050863482094908 0.39972666709542054 0.6002733329045794 0.7176933603198815 0.2823066396801186 0.6163082355677222 0.3836917644322778 0.5072998428802787 0.4927001571197213 0.9449368642584838 0.05506313574151626 0.25098744031507064 0.7490125596849293 0.4161679327736037 0.5838320672263964 0.2936429172331356 0.7063570827668645 0.2300029634007411 0.769997036599259 0.4211104394517797 0.5788895605482204 0.6795276734360343 0.32047232656396574 0.35322391418305493 0.646776085816945 0.9621498539868371 0.0378501460131629 0.8434535222796536 0.15654647772034636 0.7793002630770627 0.22069973692293732 0.0029851584895009796 0.997014841510499 0.3429701749017025 0.6570298250982974 0.5184609311653633 0.48153906883463676 0.5429703514815357 0.4570296485184643 0.4816584828592335 0.5183415171407665 0.4891362516972099 0.5108637483027901 0.057085766268340665 0.9429142337316593 0.32917578317708385 0.6708242168229163 0.2708525553645467 0.7291474446354533 0.19854509731020936 0.8014549026897907 0.13406289774554167 0.8659371022544583 0.014341992361691957 0.985658007638308 0.8981886642187985 0.10181133578120154 0.15512466185387466 0.8448753381461254 0.4733677416155066 0.5266322583844935 0.4669583521084148 0.5330416478915853 0.2536032400232726 0.7463967599767274 0.16525840354856736 0.8347415964514326 0.6386692631291672 0.3613307368708329 0.7106074163265493 0.28939258367345067 0.08085661204727777 0.9191433879527222 0.12216217195489354 0.8778378280451065 0.8208508007321889 0.17914919926781112 0.9056896162941974 0.09431038370580261 0.951293577371996 0.04870642262800394 0.4076786275140243 0.5923213724859757 0.9831426709140518 0.016857329085948194 0.6986756743697531 0.301324325630247 0.9857214152321062 0.014278584767893763 0.2766748002023358 0.7233251997976643 0.324367358086831 0.6756326419131691 0.21173049312763545 0.7882695068723645 0.3635765112294751 0.636423488770525 0.5129982159199952 0.48700178408000483 0.19298996161352525 0.8070100383864749 0.156194618961416 0.8438053810385839 0.3401345849917248 0.6598654150082752 0.4872602092214325 0.5127397907785676 0.5050771638104262 0.4949228361895739 0.5514881519804347 0.4485118480195653 0.6576593161060668 0.3423406838939332 0.5568059197652983 0.44319408023470175 0.23666830352594254 0.7633316964740575 0.48542361105075715 0.514576388949243 0.5310200413444149 0.46897995865558506 0.11108219016001568 0.8889178098399844 0.6288998083644705 0.3711001916355296 0.6896205844582945 0.31037941554170545 0.21120878526655215 0.7887912147334478 0.6689497499001233 0.33105025009987665 0.6793947355964067 0.32060526440359327 0.7181156506834182 0.28188434931658185 0.5841656716870265 0.4158343283129736 0.42368366527951873 0.5763163347204814 0.18393444186648955 0.8160655581335104 0.7069354861136381 0.2930645138863619 0.31293075500851536 0.6870692449914846 0.5370135774242917 0.46298642257570843 0.27800221226885985 0.7219977877311401 0.48687818191598203 0.5131218180840179 0.6796166519519158 0.3203833480480842 0.6774724676755338 0.32252753232446624 0.8757836366746088 0.12421636332539118 0.16934021219321058 0.8306597878067895 0.5831461995573716 0.4168538004426285 0.30786262674687953 0.6921373732531205 0.5002195482280302 0.4997804517719699 0.35108193517250674 0.6489180648274933 0.3518335942036594 0.6481664057963407 0.6123259204092447 0.3876740795907553 0.23780018245488527 0.7621998175451148 0.8851961594140122 0.11480384058598779 0.8022140928147676 0.19778590718523237 0.5889092724938936 0.4110907275061064 0.2422267157127856 0.7577732842872144 0.6296004678882573 0.3703995321117427 0.5159496630597 0.4840503369402999 0.4925908635639615 0.5074091364360386 0.6023538011826489 0.39764619881735114 0.02461602044830304 0.975383979551697 0.3731335321759227 0.6268664678240773 0.410828030223566 0.589171969776434 0.4981624526237632 0.5018375473762368 0.5095787657041715 0.4904212342958285 0.6230308691057701 0.3769691308942299 0.7320760066842864 0.26792399331571365 0.4428974124206188 0.5571025875793812 0.14904423491505545 0.8509557650849445 0.5398413695123929 0.46015863048760697 0.30917476693242113 0.6908252330675789 0.5166984069614969 0.483301593038503 0.3906667126513313 0.6093332873486687 0.3240621497320131 0.6759378502679868 0.5224172684691514 0.4775827315308487 0.89350470552031 0.10649529447968992 0.021281053150208742 0.9787189468497912 0.25617731646690556 0.7438226835330944 0.36467449458501083 0.6353255054149892 0.16715108166663675 0.8328489183333633 0.4376276636401391 0.562372336359861 0.44769850703402064 0.5523014929659793 0.4606375843803055 0.5393624156196944 0.40558599664873446 0.5944140033512656 0.3903415100336504 0.6096584899663496 0.9517193313077564 0.04828066869224358 0.681636252814131 0.31836374718586896 0.2684751841889203 0.7315248158110798 0.4909143637294111 0.5090856362705889 0.99506676026686 0.004933239733140018 0.5058856731282938 0.4941143268717062 0.5806362541468834 0.41936374585311664 0.03959545502821511 0.9604045449717848 0.488975216887413 0.511024783112587 0.46246045858148316 0.5375395414185168 0.8123629599769213 0.18763704002307874 0.5210819341590872 0.47891806584091284 0.1362825333730597 0.8637174666269403 0.7016134727055441 0.2983865272944559 0.3649655026501068 0.6350344973498931 0.279350688732346 0.720649311267654 0.02692263598300092 0.9730773640169991 0.5061329172507293 0.49386708274927066 0.6208912974790485 0.37910870252095147 0.6196686690795064 0.38033133092049354 0.7613572873141811 0.23864271268581896 0.7381148242761996 0.2618851757238005 0.5932471466522596 0.40675285334774025 0.4897076694452963 0.5102923305547037 0.4496493831803312 0.5503506168196688 0.4167887075257841 0.5832112924742158 0.24357309126049523 0.7564269087395048 0.33534279657089816 0.6646572034291018 0.04404309851708106 0.9559569014829189 0.3614188681857907 0.6385811318142093 0.5857692443159255 0.4142307556840746 0.2770051344981495 0.7229948655018504 0.8510081681010042 0.14899183189899584 0.460593454122774 0.539406545877226 0.054837726292601384 0.9451622737073986 0.49511255683906225 0.5048874431609377 0.3499756057650746 0.6500243942349254 0.3894098691691854 0.6105901308308146 0.5649030861508996 0.4350969138491004 0.5230275950035271 0.476972404996473 0.6511549637975665 0.3488450362024335 0.3387442250683138 0.6612557749316862 0.45042001868260106 0.5495799813173989 0.39214611624327883 0.6078538837567212 0.9889140673629617 0.011085932637038325 0.9557342804858501 0.04426571951414992 0.4393373001633276 0.5606626998366723 0.6097330628724317 0.3902669371275682 0.7777645714765438 0.22223542852345624 0.7948793870105989 0.20512061298940107 0.6765288745170404 0.3234711254829596 0.5577769057500034 0.4422230942499965 0.43971274528793064 0.5602872547120693 0.2890182612821478 0.7109817387178522 0.6130159741712883 0.3869840258287118 0.19661252763155757 0.8033874723684424 0.21005203428367045 0.7899479657163295 0.3598809052230669 0.6401190947769332 0.0030175279526605866 0.9969824720473394 0.5961284967718483 0.4038715032281517 0.4877658121480537 0.5122341878519463 0.2954098937202382 0.7045901062797618 0.7883231789382419 0.2116768210617581 0.7310938824585378 0.26890611754146226 0.5404203912262564 0.4595796087737436 0.6382025007265968 0.3617974992734032 0.24849961681770158 0.7515003831822984 0.9972765599771483 0.002723440022851727 0.7910789409825407 0.20892105901745925 0.4770224360529509 0.5229775639470491 0.4401600040853594 0.5598399959146405 0.12771861945013457 0.8722813805498655 0.6447405990123902 0.3552594009876097 0.3436157705539871 0.6563842294460128 0.1291505138408676 0.8708494861591324 0.648074946312945 0.35192505368705496 0.49406715665599216 0.5059328433440078 0.862322325554215 0.13767767444578505 0.3978989812279724 0.6021010187720276 0.37264554410939643 0.6273544558906036 0.7883463265312051 0.21165367346879496 0.4287783511791378 0.5712216488208622 0.11062830981749054 0.8893716901825095 0.6416250038075852 0.3583749961924148 0.8806933457874734 0.11930665421252659 0.22898417628781093 0.7710158237121891 0.4689225489476188 0.5310774510523812 0.9057511031093578 0.09424889689064225 0.9752057221714173 0.024794277828582702 0.3335827847511096 0.6664172152488904 0.9963855236618793 0.003614476338120782 0.6920566446171793 0.30794335538282064 0.29501206744371544 0.7049879325562846 0.7870455085403595 0.21295449145964052 0.6580195432771455 0.34198045672285443 0.0485460827995651 0.9514539172004349 0.19954323586401895 0.800456764135981 0.9574786112729922 0.04252138872700785 0.4497281719360114 0.5502718280639886 0.6563184024032553 0.34368159759674466 0.692302434533224 0.307697565466776 0.5061090337949727 0.49389096620502726 0.37387535801664384 0.6261246419833562 0.3582561315577872 0.6417438684422128 0.287453352349905 0.7125466476500951 0.4722345482180476 0.5277654517819523 0.5899566290400331 0.4100433709599669 0.6865040875403612 0.31349591245963887 0.27396029738629873 0.7260397026137012 0.40373380524111807 0.596266194758882 0.2771387955308995 0.7228612044691005 0.6514500695742407 0.3485499304257593 0.9128603398274937 0.08713966017250625 0.214593688748089 0.785406311251911 0.9536621434260494 0.046337856573950606 0.5761964480055636 0.4238035519944365 0.16926530762984215 0.8307346923701578 0.3929395349003085 0.6070604650996915 0.07611983868226167 0.9238801613177383 0.45246879371317544 0.5475312062868246 0.8600014136516286 0.1399985863483713 0.5730056735767483 0.42699432642325175 0.5615980524715473 0.43840194752845274 0.2573991887761447 0.7426008112238555 0.8029457562031149 0.19705424379688505 0.10359535441641897 0.896404645583581 0.7538817609087621 0.24611823909123787 0.5541008554755178 0.44589914452448226 0.17747069791655687 0.8225293020834431 0.5348490260382537 0.4651509739617463 0.6476595685595254 0.35234043144047456 0.39893651877831354 0.6010634812216864 0.4809319767925441 0.5190680232074558 0.8872354578072785 0.11276454219272142 0.7358350042078914 0.2641649957921086 0.34980098857601255 0.6501990114239873 0.33201707236051153 0.6679829276394884 0.372835286551596 0.627164713448404 0.1282375843929557 0.8717624156070443 0.6095138121491804 0.3904861878508196 0.49235270949246934 0.5076472905075307 0.8006872537627067 0.19931274623729328 0.678670645070168 0.321329354929832 0.5640821757835801 0.4359178242164198 0.4747598417308514 0.5252401582691485 0.5016410344345614 0.4983589655654385 0.46018640985346076 0.5398135901465393 0.38249211477217565 0.6175078852278243 0.8595738527370136 0.14042614726298636 0.15103216748581144 0.8489678325141886 0.8870748917877707 0.11292510821222934 0.6473497601166978 0.3526502398833021 0.3706616819728973 0.6293383180271028 0.07740459662806058 0.9225954033719395 0.03728233774349548 0.9627176622565046 0.49941730702517834 0.5005826929748217 0.36004771676066294 0.6399522832393371 0.4577790973030028 0.5422209026969973 0.5578513744433482 0.4421486255566518 0.42996574094717027 0.5700342590528297 0.5258794608918956 0.4741205391081045 0.759194938440052 0.2408050615599481 0.5769737646286934 0.4230262353713067 0.44648902859648726 0.5535109714035127 0.6498151926972022 0.35018480730279766 0.733306941062111 0.266693058937889 0.9690712580574767 0.03092874194252331 0.7547428830422261 0.24525711695777389 0.20269439323405225 0.7973056067659477 0.18632792794897404 0.813672072051026 0.4666734123806202 0.5333265876193798 0.9236425501979054 0.07635744980209463 0.628664170126618 0.371335829873382 0.6227610078150828 0.3772389921849172 0.5568074201796086 0.4431925798203914 0.18227667379970516 0.8177233262002948 0.38068975655613396 0.6193102434438661 0.951434888615672 0.04856511138432796 0.0014737890843231653 0.9985262109156768 0.7032344906144022 0.29676550938559776 0.828897399863786 0.17110260013621406 0.43622424825723916 0.5637757517427608 0.9904303385859282 0.009569661414071734 0.5350415654476861 0.46495843455231395 0.07435156504425816 0.9256484349557418 0.37817129591213583 0.6218287040878642 0.8021351685370304 0.1978648314629696 0.41820789723187896 0.581792102768121 0.3501805544985354 0.6498194455014646 0.7878711756160605 0.2121288243839395 0.7759108416354585 0.22408915836454138 0.21096967160681068 0.7890303283931893 0.02150007720700261 0.9784999227929972 0.3387167848172596 0.6612832151827404 0.3273339091598239 0.672666090840176 0.8926950991542649 0.1073049008457351 0.29082765876242683 0.7091723412375732 0.7470073124324274 0.25299268756757265 0.7420104753094693 0.2579895246905307 0.5442711119824944 0.4557288880175055 0.9515022369230152 0.04849776307698478 0.5444845037683768 0.45551549623162324 0.17127696097133677 0.8287230390286633 0.1955776417824868 0.8044223582175132 0.9607178968277781 0.039282103172221874 0.702147619653325 0.29785238034667505 0.8636760698137793 0.13632393018622063 0.5638113893696594 0.4361886106303407 0.516198003162287 0.4838019968377129 0.5584570045107146 0.4415429954892855 0.6519777040376049 0.34802229596239503 0.2509221828327652 0.7490778171672349 0.36612876310054376 0.6338712368994562 0.16477903279538672 0.8352209672046131 0.47036871316151296 0.529631286838487 0.697528226104077 0.30247177389592295 0.9734008159355035 0.026599184064496455 0.18243510085575076 0.8175648991442492 0.8784239471197324 0.12157605288026764 0.6806544929881247 0.31934550701187525 0.9279626205636794 0.07203737943632064 0.45175337700422447 0.5482466229957755 0.8090760385328477 0.1909239614671523 0.17615890447917218 0.823841095520828 0.2869561927265047 0.7130438072734953 0.14583424045904345 0.8541657595409565 0.9747675187521636 0.02523248124783634 0.41724235921535574 0.5827576407846442 0.5382728889256514 0.46172711107434855 0.9886465690324477 0.011353430967552237 0.4316725116385894 0.5683274883614107 0.19925918652832691 0.800740813471673 0.2942583139009479 0.7057416860990521 0.4827472396472954 0.5172527603527046 0.48422001021188893 0.515779989788111 0.6980835136139857 0.30191648638601426 0.7259488072541712 0.27405119274582873 0.5167864842729107 0.48321351572708926 0.39465722931914843 0.6053427706808517 0.6127357727188317 0.3872642272811683 0.8155184916331562 0.18448150836684382 0.6586553133718586 0.3413446866281414 0.10239847788510238 0.8976015221148975 0.4063801837595879 0.593619816240412 0.49497389425185095 0.505026105748149 0.45676369689393714 0.5432363031060627 0.30173559456519666 0.6982644054348033 0.43606467717263653 0.5639353228273635 0.4309629211341754 0.5690370788658247 0.5339306747595198 0.4660693252404803 0.17732910488538522 0.8226708951146148 0.44684187373669476 0.5531581262633053 0.5356841918033778 0.46431580819662216 0.2921292622888981 0.7078707377111019 0.308925956321046 0.691074043678954 0.504646210239025 0.49535378976097505 0.5142069337355065 0.4857930662644935 0.7313209789663911 0.26867902103360886 0.3809724872440382 0.6190275127559618 0.9551321078090743 0.04486789219092571 0.12455499972791126 0.8754450002720887 0.9543746917954931 0.04562530820450698 0.6487516900226153 0.3512483099773846 0.7388469589079586 0.26115304109204146 0.6663625255890755 0.33363747441092456 0.7181360764835065 0.28186392351649353 0.9665103985438303 0.033489601456169714 0.2437727951634936 0.7562272048365063 0.5450183112866981 0.4549816887133019 0.2909675338080252 0.7090324661919749 0.61161125025615 0.38838874974384996 0.291733783606997 0.708266216393003 0.470820236138348 0.5291797638616519 0.3233977954307478 0.6766022045692521 0.42443745269699856 0.5755625473030014 0.3191925591232545 0.6808074408767455 0.5344954387830866 0.4655045612169134 0.8248476283265442 0.17515237167345574 0.12383943560246978 0.8761605643975302 0.4730969010402761 0.526903098959724 0.45258766112959614 0.5474123388704039 0.6314818631028666 0.36851813689713353 0.5832228566611137 0.41677714333888627 0.6689990344391159 0.3310009655608842 0.3640076566318283 0.6359923433681717 0.8200506659180046 0.17994933408199545 0.578543300123274 0.42145669987672596 0.7101035294716713 0.2898964705283286 0.5396600143545619 0.4603399856454381 0.8289384695171965 0.17106153048280354 0.5725508123987789 0.42744918760122114 0.35223012503086754 0.6477698749691324 0.36599883533982847 0.6340011646601715 0.5963099878554285 0.40369001214457145 0.28594741502202786 0.7140525849779721 0.7686083976406327 0.23139160235936732 0.8235036974456291 0.17649630255437088 0.5612367986067924 0.43876320139320774 0.3749659359506644 0.6250340640493356 0.23974235068377384 0.7602576493162262 0.6134528792886872 0.3865471207113127 0.2964141357587413 0.7035858642412587 0.23783617928649264 0.7621638207135074 0.40144463557499954 0.5985553644250005 0.03188072695658924 0.9681192730434107 0.5899157887483425 0.4100842112516575 0.9377856621983086 0.062214337801691354 0.9842133361136738 0.015786663886326196 0.2695696583718745 0.7304303416281256 0.7253840802723669 0.2746159197276331 0.4437109813517069 0.5562890186482932 0.57149636530391 0.4285036346960899 0.06988007827219996 0.9301199217278 0.5974813156732882 0.40251868432671173 0.2742657142517281 0.7257342857482719 0.6003015967636232 0.3996984032363769 0.3811212681554852 0.6188787318445147 0.10026081152741105 0.8997391884725889 0.7183898185475098 0.28161018145249017 0.3391000215094607 0.6608999784905393 0.45517913383021585 0.5448208661697841 0.7492495331148292 0.2507504668851708 0.7866579057843804 0.21334209421561967 0.25516131933089964 0.7448386806691004 0.4910005907820622 0.5089994092179377 0.8990960813034593 0.10090391869654068 0.46493348095660003 0.5350665190433999 0.15866409634348924 0.8413359036565107 0.045734133338955894 0.9542658666610441 0.4874794262547895 0.5125205737452105 0.17563818655560146 0.8243618134443985 0.38570034321132063 0.6142996567886794 0.11236864826678401 0.887631351733216 0.536717735727474 0.463282264272526 0.5531587255095249 0.4468412744904751 0.38466503196800306 0.6153349680319969 0.5941694314791803 0.4058305685208196 0.29583872064550404 0.7041612793544959 0.905182999518685 0.09481700048131515 0.8313879550385674 0.1686120449614326 0.923538884476335 0.07646111552366498 0.31685711626658436 0.6831428837334157 0.13223073347051895 0.867769266529481 0.11973102286636647 0.8802689771336335 0.5773798996851945 0.4226201003148054 0.47262543861150563 0.5273745613884945 0.5472287321126161 0.45277126788738387 0.7107680970412049 0.28923190295879503 0.5144497050327009 0.485550294967299 0.500614415940873 0.499385584059127 0.5395122368042928 0.4604877631957073 0.1787162825850114 0.8212837174149886 0.5594106873135581 0.44058931268644175 0.4661205361249925 0.5338794638750075 0.24981529311091238 0.7501847068890877 0.4301520649059431 0.569847935094057 0.5654217855876031 0.43457821441239686 0.2528920500267726 0.7471079499732274 0.2125431247791482 0.7874568752208518 0.49436744676286354 0.5056325532371365 0.3410829599560833 0.6589170400439167 0.49363720612877365 0.5063627938712263 0.2308220147930523 0.7691779852069477 0.36061526036529884 0.6393847396347012 0.5097267329845742 0.4902732670154259 0.7257676101346555 0.27423238986534443 0.5166552339604868 0.4833447660395132 0.49853313272127586 0.5014668672787242 0.35628806586800377 0.6437119341319963 0.6843493241513534 0.31565067584864664 0.4675543474752976 0.5324456525247024 0.27612631868844767 0.7238736813115523 0.6497149913585332 0.35028500864146683 0.1567002335131532 0.8432997664868468 0.2628029984373584 0.7371970015626417 0.002367887136269592 0.9976321128637304 0.6630908091024406 0.33690919089755944 0.33091254649339963 0.6690874535066003 0.33884691180439225 0.6611530881956078 0.5275970934969197 0.47240290650308026 0.7202255796721676 0.27977442032783245 0.4774782870199077 0.5225217129800923 0.6128119194021349 0.3871880805978652 0.4072311824719537 0.5927688175280462 0.2146650097370392 0.7853349902629607 0.47017750296810473 0.5298224970318953 0.7767763914938868 0.22322360850611325 0.5339251521473056 0.46607484785269443 0.3794014153540215 0.6205985846459785 0.20942430265964931 0.7905756973403506 0.7168057939752245 0.2831942060247754 0.16240963922631685 0.8375903607736831 0.34815209018868315 0.6518479098113169 0.451960840150401 0.5480391598495991 0.3589066684723606 0.6410933315276395 0.3563356213522543 0.6436643786477458 0.4378171867428223 0.5621828132571777 0.5568718803969348 0.44312811960306525 0.6378333395537397 0.36216666044626045 0.6914572463832176 0.3085427536167824 0.5528806682230372 0.44711933177696295 0.5815751361624881 0.4184248638375119 0.855969298114455 0.144030701885545 0.4507344196287261 0.5492655803712738 0.5004687454572375 0.4995312545427625 0.36734154762065574 0.6326584523793443 0.3740514240941177 0.6259485759058823 0.8700547507482829 0.12994524925171708 0.12773185407263066 0.8722681459273693 0.2461607062435027 0.7538392937564973 0.7321205553011815 0.2678794446988185 0.7575785509134568 0.24242144908654328 0.7775717146086341 0.22242828539136594 0.2347031459758748 0.7652968540241251 0.044563238363452835 0.9554367616365471 0.5014869961637305 0.49851300383626956 0.5013106658106535 0.4986893341893465 0.6118749406957033 0.38812505930429675 0.10640205567357783 0.8935979443264221 0.3637402033131467 0.6362597966868532 0.7609802198399397 0.23901978016006037 0.3997082992100323 0.6002917007899676 0.42898321199833817 0.5710167880016619 0.40292099908186485 0.5970790009181353 0.2377509160785906 0.7622490839214093 0.5962949371274705 0.4037050628725295 0.5264444413979422 0.47355555860205784 0.8975477605776623 0.1024522394223377 0.004643220439778192 0.9953567795602218 0.5647267948234277 0.4352732051765723 0.5141529177395238 0.4858470822604763 0.6618727397647544 0.3381272602352457 0.6632462130014211 0.33675378699857905 0.39057274584937507 0.6094272541506249 0.19410751294361087 0.8058924870563892 0.9632562564727452 0.036743743527254846 0.6895350312445823 0.3104649687554178 0.5687456962657406 0.4312543037342595 0.47356708196105285 0.5264329180389472 0.5076007291983275 0.49239927080167245 0.37270161563521476 0.6272983843647852 0.7336161236640041 0.2663838763359959 0.4958224252136239 0.504177574786376 0.9000161659841432 0.09998383401585682 0.9581787619213367 0.0418212380786633 0.48415586413654393 0.5158441358634561 0.5393159852138494 0.4606840147861506 0.08929253636773461 0.9107074636322654 0.683497974956874 0.31650202504312586 0.5750317473910073 0.42496825260899274 0.7969435757352411 0.20305642426475895 0.47360398458656694 0.526396015413433 0.4339366923854826 0.5660633076145174 0.6154765861015117 0.38452341389848826 0.8539519424923583 0.14604805750764172 0.5506828892236542 0.44931711077634584 0.3689926274513814 0.6310073725486186 0.9067043916055859 0.09329560839441399 0.6339673743106921 0.36603262568930794 0.90027414438408 0.0997258556159199 0.09707628593257049 0.9029237140674296 0.28473494254995363 0.7152650574500464 0.666099396598485 0.33390060340151495 0.6785855930228704 0.32141440697712964 0.4224347678790159 0.5775652321209841 0.21383509827590483 0.7861649017240953 0.6215398354594299 0.37846016454056997 0.8030051491543924 0.19699485084560758 0.36221886873941284 0.6377811312605872 0.381124736288356 0.618875263711644 0.7069997686416339 0.29300023135836606 0.4482667151292869 0.5517332848707132 0.6565398799123929 0.3434601200876071 0.41693715434135575 0.5830628456586442 0.3538471059884571 0.646152894011543 0.4302586865932543 0.5697413134067457 0.48209878524211613 0.517901214757884 0.32368849675658135 0.6763115032434186 0.44455909315401004 0.55544090684599 0.19293511402480107 0.807064885975199 0.37800961441442577 0.6219903855855742 0.4710523801735243 0.5289476198264758 0.5326213946785567 0.46737860532144326 0.4544832549254923 0.5455167450745076 0.5172549270805793 0.4827450729194207 0.07856229671469488 0.9214377032853052 0.4196142446950774 0.5803857553049225 0.3428322277628306 0.6571677722371694 0.6415566540053059 0.358443345994694 0.4371056802164178 0.5628943197835821 0.003656118407098304 0.9963438815929017 0.3948856877940763 0.6051143122059236 0.4392432117537644 0.5607567882462356 0.8375278009502826 0.16247219904971746 0.7319146894262131 0.26808531057378693 0.40985030815961015 0.5901496918403899 0.5827307105817402 0.41726928941825986 0.523773788093747 0.47622621190625297 0.4978349996521 0.5021650003479 0.41694710682838243 0.5830528931716177 0.3445838571139984 0.6554161428860016 0.6066723445871477 0.3933276554128522 0.052840791377916384 0.9471592086220836 0.9984327238793166 0.0015672761206834015 0.06456220145794832 0.9354377985420517 0.5497440258617585 0.45025597413824153 0.36921158905271845 0.6307884109472817 0.21116786803902687 0.7888321319609731 0.5056373113703937 0.4943626886296062 0.5196457027572741 0.48035429724272594 0.3608325816748143 0.6391674183251856 0.09903263958194448 0.9009673604180555 0.4597037544213244 0.5402962455786756 0.20513510070393287 0.7948648992960671 0.6479665585527119 0.3520334414472882 0.2235259449751374 0.7764740550248626 0.18578554396148284 0.8142144560385172 0.8764316097036728 0.12356839029632713 0.377118692837467 0.622881307162533 0.5427243525430461 0.457275647456954 0.6745592634297363 0.32544073657026373 0.5249240835624629 0.475075916437537 0.48831316291820936 0.5116868370817906 0.5690678417861528 0.43093215821384717 0.21019783094137476 0.7898021690586252 0.5323349489008572 0.46766505109914286 0.16964997896024858 0.8303500210397514 0.7833362562244531 0.21666374377554692 0.7305942769278873 0.2694057230721129 0.5117025675293542 0.48829743247064583 0.08440039996087961 0.9155996000391203 0.4856327046185934 0.5143672953814066 0.47218603559006145 0.5278139644099386 0.7575088287668926 0.24249117123310732 0.6972183029981049 0.30278169700189506 0.4778559850035935 0.5221440149964066 0.6872253722134459 0.312774627786554 0.18964200253898988 0.8103579974610101 0.6174559407968976 0.3825440592031024 0.5415702822782161 0.45842971772178387 0.024598987768504974 0.975401012231495 0.3356748850719277 0.6643251149280723 0.5845596682523561 0.41544033174764394 0.6508497448998182 0.34915025510018177 0.705376473427896 0.294623526572104 0.5014700851707817 0.4985299148292182 0.7342358179592635 0.26576418204073643 0.26262976466720184 0.7373702353327981 0.4938663581820045 0.5061336418179956 0.040236441905158134 0.9597635580948418 0.4372365349191283 0.5627634650808717 0.7129999964504327 0.2870000035495673 0.5806197652962016 0.4193802347037984 0.030097431330418537 0.9699025686695815 0.6505838678821465 0.3494161321178535 0.37347651655770037 0.6265234834422996 0.5536811784737311 0.44631882152626884 0.35429960200161664 0.6457003979983834 0.9149080693649125 0.08509193063508735 0.6931814967678583 0.3068185032321417 0.6272090598511361 0.372790940148864 0.2124185264749982 0.7875814735250019 0.5571326586162707 0.44286734138372924 0.8441879627812952 0.15581203721870485 0.3154333096144661 0.6845666903855339 0.04452636759627562 0.9554736324037244 0.5847902911358237 0.41520970886417635 0.4823219564740122 0.5176780435259877 0.5700155698585502 0.4299844301414499 0.481071286329399 0.518928713670601 0.9652168457934056 0.034783154206594356 0.7062172989041138 0.29378270109588617 0.5027735836942195 0.4972264163057804 0.44872673409919783 0.5512732659008021 0.6776291822569726 0.32237081774302734 0.7864586042681746 0.21354139573182543 0.6278195561944874 0.3721804438055126 0.23457954047717233 0.7654204595228277 0.3883818347136053 0.6116181652863947 0.6457617250638368 0.3542382749361632 0.15897796479425058 0.8410220352057495 0.2881229822715403 0.7118770177284598 0.5444238961743114 0.4555761038256886 0.4262559680585573 0.5737440319414427 0.36867006349337367 0.6313299365066264 0.2856348461416836 0.7143651538583163 0.6546718683179354 0.3453281316820645 0.7478908562816766 0.2521091437183233 0.5888596848426813 0.41114031515731886 0.4769241881540677 0.5230758118459323 0.4859299427372008 0.5140700572627991 0.16623039867687425 0.8337696013231256 0.8632962833466691 0.1367037166533309 0.33832059888232746 0.6616794011176726 0.6821599686811193 0.3178400313188807 0.572714624296473 0.4272853757035269 0.7344354235419566 0.2655645764580435 0.1829830270214808 0.8170169729785193 0.5781713730323232 0.42182862696767676 0.5839764930001315 0.41602350699986845 0.7544067745393785 0.24559322546062143 0.4867722436933421 0.513227756306658 0.3076109179464913 0.6923890820535087 0.9209252343807182 0.0790747656192819 0.6674356816003965 0.3325643183996035 0.015450455323523486 0.9845495446764765 0.6544839565196362 0.3455160434803638 0.7170912941364538 0.2829087058635462 0.9319243418956367 0.06807565810436338 0.2232603033428586 0.7767396966571414 0.35656027777050925 0.6434397222294908 0.27559617852276636 0.7244038214772336 0.842872913821925 0.15712708617807505 0.5433422277687697 0.45665777223123033 0.6363771459598049 0.3636228540401952 0.6502753472736221 0.34972465272637787 0.09909978972248917 0.9009002102775108 0.6417404209065259 0.35825957909347406 0.9636740951497804 0.03632590485021957 0.8427306168379236 0.15726938316207636 0.3519314241325972 0.6480685758674026 0.3688838090959359 0.6311161909040642 0.3933535407154686 0.6066464592845314 0.4082576131180885 0.5917423868819115 0.6267217776837432 0.37327822231625674 0.19369907867758207 0.8063009213224179 0.6098372021570495 0.3901627978429504 0.47769623357968993 0.5223037664203102 0.9248799229169757 0.07512007708302425 0.040682272640708214 0.9593177273592918 0.5445539606203336 0.45544603937966643 0.6280792744307717 0.3719207255692282 0.48806789319430793 0.511932106805692 0.12265013741018443 0.8773498625898156 0.548443733237127 0.45155626676287297 0.10124459493726769 0.8987554050627323 0.6141998631808584 0.38580013681914155 0.4652013435979232 0.5347986564020768 0.5468119665753082 0.4531880334246919 0.01709696195376936 0.9829030380462307 0.0715579970867091 0.9284420029132909 0.423038300411127 0.576961699588873 0.3702589038736264 0.6297410961263735 0.14071196225136737 0.8592880377486326 0.6279454764474423 0.37205452355255786 0.49494211024286533 0.5050578897571347 0.520426332587621 0.47957366741237895 0.048959794336991214 0.9510402056630088 0.5032422465283003 0.49675775347169965 0.3128943801432169 0.6871056198567831 0.423350883445011 0.5766491165549891 0.00588265413429418 0.9941173458657058 0.7329920885844734 0.26700791141552654 0.17920071832733964 0.8207992816726604 0.4960967982686177 0.5039032017313824 0.709788793709001 0.29021120629099895 0.4129972634963879 0.5870027365036121 0.9339367253953371 0.06606327460466285 0.37666364715750467 0.6233363528424953 0.4749559576126228 0.5250440423873771 0.22276289401450172 0.7772371059854982 0.6194804135971435 0.38051958640285666 0.9629702254161854 0.03702977458381462 0.6779154168651722 0.32208458313482785 0.3836784245769336 0.6163215754230664 0.757854939778504 0.2421450602214959 0.5563510823545231 0.44364891764547687 0.5150465738997088 0.4849534261002911 0.39389262255761665 0.6061073774423834 0.6808120754632031 0.31918792453679684 0.5113616404268708 0.4886383595731291 0.980859315147375 0.01914068485262501 0.22706340856412002 0.77293659143588 0.23024562601897486 0.7697543739810251 0.6367007532805614 0.36329924671943864 0.4369073422716507 0.5630926577283494 0.7035294421764838 0.29647055782351617 0.19351808525927588 0.8064819147407241 0.7614952243288422 0.2385047756711578 0.5669995518133542 0.43300044818664596 0.5274251844723101 0.47257481552768976 0.16038753706669392 0.839612462933306 0.4738711955629169 0.5261288044370831 0.46745961608277153 0.5325403839172286 0.8586407573166771 0.14135924268332287 0.3621459050829547 0.6378540949170453 0.7561511878261353 0.24384881217386464 0.41909753639809894 0.580902463601901 0.4263587342405973 0.5736412657594028 0.29417900272316466 0.7058209972768354 0.6332613985214848 0.36673860147851517 0.8584256787428353 0.14157432125716474 0.6894218161783363 0.31057818382166363 0.6369303273667078 0.3630696726332921 0.5050601946294435 0.49493980537055654 0.5276496475706571 0.47235035242934287 0.7795316808575893 0.2204683191424107 0.5174092327793504 0.48259076722064964 0.8853864539775553 0.11461354602244464 0.16212052408708758 0.8378794759129125 0.24899625059664107 0.7510037494033589 0.3532711618500298 0.6467288381499702 0.9765517793894329 0.023448220610567058 0.2846582453208475 0.7153417546791525 0.7949518733012026 0.20504812669879732 0.6291561221731299 0.3708438778268701 0.3546171847239701 0.6453828152760299 0.574237345448416 0.42576265455158385 0.771677829636842 0.228322170363158 0.43754477982698575 0.5624552201730142 0.4441637240224637 0.5558362759775363 0.3302219992611602 0.6697780007388399 0.5209447589520689 0.47905524104793107 0.3244561870008182 0.6755438129991819 0.43085073278674124 0.5691492672132588 0.5830709664296702 0.4169290335703299 0.7594672279418386 0.24053277205816131 0.5519189277381111 0.4480810722618889 0.46114786805726676 0.5388521319427332 0.3510060917094995 0.6489939082905005 0.4948560469681935 0.5051439530318064 0.42628201379832426 0.5737179862016758 0.9878328016233209 0.012167198376679152 0.31634513755020954 0.6836548624497905 0.1803554412734519 0.8196445587265481 0.7042782586512102 0.2957217413487898 0.10980886028359836 0.8901911397164016 0.8839194484614028 0.11608055153859721 0.4721527795380209 0.5278472204619792 0.5951427898843149 0.40485721011568515 0.43960365371648596 0.5603963462835141 0.6435786107892468 0.35642138921075317 0.3013331025657465 0.6986668974342535 0.4575718030994891 0.5424281969005109 0.9462062107284924 0.05379378927150759 0.40947449104514094 0.5905255089548591 0.4431762243075831 0.5568237756924169 0.03076627203930591 0.9692337279606941 0.23156513818065366 0.7684348618193463 0.38985486450693785 0.6101451354930622 0.8540142222033463 0.1459857777966537 0.5185674515214502 0.48143254847854977 0.28756363203243174 0.7124363679675683 0.522347364072135 0.477652635927865 0.04115398304117711 0.9588460169588229 0.4957694670110271 0.5042305329889728 0.8708964839359584 0.12910351606404155 0.5056325010227785 0.49436749897722154 0.8647959384177802 0.1352040615822197 0.9798262426731795 0.020173757326820526 0.24403550977631897 0.7559644902236811 0.3283065663873335 0.6716934336126665 0.47475968369301724 0.5252403163069829 0.6886902855842293 0.31130971441577066 0.952379357141392 0.047620642858608016 0.2769051244105046 0.7230948755894955 0.48887404478090224 0.5111259552190979 0.0873865223000708 0.9126134776999292 0.6221936798096637 0.3778063201903363 0.35178437122246836 0.6482156287775316 0.41962135113758664 0.5803786488624134 0.9293720412167565 0.07062795878324352 0.4105096339187734 0.5894903660812265 0.4745601616118146 0.5254398383881853 0.9351695741300928 0.06483042586990712 0.19038975337121802 0.8096102466287819 0.4562049168568238 0.5437950831431763 0.2265710161396092 0.7734289838603908 0.23328218272220036 0.7667178172777996 0.10319435457218906 0.8968056454278109 0.02628056674467051 0.9737194332553295 0.03949935620907587 0.9605006437909241 0.7361886851234131 0.26381131487658693 0.8702886725042449 0.12971132749575506 0.5062482709302176 0.4937517290697823 0.9111779541014334 0.08882204589856654 0.8359446032764046 0.1640553967235954 0.45672131473984406 0.543278685260156 0.4789591457029533 0.5210408542970467 0.5265343504321656 0.47346564956783443 0.8387775929080514 0.16122240709194852 0.31915382052397295 0.680846179476027 0.50294089126153 0.49705910873847015 0.3533726384523213 0.6466273615476786 0.5617135669700992 0.4382864330299008 0.30928304324774947 0.6907169567522506 0.012140638952165914 0.9878593610478341 0.5339943255248035 0.4660056744751964 0.9523069554537261 0.04769304454627385 0.4195532217953122 0.5804467782046878 0.6038993557858638 0.39610064421413615 0.6119217308882197 0.3880782691117804 0.32462409644630874 0.6753759035536913 0.05778250775775651 0.9422174922422435 0.3198419876131763 0.6801580123868238 0.18760717763769327 0.8123928223623067 0.507510134889793 0.492489865110207 0.7620104704831681 0.2379895295168319 0.5481000697498002 0.4518999302501998 0.5283493217530237 0.47165067824697626 0.48844690907157334 0.5115530909284266 0.9178215975229651 0.08217840247703488 0.15815435120811192 0.8418456487918881 0.48246541802743964 0.5175345819725603 0.6355590165600848 0.3644409834399151 0.35743123650858477 0.6425687634914151 0.30285442257808814 0.6971455774219119 0.3546286514486965 0.6453713485513034 0.4815994046251037 0.5184005953748962 0.49923596211735427 0.5007640378826458 0.7583308189507553 0.2416691810492447 0.43501794169588215 0.5649820583041179 0.6159188287401803 0.3840811712598197 0.04379613700670993 0.9562038629932901 0.48342153644136293 0.516578463558637 0.15753386964330016 0.8424661303566998 0.45717445271777263 0.5428255472822274 0.33342736461053607 0.666572635389464 0.46568804933987024 0.5343119506601297 0.2504377523727024 0.7495622476272976 0.1915675490443671 0.8084324509556329 0.8855321628837375 0.11446783711626243 0.5722439044585804 0.4277560955414197 0.6233784272720989 0.37662157272790114 0.4377371024385406 0.5622628975614594 0.847485205284165 0.15251479471583498 0.9058965992410096 0.09410340075899037 0.4196796402037469 0.5803203597962532 0.6411921910536978 0.35880780894630226 0.3624543868360123 0.6375456131639878 0.7701766065362675 0.22982339346373248 0.7125718211787605 0.28742817882123944 0.40448823886304786 0.5955117611369523 0.13700580206323532 0.8629941979367647 0.47457177445785914 0.5254282255421409 0.752284127052676 0.247715872947324 0.22314434056808996 0.77685565943191 0.5524344233437973 0.4475655766562027 0.42050896630494217 0.5794910336950578 0.8160972055575367 0.18390279444246338 0.7705554151997988 0.22944458480020125 0.1428895810484534 0.8571104189515466 0.3697787699926632 0.6302212300073369 0.4214968299617271 0.5785031700382728 0.22670310275917413 0.7732968972408258 0.6108312948670065 0.38916870513299345 0.5420048712415941 0.4579951287584058 0.23103295151020234 0.7689670484897978 0.6195527442094313 0.3804472557905687 0.549373873648964 0.4506261263510361 0.4910270427341606 0.5089729572658394 0.4693919760301663 0.5306080239698336 0.6829255759596073 0.3170744240403925 0.37622848472829434 0.6237715152717056 0.28570440543219816 0.7142955945678019 0.4851326966805305 0.5148673033194695 0.7654384210097244 0.2345615789902757 0.7037651830664312 0.29623481693356885 0.5787552660822842 0.42124473391771594 0.506937100910822 0.49306289908917794 0.7692306243696834 0.23076937563031663 0.32875577634457703 0.6712442236554229 0.35676255441203275 0.6432374455879672 0.3884884718667828 0.6115115281332172 0.6579506379014849 0.3420493620985152 0.17276694003723583 0.8272330599627642 0.7936682774155199 0.2063317225844801 0.8747865834691362 0.12521341653086385 0.06682528788693438 0.9331747121130656 0.3459424068952431 0.654057593104757 0.7777691908692002 0.22223080913079984 0.3099155859580331 0.6900844140419669 0.6152142134923717 0.3847857865076282 0.5842118086610024 0.4157881913389977 0.6776103808033234 0.32238961919667664 0.17182108144919103 0.8281789185508089 0.6859338658485191 0.31406613415148094 0.11063113066864648 0.8893688693313535 0.12291110228065472 0.8770888977193453 0.3368517089388797 0.6631482910611203 0.4362295163239542 0.5637704836760458 0.5103341007245012 0.4896658992754987 0.7608986105057638 0.2391013894942362 0.4216422934361677 0.5783577065638323 0.24180295285629985 0.7581970471437002 0.08500380619116618 0.9149961938088338 0.5219364080676153 0.4780635919323847 0.9315301593214041 0.06846984067859584 0.8897551180624281 0.11024488193757186 0.436241626991561 0.563758373008439 0.02953124900205765 0.9704687509979424 