<?xml version='1.0' encoding='UTF-8'?>
<BIF VERSION="0.3">
  <NETWORK>
    <NAME>UNTITLED</NAME>
    <VARIABLE TYPE="nature">
      <NAME>0</NAME>
      <OUTCOME>0</OUTCOME>
      <OUTCOME>1</OUTCOME>
      <PROPERTY>weight = None</PROPERTY>
    </VARIABLE>
    <VARIABLE TYPE="nature">
      <NAME>2</NAME>
      <OUTCOME>0</OUTCOME>
      <OUTCOME>1</OUTCOME>
      <PROPERTY>weight = None</PROPERTY>
    </VARIABLE>
    <VARIABLE TYPE="nature">
      <NAME>3</NAME>
      <OUTCOME>0</OUTCOME>
      <OUTCOME>1</OUTCOME>
      <PROPERTY>weight = None</PROPERTY>
    </VARIABLE>
    <VARIABLE TYPE="nature">
      <NAME>4</NAME>
      <OUTCOME>0</OUTCOME>
      <OUTCOME>1</OUTCOME>
      <PROPERTY>weight = None</PROPERTY>
    </VARIABLE>
    <VARIABLE TYPE="nature">
      <NAME>9</NAME>
      <OUTCOME>0</OUTCOME>
      <OUTCOME>1</OUTCOME>
      <PROPERTY>weight = None</PROPERTY>
    </VARIABLE>
    <VARIABLE TYPE="nature">
      <NAME>6</NAME>
      <OUTCOME>0</OUTCOME>
      <OUTCOME>1</OUTCOME>
      <PROPERTY>weight = None</PROPERTY>
    </VARIABLE>
    <VARIABLE TYPE="nature">
      <NAME>8</NAME>
      <OUTCOME>0</OUTCOME>
      <OUTCOME>1</OUTCOME>
      <PROPERTY>weight = None</PROPERTY>
    </VARIABLE>
    <VARIABLE TYPE="nature">
      <NAME>5</NAME>
      <OUTCOME>0</OUTCOME>
      <OUTCOME>1</OUTCOME>
      <PROPERTY>weight = None</PROPERTY>
    </VARIABLE>
    <VARIABLE TYPE="nature">
      <NAME>7</NAME>
      <OUTCOME>0</OUTCOME>
      <OUTCOME>1</OUTCOME>
      <PROPERTY>weight = None</PROPERTY>
    </VARIABLE>
    <VARIABLE TYPE="nature">
      <NAME>1</NAME>
      <OUTCOME>0</OUTCOME>
      <OUTCOME>1</OUTCOME>
      <PROPERTY>weight = None</PROPERTY>
    </VARIABLE>
    <DEFINITION>
      <FOR>0</FOR>
      <TABLE>0.13209965137613297 0.867900348623867 </TABLE>
    </DEFINITION>
    <DEFINITION>
      <FOR>1</FOR>
      <TABLE>0.5773114932137717 0.4226885067862283 </TABLE>
    </DEFINITION>
    <DEFINITION>
      <FOR>2</FOR>
      <GIVEN>0</GIVEN>
      <GIVEN>1</GIVEN>
      <TABLE>0.1914969384380348 0.8085030615619652 0.8243606929197255 0.17563930708027448 0.7360972233501103 0.26390277664988965 0.45355118729960475 0.5464488127003952 </TABLE>
    </DEFINITION>
    <DEFINITION>
      <FOR>3</FOR>
      <GIVEN>0</GIVEN>
      <GIVEN>2</GIVEN>
      <GIVEN>1</GIVEN>
      <TABLE>0.10662919968885137 0.8933708003111486 0.8347085902256821 0.16529140977431783 0.7255811312241793 0.27441886877582067 0.969221435794364 0.03077856420563601 0.7287931583766015 0.2712068416233985 0.5522288126588865 0.44777118734111354 0.2553014176412684 0.7446985823587314 0.2693764717603783 0.7306235282396218 </TABLE>
    </DEFINITION>
    <DEFINITION>
      <FOR>4</FOR>
      <GIVEN>0</GIVEN>
      <GIVEN>3</GIVEN>
      <TABLE>0.6021314337034365 0.3978685662965636 0.4568190448878169 0.5431809551121831 0.4983924505960581 0.5016075494039419 0.19683533555305086 0.803164664446949 </TABLE>
    </DEFINITION>
    <DEFINITION>
      <FOR>5</FOR>
      <GIVEN>3</GIVEN>
      <GIVEN>4</GIVEN>
      <GIVEN>1</GIVEN>
      <TABLE>0.8099652371256031 0.19003476287439688 0.08967876503220334 0.9103212349677966 0.6014178992066125 0.39858210079338763 0.42089375679721736 0.5791062432027826 0.32756055611151563 0.6724394438884843 0.1696297459453016 0.8303702540546983 0.4701639373446944 0.5298360626553056 0.1990494386989206 0.8009505613010793 </TABLE>
    </DEFINITION>
    <DEFINITION>
      <FOR>6</FOR>
      <GIVEN>2</GIVEN>
      <GIVEN>4</GIVEN>
      <GIVEN>1</GIVEN>
      <GIVEN>5</GIVEN>
      <TABLE>0.5663589772926368 0.43364102270736316 0.5218449382735418 0.4781550617264582 0.3428592314407453 0.6571407685592546 0.900744402722096 0.09925559727790396 0.15375736712138066 0.8462426328786193 0.8973896595340608 0.10261034046593916 0.19658885068176882 0.8034111493182311 0.6776799697630966 0.3223200302369034 0.19543967365759113 0.8045603263424089 0.5021316668396517 0.49786833316034823 0.21842494373380245 0.7815750562661975 0.6458454010283257 0.3541545989716744 0.5456398829262055 0.4543601170737946 0.515729058844153 0.48427094115584707 0.7828456017582305 0.21715439824176952 0.1822950807875596 0.8177049192124404 </TABLE>
    </DEFINITION>
    <DEFINITION>
      <FOR>7</FOR>
      <GIVEN>3</GIVEN>
      <GIVEN>4</GIVEN>
      <GIVEN>1</GIVEN>
      <GIVEN>5</GIVEN>
      <GIVEN>6</GIVEN>
      <TABLE>0.35754978988465064 0.6424502101153493 0.7641110590394211 0.23588894096057889 0.8237975251741078 0.17620247482589224 0.927266380343082 0.07273361965691805 0.9844432342607292 0.015556765739270782 0.5001402981152663 0.4998597018847338 0.6435095546985412 0.35649044530145874 0.4986266154640442 0.5013733845359558 0.4332251989901775 0.5667748010098225 0.9639381144340116 0.03606188556598845 0.6959073052620998 0.3040926947379001 0.675286912100615 0.324713087899385 0.046263978155752776 0.9537360218442472 0.53015300656433 0.4698469934356701 0.24488096360136924 0.7551190363986308 0.10038007891602037 0.8996199210839796 0.22003113235965535 0.7799688676403447 0.2426743451653882 0.7573256548346118 0.03327385960391492 0.9667261403960851 0.5488357094185357 0.45116429058146434 0.18410430717390225 0.8158956928260979 0.25574241720298135 0.7442575827970186 0.2798726745326826 0.7201273254673174 0.39243988913896755 0.6075601108610326 0.483600156366502 0.516399843633498 0.23392127375877345 0.7660787262412265 0.7558407747210483 0.24415922527895176 0.5130493637438013 0.48695063625619867 0.48320213670555723 0.5167978632944428 0.5618556000777783 0.43814439992222165 0.4582384373389846 0.5417615626610155 0.30485108900475943 0.6951489109952407 </TABLE>
    </DEFINITION>
    <DEFINITION>
      <FOR>8</FOR>
      <GIVEN>2</GIVEN>
      <GIVEN>1</GIVEN>
      <GIVEN>5</GIVEN>
      <GIVEN>7</GIVEN>
      <TABLE>0.8943798649995902 0.10562013500040975 0.8751030864388594 0.1248969135611406 0.9759247435137642 0.02407525648623578 0.20173260529952566 0.7982673947004744 0.2469140279335385 0.7530859720664614 0.525100342616542 0.47489965738345796 0.7618287931969789 0.23817120680302095 0.5133203211691117 0.4866796788308882 0.7019116618855478 0.2980883381144522 0.5239968964984651 0.4760031035015348 0.6262010694745754 0.3737989305254247 0.5547482649982762 0.44525173500172366 0.7586200565083012 0.24137994349169886 0.32109383181065687 0.6789061681893431 0.21443203222560012 0.7855679677743999 0.5638606967431534 0.4361393032568466 </TABLE>
    </DEFINITION>
    <DEFINITION>
      <FOR>9</FOR>
      <GIVEN>0</GIVEN>
      <GIVEN>2</GIVEN>
      <GIVEN>6</GIVEN>
      <GIVEN>8</GIVEN>
      <TABLE>0.02541483963891989 0.9745851603610802 0.8361396705934182 0.16386032940658182 0.44640375889081213 0.5535962411091879 0.8193390677059722 0.18066093229402777 0.466153036736123 0.533846963263877 0.5234865689090229 0.47651343109097716 0.8335167393602262 0.16648326063977376 0.08043237996608076 0.9195676200339192 0.4315209793250764 0.5684790206749236 0.4561729932937521 0.543827006706248 0.20754915971794527 0.7924508402820547 0.5691561768601308 0.43084382313986924 0.73893872620669 0.26106127379331007 0.37567473015167957 0.6243252698483205 0.4887133420569038 0.5112866579430961 0.28689925946153244 0.7131007405384676 </TABLE>
    </DEFINITION>
  </NETWORK>
</BIF>
