<?xml version='1.0' encoding='UTF-8'?>
<BIF VERSION="0.3">
  <NETWORK>
    <NAME>UNTITLED</NAME>
    <VARIABLE TYPE="nature">
      <NAME>0</NAME>
      <OUTCOME>0</OUTCOME>
      <OUTCOME>1</OUTCOME>
      <PROPERTY>weight = None</PROPERTY>
    </VARIABLE>
    <VARIABLE TYPE="nature">
      <NAME>1</NAME>
      <OUTCOME>0</OUTCOME>
      <OUTCOME>1</OUTCOME>
      <PROPERTY>weight = None</PROPERTY>
    </VARIABLE>
    <VARIABLE TYPE="nature">
      <NAME>2</NAME>
      <OUTCOME>0</OUTCOME>
      <OUTCOME>1</OUTCOME>
      <PROPERTY>weight = None</PROPERTY>
    </VARIABLE>
    <VARIABLE TYPE="nature">
      <NAME>3</NAME>
      <OUTCOME>0</OUTCOME>
      <OUTCOME>1</OUTCOME>
      <PROPERTY>weight = None</PROPERTY>
    </VARIABLE>
    <VARIABLE TYPE="nature">
      <NAME>5</NAME>
      <OUTCOME>0</OUTCOME>
      <OUTCOME>1</OUTCOME>
      <PROPERTY>weight = None</PROPERTY>
    </VARIABLE>
    <VARIABLE TYPE="nature">
      <NAME>6</NAME>
      <OUTCOME>0</OUTCOME>
      <OUTCOME>1</OUTCOME>
      <PROPERTY>weight = None</PROPERTY>
    </VARIABLE>
    <VARIABLE TYPE="nature">
      <NAME>8</NAME>
      <OUTCOME>0</OUTCOME>
      <OUTCOME>1</OUTCOME>
      <PROPERTY>weight = None</PROPERTY>
    </VARIABLE>
    <VARIABLE TYPE="nature">
      <NAME>9</NAME>
      <OUTCOME>0</OUTCOME>
      <OUTCOME>1</OUTCOME>
      <PROPERTY>weight = None</PROPERTY>
    </VARIABLE>
    <VARIABLE TYPE="nature">
      <NAME>12</NAME>
      <OUTCOME>0</OUTCOME>
      <OUTCOME>1</OUTCOME>
      <PROPERTY>weight = None</PROPERTY>
    </VARIABLE>
    <VARIABLE TYPE="nature">
      <NAME>14</NAME>
      <OUTCOME>0</OUTCOME>
      <OUTCOME>1</OUTCOME>
      <PROPERTY>weight = None</PROPERTY>
    </VARIABLE>
    <VARIABLE TYPE="nature">
      <NAME>16</NAME>
      <OUTCOME>0</OUTCOME>
      <OUTCOME>1</OUTCOME>
      <PROPERTY>weight = None</PROPERTY>
    </VARIABLE>
    <VARIABLE TYPE="nature">
      <NAME>17</NAME>
      <OUTCOME>0</OUTCOME>
      <OUTCOME>1</OUTCOME>
      <PROPERTY>weight = None</PROPERTY>
    </VARIABLE>
    <VARIABLE TYPE="nature">
      <NAME>19</NAME>
      <OUTCOME>0</OUTCOME>
      <OUTCOME>1</OUTCOME>
      <PROPERTY>weight = None</PROPERTY>
    </VARIABLE>
    <VARIABLE TYPE="nature">
      <NAME>20</NAME>
      <OUTCOME>0</OUTCOME>
      <OUTCOME>1</OUTCOME>
      <PROPERTY>weight = None</PROPERTY>
    </VARIABLE>
    <VARIABLE TYPE="nature">
      <NAME>7</NAME>
      <OUTCOME>0</OUTCOME>
      <OUTCOME>1</OUTCOME>
      <PROPERTY>weight = None</PROPERTY>
    </VARIABLE>
    <VARIABLE TYPE="nature">
      <NAME>11</NAME>
      <OUTCOME>0</OUTCOME>
      <OUTCOME>1</OUTCOME>
      <PROPERTY>weight = None</PROPERTY>
    </VARIABLE>
    <VARIABLE TYPE="nature">
      <NAME>21</NAME>
      <OUTCOME>0</OUTCOME>
      <OUTCOME>1</OUTCOME>
      <PROPERTY>weight = None</PROPERTY>
    </VARIABLE>
    <VARIABLE TYPE="nature">
      <NAME>22</NAME>
      <OUTCOME>0</OUTCOME>
      <OUTCOME>1</OUTCOME>
      <PROPERTY>weight = None</PROPERTY>
    </VARIABLE>
    <VARIABLE TYPE="nature">
      <NAME>23</NAME>
      <OUTCOME>0</OUTCOME>
      <OUTCOME>1</OUTCOME>
      <PROPERTY>weight = None</PROPERTY>
    </VARIABLE>
    <VARIABLE TYPE="nature">
      <NAME>4</NAME>
      <OUTCOME>0</OUTCOME>
      <OUTCOME>1</OUTCOME>
      <PROPERTY>weight = None</PROPERTY>
    </VARIABLE>
    <VARIABLE TYPE="nature">
      <NAME>24</NAME>
      <OUTCOME>0</OUTCOME>
      <OUTCOME>1</OUTCOME>
      <PROPERTY>weight = None</PROPERTY>
    </VARIABLE>
    <VARIABLE TYPE="nature">
      <NAME>13</NAME>
      <OUTCOME>0</OUTCOME>
      <OUTCOME>1</OUTCOME>
      <PROPERTY>weight = None</PROPERTY>
    </VARIABLE>
    <VARIABLE TYPE="nature">
      <NAME>10</NAME>
      <OUTCOME>0</OUTCOME>
      <OUTCOME>1</OUTCOME>
      <PROPERTY>weight = None</PROPERTY>
    </VARIABLE>
    <VARIABLE TYPE="nature">
      <NAME>15</NAME>
      <OUTCOME>0</OUTCOME>
      <OUTCOME>1</OUTCOME>
      <PROPERTY>weight = None</PROPERTY>
    </VARIABLE>
    <VARIABLE TYPE="nature">
      <NAME>18</NAME>
      <OUTCOME>0</OUTCOME>
      <OUTCOME>1</OUTCOME>
      <PROPERTY>weight = None</PROPERTY>
    </VARIABLE>
    <DEFINITION>
      <FOR>0</FOR>
      <TABLE>0.5065957696334585 0.49340423036654146 </TABLE>
    </DEFINITION>
    <DEFINITION>
      <FOR>1</FOR>
      <GIVEN>0</GIVEN>
      <TABLE>0.21359166183499925 0.7864083381650008 0.6803246115751127 0.3196753884248873 </TABLE>
    </DEFINITION>
    <DEFINITION>
      <FOR>2</FOR>
      <GIVEN>0</GIVEN>
      <GIVEN>1</GIVEN>
      <TABLE>0.8356832744582721 0.16431672554172802 0.5906155043245859 0.4093844956754141 0.5946503285036899 0.4053496714963101 0.47382426604080446 0.5261757339591956 </TABLE>
    </DEFINITION>
    <DEFINITION>
      <FOR>3</FOR>
      <GIVEN>0</GIVEN>
      <GIVEN>2</GIVEN>
      <TABLE>0.5023683551773299 0.49763164482267014 0.4268679655825202 0.5731320344174798 0.9110044006878859 0.08899559931211411 0.9332213556843352 0.06677864431566481 </TABLE>
    </DEFINITION>
    <DEFINITION>
      <FOR>4</FOR>
      <GIVEN>2</GIVEN>
      <GIVEN>3</GIVEN>
      <TABLE>0.1845578914823973 0.8154421085176027 0.13531392739056503 0.864686072609435 0.5352833958995316 0.46471660410046833 0.09130954241510947 0.9086904575848905 </TABLE>
    </DEFINITION>
    <DEFINITION>
      <FOR>5</FOR>
      <GIVEN>0</GIVEN>
      <GIVEN>1</GIVEN>
      <GIVEN>2</GIVEN>
      <GIVEN>3</GIVEN>
      <GIVEN>4</GIVEN>
      <TABLE>0.7467872609731367 0.2532127390268633 0.6234495369836176 0.37655046301638245 0.5273738440605401 0.47262615593945995 0.4300412161425335 0.5699587838574666 0.5590604739200771 0.440939526079923 0.5670812786538065 0.43291872134619336 0.6255239612976686 0.3744760387023314 0.6436573769683795 0.35634262303162045 0.666175958360246 0.333824041639754 0.8376294869500157 0.16237051304998423 0.7250993318172353 0.2749006681827647 0.3823312637491412 0.6176687362508587 0.18009582818750017 0.8199041718124999 0.6123504533226029 0.3876495466773971 0.5432821343479797 0.4567178656520203 0.5526952747407001 0.4473047252592999 0.5520611084295866 0.44793889157041356 0.5130882226979381 0.486911777302062 0.4415961710289084 0.5584038289710915 0.42496871589566204 0.575031284104338 0.7109340198709193 0.28906598012908064 0.8056825072692004 0.19431749273079954 0.4540828684014702 0.5459171315985298 0.6749997226015686 0.3250002773984314 0.423698353650757 0.5763016463492431 0.4902626021684331 0.5097373978315669 0.4624510412069538 0.5375489587930461 0.5437686366817267 0.4562313633182733 0.48082915302571344 0.5191708469742866 0.6102694587037324 0.38973054129626766 0.4120694143376605 0.5879305856623396 0.28718556373126164 0.7128144362687384 </TABLE>
    </DEFINITION>
    <DEFINITION>
      <FOR>6</FOR>
      <GIVEN>0</GIVEN>
      <GIVEN>2</GIVEN>
      <GIVEN>3</GIVEN>
      <GIVEN>4</GIVEN>
      <TABLE>0.4475495066110112 0.5524504933889888 0.8853213534025147 0.11467864659748533 0.561282816138988 0.43871718386101194 0.026077442213885124 0.9739225577861149 0.10841623779786087 0.8915837622021391 0.59439437325479 0.40560562674520995 0.5769410893806003 0.4230589106193997 0.5100490393320386 0.48995096066796145 0.25529117738587215 0.7447088226141279 0.789396330178642 0.21060366982135803 0.32485589305354695 0.675144106946453 0.37277555770916093 0.6272244422908391 0.503207327326867 0.496792672673133 0.5103352434721748 0.48966475652782515 0.635337557168203 0.364662442831797 0.3982249188241692 0.6017750811758308 </TABLE>
    </DEFINITION>
    <DEFINITION>
      <FOR>7</FOR>
      <GIVEN>1</GIVEN>
      <GIVEN>3</GIVEN>
      <GIVEN>5</GIVEN>
      <GIVEN>6</GIVEN>
      <GIVEN>4</GIVEN>
      <TABLE>0.5065138807478752 0.4934861192521249 0.47924437110635243 0.5207556288936477 0.9502451386765616 0.049754861323438454 0.4779345966769158 0.5220654033230843 0.42759953359154945 0.5724004664084505 0.6229702297732054 0.3770297702267945 0.2017444773192636 0.7982555226807363 0.2980147257123563 0.7019852742876437 0.7304919180429248 0.2695080819570752 0.5612311557722827 0.43876884422771734 0.6962809160217 0.3037190839783 0.8378946601952986 0.16210533980470138 0.6914444103685135 0.3085555896314866 0.7144461247021278 0.28555387529787213 0.454492992555535 0.545507007444465 0.8950736320913429 0.10492636790865704 0.8057818078890397 0.19421819211096028 0.7186311140622731 0.2813688859377269 0.40348987686994003 0.5965101231300599 0.2046718027771214 0.7953281972228786 0.9468712704115197 0.053128729588480195 0.19282754062071714 0.8071724593792828 0.38290244364184006 0.61709755635816 0.6171954582478392 0.3828045417521609 0.5126892409571426 0.4873107590428573 0.638561668500504 0.36143833149949606 0.506680302343566 0.493319697656434 0.43907908818945496 0.560920911810545 0.8396513892186008 0.16034861078139917 0.2192694799694413 0.7807305200305587 0.5000794512936767 0.49992054870632324 0.4068959924566601 0.5931040075433399 </TABLE>
    </DEFINITION>
    <DEFINITION>
      <FOR>8</FOR>
      <GIVEN>0</GIVEN>
      <GIVEN>1</GIVEN>
      <GIVEN>2</GIVEN>
      <GIVEN>3</GIVEN>
      <GIVEN>5</GIVEN>
      <GIVEN>7</GIVEN>
      <GIVEN>4</GIVEN>
      <TABLE>0.16917333801996293 0.8308266619800371 0.4727022496869454 0.5272977503130546 0.6241178224385177 0.3758821775614824 0.5042351953756903 0.49576480462430983 0.2792851387669254 0.7207148612330745 0.29252869404099363 0.7074713059590064 0.04903804633534194 0.9509619536646581 0.5547763110537927 0.44522368894620734 0.26287516230918484 0.7371248376908152 0.5453423826719774 0.4546576173280225 0.11261965930210995 0.8873803406978901 0.5479578699332041 0.45204213006679606 0.3354800500298557 0.6645199499701443 0.6406052363246804 0.3593947636753197 0.35079430648149773 0.6492056935185022 0.6650056295717699 0.33499437042823005 0.1936248237762832 0.8063751762237168 0.3686586593042266 0.6313413406957733 0.5475490590611687 0.45245094093883126 0.27063183240663796 0.7293681675933621 0.7275012821327596 0.2724987178672405 0.40391280125409307 0.5960871987459069 0.7100436936961977 0.2899563063038023 0.5117747788586904 0.48822522114130956 0.4577229412091089 0.542277058790891 0.5497674345622264 0.4502325654377735 0.5010447074741431 0.4989552925258569 0.13649502790324336 0.8635049720967566 0.9226474288500633 0.07735257114993661 0.6785791128908386 0.32142088710916134 0.6701445974950353 0.32985540250496465 0.554822469464259 0.44517753053574105 0.09056364916211429 0.9094363508378858 0.7098558057325186 0.29014419426748134 0.35939742542074715 0.6406025745792528 0.29547109555413265 0.7045289044458674 0.5863616118920737 0.4136383881079263 0.2532339635688943 0.7467660364311056 0.4093507828085574 0.5906492171914425 0.4282517488893017 0.5717482511106982 0.41819537295218634 0.5818046270478137 0.051594848170961535 0.9484051518290385 0.42939119168243367 0.5706088083175663 0.5161914172038523 0.4838085827961477 0.5043889226967603 0.4956110773032396 0.0902751859268063 0.9097248140731937 0.5089925778209339 0.4910074221790662 0.5191452236222692 0.48085477637773083 0.670989089940286 0.32901091005971395 0.018177648513971526 0.9818223514860285 0.4829373822442312 0.5170626177557689 0.5468879222725195 0.45311207772748047 0.5373434415553303 0.46265655844466974 0.3365786161938308 0.6634213838061692 0.7137238452326387 0.28627615476736124 0.2333038680921923 0.7666961319078077 0.28220215766227297 0.7177978423377271 0.26205912823996486 0.7379408717600353 0.5761186665906487 0.42388133340935136 0.6039491855567166 0.3960508144432834 0.2547911074926359 0.7452088925073641 0.558555968593457 0.44144403140654304 0.5407841213244821 0.459215878675518 0.4322541644610737 0.5677458355389263 0.07438764361810009 0.9256123563818999 0.9740512478827406 0.02594875211725942 0.17495876629373894 0.825041233706261 0.12593700408237143 0.8740629959176287 0.4935796809941228 0.5064203190058771 0.4412444489003543 0.5587555510996458 0.21229568653983955 0.7877043134601605 0.482549207910096 0.5174507920899041 0.6302705023681021 0.36972949763189794 0.4811970859345574 0.5188029140654425 0.21314166571119733 0.7868583342888027 0.44808536255218046 0.5519146374478194 0.726446346227356 0.27355365377264396 0.828661853013515 0.171338146986485 0.44748716481059697 0.5525128351894031 0.16338277158143524 0.8366172284185648 0.6944013537770347 0.3055986462229654 0.6962925223755274 0.3037074776244726 0.7857159313069431 0.21428406869305694 0.13859777111509916 0.8614022288849008 0.07739182032583704 0.922608179674163 0.5006692655273566 0.4993307344726435 0.549929387775753 0.45007061222424705 0.622201836837609 0.37779816316239107 0.9775977850670412 0.0224022149329588 0.5373886874590498 0.46261131254095034 0.2639710718829702 0.7360289281170299 0.2722555374831579 0.727744462516842 0.1832998595139023 0.8167001404860977 0.42945410718690546 0.5705458928130945 0.49349466841492917 0.5065053315850708 0.786320799394502 0.21367920060549805 0.234801908080242 0.765198091919758 0.33576202165002134 0.6642379783499787 0.48034584250192175 0.5196541574980782 0.8006243183167495 0.19937568168325048 0.16996903027924692 0.8300309697207531 0.8047298672207434 0.19527013277925667 0.30799985738778085 0.6920001426122191 0.3344142874496034 0.6655857125503967 0.449774558322478 0.5502254416775221 0.2497084284183446 0.7502915715816553 0.557798228851122 0.44220177114887815 0.07426498758049979 0.9257350124195002 0.26790997116108933 0.7320900288389106 0.2667471092602843 0.7332528907397158 0.45801079812559775 0.5419892018744022 0.33044391815628993 0.6695560818437101 0.10019392450004985 0.8998060754999502 0.5415960763269668 0.4584039236730332 0.5205834596061399 0.4794165403938601 0.4109503169561843 0.5890496830438158 0.40401460182724136 0.5959853981727586 0.7366864244569645 0.26331357554303547 0.5106557599840004 0.48934424001599974 0.8457697463734286 0.1542302536265714 0.5055199276999361 0.49448007230006386 0.4301720069524018 0.5698279930475981 0.6892934847646083 0.3107065152353918 0.4405055148494312 0.5594944851505688 0.5452797252515206 0.45472027474847937 0.9010716579682997 0.09892834203170037 0.028121602143193022 0.971878397856807 0.48297695591103756 0.5170230440889624 </TABLE>
    </DEFINITION>
    <DEFINITION>
      <FOR>9</FOR>
      <GIVEN>0</GIVEN>
      <GIVEN>1</GIVEN>
      <GIVEN>2</GIVEN>
      <GIVEN>3</GIVEN>
      <GIVEN>5</GIVEN>
      <GIVEN>8</GIVEN>
      <GIVEN>4</GIVEN>
      <TABLE>0.5642302645571179 0.43576973544288217 0.6559727831428874 0.34402721685711257 0.7160790270619043 0.28392097293809565 0.31948889560933197 0.6805111043906681 0.23950731845295628 0.7604926815470437 0.3325929213803961 0.6674070786196039 0.39221583019017753 0.6077841698098223 0.14549128741851075 0.8545087125814892 0.4846980611817627 0.5153019388182374 0.6834009199526498 0.31659908004735027 0.5640025791672549 0.4359974208327452 0.40895846665589636 0.5910415333441036 0.4906875734701781 0.5093124265298219 0.2419348144616081 0.7580651855383919 0.9841535697580854 0.01584643024191462 0.05819711127219082 0.9418028887278092 0.8338165357195202 0.1661834642804798 0.6205332057359938 0.3794667942640063 0.5406508671923977 0.45934913280760215 0.6333813193128941 0.3666186806871059 0.23585002745152803 0.764149972548472 0.9296569110235418 0.07034308897645819 0.12062902324997402 0.8793709767500261 0.04811972045180391 0.9518802795481961 0.6916781469435934 0.3083218530564066 0.6247718705726236 0.3752281294273764 0.31716410245048676 0.6828358975495132 0.42517825342931936 0.5748217465706805 0.3765629707575428 0.6234370292424573 0.719837994924441 0.28016200507555905 0.37910909853945596 0.620890901460544 0.7307467104650852 0.2692532895349148 0.8469595141886209 0.1530404858113791 0.9020884896013133 0.09791151039868672 0.8522324029569942 0.1477675970430058 0.18181854646954557 0.8181814535304545 0.43537709040843386 0.5646229095915661 0.2736752914201396 0.7263247085798604 0.11400067799962516 0.8859993220003748 0.89916758055222 0.10083241944777994 0.2528460522681243 0.7471539477318757 0.8007510016346303 0.1992489983653697 0.3162075126002004 0.6837924873997995 0.38863542371037946 0.6113645762896206 0.4872055417523135 0.5127944582476865 0.016059775105913738 0.9839402248940863 0.6597976658757173 0.3402023341242827 0.8201096183846577 0.1798903816153423 0.58988787591967 0.41011212408032993 0.5537641705255287 0.4462358294744714 0.44929971907127575 0.5507002809287244 0.5720873498580894 0.4279126501419107 0.5385313349905222 0.4614686650094779 0.37790760706695004 0.62209239293305 0.48818375865365987 0.5118162413463402 0.5282472465272599 0.47175275347274015 0.5610404074741604 0.43895959252583955 0.5283229980630927 0.47167700193690737 0.026159497308154728 0.9738405026918453 0.6850791001514941 0.314920899848506 0.4506177419517489 0.549382258048251 0.5774236526118051 0.4225763473881949 0.6266336526602239 0.3733663473397761 0.2858364937205483 0.7141635062794517 0.32509120732925306 0.6749087926707469 0.47052713431635024 0.5294728656836498 0.45050023169166664 0.5494997683083332 0.6018581647355049 0.3981418352644951 0.44011007169586486 0.5598899283041351 0.5070846813124942 0.49291531868750593 0.9500881260016555 0.04991187399834448 0.6974262785197719 0.30257372148022804 0.4768730157623479 0.523126984237652 0.6978550513714251 0.30214494862857477 0.6471653680386038 0.35283463196139614 0.8066767799462189 0.1933232200537811 0.861854432839313 0.13814556716068707 0.3495813730339894 0.6504186269660107 0.9538189868623169 0.046181013137683094 0.9903670321433558 0.00963296785664425 0.9892855072738527 0.010714492726147313 0.7500347050609385 0.24996529493906144 0.41280481770322114 0.5871951822967789 0.9513302903640324 0.048669709635967576 0.8448286744838789 0.15517132551612117 0.06894834080246912 0.9310516591975309 0.4853519848938438 0.5146480151061562 0.9859356232977468 0.01406437670225322 0.4690328032573379 0.530967196742662 0.9172639143544412 0.08273608564555877 0.736229652940344 0.26377034705965596 0.37878109188868464 0.6212189081113153 0.5467732827607314 0.4532267172392685 0.5837173804302718 0.41628261956972823 0.7252328117925156 0.27476718820748447 0.2005091960770232 0.7994908039229768 0.9957133242263606 0.004286675773639417 0.469735471499007 0.5302645285009929 0.6877273539709792 0.3122726460290209 0.32632028890336173 0.6736797110966383 0.3434950616519821 0.6565049383480179 0.5600532183334609 0.43994678166653906 0.32719328002615894 0.672806719973841 0.5069226967619608 0.4930773032380392 0.4541767834872211 0.5458232165127789 0.41024111984058464 0.5897588801594154 0.987281103188627 0.012718896811372987 0.06535506032238197 0.9346449396776181 0.9971602136678877 0.0028397863321123085 0.4925349138207569 0.507465086179243 0.4566962013693553 0.5433037986306448 0.43677042821004153 0.5632295717899585 0.5886569067727805 0.4113430932272195 0.7567893057903221 0.2432106942096779 0.130808326318091 0.869191673681909 0.38803471831752473 0.6119652816824753 0.7301158740339753 0.26988412596602485 0.9032011902822062 0.09679880971779378 0.1686542152079066 0.8313457847920934 0.07521107562153138 0.9247889243784686 0.5264681988764489 0.47353180112355103 0.7522469102166505 0.24775308978334956 0.4121440550968314 0.5878559449031686 0.5525197674563057 0.4474802325436943 0.976375015216572 0.02362498478342806 0.810662555120892 0.18933744487910809 0.4217115979595248 0.5782884020404752 0.31952236545657214 0.6804776345434279 </TABLE>
    </DEFINITION>
    <DEFINITION>
      <FOR>10</FOR>
      <GIVEN>5</GIVEN>
      <GIVEN>6</GIVEN>
      <GIVEN>9</GIVEN>
      <TABLE>0.4758787814654815 0.5241212185345184 0.8128495275118015 0.18715047248819844 0.49960046093674176 0.5003995390632582 0.8995276175130351 0.10047238248696483 0.015864941420513715 0.9841350585794862 0.4119250025781892 0.5880749974218108 0.3038605738885122 0.6961394261114878 0.7268338295986626 0.27316617040133745 </TABLE>
    </DEFINITION>
    <DEFINITION>
      <FOR>11</FOR>
      <GIVEN>1</GIVEN>
      <GIVEN>2</GIVEN>
      <GIVEN>3</GIVEN>
      <GIVEN>5</GIVEN>
      <GIVEN>8</GIVEN>
      <GIVEN>9</GIVEN>
      <GIVEN>7</GIVEN>
      <GIVEN>10</GIVEN>
      <TABLE>0.8614266871926205 0.13857331280737956 0.5245808506952363 0.4754191493047637 0.4647899366630251 0.5352100633369749 0.6262059689400238 0.37379403105997616 0.5527710240715268 0.44722897592847327 0.5345576638427573 0.4654423361572428 0.1805447690634169 0.8194552309365831 0.47460915357595335 0.5253908464240468 0.6384980411220083 0.3615019588779918 0.9953363704506188 0.004663629549381179 0.049276282002316665 0.9507237179976833 0.9157781800938841 0.08422181990611591 0.5557964502891433 0.44420354971085685 0.7031122488461059 0.2968877511538941 0.22858327487101704 0.771416725128983 0.6366628583838752 0.36333714161612485 0.353379278575946 0.646620721424054 0.7004397691040696 0.2995602308959305 0.4001616911639519 0.599838308836048 0.47598555637434425 0.5240144436256556 0.3175423247007845 0.6824576752992154 0.6312070329456531 0.36879296705434694 0.7298234462968869 0.2701765537031131 0.1630479585802518 0.8369520414197482 0.5257279395711925 0.47427206042880743 0.1507150957857208 0.8492849042142792 0.45045086929220596 0.5495491307077942 0.11511338938132785 0.8848866106186721 0.06236793699279652 0.9376320630072035 0.23332629893589196 0.766673701064108 0.32619888199760755 0.6738011180023925 0.590873601851645 0.4091263981483551 0.5404328869212838 0.4595671130787163 0.5982783042284238 0.4017216957715762 0.7892467699935284 0.21075323000647161 0.5464145483900336 0.45358545160996644 0.4921514095719929 0.5078485904280071 0.11581255991631095 0.884187440083689 0.7162699276896023 0.2837300723103977 0.543590393472984 0.45640960652701607 0.29828844470557647 0.7017115552944235 0.3876378412919047 0.6123621587080953 0.6030341327247905 0.3969658672752096 0.2109428377610538 0.7890571622389462 0.5097955516300566 0.4902044483699433 0.7666694931874319 0.23333050681256806 0.06271358562977676 0.9372864143702232 0.2150958489398712 0.7849041510601288 0.6215655664540158 0.3784344335459841 0.4617119248010504 0.5382880751989496 0.48640825299909757 0.5135917470009025 0.21183280291275475 0.7881671970872454 0.682675370302018 0.317324629697982 0.41909796237506775 0.5809020376249323 0.2888172296904584 0.7111827703095416 0.5888140297290393 0.41118597027096077 0.3532224014167902 0.6467775985832097 0.5411782039510663 0.4588217960489338 0.36870504403373217 0.6312949559662678 0.26451790091735433 0.7354820990826456 0.2579499158146574 0.7420500841853426 0.7527350373486881 0.24726496265131193 0.6511334509873222 0.34886654901267783 0.5001719566886066 0.4998280433113934 0.5167978250429353 0.4832021749570648 0.5717653185621956 0.4282346814378045 0.49407073046972017 0.5059292695302798 0.2999825236740593 0.7000174763259407 0.29963438629898526 0.7003656137010148 0.06232137277968611 0.9376786272203139 0.5895975444686156 0.41040245553138444 0.6529295461192005 0.34707045388079955 0.33732784004563576 0.6626721599543642 0.5154775953504439 0.4845224046495561 0.36641125819094533 0.6335887418090548 0.5236079300237009 0.4763920699762991 0.1374682681768507 0.8625317318231492 0.6976866003865924 0.30231339961340764 0.5817870772050819 0.4182129227949182 0.593446971382933 0.40655302861706694 0.5090607521571664 0.4909392478428336 0.08976866770609171 0.9102313322939084 0.8369112037191558 0.1630887962808441 0.42873352330414055 0.5712664766958595 0.3313567239103965 0.6686432760896036 0.2937923347386274 0.7062076652613726 0.4796978583870423 0.5203021416129577 0.3439258499355893 0.6560741500644107 0.5170345265446197 0.4829654734553804 0.32298093775770226 0.6770190622422977 0.8107179208171875 0.18928207918281248 0.10786312957250403 0.8921368704274961 0.409848635305669 0.590151364694331 0.12098195404633563 0.8790180459536645 0.8406542659721491 0.1593457340278509 0.33360963035852026 0.6663903696414798 0.3232432126281851 0.6767567873718149 0.4218317135121933 0.5781682864878067 0.4859462328657921 0.5140537671342079 0.7797092648822823 0.22029073511771766 0.8165179554728531 0.1834820445271469 0.687754993345871 0.312245006654129 0.8937412356116469 0.10625876438835316 0.08767684614559793 0.9123231538544021 0.36102189096105275 0.6389781090389473 0.8794730910712099 0.12052690892879014 0.5327455973154449 0.46725440268455515 0.8804041471815308 0.11959585281846921 0.5302176001935366 0.46978239980646336 0.3338884091967994 0.6661115908032006 0.4174502329617556 0.5825497670382445 0.8601749629863736 0.1398250370136264 0.46508403359803335 0.5349159664019668 0.3701768415538793 0.6298231584461207 0.4730191484369419 0.5269808515630581 0.7159412778558679 0.2840587221441321 0.8605607291974813 0.13943927080251878 0.7042438872509743 0.2957561127490257 0.45605684434002564 0.5439431556599744 0.22832852747594024 0.7716714725240598 0.7023757041746131 0.29762429582538685 0.43005040266005234 0.5699495973399477 0.4821098766228602 0.5178901233771397 0.38251383685127466 0.6174861631487254 0.9443657606352039 0.0556342393647961 0.7053680508497471 0.2946319491502529 0.8386497140641901 0.1613502859358099 0.4257944447651557 0.5742055552348443 0.5491173166699321 0.45088268333006787 0.17827494795909654 0.8217250520409034 0.7658732517319001 0.23412674826809987 0.8246668611993949 0.17533313880060505 0.7478018906540058 0.25219810934599424 0.46895634007087783 0.5310436599291221 0.4276081994171509 0.5723918005828491 0.13193673814097706 0.8680632618590229 0.9080493861692996 0.0919506138307002 0.8682798374589339 0.13172016254106614 0.44283322179341783 0.5571667782065821 0.5300319270123257 0.46996807298767435 0.4468355009376899 0.5531644990623101 0.592084826482298 0.407915173517702 0.1709305373212399 0.8290694626787601 0.9518581609678922 0.048141839032107746 0.5833497141955077 0.41665028580449226 0.3843539164323424 0.6156460835676576 0.004146978302274197 0.9958530216977258 0.6219322971113919 0.37806770288860814 0.4549373928370558 0.5450626071629442 0.6149889350163027 0.3850110649836973 0.4989626998569003 0.5010373001430997 0.8423982304783497 0.15760176952165025 0.5501129558429827 0.4498870441570174 0.42675837662036537 0.5732416233796346 0.48888403482844534 0.5111159651715547 0.5256720609481634 0.47432793905183657 0.5568166826196037 0.4431833173803963 0.4427791401592322 0.5572208598407677 0.8647299697459361 0.13527003025406395 0.9230982385049699 0.07690176149503015 0.5009777801884711 0.4990222198115288 0.27408990516126625 0.7259100948387337 0.5006806932501561 0.4993193067498439 0.8878640627103698 0.11213593728963021 0.8509713878086611 0.14902861219133887 0.317567342823228 0.682432657176772 0.20177025073436194 0.7982297492656381 0.8370929956238109 0.16290700437618916 0.4067506721554938 0.5932493278445062 0.4459999354518 0.5540000645481999 0.1837155101936715 0.8162844898063285 0.025099484844604614 0.9749005151553953 0.40738886682952064 0.5926111331704794 0.8936826119784652 0.1063173880215348 0.41670464754492453 0.5832953524550755 0.03954507765616056 0.9604549223438394 0.47971236970101483 0.5202876302989852 0.7750651313773539 0.22493486862264608 0.7562457086326829 0.24375429136731708 0.5841939987951207 0.4158060012048793 0.6459081521306735 0.3540918478693265 0.498257750666694 0.5017422493333061 0.32466869378024954 0.6753313062197506 0.8918775382776322 0.10812246172236786 0.15289204698202363 0.8471079530179764 0.45820083284962076 0.5417991671503792 0.21098322040170564 0.7890167795982943 0.4241358697424647 0.5758641302575354 0.47011485560412225 0.5298851443958777 0.9057488925828782 0.09425110741712185 0.4813368265563355 0.5186631734436645 0.4433531124691217 0.5566468875308782 0.4746766912964295 0.5253233087035706 0.29954995487286584 0.700450045127134 0.617023489210118 0.38297651078988193 0.10250842339106275 0.8974915766089373 0.9644989055097482 0.035501094490251815 0.4686758291725078 0.5313241708274922 0.5066761565485596 0.49332384345144037 0.6699797746402696 0.33002022535973036 0.5909224964631984 0.4090775035368016 0.1494256445531952 0.8505743554468048 0.43307586048320235 0.5669241395167978 0.35523368473180333 0.6447663152681967 0.07217515784446892 0.9278248421555311 0.5174479360177021 0.4825520639822979 0.3137732055287271 0.6862267944712729 0.34388196623196765 0.6561180337680323 0.32196534072318916 0.6780346592768108 0.526524132916822 0.473475867083178 0.48645546122988154 0.5135445387701184 0.5613893817908338 0.43861061820916636 0.22123138507582837 0.7787686149241716 0.7934261547869764 0.20657384521302358 0.13416914899412521 0.8658308510058748 0.24559438335991876 0.7544056166400811 0.7295643698262162 0.2704356301737838 0.5811215634229409 0.4188784365770591 0.32395501381231206 0.6760449861876878 0.8792305022498997 0.12076949775010028 0.8528690852173326 0.14713091478266735 0.4420853673811113 0.5579146326188887 0.14518812862720468 0.8548118713727954 0.5701671588788636 0.42983284112113646 0.34469192051729064 0.6553080794827093 0.5273132329313459 0.4726867670686541 0.6079874192078131 0.3920125807921869 0.3010903130780615 0.6989096869219384 0.9706139308330881 0.02938606916691189 0.3760129704402016 0.6239870295597983 0.86195042174528 0.13804957825472 0.6012873244706137 0.3987126755293862 0.4670048778088793 0.5329951221911207 0.5127281942785527 0.4872718057214473 0.3243166343693416 0.6756833656306585 0.5236894646301175 0.47631053536988255 0.5971890790357015 0.4028109209642985 0.8591840534789732 0.14081594652102683 0.7944641804048899 0.20553581959511014 0.6705248585520523 0.32947514144794754 0.6081641057343523 0.39183589426564774 0.429361189162812 0.5706388108371878 0.46275752990458674 0.5372424700954131 0.9956231749428668 0.004376825057133197 0.4402172873692047 0.5597827126307953 0.592341169416843 0.407658830583157 0.9555061505354507 0.04449384946454927 0.13654807465114926 0.8634519253488507 0.6688410620263759 0.33115893797362406 0.3429068358190905 0.6570931641809096 0.020695226824074646 0.9793047731759253 0.3197605682998645 0.6802394317001356 0.3145263080354613 0.6854736919645388 0.6686588469015214 0.3313411530984786 0.9963603763944627 0.003639623605537239 0.47693130465460953 0.5230686953453904 </TABLE>
    </DEFINITION>
    <DEFINITION>
      <FOR>12</FOR>
      <GIVEN>0</GIVEN>
      <GIVEN>3</GIVEN>
      <GIVEN>6</GIVEN>
      <GIVEN>9</GIVEN>
      <GIVEN>7</GIVEN>
      <GIVEN>4</GIVEN>
      <TABLE>0.30668275130969275 0.6933172486903072 0.4861873719005477 0.5138126280994523 0.6658321906354363 0.33416780936456375 0.5768231507738519 0.42317684922614807 0.17982986497555378 0.8201701350244461 0.29968008991576356 0.7003199100842364 0.49620838015128 0.50379161984872 0.44126781043307073 0.5587321895669293 0.947322755011984 0.052677244988015966 0.9977306845756178 0.002269315424382235 0.318271467320447 0.6817285326795531 0.5674962610609403 0.43250373893905963 0.6486510129764884 0.3513489870235115 0.3371550585398881 0.662844941460112 0.028332876883372667 0.9716671231166273 0.006622611697615384 0.9933773883023846 0.3628676575374963 0.6371323424625037 0.20462305684786328 0.7953769431521366 0.554268197647133 0.445731802352867 0.2779207785892879 0.7220792214107121 0.006245011264249494 0.9937549887357505 0.34412465970740597 0.6558753402925941 0.6003120870858745 0.3996879129141254 0.5189703523474131 0.4810296476525868 0.5899928182695768 0.4100071817304232 0.5965556764702798 0.4034443235297202 0.9261001398399473 0.07389986016005265 0.5442264570450716 0.45577354295492845 0.21336775717517587 0.7866322428248241 0.5011254565322559 0.4988745434677441 0.8264630572740369 0.1735369427259631 0.42673067920886715 0.5732693207911329 0.7754304754824783 0.2245695245175216 0.13888773437716634 0.8611122656228337 0.7435948146316899 0.2564051853683101 0.2980045727785502 0.7019954272214498 0.7489364136389813 0.2510635863610186 0.4204623677369858 0.5795376322630142 0.9180852263866542 0.08191477361334572 0.7753509624394698 0.22464903756053023 0.5751126613833464 0.4248873386166536 0.3203377017425336 0.6796622982574664 0.6207127194861886 0.37928728051381155 0.5027210707683835 0.4972789292316166 0.37733359634927605 0.6226664036507239 0.5181660674232459 0.4818339325767541 0.5105056624376803 0.48949433756231975 0.6555416303588972 0.3444583696411027 0.5888403082533686 0.41115969174663125 0.15130783973498027 0.8486921602650198 0.10388093674250413 0.8961190632574959 0.7065181746463176 0.2934818253536822 0.6406583422048427 0.35934165779515725 0.43130540959386715 0.5686945904061329 0.5536574727439086 0.44634252725609147 0.4847441653844966 0.5152558346155033 0.786123842576293 0.21387615742370697 0.509850046007183 0.4901499539928169 0.5105344505665531 0.4894655494334469 0.7846813142079908 0.21531868579200925 0.2786797575934429 0.7213202424065571 0.6578087156020704 0.34219128439792945 0.2858921017327743 0.7141078982672258 0.7832281472189228 0.21677185278107725 </TABLE>
    </DEFINITION>
    <DEFINITION>
      <FOR>13</FOR>
      <GIVEN>3</GIVEN>
      <GIVEN>6</GIVEN>
      <GIVEN>8</GIVEN>
      <GIVEN>9</GIVEN>
      <GIVEN>12</GIVEN>
      <GIVEN>7</GIVEN>
      <GIVEN>11</GIVEN>
      <GIVEN>4</GIVEN>
      <TABLE>0.06705575458626845 0.9329442454137316 0.7406647623407863 0.2593352376592137 0.48297788106564793 0.517022118934352 0.012667598340731166 0.9873324016592688 0.6210887740107279 0.37891122598927207 0.21825545027168686 0.7817445497283132 0.5062112633541108 0.4937887366458893 0.43723480545597193 0.5627651945440281 0.599778135386033 0.4002218646139671 0.49215102443014325 0.5078489755698568 0.760393934096152 0.239606065903848 0.42174465131721645 0.5782553486827836 0.2594460334643749 0.7405539665356251 0.17891105752169903 0.821088942478301 0.5399804220189385 0.4600195779810615 0.06446271364939905 0.935537286350601 0.4017327267589339 0.5982672732410661 0.4977540504891613 0.5022459495108387 0.4382081217893862 0.5617918782106139 0.541297283389362 0.458702716610638 0.9767060444738026 0.02329395552619739 0.5058816679388133 0.4941183320611867 0.46476695865178697 0.5352330413482129 0.7980925185846025 0.20190748141539752 0.03158911389124681 0.9684108861087531 0.5748746059133857 0.42512539408661437 0.4600198600539349 0.5399801399460651 0.6490379622648367 0.3509620377351633 0.7494714559194104 0.2505285440805896 0.4376669421034178 0.5623330578965822 0.9487419214568906 0.051258078543109424 0.7398924515187038 0.26010754848129625 0.3347813774097852 0.6652186225902148 0.23145068077446607 0.7685493192255338 0.6761637641609463 0.32383623583905374 0.9314126615245456 0.06858733847545445 0.3959749059620326 0.6040250940379673 0.7719986314094185 0.22800136859058145 0.44434241359510596 0.5556575864048939 0.9944346412826686 0.005565358717331434 0.5017075451024007 0.4982924548975993 0.45571814818277134 0.5442818518172285 0.5431488820181652 0.45685111798183475 0.7704714081113402 0.22952859188865982 0.4748444312630651 0.5251555687369349 0.44134130634077184 0.5586586936592282 0.4494473880440859 0.5505526119559142 0.48709915574722135 0.5129008442527787 0.5550671810353431 0.4449328189646568 0.4929091315729748 0.5070908684270252 0.3841792859043896 0.6158207140956105 0.7199150643145562 0.28008493568544385 0.15079216048515304 0.849207839514847 0.6249797639978987 0.37502023600210127 0.4662021114344981 0.533797888565502 0.5169292135103567 0.4830707864896433 0.3483556743585121 0.6516443256414879 0.7352178399724619 0.264782160027538 0.3130814391408979 0.6869185608591021 0.6642249857923196 0.33577501420768047 0.5723044984121156 0.4276955015878844 0.2277583260481827 0.7722416739518172 0.6738507485054799 0.32614925149452023 0.8474827720114858 0.15251722798851425 0.29161486305526496 0.708385136944735 0.30278296864570003 0.6972170313543 0.3029422196460793 0.6970577803539207 0.12169938559441415 0.8783006144055858 0.5676194512798797 0.43238054872012044 0.478499448329237 0.521500551670763 0.9686492300847954 0.03135076991520461 0.48247044706246556 0.5175295529375344 0.40036926006388485 0.5996307399361152 0.7763417699889739 0.2236582300110261 0.8011522630193281 0.19884773698067196 0.6278508923572057 0.3721491076427943 0.8998655646166719 0.10013443538332799 0.38774737180167906 0.6122526281983209 0.039644292671367515 0.9603557073286325 0.4637348460331723 0.5362651539668277 0.49084686451662046 0.5091531354833795 0.47967152276518327 0.5203284772348167 0.35067948543444605 0.649320514565554 0.33916758261976176 0.6608324173802383 0.7552120727702503 0.24478792722974968 0.4838792747030909 0.5161207252969092 0.722734701051023 0.27726529894897706 0.6887672822636068 0.31123271773639327 0.2925980115530949 0.7074019884469052 0.4007030223591029 0.5992969776408972 0.6801353006151187 0.3198646993848814 0.44475891782012744 0.5552410821798726 0.5102383444520577 0.48976165554794227 0.8474619880216347 0.15253801197836528 0.3517690776704872 0.6482309223295128 0.6250488253283699 0.37495117467163014 0.6890187961154622 0.31098120388453776 0.3236382978689351 0.6763617021310648 0.5330647281314581 0.4669352718685419 0.7671795997219952 0.2328204002780049 0.6487839929733149 0.35121600702668504 0.46819011895057555 0.5318098810494244 0.44760873829749726 0.5523912617025027 0.4936567830399845 0.5063432169600154 0.23738938319728495 0.762610616802715 0.6161766724919531 0.383823327508047 0.6000608349016912 0.3999391650983089 0.37053461884953737 0.6294653811504626 0.37360758159465185 0.6263924184053481 0.43467229497897986 0.5653277050210203 0.38279342951094975 0.6172065704890503 0.4704210970607612 0.5295789029392388 0.6067548519813899 0.3932451480186101 0.2553670629003462 0.7446329370996538 0.5052057695883481 0.494794230411652 0.5383740491381799 0.4616259508618201 0.8704657794459686 0.12953422055403138 0.36796156616784575 0.6320384338321543 0.747281843479224 0.252718156520776 0.6778949915899857 0.3221050084100143 0.4718780930782653 0.5281219069217348 0.35426245000091405 0.645737549999086 0.6098065826686935 0.3901934173313066 0.3015033800208727 0.6984966199791273 0.3438635086974376 0.6561364913025624 0.8351909826500735 0.16480901734992648 0.3940738635698315 0.6059261364301685 0.832791753500561 0.167208246499439 0.5387565693746129 0.46124343062538714 0.24728161694602005 0.75271838305398 0.4522585251974924 0.5477414748025076 0.48048523498988804 0.5195147650101121 0.4502548361178348 0.5497451638821653 0.2508437585880329 0.7491562414119671 0.11731273531392061 0.8826872646860794 0.3969814768349255 0.6030185231650745 0.5137694937861825 0.4862305062138174 0.39010778703379284 0.6098922129662072 0.6067944234242649 0.393205576575735 0.5445064725884419 0.45549352741155813 0.5285867844454476 0.47141321555455235 0.4950433192970467 0.5049566807029533 0.4272092455619561 0.572790754438044 0.818216111062738 0.18178388893726208 0.4939790763749684 0.5060209236250316 0.4928474530299663 0.5071525469700336 0.779687208776051 0.22031279122394903 0.13101970476892896 0.868980295231071 0.5304878972972108 0.46951210270278915 0.5304598645168175 0.4695401354831826 0.2176414734636803 0.7823585265363198 0.45921090126559005 0.54078909873441 0.48772243017847705 0.512277569821523 0.7108518736670703 0.2891481263329298 0.9018794910747204 0.09812050892527961 0.40109761831059537 0.5989023816894046 0.38250461336498953 0.6174953866350105 0.7295104712289769 0.27048952877102306 0.5628044457943825 0.43719555420561756 0.18232260094006525 0.8176773990599348 0.5413544005938342 0.4586455994061658 0.347382790971811 0.6526172090281891 0.7508947871312444 0.24910521286875562 0.5949363477779032 0.40506365222209684 0.6030293773611699 0.3969706226388301 0.6374675469667934 0.3625324530332066 0.549053109596097 0.450946890403903 0.27519575751126135 0.7248042424887385 0.42486748496635335 0.5751325150336466 0.43251070587853846 0.5674892941214617 0.6158126323053364 0.38418736769466355 0.4768825692812544 0.5231174307187455 0.5232754414490538 0.4767245585509462 0.5718592522324392 0.4281407477675608 0.503460763080113 0.49653923691988705 0.5436365439293359 0.45636345607066403 0.26057213986112987 0.7394278601388701 0.7187752404111121 0.2812247595888879 0.9290954074048563 0.07090459259514367 0.1668842951340416 0.8331157048659583 0.32412901984838866 0.6758709801516114 0.22430825177673655 0.7756917482232635 0.47318804888611293 0.5268119511138871 0.4196188581949572 0.5803811418050427 0.5221635423528171 0.47783645764718286 0.784264936730313 0.21573506326968706 0.5893894825951795 0.41061051740482046 0.02803253511411645 0.9719674648858836 0.8993023899992126 0.10069761000078732 0.15312270864719862 0.8468772913528013 0.8498555556820573 0.1501444443179427 0.5351855055867436 0.4648144944132564 0.3483270226017067 0.6516729773982933 0.5033855102432372 0.4966144897567628 0.9181378285464759 0.0818621714535242 0.8528120825750606 0.14718791742493936 0.3189556729227542 0.6810443270772457 0.28429156867579786 0.7157084313242021 0.8559902148865465 0.14400978511345353 0.5370429845083033 0.46295701549169666 0.8864150608275099 0.11358493917249012 0.8696103069276591 0.130389693072341 0.1055485697370425 0.8944514302629574 0.07214202543110412 0.9278579745688958 0.41850048932285067 0.5814995106771493 0.7497437828389887 0.25025621716101126 0.5079122929403078 0.4920877070596922 0.4768605589921957 0.5231394410078043 0.5660047335640368 0.43399526643596326 0.24172760476105234 0.7582723952389476 0.5547843370151321 0.445215662984868 0.9019331471169753 0.09806685288302475 0.6852292851296286 0.31477071487037145 0.3846999687280572 0.6153000312719429 0.24599951018626734 0.7540004898137327 0.4487079863079896 0.5512920136920103 0.12049342123255534 0.8795065787674448 0.6807169100338165 0.3192830899661834 0.9748646215238386 0.025135378476161395 0.8230591689536976 0.17694083104630237 0.12877317859552384 0.8712268214044762 0.011616167076473529 0.9883838329235265 0.2721055314793994 0.7278944685206006 0.9772513370096679 0.022748662990332062 0.42717156043930066 0.5728284395606994 0.40623952087775395 0.593760479122246 0.7181045496064211 0.2818954503935789 0.44297799070947885 0.5570220092905211 0.39305275907449794 0.6069472409255021 0.13847299297553922 0.8615270070244607 0.5540599599852525 0.4459400400147475 0.3550823091052654 0.6449176908947346 0.4926019074800997 0.5073980925199003 0.349623301528289 0.6503766984717111 0.6228646669515975 0.3771353330484026 0.6403679612743571 0.3596320387256428 0.290520067268996 0.7094799327310041 0.8647499437318296 0.1352500562681703 0.08434879417634954 0.9156512058236504 0.9335282348391654 0.06647176516083458 0.8430720055162666 0.15692799448373343 0.7182919866194306 0.28170801338056944 0.6617550136480156 0.3382449863519843 0.17627935602237915 0.8237206439776208 0.4841064304077755 0.5158935695922245 0.5472204806744266 0.4527795193255735 0.37955239502393806 0.620447604976062 0.38203658500380705 0.6179634149961929 0.5725885146868046 0.4274114853131954 0.92074018194577 0.07925981805423003 0.41743850199438887 0.5825614980056111 0.9195812066372109 0.08041879336278909 0.5963975229648278 0.4036024770351721 0.5041080065690343 0.4958919934309657 0.4012470365667548 0.5987529634332451 0.6794123007654609 0.32058769923453906 </TABLE>
    </DEFINITION>
    <DEFINITION>
      <FOR>14</FOR>
      <GIVEN>0</GIVEN>
      <GIVEN>1</GIVEN>
      <GIVEN>3</GIVEN>
      <GIVEN>5</GIVEN>
      <GIVEN>6</GIVEN>
      <GIVEN>8</GIVEN>
      <GIVEN>9</GIVEN>
      <GIVEN>12</GIVEN>
      <GIVEN>7</GIVEN>
      <GIVEN>11</GIVEN>
      <GIVEN>4</GIVEN>
      <GIVEN>10</GIVEN>
      <TABLE>0.21131720552246083 0.7886827944775392 0.49010796192131717 0.5098920380786828 0.6233659657298405 0.3766340342701595 0.5009310066472134 0.4990689933527867 0.19980552809873967 0.8001944719012604 0.9111813280943577 0.08881867190564224 0.39033464601710877 0.6096653539828912 0.43831466491325766 0.5616853350867423 0.4679422533034727 0.5320577466965272 0.7344875115270795 0.26551248847292047 0.341735123275346 0.658264876724654 0.28499108300157416 0.715008916998426 0.8723828623413743 0.1276171376586257 0.23888456895471535 0.7611154310452847 0.8325607833822938 0.1674392166177062 0.5119829552380616 0.48801704476193847 0.6954265580851936 0.3045734419148064 0.4992700269292869 0.5007299730707131 0.7014101137012001 0.29858988629879984 0.7760675447869803 0.22393245521301972 0.5508053550073807 0.44919464499261913 0.6468854960481129 0.35311450395188715 0.810663419790832 0.1893365802091681 0.7086267867624563 0.2913732132375437 0.3189381995476849 0.6810618004523152 0.4853226633024738 0.5146773366975261 0.35069513771039745 0.6493048622896026 0.1462705850190199 0.8537294149809801 0.8403485847095266 0.15965141529047347 0.27629029279637896 0.723709707203621 0.6481608514149981 0.3518391485850018 0.5908382393356789 0.40916176066432103 0.06669043588186394 0.933309564118136 0.4629662403815161 0.5370337596184839 0.7258337289141847 0.2741662710858153 0.5146945235694683 0.48530547643053173 0.3969036357007069 0.6030963642992929 0.36520597416039324 0.6347940258396068 0.9600306861885608 0.03996931381143923 0.8792386622693467 0.1207613377306533 0.34506336433075435 0.6549366356692455 0.884318679053856 0.115681320946144 0.993624887592906 0.006375112407093999 0.6829296257338857 0.31707037426611434 0.80440050288061 0.19559949711938993 0.705663751735882 0.294336248264118 0.025890912269223073 0.974109087730777 0.08334451647093676 0.9166554835290631 0.9611359361482086 0.03886406385179142 0.6195202029955371 0.3804797970044628 0.2725227646424833 0.7274772353575167 0.5804703766250593 0.4195296233749407 0.9400317503725499 0.05996824962745008 0.6984567832266865 0.3015432167733136 0.43191359990507877 0.5680864000949212 0.550368696792403 0.44963130320759703 0.5625832994593014 0.43741670054069864 0.22393190864261345 0.7760680913573865 0.6409860752319425 0.35901392476805755 0.34862453822078454 0.6513754617792155 0.4848330215448604 0.5151669784551396 0.5060152277764215 0.49398477222357845 0.5077824344588265 0.49221756554117346 0.9913577369333517 0.00864226306664828 0.4317090021088002 0.5682909978911999 0.37767677073154554 0.6223232292684545 0.46239702053882065 0.5376029794611794 0.4915326246708156 0.5084673753291843 0.8395849338767328 0.16041506612326717 0.5398362580516968 0.4601637419483033 0.4020819916581632 0.5979180083418367 0.1318320377350885 0.8681679622649116 0.39154845132215904 0.608451548677841 0.3046157788276482 0.6953842211723518 0.3576891367751175 0.6423108632248825 0.48498502027945406 0.515014979720546 0.9769214274647725 0.023078572535227476 0.6934921413333138 0.3065078586666863 0.48477763546218383 0.5152223645378161 0.44366950303663816 0.5563304969633618 0.15429753192200912 0.8457024680779909 0.4990321562403654 0.5009678437596347 0.8709277019902503 0.12907229800974968 0.11981477930035972 0.8801852206996402 0.5484143882093211 0.45158561179067885 0.5452974498742652 0.4547025501257348 0.6133846262640995 0.3866153737359005 0.882724263122817 0.117275736877183 0.25651288692670254 0.7434871130732974 0.36558432803550556 0.6344156719644944 0.12719796254039809 0.8728020374596018 0.6399867993292734 0.36001320067072673 0.15110702172807183 0.8488929782719281 0.7252423716963811 0.27475762830361905 0.1555044995707771 0.844495500429223 0.27770828387924457 0.7222917161207553 0.2855035500521323 0.7144964499478678 0.8060987183214995 0.19390128167850054 0.653228367785983 0.346771632214017 0.7777981954692531 0.22220180453074684 0.7359808732217684 0.26401912677823147 0.5197577354347748 0.48024226456522523 0.33887620013795006 0.6611237998620499 0.5078099364083475 0.4921900635916525 0.34334568991499465 0.6566543100850054 0.0064670172464006154 0.9935329827535994 0.651578782353651 0.3484212176463491 0.24468992997107358 0.7553100700289265 0.30501336264225326 0.6949866373577468 0.4629238441111907 0.5370761558888093 0.22215145835973202 0.777848541640268 0.638584856629515 0.3614151433704849 0.34763507743457284 0.6523649225654271 0.18184045887020303 0.8181595411297969 0.8685810690397004 0.1314189309602994 0.6929901520374454 0.30700984796255465 0.49445456847036756 0.5055454315296325 0.7227761039549534 0.2772238960450465 0.504791212465291 0.495208787534709 0.3907169242051547 0.6092830757948453 0.7575346138841692 0.24246538611583082 0.8059750262497617 0.19402497375023833 0.6712813278471632 0.32871867215283673 0.6717112908538097 0.32828870914619035 0.2239738727569527 0.7760261272430473 0.3503007803253782 0.6496992196746219 0.5020012112904839 0.4979987887095162 0.734059970992682 0.26594002900731795 0.21468602600811307 0.785313973991887 0.006050773418694174 0.9939492265813058 0.9559564648160784 0.04404353518392159 0.7524959213268497 0.2475040786731503 0.007802396125324092 0.9921976038746759 0.6683366462709815 0.3316633537290184 0.19564555008119475 0.8043544499188052 0.5373818891010189 0.46261811089898114 0.6275583457968636 0.3724416542031364 0.31898186202021683 0.6810181379797831 0.876949425672382 0.12305057432761801 0.6042216361972261 0.395778363802774 0.4492185555043206 0.5507814444956793 0.29866911156760534 0.7013308884323947 0.3451734694912991 0.6548265305087009 0.4423333307149347 0.5576666692850654 0.7990124976647794 0.2009875023352206 0.5924426175034179 0.4075573824965822 0.010032016317613735 0.9899679836823863 0.7400332065075842 0.25996679349241575 0.20054266445636243 0.7994573355436376 0.252300005584505 0.7476999944154951 0.3541666025179848 0.6458333974820151 0.5313567384033714 0.4686432615966286 0.5484106308977216 0.45158936910227837 0.7458317836019783 0.2541682163980217 0.2752852767415791 0.7247147232584208 0.8544391052758747 0.1455608947241252 0.2562257998780632 0.7437742001219368 0.5364673195858695 0.46353268041413037 0.4547151789255651 0.5452848210744349 0.05469634038915477 0.9453036596108453 0.40470121840981854 0.5952987815901815 0.1701316417967686 0.8298683582032315 0.525253694303841 0.474746305696159 0.16940283604542716 0.8305971639545728 0.6068215332380381 0.3931784667619619 0.3282966231747147 0.6717033768252854 0.31907515597732633 0.6809248440226736 0.010934786262222086 0.9890652137377779 0.8054373938797907 0.1945626061202092 0.5560819719911577 0.44391802800884234 0.8194049559871388 0.1805950440128612 0.28110452755406606 0.718895472445934 0.0413665753724849 0.9586334246275151 0.446664820197561 0.553335179802439 0.5093486197990704 0.4906513802009296 0.5243324265580086 0.4756675734419914 0.24511142194283864 0.7548885780571613 0.5128721474152819 0.4871278525847181 0.3698219573017494 0.6301780426982506 0.599540052841293 0.40045994715870703 0.9206131143470586 0.07938688565294133 0.3919520064701534 0.6080479935298465 0.5881756040245738 0.41182439597542614 0.4111936295990889 0.5888063704009111 0.5886489189952535 0.4113510810047465 0.6029533457911395 0.39704665420886043 0.8268598843169694 0.17314011568303048 0.4752864821119966 0.5247135178880034 0.7877227420971202 0.21227725790287974 0.17948037874913414 0.8205196212508657 0.835920191353704 0.16407980864629604 0.17797479606368097 0.8220252039363191 0.3753877070878007 0.6246122929121992 0.7491826994522774 0.2508173005477225 0.7676222095670602 0.23237779043293985 0.4761464797678436 0.5238535202321564 0.6246497278579464 0.37535027214205363 0.751853391935775 0.2481466080642249 0.35869312139780274 0.6413068786021973 0.19098062045671718 0.8090193795432828 0.2748651710030607 0.7251348289969393 0.35620115606098113 0.6437988439390189 0.43557709218641866 0.5644229078135813 0.6338938355695716 0.3661061644304284 0.9380968735610167 0.06190312643898333 0.27049583536790145 0.7295041646320986 0.4522049968118823 0.5477950031881177 0.3254077800091227 0.6745922199908774 0.3792103457631701 0.62078965423683 0.5034791778811021 0.4965208221188979 0.14142831391785232 0.8585716860821476 0.5628477223173802 0.43715227768261977 0.03321832683244352 0.9667816731675565 0.4549004964881443 0.5450995035118557 0.8554497812540518 0.14455021874594814 0.35017455873660513 0.6498254412633949 0.3884675548097296 0.6115324451902704 0.5252962340563939 0.4747037659436061 0.17696785804923149 0.8230321419507685 0.8828828807934463 0.11711711920655368 0.6148197627166192 0.3851802372833808 0.5981361444948341 0.40186385550516585 0.3533356260933209 0.6466643739066791 0.4525857454928813 0.5474142545071188 0.545565502103861 0.45443449789613904 0.8355537126984364 0.16444628730156358 0.0657663761916026 0.9342336238083974 0.5263940694256477 0.4736059305743523 0.3038190543761805 0.6961809456238195 0.3629120133245428 0.6370879866754572 0.1633958969496879 0.8366041030503121 0.2737360781341904 0.7262639218658096 0.372462121521342 0.6275378784786579 0.6110690040648296 0.38893099593517044 0.6280299202643743 0.37197007973562574 0.4704875098444646 0.5295124901555355 0.5344263104186212 0.46557368958137874 0.65916767185267 0.34083232814733 0.2877055170592709 0.7122944829407291 0.3382077153977262 0.6617922846022739 0.769002257374932 0.23099774262506795 0.5996533620394523 0.40034663796054776 0.11500527138927391 0.8849947286107261 0.7652301829099208 0.2347698170900792 0.5947090419049362 0.40529095809506377 0.26347680846907684 0.7365231915309232 0.8178445736280839 0.18215542637191603 0.6448296769369842 0.35517032306301577 0.536048204754831 0.46395179524516905 0.5379494024225105 0.46205059757748945 0.07527729822352928 0.9247227017764708 0.46658519452211505 0.5334148054778849 0.620172895612192 0.37982710438780803 0.23148088985596346 0.7685191101440365 0.1431395843678698 0.8568604156321302 0.5321597714528569 0.4678402285471431 0.4111916952817037 0.5888083047182963 0.7149859068745791 0.2850140931254209 0.47006321815142704 0.529936781848573 0.5762200268938601 0.42377997310613996 0.4493284331277085 0.5506715668722915 0.39829392215254833 0.6017060778474517 0.45895821934018194 0.541041780659818 0.48939726909709613 0.5106027309029039 0.31127870123979895 0.688721298760201 0.8750445552985195 0.12495544470148048 0.7677646576189777 0.23223534238102225 0.6689530092405123 0.3310469907594877 0.7075967427917736 0.2924032572082263 0.5134092254189649 0.48659077458103506 0.5555497847142862 0.4444502152857138 0.47094748228119243 0.5290525177188076 0.5506848569776251 0.4493151430223749 0.6144697639649189 0.38553023603508113 0.3296066333926763 0.6703933666073236 0.07197014792056187 0.9280298520794381 0.7693440650992805 0.23065593490071945 0.23338423281941112 0.7666157671805889 0.650879775089204 0.34912022491079603 0.2038359891647969 0.7961640108352032 0.5242115832593526 0.4757884167406474 0.5513274387016722 0.44867256129832783 0.5792207849514855 0.42077921504851457 0.482767625390048 0.5172323746099521 0.5078992594170275 0.4921007405829725 0.12393614783898521 0.8760638521610148 0.6056689198053361 0.3943310801946639 0.568134849377059 0.43186515062294095 0.36779699011447026 0.6322030098855298 0.35402397058181445 0.6459760294181855 0.3170018400766794 0.6829981599233206 0.4656082227501307 0.5343917772498693 0.16711190259331568 0.8328880974066842 0.4561175929068495 0.5438824070931506 0.3419345221229451 0.6580654778770548 0.6502258033448424 0.34977419665515763 0.9761578196277261 0.02384218037227387 0.14988551349205187 0.8501144865079481 0.5203856122434666 0.47961438775653353 0.5743650862811164 0.4256349137188837 0.5000763502134087 0.4999236497865914 0.06863011257037044 0.9313698874296296 0.14682395035948445 0.8531760496405155 0.43998076785117557 0.5600192321488244 0.8181052473551775 0.18189475264482255 0.2888490938138705 0.7111509061861294 0.9632029855635932 0.03679701443640677 0.11053780609153906 0.8894621939084609 0.6716443214796568 0.32835567852034336 0.7106151479445515 0.2893848520554485 0.42798163193612077 0.5720183680638793 0.39989627183905546 0.6001037281609445 0.1104740453124208 0.8895259546875792 0.5563794612808637 0.44362053871913637 0.4208964448176312 0.5791035551823688 0.4533269082711773 0.5466730917288227 0.7207007744856896 0.27929922551431036 0.8298551451267986 0.1701448548732014 0.9138113991833321 0.08618860081666793 0.3632610518222874 0.6367389481777127 0.6495569403987388 0.35044305960126115 0.5025122023824111 0.49748779761758893 0.9900460100279245 0.009953989972075517 0.34708182656294073 0.6529181734370593 0.5435769488857145 0.45642305111428544 0.5246928880165463 0.4753071119834537 0.892550881431636 0.10744911856836403 0.47674777727764883 0.5232522227223512 0.1048484942799946 0.8951515057200053 0.8723354267501688 0.1276645732498311 0.46764768883479213 0.5323523111652079 0.8118803078031851 0.1881196921968149 0.5025331461777881 0.49746685382221195 0.5649494743562846 0.43505052564371527 0.3388009819585015 0.6611990180414985 0.17460250344923448 0.8253974965507656 0.5216188191592074 0.4783811808407926 0.6701622999311692 0.3298377000688309 0.35145198002483796 0.6485480199751621 0.4367286088584187 0.5632713911415812 0.5356995531562954 0.46430044684370464 0.5113452412632207 0.48865475873677927 0.8318744424484388 0.16812555755156125 0.3790540069819855 0.6209459930180145 0.8456845682287577 0.15431543177124232 0.8494974507792361 0.15050254922076378 0.21837657548081574 0.7816234245191842 0.3881890627349071 0.6118109372650931 0.5331722699157785 0.46682773008422146 0.3140018684037088 0.6859981315962912 0.34530682413404984 0.6546931758659501 0.42432793218765624 0.5756720678123437 0.22261228123057084 0.7773877187694291 0.6063212885631752 0.39367871143682476 0.17673127187750262 0.8232687281224974 0.3468956552726395 0.6531043447273605 0.6128422574140471 0.3871577425859529 0.8633475479013631 0.1366524520986368 0.7450155202009302 0.2549844797990698 0.8845504075370162 0.11544959246298385 0.39170335489375785 0.6082966451062422 0.3699129929785697 0.6300870070214303 0.7653819776232409 0.23461802237675924 0.16459843613160371 0.8354015638683964 0.18780558628547647 0.8121944137145234 0.4168946859317974 0.5831053140682027 0.26908395810821834 0.7309160418917817 0.7672021358849375 0.23279786411506254 0.7328641983501155 0.26713580164988443 0.6044186974398474 0.39558130256015245 0.34599700611199047 0.6540029938880095 0.44168949939223395 0.5583105006077661 0.522426418464659 0.4775735815353409 0.44952966316139076 0.5504703368386092 0.6091523726518482 0.39084762734815187 0.20695367453161737 0.7930463254683827 0.3946155490654337 0.6053844509345664 0.5456644259974225 0.45433557400257757 0.5396294427150442 0.46037055728495585 0.23914772291434386 0.7608522770856562 0.32002660482520634 0.6799733951747936 0.5837148554353527 0.41628514456464727 0.4545041218615356 0.5454958781384643 0.9317584028296337 0.06824159717036632 0.14038332269337306 0.8596166773066269 0.8942924354817929 0.10570756451820704 0.5164359940802576 0.4835640059197423 0.30676732148941493 0.6932326785105851 0.3709197481956466 0.6290802518043533 0.6507007065550617 0.34929929344493843 0.5686888684175381 0.43131113158246187 0.4089250269414087 0.5910749730585912 0.9311587261040937 0.0688412738959063 0.07435525879011275 0.9256447412098873 0.19624341295331738 0.8037565870466826 0.6748361195262887 0.32516388047371125 0.6328908137716703 0.36710918622832966 0.5208763960961112 0.4791236039038888 0.01763124747425088 0.9823687525257491 0.7919486380800344 0.20805136191996565 0.4792212871172539 0.5207787128827461 0.3464255599015428 0.6535744400984572 0.4506156294641917 0.5493843705358082 0.6509697860733858 0.3490302139266142 0.9735522828710157 0.026447717128984298 0.6515995111712004 0.34840048882879965 0.1446066488927904 0.8553933511072096 0.6150880032366843 0.38491199676331567 0.33301149111116257 0.6669885088888374 0.1096553701345246 0.8903446298654754 0.28962204220831983 0.7103779577916801 0.4651911995531111 0.5348088004468888 0.5529894107174946 0.44701058928250526 0.8835875389358567 0.11641246106414341 0.19368208398739017 0.8063179160126099 0.20067973413833629 0.7993202658616637 0.5236550987076586 0.47634490129234147 0.47720874221591036 0.5227912577840896 0.1508131635087642 0.8491868364912358 0.9251284838995877 0.07487151610041232 0.579887860829531 0.4201121391704689 0.31517453897420433 0.6848254610257957 0.4962972402187222 0.5037027597812778 0.3696346659397666 0.6303653340602334 0.8845944289178775 0.11540557108212247 0.532284432988499 0.4677155670115009 0.40395812974860346 0.5960418702513967 0.36487446404419754 0.6351255359558023 0.5218809025836741 0.47811909741632586 0.1904046210907784 0.8095953789092216 0.6302209439158472 0.3697790560841529 0.6479353404452325 0.35206465955476757 0.5139806834109106 0.48601931658908937 0.977560443992106 0.02243955600789399 0.8840727022724765 0.11592729772752351 0.5702468139439997 0.4297531860560003 0.6455719611736421 0.3544280388263579 0.6418550976879066 0.35814490231209334 0.5979906986944488 0.4020093013055513 0.9869181397716896 0.013081860228310382 0.5514636839651917 0.4485363160348082 0.49645682917227196 0.503543170827728 0.5578577011621756 0.44214229883782447 0.4450061320130154 0.5549938679869846 0.34346776628130565 0.6565322337186944 0.21927921076133278 0.7807207892386673 0.49348245130752694 0.5065175486924731 0.7260742723458531 0.27392572765414686 0.45136790569476215 0.548632094305238 0.38827493555691006 0.61172506444309 0.7977542898812054 0.20224571011879444 0.6787349914438713 0.3212650085561287 0.8571474002242051 0.14285259977579495 0.09068570969718491 0.9093142903028151 0.6142041499801387 0.3857958500198612 0.5435083898106127 0.4564916101893873 0.11346045414345239 0.8865395458565476 0.5931192344183267 0.4068807655816732 0.8323072657008556 0.16769273429914439 0.07392375238526838 0.9260762476147316 0.322277469494956 0.6777225305050439 0.5866443347548732 0.41335566524512685 0.23710501779597865 0.7628949822040214 0.893095097413265 0.10690490258673499 0.9662289275841693 0.03377107241583061 0.21461115228202557 0.7853888477179745 0.4297674190613456 0.5702325809386543 0.3841687747822233 0.6158312252177767 0.9711868384832552 0.028813161516744883 0.3272209560194866 0.6727790439805135 0.5511226735421303 0.4488773264578697 0.833362780724181 0.166637219275819 0.45907360753503573 0.5409263924649642 0.8558767528026421 0.1441232471973579 0.5769648687637037 0.4230351312362963 0.4694442688630903 0.5305557311369097 0.38933500796458775 0.6106649920354122 0.13786455841989875 0.8621354415801012 0.5132092409416441 0.48679075905835584 0.48109724870689247 0.5189027512931076 0.6564784182748515 0.34352158172514863 0.508107804843291 0.49189219515670896 0.6602407459861875 0.3397592540138124 0.5276812450647548 0.4723187549352451 0.5002967231386791 0.49970327686132093 0.2917479195761483 0.7082520804238516 0.7408712908976877 0.2591287091023123 0.7846385278830327 0.2153614721169673 0.4972013455327052 0.5027986544672948 0.6464299634310992 0.35357003656890085 0.9882045863405349 0.011795413659465109 0.5537578210289023 0.4462421789710978 0.8378810878712891 0.16211891212871093 0.4667332044653804 0.5332667955346196 0.4150974663965052 0.5849025336034949 0.6618986458586313 0.33810135414136866 0.5277291077331884 0.4722708922668115 0.6972009780154964 0.30279902198450365 0.9999713649761919 2.8635023808152267e-05 0.6315950995719715 0.36840490042802854 0.4876882247306332 0.5123117752693668 0.10393853478153987 0.8960614652184601 0.60624657828899 0.39375342171101 0.5011277149837293 0.4988722850162707 0.3947656381919407 0.6052343618080592 0.5843581809952775 0.4156418190047224 0.43568891535193455 0.5643110846480655 0.6706531469652766 0.3293468530347234 0.6438529051037807 0.3561470948962192 0.7456265407084214 0.2543734592915787 0.7678027879582614 0.23219721204173863 0.8519495933234251 0.14805040667657485 0.305219699438502 0.6947803005614981 0.49748040703532764 0.5025195929646723 0.5384951644189798 0.4615048355810202 0.8073707576384863 0.19262924236151382 0.5868036374447618 0.4131963625552382 0.8819384843460647 0.1180615156539353 0.8246939963665368 0.17530600363346321 0.9515947985889657 0.04840520141103431 0.7206313964328986 0.2793686035671014 0.6471708016239056 0.35282919837609444 0.38630263631601364 0.6136973636839863 0.23357230744410407 0.7664276925558959 0.7590243679070038 0.2409756320929962 0.5063256309993643 0.49367436900063566 0.038008219035507114 0.9619917809644929 0.30423468944465004 0.69576531055535 0.039264605698129944 0.96073539430187 0.5181377498438234 0.48186225015617656 0.6335159427126179 0.36648405728738204 0.6115507823741492 0.3884492176258508 0.8689116994412049 0.13108830055879506 0.7575205137222579 0.2424794862777421 0.25622789124505896 0.743772108754941 0.7482312507461811 0.2517687492538189 0.691924307281047 0.30807569271895296 0.38031502410291723 0.6196849758970827 0.32792922328256974 0.6720707767174303 0.46826251776342476 0.5317374822365752 0.31279197790084384 0.6872080220991562 0.003525011727639916 0.99647498827236 0.04792277468747729 0.9520772253125227 0.7472274238215599 0.2527725761784401 0.46120731038875573 0.5387926896112443 0.04540768316563248 0.9545923168343675 0.8328387000336568 0.16716129996634316 0.5053114148432652 0.49468858515673475 0.3052374616077842 0.6947625383922157 0.7552004428238341 0.24479955717616575 0.5052823534909396 0.49471764650906025 0.13371540773580234 0.8662845922641976 0.4365631915121536 0.5634368084878464 0.01605622388262024 0.9839437761173797 0.45099077773460616 0.5490092222653937 0.4814988771731893 0.5185011228268106 0.14973414822244943 0.8502658517775505 0.2507443475189696 0.7492556524810304 0.4735971775774456 0.5264028224225544 0.5251291794323012 0.4748708205676989 0.26221937005302265 0.7377806299469775 0.8764272973641974 0.12357270263580256 0.4403507041373351 0.5596492958626649 0.4683088005603635 0.5316911994396365 0.7737187404736896 0.22628125952631037 0.6644841901840078 0.3355158098159922 0.5969578310530009 0.403042168946999 0.7895379495867662 0.21046205041323376 0.504066220048318 0.4959337799516819 0.3059475577479157 0.6940524422520843 0.7847847355474042 0.2152152644525958 0.5045388991361017 0.4954611008638982 0.37337758853956154 0.6266224114604385 0.5912019966163591 0.408798003383641 0.23941724248140087 0.7605827575185992 0.38262129563115704 0.6173787043688429 0.6433752212383609 0.3566247787616391 0.4842511363090445 0.5157488636909555 0.5242134071573815 0.4757865928426186 0.43030847712755 0.56969152287245 0.7565137427305747 0.24348625726942524 0.41733349001364656 0.5826665099863534 0.29755663935950494 0.7024433606404952 0.565622407696931 0.434377592303069 0.6252777298006993 0.37472227019930077 0.6159691067597125 0.38403089324028744 0.6060274731071219 0.3939725268928781 0.4201917896670929 0.5798082103329071 0.3546489099864209 0.6453510900135792 0.8537498283513117 0.1462501716486883 0.1943571675713659 0.805642832428634 0.8468646272955879 0.15313537270441208 0.15162467421796758 0.8483753257820325 0.3292456812769583 0.6707543187230417 0.6479080315842323 0.35209196841576773 0.19395916150373066 0.8060408384962693 0.4647046376571748 0.5352953623428252 0.5486211666936806 0.4513788333063194 0.21237708597843116 0.7876229140215689 0.6457019047387054 0.3542980952612945 0.3249149636159067 0.6750850363840935 0.9028484003712236 0.09715159962877636 0.5188875489862795 0.4811124510137205 0.46027667948818635 0.5397233205118137 0.43972189487884916 0.5602781051211508 0.38721262700154174 0.6127873729984583 0.4655035867330879 0.5344964132669121 0.997813699075077 0.0021863009249228956 0.4091374125639787 0.5908625874360213 0.4818647754617483 0.5181352245382517 0.5203602441192879 0.479639755880712 0.8105550707749849 0.1894449292250152 0.3441881005543609 0.6558118994456391 0.6801671648848592 0.3198328351151409 0.367782512643345 0.6322174873566551 0.4108965611143013 0.5891034388856988 0.4363221171809948 0.5636778828190052 0.026139772223558285 0.9738602277764418 0.4220910201009408 0.5779089798990591 0.11004340848914644 0.8899565915108536 0.2013195898569363 0.7986804101430637 0.5698316332527719 0.4301683667472281 0.04443142165826394 0.955568578341736 0.5325194272721786 0.46748057272782134 0.4361565220341165 0.5638434779658835 0.7080837164142799 0.29191628358572 0.6736715028486518 0.3263284971513482 0.3242790648076449 0.6757209351923551 0.04355155125512596 0.956448448744874 0.5724211235996177 0.4275788764003823 0.6657333757474667 0.3342666242525334 0.42771457599722007 0.5722854240027799 0.34515404804996147 0.6548459519500385 0.3739267102228047 0.6260732897771952 0.6688573946071706 0.33114260539282936 0.5797164999903668 0.42028350000963316 0.2030560697167787 0.7969439302832213 0.4795810845503571 0.5204189154496429 0.24140927519273866 0.7585907248072613 0.8134719681189583 0.18652803188104175 0.25698315719012965 0.7430168428098703 0.5452524674980209 0.45474753250197913 0.757904581798347 0.24209541820165303 0.6747242057541498 0.3252757942458501 0.40265233895617264 0.5973476610438274 0.43293889913348477 0.5670611008665153 0.5388794718104227 0.4611205281895772 0.46292359907900477 0.5370764009209952 0.4419543033703715 0.5580456966296284 0.525396980333437 0.4746030196665631 0.6230647899462068 0.3769352100537931 0.2082300647310696 0.7917699352689305 0.5366630704126143 0.4633369295873857 0.4325172066153096 0.5674827933846904 0.07768638771639326 0.9223136122836068 0.8278511266372068 0.1721488733627932 0.3775667781819795 0.6224332218180204 0.5164080874586808 0.4835919125413191 0.20590484862652422 0.7940951513734757 0.5356912601730973 0.4643087398269028 0.4395716317223914 0.5604283682776087 0.5349322157779393 0.4650677842220608 0.9853125594608301 0.014687440539169892 0.5844883097461174 0.41551169025388246 0.9245282247837462 0.0754717752162538 0.4352041858551546 0.5647958141448454 0.2572735118590539 0.7427264881409461 0.1243617714066963 0.8756382285933038 0.9110646089365325 0.08893539106346746 0.8703566587221802 0.1296433412778198 0.39911328573981314 0.6008867142601867 0.3595345158313885 0.6404654841686115 0.17842333535178972 0.8215766646482102 0.5597031154960196 0.4402968845039804 0.8438687528942465 0.15613124710575346 0.559651933609285 0.44034806639071494 0.5024831799995189 0.4975168200004812 0.8285911585049395 0.17140884149506055 0.7891062752065204 0.2108937247934795 0.035356401347042696 0.9646435986529573 0.5070459465607752 0.4929540534392248 0.7894457228258726 0.21055427717412745 0.37427603405952775 0.6257239659404722 0.3773556464232897 0.6226443535767103 0.7415982503002359 0.25840174969976415 0.5489031026697042 0.45109689733029573 0.05708360723806755 0.9429163927619324 0.8338807457485038 0.1661192542514962 0.22886062438795926 0.7711393756120407 0.4645688682963939 0.5354311317036061 0.30200428026309195 0.6979957197369081 0.43841603789345324 0.5615839621065467 0.6734835731131822 0.32651642688681776 0.32719580202977394 0.6728041979702261 0.7308132429726283 0.2691867570273717 0.4856638625654959 0.5143361374345041 0.7206863313839661 0.2793136686160339 0.32341510294610004 0.6765848970538999 0.8414238438696278 0.15857615613037226 0.5254092429756555 0.4745907570243445 0.8943675091161861 0.10563249088381389 0.7432505909024805 0.2567494090975196 0.34885577915401017 0.6511442208459898 0.5092993100036316 0.4907006899963684 0.45775150805213505 0.542248491947865 0.7180922887472797 0.28190771125272024 0.6153163487930327 0.38468365120696735 0.2581413403291294 0.7418586596708706 0.0784234140893197 0.9215765859106803 0.24693208101957895 0.753067918980421 0.8908104232909013 0.10918957670909865 0.46816205032340297 0.531837949676597 0.3658011131488036 0.6341988868511964 0.7829064705592704 0.21709352944072952 0.5572576659127021 0.4427423340872979 0.2318109222606761 0.7681890777393239 0.44852955767178654 0.5514704423282135 0.405028048950161 0.594971951049839 0.11125719247288984 0.8887428075271102 0.16196925583977623 0.8380307441602237 0.3505236959999799 0.6494763040000202 0.21477241554968315 0.7852275844503168 0.34393652678444525 0.6560634732155547 0.04375629869688399 0.956243701303116 0.2084226542402745 0.7915773457597254 0.49413290867023724 0.5058670913297627 0.04911782951772258 0.9508821704822774 0.6245707688075145 0.3754292311924855 0.5770670479404643 0.4229329520595358 0.43524318401550843 0.5647568159844916 0.9851327243837282 0.01486727561627173 0.5016151974797706 0.4983848025202294 0.06301022533269696 0.936989774667303 0.207691279639992 0.792308720360008 0.17203101475352592 0.8279689852464741 0.6678145039021627 0.3321854960978373 0.27079382936304797 0.729206170636952 0.2224811920921315 0.7775188079078686 0.21809195783127308 0.7819080421687269 0.40826269697782386 0.5917373030221761 0.2694280095603965 0.7305719904396035 0.7481984031001095 0.25180159689989046 0.30286315227021665 0.6971368477297833 0.6746909856582193 0.3253090143417807 0.4386905317413048 0.5613094682586953 0.48143784644638093 0.518562153553619 0.6188843894038681 0.38111561059613175 0.07344669845236661 0.9265533015476334 0.14535308963938826 0.8546469103606117 0.6215789063881594 0.37842109361184073 0.012376552693284975 0.987623447306715 0.8931940772177718 0.10680592278222822 0.6125828975164272 0.3874171024835727 0.4649039543801003 0.5350960456198998 0.49269589412348147 0.5073041058765186 0.005429538104539498 0.9945704618954605 0.7078932126109593 0.2921067873890407 0.7706743851187724 0.22932561488122757 0.5911015684764331 0.40889843152356686 0.4366861689582353 0.5633138310417647 0.5394515814839315 0.4605484185160685 0.13708692103249948 0.8629130789675006 0.1500118478102343 0.8499881521897656 0.42535724709513645 0.5746427529048636 0.5192591717104685 0.48074082828953146 0.5206610461922688 0.47933895380773117 0.24362327812364468 0.7563767218763553 0.4477994935568593 0.5522005064431407 0.32490882070293226 0.6750911792970677 0.49980409858553937 0.5001959014144606 0.2998795186442777 0.7001204813557222 0.07822640090509152 0.9217735990949085 0.24469535448465746 0.7553046455153426 0.21460484363053264 0.7853951563694672 0.6098045344861522 0.39019546551384776 0.5401788645253047 0.4598211354746952 0.6175993691836651 0.382400630816335 0.4860578728060957 0.5139421271939043 0.635276497958251 0.3647235020417489 0.43776454746396615 0.5622354525360339 0.370756611675346 0.629243388324654 0.5793294316910107 0.42067056830898925 0.501614813030592 0.498385186969408 0.3848863471456173 0.6151136528543827 0.48779971435044256 0.5122002856495574 0.9728199006719588 0.0271800993280412 0.4306283111889679 0.5693716888110322 0.4272943376428944 0.5727056623571056 0.7191811082715052 0.2808188917284949 0.3691738101888501 0.6308261898111498 0.5065676007212939 0.4934323992787061 0.2675603550372302 0.7324396449627698 0.7495112949931562 0.2504887050068438 0.2552815749964631 0.7447184250035369 0.07806627434151656 0.9219337256584834 0.12037172706123866 0.8796282729387613 0.41170286744867074 0.5882971325513293 0.7983010725821602 0.20169892741783985 0.5619623550303603 0.43803764496963965 0.5977259815176181 0.4022740184823818 0.7952004973317809 0.20479950266821909 0.7214116123087821 0.27858838769121774 0.6459874199065595 0.3540125800934405 0.12482620307840793 0.875173796921592 0.4249590587371844 0.5750409412628156 0.3471736448064697 0.6528263551935304 0.5489195903544466 0.4510804096455534 0.6396203536812612 0.36037964631873876 0.9996129228198309 0.0003870771801691017 0.9764674609218624 0.02353253907813754 0.21877941940534693 0.7812205805946529 0.48833130154694415 0.511668698453056 0.4913666851438612 0.5086333148561388 0.4057277705112675 0.5942722294887325 0.6422456502493173 0.3577543497506826 0.5174688076797883 0.4825311923202117 0.44131043448089896 0.5586895655191011 0.599379763496474 0.40062023650352596 0.012690280469712803 0.9873097195302872 0.1514706179546647 0.8485293820453352 0.8948397586746631 0.1051602413253368 0.8901862335482503 0.10981376645174958 0.7234484013122021 0.2765515986877978 0.5294771074334176 0.4705228925665825 0.1018814622311784 0.8981185377688216 0.5961797101984985 0.40382028980150153 0.5848248343580521 0.41517516564194784 0.03622519377814815 0.9637748062218519 0.6168636316146843 0.38313636838531573 0.19951492453774655 0.8004850754622536 0.19352446516799346 0.8064755348320066 0.9124760687678041 0.08752393123219591 0.6292033950666724 0.3707966049333276 0.5401909371652293 0.45980906283477074 0.39704065556597756 0.6029593444340224 0.8889504184745323 0.11104958152546772 0.44264873682584943 0.5573512631741506 0.4469064968053656 0.5530935031946345 0.2551590277751195 0.7448409722248804 0.6068131687482263 0.39318683125177367 0.6173782085632176 0.3826217914367825 0.7395791034012077 0.26042089659879225 0.12868084758554835 0.8713191524144517 0.8038596813739333 0.19614031862606673 0.3171047691623253 0.6828952308376747 0.8099073945831041 0.19009260541689585 0.7162613822415514 0.2837386177584486 0.14269218678218998 0.85730781321781 0.8517247488709928 0.1482752511290072 0.48756238444235966 0.5124376155576402 0.27748965211216103 0.722510347887839 0.44705900025716305 0.552940999742837 0.47844350286193665 0.5215564971380633 0.4888287780161414 0.5111712219838586 0.33492754965373034 0.6650724503462696 0.9894003977548897 0.010599602245110298 0.9706147562108358 0.029385243789164177 0.5574363082501624 0.4425636917498375 0.4814738689544757 0.5185261310455244 0.483154538445406 0.516845461554594 0.45219589744899863 0.5478041025510014 0.4376298783746219 0.562370121625378 0.5871299856709169 0.41287001432908316 0.7940007390884274 0.20599926091157264 0.9193859668991256 0.0806140331008745 0.41176106869210116 0.5882389313078988 0.3949406238875661 0.6050593761124339 0.24465988103761685 0.7553401189623832 0.5663983105593134 0.43360168944068656 0.43420222814980436 0.5657977718501956 0.7557909241861662 0.2442090758138338 0.8473726115431724 0.1526273884568276 0.7413609081772895 0.2586390918227105 0.03140909749649209 0.9685909025035079 0.15366993762376302 0.846330062376237 0.11055400397260517 0.8894459960273948 0.038005019738981446 0.9619949802610186 0.610372141669669 0.389627858330331 0.543546954215236 0.45645304578476403 0.8552851445214182 0.14471485547858176 0.04798375765439962 0.9520162423456002 0.0895536667263831 0.9104463332736169 0.7522010509523575 0.24779894904764255 0.9359307204202971 0.06406927957970289 0.8553341245233373 0.1446658754766627 0.6434108659154208 0.3565891340845791 0.46176279929721764 0.5382372007027822 0.9290549770745311 0.07094502292546892 0.6199270446453807 0.38007295535461927 0.4762395162449255 0.5237604837550746 0.30295617724142193 0.697043822758578 0.24295588361348358 0.7570441163865164 0.16524557591623892 0.8347544240837611 0.6904585386452732 0.3095414613547267 0.21705368411177128 0.7829463158882288 0.3230730010381272 0.6769269989618728 0.41700389252194203 0.5829961074780581 0.5519380669824632 0.44806193301753694 0.5859287049509763 0.41407129504902374 0.5915622978553102 0.40843770214468983 0.1635025665727313 0.8364974334272687 0.47683171210486786 0.5231682878951321 0.8198204806235877 0.1801795193764123 0.5016580053796938 0.4983419946203061 0.37521801458861 0.62478198541139 0.14551186991316728 0.8544881300868327 0.9249096657508881 0.07509033424911189 0.29635170716372433 0.7036482928362757 0.46271671398282893 0.537283286017171 0.9895505754447075 0.010449424555292519 0.7595177536353634 0.24048224636463653 0.06546993001885351 0.9345300699811465 0.43811151149492883 0.5618884885050712 0.7115721781846085 0.28842782181539145 0.48571953804558166 0.5142804619544182 0.25441296422806975 0.7455870357719302 0.5306715435502652 0.4693284564497347 0.5566987178926502 0.44330128210734976 0.34009070221845467 0.6599092977815454 0.10293636910520199 0.897063630894798 0.7754378202516745 0.22456217974832543 0.497145710001595 0.502854289998405 0.8983767321865339 0.1016232678134661 0.21917787779735737 0.7808221222026427 0.7647225028815519 0.2352774971184482 0.4907682746925479 0.5092317253074521 0.3846816333472229 0.6153183666527772 0.7199518546741954 0.28004814532580463 0.5666313756187226 0.4333686243812773 0.619010858759788 0.380989141240212 0.8776014790962573 0.1223985209037427 0.33742422121249505 0.6625757787875048 0.4816453295540485 0.5183546704459515 0.514863400328755 0.4851365996712449 0.5073610747277951 0.49263892527220493 0.904549586442176 0.09545041355782401 0.8622753470296424 0.13772465297035777 0.8876051333293994 0.11239486667060063 0.8699946302000856 0.13000536979991437 0.5475392847294732 0.4524607152705268 0.8703191619578554 0.12968083804214456 0.272529574032268 0.727470425967732 0.5477723642194273 0.4522276357805727 0.7383179432492081 0.26168205675079187 0.620516347856635 0.379483652143365 0.11257236031491864 0.8874276396850813 0.2717287481487312 0.7282712518512687 0.2939283686638395 0.7060716313361606 0.01923427424522893 0.9807657257547711 0.43751643728004264 0.5624835627199574 0.009798535609500858 0.9902014643904992 0.27446635899135113 0.7255336410086489 0.4087943202475277 0.5912056797524723 0.11932875311407005 0.8806712468859299 0.674182618207677 0.325817381792323 0.36663217595222625 0.6333678240477737 0.9471479796575288 0.05285202034247113 0.2795394042827506 0.7204605957172494 0.4608904454650086 0.5391095545349913 0.532669309461272 0.46733069053872806 0.34292777606480546 0.6570722239351945 0.24897330972662596 0.751026690273374 0.4871954306813508 0.5128045693186493 0.5951382258671425 0.4048617741328574 0.25947438506164777 0.7405256149383522 0.40521336975632033 0.5947866302436797 0.3162880098912781 0.6837119901087219 0.3883158007501468 0.6116841992498532 0.040290221551865985 0.959709778448134 0.7554884529552144 0.24451154704478564 0.9464357286265696 0.05356427137343045 0.7933510096722124 0.20664899032778766 0.7783556370963903 0.22164436290360964 0.17700065051650588 0.8229993494834942 0.45833917810589725 0.5416608218941027 0.7593396254598251 0.24066037454017483 0.6380380594249562 0.36196194057504383 0.2233774744436257 0.7766225255563743 0.24828183941152268 0.7517181605884774 0.6325979938035313 0.36740200619646873 0.48858766561972217 0.5114123343802779 0.37195454815996665 0.6280454518400334 0.4067822936899103 0.5932177063100897 0.6126349947911958 0.38736500520880435 0.7087376958991456 0.29126230410085446 0.26830644539827336 0.7316935546017267 0.7106615217176466 0.28933847828235343 0.5130405249684171 0.4869594750315829 0.5354594274351644 0.46454057256483555 0.5693648750768238 0.4306351249231762 0.9414609095402239 0.05853909045977607 0.5534000513668256 0.4465999486331743 0.9501481218234893 0.049851878176510746 0.31235084618670234 0.6876491538132976 0.8858020768537763 0.11419792314622366 0.5061320485172653 0.49386795148273466 0.5136821505706771 0.48631784942932293 0.5441292766667573 0.45587072333324274 0.9387674614524287 0.06123253854757122 0.43770568842922103 0.5622943115707789 0.4599986467774646 0.5400013532225354 0.7988721075310437 0.20112789246895638 0.6578158322496205 0.3421841677503795 0.6913843652449176 0.3086156347550824 0.6062584402819813 0.3937415597180187 0.27184468445773385 0.7281553155422662 0.20479753770354953 0.7952024622964505 0.6624001226359455 0.3375998773640546 0.8324972889383367 0.16750271106166328 0.5108018084641512 0.48919819153584876 0.42382832957529676 0.5761716704247032 0.9612277754549314 0.03877222454506854 0.6389256014936857 0.36107439850631423 0.6559729328544708 0.34402706714552916 0.6682021232586165 0.33179787674138356 0.8385406401637766 0.16145935983622334 0.6527070794675025 0.3472929205324975 0.9289200780783842 0.07107992192161587 0.00909504368214527 0.9909049563178547 0.4364250278874947 0.5635749721125054 0.5441647140675728 0.4558352859324272 0.5161368096883076 0.4838631903116924 0.03508528515069339 0.9649147148493066 0.4565858538283055 0.5434141461716946 0.3662927478285464 0.6337072521714536 0.20564334626168565 0.7943566537383143 0.6930919487137706 0.3069080512862294 0.1123919292774955 0.8876080707225045 0.09683906519805768 0.9031609348019423 0.6089377550678752 0.3910622449321248 0.6020780888741857 0.39792191112581426 0.19573689744696965 0.8042631025530304 0.8762905636392414 0.12370943636075858 0.5214043199070323 0.4785956800929677 0.9770725373116691 0.022927462688330943 0.3956921260787331 0.604307873921267 0.9374428441542386 0.06255715584576142 0.46911640880298444 0.5308835911970154 0.7852272520412641 0.2147727479587359 0.7145193875880332 0.28548061241196687 0.1349171300812868 0.8650828699187132 0.6285429633510852 0.3714570366489148 0.2509859270970435 0.7490140729029565 0.4699388829268469 0.5300611170731531 0.16287695590936982 0.8371230440906302 0.4024560906379228 0.5975439093620771 0.5211247860468884 0.47887521395311156 0.3511660897365079 0.6488339102634921 0.5117561658611072 0.48824383413889294 0.7665543339029328 0.23344566609706716 0.7313965966856939 0.26860340331430616 0.545375211716919 0.454624788283081 0.41515208913443263 0.5848479108655673 0.5149176033081796 0.48508239669182035 0.4400694956845491 0.5599305043154509 0.09519850008963754 0.9048014999103625 0.6301624298429156 0.3698375701570844 0.41796422860235294 0.5820357713976471 0.22357907543825908 0.7764209245617409 0.6909359161176399 0.3090640838823602 0.8421261982814183 0.15787380171858165 0.7522397408574979 0.24776025914250205 0.6764962929316357 0.3235037070683642 0.459939273172281 0.5400607268277189 0.6729711126263493 0.32702888737365066 0.5336885755530136 0.46631142444698626 0.4183670670160679 0.5816329329839323 0.8520165252479655 0.1479834747520346 0.49789146255693284 0.5021085374430672 0.4747538408094047 0.5252461591905954 0.19563112212025122 0.8043688778797488 0.4925268689149121 0.507473131085088 0.5892349454235227 0.4107650545764773 0.5943504216971268 0.4056495783028733 0.4161755971201913 0.5838244028798086 0.4663016091857199 0.53369839081428 0.4724652713058524 0.5275347286941475 0.21278525734543113 0.7872147426545689 0.40813629372450994 0.5918637062754901 0.6267107713711075 0.3732892286288925 0.03799764991620327 0.9620023500837968 0.6179748126039855 0.38202518739601443 0.5161691929106719 0.48383080708932796 0.5762510200333401 0.42374897996665994 0.5525000331046109 0.447499966895389 0.8925468918007929 0.1074531081992072 0.4169422383922615 0.5830577616077385 0.5480268180984149 0.45197318190158503 0.14488323912284296 0.855116760877157 0.5960416574111645 0.4039583425888355 0.3014348957590899 0.6985651042409102 0.18578954781307133 0.8142104521869287 0.7237619711591043 0.27623802884089566 0.6976916620500205 0.30230833794997936 0.12057339706459408 0.8794266029354059 0.676385982112948 0.323614017887052 0.49409401050554963 0.5059059894944504 0.24881489756209893 0.751185102437901 0.3054130153205896 0.6945869846794104 0.5035593654260576 0.49644063457394244 0.2342588092777911 0.7657411907222088 0.6100006494417028 0.3899993505582972 0.16958406185206368 0.8304159381479363 0.6182216488925235 0.38177835110747643 0.5624102899029368 0.4375897100970632 0.4766680318632691 0.5233319681367309 0.5893650712546787 0.41063492874532137 0.5406809947285269 0.459319005271473 0.6380904587551788 0.3619095412448212 0.5827989017144654 0.4172010982855347 0.29569087880895883 0.7043091211910412 0.4709570720564707 0.5290429279435293 0.9002505868269973 0.09974941317300273 0.867628440252412 0.13237155974758802 0.6399130179345919 0.36008698206540807 0.7367776209720217 0.26322237902797824 0.2971070784421516 0.7028929215578483 0.6937100259026596 0.3062899740973404 0.6163669707206134 0.38363302927938653 0.4717213149328628 0.5282786850671372 0.2706660239635865 0.7293339760364135 0.22023002647494477 0.7797699735250552 0.5185071406245747 0.4814928593754253 0.5600771248496089 0.43992287515039113 0.45714061446377036 0.5428593855362297 0.7441661820798874 0.25583381792011256 0.4871575926298631 0.512842407370137 0.7657024540360535 0.23429754596394645 0.22157148141667973 0.7784285185833203 0.3612182473103462 0.6387817526896538 0.8554344237187665 0.14456557628123357 0.7524301953897866 0.24756980461021352 0.2394235941114972 0.7605764058885028 0.022757584560894287 0.9772424154391057 0.6898634428295501 0.3101365571704499 0.6096658810695547 0.3903341189304454 0.6461118538670615 0.3538881461329385 0.9262505253163228 0.07374947468367722 0.308848029759408 0.691151970240592 0.36147223083850266 0.6385277691614973 0.04681635465059223 0.9531836453494078 0.5676115349411259 0.4323884650588741 0.41576691477748956 0.5842330852225105 0.49678532924984514 0.5032146707501549 0.612210237551921 0.387789762448079 0.4079997874047848 0.5920002125952152 0.37064909736141743 0.6293509026385825 0.9493749245983081 0.050625075401691956 0.5536683873358117 0.44633161266418836 0.40950993964221405 0.590490060357786 0.3895029167242011 0.6104970832757989 0.1806301103662514 0.8193698896337486 0.6631501283386423 0.3368498716613577 0.057955944675442114 0.9420440553245579 0.4554787047367434 0.5445212952632567 0.2693102123751339 0.7306897876248661 0.31790487825542296 0.6820951217445771 0.9361502104156106 0.06384978958438936 0.7289790863933361 0.27102091360666386 0.3443686400635509 0.6556313599364492 0.2895816903995911 0.7104183096004089 0.6992543024751597 0.3007456975248403 0.29460292204222077 0.7053970779577793 0.4579950360011366 0.5420049639988634 0.8314871048830382 0.1685128951169618 0.49806917495991126 0.5019308250400887 0.12667224619579273 0.8733277538042072 0.622535483889433 0.3774645161105669 0.700431214378136 0.299568785621864 0.3897126523456317 0.6102873476543683 0.9765122620333951 0.023487737966604905 0.9690233568809042 0.030976643119095766 0.34814234662248345 0.6518576533775167 0.17255827295315626 0.8274417270468437 0.9806552783193426 0.01934472168065734 0.4227296180548181 0.5772703819451819 0.45374874715700103 0.546251252842999 0.5206463483848106 0.4793536516151894 0.9212419257769566 0.07875807422304341 0.016076499440663593 0.9839235005593364 0.7398847387197925 0.26011526128020745 0.2615902492068845 0.7384097507931155 0.8241009240161542 0.17589907598384585 0.5677190399344421 0.43228096006555805 0.411751119256817 0.588248880743183 0.6169613592344421 0.383038640765558 0.9707998673966477 0.02920013260335215 0.42987248446344956 0.5701275155365505 0.3477500509631922 0.6522499490368077 0.8652059722163391 0.13479402778366092 0.7335850860138082 0.26641491398619177 0.29133102776302355 0.7086689722369764 0.28362919944307086 0.7163708005569291 0.8940983768654798 0.10590162313452023 0.7269523156831741 0.2730476843168259 0.7196972864385007 0.2803027135614994 0.6302355855131253 0.36976441448687464 0.9965431976116281 0.003456802388371926 0.4741200309614017 0.5258799690385983 0.6040724665208957 0.39592753347910425 0.32964806528385215 0.6703519347161478 0.07061085984090576 0.9293891401590942 0.6510638989626211 0.348936101037379 0.44495236036958247 0.5550476396304175 0.3157677839263233 0.6842322160736767 0.06544258683919342 0.9345574131608065 0.5855652363022535 0.41443476369774646 0.06923845685380021 0.9307615431461997 0.6861577229599767 0.31384227704002327 0.4880090958117574 0.5119909041882427 0.5427539001838276 0.4572460998161723 0.5136026121706717 0.48639738782932823 0.19664046429609902 0.803359535703901 0.44254030801253624 0.5574596919874638 0.4754901340325835 0.5245098659674164 0.3381550197641591 0.6618449802358408 0.5772890906898213 0.42271090931017874 0.38130240813906174 0.6186975918609382 0.748683887517559 0.2513161124824411 0.8600384948037069 0.1399615051962931 0.46973010176553687 0.5302698982344631 0.29799638478142865 0.7020036152185712 0.5942795242846783 0.40572047571532166 0.6646428533832873 0.33535714661671273 0.1467845350148816 0.8532154649851185 0.44560894443620674 0.5543910555637932 0.36123711576106693 0.6387628842389331 0.6037515711766995 0.39624842882330047 0.6225797365222558 0.3774202634777441 0.9188316381411019 0.08116836185889807 0.36821659703311777 0.6317834029668823 0.1903341800762302 0.8096658199237698 0.18886865310559606 0.8111313468944039 0.09061060150286242 0.9093893984971376 0.6740538955554043 0.3259461044445957 0.06648514110210166 0.9335148588978983 0.680714980415097 0.31928501958490296 0.1942956302507244 0.8057043697492756 0.3960744611859961 0.6039255388140039 0.8189261232095527 0.1810738767904473 0.3101662699453205 0.6898337300546795 0.40195719524546963 0.5980428047545304 0.9814283158722518 0.01857168412774822 0.3439946251512893 0.6560053748487107 0.34930947552435593 0.650690524475644 0.0489818938892529 0.9510181061107471 0.2356113000393444 0.7643886999606556 0.4012934553789541 0.5987065446210458 0.5611439263614522 0.43885607363854784 0.6684489322922665 0.3315510677077334 0.7108972617593751 0.289102738240625 0.48542979700475347 0.5145702029952466 0.5211059671684709 0.47889403283152904 0.4329172892229142 0.5670827107770858 0.7376826241410299 0.26231737585897 0.4731484975562802 0.5268515024437198 0.4100935654935806 0.5899064345064193 0.5402215179449406 0.45977848205505945 0.4164872588617218 0.5835127411382782 0.6140954855966101 0.3859045144033899 0.48868017699727984 0.5113198230027202 0.8842439219440308 0.11575607805596917 0.3759387657033912 0.6240612342966086 0.15051102041466224 0.8494889795853378 0.5724649556838296 0.4275350443161705 0.5966671204671543 0.4033328795328457 0.4776846328629402 0.5223153671370598 0.07979588153708327 0.9202041184629167 0.0402086838389838 0.9597913161610163 0.44077826495357475 0.5592217350464253 0.51470588540802 0.4852941145919801 0.2262951500153359 0.773704849984664 0.22626354213717448 0.7737364578628255 0.05324514923002796 0.946754850769972 0.8349878550720369 0.16501214492796307 0.47583200548650145 0.5241679945134985 0.17860741739318822 0.8213925826068118 0.8050717038763741 0.19492829612362597 0.6027585068582406 0.39724149314175944 0.368470440017927 0.631529559982073 0.8283955192206534 0.17160448077934667 0.9012948380415097 0.09870516195849031 0.5346528644437473 0.4653471355562528 0.9102264687862782 0.08977353121372178 0.5050720674755269 0.4949279325244732 0.7934092241448585 0.20659077585514146 0.34792768281445297 0.652072317185547 0.8666304239432466 0.13336957605675337 0.3355683893514628 0.6644316106485372 0.46818698326594377 0.5318130167340562 0.6477615033064509 0.3522384966935491 0.4495397113204312 0.5504602886795688 0.19738975808527842 0.8026102419147216 0.6756042912143286 0.32439570878567137 0.5303619904509758 0.4696380095490243 0.98857360215089 0.011426397849110084 0.29433140677925274 0.7056685932207473 0.558637597409779 0.4413624025902208 0.6168999606463162 0.3831000393536837 0.696867833818278 0.303132166181722 0.6625092538230595 0.33749074617694047 0.82116360866574 0.17883639133426002 0.4767710410760092 0.5232289589239908 0.8696222135039673 0.13037778649603268 0.35229508313590824 0.6477049168640917 0.854787138613358 0.14521286138664202 0.6780962000874915 0.3219037999125085 0.4932508979251115 0.5067491020748884 0.6588598668155583 0.34114013318444164 0.599321638484364 0.400678361515636 0.01938228931751938 0.9806177106824806 0.6675657344221305 0.3324342655778694 0.5734449846014693 0.4265550153985307 0.542288949080661 0.45771105091933895 0.22410933555542908 0.7758906644445709 0.23384080443746577 0.7661591955625343 0.7723055978274664 0.22769440217253342 0.7206267436719945 0.27937325632800547 0.977062682160647 0.02293731783935299 0.7616793019804229 0.23832069801957714 0.19532127469932173 0.8046787253006783 0.5446705785458061 0.4553294214541939 0.5207078415058468 0.47929215849415313 0.5419097728795738 0.45809022712042624 0.7625174744687975 0.2374825255312025 0.5352042739220283 0.46479572607797176 0.32492937356467516 0.6750706264353249 0.5971772566114586 0.40282274338854135 0.3022178945494704 0.6977821054505295 0.4337518452544949 0.566248154745505 0.5061194614352801 0.4938805385647199 0.4581622808741232 0.5418377191258769 0.5523502220680017 0.4476497779319983 0.4305375781410314 0.5694624218589686 0.14435512548224932 0.8556448745177507 0.3326948922836529 0.6673051077163471 0.41377273233109263 0.5862272676689073 0.24742186289495546 0.7525781371050445 0.9178136783622953 0.08218632163770469 0.4900250917154437 0.5099749082845563 0.8653557049959346 0.13464429500406538 0.8392415517405585 0.1607584482594415 0.18467836638607557 0.8153216336139245 0.5817113514234069 0.41828864857659315 0.6218603895625354 0.3781396104374645 0.10786501807941185 0.892134981920588 0.6243854113771946 0.37561458862280545 0.5914491881952352 0.4085508118047648 0.5876127230339657 0.4123872769660342 0.3088405530744585 0.6911594469255415 0.5686019180186849 0.43139808198131513 0.7088686297411447 0.29113137025885527 0.46608437618044574 0.5339156238195543 0.7735134612865192 0.22648653871348093 0.8591283981554118 0.14087160184458825 0.6118883847541008 0.3881116152458992 0.4035835621752821 0.5964164378247179 0.8800875919381743 0.1199124080618257 0.30053553140035655 0.6994644685996434 0.6518428742874263 0.3481571257125738 0.10167048860495076 0.8983295113950492 0.7990104853573741 0.20098951464262596 0.6338533853021177 0.3661466146978824 0.6110471990254763 0.3889528009745238 0.6190901943893232 0.3809098056106768 0.5209622842217159 0.4790377157782843 0.45960100358759415 0.5403989964124057 0.23233462567820568 0.7676653743217943 0.5971875237655121 0.40281247623448796 0.49780062970010114 0.5021993702998988 0.06201965762505345 0.9379803423749465 0.22976882436319127 0.7702311756368088 0.4492171070135929 0.550782892986407 0.4920947726126749 0.5079052273873251 0.7663134755620457 0.23368652443795435 0.8104075046173708 0.18959249538262926 0.742549404842752 0.257450595157248 0.5241360977836683 0.4758639022163316 0.5402937312744288 0.45970626872557124 0.3571110640496359 0.642888935950364 0.30276755512877995 0.6972324448712199 0.5473538811046683 0.45264611889533163 0.28765976476774097 0.712340235232259 0.6554961591402177 0.3445038408597821 0.42361180270817167 0.5763881972918282 0.7210449617636849 0.27895503823631507 0.31982283119453975 0.6801771688054602 0.8686859198732322 0.13131408012676776 0.6342963797505102 0.3657036202494899 0.052311791914726236 0.9476882080852738 0.8046777554880866 0.1953222445119134 0.4941190542438533 0.5058809457561467 0.8569366124447532 0.14306338755524686 0.7024474786434751 0.2975525213565248 0.8972349354489592 0.10276506455104084 0.5490559395632945 0.4509440604367056 0.7662960855193546 0.23370391448064548 0.44649034162521767 0.5535096583747824 0.2196980640591597 0.7803019359408403 0.6304651102958123 0.36953488970418763 0.5122046540748897 0.48779534592511026 0.4669250112071132 0.5330749887928867 0.40345824991392343 0.5965417500860766 0.4834270209480699 0.5165729790519301 0.018232348382693032 0.981767651617307 0.5967392241403002 0.40326077585969966 0.4869020255832202 0.5130979744167798 0.7216762447990858 0.27832375520091424 0.7428730069268246 0.2571269930731753 0.35466437182283744 0.6453356281771625 0.44678889807544886 0.5532111019245511 0.2895744364487642 0.7104255635512359 0.9863637411506234 0.013636258849376554 0.25452189787663243 0.7454781021233675 0.4531699508108716 0.5468300491891284 0.4855477302171909 0.514452269782809 0.9963966137884771 0.003603386211522893 0.6841083322013685 0.31589166779863154 0.1573270954758307 0.8426729045241693 0.10311773000610426 0.8968822699938958 0.588757609965153 0.41124239003484697 0.3887405985711744 0.6112594014288256 0.3244631298279529 0.6755368701720471 0.9578025658680847 0.042197434131915346 0.775202742944422 0.22479725705557801 0.6560327605092997 0.3439672394907003 0.42845121989773227 0.5715487801022677 0.001905004900149526 0.9980949950998504 0.6632518382494244 0.33674816175057565 0.3767530224122805 0.6232469775877196 0.04727727416718474 0.9527227258328153 0.17051328454431394 0.8294867154556861 0.0611306875589413 0.9388693124410588 0.03811150463073185 0.9618884953692681 0.571975710935103 0.42802428906489703 0.7147979823662526 0.28520201763374753 0.8406569367013599 0.15934306329864006 0.44761575422563454 0.5523842457743654 0.7103989051902192 0.28960109480978075 0.5688651284110098 0.43113487158899017 0.8268369324718258 0.1731630675281741 0.1504925780268968 0.8495074219731032 0.6403600698543125 0.35963993014568757 0.04346565023780567 0.9565343497621943 0.560256984681826 0.43974301531817395 0.4166448598913837 0.5833551401086162 0.567768073907354 0.432231926092646 0.5671342980443428 0.43286570195565727 0.698155528008227 0.30184447199177294 0.45097712840040916 0.549022871599591 0.532027537854976 0.46797246214502397 0.6476238411785566 0.3523761588214433 0.49432365039822224 0.5056763496017778 0.5408888378732394 0.4591111621267606 0.4650563828761582 0.5349436171238416 0.7245736588590966 0.27542634114090336 0.1948078011082889 0.8051921988917111 0.238328094671772 0.7616719053282279 0.6869602722387598 0.31303972776124017 0.2665471127497031 0.7334528872502968 0.25456598469699443 0.7454340153030055 0.1564292906433604 0.8435707093566396 0.5700486043913157 0.42995139560868423 0.30851333305129236 0.6914866669487076 0.6547256263646419 0.345274373635358 0.5571336447309305 0.4428663552690694 0.4250200086796446 0.5749799913203555 0.5125628231817192 0.4874371768182808 0.7257320122451718 0.2742679877548281 0.4403748803591275 0.5596251196408725 0.33069122772765713 0.6693087722723429 0.219254800309456 0.7807451996905441 0.4772735649201128 0.5227264350798871 0.47859570318528943 0.5214042968147105 0.44410297108698177 0.5558970289130182 0.5309743532755935 0.4690256467244065 0.4726910285200111 0.5273089714799889 0.2643433378142368 0.7356566621857632 0.8644602205845715 0.13553977941542844 0.45038627636205275 0.5496137236379472 0.07213488045866069 0.9278651195413393 0.49460502442731763 0.5053949755726823 0.6061718901024362 0.39382810989756384 0.5894972588807008 0.41050274111929924 0.5624655907588317 0.4375344092411682 0.1100614114101176 0.8899385885898824 0.5196424533600525 