<?xml version='1.0' encoding='UTF-8'?>
<BIF VERSION="0.3">
  <NETWORK>
    <NAME>UNTITLED</NAME>
    <VARIABLE TYPE="nature">
      <NAME>0</NAME>
      <OUTCOME>0</OUTCOME>
      <OUTCOME>1</OUTCOME>
      <PROPERTY>weight = None</PROPERTY>
    </VARIABLE>
    <VARIABLE TYPE="nature">
      <NAME>1</NAME>
      <OUTCOME>0</OUTCOME>
      <OUTCOME>1</OUTCOME>
      <PROPERTY>weight = None</PROPERTY>
    </VARIABLE>
    <VARIABLE TYPE="nature">
      <NAME>3</NAME>
      <OUTCOME>0</OUTCOME>
      <OUTCOME>1</OUTCOME>
      <PROPERTY>weight = None</PROPERTY>
    </VARIABLE>
    <VARIABLE TYPE="nature">
      <NAME>5</NAME>
      <OUTCOME>0</OUTCOME>
      <OUTCOME>1</OUTCOME>
      <PROPERTY>weight = None</PROPERTY>
    </VARIABLE>
    <VARIABLE TYPE="nature">
      <NAME>7</NAME>
      <OUTCOME>0</OUTCOME>
      <OUTCOME>1</OUTCOME>
      <PROPERTY>weight = None</PROPERTY>
    </VARIABLE>
    <VARIABLE TYPE="nature">
      <NAME>2</NAME>
      <OUTCOME>0</OUTCOME>
      <OUTCOME>1</OUTCOME>
      <PROPERTY>weight = None</PROPERTY>
    </VARIABLE>
    <VARIABLE TYPE="nature">
      <NAME>6</NAME>
      <OUTCOME>0</OUTCOME>
      <OUTCOME>1</OUTCOME>
      <PROPERTY>weight = None</PROPERTY>
    </VARIABLE>
    <VARIABLE TYPE="nature">
      <NAME>4</NAME>
      <OUTCOME>0</OUTCOME>
      <OUTCOME>1</OUTCOME>
      <PROPERTY>weight = None</PROPERTY>
    </VARIABLE>
    <VARIABLE TYPE="nature">
      <NAME>9</NAME>
      <OUTCOME>0</OUTCOME>
      <OUTCOME>1</OUTCOME>
      <PROPERTY>weight = None</PROPERTY>
    </VARIABLE>
    <VARIABLE TYPE="nature">
      <NAME>8</NAME>
      <OUTCOME>0</OUTCOME>
      <OUTCOME>1</OUTCOME>
      <PROPERTY>weight = None</PROPERTY>
    </VARIABLE>
    <DEFINITION>
      <FOR>0</FOR>
      <TABLE>0.4499248106081268 0.5500751893918733 </TABLE>
    </DEFINITION>
    <DEFINITION>
      <FOR>1</FOR>
      <GIVEN>0</GIVEN>
      <TABLE>0.37978740164334096 0.6202125983566591 0.2206142897611125 0.7793857102388875 </TABLE>
    </DEFINITION>
    <DEFINITION>
      <FOR>2</FOR>
      <GIVEN>1</GIVEN>
      <TABLE>0.40286148815854145 0.5971385118414586 0.054069673078767366 0.9459303269212326 </TABLE>
    </DEFINITION>
    <DEFINITION>
      <FOR>3</FOR>
      <GIVEN>0</GIVEN>
      <GIVEN>1</GIVEN>
      <TABLE>0.9667294143747764 0.03327058562522359 0.4391223055672596 0.5608776944327404 0.5345265916755784 0.4654734083244216 0.49609457375447025 0.5039054262455297 </TABLE>
    </DEFINITION>
    <DEFINITION>
      <FOR>4</FOR>
      <GIVEN>3</GIVEN>
      <GIVEN>2</GIVEN>
      <TABLE>0.47163623163511226 0.5283637683648877 0.5498394562492286 0.4501605437507713 0.934432421176168 0.06556757882383202 0.6433858629795969 0.3566141370204032 </TABLE>
    </DEFINITION>
    <DEFINITION>
      <FOR>5</FOR>
      <GIVEN>0</GIVEN>
      <GIVEN>3</GIVEN>
      <GIVEN>4</GIVEN>
      <TABLE>0.980496195944167 0.01950380405583298 0.6258958628751634 0.3741041371248366 0.8430071193659577 0.15699288063404243 0.6098996419778215 0.39010035802217835 0.5999990289922875 0.4000009710077125 0.8039196730459625 0.19608032695403754 0.32491656149863124 0.6750834385013689 0.4488050762294837 0.5511949237705164 </TABLE>
    </DEFINITION>
    <DEFINITION>
      <FOR>6</FOR>
      <GIVEN>1</GIVEN>
      <GIVEN>3</GIVEN>
      <GIVEN>5</GIVEN>
      <TABLE>0.11402674972288056 0.8859732502771196 0.12836556332622218 0.8716344366737778 0.6570264701693991 0.342973529830601 0.5058641000646317 0.49413589993536816 0.7449316667636386 0.25506833323636136 0.7622310244738458 0.23776897552615417 0.004249829416630532 0.9957501705833695 0.47472757513786473 0.5252724248621352 </TABLE>
    </DEFINITION>
    <DEFINITION>
      <FOR>7</FOR>
      <GIVEN>0</GIVEN>
      <GIVEN>3</GIVEN>
      <GIVEN>5</GIVEN>
      <TABLE>0.21809491403377548 0.7819050859662245 0.4674182007429906 0.5325817992570094 0.8174758265870659 0.18252417341293417 0.5383343526195646 0.46166564738043536 0.344574241956329 0.655425758043671 0.49545058473587 0.50454941526413 0.5877061134834699 0.4122938865165302 0.24991372905091253 0.7500862709490874 </TABLE>
    </DEFINITION>
    <DEFINITION>
      <FOR>8</FOR>
      <GIVEN>5</GIVEN>
      <GIVEN>7</GIVEN>
      <GIVEN>2</GIVEN>
      <TABLE>0.5768480277545471 0.4231519722454529 0.714072497459035 0.28592750254096505 0.6059779753174566 0.3940220246825435 0.35844809935295496 0.6415519006470449 0.07541738334614478 0.9245826166538552 0.9672258918884162 0.03277410811158375 0.9009528040923835 0.09904719590761649 0.9566592017092072 0.043340798290792806 </TABLE>
    </DEFINITION>
    <DEFINITION>
      <FOR>9</FOR>
      <GIVEN>3</GIVEN>
      <GIVEN>5</GIVEN>
      <GIVEN>2</GIVEN>
      <GIVEN>6</GIVEN>
      <GIVEN>4</GIVEN>
      <GIVEN>8</GIVEN>
      <TABLE>0.6037373179478601 0.3962626820521399 0.4492264653704766 0.5507735346295234 0.3720792531186425 0.6279207468813575 0.6172324296888034 0.3827675703111967 0.2372528084131735 0.7627471915868265 0.4226471221631568 0.5773528778368433 0.4366986432930245 0.5633013567069756 0.5159138084969649 0.4840861915030351 0.731353749782501 0.26864625021749894 0.5332525967242813 0.46674740327571873 0.8539652457745394 0.1460347542254606 0.1461220126262205 0.8538779873737795 0.5710439067680375 0.4289560932319625 0.45662710811975543 0.5433728918802446 0.5118396690887842 0.4881603309112159 0.44041245892029246 0.5595875410797077 0.8872435427648 0.11275645723519995 0.957747439152848 0.04225256084715202 0.3000861122711886 0.6999138877288115 0.013031197860099342 0.9869688021399007 0.6294641763391426 0.3705358236608573 0.2766127616441888 0.7233872383558112 0.9776781690029294 0.02232183099707065 0.590288445292045 0.40971155470795495 0.4697884308412353 0.5302115691587648 0.6831270041067222 0.31687299589327783 0.28295041587553327 0.7170495841244667 0.49861196623000054 0.5013880337699994 0.23702179513174274 0.7629782048682573 0.7851398543770185 0.21486014562298147 0.7083381449209495 0.29166185507905057 0.15843668782175582 0.8415633121782442 0.7924663324578494 0.2075336675421506 0.8126115805920502 0.18738841940794973 0.3922389164729771 0.6077610835270228 0.11433963236837101 0.8856603676316291 0.2335169545587304 0.7664830454412697 0.65180858007416 0.3481914199258401 0.34006698776686733 0.6599330122331327 0.738935158793859 0.26106484120614104 0.8849867960520417 0.11501320394795833 0.23932465179531726 0.7606753482046827 0.46540809185421544 0.5345919081457846 0.4825981006636049 0.5174018993363951 0.7116718434929277 0.2883281565070724 0.6724605387460864 0.32753946125391364 0.08846067757855294 0.9115393224214471 0.7070063787711889 0.2929936212288111 0.5780103874267856 0.42198961257321443 0.5596216315876834 0.4403783684123166 0.7552804095740061 0.24471959042599392 0.7774885193001304 0.2225114806998697 0.1571060786814956 0.8428939213185044 0.2563911044185265 0.7436088955814735 0.917359523771982 0.08264047622801796 0.2588079231095279 0.7411920768904721 0.6963459890041893 0.3036540109958107 0.4952454132082097 0.5047545867917903 0.013625586995996641 0.9863744130040034 0.4373975085354014 0.5626024914645986 0.847421130007943 0.15257886999205703 0.6324779209571784 0.36752207904282164 0.11115471672070312 0.8888452832792969 0.6547301266254768 0.34526987337452325 </TABLE>
    </DEFINITION>
  </NETWORK>
</BIF>
