<?xml version='1.0' encoding='UTF-8'?>
<BIF VERSION="0.3">
  <NETWORK>
    <NAME>UNTITLED</NAME>
    <VARIABLE TYPE="nature">
      <NAME>0</NAME>
      <OUTCOME>0</OUTCOME>
      <OUTCOME>1</OUTCOME>
      <PROPERTY>weight = None</PROPERTY>
    </VARIABLE>
    <VARIABLE TYPE="nature">
      <NAME>1</NAME>
      <OUTCOME>0</OUTCOME>
      <OUTCOME>1</OUTCOME>
      <PROPERTY>weight = None</PROPERTY>
    </VARIABLE>
    <VARIABLE TYPE="nature">
      <NAME>4</NAME>
      <OUTCOME>0</OUTCOME>
      <OUTCOME>1</OUTCOME>
      <PROPERTY>weight = None</PROPERTY>
    </VARIABLE>
    <VARIABLE TYPE="nature">
      <NAME>2</NAME>
      <OUTCOME>0</OUTCOME>
      <OUTCOME>1</OUTCOME>
      <PROPERTY>weight = None</PROPERTY>
    </VARIABLE>
    <VARIABLE TYPE="nature">
      <NAME>3</NAME>
      <OUTCOME>0</OUTCOME>
      <OUTCOME>1</OUTCOME>
      <PROPERTY>weight = None</PROPERTY>
    </VARIABLE>
    <DEFINITION>
      <FOR>0</FOR>
      <TABLE>0.5010489814108138 0.4989510185891862 </TABLE>
    </DEFINITION>
    <DEFINITION>
      <FOR>1</FOR>
      <GIVEN>0</GIVEN>
      <TABLE>0.2869345652046862 0.7130654347953138 0.07681201214381718 0.9231879878561828 </TABLE>
    </DEFINITION>
    <DEFINITION>
      <FOR>2</FOR>
      <GIVEN>1</GIVEN>
      <TABLE>0.296030732733662 0.703969267266338 0.08241527059102653 0.9175847294089735 </TABLE>
    </DEFINITION>
    <DEFINITION>
      <FOR>3</FOR>
      <GIVEN>2</GIVEN>
      <TABLE>0.846092385628829 0.153907614371171 0.4863393174806588 0.5136606825193413 </TABLE>
    </DEFINITION>
    <DEFINITION>
      <FOR>4</FOR>
      <GIVEN>0</GIVEN>
      <GIVEN>1</GIVEN>
      <GIVEN>2</GIVEN>
      <GIVEN>3</GIVEN>
      <TABLE>0.6726272268795032 0.3273727731204968 0.11679024619748227 0.8832097538025178 0.38767418283167016 0.6123258171683298 0.09250124124387052 0.9074987587561295 0.4398235863248309 0.5601764136751691 0.7209425163292935 0.27905748367070654 0.705081028440408 0.2949189715595922 0.31763854586419465 0.6823614541358052 0.2853299780016656 0.7146700219983344 0.36696338693059477 0.6330366130694052 0.45576265142066397 0.544237348579336 0.5024895458353659 0.497510454164634 0.38541496366125433 0.6145850363387456 0.7314513744691002 0.2685486255308998 0.03612561522640469 0.9638743847735954 0.512653133241175 0.487346866758825 </TABLE>
    </DEFINITION>
  </NETWORK>
</BIF>
