<?xml version='1.0' encoding='UTF-8'?>
<BIF VERSION="0.3">
  <NETWORK>
    <NAME>UNTITLED</NAME>
    <VARIABLE TYPE="nature">
      <NAME>0</NAME>
      <OUTCOME>0</OUTCOME>
      <OUTCOME>1</OUTCOME>
      <PROPERTY>weight = None</PROPERTY>
    </VARIABLE>
    <VARIABLE TYPE="nature">
      <NAME>4</NAME>
      <OUTCOME>0</OUTCOME>
      <OUTCOME>1</OUTCOME>
      <PROPERTY>weight = None</PROPERTY>
    </VARIABLE>
    <VARIABLE TYPE="nature">
      <NAME>6</NAME>
      <OUTCOME>0</OUTCOME>
      <OUTCOME>1</OUTCOME>
      <PROPERTY>weight = None</PROPERTY>
    </VARIABLE>
    <VARIABLE TYPE="nature">
      <NAME>8</NAME>
      <OUTCOME>0</OUTCOME>
      <OUTCOME>1</OUTCOME>
      <PROPERTY>weight = None</PROPERTY>
    </VARIABLE>
    <VARIABLE TYPE="nature">
      <NAME>13</NAME>
      <OUTCOME>0</OUTCOME>
      <OUTCOME>1</OUTCOME>
      <PROPERTY>weight = None</PROPERTY>
    </VARIABLE>
    <VARIABLE TYPE="nature">
      <NAME>14</NAME>
      <OUTCOME>0</OUTCOME>
      <OUTCOME>1</OUTCOME>
      <PROPERTY>weight = None</PROPERTY>
    </VARIABLE>
    <VARIABLE TYPE="nature">
      <NAME>15</NAME>
      <OUTCOME>0</OUTCOME>
      <OUTCOME>1</OUTCOME>
      <PROPERTY>weight = None</PROPERTY>
    </VARIABLE>
    <VARIABLE TYPE="nature">
      <NAME>16</NAME>
      <OUTCOME>0</OUTCOME>
      <OUTCOME>1</OUTCOME>
      <PROPERTY>weight = None</PROPERTY>
    </VARIABLE>
    <VARIABLE TYPE="nature">
      <NAME>17</NAME>
      <OUTCOME>0</OUTCOME>
      <OUTCOME>1</OUTCOME>
      <PROPERTY>weight = None</PROPERTY>
    </VARIABLE>
    <VARIABLE TYPE="nature">
      <NAME>18</NAME>
      <OUTCOME>0</OUTCOME>
      <OUTCOME>1</OUTCOME>
      <PROPERTY>weight = None</PROPERTY>
    </VARIABLE>
    <VARIABLE TYPE="nature">
      <NAME>19</NAME>
      <OUTCOME>0</OUTCOME>
      <OUTCOME>1</OUTCOME>
      <PROPERTY>weight = None</PROPERTY>
    </VARIABLE>
    <VARIABLE TYPE="nature">
      <NAME>7</NAME>
      <OUTCOME>0</OUTCOME>
      <OUTCOME>1</OUTCOME>
      <PROPERTY>weight = None</PROPERTY>
    </VARIABLE>
    <VARIABLE TYPE="nature">
      <NAME>9</NAME>
      <OUTCOME>0</OUTCOME>
      <OUTCOME>1</OUTCOME>
      <PROPERTY>weight = None</PROPERTY>
    </VARIABLE>
    <VARIABLE TYPE="nature">
      <NAME>10</NAME>
      <OUTCOME>0</OUTCOME>
      <OUTCOME>1</OUTCOME>
      <PROPERTY>weight = None</PROPERTY>
    </VARIABLE>
    <VARIABLE TYPE="nature">
      <NAME>11</NAME>
      <OUTCOME>0</OUTCOME>
      <OUTCOME>1</OUTCOME>
      <PROPERTY>weight = None</PROPERTY>
    </VARIABLE>
    <VARIABLE TYPE="nature">
      <NAME>12</NAME>
      <OUTCOME>0</OUTCOME>
      <OUTCOME>1</OUTCOME>
      <PROPERTY>weight = None</PROPERTY>
    </VARIABLE>
    <VARIABLE TYPE="nature">
      <NAME>1</NAME>
      <OUTCOME>0</OUTCOME>
      <OUTCOME>1</OUTCOME>
      <PROPERTY>weight = None</PROPERTY>
    </VARIABLE>
    <VARIABLE TYPE="nature">
      <NAME>2</NAME>
      <OUTCOME>0</OUTCOME>
      <OUTCOME>1</OUTCOME>
      <PROPERTY>weight = None</PROPERTY>
    </VARIABLE>
    <VARIABLE TYPE="nature">
      <NAME>5</NAME>
      <OUTCOME>0</OUTCOME>
      <OUTCOME>1</OUTCOME>
      <PROPERTY>weight = None</PROPERTY>
    </VARIABLE>
    <VARIABLE TYPE="nature">
      <NAME>3</NAME>
      <OUTCOME>0</OUTCOME>
      <OUTCOME>1</OUTCOME>
      <PROPERTY>weight = None</PROPERTY>
    </VARIABLE>
    <DEFINITION>
      <FOR>0</FOR>
      <TABLE>0.3330928106222248 0.6669071893777752 </TABLE>
    </DEFINITION>
    <DEFINITION>
      <FOR>1</FOR>
      <TABLE>0.39079017007495653 0.6092098299250435 </TABLE>
    </DEFINITION>
    <DEFINITION>
      <FOR>2</FOR>
      <GIVEN>1</GIVEN>
      <TABLE>0.3938099985398291 0.6061900014601709 0.4742430012066463 0.5257569987933537 </TABLE>
    </DEFINITION>
    <DEFINITION>
      <FOR>3</FOR>
      <GIVEN>2</GIVEN>
      <TABLE>0.5596861059231701 0.44031389407683 0.5957314391235173 0.40426856087648266 </TABLE>
    </DEFINITION>
    <DEFINITION>
      <FOR>4</FOR>
      <GIVEN>0</GIVEN>
      <GIVEN>1</GIVEN>
      <GIVEN>3</GIVEN>
      <TABLE>0.8702830746171814 0.1297169253828187 0.9911883388949857 0.008811661105014287 0.0772189082497133 0.9227810917502867 0.5879648349909459 0.4120351650090541 0.2356291176998492 0.7643708823001508 0.9116739602782247 0.0883260397217753 0.5346335060265348 0.46536649397346525 0.25137927606924015 0.7486207239307598 </TABLE>
    </DEFINITION>
    <DEFINITION>
      <FOR>5</FOR>
      <GIVEN>1</GIVEN>
      <GIVEN>2</GIVEN>
      <GIVEN>3</GIVEN>
      <TABLE>0.27111915796708325 0.7288808420329168 0.4583945287075885 0.5416054712924114 0.665971967868505 0.334028032131495 0.18319951407484605 0.816800485925154 0.987651681046059 0.01234831895394092 0.5059171470508326 0.4940828529491674 0.17062351345047652 0.8293764865495235 0.5098217034757072 0.49017829652429273 </TABLE>
    </DEFINITION>
    <DEFINITION>
      <FOR>6</FOR>
      <GIVEN>0</GIVEN>
      <GIVEN>1</GIVEN>
      <GIVEN>2</GIVEN>
      <TABLE>0.7428990956014021 0.2571009043985978 0.33185674799830045 0.6681432520016996 0.49302252785914735 0.5069774721408525 0.48289463142838585 0.5171053685716142 0.9582053718963056 0.041794628103694415 0.2955786338498763 0.7044213661501237 0.5657155192284582 0.4342844807715418 0.46925734759200743 0.5307426524079926 </TABLE>
    </DEFINITION>
    <DEFINITION>
      <FOR>7</FOR>
      <GIVEN>4</GIVEN>
      <GIVEN>2</GIVEN>
      <GIVEN>3</GIVEN>
      <TABLE>0.6948235502145895 0.3051764497854105 0.6193727734211367 0.3806272265788633 0.51743811647134 0.48256188352866 0.5417341167993198 0.45826588320068024 0.7125018160148624 0.2874981839851376 0.09832927590822567 0.9016707240917743 0.18827236173643822 0.8117276382635618 0.21131574844854786 0.7886842515514522 </TABLE>
    </DEFINITION>
    <DEFINITION>
      <FOR>8</FOR>
      <GIVEN>0</GIVEN>
      <GIVEN>1</GIVEN>
      <GIVEN>5</GIVEN>
      <GIVEN>3</GIVEN>
      <TABLE>0.5214452526261477 0.4785547473738523 0.6577740898871728 0.3422259101128274 0.32611888206126544 0.6738811179387346 0.6630056309399485 0.33699436906005165 0.620122109660086 0.37987789033991404 0.09595717311128774 0.9040428268887123 0.7209090483707021 0.2790909516292979 0.5506635605838357 0.44933643941616425 0.29863735437763317 0.7013626456223668 0.3937631264519067 0.6062368735480933 0.4589716755237104 0.5410283244762896 0.3116468551342955 0.6883531448657045 0.07757714678068366 0.9224228532193164 0.8268320997619553 0.1731679002380447 0.20160782516154266 0.7983921748384574 0.07504610961454761 0.9249538903854524 </TABLE>
    </DEFINITION>
    <DEFINITION>
      <FOR>9</FOR>
      <GIVEN>4</GIVEN>
      <GIVEN>8</GIVEN>
      <GIVEN>1</GIVEN>
      <GIVEN>2</GIVEN>
      <GIVEN>3</GIVEN>
      <GIVEN>7</GIVEN>
      <TABLE>0.6021968629017257 0.3978031370982743 0.5562365840360058 0.44376341596399416 0.6723988268784664 0.3276011731215336 0.6428428967682788 0.35715710323172134 0.6817291118947023 0.31827088810529774 0.5571080304953319 0.442891969504668 0.7582497013245174 0.24175029867548248 0.5043804145285635 0.49561958547143653 0.266185805561492 0.7338141944385079 0.4159761301922259 0.5840238698077741 0.5559564111032789 0.4440435888967212 0.15759967102348643 0.8424003289765135 0.6801180662477347 0.31988193375226526 0.4331118602173634 0.5668881397826366 0.509752134476996 0.490247865523004 0.36004379362606415 0.6399562063739359 0.47712797673154234 0.5228720232684576 0.2092080539974505 0.7907919460025495 0.4635960362056582 0.5364039637943417 0.43897627489634267 0.5610237251036574 0.507275958884163 0.492724041115837 0.5592296637234062 0.4407703362765939 0.31706812931585887 0.6829318706841411 0.4150310054593732 0.5849689945406269 0.5188800711284358 0.48111992887156424 0.611583979315808 0.388416020684192 0.8012895190915402 0.19871048090845977 0.7832617501749024 0.21673824982509768 0.5099947944098202 0.4900052055901798 0.4232716895028035 0.5767283104971964 0.32140515014376836 0.6785948498562318 0.26323576919654423 0.7367642308034558 0.9966776729210659 0.0033223270789341005 0.2799244860068497 0.7200755139931503 0.5838404755184273 0.4161595244815728 0.7638866278447802 0.23611337215521977 0.41440256974934747 0.5855974302506526 0.8731989775820234 0.12680102241797667 0.9340519177895507 0.06594808221044934 0.11100820571863076 0.8889917942813692 0.08605318372495856 0.9139468162750415 0.1342599622220623 0.8657400377779377 0.40655945166655366 0.5934405483334464 0.9504137798280405 0.04958622017195941 0.007789993711650531 0.9922100062883494 0.35367127359862577 0.6463287264013742 0.8220538113192573 0.17794618868074275 0.14077780720411587 0.8592221927958842 0.5398100010939558 0.4601899989060442 0.30013981460735006 0.6998601853926499 0.7929594945873178 0.20704050541268215 0.10708469605761572 0.8929153039423843 0.4718391177026846 0.5281608822973154 0.13232876352359266 0.8676712364764073 0.8333491513584396 0.1666508486415605 0.4514595052664408 0.5485404947335591 0.7689021293327376 0.23109787066726242 0.33842285088106944 0.6615771491189306 0.5279216198724014 0.4720783801275986 0.6842606022185788 0.31573939778142135 0.5005504598987915 0.4994495401012085 0.3708834484268094 0.6291165515731906 0.9229853903619394 0.0770146096380606 0.3567125344514294 0.6432874655485706 </TABLE>
    </DEFINITION>
    <DEFINITION>
      <FOR>10</FOR>
      <GIVEN>4</GIVEN>
      <GIVEN>5</GIVEN>
      <GIVEN>9</GIVEN>
      <GIVEN>3</GIVEN>
      <GIVEN>7</GIVEN>
      <TABLE>0.166851488769384 0.8331485112306161 0.767512343609884 0.232487656390116 0.7262879524062322 0.27371204759376777 0.7963887481809616 0.20361125181903833 0.5960276879074846 0.40397231209251544 0.5561331800163866 0.4438668199836135 0.634227554788449 0.365772445211551 0.2843284381039022 0.7156715618960977 0.5995477968047487 0.40045220319525127 0.5888936581283082 0.41110634187169176 0.5123962223252956 0.4876037776747044 0.9323899563569127 0.06761004364308729 0.4984574118906012 0.5015425881093987 0.16540838953359904 0.8345916104664008 0.47196561765007194 0.528034382349928 0.41906145050294813 0.5809385494970518 0.4902170991087438 0.5097829008912562 0.6296076363494709 0.37039236365052897 0.44213895568238654 0.5578610443176135 0.032466175483207224 0.9675338245167928 0.4582941174677407 0.5417058825322593 0.8753023269100648 0.12469767308993517 0.2611577594998322 0.7388422405001679 0.515553352047899 0.48444664795210096 0.5853638620235759 0.414636137976424 0.15933511559079516 0.8406648844092048 0.4037273537845411 0.596272646215459 0.5727989787169594 0.42720102128304066 0.7988093005114035 0.20119069948859652 0.5065953327490843 0.49340466725091564 0.2425424331548982 0.7574575668451018 0.5917288219222804 0.40827117807771973 </TABLE>
    </DEFINITION>
    <DEFINITION>
      <FOR>11</FOR>
      <GIVEN>6</GIVEN>
      <GIVEN>1</GIVEN>
      <GIVEN>9</GIVEN>
      <GIVEN>3</GIVEN>
      <TABLE>0.9153531232102935 0.08464687678970653 0.5586691158339324 0.4413308841660676 0.030564128504481907 0.9694358714955181 0.2581158491608533 0.7418841508391467 0.9146087185112652 0.08539128148873475 0.6266534878443166 0.3733465121556833 0.9168531140227165 0.08314688597728342 0.32058612040798823 0.6794138795920118 0.6662514699103665 0.33374853008963346 0.8406825578157086 0.15931744218429142 0.4183628791559378 0.5816371208440622 0.7065827701830283 0.29341722981697177 0.42249561854639306 0.577504381453607 0.5905301455095711 0.409469854490429 0.35810303939317273 0.6418969606068273 0.05937687067618428 0.9406231293238158 </TABLE>
    </DEFINITION>
    <DEFINITION>
      <FOR>12</FOR>
      <GIVEN>8</GIVEN>
      <GIVEN>2</GIVEN>
      <GIVEN>3</GIVEN>
      <GIVEN>10</GIVEN>
      <TABLE>0.9682494136061217 0.03175058639387834 0.6219376269413126 0.37806237305868734 0.9050938945623096 0.09490610543769043 0.5066683072333459 0.4933316927666541 0.4840921332845437 0.5159078667154563 0.636994022103241 0.36300597789675904 0.34586955239729916 0.6541304476027008 0.5439902273320001 0.45600977266799986 0.08474366334035847 0.9152563366596416 0.4135079212664349 0.5864920787335651 0.6017127478537353 0.39828725214626465 0.4171254957184168 0.5828745042815832 0.3468080788413534 0.6531919211586465 0.621736200155821 0.3782637998441789 0.006741307621464784 0.9932586923785353 0.3363170183947157 0.6636829816052844 </TABLE>
    </DEFINITION>
    <DEFINITION>
      <FOR>13</FOR>
      <GIVEN>0</GIVEN>
      <GIVEN>4</GIVEN>
      <GIVEN>6</GIVEN>
      <GIVEN>1</GIVEN>
      <GIVEN>2</GIVEN>
      <GIVEN>9</GIVEN>
      <GIVEN>11</GIVEN>
      <GIVEN>10</GIVEN>
      <TABLE>0.6823942115481785 0.3176057884518214 0.3912464085228774 0.6087535914771227 0.39682558123258765 0.6031744187674123 0.7992134066369982 0.20078659336300173 0.7374220148400272 0.26257798515997277 0.16085582651279037 0.8391441734872096 0.41268311703318544 0.5873168829668146 0.5112473203549637 0.4887526796450364 0.7014701609520269 0.29852983904797314 0.6589320806549223 0.34106791934507774 0.6383407722771892 0.3616592277228107 0.4423808125701779 0.5576191874298221 0.5150587963404202 0.4849412036595798 0.7710341095638235 0.22896589043617652 0.44782697759855805 0.552173022401442 0.3915473244476827 0.6084526755523174 0.3769203398358065 0.6230796601641935 0.0021613052825932904 0.9978386947174067 0.1751620163189838 0.8248379836810161 0.369725394624761 0.630274605375239 0.6481358702988619 0.3518641297011381 0.32024752668762985 0.6797524733123701 0.43742061414587446 0.5625793858541255 0.1323628516453945 0.8676371483546055 0.6238429372318304 0.3761570627681697 0.42102391541763223 0.5789760845823677 0.6911408601977644 0.3088591398022355 0.1009079305825225 0.8990920694174775 0.533256098736223 0.46674390126377696 0.7689401072281379 0.23105989277186206 0.8555935024542202 0.1444064975457798 0.4050472117213672 0.5949527882786327 0.22716563780197224 0.7728343621980278 0.3766782099519537 0.6233217900480462 0.5413130188779884 0.4586869811220115 0.7283440206916855 0.2716559793083145 0.7025129480858955 0.2974870519141045 0.5129908458436945 0.48700915415630547 0.023417563943766075 0.976582436056234 0.7427757066280527 0.25722429337194735 0.2583090389562857 0.7416909610437143 0.17631347770936728 0.8236865222906328 0.805713452716696 0.19428654728330397 0.8235842530536162 0.1764157469463838 0.6067353850731414 0.3932646149268586 0.42859816542678997 0.57140183457321 0.35986165048820146 0.6401383495117985 0.4395121905327961 0.5604878094672038 0.4250488051952597 0.5749511948047403 0.3893729258772203 0.6106270741227797 0.4876754688266047 0.5123245311733954 0.4797022920259258 0.5202977079740742 0.5700095583125403 0.4299904416874597 0.3469414994600226 0.6530585005399774 0.42750943300723404 0.5724905669927659 0.2629222870487638 0.7370777129512361 0.2713343423567666 0.7286656576432334 0.14360420351339473 0.8563957964866052 0.21709722221097996 0.7829027777890202 0.4363815066945629 0.5636184933054371 0.6230871809071086 0.37691281909289137 0.27673110264996303 0.723268897350037 0.44702329064123303 0.552976709358767 0.5173423016838232 0.4826576983161768 0.3878777309330023 0.6121222690669977 0.5407995505642963 0.45920044943570376 0.05260454835213905 0.947395451647861 0.538068259450769 0.46193174054923103 0.4624131474167515 0.5375868525832486 0.441952723309758 0.558047276690242 0.9456911378788266 0.05430886212117332 0.8892702492455813 0.11072975075441872 0.03477122095343748 0.9652287790465626 0.410261762945257 0.5897382370547429 0.30954004078708514 0.6904599592129149 0.521631641213082 0.47836835878691797 0.4496844868247637 0.5503155131752363 0.35940654565274543 0.6405934543472546 0.3302964381899209 0.6697035618100792 0.8243471291529606 0.17565287084703934 0.30600274462295357 0.6939972553770465 0.2665122207100055 0.7334877792899945 0.41931063000587454 0.5806893699941255 0.14090558274439713 0.8590944172556029 0.8164874871985722 0.18351251280142775 0.501248831589629 0.498751168410371 0.9304357769546727 0.0695642230453273 0.7180663629821009 0.28193363701789914 0.1712919274435288 0.8287080725564712 0.2785143249236555 0.7214856750763446 0.5306240593740786 0.4693759406259212 0.2593248328606031 0.740675167139397 0.35023877171064155 0.6497612282893585 0.7977042121430503 0.20229578785694965 0.4043085388059871 0.595691461194013 0.2448576832649962 0.7551423167350038 0.5212973295531704 0.4787026704468296 0.5715586601103555 0.42844133988964445 0.5976863741111231 0.40231362588887687 0.8469932746857465 0.15300672531425347 0.8824942954575283 0.11750570454247164 0.2781842513850733 0.7218157486149267 0.36332627968969283 0.6366737203103072 0.5036395801042286 0.49636041989577145 0.703574519326447 0.2964254806735529 0.9613658392737601 0.038634160726239944 0.7281115332105621 0.271888466789438 0.5334045787047047 0.46659542129529535 0.8506541875785036 0.1493458124214964 0.4572656723464509 0.5427343276535491 0.2529311058464256 0.7470688941535744 0.221192537246218 0.778807462753782 0.9840870657818804 0.015912934218119578 0.6885273164474587 0.3114726835525413 0.6599178686689826 0.34008213133101745 0.4374280912281191 0.5625719087718809 0.167914307951833 0.832085692048167 0.4949019489470074 0.5050980510529925 0.6547505723884955 0.3452494276115045 0.6076546211828494 0.39234537881715054 0.6650854373132904 0.33491456268670955 0.9222326158152508 0.07776738418474918 0.7358392732523092 0.2641607267476908 0.9328410058629004 0.06715899413709964 0.5112217952621796 0.4887782047378204 0.40627210263558805 0.5937278973644119 0.48814318270226853 0.5118568172977315 0.4898329772637483 0.5101670227362517 0.4226379793651888 0.577362020634811 0.5466145307901742 0.4533854692098257 0.8623292843759501 0.13767071562404984 0.4155585325374311 0.584441467462569 0.4866441541561009 0.5133558458438989 0.4509477938861155 0.5490522061138845 0.2988459388084204 0.7011540611915795 0.04125345713989873 0.9587465428601013 0.6192869543050663 0.38071304569493364 0.6704995078046345 0.32950049219536554 0.24155880576937444 0.7584411942306255 0.8590294167542516 0.14097058324574843 0.5887051522117165 0.41129484778828346 0.7116007258755537 0.2883992741244463 0.05485756948273556 0.9451424305172644 0.6649475721226673 0.3350524278773327 0.5480270626884121 0.45197293731158783 0.9727026936784651 0.027297306321534924 0.3025977386371664 0.6974022613628336 0.4021118955316094 0.5978881044683906 0.2357186565575519 0.7642813434424481 0.4586728196905222 0.5413271803094778 0.5057761983612067 0.4942238016387932 0.5723141764051987 0.42768582359480123 0.23483558047817502 0.765164419521825 0.2667425922826483 0.7332574077173517 0.16531396580347826 0.8346860341965218 0.47115420874915065 0.5288457912508494 0.3261120756858237 0.6738879243141763 0.28204049198189857 0.7179595080181014 0.41119557115342764 0.5888044288465724 0.6105148472203019 0.38948515277969803 0.38378356038143757 0.6162164396185624 0.5947059668666147 0.40529403313338536 0.39870134418985337 0.6012986558101466 0.6338749518916349 0.36612504810836505 0.45051026754566326 0.5494897324543367 0.9296812352479509 0.07031876475204912 0.4423926952530228 0.5576073047469772 0.6146662853018922 0.3853337146981078 0.7711689758457507 0.22883102415424922 0.34696130291144106 0.653038697088559 0.32695198505892675 0.6730480149410732 0.4916137474048664 0.5083862525951335 0.912515583662461 0.08748441633753898 0.13304276126041914 0.8669572387395809 0.16936253913313445 0.8306374608668654 0.718687102073502 0.28131289792649805 0.5636511786298104 0.43634882137018954 0.5108974855752398 0.4891025144247601 0.33090434064220053 0.6690956593577995 0.0981445109482438 0.9018554890517562 0.3323547983397673 0.6676452016602327 0.32251174172711233 0.6774882582728876 0.45179342007412826 0.5482065799258717 0.7322259552354273 0.26777404476457267 0.3308995268386708 0.6691004731613293 0.02733730706404582 0.9726626929359542 0.3102076587328846 0.6897923412671154 0.13124642608172796 0.868753573918272 0.9306796343504201 0.06932036564957987 0.034540899685528856 0.9654591003144711 0.5614506866368367 0.4385493133631633 0.6240275512117646 0.3759724487882354 0.5986767173182113 0.40132328268178874 0.7410361983711197 0.25896380162888033 0.6822728331032418 0.31772716689675823 0.5697446818797379 0.4302553181202621 0.7772388455658868 0.22276115443411307 0.3297127440810778 0.6702872559189222 0.5321263347231215 0.4678736652768785 0.5412084755765234 0.4587915244234766 0.5087671457463437 0.49123285425365626 0.28542489159308904 0.714575108406911 0.11107305968333611 0.8889269403166639 0.8958962862128995 0.10410371378710047 0.19224472215710067 0.8077552778428994 0.23690353981297174 0.7630964601870283 0.42860834071969944 0.5713916592803006 0.9683150317174766 0.03168496828252338 0.5586669281337149 0.4413330718662851 0.6702055770825104 0.3297944229174896 0.46747901531888086 0.5325209846811191 0.6532803246531035 0.3467196753468966 0.6887679601662295 0.31123203983377046 0.5513469471338784 0.4486530528661215 0.014031748251896159 0.9859682517481039 0.7122328812231146 0.28776711877688543 0.5330619745297176 0.4669380254702824 0.40140715071743854 0.5985928492825616 0.5595573909585156 0.44044260904148436 0.6251440994777847 0.37485590052221524 0.14391932601926585 0.8560806739807342 0.631937862979614 0.3680621370203861 0.42759058608306294 0.572409413916937 0.9016788650514784 0.09832113494852161 0.24286304133785572 0.7571369586621443 0.5700039948610358 0.4299960051389643 0.30141060778408285 0.6985893922159171 0.5402851295170106 0.4597148704829894 0.5170925924239582 0.4829074075760417 0.6878540448316972 0.3121459551683028 0.9709110852352685 0.02908891476473156 0.34282904857629737 0.6571709514237027 0.6376694014524178 0.36233059854758215 0.5779617786775606 0.42203822132243946 0.7013253912300539 0.29867460876994606 0.0031368280698912446 0.9968631719301088 0.1964754138133943 0.8035245861866057 0.5261948244068327 0.4738051755931672 0.35792154996327363 0.6420784500367264 0.7143032801720417 0.28569671982795825 0.5975548518314183 0.40244514816858157 0.5573093739353052 0.4426906260646948 0.2512273875944128 0.7487726124055871 0.4409016610156678 0.5590983389843321 0.022013558827633225 0.9779864411723668 0.33997194252367463 0.6600280574763254 0.3483949274651039 0.6516050725348961 0.4547547158068643 0.5452452841931358 0.5069312003099465 0.49306879969005346 0.4755075830631962 0.5244924169368038 0.4965159833551357 0.5034840166448642 0.7382428523356318 0.2617571476643682 0.6841166280721951 0.315883371927805 0.16214958732592896 0.8378504126740709 0.8676172386766762 0.13238276132332388 0.48246700483646526 0.5175329951635347 </TABLE>
    </DEFINITION>
    <DEFINITION>
      <FOR>14</FOR>
      <GIVEN>0</GIVEN>
      <GIVEN>4</GIVEN>
      <GIVEN>8</GIVEN>
      <GIVEN>13</GIVEN>
      <GIVEN>2</GIVEN>
      <GIVEN>3</GIVEN>
      <GIVEN>10</GIVEN>
      <TABLE>0.1146452115611374 0.8853547884388626 0.6896212192607989 0.3103787807392012 0.35521172606111484 0.6447882739388852 0.9999205111241726 7.948887582747436e-05 0.8239980951901164 0.17600190480988367 0.4053808499693522 0.5946191500306477 0.6710354510167885 0.32896454898321154 0.5211221381045795 0.47887786189542053 0.48523790559177066 0.5147620944082293 0.8814539131057605 0.11854608689423948 0.4973055122810221 0.5026944877189778 0.8931340522193805 0.10686594778061959 0.035202815592127144 0.9647971844078728 0.7217261083247746 0.27827389167522537 0.6491517217173942 0.3508482782826057 0.09376375636253764 0.9062362436374624 0.7997456313081778 0.20025436869182223 0.9543783661486313 0.04562163385136869 0.4001221720792993 0.5998778279207008 0.8070723817436577 0.1929276182563423 0.3531034348103612 0.6468965651896389 0.0944357443854941 0.9055642556145058 0.8469933459122747 0.1530066540877253 0.491619138707134 0.5083808612928661 0.6285099304435594 0.3714900695564406 0.19726515285806437 0.8027348471419355 0.07739257257401838 0.9226074274259816 0.5625110199697132 0.43748898003028674 0.4510132505316167 0.5489867494683833 0.7949437687044868 0.20505623129551329 0.45079943057755534 0.5492005694224447 0.6706355840069149 0.329364415993085 0.32817414174753096 0.6718258582524691 0.5874427301651513 0.4125572698348487 0.6105844525737998 0.38941554742620027 0.9815305926487274 0.018469407351272518 0.1594218351950938 0.8405781648049062 0.500146944405777 0.49985305559422305 0.4668778560549196 0.5331221439450805 0.8509126611809377 0.1490873388190623 0.17187268966365246 0.8281273103363476 0.38513552679718616 0.6148644732028138 0.40553605093140593 0.5944639490685942 0.5707049463638865 0.42929505363611353 0.42133815216546505 0.5786618478345349 0.2218018896927419 0.778198110307258 0.38602576367184466 0.6139742363281554 0.5012125461567961 0.49878745384320383 0.09840771249229019 0.9015922875077098 0.5429866204219352 0.45701337957806476 0.24119075124881478 0.7588092487511853 0.7109163020386927 0.2890836979613073 0.6383331706473565 0.36166682935264355 0.6057750371615036 0.3942249628384964 0.5644390019390625 0.4355609980609375 0.781724704186261 0.2182752958137388 0.8043819928605523 0.19561800713944774 0.4302451211330914 0.5697548788669087 0.5697564352306054 0.4302435647693947 0.3298928121374582 0.6701071878625418 0.09479571883469542 0.9052042811653045 0.29255075596977903 0.7074492440302209 0.8116698853488522 0.18833011465114782 0.4004125680612462 0.5995874319387537 0.4062634125518702 0.5937365874481297 0.35909056284985225 0.6409094371501478 0.32514001747993665 0.6748599825200633 0.8874288501408579 0.1125711498591421 0.6169187223115826 0.38308127768841754 0.4209682261455698 0.5790317738544302 0.03712902043866542 0.9628709795613346 0.5098566492731837 0.4901433507268162 0.6376845387370469 0.36231546126295305 0.5353789430585081 0.4646210569414919 0.6532436320692987 0.3467563679307013 0.7050097953720574 0.2949902046279425 0.4127973904254518 0.5872026095745481 0.5213586010280318 0.4786413989719683 0.5607813057804236 0.43921869421957643 0.35727912975660775 0.6427208702433923 0.45556398868557785 0.5444360113144221 0.9351341257725794 0.0648658742274206 0.7777378893440191 0.22226211065598092 0.5078220480725616 0.4921779519274383 0.6693733558359053 0.3306266441640947 0.04400101945116958 0.9559989805488304 0.4990849669129404 0.5009150330870595 0.07034447449035132 0.9296555255096487 0.5271541972808407 0.47284580271915944 0.492911307594449 0.507088692405551 0.5037224666870128 0.4962775333129872 0.4418294137183129 0.5581705862816871 0.972862784439312 0.027137215560688082 0.6106940058646779 0.3893059941353222 0.7668298180454513 0.2331701819545487 0.46396903257101374 0.5360309674289861 0.4773162753155228 0.5226837246844771 0.47435484308378656 0.5256451569162134 0.755117419869841 0.24488258013015898 0.14528455219052716 0.8547154478094728 0.2485017993234717 0.7514982006765283 0.3406333885879405 0.6593666114120594 0.49475647529638883 0.5052435247036112 0.02210174978471489 0.9778982502152851 0.3065089446125883 0.6934910553874116 0.739894997163383 0.2601050028366171 0.10009024324841377 0.8999097567515862 0.3681426945628091 0.6318573054371909 0.8116523981212566 0.18834760187874336 0.521893061607785 0.47810693839221496 0.16664484597728021 0.8333551540227198 0.6785563305970491 0.321443669402951 0.2108293342627461 0.789170665737254 0.4855736233079903 0.5144263766920097 0.1816929398888065 0.8183070601111935 0.6818919100151397 0.31810808998486023 0.44439583274258737 0.5556041672574126 0.08437861195832203 0.915621388041678 0.32994962792657656 0.6700503720734233 0.8665924625502698 0.1334075374497302 0.73307195872503 0.2669280412749701 0.6491324534178928 0.35086754658210717 0.039239879039951756 0.9607601209600483 0.8229919990730821 0.17700800092691796 0.4251774110020927 0.5748225889979073 0.2093141082983758 0.7906858917016243 0.49548941537266505 0.5045105846273349 0.11510807520729799 0.8848919247927021 </TABLE>
    </DEFINITION>
    <DEFINITION>
      <FOR>15</FOR>
      <GIVEN>0</GIVEN>
      <GIVEN>4</GIVEN>
      <GIVEN>6</GIVEN>
      <GIVEN>14</GIVEN>
      <GIVEN>5</GIVEN>
      <GIVEN>9</GIVEN>
      <GIVEN>11</GIVEN>
      <GIVEN>10</GIVEN>
      <TABLE>0.3893146674514541 0.6106853325485458 0.9588370732438203 0.04116292675617969 0.48134127294013995 0.51865872705986 0.5239515470382353 0.4760484529617647 0.4025914587108816 0.5974085412891185 0.6787232055203752 0.32127679447962476 0.07192677666740725 0.9280732233325928 0.07570125780158397 0.9242987421984159 0.5384200565997301 0.46157994340026987 0.07015768340671896 0.929842316593281 0.5965201541707068 0.4034798458292933 0.5039781734220152 0.4960218265779848 0.5298165742921576 0.47018342570784244 0.6830535235703018 0.31694647642969814 0.14466641200224709 0.8553335879977529 0.6051684695206909 0.39483153047930913 0.42236878317718085 0.5776312168228191 0.22226226552392406 0.777737734476076 0.7069116937919132 0.29308830620808674 0.6960322195339828 0.3039677804660173 0.03842706447912535 0.9615729355208746 0.10835871156096565 0.8916412884390343 0.6884908687710312 0.3115091312289688 0.4518538544091492 0.5481461455908508 0.531491037686879 0.468508962313121 0.09841575634001938 0.9015842436599806 0.6819571777334591 0.3180428222665408 0.14462630080424738 0.8553736991957527 0.4381148633141019 0.5618851366858981 0.4654240799490885 0.5345759200509114 0.5680063692670804 0.4319936307329197 0.6804278041785069 0.31957219582149315 0.7446081119621625 0.2553918880378376 0.38658547977900626 0.6134145202209937 0.8966534387965639 0.10334656120343608 0.15104175577278733 0.8489582442272127 0.744989272875018 0.2550107271249819 0.58528364137346 0.41471635862653994 0.2233774789712968 0.7766225210287032 0.6843134460327097 0.31568655396729045 0.6560790192175946 0.34392098078240535 0.4025119686272572 0.5974880313727428 0.5950251643033836 0.40497483569661635 0.3657618081831934 0.6342381918168066 0.09929109798804539 0.9007089020119546 0.36616359791099456 0.6338364020890055 0.6904130129801652 0.30958698701983484 0.433006258962715 0.5669937410372851 0.7415366168984232 0.2584633831015768 0.8915523999568434 0.10844760004315661 0.4419873862063841 0.5580126137936158 0.694579229078108 0.305420770921892 0.9955208366492087 0.00447916335079138 0.513482116624793 0.48651788337520696 0.19291513798750778 0.8070848620124923 0.4413551211425752 0.5586448788574248 0.7914225502073904 0.20857744979260961 0.23496766924281082 0.7650323307571891 0.37895851038412715 0.6210414896158728 0.07307541741157556 0.9269245825884245 0.5825830678515991 0.417416932148401 0.6684718343259505 0.3315281656740495 0.8869549863054881 0.11304501369451193 0.9702271589379708 0.029772841062029147 0.8815860126195795 0.11841398738042049 0.8735288819504513 0.12647111804954864 0.5936715116739875 0.4063284883260125 0.9728872276294975 0.02711277237050247 0.37851683368860933 0.6214831663113908 0.07225048566872679 0.9277495143312732 0.9525951433823161 0.04740485661768394 0.34087671018763394 0.659123289812366 0.22663168807480621 0.7733683119251937 0.38676531521040775 0.6132346847895922 0.43586574480764784 0.5641342551923522 0.9184298817346249 0.08157011826537508 0.3385252730394725 0.6614747269605276 0.46912344742345213 0.5308765525765479 0.45784923566253094 0.5421507643374691 0.4939576865762139 0.506042313423786 0.4588327082357374 0.5411672917642626 0.4731030805534498 0.5268969194465503 0.933486420087462 0.06651357991253806 0.7537591259763552 0.2462408740236448 0.46634389382478897 0.5336561061752111 0.463006137283678 0.5369938627163221 0.7172214315240546 0.28277856847594546 0.6201529758888265 0.37984702411117344 0.14337409788811578 0.8566259021118843 0.9383568161728426 0.06164318382715741 0.41140140776951883 0.5885985922304812 0.39647359044389313 0.6035264095561069 0.6976733280779428 0.3023266719220572 0.6179325522155262 0.3820674477844737 0.7100818558642371 0.2899181441357629 0.823133010796345 0.17686698920365493 0.8547984191005901 0.14520158089940993 0.5030815217318698 0.49691847826813024 0.49813267412140044 0.5018673258785996 0.6234728658204687 0.3765271341795313 0.6110720915359421 0.3889279084640578 0.7871127779832789 0.21288722201672106 0.4593768058129063 0.5406231941870938 0.2924029067812768 0.7075970932187232 0.2840768223534265 0.7159231776465735 0.648958329892432 0.351041670107568 0.6503740674328939 0.34962593256710606 0.18677861326317657 0.8132213867368234 0.5405173577865102 0.4594826422134897 0.5970086592266501 0.4029913407733498 0.15623481868628883 0.8437651813137111 0.7349263735261755 0.26507362647382443 0.8348951767813696 0.16510482321863035 0.5828119232471418 0.41718807675285813 0.5078473054033074 0.4921526945966926 0.3199276270209802 0.6800723729790198 0.5595973415052089 0.4404026584947911 0.48508731227600127 0.5149126877239988 0.47886949786219635 0.5211305021378037 0.9617763748552484 0.0382236251447516 0.441166429823605 0.558833570176395 0.628278200310868 0.371721799689132 0.766441522238641 0.23355847776135885 0.01430124560524817 0.9856987543947519 0.48590059221302967 0.5140994077869704 0.6938912148085886 0.3061087851914114 0.6076097254838335 0.3923902745161665 0.16897867865525004 0.8310213213447499 0.6534465036259982 0.3465534963740018 0.7763991254886109 0.22360087451138905 0.10129337861680889 0.8987066213831911 0.4074106959145342 0.5925893040854657 0.2630303029373437 0.7369696970626565 0.5401162471262676 0.45988375287373234 0.43514554533931404 0.5648544546606861 0.9685467172350436 0.03145328276495645 0.5308442962097341 0.46915570379026594 0.5455148574952337 0.4544851425047664 0.5250118197314153 0.4749881802685847 0.49360157281005496 0.506398427189945 0.40609570477435797 0.5939042952256419 0.9986923114771087 0.001307688522891303 0.4955736815374717 0.5044263184625283 0.45192073472507344 0.5480792652749266 0.10828559049345521 0.8917144095065448 0.8506275532992218 0.1493724467007782 0.3971330342982959 0.6028669657017042 0.5168740065438219 0.48312599345617824 0.0908392788417145 0.9091607211582855 0.6029537243737101 0.39704627562628997 0.9818497949457983 0.01815020505420172 0.6781957030117506 0.3218042969882494 0.857721123726501 0.14227887627349894 0.8530089856537862 0.14699101434621376 0.4894309517781409 0.5105690482218591 0.1469788754175643 0.8530211245824357 0.24761502774817667 0.7523849722518234 0.8759874441906824 0.1240125558093176 0.901381008955794 0.09861899104420603 0.19690938664430818 0.8030906133556918 0.6186294507362312 0.38137054926376884 0.5869024615135157 0.4130975384864844 0.6726992182001905 0.32730078179980965 0.6948140987310851 0.3051859012689149 0.5316577313931043 0.4683422686068957 0.22843046063428007 0.77156953936572 0.4402105989177212 0.5597894010822788 0.38337422173563307 0.6166257782643669 0.5097710923236903 0.49022890767630967 0.7385613079993922 0.2614386920006078 0.5293605093791163 0.47063949062088367 0.6813471136876721 0.3186528863123278 0.8968892102639876 0.10311078973601234 0.40222159884868675 0.5977784011513133 0.3478411260681786 0.6521588739318214 0.5440709781388848 0.45592902186111517 0.8073354907093266 0.1926645092906733 0.55553033456999 0.4444696654300101 0.5967995694062254 0.4032004305937747 0.5758322045175733 0.4241677954824268 0.5105016243305324 0.48949837566946763 0.3954755713466761 0.6045244286533239 0.49552550218958846 0.5044744978104114 0.560135161587253 0.4398648384127471 0.45363027007301043 0.5463697299269896 0.7223438792303604 0.2776561207696397 0.5255030908415613 0.4744969091584386 0.8266945266223132 0.17330547337768681 0.15015807127432146 0.8498419287256784 0.5043568446277985 0.49564315537220155 0.5192426524160122 0.4807573475839878 0.9945455979806914 0.005454402019308578 0.5760031064770713 0.4239968935229287 0.44973555502761964 0.5502644449723804 0.5465703779349499 0.4534296220650503 0.04453623708319857 0.9554637629168015 0.539222532099724 0.460777467900276 0.8087238563541269 0.19127614364587311 0.47829285683586265 0.5217071431641374 0.9454064843616192 0.054593515638380746 0.6013381520977864 0.3986618479022135 0.6362156228074439 0.3637843771925562 0.3684839899730052 0.6315160100269949 0.40536694552503894 0.594633054474961 0.457733459061088 0.542266540938912 0.7693151867665733 0.2306848132334267 0.6201025398844221 0.3798974601155779 0.4005481882458682 0.5994518117541318 0.5658952707929952 0.4341047292070047 0.4648670457662586 0.5351329542337415 0.4609010575668888 0.5390989424331112 0.7582390974498908 0.2417609025501092 0.10483296947335707 0.8951670305266429 0.5408877317067078 0.4591122682932922 0.5176004367343974 0.4823995632656027 0.5702329446801135 0.4297670553198864 0.5702754746848951 0.4297245253151048 0.5970503139519191 0.4029496860480809 0.5234035131635831 0.4765964868364169 0.9395511918363432 0.060448808163656824 0.0038146774590184923 0.9961853225409815 0.8041456064551353 0.1958543935448647 0.8977125616011469 0.10228743839885311 0.6247724073586562 0.3752275926413437 0.12403532444685104 0.8759646755531489 0.7229041711673775 0.27709582883262257 0.7371656405111352 0.26283435948886474 0.3885706015524653 0.6114293984475346 0.7861577334892443 0.2138422665107557 0.2169954802965996 0.7830045197034005 0.8184089929374806 0.18159100706251938 0.48002331961948697 0.519976680380513 0.5087763151464954 0.4912236848535046 0.36502127630173387 0.6349787236982661 0.1768572067509236 0.8231427932490765 0.8603005539824867 0.13969944601751325 0.2554693308924408 0.7445306691075592 0.27506840829380597 0.724931591706194 0.49652373067479716 0.5034762693252027 0.2916964547921691 0.7083035452078309 0.4205593936211176 0.5794406063788824 0.7535061914162031 0.24649380858379688 0.004935307744071051 0.995064692255929 0.3600232575799492 0.6399767424200508 0.5235559684344391 0.47644403156556087 0.10049093117686511 0.8995090688231349 0.3452378868339713 0.6547621131660287 0.40575356339228497 0.594246436607715 0.6686898219694709 0.331310178030529 0.878696619422111 0.12130338057788906 0.42283139678124754 0.5771686032187525 0.5223165160398123 0.47768348396018756 0.40099892717379065 0.5990010728262094 0.9733107213351904 0.026689278664809666 0.2623020332145487 0.7376979667854513 0.6196356226167447 0.3803643773832554 </TABLE>
    </DEFINITION>
    <DEFINITION>
      <FOR>16</FOR>
      <GIVEN>0</GIVEN>
      <GIVEN>6</GIVEN>
      <GIVEN>8</GIVEN>
      <GIVEN>14</GIVEN>
      <GIVEN>2</GIVEN>
      <GIVEN>11</GIVEN>
      <GIVEN>3</GIVEN>
      <GIVEN>7</GIVEN>
      <GIVEN>12</GIVEN>
      <TABLE>0.9131516076880941 0.08684839231190594 0.5955600200471516 0.4044399799528483 0.2240283454076326 0.7759716545923674 0.7691629142306875 0.23083708576931253 0.44901201868581614 0.5509879813141838 0.6453712804349516 0.3546287195650483 0.26614872718041444 0.7338512728195856 0.7504422433221416 0.24955775667785846 0.5410041574288005 0.45899584257119946 0.5889801867747613 0.4110198132252388 0.6777022774810659 0.32229772251893407 0.5381249187452366 0.4618750812547633 0.7854509931637798 0.2145490068362203 0.45530767731050326 0.5446923226894967 0.550346434083121 0.449653565916879 0.5822649847614992 0.41773501523850076 0.6317373121337537 0.36826268786624616 0.48390609153477415 0.5160939084652258 0.505258834322455 0.49474116567754495 0.39098558762018076 0.6090144123798193 0.5247594768066091 0.475240523193391 0.4723581913460385 0.5276418086539615 0.441894089994727 0.558105910005273 0.3999778308243683 0.6000221691756318 0.43079231228896697 0.5692076877110329 0.42525579725574575 0.5747442027442543 0.9728133049622978 0.027186695037702203 0.7970261844345974 0.2029738155654026 0.672245456490398 0.3277545435096019 0.344352803403699 0.655647196596301 0.7045254767163449 0.29547452328365503 0.043053284588696374 0.9569467154113036 0.5294760205265354 0.4705239794734646 0.12758440248246122 0.8724155975175388 0.6448916600034846 0.35510833999651525 0.3341947452437621 0.665805254756238 0.40698128461288774 0.5930187153871123 0.41681640189293406 0.583183598107066 0.793661782363231 0.20633821763676893 0.818321913994098 0.18167808600590193 0.15390403892578156 0.8460959610742185 0.5850813097535082 0.4149186902464918 0.13477431924562822 0.8652256807543718 0.5833156312785438 0.41668436872145614 0.46613679853031015 0.5338632014696898 0.27216742811770955 0.7278325718822904 0.5924933575284994 0.40750664247150054 0.5657417632593086 0.43425823674069136 0.6572816357752616 0.34271836422473845 0.30304339932962454 0.6969566006703755 0.9412781460975219 0.05872185390247804 0.7475993046477433 0.2524006953522566 0.6000851656750796 0.39991483432492037 0.8570866791988021 0.1429133208011979 0.7631168618306776 0.2368831381693224 0.3433293961889331 0.6566706038110669 0.4018172782901222 0.5981827217098779 0.33546324473830724 0.6645367552616928 0.3830175262778774 0.6169824737221227 0.25729655579083793 0.742703444209162 0.40073387941823335 0.5992661205817668 0.40715397742983417 0.5928460225701657 0.575828022802736 0.424171977197264 0.18889421458105335 0.8111057854189466 0.8244115074902019 0.1755884925097981 0.49848990570967316 0.5015100942903268 0.43420206707473535 0.5657979329252647 0.18779822028435253 0.8122017797156474 0.4696787853737711 0.5303212146262288 0.30533157546738104 0.694668424532619 0.702824620304257 0.297175379695743 0.3795905274553879 0.6204094725446122 0.46684938208389204 0.533150617916108 0.32987028677461083 0.6701297132253891 0.3609965284065762 0.6390034715934239 0.5009344738875101 0.4990655261124898 0.9293390829445248 0.07066091705547517 0.5328429555199538 0.46715704448004625 0.45787905303031384 0.542120946969686 0.49251861206925013 0.5074813879307499 0.37758502759231877 0.6224149724076813 0.43776313480595286 0.5622368651940471 0.7899715798491033 0.2100284201508967 0.3540517028744025 0.6459482971255975 0.5828067965151011 0.41719320348489874 0.7353664485452908 0.26463355145470924 0.2472328365619158 0.7527671634380841 0.770643980158934 0.229356019841066 0.3392230619552928 0.6607769380447073 0.4562400112271911 0.543759988772809 0.9752760431874805 0.024723956812519515 0.21003742655559388 0.7899625734444061 0.45969289440559097 0.540307105594409 0.9803500014295623 0.019649998570437664 0.29706343486556996 0.70293656513443 0.9617248045580673 0.03827519544193269 0.7577596551128951 0.2422403448871049 0.6587646920793868 0.34123530792061313 0.741059675527833 0.25894032447216697 0.23293437993299024 0.7670656200670098 0.4860085340257124 0.5139914659742876 0.70246519200751 0.29753480799249 0.7370543049542604 0.26294569504573956 0.6304464536082273 0.36955354639177274 0.4078193627205389 0.592180637279461 0.19468444838579047 0.8053155516142095 0.3757605876751501 0.6242394123248499 0.4954509468497426 0.5045490531502574 0.2682057182432733 0.7317942817567268 0.05378487265798729 0.9462151273420127 0.4909072892616422 0.5090927107383577 0.3622572635858343 0.6377427364141658 0.5086593358712449 0.49134066412875493 0.4941431791508933 0.5058568208491068 0.5115903341579298 0.48840966584207024 0.0594132467327259 0.9405867532672741 0.41924277356635625 0.5807572264336437 0.35484212710868296 0.645157872891317 0.47916061334791177 0.5208393866520882 0.9444382843833831 0.05556171561661691 0.4365771096712563 0.5634228903287437 0.5652597908566871 0.4347402091433128 0.6100002177022016 0.38999978229779836 0.9436687382521222 0.05633126174787785 0.3618437804027852 0.6381562195972148 0.4466415897665789 0.5533584102334211 0.5052880275877345 0.49471197241226555 0.8953349621693428 0.10466503783065714 0.5822837483215237 0.4177162516784763 0.5682091469862689 0.43179085301373116 0.7595825174980335 0.24041748250196654 0.5368489905395968 0.4631510094604031 0.7412059120899294 0.2587940879100706 0.29026057164607844 0.7097394283539215 0.4250539069675316 0.5749460930324684 0.5386340988043717 0.4613659011956282 0.4914519629804848 0.5085480370195152 0.5974305859144079 0.402569414085592 0.15544826613884935 0.8445517338611507 0.33616129201152145 0.6638387079884785 0.46914497151568624 0.5308550284843137 0.6535555933991417 0.34644440660085823 0.3777354768903824 0.6222645231096178 0.5493262070583795 0.45067379294162047 0.3123486407115021 0.6876513592884979 0.44603006344062524 0.5539699365593748 0.31638040078186935 0.6836195992181306 0.9934489380018412 0.006551061998158792 0.2049542141108102 0.7950457858891898 0.09672042206296311 0.903279577937037 0.8377955767475184 0.1622044232524816 0.44952554486821833 0.5504744551317817 0.7182035820707485 0.2817964179292515 0.25878561728937893 0.7412143827106211 0.5179299145392986 0.4820700854607013 0.0715723149478245 0.9284276850521755 0.5335707480830341 0.46642925191696594 0.9607402910391721 0.03925970896082788 0.6666746870141791 0.33332531298582097 0.9969608884871098 0.0030391115128901047 0.8819701260096113 0.11802987399038865 0.4063564976480179 0.593643502351982 0.9700212983927299 0.02997870160727016 0.44607037309512193 0.553929626904878 0.8604228989540232 0.1395771010459768 0.6070866771745105 0.39291332282548963 0.6280285044431081 0.371971495556892 0.4452496866931495 0.5547503133068505 0.2902414710147092 0.7097585289852908 0.5653612595057101 0.4346387404942898 0.05693659861612548 0.9430634013838746 0.49526113699736884 0.5047388630026312 0.13320599656618615 0.866794003433814 0.7623823874941378 0.23761761250586222 0.43875335186247055 0.5612466481375294 0.2730481436377447 0.7269518563622553 0.6261329858166429 0.37386701418335705 0.1317234720804824 0.8682765279195176 0.46210661869228226 0.5378933813077177 0.8578412224590257 0.14215877754097425 0.4970918378354082 0.5029081621645918 0.8313962142553789 0.16860378574462107 0.4896727162925432 0.5103272837074568 0.45693131009982946 0.5430686899001705 0.3605116063767354 0.6394883936232646 0.5157096837156768 0.48429031628432306 0.7356400612579382 0.26435993874206176 0.13970393882568644 0.8602960611743136 0.7501240759294204 0.2498759240705796 0.4432263565831464 0.5567736434168534 0.7286933890406033 0.27130661095939673 0.5566180471439647 0.4433819528560353 0.3710641689117763 0.6289358310882238 0.8917147248464633 0.10828527515353685 0.34388102507209434 0.6561189749279057 0.5521853473900707 0.44781465260992925 0.5990650538741633 0.40093494612583674 0.5112490295290033 0.4887509704709967 0.07095291819878569 0.9290470818012143 0.5046050303006676 0.4953949696993324 0.16873461310180782 0.8312653868981922 0.4493621551583631 0.5506378448416369 0.7844072279588706 0.2155927720411294 0.41455697422096227 0.5854430257790377 0.4982897979579207 0.5017102020420793 0.9144350723910128 0.08556492760898719 0.6505783417079021 0.34942165829209804 0.6583568985018564 0.3416431014981436 0.378912453257058 0.621087546742942 0.5173953625019969 0.482604637498003 0.37686827657616 0.6231317234238402 0.28321682275679044 0.7167831772432096 0.5015809030483424 0.49841909695165765 0.9312145244560468 0.06878547554395324 0.42300769287251855 0.5769923071274815 0.34240559785427577 0.6575944021457242 0.1190100483632035 0.8809899516367964 0.47832580384936696 0.521674196150633 0.30991459918252334 0.6900854008174765 0.11361767357021828 0.8863823264297818 0.7318983589197927 0.2681016410802073 0.5924566694420312 0.4075433305579688 0.3353100322791758 0.6646899677208242 0.34540467506103684 0.6545953249389632 0.7763118573867889 0.22368814261321124 0.700356952002056 0.2996430479979439 0.15271049321633126 0.8472895067836687 0.9694575769226639 0.030542423077336168 0.4305256352720363 0.5694743647279636 0.44444353037768125 0.5555564696223186 0.24817427658828226 0.7518257234117177 0.44837480517753053 0.5516251948224695 0.8704399297937179 0.12956007020628207 0.04817182499839151 0.9518281750016084 0.39359479720253054 0.6064052027974695 0.5797970222496338 0.4202029777503663 0.7444996999786767 0.2555003000213233 0.44193654439558566 0.5580634556044143 0.7261334484873908 0.2738665515126092 0.9866760032730257 0.013323996726974216 0.6016485826069589 0.3983514173930411 0.3488332940761934 0.6511667059238067 0.583514766069246 0.416485233930754 0.283872493656736 0.7161275063432639 0.2380412399393442 0.7619587600606558 0.4273025660073741 0.5726974339926261 0.5285387653085835 0.4714612346914166 0.3955618972909102 0.6044381027090898 0.3538316902626325 0.6461683097373675 0.2690241707236533 0.7309758292763467 0.4741878817541129 0.525812118245887 0.750557574669079 0.249442425330921 0.24593167809369207 0.7540683219063079 0.6058516102527588 0.3941483897472412 0.5216338027393301 0.47836619726067 0.20425546429649782 0.7957445357035022 0.4529843250048575 0.5470156749951425 0.6085590312702829 0.3914409687297171 0.5587179327076671 0.4412820672923328 0.5936108382798121 0.40638916172018796 0.5113849172504477 0.48861508274955234 0.6099006826959028 0.3900993173040972 0.9327484709261352 0.06725152907386477 0.6435912973999157 0.3564087026000843 0.4215263212205941 0.5784736787794059 0.304477135170722 0.695522864829278 0.10897704358987421 0.8910229564101257 0.6141166350594536 0.3858833649405464 0.8061875016257116 0.1938124983742884 0.572128357790929 0.42787164220907115 0.5410551961103832 0.4589448038896168 0.2996132350264817 0.7003867649735183 0.18750696855743795 0.812493031442562 0.9062837533307406 0.09371624666925923 0.7080364634063516 0.29196353659364843 0.44112625794175464 0.5588737420582454 0.3643618828692367 0.6356381171307633 0.4645675318958065 0.5354324681041934 0.7555352024268471 0.24446479757315284 0.8440572017830142 0.15594279821698573 0.5210212204156695 0.47897877958433055 0.827539005218367 0.17246099478163307 0.8949856398137694 0.10501436018623055 0.9105435646600629 0.08945643533993708 0.19515015731192129 0.8048498426880786 0.48314383534830074 0.5168561646516993 0.6192843374656507 0.38071566253434924 0.58992614313684 0.4100738568631599 0.31387793010013654 0.6861220698998635 0.14521035750826392 0.8547896424917361 0.7736608157459144 0.22633918425408564 0.33452586614616264 0.6654741338538374 0.6915453665762533 0.30845463342374674 0.5968507811519759 0.4031492188480241 0.7016826664314333 0.2983173335685667 0.23476815947678595 0.7652318405232139 0.08685970408548076 0.9131402959145193 0.5163482880106379 0.48365171198936197 0.25699033369898017 0.7430096663010198 0.5775930066872511 0.4224069933127489 0.757842387469614 0.24215761253038606 0.07299969503356675 0.9270003049664333 0.4140183575989009 0.5859816424010991 0.8501794872370925 0.1498205127629075 0.6873407714173181 0.3126592285826819 0.8095531537714801 0.19044684622851996 0.5397909931603777 0.4602090068396223 0.7455290376144151 0.2544709623855848 0.76847743349111 0.23152256650889005 0.589446406041585 0.41055359395841495 0.5291240487311828 0.4708759512688173 0.6688552130574493 0.33114478694255056 0.8196454690473998 0.18035453095260023 0.9634711148178415 0.0365288851821585 0.43202829126115505 0.5679717087388448 0.07319805124752793 0.9268019487524721 0.6621315519434958 0.3378684480565041 0.727638035608221 0.27236196439177895 0.8714647472589381 0.12853525274106198 0.5502628336601255 0.44973716633987443 0.3148144841624704 0.6851855158375295 0.38781543028475407 0.6121845697152458 0.7703613171446058 0.22963868285539432 0.2357444887695035 0.7642555112304965 0.8873783404263574 0.11262165957364258 0.5657757618746166 0.4342242381253833 0.3219361917563133 0.6780638082436867 0.5558233056784158 0.4441766943215842 0.22162100247963087 0.7783789975203691 0.453131837708765 0.546868162291235 0.6572886478294091 0.34271135217059095 0.9078543943365216 0.09214560566347843 0.5767231929861737 0.42327680701382625 0.5023102826242359 0.49768971737576406 0.6930636858331042 0.3069363141668959 0.6901687974251004 0.3098312025748996 0.730140453053517 0.26985954694648295 0.5104611552113716 0.4895388447886284 0.37958963776823057 0.6204103622317695 0.7437360518645655 0.25626394813543457 0.5917043637405018 0.4082956362594981 0.665273697331199 0.334726302668801 0.6932563708693499 0.3067436291306501 0.09811748768916766 0.9018825123108323 0.3849077041886277 0.6150922958113723 0.4656219357897535 0.5343780642102465 0.15361857556748337 0.8463814244325166 0.4485393278090142 0.5514606721909858 0.5283277964323274 0.47167220356767264 0.0031727140664065396 0.9968272859335935 0.7826406493038723 0.2173593506961277 0.3242078028309221 0.6757921971690778 0.6558298531822457 0.3441701468177542 0.6241417471328466 0.3758582528671534 0.3437724118398296 0.6562275881601705 0.3141403085585008 0.6858596914414992 0.27308746360482533 0.7269125363951745 0.5553330845750372 0.4446669154249627 0.5537673877586634 0.4462326122413366 0.5994324205624669 0.40056757943753313 0.23471364909279172 0.7652863509072083 0.3654297785904594 0.6345702214095406 0.20448136162682704 0.7955186383731729 0.3845045862605992 0.6154954137394009 0.5635737579601162 0.4364262420398838 0.8240398121368564 0.17596018786314355 0.9567760266608609 0.04322397333913908 0.532965704739678 0.467034295260322 0.2680465688375345 0.7319534311624654 0.012976378985399321 0.9870236210146007 0.31413574083789736 0.6858642591621026 0.7639826023881329 0.23601739761186719 0.4600357902235632 0.5399642097764369 0.975304179807548 0.024695820192451964 0.37943004712478834 0.6205699528752118 0.5111425250257828 0.48885747497421717 0.19057227612523292 0.8094277238747671 0.3104670897933305 0.6895329102066695 0.23215984631728662 0.7678401536827134 0.34996247947138764 0.6500375205286124 0.9487111694299925 0.05128883057000757 0.22364662233579224 0.7763533776642078 0.18184520867463347 0.8181547913253665 0.614277113158923 0.385722886841077 0.5297772006355872 0.47022279936441264 0.4797228071779378 0.5202771928220622 0.507358282205446 0.492641717794554 0.48819672844440754 0.5118032715555925 0.4404032033174914 0.5595967966825087 0.3743020466434564 0.6256979533565435 0.628494002814238 0.37150599718576205 0.012095552812313587 0.9879044471876864 0.7659977109008135 0.2340022890991865 0.6648767088168658 0.33512329118313416 0.48817669780048195 0.5118233021995181 0.29993491139548006 0.7000650886045199 0.29122892292528785 0.7087710770747121 0.23532267825404632 0.7646773217459537 0.01684807498617337 0.9831519250138266 0.41063318732806986 0.58936681267193 0.6082793291773053 0.3917206708226947 0.4589930880828337 0.5410069119171664 0.4408270237945043 0.5591729762054958 0.9313500141237716 0.06864998587622835 0.5444378053883314 0.4555621946116686 0.2537526282029625 0.7462473717970374 0.34451118973035805 0.6554888102696419 0.651262883644601 0.3487371163553989 0.580054106955596 0.4199458930444039 0.35558517512771876 0.6444148248722812 0.3102273776054557 0.6897726223945442 0.19660194785171153 0.8033980521482884 0.9251737696755328 0.07482623032446731 0.6646279096291478 0.3353720903708523 0.2155186692785326 0.7844813307214674 0.0688562566371144 0.9311437433628856 0.7346167724652362 0.265383227534764 0.2567130481522551 0.7432869518477448 0.898294588327861 0.10170541167213894 0.341009753053525 0.6589902469464749 0.6402351256718118 0.35976487432818816 0.16562242530781157 0.8343775746921884 0.12389120350400389 0.8761087964959962 0.09779999218551856 0.9022000078144814 0.7181401589419645 0.2818598410580355 0.2921384263105934 0.7078615736894065 0.5509574106322819 0.4490425893677181 0.6255699447836192 0.37443005521638073 0.7695621153512218 0.23043788464877824 0.7127139324815959 0.2872860675184042 0.4598613307838665 0.5401386692161335 0.927494824307927 0.07250517569207302 0.727090236143259 0.27290976385674104 0.4483996689094544 0.5516003310905456 0.7648242108411959 0.23517578915880408 0.4392028605701954 0.5607971394298046 0.5730245174769105 0.4269754825230896 0.572764459328887 0.4272355406711129 0.37676986712800276 0.6232301328719971 0.5545139979117096 0.44548600208829026 0.3186810648046306 0.6813189351953693 0.7487946794362974 0.25120532056370265 0.3539035996309095 0.6460964003690904 0.9782302583893833 0.021769741610616702 0.7863551703113915 0.2136448296886085 0.728677605039687 0.2713223949603129 0.9762938334490296 0.023706166550970395 0.4624197027631589 0.5375802972368411 0.5484511601210157 0.45154883987898436 0.5047370412145125 0.4952629587854875 0.48896253135435225 0.5110374686456478 0.30491783857297383 0.6950821614270262 0.44512842789966134 0.5548715721003386 0.583230591326582 0.416769408673418 0.5065867354726838 0.49341326452731615 0.6602255203472694 0.33977447965273055 0.544362726622741 0.455637273377259 0.42072150440944817 0.5792784955905518 0.45730850302232673 0.5426914969776732 0.4883691302496251 0.511630869750375 0.8228707693931575 0.17712923060684244 0.061122292564425904 0.9388777074355741 0.43442398039690655 0.5655760196030934 0.9073554854129335 0.09264451458706642 0.4218014382468818 0.5781985617531181 0.17339889040706383 0.8266011095929362 0.04371353669964608 0.9562864633003539 0.5492143192726884 0.4507856807273117 0.3420857897664141 0.6579142102335859 0.25728910085720097 0.7427108991427991 0.5640445460426236 0.4359554539573765 0.8099786267894757 0.19002137321052429 0.12427820116229939 0.8757217988377006 0.6676161258189023 0.33238387418109777 0.7961758655480391 0.20382413445196093 0.5657222361511713 0.43427776384882866 0.46169178626846286 0.5383082137315371 0.22995309968134708 0.770046900318653 0.2769847647647025 0.7230152352352975 0.4277605593246963 0.5722394406753037 0.7860656922980743 0.2139343077019256 0.6407172353581577 0.35928276464184233 0.3630095873319049 0.636990412668095 0.2818966174529701 0.7181033825470299 0.2810839053156554 0.7189160946843446 0.5997463790885119 0.4002536209114881 0.7374014020905147 0.2625985979094853 0.7113623937194288 0.2886376062805712 0.2868013451417242 0.7131986548582758 0.21117146192629174 0.7888285380737082 0.38162132845798147 0.6183786715420185 0.7322857334894278 0.26771426651057223 0.17111078641862584 0.8288892135813741 0.4256176005741257 0.5743823994258743 0.6392359254910014 0.3607640745089986 0.788870245322458 0.21112975467754186 0.3293210925242478 0.6706789074757522 0.1139511162725254 0.8860488837274746 0.27167168249814444 0.7283283175018554 0.8330630266452644 0.16693697335473554 0.64554399645735 0.3544560035426501 0.31966725344135094 0.680332746558649 0.6357913638256616 0.3642086361743384 0.4248831730340964 0.5751168269659036 0.6424468600878931 0.3575531399121069 0.23517734697595885 0.7648226530240413 0.20007113800910226 0.7999288619908977 0.48342486053665606 0.516575139463344 0.5009388855426385 0.4990611144573615 0.366788794132719 0.633211205867281 0.357184718405259 0.642815281594741 0.48470526652765944 0.5152947334723406 </TABLE>
    </DEFINITION>
    <DEFINITION>
      <FOR>17</FOR>
      <GIVEN>0</GIVEN>
      <GIVEN>8</GIVEN>
      <GIVEN>15</GIVEN>
      <GIVEN>16</GIVEN>
      <GIVEN>1</GIVEN>
      <GIVEN>2</GIVEN>
      <GIVEN>9</GIVEN>
      <GIVEN>11</GIVEN>
      <GIVEN>7</GIVEN>
      <GIVEN>12</GIVEN>
      <TABLE>0.663100399649152 0.3368996003508479 0.5497290058589943 0.45027099414100574 0.5092504155143466 0.4907495844856535 0.5933394999795928 0.40666050002040727 0.649133100080038 0.35086689991996195 0.4759178332797287 0.5240821667202713 0.5567876648380887 0.4432123351619112 0.07257141341830486 0.9274285865816951 0.12417918562196611 0.8758208143780339 0.2213442443464346 0.7786557556535653 0.3402532667184532 0.6597467332815469 0.21742541157339515 0.7825745884266048 0.91192129516734 0.08807870483266012 0.5110966989741078 0.48890330102589225 0.22907564211164347 0.7709243578883566 0.756816814469793 0.24318318553020699 0.5960475450887901 0.40395245491121 0.920957605833779 0.07904239416622104 0.6473592853037234 0.3526407146962765 0.4448456161736863 0.5551543838263138 0.9847306829368221 0.015269317063177865 0.3917860715473673 0.6082139284526327 0.6369302329325464 0.36306976706745364 0.7864198427550694 0.21358015724493062 0.6321574445533108 0.36784255544668915 0.3557622070217513 0.6442377929782487 0.08547826890245903 0.914521731097541 0.6109091011748112 0.3890908988251888 0.6749079938549803 0.32509200614501976 0.7315665713674662 0.2684334286325339 0.2630426617470079 0.7369573382529921 0.17001142185258936 0.8299885781474107 0.9593724749083917 0.040627525091608274 0.9439172246586007 0.05608277534139926 0.9471908301267536 0.052809169873246346 0.8753269807059222 0.12467301929407783 0.4688915764302835 0.5311084235697164 0.9428166413552371 0.05718335864476289 0.8989133474828398 0.10108665251716016 0.5979886366909554 0.4020113633090446 0.8403705471387398 0.15962945286126004 0.5808333108324745 0.4191666891675256 0.3518506357667845 0.6481493642332156 0.48672947211402146 0.5132705278859786 0.489929454263537 0.510070545736463 0.1800362918705517 0.8199637081294483 0.17360589135553675 0.8263941086444633 0.49997428198400407 0.5000257180159959 0.46323038747887946 0.5367696125211205 0.5958370090734914 0.4041629909265087 0.4033280571724652 0.5966719428275348 0.4373839578925824 0.5626160421074176 0.029927948776954875 0.9700720512230451 0.9768010562680273 0.02319894373197272 0.649892767370752 0.35010723262924803 0.9563415920246845 0.04365840797531549 0.11705709586028018 0.8829429041397199 0.18903913062604186 0.8109608693739582 0.4767195672211949 0.523280432778805 0.5034311166941072 0.49656888330589277 0.2855907618858453 0.7144092381141547 0.9304820674322822 0.06951793256771764 0.4530755443768307 0.5469244556231694 0.952586720818682 0.04741327918131799 0.4182683821910935 0.5817316178089066 0.31515906876420313 0.6848409312357967 0.41198564034084845 0.5880143596591516 0.6944518640709896 0.3055481359290104 0.6545956474536255 0.3454043525463744 0.34818176627856684 0.6518182337214332 0.7552029044434206 0.24479709555657933 0.22505224715560707 0.7749477528443929 0.4854211029677759 0.5145788970322241 0.2444327659995965 0.7555672340004035 0.5971246262142725 0.4028753737857276 0.8578614552914035 0.14213854470859646 0.5851080277244984 0.4148919722755016 0.5148008174854999 0.4851991825145001 0.4770060243474118 0.5229939756525882 0.648202656041945 0.35179734395805495 0.4198341706462551 0.5801658293537448 0.20364006258794207 0.7963599374120579 0.5660676887693032 0.4339323112306967 0.31676302763492054 0.6832369723650795 0.042423007781851166 0.9575769922181488 0.07475655929424212 0.9252434407057579 0.8053623332725598 0.19463766672744023 0.21409161579365288 0.7859083842063471 0.5870301502694818 0.41296984973051826 0.7845992728662612 0.21540072713373884 0.20922056839782843 0.7907794316021716 0.9848661244229028 0.015133875577097264 0.851720672443773 0.148279327556227 0.2839460307703893 0.7160539692296106 0.5211775435134393 0.4788224564865608 0.30073038515954337 0.6992696148404567 0.12463046962618246 0.8753695303738175 0.6361654782625352 0.3638345217374647 0.23035265941272604 0.7696473405872739 0.5825496678667192 0.4174503321332808 0.7715742615639455 0.22842573843605446 0.9594505753135307 0.040549424686469285 0.5976007773538475 0.4023992226461524 0.6226504785120794 0.37734952148792067 0.08006803634293409 0.9199319636570659 0.16104310063368676 0.8389568993663132 0.6266286996608996 0.3733713003391003 0.2908267776702489 0.709173222329751 0.8439054549505317 0.1560945450494683 0.5427844085775687 0.45721559142243123 0.38046655389542466 0.6195334461045754 0.8009958523559118 0.1990041476440882 0.21688328871738663 0.7831167112826134 0.2966819408738346 0.7033180591261654 0.4324621659057675 0.5675378340942324 0.5911840188875505 0.4088159811124495 0.633849282329448 0.36615071767055196 0.2205346783835929 0.7794653216164071 0.6704561210095785 0.32954387899042153 0.1966109049136577 0.8033890950863423 0.5642882810157412 0.4357117189842587 0.34559418405145514 0.6544058159485449 0.44441476251221346 0.5555852374877865 0.9994781221984733 0.0005218778015267126 0.8043463495534754 0.19565365044652447 0.7759237838977164 0.2240762161022837 0.37515144536667844 0.6248485546333217 0.3567610326447608 0.6432389673552391 0.6961386558458846 0.3038613441541153 0.17320336617564613 0.8267966338243539 0.7167089849883175 0.28329101501168247 0.5002717701788616 0.49972822982113846 0.6409738992577099 0.35902610074229024 0.5169628331498178 0.4830371668501822 0.6823097700864855 0.31769022991351437 0.6365762741297394 0.36342372587026067 0.5874183472279182 0.4125816527720818 0.6046343443308428 0.39536565566915727 0.044725917895187935 0.955274082104812 0.5734480653069727 0.42655193469302727 0.38610985739260967 0.6138901426073904 0.6886067405895215 0.31139325941047846 0.46587863781057487 0.5341213621894251 0.592841721150027 0.40715827884997297 0.16479025720901805 0.8352097427909818 0.24030683995245594 0.7596931600475441 0.9350530538015179 0.06494694619848213 0.5370998653922958 0.4629001346077042 0.1754028653357387 0.8245971346642613 0.4451349991997906 0.5548650008002094 0.4237242179232037 0.5762757820767963 0.5391664355462459 0.46083356445375406 0.6892207721380345 0.3107792278619655 0.7502518483522248 0.24974815164777506 0.240380037498438 0.759619962501562 0.6255150817746266 0.3744849182253734 0.5164913945389247 0.4835086054610753 0.8159773371186629 0.184022662881337 0.1964858704869679 0.8035141295130321 0.9560349622237625 0.04396503777623754 0.2430675345269518 0.7569324654730482 0.7790414549714804 0.2209585450285196 0.7117490848182696 0.28825091518173046 0.6467485065796591 0.35325149342034085 0.2061255259136844 0.7938744740863156 0.4974824018590297 0.5025175981409704 0.06249452625355364 0.9375054737464463 0.4074161086373748 0.5925838913626251 0.6788113155063463 0.3211886844936537 0.4187333893303995 0.5812666106696005 0.5562523335537807 0.44374766644621927 0.35388049557125906 0.6461195044287409 0.30921870393657813 0.6907812960634219 0.9188031711356671 0.08119682886433284 0.645296726561077 0.35470327343892316 0.43897278995128974 0.5610272100487103 0.30597091479873534 0.6940290852012646 0.41884961189640335 0.5811503881035966 0.4634469183241223 0.5365530816758777 0.3248279803858692 0.6751720196141308 0.42821985317821976 0.5717801468217802 0.6778965854114785 0.3221034145885216 0.3900905576286007 0.6099094423713993 0.8427055292658401 0.15729447073415995 0.22505667974195614 0.7749433202580438 0.741628593918914 0.258371406081086 0.3863566913462765 0.6136433086537235 0.7193166638883726 0.28068333611162744 0.6225303242881204 0.37746967571187956 0.5436056641497016 0.45639433585029854 0.21790015357039152 0.7820998464296084 0.4352629570061355 0.5647370429938645 0.6319159193836356 0.3680840806163645 0.8801109250006609 0.1198890749993391 0.40569321215929366 0.5943067878407063 0.5099583996769345 0.49004160032306554 0.15800318097996624 0.8419968190200336 0.05992605031855479 0.9400739496814452 0.4921740099412446 0.5078259900587554 0.9231806752832861 0.07681932471671397 0.761224730827435 0.23877526917256495 0.588713231001381 0.41128676899861905 0.31254966838824305 0.687450331611757 0.9992701057759461 0.0007298942240539431 0.4907546568452468 0.5092453431547533 0.5054884109457091 0.49451158905429093 0.5948464548406726 0.40515354515932744 0.20682512956534085 0.7931748704346592 0.6633588023342947 0.3366411976657053 0.4919202745914197 0.5080797254085804 0.6396967691512879 0.36030323084871196 0.49392377033185925 0.5060762296681408 0.9071208224395013 0.0928791775604987 0.18591821469057676 0.8140817853094232 0.6910352575833855 0.30896474241661454 0.5363904146115888 0.4636095853884112 0.4462195398627912 0.5537804601372087 0.4401755371214421 0.5598244628785579 0.9708409959536548 0.02915900404634516 0.9998166217199346 0.0001833782800654152 0.050193432910985374 0.9498065670890147 0.1904049407420138 0.8095950592579861 0.6930212344075726 0.3069787655924274 0.41759910615122914 0.5824008938487708 0.35310355947381367 0.6468964405261864 0.012944014137159664 0.9870559858628404 0.11033679889890939 0.8896632011010907 0.4075578181312438 0.5924421818687562 0.8392679523505423 0.1607320476494577 0.7434117950484743 0.2565882049515257 0.576032920673703 0.42396707932629696 0.036792183634000705 0.9632078163659993 0.1723122775498518 0.8276877224501483 0.34878104209756305 0.651218957902437 0.11253496610846657 0.8874650338915334 0.5616577948766955 0.43834220512330435 0.5904329182870559 0.4095670817129441 0.5079507393894185 0.4920492606105815 0.3687746206812954 0.6312253793187046 0.35439076053533075 0.6456092394646693 0.30159101008079847 0.6984089899192015 0.6755000667729323 0.3244999332270678 0.6138882817499556 0.3861117182500445 0.52867979424913 0.4713202057508699 0.6024870321202265 0.3975129678797736 0.6331911684083104 0.3668088315916896 0.2205808256727487 0.7794191743272513 0.7074807751992287 0.29251922480077136 0.5778346802810832 0.42216531971891674 0.26593899901256646 0.7340610009874335 0.41719066456184645 0.5828093354381536 0.014369090998123009 0.9856309090018771 0.7427779669565117 0.2572220330434883 0.1428641153312136 0.8571358846687864 0.6190464062527542 0.38095359374724574 0.07628116725548739 0.9237188327445126 0.34856568752554734 0.6514343124744527 0.7039865491398825 0.29601345086011754 0.34435373806433167 0.6556462619356683 0.8792250892225256 0.12077491077747436 0.7863404614670256 0.2136595385329743 0.05326531392635069 0.9467346860736493 0.7031951286545406 0.29680487134545946 0.6153163836048822 0.3846836163951179 0.48312639228567966 0.5168736077143203 0.4439336449010395 0.5560663550989605 0.28988190204348696 0.710118097956513 0.7010380626306176 0.29896193736938237 0.2950265631574572 0.7049734368425428 0.7852109645937169 0.2147890354062831 0.8831970707310143 0.11680292926898558 0.11516939382805433 0.8848306061719456 0.8468115975244189 0.15318840247558102 0.8204199997058285 0.1795800002941715 0.36947171717080646 0.6305282828291936 0.889324362323023 0.11067563767697701 0.8865542390227037 0.11344576097729625 0.7179480048485474 0.28205199515145274 0.31604066594062197 0.683959334059378 0.40249612705988386 0.5975038729401161 0.9573368075846524 0.04266319241534756 0.5599470869016598 0.4400529130983401 0.15166597352643446 0.8483340264735655 0.6682693324854907 0.3317306675145093 0.7078324305361908 0.2921675694638093 0.32743292608277014 0.6725670739172299 0.4883484526520916 0.5116515473479084 0.5200907981262365 0.4799092018737635 0.30952429883932564 0.6904757011606745 0.4370084418430484 0.5629915581569517 0.534794643808937 0.465205356191063 0.5203156942060927 0.47968430579390736 0.17119029121521273 0.8288097087847872 0.4099587059688581 0.5900412940311419 0.8295516951070592 0.1704483048929408 0.31816102779706673 0.6818389722029332 0.3222676652373131 0.6777323347626869 0.99733134613538 0.002668653864620008 0.7625659177902685 0.23743408220973153 0.05251265767488548 0.9474873423251146 0.35455516022203387 0.6454448397779661 0.41272469776399756 0.5872753022360024 0.00365205636257243 0.9963479436374276 0.6611088840326189 0.3388911159673811 0.5975854941135947 0.4024145058864053 0.2809389983284462 0.7190610016715537 0.7379571055072675 0.2620428944927325 0.9413101268953754 0.05868987310462463 0.1329960020637952 0.8670039979362048 0.3157255690377453 0.6842744309622547 0.6895933228654243 0.31040667713457565 0.5000494505071889 0.49995054949281126 0.38537134220827834 0.6146286577917217 0.4207370528866928 0.5792629471133073 0.44630245565390186 0.5536975443460982 0.31810340832972794 0.6818965916702722 0.570570170121058 0.42942982987894207 0.5135015983049771 0.4864984016950229 0.8542897618019463 0.14571023819805373 0.46232159120566996 0.53767840879433 0.6072842515795038 0.39271574842049617 0.5736527590054944 0.42634724099450566 0.48881450029712303 0.5111854997028771 0.6154742574029719 0.38452574259702815 0.5600879981502601 0.43991200184973994 0.636921517026589 0.363078482973411 0.18892287930174193 0.8110771206982581 0.7388918354621238 0.2611081645378763 0.2288101847800951 0.7711898152199049 0.44438846726077363 0.5556115327392264 0.7970068670308106 0.20299313296918953 0.5618271669883965 0.4381728330116034 0.6216335346085797 0.37836646539142027 0.4532142406118421 0.5467857593881579 0.6114903714096379 0.38850962859036203 0.9199948027257853 0.08000519727421469 0.9138041163259505 0.08619588367404947 0.31409745812914575 0.6859025418708542 0.3421870963348496 0.6578129036651503 0.3016784882581957 0.6983215117418042 0.42779887400001404 0.5722011259999858 0.2971033775821891 0.7028966224178109 0.9854331084862383 0.014566891513761629 0.6182649123105254 0.38173508768947456 0.5619269205837092 0.4380730794162908 0.7315637114506706 0.2684362885493295 0.5138222677234906 0.48617773227650934 0.25925232573176643 0.7407476742682336 0.3140296124592753 0.6859703875407248 0.1948046637800291 0.8051953362199709 0.4333912649400584 0.5666087350599415 0.33589069950720585 0.6641093004927942 0.5198787416833572 0.48012125831664276 0.5311420927966493 0.46885790720335063 0.10021822377892096 0.899781776221079 0.3282411565031028 0.6717588434968972 0.6407461968706647 0.3592538031293353 0.4857561825942063 0.5142438174057936 0.5887952737925839 0.4112047262074161 0.6898218623854468 0.3101781376145531 0.4386365334209891 0.5613634665790108 0.4971287398039152 0.5028712601960849 0.5089509766284868 0.49104902337151324 0.40533175467860666 0.5946682453213933 0.7200189513384213 0.2799810486615786 0.867197259042405 0.132802740957595 0.4882607090468595 0.5117392909531405 0.7687387351203653 0.23126126487963478 0.764242567237352 0.2357574327626479 0.48793425797254114 0.5120657420274588 0.2162684605369479 0.7837315394630521 0.4121137192633955 0.5878862807366045 0.48551184077165593 0.5144881592283441 0.15938943270043918 0.8406105672995607 0.2710110638295471 0.7289889361704529 0.5898372898572791 0.4101627101427208 0.39547556005917495 0.6045244399408249 0.45154777411319413 0.5484522258868059 0.6163361350767739 0.38366386492322613 0.40299247686260864 0.5970075231373912 0.23368464132786315 0.766315358672137 0.7818963860478828 0.21810361395211716 0.7923211233535504 0.20767887664644957 0.4839357606071783 0.5160642393928218 0.3176511493582958 0.6823488506417041 0.4361755658815444 0.5638244341184556 0.5396483028490225 0.4603516971509774 0.5688514263891652 0.43114857361083475 0.4019639495720496 0.5980360504279504 0.31971563255106167 0.6802843674489383 0.9417739708379418 0.058226029162058185 0.11825751349686517 0.8817424865031348 0.8521094238002421 0.1478905761997579 0.6479010832017074 0.3520989167982926 0.4986980988864352 0.5013019011135648 0.7030438215656518 0.29695617843434824 0.28809084879274094 0.7119091512072591 0.36361359961885387 0.6363864003811462 0.5053337520781542 0.4946662479218458 0.5697617533892247 0.43023824661077525 0.6828511373550292 0.3171488626449708 0.0055429506022617306 0.9944570493977383 0.5085614350067522 0.49143856499324784 0.4841370523541567 0.5158629476458433 0.5586851580629235 0.4413148419370765 0.7480501561556495 0.25194984384435043 0.49776409114175285 0.5022359088582471 0.23466380382029897 0.7653361961797011 0.4898638303754456 0.5101361696245543 0.4259557528960184 0.5740442471039816 0.7535978050619059 0.24640219493809415 0.3626419342044393 0.6373580657955606 0.5364763370529075 0.46352366294709246 0.545995262273623 0.45400473772637706 0.7857485996450805 0.21425140035491952 0.4722708782318303 0.5277291217681698 0.09417433503023193 0.905825664969768 0.4933034124807636 0.5066965875192363 0.6008721310246458 0.3991278689753542 0.33096277313448 0.6690372268655199 0.5069761037250825 0.4930238962749175 0.631540344302237 0.3684596556977629 0.5243453340449278 0.4756546659550721 0.6538726452953866 0.3461273547046133 0.5810700720727445 0.4189299279272554 0.24780537983942205 0.7521946201605779 0.5510436473182646 0.44895635268173534 0.7523918432120603 0.24760815678793965 0.5655498568214479 0.43445014317855213 0.6330362695813858 0.36696373041861424 0.8194324042073124 0.18056759579268752 0.5849692307432962 0.41503076925670374 0.40245606869190753 0.5975439313080925 0.5013491341675104 0.49865086583248963 0.44965244814089744 0.5503475518591026 0.5545955036315048 0.44540449636849516 0.3802227003502395 0.6197772996497606 0.3155400880848745 0.6844599119151255 0.506604403413854 0.49339559658614596 0.2027524447570083 0.7972475552429917 0.950069529512251 0.04993047048774893 0.09356428413679854 0.9064357158632015 0.5121871391068348 0.4878128608931652 0.47539639991932503 0.524603600080675 0.06837759524898084 0.9316224047510192 0.3030570616426069 0.6969429383573932 0.6094420672180568 0.39055793278194323 0.42666655619861893 0.5733334438013812 0.37471168171223 0.6252883182877701 0.323224263080914 0.676775736919086 0.389758416177077 0.610241583822923 0.3479707131552903 0.6520292868447097 0.17449410199021417 0.8255058980097858 0.4833642551670245 0.5166357448329755 0.005146711152890291 0.9948532888471097 0.03765799957630031 0.9623420004236997 0.34602736190264594 0.6539726380973541 0.5963678822173331 0.4036321177826669 0.8984385132622066 0.10156148673779339 0.7298989056312005 0.27010109436879953 0.40371118058368016 0.5962888194163198 0.5216467732152068 0.4783532267847932 0.3661078896978957 0.6338921103021044 0.1120052852766214 0.8879947147233787 0.60630940718429 0.39369059281571 0.10752772889175005 0.8924722711082499 0.40359521923464237 0.5964047807653576 0.3023926957780254 0.6976073042219747 0.5453666416136234 0.45463335838637664 0.5685754974289554 0.4314245025710446 0.6428119686887733 0.3571880313112267 0.24433904880759708 0.755660951192403 0.724590265860837 0.2754097341391631 0.1575014009772182 0.8424985990227818 0.4518505124146368 0.5481494875853632 0.4784040206704184 0.5215959793295817 0.6482482552264198 0.3517517447735803 0.9647033426286485 0.03529665737135144 0.9212568210820047 0.07874317891799532 0.5525680045515 0.4474319954485001 0.02925685311902619 0.9707431468809739 0.5769744850442738 0.4230255149557261 0.7970558126973541 0.20294418730264582 0.5674019927042216 0.43259800729577835 0.5138870726115817 0.48611292738841827 0.8732352226827401 0.12676477731725985 0.706638214129966 0.293361785870034 0.7139569535577346 0.2860430464422654 0.8799129943561653 0.12008700564383466 0.44867792992117 0.5513220700788299 0.08511577790291279 0.9148842220970872 0.7122205968466104 0.28777940315338957 0.559304786661884 0.440695213338116 0.0896173315735835 0.9103826684264165 0.842780454203911 0.15721954579608893 0.450429026782353 0.549570973217647 0.4990616558446339 0.5009383441553661 0.3792660546096797 0.6207339453903203 0.6915599858328861 0.30844001416711386 0.5288555737232857 0.47114442627671427 0.39900276301599524 0.6009972369840046 0.6137700850148105 0.3862299149851896 0.5821464563754708 0.41785354362452914 0.6159666204432045 0.38403337955679545 0.6307924699747905 0.36920753002520945 0.6475662227342981 0.3524337772657019 0.34671490698436847 0.6532850930156315 0.13906291547548383 0.8609370845245162 0.21846168339403374 0.7815383166059663 0.8073798615915999 0.19262013840840006 0.47522530409995056 0.5247746959000494 0.6227417379540027 0.37725826204599733 0.47223488394534113 0.5277651160546588 0.5059087273805833 0.4940912726194167 0.5873588005871262 0.4126411994128738 0.37476662255063614 0.6252333774493638 0.6428665665428912 0.35713343345710874 0.19661071859871523 0.8033892814012846 0.858633329093008 0.14136667090699195 0.9326316997719385 0.06736830022806149 0.6141519222783944 0.38584807772160556 0.9119039714053118 0.08809602859468821 0.5292498778001026 0.4707501221998974 0.20587314318765054 0.7941268568123495 0.9444025173649296 0.055597482635070354 0.7733044385612672 0.22669556143873268 0.448424206890849 0.551575793109151 0.7030656620524961 0.29693433794750396 0.6576975641059187 0.3423024358940813 0.32382184141823 0.67617815858177 0.689641977133336 0.31035802286666403 0.39744904276230253 0.6025509572376976 0.861341320561284 0.13865867943871601 0.6621720057877999 0.33782799421220006 0.6822059322977839 0.3177940677022162 0.9559521945750942 0.04404780542490587 0.499948007852005 0.5000519921479949 0.4671990706131717 0.5328009293868283 0.43451264627437186 0.5654873537256281 0.061869847416881715 0.9381301525831183 0.2491008025075476 0.7508991974924524 0.5910867845307393 0.40891321546926074 0.3544812608052453 0.6455187391947547 0.6064053607873316 0.3935946392126684 0.36710339808859177 0.6328966019114082 0.47038938285532444 0.5296106171446756 0.393306038501584 0.606693961498416 0.7425104878610195 0.25748951213898047 0.2496617612974252 0.7503382387025748 0.3657916918631506 0.6342083081368495 0.5331511452444527 0.4668488547555472 0.5936261871992993 0.4063738128007007 0.5320718522148744 0.46792814778512554 0.09891189827034377 0.9010881017296564 0.17992807777448525 0.8200719222255147 0.6317810558084834 0.3682189441915167 0.4621751858621866 0.5378248141378134 0.3576628085115553 0.6423371914884447 0.5915143137849829 0.408485686215017 0.22485200314958914 0.7751479968504108 0.22857174611574244 0.7714282538842575 0.6123251215521036 0.3876748784478964 0.07414354086661688 0.9258564591333831 0.4627733871563123 0.5372266128436878 0.324156157709894 0.675843842290106 0.3913258979349927 0.6086741020650073 0.5732604564653357 0.4267395435346642 0.5511943079353442 0.4488056920646558 0.27605088823959295 0.723949111760407 0.6770307181946079 0.32296928180539203 0.5733158054251755 0.42668419457482454 0.8726390418757439 0.12736095812425602 0.7467111548109807 0.2532888451890193 0.37449565913533045 0.6255043408646696 0.24456308337664523 0.7554369166233548 0.5139766794516979 0.4860233205483021 0.3887995260814108 0.6112004739185891 0.6161085317921339 0.3838914682078661 0.5182204774676927 0.4817795225323072 0.8280123763941509 0.1719876236058491 0.21020122626982923 0.7897987737301707 0.6560614117371159 0.3439385882628841 0.678581100511588 0.32141889948841196 0.7586096237477779 0.24139037625222212 0.6073611801901729 0.3926388198098271 0.8646238239633589 0.13537617603664107 0.1989665038967578 0.8010334961032423 0.924835118987917 0.07516488101208298 0.47079154813580226 0.5292084518641978 0.131847597471394 0.868152402528606 0.9057168435641482 0.09428315643585186 0.8021119512592974 0.19788804874070262 0.40640736969892577 0.5935926303010742 0.6831167650500106 0.3168832349499893 0.6361089902418154 0.36389100975818456 0.18834365644640422 0.8116563435535958 0.3926527410956759 0.6073472589043242 0.2978079491976769 0.702192050802323 0.613228357949494 0.3867716420505059 0.9825833967507666 0.017416603249233394 0.1279175591164067 0.8720824408835933 0.5249661503926732 0.47503384960732675 0.7994491093823493 0.2005508906176508 0.19439095314361698 0.805609046856383 0.7202542287444874 0.2797457712555126 0.6103364558122623 0.38966354418773774 0.49589704924212263 0.5041029507578774 0.037913416711133074 0.9620865832888669 0.32905486847317117 0.6709451315268289 0.2739244684679864 0.7260755315320135 0.5904839790134928 0.40951602098650725 0.3578933190963491 0.642106680903651 0.4145064594347182 0.5854935405652819 0.5429268355872916 0.45707316441270845 0.3182904366678571 0.6817095633321428 0.400224907099244 0.5997750929007559 0.37997025698994064 0.6200297430100593 0.8406247436166744 0.15937525638332567 0.4603662302203734 0.5396337697796266 0.44842720827472043 0.5515727917252795 0.7121441584694778 0.28785584153052224 0.7780604335321117 0.2219395664678883 0.49591292646831703 0.504087073531683 0.8777960467148503 0.12220395328514967 0.27040190707916084 0.7295980929208392 0.6919049659404951 0.3080950340595048 0.13266730947344982 0.8673326905265502 0.16666630894725643 0.8333336910527435 0.5042513805891096 0.4957486194108904 0.5532298597042078 0.44677014029579226 0.21817304311387994 0.7818269568861199 0.7162910211495023 0.28370897885049773 0.7477234798282351 0.25227652017176505 0.6198871555677425 0.38011284443225746 0.4823287191897261 0.5176712808102739 0.9213646191098248 0.07863538089017523 0.7177773176306358 0.2822226823693642 0.3835454107488155 0.6164545892511846 0.5309147362692803 0.4690852637307197 0.4824636944818959 0.5175363055181041 0.9668699639625327 0.0331300360374673 0.4872702891303576 0.5127297108696424 0.1461220523475989 0.8538779476524011 0.4990511419032948 0.5009488580967052 0.5776943734163204 0.42230562658367976 0.6962929741444522 0.30370702585554776 0.5304600641781808 0.4695399358218192 0.1809721839384551 0.819027816061545 0.6221168884364991 0.3778831115635008 0.7398283597600603 0.2601716402399396 0.5501982368537471 0.44980176314625286 0.7163693207466597 0.28363067925334023 0.4110506176410957 0.5889493823589044 0.23582309057661058 0.7641769094233894 0.3607217448605342 0.6392782551394658 0.3903883224866575 0.6096116775133426 0.43128679703244094 0.5687132029675591 0.3611528498384047 0.6388471501615952 0.09510229187745362 0.9048977081225464 0.7843302227091102 0.2156697772908898 0.18847218112270359 0.8115278188772964 0.06494102528325792 0.935058974716742 0.535971028510299 0.4640289714897011 0.3009179111817517 0.6990820888182483 0.37071654469325616 0.6292834553067439 0.4751852600542265 0.5248147399457734 0.6268725564491523 0.37312744355084765 0.5484011192532855 0.45159888074671456 0.20419176176748266 0.7958082382325173 0.234320558445122 0.765679441554878 0.6527025396108265 0.3472974603891735 0.1238939149021423 0.8761060850978577 0.5059179571728287 0.4940820428271712 0.38481450709495607 0.6151854929050439 0.4479836499198339 0.5520163500801661 0.5918354759845119 0.40816452401548814 0.8512706861849638 0.14872931381503618 0.9494190490732258 0.0505809509267742 0.37361880893520366 0.6263811910647963 0.5279965824793639 0.472003417520636 0.283507164231763 0.7164928357682371 0.7069112098968972 0.2930887901031029 0.5536149766009183 0.4463850233990818 0.84886149418975 0.15113850581024998 0.38174068203948147 0.6182593179605185 0.48874124677503455 0.5112587532249654 0.33716740824206715 0.6628325917579327 0.5715886202306781 0.4284113797693218 0.6616091686412335 0.3383908313587665 0.038747333823508784 0.9612526661764912 0.2113512534266796 0.7886487465733204 0.5712693590485125 0.42873064095148755 0.5545424034211679 0.4454575965788321 0.5998463258896641 0.40015367411033587 0.17239870093400073 0.8276012990659993 0.8046795142878602 0.19532048571213984 0.4917605378838034 0.5082394621161964 0.5145736930875876 0.48542630691241245 0.32878193874186634 0.6712180612581337 0.36087725035029433 0.6391227496497056 0.5358687198399409 0.4641312801600592 0.7280536850079444 0.27194631499205557 0.7333388124197877 0.26666118758021223 0.6148174167531708 0.3851825832468293 0.5725300214992929 0.42746997850070717 0.39909718173476055 0.6009028182652394 0.29197885860764095 0.708021141392359 0.45648024353477923 0.5435197564652207 0.7937281719097721 0.20627182809022798 0.23320770340609423 0.7667922965939058 0.34642064549946344 0.6535793545005365 0.48935933067619736 0.5106406693238026 0.6069689264907364 0.3930310735092635 0.8942126787937541 0.10578732120624586 0.33628326771563577 0.6637167322843642 0.22376634067078932 0.7762336593292106 0.6788599672871557 0.3211400327128442 0.8579297431676194 0.14207025683238064 0.7474963892671158 0.25250361073288424 0.5426624088891369 0.4573375911108631 0.5165778753947264 0.4834221246052735 0.14556527748460182 0.8544347225153982 0.566419703203815 0.4335802967961851 0.5199420447402728 0.4800579552597273 0.6052566360487126 0.39474336395128745 0.6187974362740011 0.3812025637259989 0.6643754837813077 0.33562451621869227 0.16440955772168273 0.8355904422783174 0.14968110616616745 0.8503188938338325 0.182907491475098 0.817092508524902 0.6257166398624157 0.3742833601375845 0.9702289837052933 0.02977101629470669 0.0816591089595101 0.9183408910404899 0.5268189487437706 0.4731810512562294 0.5193813951558962 0.48061860484410385 0.9616140234912167 0.03838597650878332 0.21137258742919965 0.7886274125708004 0.3212207695874807 0.6787792304125193 0.547882604957234 0.4521173950427661 0.29460542342825047 0.7053945765717495 0.4734889010927267 0.5265110989072733 0.16695970915398187 0.8330402908460182 0.6575740200856783 0.3424259799143217 0.5923197197846394 0.40768028021536057 0.3018906440656654 0.6981093559343347 0.5721446615906826 0.4278553384093174 0.8750738343572949 0.12492616564270512 0.4920605959711652 0.5079394040288348 0.6050944499787715 0.3949055500212285 0.4281887383404259 0.5718112616595741 0.5422561513639146 0.45774384863608525 0.8250116306019071 0.17498836939809295 0.8947183373258222 0.10528166267417777 0.17310217406629816 0.8268978259337019 0.5190192863211712 0.48098071367882866 0.5226274946191652 0.47737250538083476 0.47988502587272547 0.5201149741272746 0.6357687301591561 0.3642312698408438 0.3201509324353463 0.6798490675646537 0.4543676394565699 0.5456323605434301 0.06436244207799587 0.9356375579220041 0.9733782612889595 0.02662173871104049 0.4494794103074339 0.5505205896925661 0.5030624247526141 0.4969375752473859 0.14308250851273452 0.8569174914872655 0.6980925727510092 0.30190742724899083 0.14409870642419306 0.8559012935758068 0.7687225133620911 0.23127748663790898 0.42751687436825886 0.5724831256317411 0.6018070053454901 0.3981929946545098 0.5194520681122747 0.48054793188772527 0.8580582553685708 0.1419417446314292 0.8170859187344967 0.18291408126550335 0.06346646763227125 0.9365335323677287 0.4871665242739543 0.5128334757260459 0.6534930723863253 0.34650692761367474 0.7182393982969011 0.28176060170309886 0.41483584958197567 0.5851641504180245 0.3208774848492217 0.6791225151507784 0.5040393612660811 0.495960638733919 0.3190943402227133 0.6809056597772867 0.18855014221827282 0.8114498577817272 0.4025639229867286 0.5974360770132714 0.3042173600949625 0.6957826399050374 0.39658344063664713 0.6034165593633529 0.7751324374647808 0.2248675625352193 0.8887601114382956 0.11123988856170437 0.6637036051194858 0.3362963948805142 0.9178061763039025 0.08219382369609747 0.43046752117648723 0.5695324788235128 0.6262477294411783 0.3737522705588216 0.572554168805211 0.427445831194789 0.8388702157006448 0.16112978429935518 0.4606867162688207 0.5393132837311794 0.5450090218313222 0.45499097816867784 0.4627413849780754 0.5372586150219246 0.4307417063640412 0.5692582936359588 0.42745274223844804 0.5725472577615519 0.469393836740265 0.5306061632597351 0.5479162092433985 0.4520837907566015 0.6858418577488575 0.3141581422511424 0.7300377265547435 0.2699622734452565 0.4195412775964181 0.580458722403582 0.49263603184128296 0.507363968158717 0.2735174212146804 0.7264825787853195 0.2506952726353552 0.7493047273646448 0.5542622867826684 0.44573771321733163 0.6427336387753447 0.35726636122465544 0.9965847092526698 0.0034152907473301674 0.6811899975965391 0.31881000240346086 0.47492455979338155 0.5250754402066183 0.2610503085204955 0.7389496914795045 0.7630301592809099 0.23696984071909005 0.781938467615968 0.21806153238403203 0.23894949308992647 0.7610505069100736 0.3700684341275026 0.6299315658724974 0.3946941665744768 0.6053058334255232 0.7284012870884807 0.2715987129115192 0.37421321607607216 0.6257867839239278 0.541883404875258 0.45811659512474207 0.5230545858890056 0.4769454141109945 0.5509031321403351 0.4490968678596649 0.6846053698496737 0.31539463015032626 0.5304957535052574 0.4695042464947426 0.4413686244348362 0.5586313755651637 0.09956820369011506 0.9004317963098849 0.9424580611538423 0.05754193884615766 0.5615339869636747 0.4384660130363252 0.42215266128414225 0.5778473387158577 0.18576937296796434 0.8142306270320356 0.5173302781361673 0.4826697218638327 0.4586447199296291 0.5413552800703709 0.9716615586097115 0.028338441390288474 0.15078261482134978 0.8492173851786502 0.626531097558465 0.37346890244153497 0.08585474915342804 0.9141452508465719 0.5369239629290565 0.46307603707094336 0.36905253072817457 0.6309474692718255 0.786015224187985 0.21398477581201505 0.4473095269831965 0.5526904730168035 0.7390724065170212 0.26092759348297884 0.7276410350064361 0.27235896499356393 0.5995575260508685 0.4004424739491315 0.573252115034207 0.4267478849657929 0.27013435518256923 0.7298656448174308 0.5569989344067735 0.4430010655932264 0.09803004985561913 0.9019699501443809 0.3742645715360207 0.6257354284639792 0.15503231762589237 0.8449676823741077 0.4635222824685458 0.5364777175314541 0.9641434266805716 0.03585657331942838 0.10809729308494796 0.891902706915052 0.5300127707114509 0.469987229288549 0.17272461578646586 0.8272753842135341 0.3327045438351483 0.6672954561648516 0.4903819421650077 0.5096180578349923 0.7240475389958637 0.2759524610041362 0.9613265098296696 0.03867349017033036 0.743595851577659 0.256404148422341 0.508128754129573 0.49187124587042697 0.4103902698804007 0.5896097301195994 0.18570332912517637 0.8142966708748236 0.4623564171541336 0.5376435828458664 0.5048987615885746 0.4951012384114254 0.29890486800039145 0.7010951319996086 0.9208056035750252 0.07919439642497485 0.11095845002552472 0.8890415499744753 0.0594553484415034 0.9405446515584966 0.7065145481702092 0.29348545182979074 0.5073438445488656 0.4926561554511344 0.4221044643562907 0.5778955356437093 0.6201633274404547 0.37983667255954534 0.581633191186154 0.418366808813846 0.4049802698475262 0.5950197301524738 0.753213190990154 0.24678680900984595 0.8882433792457751 0.11175662075422486 0.3656193227455842 0.6343806772544158 0.8237282197780831 0.17627178022191686 0.5229288471671958 0.47707115283280416 0.5045643545783326 0.4954356454216673 0.5713314564719353 0.42866854352806466 0.7792663973958097 0.2207336026041903 0.44219886486208465 0.5578011351379153 0.6222413610294107 0.37775863897058926 0.4365914416708135 0.5634085583291865 0.355746062325207 0.644253937674793 0.41144871385558573 0.5885512861444143 0.0535299928375765 0.9464700071624234 0.29414178527321294 0.7058582147267871 0.64811061517174 0.35188938482826004 0.35353298498416846 0.6464670150158316 0.4899253261314248 0.5100746738685752 0.9562541333872945 0.0437458666127055 0.35760314808660204 0.6423968519133979 0.9607128518879784 0.03928714811202166 0.5247830540939029 0.4752169459060972 0.4652352244604115 0.5347647755395886 0.5572107062725745 0.4427892937274255 0.40516446664767136 0.5948355333523287 0.2767447815372281 0.723255218462772 0.011683073922853612 0.9883169260771464 0.4506193615501947 0.5493806384498053 0.7894960869091122 0.2105039130908878 0.931768413252127 0.06823158674787295 0.4491187080091263 0.5508812919908738 0.46669499448443647 0.5333050055155635 0.5205728703113937 0.47942712968860635 0.6271554129971755 0.3728445870028246 0.2510302752797741 0.7489697247202258 0.8410269059697678 0.15897309403023221 0.5942909692326246 0.4057090307673753 0.6365611904366243 0.36343880956337565 0.68727457908835 0.3127254209116499 0.26573594440303483 0.7342640555969652 0.5909517563887907 0.40904824361120923 0.587405227477532 0.41259477252246796 0.5729460244690125 0.42705397553098734 0.14472719405991963 0.8552728059400803 0.8134151095121956 0.1865848904878044 0.47934825949170773 0.5206517405082922 0.3247894291435259 0.6752105708564742 0.6503909755069703 0.3496090244930298 0.4420877305151469 0.5579122694848531 0.007088674419401955 0.992911325580598 0.5382843659556992 0.4617156340443008 0.1333049496037354 0.8666950503962646 0.7430756102909595 0.2569243897090404 0.7023824317119995 0.2976175682880004 0.2840225253853459 0.7159774746146541 0.5606173687357637 0.43938263126423627 0.7421822578822854 0.2578177421177146 0.5403036241484466 0.4596963758515534 0.9646616941690775 0.0353383058309224 0.10674256698236742 0.8932574330176326 0.7163593380043517 0.2836406619956482 0.6183396706974924 0.3816603293025076 0.695233906662556 0.304766093337444 0.348166032791696 0.651833967208304 0.550682312286095 0.4493176877139051 0.5813719044176776 0.4186280955823225 0.6325461484072445 0.3674538515927554 0.6558703880712651 0.344129611928735 0.28052427183726714 0.7194757281627329 0.259014913735291 0.740985086264709 0.5769734566750361 0.42302654332496387 0.4597679732961181 0.5402320267038819 0.5363398800859229 0.463660119914077 0.7000551740921958 0.29994482590780414 0.4298788197326172 0.5701211802673828 0.7333086753795699 0.26669132462043016 0.24439417113301087 0.7556058288669891 0.6971883875203755 0.30281161247962446 0.5140925454686956 0.48590745453130435 0.21134157445814816 0.7886584255418518 0.16410193789326563 0.8358980621067345 0.5791561008121906 0.4208438991878094 0.3905478437106063 0.6094521562893938 0.3195987982993023 0.6804012017006976 0.840248469695582 0.15975153030441805 0.6328109668914591 0.3671890331085409 0.8176869520942327 0.18231304790576733 0.8187212747871285 0.1812787252128715 0.6162667451798709 0.3837332548201291 0.8019775270356654 0.19802247296433476 0.04966293036842528 0.9503370696315747 0.7942234603393695 0.20577653966063053 0.9003909233763177 0.09960907662368239 0.7088077922530471 0.29119220774695287 0.40697041750541396 0.5930295824945861 0.7328298518879534 0.2671701481120467 0.7770274504278399 0.22297254957215998 0.5844227047681417 0.41557729523185827 0.6153793555739605 0.38462064442603955 0.5073794679841653 0.4926205320158347 0.1564446074899908 0.8435553925100092 0.8880025512547549 0.11199744874524503 0.11411745034728854 0.8858825496527114 0.7022805891726782 0.2977194108273218 0.5997625852939692 0.4002374147060308 0.7742030766106242 0.22579692338937582 0.36368792233793823 0.6363120776620618 0.6004953959726542 0.3995046040273457 0.5172238023579719 0.48277619764202806 0.6649362747472503 0.3350637252527497 0.22913018031611182 0.7708698196838881 0.4278950393431919 0.572104960656808 0.47885804213857086 0.5211419578614291 0.16874941506093702 0.831250584939063 0.5360084024937518 0.46399159750624813 0.829244301458305 0.17075569854169503 0.47228484792261327 0.5277151520773868 0.20546053109384677 0.7945394689061533 0.3529226571899797 0.6470773428100203 0.40500543683436313 0.594994563165637 0.37341674552865295 0.6265832544713471 0.6069491556088784 0.39305084439112153 0.8973052003942906 0.1026947996057093 0.24329318798226576 0.7567068120177343 0.9254800346518821 0.07451996534811786 0.6077520785800679 0.3922479214199321 0.37410317015542455 0.6258968298445754 0.07708983294506082 0.9229101670549392 0.699946381794839 0.30005361820516113 0.5143285503418091 0.4856714496581908 0.811697164938857 0.18830283506114298 0.382141947118845 0.6178580528811549 0.7867476529974462 0.21325234700255388 0.340118696638045 0.6598813033619549 0.5070732111388739 0.492926788861126 0.5913138752078276 0.40868612479217237 0.3178240459953466 0.6821759540046535 0.23759913066231209 0.7624008693376879 0.3651624788414787 0.6348375211585212 0.8201994653822757 0.17980053461772438 0.5158197636195238 0.48418023638047625 0.048976572480338675 0.9510234275196613 0.18392831546971766 0.8160716845302822 0.1779877635007071 0.8220122364992929 0.7560758236143282 0.24392417638567168 0.14769222011882124 0.8523077798811788 0.786967296416902 0.21303270358309798 0.4213602504651954 0.5786397495348046 0.5292399103144175 0.4707600896855825 0.7331082712998004 0.26689172870019956 </TABLE>
    </DEFINITION>
    <DEFINITION>
      <FOR>18</FOR>
      <GIVEN>0</GIVEN>
      <GIVEN>4</GIVEN>
      <GIVEN>15</GIVEN>
      <GIVEN>16</GIVEN>
      <GIVEN>17</GIVEN>
      <GIVEN>5</GIVEN>
      <GIVEN>9</GIVEN>
      <GIVEN>11</GIVEN>
      <GIVEN>7</GIVEN>
