<?xml version='1.0' encoding='UTF-8'?>
<BIF VERSION="0.3">
  <NETWORK>
    <NAME>UNTITLED</NAME>
    <VARIABLE TYPE="nature">
      <NAME>0</NAME>
      <OUTCOME>0</OUTCOME>
      <OUTCOME>1</OUTCOME>
      <PROPERTY>weight = None</PROPERTY>
    </VARIABLE>
    <VARIABLE TYPE="nature">
      <NAME>1</NAME>
      <OUTCOME>0</OUTCOME>
      <OUTCOME>1</OUTCOME>
      <PROPERTY>weight = None</PROPERTY>
    </VARIABLE>
    <VARIABLE TYPE="nature">
      <NAME>2</NAME>
      <OUTCOME>0</OUTCOME>
      <OUTCOME>1</OUTCOME>
      <PROPERTY>weight = None</PROPERTY>
    </VARIABLE>
    <VARIABLE TYPE="nature">
      <NAME>3</NAME>
      <OUTCOME>0</OUTCOME>
      <OUTCOME>1</OUTCOME>
      <PROPERTY>weight = None</PROPERTY>
    </VARIABLE>
    <VARIABLE TYPE="nature">
      <NAME>7</NAME>
      <OUTCOME>0</OUTCOME>
      <OUTCOME>1</OUTCOME>
      <PROPERTY>weight = None</PROPERTY>
    </VARIABLE>
    <VARIABLE TYPE="nature">
      <NAME>11</NAME>
      <OUTCOME>0</OUTCOME>
      <OUTCOME>1</OUTCOME>
      <PROPERTY>weight = None</PROPERTY>
    </VARIABLE>
    <VARIABLE TYPE="nature">
      <NAME>14</NAME>
      <OUTCOME>0</OUTCOME>
      <OUTCOME>1</OUTCOME>
      <PROPERTY>weight = None</PROPERTY>
    </VARIABLE>
    <VARIABLE TYPE="nature">
      <NAME>16</NAME>
      <OUTCOME>0</OUTCOME>
      <OUTCOME>1</OUTCOME>
      <PROPERTY>weight = None</PROPERTY>
    </VARIABLE>
    <VARIABLE TYPE="nature">
      <NAME>17</NAME>
      <OUTCOME>0</OUTCOME>
      <OUTCOME>1</OUTCOME>
      <PROPERTY>weight = None</PROPERTY>
    </VARIABLE>
    <VARIABLE TYPE="nature">
      <NAME>18</NAME>
      <OUTCOME>0</OUTCOME>
      <OUTCOME>1</OUTCOME>
      <PROPERTY>weight = None</PROPERTY>
    </VARIABLE>
    <VARIABLE TYPE="nature">
      <NAME>19</NAME>
      <OUTCOME>0</OUTCOME>
      <OUTCOME>1</OUTCOME>
      <PROPERTY>weight = None</PROPERTY>
    </VARIABLE>
    <VARIABLE TYPE="nature">
      <NAME>20</NAME>
      <OUTCOME>0</OUTCOME>
      <OUTCOME>1</OUTCOME>
      <PROPERTY>weight = None</PROPERTY>
    </VARIABLE>
    <VARIABLE TYPE="nature">
      <NAME>21</NAME>
      <OUTCOME>0</OUTCOME>
      <OUTCOME>1</OUTCOME>
      <PROPERTY>weight = None</PROPERTY>
    </VARIABLE>
    <VARIABLE TYPE="nature">
      <NAME>22</NAME>
      <OUTCOME>0</OUTCOME>
      <OUTCOME>1</OUTCOME>
      <PROPERTY>weight = None</PROPERTY>
    </VARIABLE>
    <VARIABLE TYPE="nature">
      <NAME>23</NAME>
      <OUTCOME>0</OUTCOME>
      <OUTCOME>1</OUTCOME>
      <PROPERTY>weight = None</PROPERTY>
    </VARIABLE>
    <VARIABLE TYPE="nature">
      <NAME>5</NAME>
      <OUTCOME>0</OUTCOME>
      <OUTCOME>1</OUTCOME>
      <PROPERTY>weight = None</PROPERTY>
    </VARIABLE>
    <VARIABLE TYPE="nature">
      <NAME>24</NAME>
      <OUTCOME>0</OUTCOME>
      <OUTCOME>1</OUTCOME>
      <PROPERTY>weight = None</PROPERTY>
    </VARIABLE>
    <VARIABLE TYPE="nature">
      <NAME>4</NAME>
      <OUTCOME>0</OUTCOME>
      <OUTCOME>1</OUTCOME>
      <PROPERTY>weight = None</PROPERTY>
    </VARIABLE>
    <VARIABLE TYPE="nature">
      <NAME>12</NAME>
      <OUTCOME>0</OUTCOME>
      <OUTCOME>1</OUTCOME>
      <PROPERTY>weight = None</PROPERTY>
    </VARIABLE>
    <VARIABLE TYPE="nature">
      <NAME>13</NAME>
      <OUTCOME>0</OUTCOME>
      <OUTCOME>1</OUTCOME>
      <PROPERTY>weight = None</PROPERTY>
    </VARIABLE>
    <VARIABLE TYPE="nature">
      <NAME>15</NAME>
      <OUTCOME>0</OUTCOME>
      <OUTCOME>1</OUTCOME>
      <PROPERTY>weight = None</PROPERTY>
    </VARIABLE>
    <VARIABLE TYPE="nature">
      <NAME>6</NAME>
      <OUTCOME>0</OUTCOME>
      <OUTCOME>1</OUTCOME>
      <PROPERTY>weight = None</PROPERTY>
    </VARIABLE>
    <VARIABLE TYPE="nature">
      <NAME>9</NAME>
      <OUTCOME>0</OUTCOME>
      <OUTCOME>1</OUTCOME>
      <PROPERTY>weight = None</PROPERTY>
    </VARIABLE>
    <VARIABLE TYPE="nature">
      <NAME>10</NAME>
      <OUTCOME>0</OUTCOME>
      <OUTCOME>1</OUTCOME>
      <PROPERTY>weight = None</PROPERTY>
    </VARIABLE>
    <VARIABLE TYPE="nature">
      <NAME>8</NAME>
      <OUTCOME>0</OUTCOME>
      <OUTCOME>1</OUTCOME>
      <PROPERTY>weight = None</PROPERTY>
    </VARIABLE>
    <DEFINITION>
      <FOR>0</FOR>
      <TABLE>0.5589386599103158 0.44106134008968423 </TABLE>
    </DEFINITION>
    <DEFINITION>
      <FOR>1</FOR>
      <GIVEN>0</GIVEN>
      <TABLE>0.16117652800934051 0.8388234719906594 0.3453361150561176 0.6546638849438823 </TABLE>
    </DEFINITION>
    <DEFINITION>
      <FOR>2</FOR>
      <GIVEN>0</GIVEN>
      <GIVEN>1</GIVEN>
      <TABLE>0.41507962743311727 0.5849203725668827 0.7491225993730637 0.2508774006269363 0.7970798254238243 0.2029201745761757 0.927657354265282 0.07234264573471809 </TABLE>
    </DEFINITION>
    <DEFINITION>
      <FOR>3</FOR>
      <GIVEN>0</GIVEN>
      <TABLE>0.449502206768478 0.5504977932315219 0.4079959148069894 0.5920040851930107 </TABLE>
    </DEFINITION>
    <DEFINITION>
      <FOR>4</FOR>
      <GIVEN>2</GIVEN>
      <GIVEN>3</GIVEN>
      <TABLE>0.04714999757704186 0.9528500024229581 0.263317542139215 0.736682457860785 0.42708750273583873 0.5729124972641613 0.0893307980380781 0.9106692019619219 </TABLE>
    </DEFINITION>
    <DEFINITION>
      <FOR>5</FOR>
      <GIVEN>1</GIVEN>
      <GIVEN>3</GIVEN>
      <GIVEN>4</GIVEN>
      <TABLE>0.4699012073239388 0.5300987926760612 0.7651407956863605 0.23485920431363946 0.4601679674599577 0.5398320325400423 0.5093899611595222 0.4906100388404779 0.46729056437235766 0.5327094356276423 0.4862638136835149 0.5137361863164851 0.28661271024048235 0.7133872897595176 0.6304529259305437 0.36954707406945625 </TABLE>
    </DEFINITION>
    <DEFINITION>
      <FOR>6</FOR>
      <GIVEN>3</GIVEN>
      <GIVEN>5</GIVEN>
      <GIVEN>4</GIVEN>
      <TABLE>0.3584296916079064 0.6415703083920937 0.5392921954210271 0.4607078045789728 0.30077092589762977 0.6992290741023702 0.8094387991168213 0.19056120088317868 0.23328928510622926 0.7667107148937707 0.42390330911842566 0.5760966908815743 0.820608084656834 0.179391915343166 0.998335736392749 0.001664263607251035 </TABLE>
    </DEFINITION>
    <DEFINITION>
      <FOR>7</FOR>
      <GIVEN>0</GIVEN>
      <GIVEN>2</GIVEN>
      <GIVEN>5</GIVEN>
      <GIVEN>6</GIVEN>
      <TABLE>0.26822185561071993 0.7317781443892801 0.03470680574842884 0.9652931942515711 0.5709230703114905 0.4290769296885094 0.515862053232871 0.48413794676712896 0.7263877544274012 0.2736122455725989 0.09140884910054906 0.908591150899451 0.5145055658575134 0.48549443414248655 0.022567700493435674 0.9774322995065643 0.9283237072474609 0.07167629275253912 0.5315399923783269 0.46846000762167306 0.6292976642439791 0.37070233575602074 0.1941504878312925 0.8058495121687075 0.425448487734618 0.574551512265382 0.6257455162108517 0.37425448378914816 0.298723763109558 0.701276236890442 0.1072633077162817 0.8927366922837182 </TABLE>
    </DEFINITION>
    <DEFINITION>
      <FOR>8</FOR>
      <GIVEN>5</GIVEN>
      <GIVEN>4</GIVEN>
      <TABLE>0.6807014644177899 0.31929853558221005 0.2144245977867281 0.7855754022132719 0.20547810781023804 0.794521892189762 0.22669550666961732 0.7733044933303826 </TABLE>
    </DEFINITION>
    <DEFINITION>
      <FOR>9</FOR>
      <GIVEN>3</GIVEN>
      <GIVEN>7</GIVEN>
      <GIVEN>6</GIVEN>
      <TABLE>0.5044454719390566 0.4955545280609434 0.4293741521732619 0.5706258478267381 0.5020946117941346 0.49790538820586533 0.7342398271226506 0.2657601728773496 0.5835522451985535 0.41644775480144647 0.5514864197337624 0.44851358026623767 0.13951942208106033 0.8604805779189397 0.4832012986021487 0.5167987013978513 </TABLE>
    </DEFINITION>
    <DEFINITION>
      <FOR>10</FOR>
      <GIVEN>7</GIVEN>
      <GIVEN>4</GIVEN>
      <GIVEN>6</GIVEN>
      <GIVEN>8</GIVEN>
      <TABLE>0.749092334676161 0.25090766532383896 0.632557107413556 0.36744289258644397 0.1125714522293797 0.8874285477706203 0.4243101268000337 0.5756898731999663 0.7739180713403833 0.22608192865961677 0.42012509816531135 0.5798749018346888 0.5531540474610547 0.4468459525389453 0.2015994519364657 0.7984005480635344 0.48876080782185166 0.5112391921781483 0.3973048167563297 0.6026951832436702 0.31940859399432847 0.6805914060056716 0.7818575860857688 0.21814241391423117 0.5148949096481689 0.4851050903518311 0.11287873852296557 0.8871212614770345 0.5246802274270663 0.47531977257293373 0.6794921221654362 0.32050787783456386 </TABLE>
    </DEFINITION>
    <DEFINITION>
      <FOR>11</FOR>
      <GIVEN>0</GIVEN>
      <GIVEN>2</GIVEN>
      <GIVEN>3</GIVEN>
      <GIVEN>7</GIVEN>
      <GIVEN>9</GIVEN>
      <GIVEN>8</GIVEN>
      <GIVEN>10</GIVEN>
      <TABLE>0.25806916371982436 0.7419308362801755 0.4181583769568304 0.5818416230431696 0.6137743697024872 0.3862256302975128 0.3879208053659432 0.6120791946340568 0.41154724108071217 0.5884527589192877 0.7815570041745828 0.2184429958254171 0.8212849857405418 0.17871501425945824 0.4846525916139165 0.5153474083860836 0.813497703465904 0.18650229653409608 0.3822862089132498 0.6177137910867502 0.5450965365396458 0.45490346346035426 0.6087702640671756 0.3912297359328244 0.49749591948486066 0.5025040805151393 0.514886835603218 0.4851131643967819 0.31964928815422844 0.6803507118457714 0.42204438891744256 0.5779556110825573 0.16737269473430036 0.8326273052656996 0.40169892207444524 0.5983010779255548 0.4073430160391714 0.5926569839608287 0.5211520887280614 0.4788479112719386 0.2660956877232467 0.7339043122767533 0.6362359889407921 0.3637640110592078 0.17788801058441875 0.8221119894155813 0.7089148311944119 0.2910851688055881 0.9271856610291836 0.0728143389708163 0.5526274354058505 0.44737256459414954 0.41223493438141423 0.5877650656185858 0.6130898114039472 0.38691018859605275 0.3459253020260852 0.6540746979739148 0.27151013023434417 0.7284898697656557 0.7592955397617714 0.2407044602382286 0.07038265105884418 0.9296173489411558 0.4733942101633756 0.5266057898366244 0.051557077024010474 0.9484429229759895 0.5481849437888751 0.4518150562111249 0.37904222694195144 0.6209577730580486 0.7062312928075788 0.2937687071924212 0.8163461525627214 0.18365384743727858 0.3719345843079015 0.6280654156920986 0.9926298579457691 0.007370142054230974 0.7843479776648353 0.21565202233516473 0.5592510591989318 0.4407489408010682 0.18846943468482755 0.8115305653151724 0.5810297701328979 0.41897022986710203 0.4672930730184318 0.5327069269815682 0.8662239036237684 0.1337760963762315 0.03426859172991424 0.9657314082700857 0.08922505235624292 0.9107749476437572 0.4548150084301716 0.5451849915698284 0.6601667076655809 0.339833292334419 0.36391635930593613 0.6360836406940638 0.35591708675057815 0.6440829132494218 0.4585668192056702 0.5414331807943298 0.40133451660224645 0.5986654833977535 0.44927863443335025 0.5507213655666497 0.7488514953483304 0.25114850465166955 0.8932306022194135 0.10676939778058646 0.4996493178248441 0.5003506821751559 0.786136090581103 0.21386390941889688 0.7475485311380925 0.2524514688619075 0.43036967193011855 0.5696303280698815 0.43890907565429615 0.5610909243457038 0.9681110756391836 0.0318889243608164 0.6834579623059327 0.3165420376940673 0.48850606783220174 0.5114939321677983 0.8872038906755115 0.11279610932448844 0.42442960017645265 0.5755703998235473 0.5386025556255081 0.461397444374492 0.4696283108263146 0.5303716891736854 0.5587005364733562 0.44129946352664384 0.4106407368663568 0.5893592631336432 0.24448569400620043 0.7555143059937995 0.9139993354343791 0.08600066456562096 0.566544925609671 0.4334550743903291 0.6541902952198257 0.3458097047801743 0.5051509659427165 0.49484903405728353 0.3354078221851575 0.6645921778148425 0.7038436293634902 0.2961563706365098 0.4724856604018911 0.5275143395981089 0.3327291806045562 0.6672708193954439 0.5507220196059618 0.4492779803940383 0.3977028581580964 0.6022971418419036 0.6751776893988238 0.3248223106011763 0.5805035964399434 0.41949640356005663 0.4576768903293218 0.5423231096706782 0.7373562931361306 0.2626437068638694 0.3806558532544912 0.6193441467455089 0.806964411851989 0.1930355881480109 0.5925212884652836 0.4074787115347163 0.05466963085975512 0.9453303691402449 0.7336578221518887 0.2663421778481113 0.6966274320942674 0.3033725679057327 0.3248968120335884 0.6751031879664116 0.795978786557416 0.20402121344258395 0.5801492381527961 0.41985076184720393 0.8955561298237861 0.10444387017621391 0.5043041992016786 0.4956958007983215 0.36115249123555804 0.638847508764442 0.4823962981162203 0.5176037018837797 0.9229950233918416 0.07700497660815847 0.12355340083691346 0.8764465991630864 0.22942157897830687 0.7705784210216932 0.2690417279403777 0.7309582720596223 0.6741619271985447 0.3258380728014553 0.6177361081140691 0.3822638918859309 0.4436772307733879 0.5563227692266121 0.3907785779106908 0.6092214220893092 0.7994062640682903 0.20059373593170968 0.019281261320177625 0.9807187386798224 0.370410373131188 0.6295896268688119 0.7034026601312077 0.29659733986879244 0.576505722822868 0.423494277177132 0.04943874741787182 0.9505612525821282 0.6620779931245179 0.33792200687548213 0.741163263915343 0.2588367360846569 0.43357198613634373 0.5664280138636562 0.5710278420197094 0.4289721579802906 0.9352900174747221 0.06470998252527789 0.3678159488453907 0.6321840511546093 0.49218756195989977 0.5078124380401002 0.5670678373083823 0.43293216269161766 0.8788657994738388 0.12113420052616121 0.8621526315489538 0.13784736845104623 0.40106229378130515 0.5989377062186949 0.6156430968799765 0.3843569031200234 0.8837405686882199 0.11625943131178006 0.42651741887808886 0.5734825811219111 0.26097525161546276 0.7390247483845372 </TABLE>
    </DEFINITION>
    <DEFINITION>
      <FOR>12</FOR>
      <GIVEN>2</GIVEN>
      <GIVEN>7</GIVEN>
      <GIVEN>11</GIVEN>
      <GIVEN>4</GIVEN>
      <GIVEN>6</GIVEN>
      <TABLE>0.525008359464168 0.474991640535832 0.49613401935097806 0.503865980649022 0.594046470953662 0.4059535290463379 0.7955708139134884 0.20442918608651164 0.2885358708780298 0.7114641291219702 0.6790786727415463 0.32092132725845374 0.7914184606525438 0.20858153934745616 0.5878621965880332 0.4121378034119668 0.7824337599969865 0.21756624000301347 0.5503229266389832 0.4496770733610168 0.14353922870899166 0.8564607712910083 0.16038427895596674 0.8396157210440333 0.9641368492418703 0.035863150758129785 0.5979066325398824 0.40209336746011753 0.29492026073059746 0.7050797392694026 0.4038954832690463 0.5961045167309537 0.6044419751037364 0.39555802489626346 0.12194618958329323 0.8780538104167068 0.16256459333391435 0.8374354066660856 0.33698728620876955 0.6630127137912305 0.505155583651992 0.4948444163480081 0.2510257662083164 0.7489742337916835 0.39230228286899566 0.6076977171310043 0.04882960893931477 0.9511703910606852 0.2117702923966334 0.7882297076033666 0.6507907136747424 0.34920928632525766 0.13329633309336128 0.8667036669066387 0.6837683545912685 0.3162316454087315 0.6662842565396816 0.33371574346031835 0.23536218027517655 0.7646378197248235 0.47779979200673667 0.5222002079932633 0.04589363543536511 0.9541063645646349 </TABLE>
    </DEFINITION>
    <DEFINITION>
      <FOR>13</FOR>
      <GIVEN>2</GIVEN>
      <GIVEN>3</GIVEN>
      <GIVEN>5</GIVEN>
      <GIVEN>4</GIVEN>
      <GIVEN>6</GIVEN>
      <GIVEN>8</GIVEN>
      <TABLE>0.029097762150855393 0.9709022378491446 0.6863216336433966 0.31367836635660334 0.4505452997530869 0.5494547002469131 0.3521914676305034 0.6478085323694965 0.13022127325897945 0.8697787267410205 0.9794384739726967 0.020561526027303306 0.8871138305824648 0.11288616941753511 0.11335847628251379 0.8866415237174862 0.13715437541389633 0.8628456245861037 0.1886981304594342 0.8113018695405658 0.22506397205501924 0.7749360279449806 0.38125605756797276 0.6187439424320272 0.4769874754258332 0.5230125245741668 0.40900450239391994 0.59099549760608 0.4647184883104377 0.5352815116895623 0.17003735130809752 0.8299626486919025 0.34981162779202896 0.6501883722079711 0.15813436511345902 0.841865634886541 0.24689415163294434 0.7531058483670556 0.5707147418065359 0.4292852581934641 0.023055864487665167 0.9769441355123348 0.5535981419590831 0.446401858040917 0.7172813868496593 0.28271861315034075 0.958081404335547 0.04191859566445302 0.8492632617406789 0.15073673825932116 0.5841054128802562 0.4158945871197437 0.644958949977016 0.35504105002298403 0.7533348348911963 0.24666516510880365 0.7995129206994913 0.20048707930050866 0.4386428783241982 0.5613571216758019 0.34378540365713417 0.6562145963428658 0.13435066293676257 0.8656493370632374 0.9602317321499858 0.03976826785001421 0.14908154223378825 0.8509184577662118 0.4782500402004417 0.5217499597995583 0.3494547392969914 0.6505452607030087 0.09827744039570427 0.9017225596042957 0.11697315331425485 0.8830268466857452 0.7450867055459343 0.25491329445406574 0.39527430225880344 0.6047256977411967 0.6561960952114344 0.3438039047885656 0.4732128435860556 0.5267871564139444 0.3804967773232996 0.6195032226767004 0.5860919808446993 0.4139080191553008 0.24615021250179667 0.7538497874982033 0.3095299470731467 0.6904700529268534 0.5921567064470782 0.4078432935529219 0.36030232412095925 0.6396976758790407 0.6541063752631422 0.3458936247368579 0.6162954697233876 0.38370453027661244 0.8712269832291046 0.1287730167708954 0.576143442165266 0.42385655783473397 0.6890928444161033 0.3109071555838967 0.6678995091908039 0.33210049080919607 0.49954823660702036 0.5004517633929796 0.5965750484682554 0.40342495153174457 0.6140791126868334 0.3859208873131666 0.4904653824492462 0.5095346175507538 0.19436722913795754 0.8056327708620424 0.2402590734389036 0.7597409265610964 0.4253082789643247 0.5746917210356753 0.5855605507228481 0.41443944927715204 0.813486172996674 0.18651382700332597 0.10131511007492111 0.8986848899250789 </TABLE>
    </DEFINITION>
    <DEFINITION>
      <FOR>14</FOR>
      <GIVEN>0</GIVEN>
      <GIVEN>1</GIVEN>
      <GIVEN>2</GIVEN>
      <GIVEN>7</GIVEN>
      <GIVEN>12</GIVEN>
      <GIVEN>6</GIVEN>
      <TABLE>0.7615297217785522 0.2384702782214478 0.8711325722322938 0.12886742776770624 0.11155154400541249 0.8884484559945875 0.6457899238200947 0.35421007617990524 0.5608096303996134 0.43919036960038654 0.3993441676622578 0.6006558323377422 0.448730362492909 0.551269637507091 0.1531298534747476 0.8468701465252525 0.36234949286173035 0.6376505071382697 0.2986967324411821 0.7013032675588179 0.6942175926931867 0.3057824073068133 0.37592374842216486 0.6240762515778351 0.9006482251929173 0.09935177480708267 0.15363091508363158 0.8463690849163684 0.5292890758135111 0.47071092418648885 0.6206468076568117 0.3793531923431884 0.34779767158201336 0.6522023284179866 0.8868237053362552 0.11317629466374478 0.4532523588895868 0.5467476411104132 0.5549978073388758 0.4450021926611241 0.5297503038565546 0.4702496961434453 0.5549373596738538 0.4450626403261462 0.4370203414966432 0.5629796585033567 0.23293216275530462 0.7670678372446954 0.5152170758303147 0.48478292416968516 0.1369349502970321 0.8630650497029679 0.8316313196602753 0.16836868033972477 0.6017026222561022 0.3982973777438979 0.217997005033524 0.782002994966476 0.6811552317328577 0.31884476826714225 0.6748047842477639 0.3251952157522361 0.6267907002947678 0.3732092997052321 0.38979613581239264 0.6102038641876073 0.7069323403393765 0.2930676596606235 0.3178503613368471 0.6821496386631529 0.9139740390210316 0.08602596097896845 0.8720914018069096 0.1279085981930904 0.48451435409034005 0.5154856459096598 0.3206529964776447 0.6793470035223553 0.1047847888012804 0.8952152111987196 0.5137984147325121 0.4862015852674879 0.4190482723656408 0.5809517276343592 0.038041388089618294 0.9619586119103817 0.670045498830675 0.329954501169325 0.8677720068219346 0.13222799317806538 0.18744985656802557 0.8125501434319744 0.23990170804952612 0.7600982919504738 0.33306436375494713 0.6669356362450528 0.5078055690225902 0.49219443097740967 0.4061823404390735 0.5938176595609265 0.7720241815832345 0.22797581841676556 0.7049372619974201 0.2950627380025798 0.11521544740472178 0.8847845525952782 0.2824570939051587 0.7175429060948414 0.6292299004292852 0.3707700995707148 0.4631702754527365 0.5368297245472635 0.2759518979393988 0.7240481020606013 0.17135009970596007 0.8286499002940398 0.19904481469854968 0.8009551853014504 0.5001812423967508 0.49981875760324923 0.6949547460715765 0.3050452539284236 0.508729675638541 0.4912703243614591 0.5852521156110958 0.41474788438890425 0.8560721045877798 0.14392789541222015 </TABLE>
    </DEFINITION>
    <DEFINITION>
      <FOR>15</FOR>
      <GIVEN>2</GIVEN>
      <GIVEN>3</GIVEN>
      <GIVEN>11</GIVEN>
      <GIVEN>5</GIVEN>
      <GIVEN>4</GIVEN>
      <GIVEN>9</GIVEN>
      <GIVEN>8</GIVEN>
      <TABLE>0.5855309944822793 0.4144690055177207 0.15013782930961442 0.8498621706903856 0.9214874968140566 0.07851250318594344 0.5111572347953467 0.48884276520465325 0.13024076738617613 0.8697592326138238 0.6715402203080378 0.3284597796919621 0.7029971901373337 0.2970028098626662 0.02640896897400471 0.9735910310259953 0.904824175131806 0.09517582486819406 0.21932646272707773 0.7806735372729223 0.5917293566941448 0.40827064330585505 0.5177959763364043 0.4822040236635957 0.5709363274649065 0.4290636725350935 0.6258514974688743 0.3741485025311258 0.4638137357922215 0.5361862642077786 0.25557776348602007 0.7444222365139799 0.06381422038243163 0.9361857796175683 0.32685748081820765 0.6731425191817924 0.6878599311504416 0.3121400688495583 0.4904536264258092 0.5095463735741909 0.568392365729259 0.43160763427074095 0.597055238935385 0.4029447610646149 0.48715250294667567 0.5128474970533243 0.5691003202564089 0.43089967974359106 0.07524321097384092 0.9247567890261591 0.6819985440211639 0.3180014559788361 0.5639163968107718 0.43608360318922823 0.7510983422082962 0.24890165779170376 0.21757898155385946 0.7824210184461405 0.26812543726368104 0.7318745627363191 0.8438633288682368 0.1561366711317632 0.3222482316938009 0.6777517683061991 0.7660279461225442 0.23397205387745576 0.4179823380480327 0.5820176619519674 0.888155768320752 0.11184423167924785 0.5891337939141174 0.4108662060858826 0.22085586919348416 0.7791441308065159 0.32977481136635384 0.6702251886336461 0.22898224770755743 0.7710177522924426 0.6633296930989225 0.3366703069010775 0.7927623521343716 0.20723764786562848 0.2707298079009829 0.7292701920990171 0.5760221536227195 0.42397784637728053 0.5610476822193926 0.4389523177806074 0.38948591195693527 0.6105140880430646 0.41885532903679407 0.5811446709632059 0.3787314275569287 0.6212685724430714 0.0660915833322572 0.9339084166677428 0.6063628524961135 0.39363714750388645 0.2394491784269215 0.7605508215730785 0.4057867035150329 0.5942132964849671 0.6080981968290557 0.39190180317094425 0.9924074686979856 0.0075925313020143905 0.6536182295262649 0.3463817704737352 0.6094009254289056 0.39059907457109444 0.30953101497537217 0.6904689850246278 0.16951265029303295 0.830487349706967 0.22312776968033005 0.7768722303196699 0.6168374349369123 0.3831625650630876 0.29562949603594657 0.7043705039640534 0.19779650748160232 0.8022034925183977 0.47578691199454176 0.5242130880054582 0.29512825789688546 0.7048717421031145 0.11576778850997285 0.8842322114900272 0.6764930176743337 0.32350698232566627 0.40827211072834585 0.5917278892716542 0.5052564851332686 0.4947435148667315 0.6119842684581883 0.38801573154181174 0.4247636140071889 0.575236385992811 0.025160602072695316 0.9748393979273047 0.6658880073635168 0.3341119926364831 0.17592835594826928 0.8240716440517307 0.9115224503299599 0.08847754967004008 0.2949064792929992 0.7050935207070008 0.6760087782296138 0.32399122177038625 0.5587435199191189 0.44125648008088114 0.996980599522102 0.0030194004778979788 0.6229843894563205 0.37701561054367955 0.13854388713263383 0.8614561128673661 0.8970765357463145 0.10292346425368544 0.2553556237759326 0.7446443762240673 0.2920826753879915 0.7079173246120086 0.6322977254389885 0.36770227456101146 0.5003519196495942 0.4996480803504058 0.6511852869508732 0.34881471304912665 0.1354201981921116 0.8645798018078884 0.8296824366934417 0.17031756330655837 0.5567707462851497 0.4432292537148504 0.29395992320651393 0.706040076793486 0.7681982872131154 0.23180171278688455 0.6763992242168114 0.3236007757831887 0.9188097633879382 0.08119023661206178 0.8533511018306889 0.14664889816931112 0.1578691052327662 0.8421308947672337 0.519085611499616 0.4809143885003841 0.5774548837616061 0.4225451162383939 0.19873599974083217 0.8012640002591679 0.2748128522987269 0.7251871477012731 0.17735900036433508 0.822640999635665 0.2343862739774857 0.7656137260225143 0.4888671814461597 0.5111328185538404 0.7523617169136594 0.24763828308634062 0.2582116475712872 0.7417883524287129 0.7870377049655927 0.21296229503440733 0.513283241360198 0.486716758639802 0.36410371929981344 0.6358962807001866 0.3099647892106872 0.6900352107893127 0.43891686673872027 0.5610831332612798 0.6592048945775493 0.34079510542245073 0.48623513826821113 0.5137648617317889 0.21892177012131991 0.7810782298786801 0.4252872740818677 0.5747127259181323 0.8951030424773114 0.1048969575226886 0.2055075549377074 0.7944924450622926 0.5084260659871276 0.49157393401287247 0.4077135544174775 0.5922864455825224 0.08438945979749153 0.9156105402025084 0.5100726707291747 0.4899273292708252 0.8339116140339271 0.16608838596607284 0.6570571717445062 0.3429428282554939 0.21319222630824786 0.7868077736917521 0.8345965242758626 0.16540347572413738 0.4865739640950928 0.5134260359049072 0.3818515216010894 0.6181484783989106 0.29398861457787234 0.7060113854221276 0.8548713998506982 0.14512860014930198 0.747103567711957 0.25289643228804315 0.4379088333427918 0.5620911666572083 </TABLE>
    </DEFINITION>
    <DEFINITION>
      <FOR>16</FOR>
      <GIVEN>0</GIVEN>
      <GIVEN>1</GIVEN>
      <GIVEN>11</GIVEN>
      <GIVEN>14</GIVEN>
      <GIVEN>5</GIVEN>
      <GIVEN>12</GIVEN>
      <GIVEN>13</GIVEN>
      <GIVEN>6</GIVEN>
      <GIVEN>10</GIVEN>
      <TABLE>0.5076330654269365 0.4923669345730634 0.4684533329737413 0.5315466670262586 0.31162989768937727 0.6883701023106228 0.44516191958828116 0.5548380804117188 0.6023252439887125 0.39767475601128743 0.5194259466342155 0.4805740533657845 0.99318762286853 0.006812377131469968 0.38082000797422105 0.619179992025779 0.4690978434884788 0.5309021565115212 0.49545236205912924 0.5045476379408708 0.35360704764209316 0.6463929523579068 0.6682757173037309 0.33172428269626913 0.8632301930467696 0.13676980695323032 0.9702374426954581 0.02976255730454197 0.584274431652729 0.4157255683472711 0.6032600814281471 0.3967399185718529 0.03511833990885328 0.9648816600911467 0.2832551511069701 0.7167448488930299 0.591027535152351 0.408972464847649 0.29754992272755254 0.7024500772724475 0.42252519096633734 0.5774748090336627 0.9494884504734529 0.05051154952654711 0.5741895190600231 0.42581048093997675 0.15324562987533244 0.8467543701246676 0.5641220777534425 0.4358779222465575 0.43374143392313014 0.56625856607687 0.8362450976143799 0.16375490238562007 0.7782017474244554 0.2217982525755446 0.11421574541010238 0.8857842545898976 0.28187637277686944 0.7181236272231306 0.5406771496243431 0.4593228503756569 0.15354766456337157 0.8464523354366285 0.8883115534268461 0.1116884465731539 0.33622655536415536 0.6637734446358446 0.1350840138599165 0.8649159861400835 0.4338756836093878 0.5661243163906121 0.41344100813271745 0.5865589918672827 0.36801011382643684 0.6319898861735632 0.4611474790799138 0.5388525209200862 0.13443086543842087 0.865569134561579 0.3728845208784679 0.6271154791215321 0.7048702030998982 0.2951297969001018 0.8777066424552765 0.12229335754472354 0.5382687322789482 0.4617312677210518 0.4347984379899293 0.5652015620100707 0.6402018713777694 0.35979812862223054 0.48953540390281225 0.5104645960971878 0.17427670711154308 0.8257232928884569 0.467852350587847 0.532147649412153 0.7372465413517002 0.26275345864829985 0.44206177119837936 0.5579382288016207 0.980430644071899 0.019569355928101 0.7290161523196229 0.2709838476803771 0.5237487769802873 0.4762512230197125 0.40878636335686436 0.5912136366431356 0.6934291765913673 0.3065708234086326 0.3252190070709686 0.6747809929290314 0.800995054529131 0.19900494547086905 0.4763298177150643 0.5236701822849358 0.35979618661023083 0.6402038133897692 0.0666668541456264 0.9333331458543737 0.40493862292622756 0.5950613770737725 0.7352690483487305 0.2647309516512695 0.9694641721099162 0.03053582789008382 0.4671528319829492 0.5328471680170508 0.552751936340384 0.447248063659616 0.9069518459506823 0.09304815404931774 0.21821898461656716 0.7817810153834328 0.16545597963986003 0.83454402036014 0.06180105468503894 0.9381989453149611 0.8586421592875113 0.1413578407124887 0.24844403305762403 0.7515559669423759 0.7278832338724716 0.27211676612752844 0.49890713188854136 0.5010928681114586 0.09529619978081619 0.9047038002191838 0.45399846884928424 0.5460015311507158 0.5435938851385125 0.45640611486148747 0.4017241219873558 0.5982758780126443 0.7415272601411357 0.2584727398588644 0.6748004910249147 0.32519950897508537 0.13714494030449492 0.862855059695505 0.5402462149513155 0.45975378504868447 0.05493939464799353 0.9450606053520064 0.5895953878860903 0.4104046121139096 0.3511243101291416 0.6488756898708584 0.4854250630039734 0.5145749369960265 0.061665327759929695 0.9383346722400703 0.9061961608120601 0.09380383918793986 0.41434461763083585 0.5856553823691641 0.41583729230064725 0.5841627076993527 0.7217988009760238 0.27820119902397616 0.9504542856406978 0.04954571435930226 0.2801711441329609 0.719828855867039 0.6790872751291355 0.32091272487086453 0.5512643055780734 0.44873569442192657 0.4342678425421922 0.5657321574578078 0.19889740095263886 0.8011025990473611 0.3664224520597265 0.6335775479402735 0.7524293227818403 0.24757067721815973 0.5385340468264503 0.4614659531735497 0.7621722575749249 0.23782774242507512 0.5268043409994577 0.47319565900054233 0.3825906095311987 0.6174093904688013 0.6481295083018428 0.3518704916981572 0.48490474506466114 0.515095254935339 0.11742207681160456 0.8825779231883955 0.2646174753568069 0.7353825246431931 0.9166897818259139 0.08331021817408622 0.8011284429976249 0.19887155700237513 0.17665795833262973 0.8233420416673701 0.324035348319556 0.6759646516804441 0.035166770976311525 0.9648332290236885 0.6043042911610944 0.3956957088389055 0.05221703747286833 0.9477829625271317 0.3395606058754641 0.6604393941245359 0.2729246341357879 0.7270753658642122 0.5444861272167854 0.4555138727832146 0.7162655600157107 0.28373443998428916 0.42786759329183255 0.5721324067081675 0.9031821339233124 0.09681786607668758 0.3861459510725198 0.6138540489274802 0.4878375714602091 0.5121624285397909 0.10213697366374176 0.8978630263362583 0.6151094103542786 0.3848905896457214 0.01861306428112364 0.9813869357188764 0.013861891278861914 0.986138108721138 0.8232167141380826 0.17678328586191733 0.3753516958946171 0.624648304105383 0.4351703426174262 0.5648296573825738 0.5013662731803888 0.49863372681961116 0.4907326717688433 0.5092673282311568 0.6252270976607559 0.3747729023392441 0.02352299275413494 0.9764770072458651 0.9600969624248351 0.03990303757516493 0.4186445756764493 0.5813554243235508 0.653492491163753 0.34650750883624704 0.7884423457138511 0.2115576542861489 0.4964843705726008 0.5035156294273992 0.6474893209854529 0.35251067901454713 0.8921695995319342 0.10783040046806576 0.28750984223087334 0.7124901577691265 0.7493622526977333 0.2506377473022666 0.9583959477204645 0.04160405227953542 0.9227254284630899 0.07727457153691013 0.6131552345172514 0.3868447654827486 0.36111390320616127 0.6388860967938388 0.5829826011091326 0.41701739889086736 0.7882236373698702 0.21177636263012975 0.3608206914787621 0.6391793085212378 0.6467804085404391 0.35321959145956094 0.43416326743751293 0.5658367325624871 0.5381953677850589 0.461804632214941 0.49854941770821776 0.5014505822917823 0.9406468887237579 0.05935311127624214 0.24577521228039967 0.7542247877196003 0.13621615946606855 0.8637838405339314 0.029242831610396588 0.9707571683896035 0.7427952609472607 0.2572047390527393 0.5706947940734669 0.4293052059265332 0.43305877896918665 0.5669412210308133 0.4551624036503062 0.5448375963496939 0.974996736267704 0.025003263732295968 0.10771657457178463 0.8922834254282154 0.5795101648484403 0.4204898351515597 0.6645581602681995 0.33544183973180053 0.6495710699046331 0.35042893009536696 0.37077689307383194 0.6292231069261681 0.6236609118204804 0.37633908817951955 0.6979976709510416 0.30200232904895846 0.42187184166751895 0.578128158332481 0.3040589251732647 0.6959410748267353 0.24972307886683248 0.7502769211331676 0.556407788472514 0.44359221152748596 0.4576006305280262 0.5423993694719738 0.7941742075930148 0.20582579240698515 0.3300281622932084 0.6699718377067916 0.4167591955315747 0.5832408044684253 0.07756445455241365 0.9224355454475863 0.4883309149889677 0.5116690850110324 0.38176569067438 0.61823430932562 0.877377391096499 0.12262260890350095 0.3806662392183747 0.6193337607816254 0.911511620576515 0.08848837942348502 0.6666310449957128 0.3333689550042872 0.6553841356626066 0.3446158643373935 0.5860513498246012 0.41394865017539884 0.09150541959093281 0.9084945804090672 0.7868553601665894 0.21314463983341064 0.8360166370118922 0.1639833629881078 0.002113677471856354 0.9978863225281437 0.6142326535874167 0.3857673464125832 0.636298900511215 0.36370109948878504 0.5407165639328037 0.45928343606719646 0.40818822661695137 0.5918117733830487 0.5250887414365666 0.4749112585634334 0.45702358228670664 0.5429764177132934 0.2923947258703645 0.7076052741296355 0.662569271497135 0.33743072850286504 0.6663121765544526 0.3336878234455473 0.47630982243800424 0.5236901775619958 0.43750514665530216 0.5624948533446978 0.3603576292978663 0.6396423707021337 0.5412725032281503 0.45872749677184954 0.4440825660890856 0.5559174339109144 0.10683764014903305 0.893162359850967 0.712594627840809 0.28740537215919104 0.16257575428247983 0.8374242457175202 0.7277684992423843 0.27223150075761576 0.2597279763005154 0.7402720236994845 0.5375035578598739 0.46249644214012603 0.5408525374295345 0.45914746257046546 0.31532658530333846 0.6846734146966615 0.27015693264500323 0.7298430673549967 0.3185187358386415 0.6814812641613583 0.44154004038060324 0.5584599596193967 0.46777033572137894 0.5322296642786211 0.9956239383921436 0.0043760616078564645 0.44505425636132834 0.5549457436386717 0.4974524213121108 0.5025475786878892 0.8786157805678135 0.1213842194321865 0.5506347269432418 0.4493652730567582 0.7435670720008412 0.2564329279991589 0.5765627564866538 0.4234372435133463 0.09024044829521903 0.909759551704781 0.23435405298570305 0.7656459470142969 0.5033218168376609 0.49667818316233914 0.40728994978951916 0.5927100502104808 0.5770722740780054 0.4229277259219946 0.3556728382284264 0.6443271617715736 0.5224493053452176 0.4775506946547824 0.4194788144361256 0.5805211855638744 0.4917996473076856 0.5082003526923144 0.6579362602137688 0.3420637397862311 0.195801666017403 0.804198333982597 0.371103006585687 0.6288969934143129 0.5196095617520209 0.48039043824797917 0.5344212922354508 0.4655787077645492 0.558906996298642 0.44109300370135784 0.4206992764329481 0.579300723567052 0.5582957567436627 0.4417042432563372 0.42321979316180325 0.5767802068381966 0.3077674869470643 0.6922325130529358 0.5888323515100173 0.41116764848998266 0.6536231237637249 0.346376876236275 0.44360194939498765 0.5563980506050124 0.09078037018802894 0.909219629811971 0.6500314417747561 0.3499685582252439 0.7085350813292456 0.29146491867075447 0.15298972623598256 0.8470102737640174 0.0063367385623038265 0.9936632614376961 0.7186790743302346 0.2813209256697654 0.8389388241573277 0.16106117584267224 0.5843143162305382 0.41568568376946186 0.9998968577135191 0.0001031422864809268 0.29742425465545075 0.7025757453445493 0.5156720125896009 0.4843279874103991 0.6460518818035902 0.3539481181964099 0.5052180222545597 0.49478197774544025 0.4528721757229832 0.5471278242770168 0.32394353018743954 0.6760564698125605 0.4864366770180484 0.5135633229819516 0.6608909314874228 0.33910906851257705 0.6011940650324727 0.39880593496752725 0.5542645034713577 0.4457354965286423 0.04462025894271389 0.9553797410572861 0.9296066438677574 0.07039335613224261 0.36554436554249803 0.634455634457502 0.5524612765738629 0.4475387234261371 0.24698234440473849 0.7530176555952616 0.6155757841415532 0.3844242158584467 0.697377809142512 0.302622190857488 0.4526051758419291 0.547394824158071 0.6667700803127887 0.3332299196872112 0.5212582056478022 0.4787417943521978 0.5184310884904033 0.48156891150959674 0.3707035036727129 0.6292964963272871 0.6083148975615597 0.3916851024384404 0.12924354912970015 0.8707564508702998 0.5034313041836773 0.4965686958163228 0.6291193229994454 0.37088067700055444 0.8320756458079523 0.1679243541920476 0.5684499483733609 0.43155005162663895 0.532045483114975 0.46795451688502504 0.8417045675978244 0.1582954324021755 0.49618076720915943 0.5038192327908406 0.25911983320245674 0.7408801667975432 0.24864262585693234 0.7513573741430678 0.17989859049253767 0.8201014095074624 0.6163756484569932 0.3836243515430067 0.22889000596530856 0.7711099940346914 0.3152309286749195 0.6847690713250806 0.47953957728784674 0.5204604227121532 0.3955456620798148 0.6044543379201851 0.16386373924211678 0.8361362607578832 0.45308384306722305 0.5469161569327771 0.42499552956333075 0.5750044704366692 0.6847779171140482 0.3152220828859518 0.5669808817530998 0.4330191182469002 0.23774045933436827 0.7622595406656316 0.5170516107232426 0.48294838927675754 0.2424178498420122 0.7575821501579878 0.5527308345283997 0.4472691654716004 0.3961396734586364 0.6038603265413636 0.12184286158480383 0.8781571384151962 0.6777849613575194 0.3222150386424806 0.060601427177227524 0.9393985728227725 0.9364038152721889 0.06359618472781109 0.49174183143763467 0.5082581685623654 0.40646212857933567 0.5935378714206644 0.5192759177010027 0.4807240822989973 0.7890350326109383 0.21096496738906162 0.12359541883902093 0.8764045811609791 0.025667118602936308 0.9743328813970636 0.47436319589479015 0.5256368041052099 0.40933334307748137 0.5906666569225186 0.5325590946057231 0.46744090539427685 0.47628835072978803 0.523711649270212 0.22035883097941988 0.7796411690205802 0.513473640608242 0.48652635939175803 0.5780721984360944 0.4219278015639056 0.4278618802518738 0.5721381197481261 0.5412762856905698 0.4587237143094302 0.38058073694120276 0.6194192630587972 0.34686422708169906 0.6531357729183008 0.6516727483437496 0.3483272516562504 0.18866434685289757 0.8113356531471024 0.5554865402279908 0.4445134597720092 0.33227593019710266 0.6677240698028973 0.24309200633658598 0.756907993663414 0.31145738166337145 0.6885426183366284 0.085924750870513 0.914075249129487 0.4297612510665831 0.570238748933417 0.18434651072292443 0.8156534892770756 0.7357973307810793 0.26420266921892055 0.2662519147037055 0.7337480852962944 0.2703472641003152 0.7296527358996848 0.9509185105446025 0.04908148945539742 0.4537073694757106 0.5462926305242896 0.3052329329349687 0.6947670670650312 0.3892257787044059 0.6107742212955941 0.47000962421359915 0.5299903757864008 0.9016592785828552 0.09834072141714482 0.014008514804771369 0.9859914851952286 0.293380698719644 0.7066193012803561 0.9086123408191411 0.09138765918085885 0.5649701491186051 0.4350298508813949 0.6064998142729638 0.39350018572703616 0.6037379171007452 0.3962620828992549 0.6269491733275994 0.37305082667240064 0.5455031198198724 0.4544968801801275 0.560971773799099 0.43902822620090104 0.5486586994382381 0.4513413005617619 0.3737162858645593 0.6262837141354407 0.4946417399226043 0.5053582600773956 0.24879307913751164 0.7512069208624884 0.011796180633223116 0.9882038193667769 0.3658166757304256 0.6341833242695744 0.6286152142147078 0.3713847857852922 0.27557063436836254 0.7244293656316374 0.6018690450806844 0.3981309549193156 0.5906616397614789 0.40933836023852105 0.5388468246414991 0.46115317535850087 0.5273940212287669 0.47260597877123306 0.06441691634082393 0.9355830836591761 0.702290368861725 0.2977096311382749 0.7445868332470718 0.25541316675292824 0.898784059214114 0.101215940785886 0.35960787463675953 0.6403921253632404 0.519476823718008 0.48052317628199204 0.7738001211885619 0.22619987881143802 0.9528583304227656 0.04714166957723442 0.4572423066958385 0.5427576933041615 0.5476974594389449 0.45230254056105507 0.5792686682277121 0.4207313317722879 0.11043805587884688 0.8895619441211531 0.2662000834656338 0.7337999165343663 0.7415552681686222 0.25844473183137784 0.5553397123512943 0.4446602876487057 0.877911670078614 0.12208832992138592 0.8564042779262975 0.14359572207370253 0.6314359689941446 0.36856403100585533 0.27506271226554513 0.7249372877344549 0.7495544056892395 0.2504455943107605 0.584629644813044 0.415370355186956 0.48992869119350785 0.5100713088064921 0.8790565628520474 0.12094343714795266 0.5133768954218692 0.48662310457813085 0.33062589808436904 0.6693741019156308 0.2793481968222143 0.7206518031777858 0.7979202425155203 0.20207975748447976 0.33516517197493273 0.6648348280250673 0.6650198485712326 0.33498015142876736 0.07935067341813519 0.9206493265818648 0.7384238754829869 0.26157612451701306 0.16219241447770963 0.8378075855222904 0.17064982233780132 0.8293501776621987 0.5719798911188034 0.4280201088811967 0.14885183591476267 0.8511481640852373 0.4009795595990194 0.5990204404009807 0.61165742987121 0.38834257012879 0.4613342878042051 0.5386657121957948 0.29584008952614854 0.7041599104738515 0.5994416421577469 0.400558357842253 0.6573311515854219 0.342668848414578 0.5378155771812384 0.4621844228187616 0.24442428996561988 0.7555757100343801 0.08164702426797828 0.9183529757320217 0.8458226979477577 0.1541773020522423 0.33911221394903773 0.6608877860509622 0.5936728927040095 0.4063271072959906 0.623937502484496 0.37606249751550397 0.8266061538196033 0.17339384618039663 0.5568305564554654 0.4431694435445346 0.42105934577340554 0.5789406542265946 0.288011674375751 0.7119883256242491 0.4334296628506614 0.5665703371493386 0.5668156399848173 0.43318436001518273 0.8713399578452499 0.12866004215475016 0.011486259824847014 0.988513740175153 0.09163887700067484 0.9083611229993251 0.2483949990428298 0.7516050009571702 0.9049632463253935 0.09503675367460651 0.3644464307928296 0.6355535692071704 0.2994950791786953 0.7005049208213048 0.44236179803776116 0.5576382019622388 0.1906859467549589 0.8093140532450411 0.5475819598966345 0.4524180401033655 0.3602353939824412 0.6397646060175589 0.3330359850437837 0.6669640149562164 0.22048279096944579 0.7795172090305542 0.7103225577897692 0.2896774422102308 0.39450768855959006 0.6054923114404099 0.5366288485854541 0.46337115141454593 0.17610211141935372 0.8238978885806462 0.23979019111529817 0.7602098088847018 0.46472727864540964 0.5352727213545905 0.38097623640108885 0.6190237635989112 0.09460780985073838 0.9053921901492616 0.691754333234395 0.30824566676560516 0.6477339359565407 0.35226606404345917 0.06927500105447743 0.9307249989455225 0.3800646432532375 0.6199353567467625 0.5074686648245594 0.49253133517544057 0.8045160120905748 0.19548398790942528 0.5179250704293743 0.48207492957062564 0.11666387445445717 0.8833361255455429 0.5208082305356699 0.47919176946432995 0.8103736923215911 0.1896263076784089 0.22618121015290854 0.7738187898470914 0.17549035796150436 0.8245096420384956 0.5735077618279588 0.4264922381720411 0.10287776929211724 0.8971222307078828 0.5042497047094986 0.4957502952905015 0.44155855790080917 0.5584414420991908 0.5407289567807921 0.45927104321920786 0.7709614674411686 0.22903853255883144 0.17787799183328415 0.822122008166716 0.09190293326610681 0.9080970667338932 0.10192419027762625 0.8980758097223738 0.5124840887488892 0.48751591125111077 0.19319930210495645 0.8068006978950435 0.3912012238881343 0.6087987761118657 0.37440236032507 0.6255976396749299 0.43674994697433517 0.5632500530256649 0.596944080570279 0.40305591942972097 0.7608871248300711 0.23911287516992885 0.5627402877823587 0.43725971221764115 0.6492112254809672 0.35078877451903273 0.2731658957798634 0.7268341042201366 0.18062722144844093 0.8193727785515591 0.5078995933316682 0.4921004066683319 0.3157063935835765 0.6842936064164236 0.40211579049123736 0.5978842095087626 0.3611108030725841 0.638889196927416 0.52098916077781 0.47901083922219 0.6479779643532431 0.3520220356467569 0.8706327477453748 0.12936725225462514 0.5915392228820423 0.40846077711795775 0.7084130894096596 0.29158691059034036 0.16248627283846873 0.8375137271615313 0.5788728354490782 0.42112716455092186 0.15741717738666655 0.8425828226133335 0.40646258448795974 0.5935374155120402 0.32916754524427744 0.6708324547557225 0.718478934952061 0.2815210650479389 0.7985073123345745 0.20149268766542555 0.5561629135755929 0.44383708642440717 0.02675047159764974 0.9732495284023502 0.6213122858831271 0.3786877141168729 0.3426624864963849 0.657337513503615 0.8525545704180841 0.14744542958191598 0.5308610820639683 0.46913891793603163 0.5913999882045364 0.4086000117954635 0.3511627485471128 0.6488372514528872 0.21082885213754962 0.7891711478624504 0.6372633087139956 0.36273669128600433 0.16679232679005804 0.8332076732099419 0.5511065865401623 0.4488934134598377 0.6472789840826983 0.35272101591730165 0.9086749358260822 0.09132506417391784 0.45681133118840417 0.5431886688115959 0.9100135369225009 0.08998646307749916 0.5345578815523063 0.46544211844769373 0.7688581420650286 0.23114185793497152 0.5611722839684927 0.43882771603150716 0.7574981252240159 0.2425018747759841 0.6918350115481142 0.3081649884518857 0.26872439172831636 0.7312756082716836 0.742596166780262 0.25740383321973803 0.32731645109475993 0.67268354890524 0.05716802948517458 0.9428319705148254 0.42396646563174234 0.5760335343682577 </TABLE>
    </DEFINITION>
    <DEFINITION>
      <FOR>17</FOR>
      <GIVEN>0</GIVEN>
      <GIVEN>2</GIVEN>
      <GIVEN>11</GIVEN>
      <GIVEN>16</GIVEN>
      <GIVEN>13</GIVEN>
      <GIVEN>15</GIVEN>
      <TABLE>0.86750495457953 0.13249504542047 0.8429256218320837 0.15707437816791617 0.5409962588210361 0.4590037411789639 0.7032962561870685 0.2967037438129315 0.22712427194006507 0.772875728059935 0.7675341856741881 0.23246581432581195 0.3056993693293407 0.6943006306706593 0.3571526306459125 0.6428473693540875 0.5911347669620021 0.4088652330379979 0.978368907170861 0.021631092829138967 0.014640384272484324 0.9853596157275156 0.3339877082443152 0.6660122917556849 0.4706015070191859 0.5293984929808142 0.014043371759813725 0.9859566282401863 0.479221249450898 0.520778750549102 0.2989421836002096 0.7010578163997905 0.11409419139056248 0.8859058086094376 0.5845878559707371 0.41541214402926296 0.9647944691366649 0.03520553086333506 0.5894402003583686 0.4105597996416315 0.05568649835346397 0.944313501646536 0.1666548668044626 0.8333451331955374 0.06178991531846568 0.9382100846815343 0.3298136646174689 0.670186335382531 0.22732676917444639 0.7726732308255536 0.4860747171137453 0.5139252828862547 0.42350596434008747 0.5764940356599125 0.4498246561705784 0.5501753438294216 0.03572461014472618 0.9642753898552738 0.7798432153650939 0.2201567846349061 0.5261927013421042 0.47380729865789584 0.08143797637554794 0.918562023624452 0.5357381578380107 0.4642618421619893 0.599936604973234 0.40006339502676597 0.15157562585958695 0.848424374140413 0.4763913206802876 0.5236086793197123 0.25978962935277095 0.740210370647229 0.005658194931646411 0.9943418050683536 0.5321909023285758 0.46780909767142415 0.22817791098481782 0.7718220890151822 0.48692681100761165 0.5130731889923884 0.8223546718592524 0.17764532814074768 0.4933689629233255 0.5066310370766746 0.557362249762703 0.44263775023729685 0.5867095139237503 0.4132904860762498 0.7075320807073621 0.29246791929263793 0.4730710802189841 0.5269289197810159 0.18963988341207838 0.8103601165879216 0.6586019583001113 0.34139804169988885 0.9120986873201539 0.08790131267984617 0.65927461742703 0.34072538257296997 0.586527216191661 0.413472783808339 0.20759786792753357 0.7924021320724665 0.29223822871535043 0.7077617712846496 0.6225375107558029 0.3774624892441972 0.6222994874376372 0.3777005125623627 0.5943753775488517 0.4056246224511482 0.5229109315157583 0.4770890684842417 0.22526334293738587 0.7747366570626141 0.7633769152938928 0.23662308470610718 0.3787119332482649 0.6212880667517351 0.477707874726892 0.522292125273108 0.42330082074497666 0.5766991792550233 0.2660443030120508 0.7339556969879493 </TABLE>
    </DEFINITION>
    <DEFINITION>
      <FOR>18</FOR>
      <GIVEN>0</GIVEN>
      <GIVEN>2</GIVEN>
      <GIVEN>17</GIVEN>
      <GIVEN>5</GIVEN>
      <GIVEN>13</GIVEN>
      <GIVEN>6</GIVEN>
      <GIVEN>10</GIVEN>
      <TABLE>0.3035256873866105 0.6964743126133895 0.506153180763708 0.4938468192362919 0.7723723280606162 0.22762767193938377 0.8066704924508021 0.19332950754919792 0.689071370056645 0.310928629943355 0.4618088654816783 0.5381911345183217 0.5209628362656759 0.4790371637343241 0.5101604855059734 0.4898395144940267 0.1658635629396376 0.8341364370603624 0.2063216309956591 0.7936783690043409 0.39539922044928083 0.6046007795507192 0.5342373064030429 0.4657626935969571 0.36672587487883734 0.6332741251211627 0.4975730527938191 0.5024269472061809 0.7794616223137151 0.2205383776862849 0.570573885142402 0.42942611485759796 0.05132507362865184 0.9486749263713482 0.13750826012991968 0.8624917398700803 0.13563641429687054 0.8643635857031294 0.455850323277884 0.544149676722116 0.3207808077058923 0.6792191922941078 0.5763886380442396 0.4236113619557604 0.6824217503978471 0.31757824960215286 0.7174555663108715 0.2825444336891285 0.01137033883932263 0.9886296611606774 0.30275642219696824 0.6972435778030318 0.6374516267959209 0.3625483732040792 0.49336844600647484 0.5066315539935252 0.9049822915562968 0.09501770844370312 0.5446807886015143 0.4553192113984858 0.047202857298637046 0.952797142701363 0.3634327835620277 0.6365672164379722 0.5391746771059273 0.46082532289407274 0.5273768813682396 0.4726231186317605 0.7679379097866289 0.23206209021337101 0.0862635025987355 0.9137364974012645 0.6844325305753801 0.31556746942461983 0.4465240344159158 0.5534759655840842 0.995277319809985 0.004722680190014935 0.09591235968540285 0.9040876403145971 0.3115184706371273 0.6884815293628729 0.4982904635080788 0.5017095364919212 0.325143623298299 0.674856376701701 0.05740410695089691 0.9425958930491031 0.2955225282762005 0.7044774717237996 0.47328516331701903 0.526714836682981 0.639270317226767 0.360729682773233 0.34387748191488077 0.6561225180851193 0.5301152176553797 0.4698847823446202 0.49373277737696725 0.5062672226230327 0.8881193954043054 0.11188060459569464 0.1502626870164708 0.8497373129835292 0.2531217855264984 0.7468782144735017 0.42655956042640725 0.5734404395735928 0.671607312728442 0.328392687271558 0.5192512272224807 0.48074877277751926 0.15376492475524514 0.8462350752447548 0.7474939028797836 0.2525060971202163 0.743542326321117 0.256457673678883 0.40631752549297745 0.5936824745070226 0.5583595995785409 0.4416404004214591 0.5684733249117855 0.43152667508821446 0.4653243877512852 0.5346756122487148 0.4577728779492655 0.5422271220507344 0.1671268683012564 0.8328731316987437 0.5416020035386907 0.45839799646130924 0.7179976416047255 0.28200235839527454 0.24916866576879157 0.7508313342312084 0.030350619509599594 0.9696493804904004 0.4823740518421688 0.5176259481578311 0.5194238054763701 0.4805761945236299 0.6604817610237235 0.33951823897627653 0.9962711082477758 0.0037288917522241842 0.8179869687058546 0.1820130312941454 0.45858187096585856 0.5414181290341415 0.04986893768454789 0.9501310623154521 0.4911345272008499 0.5088654727991502 0.9039262679600004 0.09607373203999957 0.07930320609339397 0.920696793906606 0.2109587214848191 0.7890412785151809 0.34979238668975715 0.6502076133102429 0.5018987995902155 0.49810120040978445 0.8513040454903854 0.14869595450961454 0.850153186141525 0.14984681385847498 0.47053728041505727 0.5294627195849427 0.6626266336816498 0.3373733663183502 0.504198961901949 0.49580103809805104 0.23662355366436374 0.7633764463356363 0.6924522611450974 0.3075477388549026 0.5939456535093868 0.40605434649061334 0.27469062319887366 0.7253093768011263 0.5812802042366177 0.41871979576338225 0.613967159352868 0.386032840647132 0.7131532269519057 0.2868467730480943 0.6856849522064591 0.31431504779354097 0.45022948749987884 0.5497705125001212 0.07781698369958157 0.9221830163004184 0.2508458160852536 0.7491541839147464 0.7227577456875239 0.2772422543124761 0.06217849358313886 0.9378215064168611 0.26211674324339707 0.737883256756603 0.1841713124991529 0.8158286875008471 0.6162913177034002 0.38370868229659993 0.6016503099342037 0.3983496900657963 0.7356250655238716 0.26437493447612836 0.556949653764339 0.4430503462356609 0.21484303878217537 0.7851569612178246 0.45669369230131646 0.5433063076986836 0.450700167997231 0.549299832002769 0.45415811839697884 0.5458418816030213 0.4838554120297211 0.516144587970279 0.6076005428479346 0.3923994571520654 0.25235917970128263 0.7476408202987174 0.9994360502536825 0.0005639497463174682 0.8114327417820619 0.1885672582179381 0.48408697679102425 0.5159130232089758 0.18735528649255748 0.8126447135074425 0.48854589797776626 0.5114541020222338 0.8099572459055067 0.1900427540944934 0.643842814509703 0.35615718549029696 0.6660557515166878 0.3339442484833122 0.8396086686313206 0.1603913313686794 0.36762086969618485 0.6323791303038151 0.34972772039280225 0.6502722796071978 0.3981239667513066 0.6018760332486934 0.27008799874746386 0.7299120012525362 0.24499898771321998 0.75500101228678 0.714299662828725 0.285700337171275 </TABLE>
    </DEFINITION>
    <DEFINITION>
      <FOR>19</FOR>
      <GIVEN>0</GIVEN>
      <GIVEN>3</GIVEN>
      <GIVEN>7</GIVEN>
      <GIVEN>16</GIVEN>
      <GIVEN>17</GIVEN>
      <GIVEN>5</GIVEN>
      <GIVEN>4</GIVEN>
      <GIVEN>12</GIVEN>
      <GIVEN>13</GIVEN>
      <GIVEN>6</GIVEN>
      <GIVEN>9</GIVEN>
      <TABLE>0.15104087853338716 0.8489591214666129 0.8631679361023399 0.1368320638976601 0.07480449200152871 0.9251955079984713 0.15674602234982957 0.8432539776501704 0.5545069382961672 0.4454930617038329 0.683577983576198 0.31642201642380197 0.2597509325891015 0.7402490674108986 0.0950964807705093 0.9049035192294907 0.621040258967638 0.37895974103236196 0.2976845891792257 0.7023154108207743 0.2867723037062346 0.7132276962937655 0.6128874699127755 0.38711253008722457 0.6287343574813568 0.3712656425186432 0.2833388172161511 0.7166611827838488 0.9434234860896045 0.05657651391039553 0.17292955569016308 0.827070444309837 0.43980464774600525 0.5601953522539946 0.44997401288742633 0.5500259871125738 0.2910843518252343 0.7089156481747657 0.33206394011595947 0.6679360598840405 0.5953015622787543 0.40469843772124564 0.6978450323366383 0.30215496766336164 0.3150566530391993 0.6849433469608007 0.6579502370033147 0.34204976299668527 0.5483889467607662 0.45161105323923384 0.42717173355271093 0.5728282664472891 0.6674241642498195 0.3325758357501805 0.47216724251293135 0.5278327574870686 0.7302053747782163 0.26979462522178355 0.33294324384917584 0.6670567561508242 0.19790408646372185 0.8020959135362782 0.3294137596525041 0.6705862403474959 0.5897939891599833 0.41020601084001673 0.5748360025578617 0.4251639974421382 0.8010874783502543 0.19891252164974557 0.6732788637659723 0.3267211362340277 0.5936627173687342 0.4063372826312658 0.6851233842700402 0.31487661572995973 0.5037821809008441 0.4962178190991559 0.400615701715075 0.599384298284925 0.4910991197954903 0.5089008802045097 0.6788726637620072 0.32112733623799283 0.8202559956800888 0.17974400431991122 0.4008609148410984 0.5991390851589016 0.3362912958584098 0.6637087041415903 0.9593553789588788 0.04064462104112114 0.6032450796753345 0.3967549203246655 0.4956588450537757 0.5043411549462242 0.4076011259514444 0.5923988740485557 0.8339235212593206 0.16607647874067946 0.21443318682212228 0.7855668131778777 0.2644841391775685 0.7355158608224316 0.3155911989027879 0.684408801097212 0.519837116796998 0.48016288320300204 0.2455728256541865 0.7544271743458135 0.6489135837728329 0.351086416227167 0.7062766857062731 0.293723314293727 0.8690085388262394 0.1309914611737606 0.5613144050012373 0.4386855949987627 0.20790910810046723 0.7920908918995327 0.7772431762021026 0.22275682379789732 0.17708828971780913 0.8229117102821909 0.9667058172271088 0.033294182772891236 0.9142885121886976 0.08571148781130243 0.9401036693517915 0.05989633064820856 0.5791369091214479 0.4208630908785521 0.537191608715363 0.46280839128463697 0.8535203247124535 0.14647967528754646 0.31953275499557143 0.6804672450044286 0.2075044719728856 0.7924955280271144 0.25946782851201633 0.7405321714879837 0.16645158057194673 0.8335484194280532 0.5604105190400306 0.4395894809599694 0.3838874158752479 0.6161125841247521 0.5299535650325048 0.47004643496749526 0.14020881481412997 0.85979118518587 0.6154029267473607 0.3845970732526393 0.8657224872520803 0.1342775127479198 0.7165555330537076 0.2834444669462924 0.6193570399787336 0.38064296002126635 0.2723391153304307 0.7276608846695694 0.6919951744976081 0.3080048255023919 0.3898741071844779 0.6101258928155221 0.5074230193115605 0.4925769806884394 0.815076886491525 0.18492311350847498 0.9199726728975433 0.08002732710245669 0.599282391390495 0.40071760860950495 0.4962442973398263 0.5037557026601738 0.35597133761663363 0.6440286623833664 0.3742853022585707 0.6257146977414294 0.07829706963223058 0.9217029303677694 0.25210303641844417 0.747896963581556 0.18169017369471677 0.8183098263052833 0.002610073221269294 0.9973899267787307 0.11108355743891367 0.8889164425610864 0.8518063622684077 0.1481936377315923 0.17056032815846495 0.829439671841535 0.0695486576677936 0.9304513423322064 0.6230888548349307 0.37691114516506924 0.6816143334991095 0.3183856665008905 0.22218927932302757 0.7778107206769724 0.38539584972767055 0.6146041502723295 0.29339523965519254 0.7066047603448075 0.3263758573479023 0.6736241426520977 0.15654161767777372 0.8434583823222263 0.5732407732541784 0.42675922674582156 0.5596255627961145 0.4403744372038854 0.4818250194625337 0.5181749805374662 0.5927796427582821 0.4072203572417179 0.9973529497318355 0.0026470502681644648 0.15955615409411375 0.8404438459058863 0.17641891449413655 0.8235810855058635 0.3494225788346976 0.6505774211653024 0.402945836987453 0.597054163012547 0.8362767748230351 0.16372322517696486 0.9319124829885861 0.06808751701141386 0.7568675562155116 0.2431324437844884 0.45567571702715026 0.5443242829728497 0.4474828998939967 0.5525171001060034 0.4986003794645391 0.5013996205354608 0.6343157471124176 0.3656842528875826 0.9780240320479312 0.021975967952068767 0.7729330311345369 0.2270669688654631 0.7769996602041144 0.22300033979588565 0.4928944465821087 0.5071055534178913 0.1268978807115015 0.8731021192884986 0.10628833099066749 0.8937116690093325 0.6844523762201334 0.3155476237798666 0.4736976120858798 0.5263023879141202 0.7212538543295169 0.27874614567048306 0.8760639468263365 0.12393605317366353 0.15507971854639221 0.8449202814536078 0.6821333532961263 0.31786664670387366 0.14060198539672275 0.8593980146032774 0.07694578047750651 0.9230542195224934 0.9685145723916107 0.03148542760838931 0.6102041465950813 0.38979585340491874 0.588273939865641 0.411726060134359 0.5982032508646077 0.4017967491353923 0.37188596520435596 0.6281140347956441 0.3973153066885064 0.6026846933114935 0.45195140528977 0.5480485947102299 0.701593448191912 0.298406551808088 0.13949823246279344 0.8605017675372065 0.5246287943346004 0.47537120566539964 0.6205031600337517 0.37949683996624833 0.5919163727800476 0.4080836272199524 0.7214355817097161 0.2785644182902838 0.7748055948600716 0.22519440513992842 0.8410304790065539 0.15896952099344605 0.15020496014700302 0.849795039852997 0.8614899507606806 0.13851004923931945 0.14808975318644998 0.85191024681355 0.38699753543695387 0.6130024645630461 0.5039080678864871 0.49609193211351293 0.6478527413379452 0.3521472586620547 0.09945358024526844 0.9005464197547316 0.35599227514878384 0.644007724851216 0.8654013462745693 0.13459865372543062 0.49749710171187467 0.5025028982881253 0.5578836333270224 0.44211636667297755 0.45781821812173906 0.5421817818782608 0.4988863751111767 0.5011136248888233 0.876226150075109 0.12377384992489107 0.6160596898018706 0.38394031019812935 0.545571875796693 0.45442812420330697 0.7031615490240088 0.2968384509759912 0.8071715823094321 0.1928284176905679 0.6930525468786045 0.30694745312139543 0.28672829370182035 0.7132717062981796 0.47717497442059026 0.5228250255794098 0.14004546902293333 0.8599545309770665 0.9880388087104758 0.011961191289524272 0.3182640416289338 0.6817359583710663 0.21672322658113577 0.7832767734188643 0.43739297502909313 0.5626070249709069 0.4872370312760724 0.5127629687239276 0.3741323381162708 0.6258676618837293 0.5003992709970757 0.49960072900292424 0.48167140428937316 0.5183285957106268 0.6447465409525696 0.3552534590474304 0.803681793622619 0.19631820637738093 0.09357587843176121 0.9064241215682388 0.5346894958225099 0.4653105041774902 0.4081151897183547 0.5918848102816453 0.47124550948530225 0.5287544905146978 0.1498168017243961 0.8501831982756038 0.5055914167598269 0.4944085832401731 0.21106300920351906 0.788936990796481 0.8768904453089456 0.1231095546910544 0.39722861051939123 0.6027713894806087 0.688260855145174 0.311739144854826 0.722978756633468 0.277021243366532 0.4680882908973586 0.5319117091026414 0.47164997262017827 0.5283500273798217 0.3840127971124174 0.6159872028875827 0.5226592518317922 0.47734074816820793 0.5987217543608646 0.40127824563913544 0.36896465786986626 0.6310353421301338 0.4791852423672498 0.5208147576327502 0.2027209838429486 0.7972790161570514 0.8713407918720277 0.12865920812797227 0.7048519307578677 0.2951480692421324 0.9928994804738029 0.007100519526197044 0.407418768020166 0.5925812319798339 0.016564011350935968 0.983435988649064 0.4917498991984807 0.5082501008015193 0.09107806604322681 0.9089219339567732 0.23018278302993087 0.7698172169700691 0.6102390819468769 0.3897609180531231 0.4920222848232647 0.5079777151767354 0.5760536063396327 0.42394639366036735 0.8093014119439764 0.19069858805602366 0.6082001159600079 0.39179988403999216 0.3767838441938311 0.6232161558061688 0.17146612378895823 0.8285338762110418 0.5254031469787495 0.47459685302125054 0.8160673667549528 0.1839326332450472 0.54183362013121 0.45816637986879 0.394341864290929 0.605658135709071 0.22785798614897917 0.7721420138510209 0.7677010692020918 0.23229893079790823 0.38535534422606077 0.6146446557739391 0.17703824399009754 0.8229617560099025 0.12354888869572923 0.8764511113042708 0.2704509599557552 0.7295490400442448 0.590319592417521 0.40968040758247903 0.33901698763890126 0.6609830123610987 0.6918211009856771 0.308178899014323 0.7688798055227496 0.23112019447725043 0.49265372343762176 0.5073462765623783 0.27575864092030855 0.7242413590796914 0.7140555171464167 0.28594448285358326 0.43335411445982785 0.5666458855401721 0.726916967367774 0.273083032632226 0.2548471285066449 0.7451528714933551 0.24731912482442941 0.7526808751755707 0.5484432032657943 0.45155679673420573 0.5553799918791074 0.4446200081208927 0.569838767110148 0.430161232889852 0.5341423862388586 0.4658576137611414 0.5796955096972963 0.4203044903027036 0.42531017270064153 0.5746898272993586 0.5269583910596355 0.4730416089403645 0.3766062363357925 0.6233937636642075 0.632815110731813 0.36718488926818704 0.24256410822913582 0.7574358917708642 0.11772420255146213 0.8822757974485378 0.24994349709826458 0.7500565029017354 0.5728738967892696 0.42712610321073047 0.7522482176334384 0.24775178236656162 0.3434699739056207 0.6565300260943794 0.8937084843797831 0.10629151562021694 0.5710117946589558 0.4289882053410442 0.45095812575632077 0.5490418742436792 0.1856013425527076 0.8143986574472923 0.13615199373005119 0.8638480062699487 0.4840835287747478 0.5159164712252522 0.5098389813741763 0.4901610186258237 0.4822821849165376 0.5177178150834624 0.44041340676584995 0.5595865932341499 0.15620323476609377 0.8437967652339061 0.24705831574536385 0.752941684254636 0.27920335872858226 0.7207966412714178 0.5233100430377183 0.47668995696228167 0.6422679276068098 0.35773207239319016 0.534068292837613 0.4659317071623869 0.3626216898009102 0.6373783101990899 0.21607650072095 0.78392349927905 0.9534421153260895 0.04655788467391049 0.8276419797530884 0.17235802024691155 0.49800624395465837 0.5019937560453416 0.4608104116759897 0.5391895883240102 0.7549867780503431 0.2450132219496569 0.8157913837515829 0.18420861624841708 0.03892265564103547 0.9610773443589645 0.5505658742187838 0.44943412578121616 0.13454005107845504 0.865459948921545 0.604883886467426 0.39511611353257403 0.7240994685565106 0.27590053144348947 0.31314657901902015 0.6868534209809799 0.3446401351991923 0.6553598648008078 0.30758305720193124 0.6924169427980688 0.5140944575911834 0.48590554240881667 0.3830164903514687 0.6169835096485313 0.7647171070612153 0.2352828929387847 0.11988901426543047 0.8801109857345695 0.7553948436732572 0.2446051563267427 0.5459571733802489 0.4540428266197512 0.9794200596365191 0.020579940363480896 0.23994731630854693 0.7600526836914531 0.4256797234039858 0.5743202765960141 0.42845217200043484 0.5715478279995652 0.13738743397945352 0.8626125660205465 0.14073806361601457 0.8592619363839853 0.35667139851177415 0.6433286014882258 0.5055959369155703 0.49440406308442963 0.8404518217189201 0.15954817828107995 0.47190509504124956 0.5280949049587504 0.7873929151377573 0.2126070848622426 0.5685338658490923 0.43146613415090773 0.3751163765932695 0.6248836234067305 0.6512905531221292 0.3487094468778708 0.1036147032258612 0.8963852967741388 0.49282382599368335 0.5071761740063166 0.5071744474435621 0.4928255525564379 0.8887524061147521 0.11124759388524784 0.5186635732885136 0.48133642671148624 0.8070722596640185 0.1929277403359815 0.14985264216754576 0.8501473578324541 0.4124879534107388 0.5875120465892613 0.5697511230499782 0.4302488769500219 0.6225708553146305 0.3774291446853695 0.8708751350362917 0.1291248649637083 0.27288328368970693 0.7271167163102931 0.38492625861088786 0.6150737413891122 0.3413016336571736 0.6586983663428264 0.41973702972921845 0.5802629702707817 0.3367493736370841 0.6632506263629159 0.08499762250862956 0.9150023774913705 0.32130065944250596 0.678699340557494 0.43596087432167596 0.5640391256783239 0.3108736250706055 0.6891263749293945 0.7313487030865734 0.26865129691342654 0.4402453584907286 0.5597546415092713 0.26118847614821095 0.7388115238517889 0.18445465211232676 0.8155453478876732 0.4254694290569274 0.5745305709430726 0.9818928615084725 0.0181071384915274 0.5132025169643716 0.4867974830356283 0.09919993634698594 0.900800063653014 0.5923017987106087 0.40769820128939116 0.5781774316594286 0.4218225683405714 0.4965694768119651 0.5034305231880348 0.8286035835162034 0.17139641648379658 0.3005943571761596 0.6994056428238404 0.33534458660817706 0.664655413391823 0.0800509692204645 0.9199490307795356 0.42879762413105865 0.5712023758689413 0.5964900649214985 0.4035099350785015 0.4027523642102692 0.5972476357897307 0.08962129411124076 0.9103787058887592 0.4818783585520288 0.5181216414479712 0.29791647450316383 0.7020835254968362 0.6941142832171321 0.3058857167828678 0.6997359967574575 0.30026400324254243 0.8142000846002825 0.18579991539971746 0.6053863068123148 0.3946136931876853 0.19926256556131608 0.800737434438684 0.19076315211048792 0.8092368478895121 0.39109103174816356 0.6089089682518365 0.3012516567242376 0.6987483432757624 0.6472244763734842 0.35277552362651565 0.4824089995677269 0.5175910004322731 0.34952490700802463 0.6504750929919754 0.507331471192318 0.49266852880768197 0.32125294303464474 0.6787470569653553 0.2239994782281404 0.7760005217718597 0.6316559588340881 0.36834404116591185 0.8656353714512953 0.1343646285487047 0.4140222709839658 0.5859777290160342 0.08496768549404965 0.9150323145059504 0.4952246840556243 0.5047753159443756 0.7199165128465593 0.2800834871534406 0.5286461766934984 0.47135382330650155 0.5062985163645073 0.49370148363549277 0.8124884672446843 0.18751153275531574 0.4454754518287145 0.5545245481712854 0.7299254485398445 0.27007455146015547 0.6634847265561602 0.3365152734438399 0.44108197999811416 0.5589180200018858 0.6860801702540316 0.3139198297459684 0.051067445025351876 0.9489325549746481 0.3501605831916027 0.6498394168083973 0.6136178498048747 0.3863821501951253 0.42549774733908946 0.5745022526609106 0.3274148063127869 0.6725851936872131 0.16038160394978024 0.8396183960502197 0.5870676461511876 0.4129323538488125 0.41901043588300224 0.5809895641169978 0.7751510830537761 0.2248489169462239 0.6487671049415328 0.3512328950584672 0.32067323963555255 0.6793267603644475 0.2052646934322281 0.794735306567772 0.8299608227893823 0.17003917721061762 0.49757947693453924 0.5024205230654607 0.9762249994988446 0.023775000501155497 0.00391996305192315 0.9960800369480769 0.7827417279313396 0.21725827206866047 0.22578498062663338 0.7742150193733667 0.8881312052272136 0.11186879477278647 0.7449111454436632 0.2550888545563369 0.26899676953334367 0.7310032304666564 0.5794049693637715 0.42059503063622844 0.6733658362097567 0.32663416379024335 0.5841051881488393 0.41589481185116073 0.4744362199715918 0.5255637800284082 0.07201817109326848 0.9279818289067315 0.4299999227279013 0.5700000772720987 0.640652858701087 0.359347141298913 0.04075575773847274 0.9592442422615273 0.5713898616818033 0.42861013831819683 0.12447577063589368 0.8755242293641063 0.308478068251863 0.6915219317481369 0.33156429864890086 0.6684357013510991 0.48071195002616257 0.5192880499738374 0.600572935760533 0.399427064239467 0.6563571286820811 0.34364287131791893 0.062157862454934945 0.9378421375450651 0.7507746938248521 0.24922530617514788 0.269058014869467 0.7309419851305331 0.26704521964461664 0.7329547803553834 0.6596231095752132 0.3403768904247867 0.28094118623976444 0.7190588137602356 0.6160527222989841 0.3839472777010159 0.5156303266396568 0.4843696733603432 0.6696865713612334 0.3303134286387666 0.5064738338015754 0.49352616619842465 0.9935617672970939 0.0064382327029061616 0.1471892247713669 0.8528107752286331 0.1257818050875335 0.8742181949124664 0.42491697207296303 0.5750830279270369 0.20570428840835142 0.7942957115916486 0.3501876074755149 0.649812392524485 0.18348604739473898 0.816513952605261 0.3032031678652817 0.6967968321347183 0.09147875734320951 0.9085212426567905 0.7489106492203722 0.2510893507796278 0.6842597182564989 0.3157402817435011 0.7455993500678927 0.2544006499321073 0.5861348068554265 0.4138651931445735 0.5272798138863951 0.47272018611360483 0.5417084457790871 0.4582915542209129 0.7580437669444039 0.24195623305559613 0.49606768500780674 0.5039323149921933 0.458110973069215 0.5418890269307849 0.5296920162697271 0.4703079837302729 0.6331167654840819 0.3668832345159181 0.39447237671867247 0.6055276232813275 0.035068119843497635 0.9649318801565023 0.18991144199518695 0.8100885580048129 0.8030369031040674 0.1969630968959325 0.9306866076653888 0.06931339233461116 0.26789628270554494 0.732103717294455 0.7458232776077799 0.2541767223922201 0.3916878956566863 0.6083121043433137 0.7944735017984548 0.20552649820154525 0.840734932321294 0.15926506767870593 0.5460561009702122 0.4539438990297878 0.5110229224686351 0.4889770775313649 0.5445581172613609 0.45544188273863906 0.22146827162505076 0.7785317283749491 0.663686136645045 0.33631386335495494 0.41813522123804375 0.5818647787619562 0.4249010235196291 0.5750989764803709 0.5501975874337223 0.44980241256627773 0.44061295777505466 0.5593870422249453 0.6777895426055498 0.32221045739445014 0.29185877945880784 0.7081412205411921 0.6120420960641477 0.3879579039358523 0.9040412762484935 0.09595872375150653 0.06901176247365645 0.9309882375263435 0.07388209925768605 0.9261179007423139 0.653674083555061 0.34632591644493893 0.18718096038171747 0.8128190396182825 0.9753719642799721 0.02462803572002796 0.525277053887228 0.4747229461127721 0.5605629915506688 0.4394370084493313 0.5243982986925538 0.47560170130744617 0.7230745884015302 0.2769254115984699 0.7357365338171298 0.2642634661828702 0.5714602613052616 0.4285397386947384 0.1576754783716443 0.8423245216283557 0.4604473912956369 0.5395526087043632 0.33150586921598757 0.6684941307840124 0.5738257015507592 0.4261742984492408 0.29638929029167327 0.7036107097083267 0.321409862010728 0.6785901379892719 0.7302693939014739 0.2697306060985261 0.8665059679268587 0.13349403207314123 0.7340352648925764 0.26596473510742363 0.2756057864754231 0.7243942135245769 0.5879605678174379 0.41203943218256217 0.9755052240888327 0.02449477591116728 0.5735602710372953 0.4264397289627047 0.3198023823812585 0.6801976176187415 0.5832040267842117 0.4167959732157883 0.6967975939351102 0.3032024060648897 0.4037888148302645 0.5962111851697355 0.5470008938904901 0.4529991061095099 0.40504320176510383 0.5949567982348961 0.12505842088920632 0.8749415791107937 0.5944740605927302 0.4055259394072697 0.006910445712599255 0.9930895542874008 0.39407842019045525 0.6059215798095448 0.5299115586592408 0.4700884413407593 0.8983492762591082 0.10165072374089167 0.09872030743636763 0.9012796925636323 0.21875844183871923 0.7812415581612808 0.15000524211860147 0.8499947578813986 0.2807242865425872 0.7192757134574127 0.2896793562486319 0.7103206437513682 0.4628845574024167 0.5371154425975833 0.8446510481242778 0.15534895187572215 0.6557207690388612 0.3442792309611388 0.45717333773379576 0.5428266622662042 0.6172235752053501 0.3827764247946499 0.38876509114744995 0.61123490885255 0.3392223443359667 0.6607776556640333 0.13854876434461927 0.8614512356553807 0.5950062668895628 0.40499373311043707 0.8241654511755193 0.1758345488244807 0.9487758414716927 0.05122415852830733 0.6470207168491835 0.3529792831508165 0.5636963086530798 0.43630369134692015 0.9075774183156807 0.09242258168431931 0.04265740964569308 0.9573425903543069 0.2883250777432053 0.7116749222567946 0.18074129643115855 0.8192587035688413 0.4864598941833072 0.5135401058166927 0.7312406082357427 0.2687593917642572 0.10375243510521251 0.8962475648947875 0.5103977709876985 0.4896022290123015 0.6084064200378766 0.3915935799621235 0.41676306536851815 0.5832369346314819 0.3912718552203189 0.6087281447796812 0.1999802945280914 0.8000197054719086 0.1779751481258614 0.8220248518741385 0.438926485751787 0.5610735142482131 0.19476020086028806 0.8052397991397118 0.6400379884801439 0.359962011519856 0.8765285323185039 0.12347146768149607 0.6515206324193157 0.3484793675806843 0.5601719016702859 0.4398280983297141 0.9290487379772596 0.07095126202274032 0.5509097572644203 0.44909024273557974 0.24789421271293116 0.7521057872870688 0.44951594172373804 0.550484058276262 0.4965685616928722 0.5034314383071278 0.9061986926888653 0.09380130731113467 0.5924839576541621 0.40751604234583794 0.2405496081786882 0.7594503918213118 0.6225613789944421 0.377438621005558 0.951843726457859 0.048156273542141054 0.6398235520268595 0.36017644797314047 0.9087185695276175 0.09128143047238248 0.8082449847342267 0.19175501526577327 0.2790570749337318 0.7209429250662682 0.31799324812769314 0.6820067518723069 0.4162718720284435 0.5837281279715565 0.5650373617410277 0.43496263825897236 0.6613566589126204 0.33864334108737965 0.44243755817773284 0.5575624418222673 0.24373676911393236 0.7562632308860676 0.33847588215248514 0.6615241178475149 0.4863164185233213 0.5136835814766787 0.6643718233693547 0.3356281766306452 0.3356796815690622 0.6643203184309379 0.5093622105057917 0.4906377894942084 0.4367832873455818 0.5632167126544181 0.6406534775609922 0.3593465224390077 0.7305721025324008 0.26942789746759926 0.3338515004350483 0.6661484995649516 0.07235271751592141 0.9276472824840786 0.38418704197839165 0.6158129580216083 0.39500847018575375 0.6049915298142462 0.6319735208041137 0.3680264791958863 0.835394958799797 0.16460504120020303 0.551752873365911 0.44824712663408917 0.5400907452780905 0.4599092547219094 0.233172259120528 0.7668277408794721 0.4684131213451927 0.5315868786548074 0.6828459878646699 0.3171540121353302 0.9414268212673561 0.05857317873264388 0.6702656063581603 0.3297343936418397 0.7864676102896876 0.21353238971031238 0.9167386806211278 0.08326131937887217 0.4019108843867123 0.5980891156132877 0.8392597581011753 0.16074024189882474 0.5456295456166691 0.45437045438333096 0.8865983821256055 0.11340161787439453 0.5469752398534314 0.45302476014656856 0.23438219243596914 0.7656178075640309 0.16541581085428944 0.8345841891457106 0.5210669396909593 0.47893306030904065 0.5861451932584891 0.41385480674151087 0.40550416334215167 0.5944958366578484 0.6764169795766416 0.32358302042335846 0.6377923376484684 0.3622076623515316 0.6930598348368523 0.3069401651631477 0.09646848579011862 0.9035315142098813 0.4754988719716181 0.524501128028382 0.5511368104040202 0.4488631895959798 0.6122005608160178 0.38779943918398213 0.7422618961632971 0.257738103836703 0.8338916706139204 0.16610832938607958 0.6226433707390404 0.3773566292609596 0.5919083672445068 0.4080916327554932 0.25692105552063355 0.7430789444793665 0.2417917697913306 0.7582082302086693 0.6959701912650548 0.3040298087349452 0.30133070891875874 0.6986692910812412 0.3788649948864313 0.6211350051135687 0.5299744528879885 0.47002554711201144 0.2718391208111006 0.7281608791888993 0.8265163936769098 0.17348360632309018 0.7045792553950161 0.2954207446049839 0.045908015437366466 0.9540919845626336 0.8274356685293709 0.1725643314706291 0.6376774007107776 0.3623225992892224 0.63372446631484 0.36627553368515997 0.3338319888987428 0.6661680111012572 0.5228550347536387 0.4771449652463612 0.5925431786792605 0.40745682132073946 0.7611119846013641 0.23888801539863588 0.8070015040865756 0.19299849591342444 0.5251256187012192 0.4748743812987808 0.2225353649145034 0.7774646350854967 0.505316451780757 0.4946835482192431 0.576364752314758 0.4236352476852419 0.703359180146606 0.29664081985339397 0.3084337031847324 0.6915662968152676 0.48955631881825734 0.5104436811817425 0.057343521476492874 0.9426564785235071 0.7755582138267626 0.22444178617323743 0.5319648988769171 0.46803510112308283 0.6543807144630148 0.3456192855369852 0.2605225580800496 0.7394774419199504 0.777021849941844 0.222978150058156 0.4903014601661897 0.5096985398338103 0.31963915936266873 0.6803608406373313 0.3071275248563806 0.6928724751436194 0.3571245406047037 0.6428754593952963 0.41045390394510856 0.5895460960548914 0.7109237554413197 0.28907624455868036 0.37754103515492426 0.6224589648450757 0.1889286955172974 0.8110713044827026 0.2008747481023395 0.7991252518976605 0.8003746786899189 0.19962532131008112 0.23723608739816057 0.7627639126018394 0.7325099964620696 0.2674900035379304 0.9812249781084231 0.018775021891576867 0.41840881660195356 0.5815911833980464 0.7351076504216135 0.26489234957838653 0.5465886110903555 0.45341138890964433 0.5971696671813825 0.4028303328186175 0.45602764670456997 0.54397235329543 0.921540291568086 0.07845970843191394 0.5389565323641917 0.4610434676358083 0.7217556535965224 0.27824434640347756 0.6092905653069445 0.39070943469305547 0.3612746735615274 0.6387253264384726 0.5568043759664898 0.4431956240335103 0.7261064055561749 0.2738935944438253 0.1895244532845137 0.8104755467154863 0.23518298860478595 0.7648170113952141 0.5168633322082128 0.4831366677917872 0.41694947845750835 0.5830505215424916 0.7701218713617511 0.2298781286382488 0.6591235193055351 0.3408764806944649 0.21174100555088962 0.7882589944491105 0.08158504377971301 0.918414956220287 0.6657475257046094 0.3342524742953906 0.45406233977981825 0.5459376602201818 0.8888608128194763 0.11113918718052371 0.662927399840598 0.337072600159402 0.6905111124227445 0.3094888875772556 0.4202716151580078 0.5797283848419921 0.24448645475573638 0.7555135452442636 0.7082809223411474 0.2917190776588526 0.4309904253787272 0.5690095746212728 0.810238140347999 0.18976185965200099 0.29510455648689426 0.7048954435131057 0.19142390789655217 0.8085760921034478 0.7560998567219174 0.24390014327808263 0.6420066516827178 0.3579933483172823 0.9480600002393031 0.05193999976069682 0.11608370226181298 0.883916297738187 0.6586466699043535 0.3413533300956466 0.45385505118419134 0.5461449488158087 0.7276583536778202 0.27234164632217983 0.9847864897454612 0.015213510254538775 0.543323653017244 0.456676346982756 0.38727509795762516 0.6127249020423748 0.16735992406190625 0.8326400759380937 0.8986954327575544 0.10130456724244565 0.14982348448665062 0.8501765155133494 0.8641696968851594 0.13583030311484054 0.4962316928115127 0.5037683071884873 0.31538828119410073 0.6846117188058992 0.48972125988031123 0.5102787401196888 0.8277415091613078 0.17225849083869219 0.497751727299615 0.502248272700385 0.5325728795563035 0.4674271204436964 0.8974254643025591 0.10257453569744085 0.5325887879073965 0.46741121209260345 0.4216636879909483 0.5783363120090517 0.389898782077534 0.610101217922466 0.4830022903513116 0.5169977096486885 0.4580936849455677 0.5419063150544323 0.27262783685466063 0.7273721631453394 0.49036494013640797 0.509635059863592 0.059811077772609404 0.9401889222273906 0.7002798416280059 0.29972015837199395 0.4142324295102597 0.5857675704897404 0.8404760163642302 0.15952398363576975 0.6766159875346552 0.3233840124653447 0.1719322610940409 0.8280677389059592 0.6474239700204156 0.3525760299795843 0.02741738782058411 0.9725826121794159 0.6890389590265315 0.3109610409734685 0.6170765230028509 0.3829234769971492 0.3183046361552506 0.6816953638447494 0.3234448540527333 0.6765551459472666 0.4390317224161808 0.5609682775838192 0.5945770817425129 0.40542291825748716 0.8285263531339948 0.1714736468660052 0.23235659668154893 0.767643403318451 0.4979086463058289 0.5020913536941711 0.5152792588900567 0.4847207411099434 0.6329966695348386 0.3670033304651614 0.634593794300361 0.36540620569963894 0.18375676952566505 0.8162432304743349 0.5641792985914118 0.4358207014085883 0.34501580272218996 0.65498419727781 0.6408672326548668 0.3591327673451332 0.2442100639671253 0.7557899360328746 0.7328706189164897 0.2671293810835102 0.5022449808828078 0.4977550191171922 0.8926942207384946 0.10730577926150539 0.3544609090708938 0.6455390909291062 0.81836724784741 0.18163275215258995 0.5399079005794365 0.4600920994205634 0.5279044875100696 0.4720955124899304 0.5729046581616011 0.4270953418383989 0.26305738294163294 0.736942617058367 0.449483301562828 0.550516698437172 0.3729074506882128 0.6270925493117873 0.058418518312730046 0.94158148168727 0.6059826407454086 0.39401735925459136 0.7891638807212605 0.2108361192787395 0.2948670865948627 0.7051329134051373 0.3750581618602947 0.6249418381397053 0.14524773125325544 0.8547522687467446 0.113432770358 0.886567229642 0.4625282242880907 0.5374717757119093 0.668325323229773 0.33167467677022705 0.5061396375771983 0.4938603624228018 0.7164252271072858 0.283574772892714 0.8229897560964562 0.17701024390354383 0.6500794974714581 0.3499205025285418 0.7331160713272656 0.26688392867273425 0.9428435484182804 0.05715645158171958 0.918827540505996 0.08117245949400394 0.8836764848774379 0.11632351512256209 0.5952904936163281 0.404709506383672 0.4421728171062943 0.5578271828937057 0.5334979366390631 0.466502063360937 0.5828971197315279 0.4171028802684721 0.8015317383820988 0.19846826161790115 0.5244168854764659 0.47558311452353413 0.7657589192460658 0.2342410807539342 0.48224769877984247 0.5177523012201576 0.4916124245145008 0.5083875754854993 0.5715845885159688 0.4284154114840311 0.40476900419012724 0.5952309958098728 0.6115943214436782 0.38840567855632185 0.21925245727499415 0.7807475427250059 0.2237460608110925 0.7762539391889075 0.899932337548044 0.10006766245195593 0.18232886584364635 0.8176711341563536 0.07140476434013165 0.9285952356598685 0.1867235243369758 0.8132764756630241 0.5491853120143135 0.4508146879856864 0.560910938911145 0.43908906108885487 0.36118142481927296 0.638818575180727 0.17923711933471628 0.8207628806652837 0.8367868088205017 0.16321319117949823 0.8065044879758331 0.19349551202416687 0.5398125154523427 0.46018748454765745 0.2148156346120715 0.7851843653879285 0.5856085330011283 0.41439146699887175 0.7171953222421061 0.2828046777578939 0.17424483196319226 0.8257551680368078 0.24745073241089555 0.7525492675891046 0.722383392370155 0.277616607629845 0.21163146936320598 0.788368530636794 0.8381210087678028 0.1618789912321972 0.6118894618871102 0.3881105381128897 0.9301929648584426 0.06980703514155738 0.025160357326810656 0.9748396426731893 0.931924035217462 0.06807596478253797 0.27623584100577875 0.7237641589942212 0.5090127911948229 0.4909872088051771 0.39401600971063955 0.6059839902893605 0.47467314428220264 0.5253268557177974 0.9146109139592791 0.08538908604072096 0.7061502790744109 0.29384972092558914 0.33416712574520013 0.6658328742547999 0.5589139094081673 0.44108609059183257 0.7520872115531623 0.24791278844683773 0.5736091568221089 0.4263908431778911 0.8527343403132431 0.14726565968675676 0.24045282292738884 0.7595471770726112 0.15622896176666445 0.8437710382333355 0.3315262184619656 0.6684737815380344 0.650439340475115 0.349560659524885 0.8892690201341996 0.11073097986580034 0.24170234242347444 0.7582976575765256 0.41922276881051523 0.5807772311894848 0.6206743109873426 0.37932568901265745 0.6531254121105798 0.34687458788942016 0.3277527327433479 0.6722472672566521 0.9129952507739013 0.08700474922609867 0.2792055988513459 0.7207944011486541 0.43367967100029264 0.5663203289997073 0.7419276209769289 0.2580723790230711 0.40708082437441157 0.5929191756255884 0.22988565933044416 0.7701143406695559 0.49957374714867503 0.5004262528513249 0.6803391034011497 0.31966089659885033 0.5298290705618551 0.47017092943814487 0.6278703725949486 0.3721296274050515 0.7857106424958225 0.21428935750417757 0.6307065288652094 0.3692934711347906 0.5511282103073396 0.44887178969266045 0.5825970266357542 0.41740297336424587 0.16526824417343053 0.8347317558265694 0.1258598267932537 0.8741401732067463 0.01353798873359149 0.9864620112664085 0.210944886898896 0.789055113101104 0.679831898843116 0.320168101156884 0.24498948945347807 0.755010510546522 0.059465156839262054 0.9405348431607381 0.6193954930016077 0.3806045069983924 0.7428525597334059 0.2571474402665941 0.851134079645634 0.148865920354366 0.10033688248103956 0.8996631175189604 0.712616397817221 0.2873836021827789 0.7225095627039969 0.2774904372960032 0.5435339485741263 0.45646605142587376 0.49103770493229276 0.5089622950677073 0.5565618981608266 0.4434381018391735 0.48820006419438466 0.5117999358056152 0.574219558438981 0.42578044156101896 0.6812478969424838 0.3187521030575162 0.5260554243533025 0.47394457564669745 0.5004830180386901 0.49951698196130995 0.41869368553706987 0.5813063144629301 0.8517514523928496 0.14824854760715045 0.531284145971779 0.46871585402822097 0.5120853982215936 0.4879146017784065 0.6543515522442529 0.34564844775574705 0.5357036310912971 0.4642963689087029 0.15134793505902153 0.8486520649409783 0.883777208284639 0.11622279171536093 0.4768364707215883 0.5231635292784117 0.7452836914453428 0.25471630855465727 0.4408593541477159 0.5591406458522842 0.39753085316224046 0.6024691468377595 0.5630440579346817 0.43695594206531824 0.36853300906981357 0.6314669909301864 0.7239196932828114 0.27608030671718864 0.6679956000876 0.3320043999124 0.18331578354157527 0.8166842164584247 0.7723438430566482 0.22765615694335187 0.570766170275443 0.42923382972455704 0.24417890125484182 0.7558210987451582 0.10893620223916477 0.8910637977608352 0.5058252859352294 0.49417471406477065 0.8288391578123026 0.17116084218769748 0.9440845598506448 0.055915440149355185 0.952459089467452 0.047540910532548025 0.45053943090356585 0.5494605690964341 0.8604980940337335 0.13950190596626658 0.20417878437963066 0.7958212156203693 0.0440661887454392 0.9559338112545608 0.4491024765576703 0.5508975234423297 0.49794674265424776 0.5020532573457522 0.003796411017731184 0.9962035889822688 0.668745504605589 0.331254495394411 0.6246212478799744 0.37537875212002564 0.7166561347801971 0.28334386521980304 0.4494016409411837 0.5505983590588163 0.35702161226924717 0.6429783877307529 0.3662439835227752 0.6337560164772249 0.5850743423586656 0.4149256576413343 0.9950187416596963 0.004981258340303732 0.8230125447044574 0.17698745529554255 0.5428863040614077 0.4571136959385922 0.7115848773893525 0.2884151226106475 0.9250309919309536 0.07496900806904643 0.4226266746795457 0.5773733253204543 0.5962769945834172 0.4037230054165828 0.6987482738667211 0.3012517261332789 0.7132604637865342 0.2867395362134659 0.08964068256537268 0.9103593174346273 0.589541983562282 0.41045801643771795 0.5513253798882624 0.44867462011173764 0.22595133124130057 0.7740486687586995 0.3198403909228666 0.6801596090771334 0.1277283385084384 0.8722716614915615 0.2633061571165561 0.7366938428834439 0.22938227570879025 0.7706177242912099 0.3522637572062969 0.647736242793703 0.755387605815192 0.24461239418480796 0.8423331524168204 0.1576668475831796 0.1236638214134987 0.8763361785865013 0.5444182984295701 0.45558170157042993 0.8424169982083077 0.1575830017916923 0.5310598323310005 0.4689401676689995 0.6717122461278242 0.32828775387217574 0.37054413506712003 0.6294558649328801 0.7872093518372499 0.2127906481627501 0.816149756982004 0.18385024301799602 0.5352986791205803 0.4647013208794198 0.5480765667893226 0.45192343321067746 0.7980028249826708 0.2019971750173291 0.1813609756681051 0.8186390243318948 0.7577312904505609 0.2422687095494391 0.6151542641323428 0.3848457358676572 0.402312856771357 0.597687143228643 0.39104001213046474 0.6089599878695352 0.16756517859198575 0.8324348214080143 0.5071530000276746 0.4928469999723253 0.18590218686012544 0.8140978131398745 0.9376901667321302 0.06230983326786981 0.3120960115943419 0.687903988405658 0.43013990963917076 0.5698600903608293 0.016855111112062535 0.9831448888879375 0.6587989692161066 0.34120103078389336 0.48361501620250635 0.5163849837974936 0.4342025981973832 0.5657974018026168 0.4810354546371215 0.5189645453628784 0.6110934330822253 0.3889065669177747 0.1633699520024562 0.8366300479975438 0.755775538018854 0.24422446198114603 0.8906627778338025 0.1093372221661975 0.4489940722031212 0.5510059277968787 0.3835559492418587 0.6164440507581412 0.3696660013577468 0.6303339986422533 0.8015885673637955 0.19841143263620448 0.7167315988404116 0.28326840115958846 0.5442506148385945 0.4557493851614055 0.40466669817783213 0.5953333018221678 0.27570553297724243 0.7242944670227576 0.4578827128665745 0.5421172871334254 0.38661077256416415 0.6133892274358359 0.5390882502852634 0.4609117497147367 0.2371867417977883 0.7628132582022117 0.11508326123602593 0.884916738763974 0.6524011027929669 0.347598897207033 0.9517668762406287 0.048233123759371326 0.3525159739937477 0.6474840260062523 0.1726239148249326 0.8273760851750673 0.005003133879198962 0.9949968661208011 0.5959472362653283 0.4040527637346717 0.5006765022101425 0.49932349778985763 0.41397042367018766 0.5860295763298125 0.4479835392707885 0.5520164607292115 0.6697942215294538 0.3302057784705463 0.26078421778922933 0.7392157822107707 0.9909320595531986 0.009067940446801407 0.061033736494488705 0.9389662635055113 0.6894162568857908 0.3105837431142092 0.6850384666223732 0.3149615333776268 0.20443129928812054 0.7955687007118795 0.29123333939973983 0.7087666606002601 0.4981480607102593 0.5018519392897407 0.781540494004911 0.21845950599508904 0.7687655657294542 0.23123443427054585 0.4531326478207293 0.5468673521792706 0.4140991689051667 0.5859008310948334 0.7138589476166108 0.28614105238338916 0.8877825193493645 0.11221748065063548 0.3855581946703538 0.6144418053296462 0.4349179103644642 0.5650820896355356 0.15546613617685434 0.8445338638231457 0.5713228344468054 0.42867716555319463 0.8886118771065527 0.11138812289344735 0.16723070537070267 0.8327692946292975 0.5566208253087527 0.4433791746912472 0.4843256447414008 0.5156743552585992 0.32401746019634753 0.6759825398036525 0.5576352928700492 0.44236470712995074 0.3279312802339442 0.6720687197660558 0.6400653114256443 0.3599346885743558 0.6249016328369275 0.37509836716307254 0.45918048719367355 0.5408195128063263 0.35667651745500967 0.6433234825449904 0.9342473694058498 0.06575263059415011 0.6420594165572605 0.3579405834427395 0.7916589941822301 0.20834100581777 0.39187599667275175 0.6081240033272483 0.3969117572074229 0.6030882427925771 0.2300902729524154 0.7699097270475845 0.26690532990172 0.73309467009828 0.003643720990589141 0.9963562790094108 0.6230903348133702 0.3769096651866298 0.49654341563872617 0.5034565843612738 0.04616534922321027 0.9538346507767897 0.45655243819096736 0.5434475618090325 0.618129436212022 0.38187056378797796 0.41054203390412713 0.5894579660958729 0.20969913296540163 0.7903008670345983 0.35381565222809136 0.6461843477719086 0.7817873204965865 0.2182126795034135 0.13330109604400914 0.8666989039559909 0.46629637699930737 0.5337036230006925 0.20948158922461924 0.7905184107753807 0.28368374411204295 0.716316255887957 0.661837332626103 0.33816266737389694 0.5056256163020846 0.4943743836979153 0.6262937675067807 0.3737062324932192 0.37514841108169883 0.6248515889183012 0.6143342031977308 0.3856657968022693 0.94856215923918 0.05143784076082001 0.6045501822359615 0.3954498177640386 0.061712249270148525 0.9382877507298515 0.17982166424826115 0.8201783357517388 0.954467255603135 0.045532744396865006 0.4434590580619876 0.5565409419380124 0.38245123636073486 0.6175487636392651 0.6451766870335818 0.3548233129664181 0.549745169361137 0.45025483063886285 0.8006592524261131 0.19934074757388692 0.6462874464680138 0.35371255353198616 0.32993962387248366 0.6700603761275163 0.388944689241727 0.611055310758273 0.6743676859800831 0.32563231401991694 0.527359801586281 0.4726401984137189 0.3627499447382325 0.6372500552617675 0.3695146470035711 0.630485352996429 0.5155090512416923 0.4844909487583076 0.3178156845505909 0.682184315449409 0.5545578089151528 0.4454421910848472 0.7759724702535815 0.2240275297464184 0.8086834904477533 0.1913165095522467 0.4521805753514227 0.5478194246485774 0.358500368004667 0.641499631995333 0.6823292454046599 0.31767075459534017 0.5360406102826452 0.46395938971735484 0.15321339718094104 0.8467866028190589 0.29808521323859605 0.701914786761404 0.757676679491811 0.24232332050818903 0.7895875424878299 0.21041245751217005 0.4661761064928671 0.5338238935071329 0.971398799535656 0.028601200464343998 0.5111277577758714 0.4888722422241286 0.4665405775406121 0.5334594224593879 0.27857808064327827 0.7214219193567217 0.8010282584125381 0.19897174158746192 0.4620764753846322 0.5379235246153677 0.6735659695313612 0.32643403046863884 0.045498632760919526 0.9545013672390805 0.390892140732407 0.609107859267593 0.33056236849027243 0.6694376315097275 0.7665167471440398 0.2334832528559602 0.5903212937468385 0.40967870625316155 0.6756402515407366 0.3243597484592633 0.8642411007871617 0.13575889921283835 0.24417534309567718 0.7558246569043228 0.6521517646114058 0.34784823538859416 0.4579637698577747 0.5420362301422252 0.7967100850584419 0.20328991494155815 0.6717242649180429 0.32827573508195707 0.19642388734543653 0.8035761126545635 0.3871580458094749 0.6128419541905251 0.7481305769378961 0.25186942306210386 0.6597519731183594 0.34024802688164063 0.32043497268980686 0.6795650273101932 0.8654213452861798 0.13457865471382024 0.3463437683386252 0.6536562316613748 0.9878350604809258 0.012164939519074117 0.15345693558550713 0.8465430644144929 0.9174421655047914 0.08255783449520854 0.38641284859779884 0.6135871514022012 0.4502101871718036 0.5497898128281964 0.3402216625454411 0.6597783374545589 0.22422215046208666 0.7757778495379134 0.5253056466089603 0.4746943533910398 0.5434418582273898 0.4565581417726101 0.49018776974514133 0.5098122302548588 0.614313272804159 0.38568672719584096 0.5871121777612779 0.41288782223872217 0.36699090458017786 0.6330090954198221 0.9896628466328672 0.010337153367132808 0.8388334039928164 0.1611665960071837 0.7053760114843374 0.2946239885156627 0.29138079139507084 0.7086192086049292 0.6523997079852588 0.3476002920147413 0.40817213735562424 0.5918278626443758 0.013742887249143656 0.9862571127508564 0.9261492221327375 0.07385077786726249 0.4218868053066672 0.5781131946933328 0.6444683999716048 0.35553160002839523 0.6066653194319099 0.39333468056809007 0.4389351897906114 0.5610648102093885 0.05425477974919058 0.9457452202508094 0.36674496793035766 0.6332550320696423 0.1195053688732552 0.8804946311267448 0.7341336257860063 0.2658663742139938 0.450616308128421 0.549383691871579 0.3819240743779351 0.6180759256220649 0.5633751469583811 0.4366248530416189 0.5017485967370742 0.49825140326292583 0.8889099872887872 0.11109001271121276 0.8740309552880876 0.12596904471191236 0.11120496041970547 0.8887950395802945 0.46203171344195215 0.5379682865580478 0.2946229288464659 0.7053770711535342 0.3445978590567372 0.6554021409432629 0.4604330292514503 0.5395669707485496 0.09049671389552987 0.9095032861044702 0.9435024758179686 0.05649752418203133 0.7843158147247017 0.21568418527529826 0.49452011106507865 0.5054798889349214 0.2610275415556614 0.7389724584443387 0.8087682852264079 0.19123171477359216 0.6457622225007443 0.35423777749925567 0.4097603120385667 0.5902396879614332 0.9527983757977616 0.047201624202238404 0.5313276080915472 0.46867239190845283 0.2961106987665576 0.7038893012334424 0.45700236786665216 0.5429976321333477 0.10350593437900071 0.8964940656209993 0.422820634926321 0.5771793650736791 0.062057747481062235 0.9379422525189378 0.004813422983676624 0.9951865770163234 0.35883994676886044 0.6411600532311396 0.9212034833017978 0.07879651669820224 0.41620471213840576 0.5837952878615943 0.20616012102409614 0.7938398789759038 0.6180720763789942 0.38192792362100586 0.7211383023442752 0.2788616976557248 0.8058451065768231 0.19415489342317696 0.32284030878752235 0.6771596912124778 0.6110179796937426 0.38898202030625745 0.9220444048707208 0.07795559512927916 0.6944869056377097 0.3055130943622904 0.4656108989265692 0.5343891010734308 0.4837025795862341 0.5162974204137659 0.6351452864504565 0.3648547135495436 0.24334923121125132 0.7566507687887486 0.519993612334476 0.480006387665524 0.619602313781956 0.38039768621804404 0.3354008741831784 0.6645991258168216 0.8993143022437131 0.10068569775628686 0.8540913900687058 0.14590860993129418 0.8462517600594753 0.1537482399405246 0.14291468610928065 0.8570853138907194 0.2780867607734733 0.7219132392265267 0.5084507755765084 0.4915492244234917 0.47605234164133997 0.5239476583586601 0.8061238807603384 0.19387611923966155 0.14147875006044014 0.8585212499395598 0.37085930279914037 0.6291406972008595 0.7392287472933199 0.26077125270668 0.5033531379725118 0.4966468620274882 0.6724186337719968 0.32758136622800316 0.37974275642870314 0.6202572435712969 0.2986948514512221 0.7013051485487779 0.45762238994750754 0.5423776100524924 0.5648322231111383 0.4351677768888615 0.6143966362605339 0.3856033637394661 0.24705449494402507 0.752945505055975 0.06029995884352768 0.9397000411564723 0.579902543008147 0.42009745699185297 0.2055208296106762 0.7944791703893238 0.32445968250351626 0.6755403174964838 0.475252099997314 0.524747900002686 0.4472389286860567 0.5527610713139434 0.4467084865829783 0.5532915134170218 0.34288948291467 0.65711051708533 0.012033986124079596 0.9879660138759204 0.44769406344435875 0.5523059365556412 0.44478845761906743 0.5552115423809326 0.6640039695412608 0.3359960304587391 0.9213898293467286 0.0786101706532714 0.134329549755105 0.8656704502448951 0.33506590255022206 0.6649340974497779 0.3115650321211025 0.6884349678788975 0.9040923097697395 0.09590769023026045 0.45251307421272796 0.5474869257872721 0.44094460512067396 0.5590553948793261 0.5858816111973135 0.41411838880268653 0.4093526443745986 0.5906473556254014 0.7240748666536192 0.2759251333463808 0.5044745048525002 0.4955254951474997 0.6991683061515872 0.3008316938484127 0.5739908192373657 0.4260091807626343 0.4585285890185669 0.541471410981433 0.4606759974741489 0.5393240025258511 0.16263022917206532 0.8373697708279347 0.2050533756592513 0.7949466243407488 0.5611654163592966 0.4388345836407035 0.3882713097338855 0.6117286902661144 0.9717746503678749 0.02822534963212512 0.2898917889056557 0.7101082110943442 0.09184329791492984 0.9081567020850702 0.5042756924841726 0.49572430751582736 0.3394026961850668 0.6605973038149332 0.3721070725615519 0.6278929274384482 0.5359469977588938 0.4640530022411063 0.3337082938759416 0.6662917061240584 0.8467554046330393 0.15324459536696058 0.16862521366386893 0.831374786336131 0.6208327876237103 0.37916721237628975 0.49974812869936547 