<?xml version='1.0' encoding='UTF-8'?>
<BIF VERSION="0.3">
  <NETWORK>
    <NAME>UNTITLED</NAME>
    <VARIABLE TYPE="nature">
      <NAME>0</NAME>
      <OUTCOME>0</OUTCOME>
      <OUTCOME>1</OUTCOME>
      <PROPERTY>weight = None</PROPERTY>
    </VARIABLE>
    <VARIABLE TYPE="nature">
      <NAME>1</NAME>
      <OUTCOME>0</OUTCOME>
      <OUTCOME>1</OUTCOME>
      <PROPERTY>weight = None</PROPERTY>
    </VARIABLE>
    <VARIABLE TYPE="nature">
      <NAME>5</NAME>
      <OUTCOME>0</OUTCOME>
      <OUTCOME>1</OUTCOME>
      <PROPERTY>weight = None</PROPERTY>
    </VARIABLE>
    <VARIABLE TYPE="nature">
      <NAME>7</NAME>
      <OUTCOME>0</OUTCOME>
      <OUTCOME>1</OUTCOME>
      <PROPERTY>weight = None</PROPERTY>
    </VARIABLE>
    <VARIABLE TYPE="nature">
      <NAME>10</NAME>
      <OUTCOME>0</OUTCOME>
      <OUTCOME>1</OUTCOME>
      <PROPERTY>weight = None</PROPERTY>
    </VARIABLE>
    <VARIABLE TYPE="nature">
      <NAME>11</NAME>
      <OUTCOME>0</OUTCOME>
      <OUTCOME>1</OUTCOME>
      <PROPERTY>weight = None</PROPERTY>
    </VARIABLE>
    <VARIABLE TYPE="nature">
      <NAME>13</NAME>
      <OUTCOME>0</OUTCOME>
      <OUTCOME>1</OUTCOME>
      <PROPERTY>weight = None</PROPERTY>
    </VARIABLE>
    <VARIABLE TYPE="nature">
      <NAME>14</NAME>
      <OUTCOME>0</OUTCOME>
      <OUTCOME>1</OUTCOME>
      <PROPERTY>weight = None</PROPERTY>
    </VARIABLE>
    <VARIABLE TYPE="nature">
      <NAME>2</NAME>
      <OUTCOME>0</OUTCOME>
      <OUTCOME>1</OUTCOME>
      <PROPERTY>weight = None</PROPERTY>
    </VARIABLE>
    <VARIABLE TYPE="nature">
      <NAME>3</NAME>
      <OUTCOME>0</OUTCOME>
      <OUTCOME>1</OUTCOME>
      <PROPERTY>weight = None</PROPERTY>
    </VARIABLE>
    <VARIABLE TYPE="nature">
      <NAME>4</NAME>
      <OUTCOME>0</OUTCOME>
      <OUTCOME>1</OUTCOME>
      <PROPERTY>weight = None</PROPERTY>
    </VARIABLE>
    <VARIABLE TYPE="nature">
      <NAME>6</NAME>
      <OUTCOME>0</OUTCOME>
      <OUTCOME>1</OUTCOME>
      <PROPERTY>weight = None</PROPERTY>
    </VARIABLE>
    <VARIABLE TYPE="nature">
      <NAME>12</NAME>
      <OUTCOME>0</OUTCOME>
      <OUTCOME>1</OUTCOME>
      <PROPERTY>weight = None</PROPERTY>
    </VARIABLE>
    <VARIABLE TYPE="nature">
      <NAME>8</NAME>
      <OUTCOME>0</OUTCOME>
      <OUTCOME>1</OUTCOME>
      <PROPERTY>weight = None</PROPERTY>
    </VARIABLE>
    <VARIABLE TYPE="nature">
      <NAME>9</NAME>
      <OUTCOME>0</OUTCOME>
      <OUTCOME>1</OUTCOME>
      <PROPERTY>weight = None</PROPERTY>
    </VARIABLE>
    <DEFINITION>
      <FOR>0</FOR>
      <TABLE>0.27860112777446194 0.7213988722255381 </TABLE>
    </DEFINITION>
    <DEFINITION>
      <FOR>1</FOR>
      <GIVEN>0</GIVEN>
      <TABLE>0.5418633296901388 0.4581366703098612 0.7924088027351222 0.2075911972648779 </TABLE>
    </DEFINITION>
    <DEFINITION>
      <FOR>2</FOR>
      <GIVEN>1</GIVEN>
      <TABLE>0.9168727044663472 0.08312729553365282 0.00018785110187761645 0.9998121488981224 </TABLE>
    </DEFINITION>
    <DEFINITION>
      <FOR>3</FOR>
      <GIVEN>1</GIVEN>
      <TABLE>0.3466017980201616 0.6533982019798384 0.747413620060212 0.25258637993978816 </TABLE>
    </DEFINITION>
    <DEFINITION>
      <FOR>4</FOR>
      <GIVEN>1</GIVEN>
      <TABLE>0.9431418513624575 0.056858148637542405 0.6222280179928622 0.37777198200713774 </TABLE>
    </DEFINITION>
    <DEFINITION>
      <FOR>5</FOR>
      <GIVEN>0</GIVEN>
      <GIVEN>2</GIVEN>
      <GIVEN>4</GIVEN>
      <TABLE>0.47007202854255065 0.5299279714574493 0.5386861247129285 0.46131387528707135 0.30783283919780374 0.6921671608021962 0.7030736717114021 0.2969263282885979 0.5501893023980705 0.44981069760192954 0.5046546859189863 0.4953453140810136 0.04069274701338468 0.9593072529866153 0.3800467375477721 0.6199532624522279 </TABLE>
    </DEFINITION>
    <DEFINITION>
      <FOR>6</FOR>
      <GIVEN>1</GIVEN>
      <GIVEN>3</GIVEN>
      <GIVEN>4</GIVEN>
      <TABLE>0.36954933038898613 0.6304506696110139 0.43650181995096493 0.5634981800490351 0.4714321971517081 0.528567802848292 0.2145139462867935 0.7854860537132066 0.3126128828144851 0.6873871171855148 0.6203080332835501 0.3796919667164499 0.26103250716901555 0.7389674928309845 0.2493155498511807 0.7506844501488192 </TABLE>
    </DEFINITION>
    <DEFINITION>
      <FOR>7</FOR>
      <GIVEN>0</GIVEN>
      <GIVEN>5</GIVEN>
      <GIVEN>2</GIVEN>
      <GIVEN>3</GIVEN>
      <GIVEN>6</GIVEN>
      <TABLE>0.8652484222179149 0.13475157778208507 0.616848296800479 0.3831517031995211 0.9162603038966709 0.08373969610332908 0.7654751173162718 0.23452488268372812 0.35059784351186335 0.6494021564881367 0.8047574200710043 0.1952425799289957 0.7461352113579475 0.2538647886420526 0.08090244682791582 0.9190975531720842 0.013414773147650808 0.9865852268523492 0.35600873409137096 0.6439912659086291 0.37555394273941267 0.6244460572605874 0.442911044140787 0.557088955859213 0.4688026864289409 0.531197313571059 0.5247651561091836 0.4752348438908163 0.9495346818969392 0.05046531810306081 0.28401625039336337 0.7159837496066366 0.6212067802089135 0.3787932197910865 0.9587116646029517 0.041288335397048376 0.577850502343718 0.4221494976562819 0.8775768455634707 0.12242315443652925 0.3548943638349963 0.6451056361650037 0.6044445105448876 0.39555548945511243 0.7142739777355085 0.28572602226449156 0.2302124396761356 0.7697875603238644 0.5020662443949675 0.49793375560503245 0.7311804063942976 0.2688195936057024 0.3841767786883717 0.6158232213116283 0.9589175995480572 0.04108240045194277 0.15934096741398818 0.8406590325860118 0.6120016741668484 0.3879983258331517 0.44313111996778787 0.556868880032212 0.37734104991758544 0.6226589500824147 </TABLE>
    </DEFINITION>
    <DEFINITION>
      <FOR>8</FOR>
      <GIVEN>5</GIVEN>
      <GIVEN>3</GIVEN>
      <GIVEN>4</GIVEN>
      <GIVEN>6</GIVEN>
      <TABLE>0.47801881988782025 0.5219811801121799 0.5648833747377161 0.43511662526228384 0.8029993344957909 0.19700066550420928 0.0018087461150321077 0.9981912538849679 0.5979160797116808 0.40208392028831913 0.7321347220074647 0.2678652779925354 0.2038444364757402 0.7961555635242599 0.4892540637110294 0.5107459362889706 0.6281595348995639 0.37184046510043617 0.4009935829103327 0.5990064170896673 0.1025280486983148 0.8974719513016852 0.996048590603106 0.0039514093968939686 0.5993112229446955 0.4006887770553045 0.9477204627303759 0.05227953726962404 0.7997107636208229 0.20028923637917706 0.26841772509627326 0.7315822749037266 </TABLE>
    </DEFINITION>
    <DEFINITION>
      <FOR>9</FOR>
      <GIVEN>5</GIVEN>
      <GIVEN>7</GIVEN>
      <TABLE>0.5788399997665186 0.4211600002334814 0.7381953294374574 0.26180467056254264 0.4844788312098294 0.5155211687901706 0.7469193649906444 0.2530806350093557 </TABLE>
    </DEFINITION>
    <DEFINITION>
      <FOR>10</FOR>
      <GIVEN>0</GIVEN>
      <GIVEN>1</GIVEN>
      <GIVEN>5</GIVEN>
      <GIVEN>3</GIVEN>
      <GIVEN>6</GIVEN>
      <GIVEN>9</GIVEN>
      <TABLE>0.4934782064854803 0.5065217935145198 0.9721589114351162 0.027841088564883758 0.9135245610181258 0.08647543898187415 0.4456825408438393 0.5543174591561606 0.7369583921573992 0.2630416078426007 0.30266636176429007 0.69733363823571 0.009820383255794275 0.9901796167442057 0.5596204971495122 0.4403795028504877 0.9221251675622919 0.07787483243770804 0.7716136279033562 0.22838637209664378 0.6189513527329072 0.3810486472670928 0.513135294836652 0.486864705163348 0.4986286997816542 0.5013713002183456 0.8377633843932795 0.1622366156067206 0.47069951660186654 0.5293004833981335 0.502517324340479 0.497482675659521 0.03374430581441478 0.9662556941855852 0.5515071945750075 0.4484928054249925 0.28490934230511883 0.7150906576948811 0.2641380639473936 0.7358619360526064 0.19802838344841128 0.8019716165515888 0.6483771657081155 0.35162283429188446 0.17404653880774043 0.8259534611922595 0.33825473149627994 0.6617452685037202 0.8347459435500885 0.1652540564499115 0.20936448473428415 0.7906355152657158 0.1459332739532114 0.8540667260467886 0.38828338438982174 0.6117166156101783 0.5424602839934595 0.45753971600654053 0.7743087510137316 0.22569124898626836 0.3177936627943851 0.6822063372056151 0.39433915922159213 0.6056608407784079 0.35733336929471954 0.6426666307052804 0.746533100582179 0.253466899417821 0.5680832310187397 0.43191676898126047 0.527620356419474 0.47237964358052603 0.6551300124192497 0.3448699875807502 0.6642626144355779 0.33573738556442206 0.4073493216255338 0.5926506783744663 0.30206018494852277 0.6979398150514773 0.7583483844568725 0.24165161554312753 0.16222396373607567 0.8377760362639243 0.1614121453615367 0.8385878546384633 0.5629399567986468 0.4370600432013531 0.8940546851349198 0.10594531486508017 0.27250475546897074 0.7274952445310292 0.5027627384959473 0.4972372615040527 0.7872333031196789 0.21276669688032102 0.8059787082047991 0.19402129179520092 0.4521495751700502 0.5478504248299498 0.3292695350619723 0.6707304649380277 0.1345076801335387 0.8654923198664612 0.05742573484412314 0.9425742651558768 0.5657331361603928 0.4342668638396073 0.9685929556777702 0.031407044322229814 0.5820070751772703 0.4179929248227297 0.32444307947319206 0.6755569205268079 0.2303901388278219 0.7696098611721781 0.3103047669421601 0.68969523305784 0.18829424920891702 0.811705750791083 0.6424550334752465 0.3575449665247535 0.5938460434719588 0.40615395652804126 0.8571069177121069 0.1428930822878931 0.644471930594281 0.35552806940571896 </TABLE>
    </DEFINITION>
    <DEFINITION>
      <FOR>11</FOR>
      <GIVEN>0</GIVEN>
      <GIVEN>5</GIVEN>
      <GIVEN>7</GIVEN>
      <GIVEN>2</GIVEN>
      <GIVEN>4</GIVEN>
      <GIVEN>8</GIVEN>
      <GIVEN>9</GIVEN>
      <TABLE>0.4627032969271952 0.5372967030728047 0.41435550335175103 0.585644496648249 0.34971318911721555 0.6502868108827845 0.4656937257234079 0.5343062742765922 0.4096402152555705 0.5903597847444295 0.5272308413455623 0.4727691586544375 0.6358450878145836 0.3641549121854165 0.2331383343159083 0.7668616656840918 0.1403578360762747 0.8596421639237253 0.057703598540667804 0.9422964014593322 0.6923970432453059 0.307602956754694 0.6829798877278602 0.3170201122721397 0.4121794655376778 0.5878205344623222 0.8326955311584969 0.1673044688415031 0.7072871500622515 0.2927128499377485 0.6433384727265801 0.3566615272734199 0.334032205731862 0.665967794268138 0.7601802944129704 0.23981970558702953 0.6042791036084756 0.39572089639152447 0.5252395167293937 0.47476048327060627 0.4654467829298835 0.5345532170701165 0.5605211938284637 0.43947880617153623 0.0910976673909161 0.9089023326090839 0.5208651213356201 0.47913487866438 0.9531648231906567 0.046835176809343286 0.8457100974417906 0.15428990255820935 0.6450506847426987 0.35494931525730133 0.388289844337809 0.6117101556621911 0.699297811376932 0.30070218862306797 0.28519940809476074 0.7148005919052394 0.8701876901487817 0.12981230985121833 0.47661469450085553 0.5233853054991444 0.3015836814206018 0.6984163185793981 0.9681503021914754 0.03184969780852465 0.1212403187480822 0.8787596812519178 0.5763149916542823 0.42368500834571754 0.2696523899521483 0.7303476100478516 0.004632648981477677 0.9953673510185224 0.062395576766800645 0.9376044232331994 0.42959727578183127 0.5704027242181687 0.7079782147215746 0.2920217852784253 0.5611963642874367 0.4388036357125633 0.387058699103041 0.612941300896959 0.5391994156482186 0.4608005843517814 0.673916989873812 0.32608301012618807 0.8262822218457102 0.17371777815428982 0.5110271281052222 0.4889728718947777 0.4352922301239805 0.5647077698760196 0.3995515330943441 0.6004484669056559 0.5351719229104237 0.46482807708957624 0.6384127737838887 0.3615872262161112 0.6373637549983399 0.36263624500166025 0.28008025033148376 0.7199197496685162 0.7534985956348791 0.24650140436512097 0.1564691909610696 0.8435308090389304 0.23338899062384463 0.7666110093761553 0.3010006605766402 0.6989993394233598 0.4700734718135279 0.5299265281864721 0.42762647061685344 0.5723735293831466 0.5030959135731539 0.49690408642684614 0.27131594854391006 0.72868405145609 0.5020807461334387 0.4979192538665613 0.39547574580420536 0.6045242541957947 0.38381760691658995 0.6161823930834102 0.38856567846390205 0.6114343215360979 0.5045294111011387 0.49547058889886125 0.776474370434354 0.22352562956564614 0.7318667891147097 0.2681332108852903 0.424296358671185 0.575703641328815 0.7072149241648119 0.2927850758351881 0.03214414002278872 0.9678558599772112 0.1446077174696334 0.8553922825303666 0.9498100403418184 0.05018995965818166 0.16474341555082833 0.8352565844491716 0.13526275323077402 0.8647372467692259 0.22412465819177377 0.7758753418082263 0.44696275169724003 0.55303724830276 0.18989076796099263 0.8101092320390074 0.5668254041293277 0.4331745958706723 0.43589077880615984 0.5641092211938402 0.4558903287914444 0.5441096712085556 0.6778506758388302 0.32214932416116976 0.34731342216879846 0.6526865778312015 0.0787357534676438 0.9212642465323562 0.7948900457190251 0.20510995428097498 0.5642650664755358 0.4357349335244642 0.2584762993736865 0.7415237006263135 0.11860638519535523 0.8813936148046447 0.9101206713368061 0.08987932866319395 0.7384521374358426 0.2615478625641574 0.34560778203118286 0.6543922179688171 0.8964363717199353 0.10356362828006474 0.5464731396677746 0.4535268603322254 0.9330138231224641 0.06698617687753591 0.4630376717027001 0.5369623282972998 0.10309641277110791 0.8969035872288921 0.36931547995236386 0.6306845200476362 0.4425897161342861 0.5574102838657139 0.29389572751184073 0.7061042724881593 0.9853201700725879 0.014679829927412154 0.3400003477739735 0.6599996522260265 0.5086779864613892 0.49132201353861094 0.4332658993663966 0.5667341006336034 0.49842626420870845 0.5015737357912916 0.7873080927027674 0.2126919072972326 0.4775427958714385 0.5224572041285616 0.8591016252432729 0.14089837475672706 0.2610016941892102 0.7389983058107898 0.7850747686011648 0.2149252313988352 0.359296489636108 0.6407035103638921 0.27660473594088864 0.7233952640591114 0.6632532571485285 0.3367467428514716 0.563592568494286 0.43640743150571404 0.4025414604615903 0.5974585395384097 0.030747359015734704 0.9692526409842653 0.6755316012750847 0.3244683987249153 0.5612793228132142 0.43872067718678576 0.8583713035682332 0.14162869643176676 0.30085015227316736 0.6991498477268326 0.36633398378978765 0.6336660162102123 0.45267315203564806 0.5473268479643519 0.625396890341031 0.3746031096589691 0.899302332669816 0.10069766733018405 0.40733205654854204 0.592667943451458 0.42567229888516916 0.5743277011148308 0.7923283391910575 0.2076716608089426 0.5910186072772491 0.40898139272275097 0.6113944669001923 0.38860553309980767 </TABLE>
    </DEFINITION>
    <DEFINITION>
      <FOR>12</FOR>
      <GIVEN>1</GIVEN>
      <GIVEN>7</GIVEN>
      <GIVEN>10</GIVEN>
      <GIVEN>11</GIVEN>
      <GIVEN>4</GIVEN>
      <GIVEN>9</GIVEN>
      <TABLE>0.5539388427864783 0.44606115721352174 0.5141706593942268 0.48582934060577326 0.26665839543145753 0.7333416045685425 0.18598118963442395 0.8140188103655761 0.6893484164946271 0.310651583505373 0.3869228998311626 0.6130771001688373 0.05778919148056981 0.9422108085194302 0.35331692121282804 0.6466830787871719 0.42713141217034506 0.572868587829655 0.48233481419280105 0.5176651858071989 0.8351098528448168 0.16489014715518321 0.4854477500373396 0.5145522499626604 0.7288806986715745 0.27111930132842565 0.5918501206229179 0.4081498793770821 0.7753796853792813 0.22462031462071874 0.1974498919009144 0.8025501080990856 0.38454128306471974 0.6154587169352802 0.5315208259276436 0.4684791740723564 0.6294691158679351 0.3705308841320649 0.813133860359955 0.186866139640045 0.4288865077169354 0.5711134922830646 0.3887748684335887 0.6112251315664111 0.5854829252547588 0.41451707474524124 0.9430506401721643 0.056949359827835645 0.39541781751668353 0.6045821824833164 0.37878354153824273 0.6212164584617572 0.5577122817967509 0.44228771820324914 0.31425174110889825 0.6857482588911017 0.7629606408802959 0.23703935911970414 0.1516556785237673 0.8483443214762327 0.6188355158463977 0.38116448415360227 0.17618486589259122 0.8238151341074088 0.4323524792188393 0.5676475207811608 0.01354911807249364 0.9864508819275064 0.1486944053028356 0.8513055946971643 0.043042559058844146 0.9569574409411559 0.5335315501447458 0.4664684498552542 0.41890625455817404 0.5810937454418259 0.768889111090032 0.23111088890996806 0.8547688955512671 0.14523110444873288 0.1288623723983239 0.871137627601676 0.575330526560046 0.424669473439954 0.04431855360731129 0.9556814463926887 0.5413173807282382 0.4586826192717618 0.2210067310570468 0.7789932689429531 0.6442538857523006 0.3557461142476993 0.3742026599024771 0.625797340097523 0.9450500278107234 0.054949972189276566 0.7828694930774098 0.21713050692259014 0.5061929378581241 0.4938070621418758 0.6487986398284667 0.35120136017153325 0.5331097403626962 0.46689025963730374 0.8780619473913618 0.12193805260863819 0.18654529361177682 0.8134547063882231 0.2176042050385557 0.7823957949614443 0.7750946555220785 0.2249053444779215 0.2529463041971316 0.7470536958028684 0.6024513369599849 0.3975486630400152 0.374948077648952 0.6250519223510481 0.7762216929929848 0.2237783070070152 0.8616314696059864 0.1383685303940136 0.5290359483541993 0.4709640516458007 0.376178400402632 0.623821599597368 0.6171267559776812 0.3828732440223188 </TABLE>
    </DEFINITION>
    <DEFINITION>
      <FOR>13</FOR>
      <GIVEN>0</GIVEN>
      <GIVEN>1</GIVEN>
      <GIVEN>5</GIVEN>
      <GIVEN>7</GIVEN>
      <GIVEN>11</GIVEN>
      <GIVEN>6</GIVEN>
      <GIVEN>9</GIVEN>
      <TABLE>0.22860300106016812 0.7713969989398318 0.7866051880287718 0.21339481197122817 0.27282697778299136 0.7271730222170086 0.4415810264378834 0.5584189735621166 0.2086558796994864 0.7913441203005136 0.6530008978204911 0.3469991021795089 0.22529798996596265 0.7747020100340374 0.9306663928409745 0.06933360715902546 0.6210099127974208 0.3789900872025793 0.13279246095182284 0.8672075390481772 0.04826271082752734 0.9517372891724727 0.30205592115221314 0.6979440788477869 0.9630868605282372 0.036913139471762765 0.7515595985055366 0.24844040149446348 0.6258051692007606 0.37419483079923926 0.11770783040174758 0.8822921695982524 0.2549626559200295 0.7450373440799706 0.17940344873728567 0.8205965512627145 0.3695016728903654 0.6304983271096346 0.5471177879227384 0.4528822120772617 0.3983821972639149 0.6016178027360851 0.13348740515911198 0.866512594840888 0.948741333258087 0.05125866674191304 0.5772406800997892 0.42275931990021076 0.6257584368529159 0.3742415631470841 0.09457373720390558 0.9054262627960944 0.28563861277221136 0.7143613872277886 0.15592308271578936 0.8440769172842105 0.6566211819602075 0.3433788180397926 0.8327414794795146 0.1672585205204854 0.2100923808494047 0.7899076191505954 0.5179790751396288 0.4820209248603711 0.5730514107966244 0.42694858920337564 0.5093596588626883 0.4906403411373117 0.4622132034950354 0.5377867965049645 0.26905327241667126 0.7309467275833287 0.2456163118528001 0.7543836881471999 0.174818352597438 0.825181647402562 0.8796649744401936 0.12033502555980638 0.6784387883397055 0.3215612116602945 0.009227436591240786 0.9907725634087592 0.3993065600910915 0.6006934399089087 0.17800000519543735 0.8219999948045627 0.5762458080640874 0.4237541919359126 0.24114571835672588 0.7588542816432742 0.10079621775271812 0.8992037822472819 0.38341182991539097 0.616588170084609 0.9032879046920803 0.09671209530791969 0.6954493886826725 0.30455061131732747 0.4326609484468819 0.567339051553118 0.49836833996106317 0.5016316600389369 0.5303536709463261 0.469646329053674 0.4210466027982662 0.5789533972017338 0.6680699054570853 0.3319300945429148 0.3465784148105079 0.653421585189492 0.7233901150720816 0.27660988492791855 0.5453959250459028 0.4546040749540971 0.2412950471600169 0.7587049528399831 0.5397156375680112 0.46028436243198884 0.1461204260901938 0.8538795739098062 0.06572550294460378 0.9342744970553962 0.4066703698773434 0.5933296301226566 0.24599707421323047 0.7540029257867694 0.1709089539721229 0.8290910460278771 0.38484387352130217 0.6151561264786978 0.5098664941344528 0.49013350586554716 0.4607473795092112 0.5392526204907888 0.58600878380803 0.41399121619196994 0.5321302973880926 0.4678697026119074 0.35885852692212844 0.6411414730778715 0.676166853239743 0.32383314676025704 0.6416761652340135 0.35832383476598656 0.5605908570732183 0.4394091429267817 0.6307343953210651 0.36926560467893493 0.7189161126878304 0.28108388731216954 0.5613813662962763 0.43861863370372367 0.24093689992504755 0.7590631000749524 0.611599340556755 0.388400659443245 0.47361828773655845 0.5263817122634415 0.726640617321187 0.273359382678813 0.6024066051858464 0.39759339481415357 0.5312062315184587 0.4687937684815414 0.5018149888950774 0.4981850111049227 0.3497896440596982 0.6502103559403019 0.20498591431641164 0.7950140856835883 0.21920663259255263 0.7807933674074474 0.5354825846804143 0.4645174153195857 0.5075440824737131 0.492455917526287 0.7054964079999771 0.29450359200002285 0.7141045264874137 0.2858954735125863 0.4843413891836749 0.515658610816325 0.6198776244716344 0.3801223755283656 0.5136983463819493 0.4863016536180506 0.8872264323304045 0.11277356766959548 0.3184630613428268 0.6815369386571731 0.19284291388200758 0.8071570861179924 0.8484202834176304 0.1515797165823696 0.7277142360992747 0.2722857639007252 0.8327383856072944 0.16726161439270565 0.5864740812692734 0.41352591873072664 0.7033454820112194 0.29665451798878056 0.5848516443206222 0.41514835567937775 0.8597048226183394 0.14029517738166059 0.5870450769347476 0.4129549230652524 0.8009508044158469 0.19904919558415315 0.13408866255626758 0.8659113374437324 0.49781059068743194 0.5021894093125682 0.5702409255618733 0.4297590744381266 0.36808532503275204 0.631914674967248 0.42077785186471506 0.5792221481352849 0.2619091064149757 0.7380908935850242 0.5337843012671988 0.4662156987328012 0.5009688646459199 0.4990311353540801 0.5071391509686608 0.49286084903133925 0.635989039789499 0.3640109602105009 0.15376261736131683 0.8462373826386831 0.017422646750434506 0.9825773532495655 0.8353781411247432 0.16462185887525685 0.7604943950477467 0.23950560495225323 0.8807520628684494 0.11924793713155056 0.9998944055200862 0.00010559447991379136 0.7531903843131177 0.24680961568688234 0.2929937611482938 0.7070062388517061 0.9490469779489724 0.050953022051027634 0.7523863864269923 0.24761361357300776 0.6439456869580179 0.35605431304198215 0.4856612767516078 0.5143387232483921 0.521801565874069 0.478198434125931 </TABLE>
    </DEFINITION>
    <DEFINITION>
      <FOR>14</FOR>
      <GIVEN>0</GIVEN>
      <GIVEN>1</GIVEN>
      <GIVEN>5</GIVEN>
      <GIVEN>10</GIVEN>
      <GIVEN>13</GIVEN>
      <GIVEN>3</GIVEN>
      <GIVEN>4</GIVEN>
      <GIVEN>9</GIVEN>
      <TABLE>0.3213299745816911 0.6786700254183089 0.7889185210933712 0.2110814789066288 0.325551122948743 0.674448877051257 0.7180717727837121 0.28192822721628785 0.6361904406372276 0.3638095593627723 0.9582407013820873 0.04175929861791272 0.36912149358513474 0.6308785064148653 0.8149151453176879 0.18508485468231203 0.45610719219090556 0.5438928078090944 0.837931213309346 0.16206878669065394 0.6165785085549138 0.3834214914450862 0.9649597484312156 0.035040251568784445 0.5593903979085744 0.4406096020914255 0.28949005145119155 0.7105099485488084 0.4562802203394788 0.5437197796605211 0.6356639221741341 0.36433607782586597 0.018921137445917495 0.9810788625540825 0.7757589113914478 0.22424108860855216 0.6464871510230389 0.35351284897696106 0.6945432336033106 0.3054567663966894 0.43047316108751255 0.5695268389124875 0.7866718901561567 0.2133281098438433 0.5961348910690442 0.40386510893095573 0.37379850060329495 0.626201499396705 0.30959179653144686 0.6904082034685531 0.33184881436950847 0.6681511856304916 0.5135170927651278 0.4864829072348722 0.42285177369223226 0.5771482263077676 0.34384187200192495 0.6561581279980752 0.645303128095831 0.35469687190416893 0.43557920801647737 0.5644207919835226 0.5010414703941862 0.49895852960581366 0.4012916009496335 0.5987083990503664 0.9958063297154301 0.004193670284569808 0.7230990653998516 0.2769009346001484 0.4427989342745682 0.5572010657254317 0.7068585670339729 0.2931414329660272 0.7262076505072259 0.27379234949277415 0.42103923897411627 0.5789607610258837 0.4108315157586271 0.589168484241373 0.4412528738852887 0.5587471261147112 0.6406691186356038 0.35933088136439606 0.42657006490807503 0.573429935091925 0.5707318518883288 0.42926814811167124 0.1437384339403302 0.8562615660596697 0.08824047177425054 0.9117595282257495 0.545180291810991 0.45481970818900896 0.41838829457871857 0.5816117054212815 0.9302741084780832 0.06972589152191673 0.48481775735735727 0.5151822426426428 0.5606397284618357 0.4393602715381643 0.4370582347065727 0.5629417652934273 0.8800503362398115 0.11994966376018847 0.5270975153283066 0.4729024846716933 0.17380052850031957 0.8261994714996804 0.2538450125413099 0.7461549874586901 0.3569501548363506 0.6430498451636494 0.5154353266978067 0.4845646733021933 0.6653524916575144 0.33464750834248547 0.8845337499247619 0.11546625007523818 0.6250756267027141 0.374924373297286 0.5172699167341712 0.48273008326582884 0.4681262528756417 0.5318737471243583 0.5027571087321734 0.49724289126782667 0.7917668823900426 0.20823311760995744 0.20414950323433836 0.7958504967656617 0.9778292510939021 0.022170748906097992 0.8339353679546337 0.16606463204536623 0.3413758573167965 0.6586241426832034 0.2295650124117442 0.7704349875882557 0.5363561516473795 0.46364384835262046 0.30319749886740305 0.696802501132597 0.0642809109265459 0.9357190890734541 0.7170030491461574 0.28299695085384247 0.3661116479189481 0.6338883520810519 0.14614988201252654 0.8538501179874735 0.42153671586349856 0.5784632841365014 0.22176662377094924 0.7782333762290508 0.5316806106036415 0.4683193893963586 0.5489996891978965 0.45100031080210345 0.2769373502248615 0.7230626497751386 0.04106743325046601 0.958932566749534 0.27080364404398605 0.729196355956014 0.8741521596567312 0.12584784034326882 0.09777253840060422 0.9022274615993958 0.7537170250294748 0.24628297497052523 0.7279165330579099 0.27208346694209007 0.5245804029278938 0.4754195970721062 0.4304894216400131 0.569510578359987 0.47351837904052185 0.5264816209594783 0.500075489910672 0.49992451008932803 0.8051948582397181 0.19480514176028188 0.7059538869562554 0.29404611304374473 0.12251111365922081 0.8774888863407792 0.6212375500904842 0.3787624499095158 0.0013442781297765428 0.9986557218702234 0.6429319948818042 0.3570680051181957 0.7984532389910225 0.20154676100897745 0.573379530097325 0.4266204699026749 0.3520093930248326 0.6479906069751674 0.8245312554032683 0.1754687445967317 0.4679825713820552 0.5320174286179448 0.003486251631913695 0.9965137483680863 0.26019362747347324 0.7398063725265267 0.46493024022515406 0.5350697597748459 0.5250480239922027 0.4749519760077973 0.32836551698177924 0.6716344830182208 0.20577716603460083 0.7942228339653992 0.5485810906662972 0.4514189093337029 0.7188700451973564 0.28112995480264347 0.6365448096182569 0.3634551903817431 0.619178208167727 0.3808217918322731 0.3008224130963302 0.6991775869036698 0.5378568675635294 0.4621431324364706 0.8943141571146183 0.10568584288538163 0.564900253632207 0.4350997463677929 0.5593991202328679 0.44060087976713214 0.5713559469211064 0.42864405307889364 0.7308849206126068 0.2691150793873932 0.46279129716021383 0.5372087028397861 0.24937313137625836 0.7506268686237416 0.18475290272567094 0.8152470972743292 0.9011797264181352 0.09882027358186482 0.4583465025200389 0.5416534974799612 0.9283359089544103 0.07166409104558973 0.06866021142947047 0.9313397885705296 0.6526075758091866 0.34739242419081334 0.08516816296219286 0.9148318370378071 0.4149295166862561 0.5850704833137439 0.5595733606341995 0.4404266393658005 0.9165432436017734 0.08345675639822661 0.1151269111768195 0.8848730888231805 0.5262574442587042 0.47374255574129565 0.15236345104152685 0.8476365489584732 0.28433065931129486 0.7156693406887051 0.8225804062724176 0.1774195937275824 0.33336500481345066 0.6666349951865495 0.06219951427232102 0.9378004857276789 0.25910104318993243 0.7408989568100675 0.9121915184630968 0.08780848153690328 0.3726740939299323 0.6273259060700677 0.8393880678484008 0.16061193215159916 0.9586855261786268 0.0413144738213732 0.12710235918411436 0.8728976408158855 0.16194277116642272 0.8380572288335773 0.44344985495516925 0.5565501450448307 0.6296405767888262 0.37035942321117377 0.9442647156302852 0.05573528436971479 0.6710465405635127 0.32895345943648735 0.353218486874641 0.6467815131253588 0.6945045484351878 0.3054954515648121 0.04296027637008695 0.9570397236299131 0.6671949418186317 0.33280505818136835 0.051125933864018036 0.9488740661359818 0.8738003813078904 0.12619961869210955 0.25860934202033553 0.7413906579796644 0.6800812480262168 0.3199187519737831 0.5058146646726653 0.49418533532733466 0.5015718119792085 0.4984281880207915 0.9883618396463122 0.011638160353687812 0.8611101789954585 0.13888982100454156 0.020098084551339008 0.979901915448661 0.7740018427416757 0.22599815725832426 0.8153531824921475 0.1846468175078525 0.25279638604094895 0.7472036139590511 0.5731572301402071 0.42684276985979286 0.41238991730970526 0.5876100826902948 0.6189977649481744 0.3810022350518256 0.6496052534571757 0.3503947465428244 0.33141308491231086 0.6685869150876893 0.5197469634021628 0.4802530365978373 0.8742254322816263 0.12577456771837356 0.5082263958251004 0.4917736041748995 0.7713911562166367 0.22860884378336319 0.3549363811161571 0.6450636188838429 0.330583678639921 0.669416321360079 0.558587475996814 0.44141252400318587 0.8896355485145652 0.11036445148543479 0.22105528066377225 0.7789447193362278 0.6282418346057148 0.37175816539428513 0.9422872120677588 0.057712787932241244 0.45860147699768455 0.5413985230023154 0.19477365977636193 0.805226340223638 0.14062162377093243 0.8593783762290675 0.36102011833554265 0.6389798816644573 0.6924286168739134 0.3075713831260866 0.7486098258315148 0.2513901741684853 0.1560805710197737 0.8439194289802263 0.41469027779172823 0.5853097222082717 0.5665206064573605 0.4334793935426395 0.6361299199708039 0.363870080029196 0.22687161100129977 0.7731283889987002 0.5803260492570231 0.4196739507429769 0.46510535577381446 0.5348946442261855 0.47403851268124525 0.5259614873187548 0.21856961718625156 0.7814303828137484 0.37611591906351816 0.6238840809364818 0.6450351606630487 0.35496483933695133 0.3315201153203768 0.6684798846796232 0.6383013494585548 0.36169865054144523 0.11926151344625041 0.8807384865537496 0.02723522390370051 0.9727647760962995 0.6769447434892002 0.3230552565107998 0.24834627132230655 0.7516537286776934 0.9312753604936701 0.0687246395063299 0.9213689089528857 0.07863109104711434 0.5976502498531376 0.4023497501468624 0.536695351781403 0.46330464821859696 0.5659140410463441 0.43408595895365576 0.24331234279772285 0.756687657202277 0.9295626145341609 0.07043738546583925 0.5974381692174517 0.40256183078254826 0.6313050405825844 0.36869495941741565 0.6280493466667166 0.3719506533332833 0.7506597353561685 0.2493402646438316 0.2662884344237355 0.7337115655762645 0.2407985375732302 0.7592014624267698 0.6706041550193754 0.3293958449806246 0.39872177543839066 0.6012782245616094 0.6230985128330542 0.3769014871669458 0.4113706984162365 0.5886293015837635 0.5938108843296634 0.40618911567033666 0.47833872795622034 0.5216612720437797 0.9859033353431366 0.014096664656863428 0.7366397442293963 0.26336025577060374 0.24232107387850915 0.7576789261214909 0.6441148475896424 0.35588515241035745 0.7540405010407163 0.24595949895928373 0.5116370735976796 0.48836292640232026 0.6255276098661467 0.3744723901338532 0.7973406717161047 0.20265932828389532 0.15580116910935207 0.844198830890648 0.5793472416204322 0.42065275837956784 0.33254224695604634 0.6674577530439537 0.3705388148394579 0.6294611851605421 0.531191686095245 0.4688083139047549 0.6344560418284121 0.365543958171588 0.65295414807311 0.34704585192689 0.7434640375300291 0.25653596246997085 0.6755720905084938 0.32442790949150624 0.31556125420224723 0.6844387457977528 0.9525093812613274 0.047490618738672524 0.41383916418637406 0.586160835813626 0.8166678445420688 0.18333215545793127 0.46377224375601517 0.5362277562439848 0.7171510077746334 0.2828489922253666 0.31122598166924015 0.6887740183307598 0.40972524984552317 0.590274750154477 0.7101343296614152 0.2898656703385848 0.5977356947430377 0.4022643052569622 0.32792202361392864 0.6720779763860714 0.6958088325121382 0.3041911674878618 0.6321785145674005 0.36782148543259946 0.4316842531334212 0.5683157468665788 0.5499092832738036 0.4500907167261964 0.5119227643568327 0.4880772356431673 </TABLE>
    </DEFINITION>
  </NETWORK>
</BIF>
