<?xml version='1.0' encoding='utf-8'?>
<BIF VERSION="0.3">
  <NETWORK>
    <NAME>UNTITLED</NAME>
    <VARIABLE TYPE="nature">
      <NAME>0</NAME>
      <OUTCOME>0</OUTCOME>
      <OUTCOME>1</OUTCOME>
      <PROPERTY>weight = None</PROPERTY>
    </VARIABLE>
    <VARIABLE TYPE="nature">
      <NAME>1</NAME>
      <OUTCOME>0</OUTCOME>
      <OUTCOME>1</OUTCOME>
      <PROPERTY>weight = None</PROPERTY>
    </VARIABLE>
    <VARIABLE TYPE="nature">
      <NAME>2</NAME>
      <OUTCOME>0</OUTCOME>
      <OUTCOME>1</OUTCOME>
      <PROPERTY>weight = None</PROPERTY>
    </VARIABLE>
    <VARIABLE TYPE="nature">
      <NAME>3</NAME>
      <OUTCOME>0</OUTCOME>
      <OUTCOME>1</OUTCOME>
      <PROPERTY>weight = None</PROPERTY>
    </VARIABLE>
    <VARIABLE TYPE="nature">
      <NAME>4</NAME>
      <OUTCOME>0</OUTCOME>
      <OUTCOME>1</OUTCOME>
      <PROPERTY>weight = None</PROPERTY>
    </VARIABLE>
    <VARIABLE TYPE="nature">
      <NAME>5</NAME>
      <OUTCOME>0</OUTCOME>
      <OUTCOME>1</OUTCOME>
      <PROPERTY>weight = None</PROPERTY>
    </VARIABLE>
    <VARIABLE TYPE="nature">
      <NAME>6</NAME>
      <OUTCOME>0</OUTCOME>
      <OUTCOME>1</OUTCOME>
      <PROPERTY>weight = None</PROPERTY>
    </VARIABLE>
    <DEFINITION>
      <FOR>0</FOR>
      <TABLE>0.8880319170171854 0.11196808298281455 </TABLE>
    </DEFINITION>
    <DEFINITION>
      <FOR>1</FOR>
      <GIVEN>0</GIVEN>
      <TABLE>0.6120130304230494 0.38798696957695056 0.4788417184808755 0.5211582815191245 </TABLE>
    </DEFINITION>
    <DEFINITION>
      <FOR>2</FOR>
      <GIVEN>0</GIVEN>
      <TABLE>0.6111871328911473 0.3888128671088526 0.2505197796786182 0.7494802203213817 </TABLE>
    </DEFINITION>
    <DEFINITION>
      <FOR>3</FOR>
      <GIVEN>2</GIVEN>
      <TABLE>0.5278374558578169 0.47216254414218306 0.056848839538974356 0.9431511604610257 </TABLE>
    </DEFINITION>
    <DEFINITION>
      <FOR>4</FOR>
      <GIVEN>0</GIVEN>
      <GIVEN>1</GIVEN>
      <GIVEN>2</GIVEN>
      <GIVEN>3</GIVEN>
      <TABLE>0.47036356014036357 0.5296364398596365 0.43307751067104516 0.566922489328955 0.5878075669742661 0.41219243302573394 0.0563323309493309 0.9436676690506691 0.016862919813503813 0.9831370801864961 0.5087226783320306 0.49127732166796945 0.0721080789010363 0.9278919210989637 0.7695220860516018 0.23047791394839823 0.5709591732968292 0.42904082670317084 0.05419218584163946 0.9458078141583606 0.3540737227672976 0.6459262772327024 0.4407586514418388 0.5592413485581612 0.551652866675498 0.44834713332450205 0.6461990928570817 0.35380090714291823 0.5354176709450235 0.46458232905497654 0.2697492939070861 0.730250706092914 </TABLE>
    </DEFINITION>
    <DEFINITION>
      <FOR>5</FOR>
      <GIVEN>0</GIVEN>
      <GIVEN>2</GIVEN>
      <TABLE>0.501203505541353 0.49879649445864704 0.435160826058371 0.5648391739416291 0.4978561732890941 0.5021438267109058 0.6271655470291555 0.3728344529708446 </TABLE>
    </DEFINITION>
    <DEFINITION>
      <FOR>6</FOR>
      <GIVEN>2</GIVEN>
      <GIVEN>5</GIVEN>
      <TABLE>0.5055962911621015 0.4944037088378985 0.5965088145922218 0.4034911854077781 0.48556220896027713 0.5144377910397229 0.0015815466609655395 0.9984184533390345 </TABLE>
    </DEFINITION>
  </NETWORK>
</BIF>
