<?xml version='1.0' encoding='utf-8'?>
<BIF VERSION="0.3">
  <NETWORK>
    <NAME>UNTITLED</NAME>
    <VARIABLE TYPE="nature">
      <NAME>0</NAME>
      <OUTCOME>0</OUTCOME>
      <OUTCOME>1</OUTCOME>
      <PROPERTY>weight = None</PROPERTY>
    </VARIABLE>
    <VARIABLE TYPE="nature">
      <NAME>1</NAME>
      <OUTCOME>0</OUTCOME>
      <OUTCOME>1</OUTCOME>
      <PROPERTY>weight = None</PROPERTY>
    </VARIABLE>
    <VARIABLE TYPE="nature">
      <NAME>10</NAME>
      <OUTCOME>0</OUTCOME>
      <OUTCOME>1</OUTCOME>
      <PROPERTY>weight = None</PROPERTY>
    </VARIABLE>
    <VARIABLE TYPE="nature">
      <NAME>11</NAME>
      <OUTCOME>0</OUTCOME>
      <OUTCOME>1</OUTCOME>
      <PROPERTY>weight = None</PROPERTY>
    </VARIABLE>
    <VARIABLE TYPE="nature">
      <NAME>12</NAME>
      <OUTCOME>0</OUTCOME>
      <OUTCOME>1</OUTCOME>
      <PROPERTY>weight = None</PROPERTY>
    </VARIABLE>
    <VARIABLE TYPE="nature">
      <NAME>13</NAME>
      <OUTCOME>0</OUTCOME>
      <OUTCOME>1</OUTCOME>
      <PROPERTY>weight = None</PROPERTY>
    </VARIABLE>
    <VARIABLE TYPE="nature">
      <NAME>14</NAME>
      <OUTCOME>0</OUTCOME>
      <OUTCOME>1</OUTCOME>
      <PROPERTY>weight = None</PROPERTY>
    </VARIABLE>
    <VARIABLE TYPE="nature">
      <NAME>15</NAME>
      <OUTCOME>0</OUTCOME>
      <OUTCOME>1</OUTCOME>
      <PROPERTY>weight = None</PROPERTY>
    </VARIABLE>
    <VARIABLE TYPE="nature">
      <NAME>16</NAME>
      <OUTCOME>0</OUTCOME>
      <OUTCOME>1</OUTCOME>
      <PROPERTY>weight = None</PROPERTY>
    </VARIABLE>
    <VARIABLE TYPE="nature">
      <NAME>17</NAME>
      <OUTCOME>0</OUTCOME>
      <OUTCOME>1</OUTCOME>
      <PROPERTY>weight = None</PROPERTY>
    </VARIABLE>
    <VARIABLE TYPE="nature">
      <NAME>18</NAME>
      <OUTCOME>0</OUTCOME>
      <OUTCOME>1</OUTCOME>
      <PROPERTY>weight = None</PROPERTY>
    </VARIABLE>
    <VARIABLE TYPE="nature">
      <NAME>2</NAME>
      <OUTCOME>0</OUTCOME>
      <OUTCOME>1</OUTCOME>
      <PROPERTY>weight = None</PROPERTY>
    </VARIABLE>
    <VARIABLE TYPE="nature">
      <NAME>3</NAME>
      <OUTCOME>0</OUTCOME>
      <OUTCOME>1</OUTCOME>
      <PROPERTY>weight = None</PROPERTY>
    </VARIABLE>
    <VARIABLE TYPE="nature">
      <NAME>4</NAME>
      <OUTCOME>0</OUTCOME>
      <OUTCOME>1</OUTCOME>
      <PROPERTY>weight = None</PROPERTY>
    </VARIABLE>
    <VARIABLE TYPE="nature">
      <NAME>5</NAME>
      <OUTCOME>0</OUTCOME>
      <OUTCOME>1</OUTCOME>
      <PROPERTY>weight = None</PROPERTY>
    </VARIABLE>
    <VARIABLE TYPE="nature">
      <NAME>6</NAME>
      <OUTCOME>0</OUTCOME>
      <OUTCOME>1</OUTCOME>
      <PROPERTY>weight = None</PROPERTY>
    </VARIABLE>
    <VARIABLE TYPE="nature">
      <NAME>7</NAME>
      <OUTCOME>0</OUTCOME>
      <OUTCOME>1</OUTCOME>
      <PROPERTY>weight = None</PROPERTY>
    </VARIABLE>
    <VARIABLE TYPE="nature">
      <NAME>8</NAME>
      <OUTCOME>0</OUTCOME>
      <OUTCOME>1</OUTCOME>
      <PROPERTY>weight = None</PROPERTY>
    </VARIABLE>
    <VARIABLE TYPE="nature">
      <NAME>9</NAME>
      <OUTCOME>0</OUTCOME>
      <OUTCOME>1</OUTCOME>
      <PROPERTY>weight = None</PROPERTY>
    </VARIABLE>
    <DEFINITION>
      <FOR>0</FOR>
      <TABLE>0.5027668473000019 0.49723315269999807 </TABLE>
    </DEFINITION>
    <DEFINITION>
      <FOR>1</FOR>
      <TABLE>0.8503992185647075 0.1496007814352926 </TABLE>
    </DEFINITION>
    <DEFINITION>
      <FOR>10</FOR>
      <GIVEN>8</GIVEN>
      <GIVEN>9</GIVEN>
      <GIVEN>3</GIVEN>
      <GIVEN>4</GIVEN>
      <GIVEN>6</GIVEN>
      <GIVEN>1</GIVEN>
      <TABLE>0.6973095297699078 0.3026904702300922 0.6029083349241068 0.39709166507589316 0.3141783463752661 0.6858216536247339 0.6068957427698812 0.3931042572301187 0.9981140762333296 0.0018859237666703635 0.07197799331502154 0.9280220066849785 0.5931553178326071 0.4068446821673929 0.43200984662865144 0.5679901533713486 0.7777641933828535 0.22223580661714643 0.34693868100968966 0.6530613189903103 0.4725595901051188 0.5274404098948812 0.5570207497998797 0.44297925020012024 0.4507126204154494 0.5492873795845505 0.971514505589059 0.028485494410940962 0.40728954680150087 0.5927104531984991 0.6076694186429555 0.39233058135704446 0.1906922137426363 0.8093077862573637 0.17895487667716636 0.8210451233228337 0.658704120749986 0.34129587925001403 0.7470348438754685 0.2529651561245315 0.7388231683600222 0.26117683163997785 0.8294969153915889 0.17050308460841104 0.7997240174744988 0.20027598252550108 0.6445236381386091 0.3554763618613909 0.7779325992594682 0.22206740074053175 0.9023463523554343 0.09765364764456573 0.5764544667013607 0.4235455332986392 0.2053424129933195 0.7946575870066805 0.15110828893766726 0.8488917110623326 0.4071885061952211 0.5928114938047788 0.506270019944452 0.49372998005554797 0.9684535280552127 0.03154647194478727 0.6744222184477314 0.3255777815522685 0.4321728060097069 0.5678271939902931 0.6370443712098618 0.36295562879013815 0.26760153067924825 0.7323984693207517 0.6867855642194296 0.3132144357805704 0.511963299100093 0.48803670089990697 0.39772209435171363 0.6022779056482864 0.396178365004815 0.6038216349951849 0.4307601614019674 0.5692398385980327 0.5201660323063168 0.4798339676936832 0.6784108768486756 0.32158912315132443 0.18370984807452484 0.8162901519254752 0.46375840606779295 0.536241593932207 0.09961694824036324 0.9003830517596367 0.5324941451327493 0.4675058548672507 0.6162762275992014 0.38372377240079864 0.9108472216704937 0.08915277832950634 0.48324759464527417 0.5167524053547259 0.2741346043923656 0.7258653956076344 0.19070072505832852 0.8092992749416715 0.0160078203079669 0.9839921796920331 0.3884719340894105 0.6115280659105895 0.7105148724150305 0.2894851275849695 0.6419863896242658 0.3580136103757342 0.456146195361043 0.543853804638957 0.21602884155843144 0.7839711584415685 0.8857367528990593 0.11426324710094075 0.8495051922912535 0.15049480770874643 0.2716184174919243 0.7283815825080757 0.6829537867858791 0.31704621321412096 0.0531481551722024 0.9468518448277976 0.3445043232152116 0.6554956767847883 </TABLE>
    </DEFINITION>
    <DEFINITION>
      <FOR>11</FOR>
      <GIVEN>0</GIVEN>
      <GIVEN>8</GIVEN>
      <GIVEN>10</GIVEN>
      <TABLE>0.7962193134551222 0.20378068654487785 0.5942254721508969 0.405774527849103 0.4578724668749104 0.5421275331250895 0.49575180246385087 0.504248197536149 0.8085073026387123 0.19149269736128774 0.17387187965977505 0.826128120340225 0.898694503116167 0.10130549688383293 0.4220485901154655 0.5779514098845345 </TABLE>
    </DEFINITION>
    <DEFINITION>
      <FOR>12</FOR>
      <GIVEN>0</GIVEN>
      <GIVEN>2</GIVEN>
      <GIVEN>9</GIVEN>
      <TABLE>0.55015768523841 0.4498423147615901 0.07761748445712528 0.9223825155428748 0.2579590397503361 0.7420409602496639 0.43929818214157484 0.5607018178584251 0.7234601655320907 0.27653983446790925 0.581462798629379 0.4185372013706209 0.249407169483987 0.750592830516013 0.6380390302421851 0.36196096975781494 </TABLE>
    </DEFINITION>
    <DEFINITION>
      <FOR>13</FOR>
      <GIVEN>0</GIVEN>
      <GIVEN>8</GIVEN>
      <GIVEN>9</GIVEN>
      <GIVEN>3</GIVEN>
      <GIVEN>4</GIVEN>
      <GIVEN>1</GIVEN>
      <TABLE>0.7774487499765466 0.2225512500234535 0.47003267194699766 0.5299673280530023 0.2695860554676608 0.7304139445323392 0.8326754343269682 0.16732456567303178 0.4582736143217334 0.5417263856782666 0.6256570806217842 0.37434291937821584 0.7590530147660802 0.24094698523391983 0.7326576217147669 0.2673423782852331 0.2622764329608684 0.7377235670391316 0.5774553686739864 0.4225446313260136 0.5336477154273966 0.46635228457260336 0.9601484692496735 0.03985153075032652 0.7749370815228801 0.22506291847711993 0.41159277252624665 0.5884072274737535 0.47262839219584923 0.5273716078041507 0.23578809436852122 0.7642119056314788 0.4733275859463791 0.5266724140536209 0.26526927637441367 0.7347307236255864 0.5628184553134472 0.4371815446865529 0.7931817977061938 0.20681820229380626 0.34592248731009967 0.6540775126899003 0.2985444086534904 0.7014555913465096 0.3241888497078674 0.6758111502921326 0.8205654961672363 0.1794345038327637 0.35952138915643517 0.6404786108435648 0.49559824386029344 0.5044017561397065 0.700669848057768 0.299330151942232 0.7342449714570045 0.2657550285429956 0.08820999034846609 0.9117900096515339 0.5496876720951256 0.45031232790487435 0.6030864147572624 0.3969135852427375 0.4492492737914057 0.5507507262085943 0.231006860134652 0.768993139865348 0.24231207714953984 0.7576879228504602 0.720040712504254 0.279959287495746 0.40359022386048965 0.5964097761395103 0.9460094476770756 0.05399055232292435 0.09046570858835622 0.9095342914116438 0.18492805299725787 0.8150719470027421 0.4325246746306823 0.5674753253693178 0.6683880682994099 0.33161193170059006 0.8469916470869486 0.1530083529130514 0.8928408204884022 0.1071591795115978 0.12421742838538433 0.8757825716146157 0.7767458504427659 0.2232541495572342 0.47390934051592104 0.526090659484079 0.39766068709016383 0.6023393129098361 0.6798824413052095 0.3201175586947906 0.9421953140472797 0.0578046859527202 0.9672721283991993 0.03272787160080072 0.7625762497519704 0.23742375024802959 0.6114563012295721 0.388543698770428 0.8929600009454254 0.10703999905457463 0.37615993844149587 0.6238400615585041 0.6064652907564916 0.3935347092435085 0.49910676143143134 0.5008932385685687 0.5147485235229108 0.48525147647708916 0.8145215397533314 0.1854784602466686 0.530475701257745 0.46952429874225493 0.5480620442175017 0.4519379557824984 0.4864001115280391 0.5135998884719609 0.5978695961213659 0.4021304038786341 0.03316584577459443 0.9668341542254055 0.614997016698528 0.385002983301472 </TABLE>
    </DEFINITION>
    <DEFINITION>
      <FOR>14</FOR>
      <GIVEN>11</GIVEN>
      <GIVEN>12</GIVEN>
      <GIVEN>13</GIVEN>
      <GIVEN>3</GIVEN>
      <GIVEN>6</GIVEN>
      <GIVEN>7</GIVEN>
      <TABLE>0.5236169732226728 0.47638302677732725 0.4814911239815497 0.5185088760184503 0.7344122485474183 0.26558775145258173 0.6588628046116811 0.3411371953883188 0.7706388820984502 0.22936111790154964 0.43878170780758025 0.5612182921924197 0.09980017388299549 0.9001998261170046 0.2758317468289593 0.7241682531710406 0.3844451088947514 0.6155548911052486 0.7917091366053957 0.2082908633946044 0.5477597606253134 0.45224023937468677 0.9521855351609061 0.04781446483909396 0.5368817861156944 0.46311821388430563 0.6252220209435511 0.37477797905644894 0.4664886472821108 0.5335113527178892 0.38130564797392036 0.6186943520260796 0.15647531992882224 0.8435246800711778 0.07288538436867481 0.9271146156313252 0.039698629611588966 0.960301370388411 0.6968900583223526 0.30310994167764743 0.3006660455337289 0.6993339544662711 0.6711454444528978 0.32885455554710225 0.7724630664055766 0.2275369335944235 0.11445566487320297 0.8855443351267971 0.15603855788141713 0.8439614421185828 0.5074707786037204 0.49252922139627975 0.5818439378901101 0.4181560621098898 0.31107237251619024 0.6889276274838098 0.38664449958365504 0.613355500416345 0.7155897151270961 0.2844102848729038 0.548879357576336 0.45112064242366384 0.3606692684058255 0.6393307315941745 0.12242981009211926 0.8775701899078807 0.9144847893109084 0.08551521068909165 0.8357370083019623 0.1642629916980377 0.2854355020671589 0.7145644979328412 0.09335510900054414 0.9066448909994559 0.4424880588015552 0.5575119411984448 0.49461182820529953 0.5053881717947005 0.6214836761769155 0.3785163238230846 0.5865037806705322 0.41349621932946784 0.32185764558888835 0.6781423544111117 0.3345522962362907 0.6654477037637093 0.2577653433164894 0.7422346566835105 0.48511246094097293 0.514887539059027 0.6488394916415808 0.3511605083584192 0.6834550172160859 0.31654498278391424 0.5437270562708596 0.4562729437291404 0.5774856998456062 0.42251430015439384 0.9652510480343917 0.03474895196560838 0.755732112731705 0.244267887268295 0.7821336145237086 0.21786638547629147 0.4792677406450668 0.5207322593549332 0.8790026025591794 0.12099739744082058 0.5833088904417459 0.416691109558254 0.5192803617770417 0.48071963822295816 0.30332884497370227 0.6966711550262977 0.4366859633250704 0.5633140366749296 0.5531834634973412 0.44681653650265885 0.996740768568442 0.0032592314315580437 0.21098176151969106 0.7890182384803089 0.5985933396089884 0.4014066603910116 0.5110586706804623 0.4889413293195377 0.5753827518432066 0.42461724815679347 </TABLE>
    </DEFINITION>
    <DEFINITION>
      <FOR>15</FOR>
      <GIVEN>0</GIVEN>
      <GIVEN>9</GIVEN>
      <GIVEN>11</GIVEN>
      <GIVEN>12</GIVEN>
      <GIVEN>13</GIVEN>
      <GIVEN>4</GIVEN>
      <GIVEN>5</GIVEN>
      <GIVEN>6</GIVEN>
      <GIVEN>14</GIVEN>
      <GIVEN>1</GIVEN>
      <TABLE>0.6141239080760006 0.3858760919239994 0.14003607579545832 0.8599639242045417 0.4352717163088144 0.5647282836911857 0.9898780250326942 0.010121974967305835 0.3000779344859732 0.6999220655140268 0.5001673507475701 0.49983264925242993 0.7909458767642951 0.2090541232357049 0.6730375575491019 0.3269624424508981 0.8666134344043704 0.13338656559562964 0.7168151075049788 0.28318489249502116 0.5643599495081569 0.4356400504918432 0.5218662837123004 0.4781337162876996 0.2754829811787233 0.7245170188212767 0.562118059291976 0.4378819407080239 0.21059268744130594 0.789407312558694 0.9041776700735982 0.09582232992640177 0.4017577720145888 0.5982422279854114 0.5102031445994148 0.4897968554005851 0.2934666775577824 0.7065333224422176 0.2328083792910977 0.7671916207089023 0.3695601100652273 0.6304398899347727 0.41206537546994154 0.5879346245300585 0.8555946629989791 0.14440533700102082 0.33837764029478107 0.661622359705219 0.008424020297329532 0.9915759797026704 0.4075841765223709 0.5924158234776292 0.7730555389357467 0.22694446106425326 0.6044250772394757 0.39557492276052425 0.30001970235147707 0.6999802976485229 0.59046736750436 0.40953263249564004 0.7710373833836063 0.22896261661639372 0.2519744971333038 0.7480255028666962 0.9095067499908555 0.09049325000914456 0.6529318130690324 0.34706818693096764 0.329810904626208 0.670189095373792 0.6631317926561454 0.33686820734385453 0.5049650297964361 0.49503497020356396 0.1841233764946357 0.8158766235053643 0.47003336119732547 0.5299666388026745 0.2490793430443747 0.7509206569556253 0.19820814290225072 0.8017918570977492 0.2794358633998349 0.7205641366001652 0.338969764371717 0.6610302356282829 0.5739147810968745 0.4260852189031255 0.6440447498370345 0.3559552501629655 0.6088899289125548 0.39111007108744517 0.3890477737025437 0.6109522262974563 0.6651956128331595 0.3348043871668404 0.6391386760582773 0.3608613239417226 0.5595389381338772 0.4404610618661228 0.043137368974370774 0.9568626310256292 0.4869151033052702 0.5130848966947298 0.5153874113808667 0.48461258861913326 0.14651138312934492 0.8534886168706551 0.6398231284706332 0.36017687152936684 0.6320834900511731 0.3679165099488269 0.7218495993947718 0.2781504006052283 0.7307796600938531 0.26922033990614697 0.27320194761289934 0.7267980523871007 0.47065875426492754 0.5293412457350724 0.42994509961357025 0.5700549003864297 0.9370818293665335 0.06291817063346647 0.9779329269993252 0.02206707300067481 0.3552944800474052 0.6447055199525948 0.8705293171666267 0.12947068283337326 0.3163769437108095 0.6836230562891904 0.5314985464926407 0.4685014535073593 0.6441392729670237 0.3558607270329764 0.590906329525252 0.40909367047474804 0.801559616512948 0.19844038348705204 0.9062997636794979 0.0937002363205021 0.1718644135927424 0.8281355864072577 0.011899270040870403 0.9881007299591296 0.20883967951653604 0.791160320483464 0.8426456070159055 0.15735439298409448 0.17834557952719907 0.8216544204728008 0.7057218510062246 0.2942781489937754 0.9953328798213152 0.0046671201786847374 0.4946347386865501 0.5053652613134499 0.6847832902820472 0.3152167097179526 0.5120100698992317 0.4879899301007683 0.6800307766168764 0.3199692233831235 0.8793595642293882 0.12064043577061183 0.698216475233157 0.30178352476684306 0.15489011487825036 0.8451098851217497 0.37380780411672027 0.6261921958832798 0.6985070700694996 0.3014929299305003 0.7951787952517365 0.20482120474826346 0.7227270134103563 0.27727298658964367 0.7357572606176596 0.26424273938234044 0.8130042295058575 0.18699577049414254 0.8265964920180896 0.17340350798191037 0.9282916807311936 0.07170831926880644 0.20482721187763878 0.7951727881223613 0.27472634300791193 0.725273656992088 0.5894358116528473 0.4105641883471527 0.6378487215491715 0.36215127845082845 0.1509513698370757 0.8490486301629243 0.4037018767498535 0.5962981232501464 0.46704233776819526 0.5329576622318047 0.4593416231384572 0.5406583768615428 0.8141088647871592 0.1858911352128409 0.5415893328383472 0.4584106671616528 0.6022555091192231 0.39774449088077685 0.8704261863127288 0.12957381368727117 0.2711989885754001 0.7288010114246 0.2324905836223347 0.7675094163776653 0.3406755949890031 0.6593244050109968 0.7658725879265833 0.23412741207341664 0.34308260856804823 0.6569173914319518 0.541087980447628 0.45891201955237204 0.022002831689875563 0.9779971683101244 0.4176707407132931 0.582329259286707 0.3091809244339158 0.6908190755660841 0.31926205165195215 0.6807379483480478 0.199753280463525 0.800246719536475 0.5056888201435719 0.49431117985642803 0.7147462990152227 0.28525370098477726 0.558501098355097 0.441498901644903 0.4709862607708076 0.5290137392291925 0.533132107283061 0.466867892716939 0.7068948047126241 0.29310519528737594 0.692103362113446 0.30789663788655397 0.8690739704744396 0.13092602952556046 0.5354986407733963 0.4645013592266037 0.965569572038079 0.034430427961920924 0.6125349079412252 0.38746509205877466 0.587045307404039 0.412954692595961 0.5870173915507617 0.4129826084492383 0.2161988211474217 0.7838011788525783 0.5493473515736907 0.45065264842630925 0.7030321051590246 0.29696789484097535 0.7701522139786252 0.22984778602137476 0.5329371429656056 0.46706285703439443 0.2281811334234941 0.7718188665765059 0.30166785031490223 0.6983321496850978 0.4405005928375572 0.5594994071624428 0.964123605341755 0.035876394658245034 0.3019416477960383 0.6980583522039616 0.46603660026013244 0.5339633997398676 0.44710991433239367 0.5528900856676064 0.8042026634858858 0.19579733651411424 0.8289007420279794 0.1710992579720206 0.9340569502880934 0.0659430497119066 0.11134164158603614 0.8886583584139639 0.706392754645975 0.29360724535402505 0.5290278084781098 0.4709721915218902 0.30380291126259884 0.6961970887374012 0.600543687445193 0.39945631255480696 0.8639829713003574 0.13601702869964263 0.5150244436762411 0.48497555632375877 0.3720983716410289 0.6279016283589711 0.7279343417096866 0.2720656582903134 0.8295601307580559 0.17043986924194404 0.43182169721912284 0.5681783027808772 0.7546139641975735 0.24538603580242643 0.2321136142085039 0.7678863857914962 0.3715801393253544 0.6284198606746457 0.03938221607861638 0.9606177839213836 0.03319419319297112 0.9668058068070289 0.6637411703767184 0.33625882962328163 0.3870544561180936 0.6129455438819064 0.8521487137702399 0.14785128622976013 0.3631726882425197 0.6368273117574803 0.18757759271996693 0.8124224072800331 0.5430615039783833 0.4569384960216168 0.5645004032334419 0.4354995967665581 0.9872163347311749 0.01278366526882508 0.7173099639350803 0.28269003606491966 0.3337269440270379 0.666273055972962 0.9945205130433203 0.005479486956679668 0.015363994762300905 0.9846360052376991 0.5009164291319684 0.49908357086803157 0.5927277309427124 0.40727226905728775 0.5300708797434256 0.46992912025657435 0.19043666874461715 0.8095633312553828 0.6765158530466708 0.32348414695332917 0.5179351615124143 0.4820648384875858 0.7276454922844231 0.2723545077155769 0.5726193067192977 0.42738069328070216 0.7585923040958177 0.24140769590418226 0.5863894305704356 0.4136105694295645 0.27700814989070105 0.722991850109299 0.6470119420176478 0.35298805798235217 0.2950348315877486 0.7049651684122514 0.2670941694619918 0.7329058305380082 0.5889380905973933 0.41106190940260673 0.01756254578748734 0.9824374542125126 0.23838543474633708 0.7616145652536629 0.6180784509014343 0.38192154909856574 0.24809605022085102 0.7519039497791489 0.5569745821244415 0.4430254178755585 0.7359766252066814 0.2640233747933186 0.0580623668834698 0.9419376331165302 0.12363347817545067 0.8763665218245494 0.43345533285609955 0.5665446671439006 0.42415250694471573 0.5758474930552842 0.30298099946938656 0.6970190005306135 0.6439359377287363 0.35606406227126375 0.6426548952345675 0.3573451047654324 0.7172468882445963 0.28275311175540374 0.8231956755063675 0.17680432449363248 0.41545143368966203 0.5845485663103379 0.8358175250178209 0.1641824749821791 0.5182989014714726 0.48170109852852744 0.4614883496889691 0.5385116503110309 0.47873423624232275 0.5212657637576772 0.47624791750209117 0.5237520824979087 0.503327718109502 0.496672281890498 0.3231848130907253 0.6768151869092747 0.7721334107108616 0.22786658928913833 0.2507911034740034 0.7492088965259966 0.4483411452320769 0.5516588547679231 0.7684748225994997 0.23152517740050024 0.9676703397209458 0.03232966027905412 0.3706870396898855 0.6293129603101145 0.32604001006114 0.6739599899388601 0.21197903014677486 0.788020969853225 0.4183287279947643 0.5816712720052357 0.811827173742505 0.188172826257495 0.6012797484233898 0.3987202515766101 0.018213017666784754 0.9817869823332153 0.7885563130190091 0.21144368698099092 0.4573096494696053 0.5426903505303947 0.3159008316333637 0.6840991683666364 0.04267409542326185 0.9573259045767382 0.947213923399151 0.05278607660084898 0.4858817096502438 0.5141182903497562 0.42397117446793836 0.5760288255320617 0.7945138779416797 0.20548612205832015 0.08999477929070684 0.9100052207092931 0.6713732330318268 0.32862676696817317 0.5649508418785022 0.4350491581214978 0.5494362823039409 0.4505637176960591 0.7082075781414064 0.2917924218585936 0.8172101824826664 0.18278981751733359 0.4537964289298256 0.5462035710701745 0.35187016277055094 0.6481298372294492 0.41631676941600804 0.5836832305839921 0.0611265418875779 0.938873458112422 0.6091051020726873 0.39089489792731263 0.8145074850807595 0.18549251491924051 0.9839529974920944 0.016047002507905615 0.8085762408526108 0.19142375914738918 0.5579123606280225 0.4420876393719775 0.2505654666161617 0.7494345333838384 0.8959465853407255 0.10405341465927458 0.4510813083151888 0.5489186916848112 0.7004072645159766 0.2995927354840235 0.425021818885812 0.574978181114188 0.24925328229244942 0.7507467177075505 0.26426364030974353 0.7357363596902564 0.3829079171813811 0.6170920828186189 0.3084822781667905 0.6915177218332095 0.07344654074433347 0.9265534592556666 0.2111882538278603 0.7888117461721397 0.3111060959491248 0.6888939040508751 0.3848414217279344 0.6151585782720655 0.4686882077892746 0.5313117922107253 0.10452242350988816 0.8954775764901118 0.44554399754049995 0.5544560024595001 0.1977512264982377 0.8022487735017623 0.48815011470971825 0.5118498852902816 0.2581032147313861 0.741896785268614 0.8900885574156703 0.10991144258432972 0.8233315562384244 0.17666844376157567 0.4000368092894834 0.5999631907105165 0.06823907356873549 0.9317609264312645 0.08199520312265253 0.9180047968773475 0.5472747084905768 0.45272529150942314 0.4623168917637179 0.5376831082362822 0.5358362614380505 0.46416373856194965 0.15832682248588112 0.8416731775141189 0.5398610040226182 0.4601389959773818 0.1915675607995063 0.8084324392004937 0.08065845487836687 0.9193415451216331 0.5733226004726822 0.4266773995273177 0.6774478837908572 0.32255211620914276 0.1051706137377144 0.8948293862622856 0.8677118351984179 0.1322881648015821 0.47817551197254005 0.52182448802746 0.6941873611563162 0.30581263884368387 0.668804599999916 0.33119540000008396 0.7115317393232439 0.28846826067675624 0.07070932598436669 0.9292906740156334 0.41843059588701104 0.581569404112989 0.6158670044413567 0.3841329955586434 0.4290876343564896 0.5709123656435104 0.623067132864632 0.37693286713536794 0.35058917761825203 0.649410822381748 0.30828352066889336 0.6917164793311066 0.17609288570184406 0.8239071142981559 0.7489514249927808 0.25104857500721917 0.5156559969957422 0.48434400300425795 0.348260290655057 0.6517397093449431 0.35234558552536355 0.6476544144746363 0.7715787725324487 0.22842122746755134 0.551241296591086 0.4487587034089139 0.5255750177335946 0.4744249822664053 0.21237352817785343 0.7876264718221465 0.35471309070674034 0.6452869092932597 0.41397055675315253 0.5860294432468475 0.3892937546338441 0.6107062453661559 0.4565776840461717 0.5434223159538282 0.5621911546828017 0.4378088453171982 0.668683599944573 0.33131640005542695 0.6204304423361666 0.3795695576638333 0.8284413820959959 0.17155861790400406 0.9590310909519087 0.040968909048091286 0.9081771519923796 0.09182284800762042 0.3631599372711186 0.6368400627288814 0.012269852517043423 0.9877301474829566 0.5807514501760588 0.4192485498239412 0.5007278205975237 0.4992721794024763 0.8629426574286592 0.13705734257134092 0.7245727558277614 0.2754272441722387 0.2779767651515994 0.7220232348484006 0.11926237272849989 0.8807376272715001 0.2193827816331786 0.7806172183668214 0.8378149931159357 0.16218500688406437 0.3775537003224583 0.6224462996775417 0.6529637897247459 0.34703621027525416 0.35461383881167136 0.6453861611883286 0.7471711275862344 0.25282887241376567 0.6466538132038855 0.3533461867961145 0.1559823443344191 0.844017655665581 0.09577244251555657 0.9042275574844434 0.5812598606157862 0.41874013938421384 0.5997786729083074 0.40022132709169256 0.6333174018329828 0.36668259816701726 0.007804229447455084 0.9921957705525449 0.9525870494917774 0.04741295050822255 0.06035049087289855 0.9396495091271014 0.4503353305671242 0.5496646694328757 0.5537411512121808 0.4462588487878192 0.003807303254716626 0.9961926967452833 0.5102903779326402 0.4897096220673598 0.3180328876871965 0.6819671123128035 0.7276021368331501 0.27239786316684994 0.46865048266253834 0.5313495173374617 0.11942360638735003 0.8805763936126499 0.3869618997434835 0.6130381002565165 0.5451322598031833 0.45486774019681686 0.0723935946246126 0.9276064053753874 0.4345770776195225 0.5654229223804775 0.2675604198629372 0.7324395801370628 0.8912343783208957 0.10876562167910434 0.9958256772046225 0.0041743227953775 0.29000390929223796 0.709996090707762 0.06237585635142196 0.937624143648578 0.48870355945597527 0.5112964405440248 0.5205936600287306 0.47940633997126936 0.8995604387872058 0.1004395612127942 0.12619420042433352 0.8738057995756664 0.7626554073846421 0.2373445926153579 0.8055162532112838 0.19448374678871616 0.0983957944782302 0.9016042055217698 0.5539135883328196 0.4460864116671803 0.8379405767669486 0.16205942323305142 0.6149393501073634 0.38506064989263666 0.5062537170926797 0.49374628290732014 0.4141431612817779 0.585856838718222 0.881029655528623 0.11897034447137698 0.8965339802207325 0.10346601977926752 0.2171759868594188 0.7828240131405813 0.2577808917789184 0.7422191082210817 0.8547814578483877 0.14521854215161237 0.061481018591723724 0.9385189814082763 0.723288401270831 0.27671159872916895 0.43572640839134497 0.564273591608655 0.8833254282957517 0.11667457170424828 0.39344689185216436 0.6065531081478357 0.20429727162921138 0.7957027283707886 0.9843605376238894 0.015639462376110608 0.26666712096878875 0.7333328790312112 0.26972648001143995 0.73027351998856 0.583499202605928 0.416500797394072 0.36405437132993057 0.6359456286700694 0.10713855150295191 0.8928614484970481 0.6230629751175244 0.3769370248824757 0.46433191479701824 0.5356680852029817 0.6151397371101485 0.38486026288985153 0.0996384794781719 0.900361520521828 0.8794572661546205 0.1205427338453794 0.6532219333469746 0.34677806665302535 0.329932083077466 0.670067916922534 0.42424986903803463 0.5757501309619654 0.924427906386853 0.07557209361314698 0.12607115187430926 0.8739288481256907 0.545670396682031 0.4543296033179689 0.4699090016227873 0.5300909983772126 0.5545504866716486 0.4454495133283514 0.48621979102467155 0.5137802089753284 0.10036400619963062 0.8996359938003695 0.7400425357954239 0.25995746420457616 0.6503971086796543 0.3496028913203458 0.7986072149805478 0.20139278501945224 0.9412336882479817 0.058766311752018324 0.15013521565830343 0.8498647843416965 0.13827597825029486 0.8617240217497051 0.766210378483286 0.233789621516714 0.32775461589979443 0.6722453841002055 0.9280906884195911 0.0719093115804089 0.3523730024784752 0.6476269975215249 0.4114498830369647 0.5885501169630353 0.6211259127375698 0.3788740872624302 0.9286840704954671 0.07131592950453292 0.8387412149815338 0.1612587850184663 0.7848396725228356 0.21516032747716438 0.1993281762260026 0.8006718237739974 0.1423569935790293 0.8576430064209707 0.41077009841715584 0.5892299015828442 0.6912061355268176 0.3087938644731824 0.26715481929385576 0.7328451807061442 0.2893878304258822 0.7106121695741178 0.5769594342962361 0.4230405657037639 0.4968119820072505 0.5031880179927494 0.6131744941053677 0.3868255058946323 0.5492704177400131 0.450729582259987 0.7030874254550479 0.2969125745449521 0.08028473026190538 0.9197152697380946 0.5583594136927521 0.44164058630724795 0.49075089850744025 0.5092491014925598 0.5824365213786361 0.41756347862136384 0.5126914492438895 0.48730855075611046 0.5136443288883492 0.4863556711116508 0.5315293352280321 0.46847066477196797 0.3975563652816361 0.6024436347183638 0.12396618201713737 0.8760338179828626 0.6620297512936659 0.3379702487063342 0.2583271628105975 0.7416728371894025 0.37523531588244596 0.624764684117554 0.9714276920739412 0.028572307926058856 0.36881891136563905 0.6311810886343608 0.4947021925802951 0.5052978074197048 0.1891431630753197 0.8108568369246802 0.5130128603760806 0.48698713962391943 0.26141729759286 0.73858270240714 0.8847014589795114 0.11529854102048868 0.3384720291662806 0.6615279708337194 0.39280687449604 0.60719312550396 0.4360213491235431 0.5639786508764568 0.7643019796303279 0.23569802036967216 0.5189325552035311 0.4810674447964689 0.896552849260728 0.10344715073927199 0.6033706624727663 0.39662933752723367 0.7828364299986028 0.2171635700013972 0.6127999775490098 0.3872000224509902 0.6324530142210862 0.3675469857789137 0.09918965509147398 0.900810344908526 0.1826602752099283 0.8173397247900717 0.5676631500582944 0.4323368499417057 0.2938788114551666 0.7061211885448333 0.6211922571964653 0.37880774280353463 0.43577864558505347 0.5642213544149466 0.7060079567740495 0.29399204322595046 0.378873123074429 0.6211268769255709 0.4178125295254921 0.5821874704745079 0.11021694620412148 0.8897830537958785 0.49184741766320944 0.5081525823367905 0.21907449535669388 0.7809255046433061 0.43001593178243624 0.5699840682175636 0.5423194776951248 0.45768052230487516 0.5466322173960281 0.45336778260397187 0.5255359689515631 0.4744640310484369 0.3000131775979962 0.6999868224020038 0.8478307503170911 0.15216924968290893 0.5752848731919957 0.4247151268080042 0.5437810612579068 0.4562189387420931 0.6810233060848784 0.3189766939151217 0.2633837483561359 0.7366162516438641 0.4961300191977016 0.5038699808022984 0.11816371966866214 0.8818362803313379 0.5400218551258059 0.4599781448741941 0.9202472400050774 0.07975275999492258 0.8358088928082452 0.16419110719175475 0.45708280063200213 0.5429171993679979 0.1788601071956983 0.8211398928043017 0.8551023638325856 0.14489763616741433 0.05125133588975958 0.9487486641102404 0.7311711832844869 0.26882881671551306 0.20157819636957014 0.7984218036304298 0.04492832499199479 0.9550716750080052 0.9518823971955114 0.04811760280448859 0.8556806806420819 0.14431931935791809 0.9191493738479486 0.08085062615205144 0.34366131017754087 0.6563386898224591 0.12535485787285602 0.874645142127144 0.44459987723180516 0.5554001227681948 0.27528750214344333 0.7247124978565567 0.4582940598777247 0.5417059401222754 0.6613721106248464 0.3386278893751536 0.5397478382537657 0.4602521617462342 0.5331227363950477 0.46687726360495224 0.5926949402733065 0.4073050597266935 0.5881676802396533 0.4118323197603467 0.14883508590272881 0.8511649140972712 0.8453632458617943 0.15463675413820566 0.8355653722240117 0.1644346277759883 0.619475058664215 0.3805249413357849 0.01733061106887383 0.9826693889311262 0.24112978764787202 0.758870212352128 0.27340474021590316 0.7265952597840969 0.8728113965450681 0.12718860345493188 0.3832048296705393 0.6167951703294606 0.7471117448253274 0.2528882551746726 0.6461733680923968 0.3538266319076032 0.1490440949577555 0.8509559050422446 0.042943897634645 0.957056102365355 0.17042534446335067 0.8295746555366493 0.39965033574206993 0.60034966425793 0.5104969605670564 0.4895030394329437 0.4917455928729152 0.5082544071270848 0.425278750092946 0.574721249907054 0.8442026797164847 0.1557973202835153 0.3769190840462442 0.6230809159537558 0.0055224685728479115 0.9944775314271521 0.5998114887561482 0.4001885112438519 0.47951396381880895 0.520486036181191 0.007632192412853828 0.9923678075871462 0.33192614380364827 0.6680738561963517 0.266528064870534 0.7334719351294661 0.4692160864324923 0.5307839135675076 0.288532919843929 0.711467080156071 0.6616165494715012 0.3383834505284988 0.42909909869358925 0.5709009013064108 0.6508564976313976 0.3491435023686024 0.8509481378639306 0.14905186213606936 0.7239412426494592 0.2760587573505408 0.5907260187117933 0.4092739812882067 0.6026152714703747 0.3973847285296252 0.6264215966191329 0.37357840338086723 0.84662480734717 0.15337519265282995 0.9035192433127656 0.09648075668723446 0.8212654926106453 0.17873450738935456 0.24631101985539505 0.753688980144605 0.36440971648058107 0.6355902835194189 0.29276122391018145 0.7072387760898186 0.5089661191840283 0.49103388081597155 0.4215919325840373 0.5784080674159626 0.3482720264148284 0.6517279735851716 0.35937638923265836 0.6406236107673416 0.30518438055924657 0.6948156194407534 0.45221975418488647 0.5477802458151135 0.28744103617039024 0.7125589638296098 0.6298500135500944 0.37014998644990554 0.14994485010250586 0.8500551498974941 0.2637583169883579 0.7362416830116423 0.5839435707439787 0.41605642925602127 0.9031738875326165 0.0968261124673835 0.8117860257674008 0.18821397423259928 0.4499160669716412 0.5500839330283588 0.4800487806292512 0.5199512193707487 0.5412217583414378 0.4587782416585621 0.19530925242318742 0.8046907475768126 0.682066323701245 0.317933676298755 0.1453514126649282 0.8546485873350718 0.5899359878500154 0.41006401214998445 0.5849869453641203 0.41501305463587973 0.7630237330780413 0.23697626692195875 0.3275066317272106 0.6724933682727894 0.5656637661943652 0.43433623380563474 0.01058078622431429 0.9894192137756858 0.5546594907612502 0.44534050923874985 0.4939701576896996 0.5060298423103005 0.6073168017145268 0.3926831982854732 0.2425699816844746 0.7574300183155254 0.3495988548426312 0.6504011451573688 0.748019408241173 0.2519805917588271 0.19599794080322888 0.8040020591967711 0.4260501185677819 0.5739498814322181 0.6697598476171686 0.3302401523828315 0.346054429493268 0.6539455705067321 0.7431563549660689 0.2568436450339311 0.4876354277447704 0.5123645722552296 0.4629816109197023 0.5370183890802976 0.466769972285296 0.533230027714704 0.5787208222990811 0.42127917770091894 0.2998598905474911 0.7001401094525088 0.6106061349014603 0.3893938650985396 0.47574167699857245 0.5242583230014275 0.1931191940243891 0.8068808059756108 0.7430167917117185 0.2569832082882815 0.16408905684702202 0.835910943152978 0.8389048976753399 0.16109510232466004 0.5088672309063906 0.49113276909360953 0.30784038682412307 0.6921596131758769 0.7414286581210969 0.25857134187890307 0.3644780056518903 0.6355219943481096 0.4636614794368427 0.5363385205631572 0.4958209292745443 0.5041790707254556 0.507722062321401 0.4922779376785989 0.5389816140731523 0.4610183859268478 0.39591386918019783 0.6040861308198022 0.22963903286653395 0.770360967133466 0.3653875607808525 0.6346124392191476 0.05183900110421825 0.9481609988957818 0.46175479475175996 0.5382452052482399 0.4726537002035782 0.5273462997964218 0.7202560766244764 0.27974392337552356 0.0894965025143558 0.9105034974856442 0.40212419908225566 0.5978758009177443 0.680145416042764 0.3198545839572358 0.29412138726119325 0.7058786127388067 0.5505015806773208 0.44949841932267925 0.4576746898303739 0.5423253101696262 0.21773237712825094 0.782267622871749 0.20387963471919832 0.7961203652808018 0.00019481130272917723 0.9998051886972709 0.09190845431778048 0.9080915456822194 0.6295253294471342 0.37047467055286587 0.6994750912839199 0.30052490871608 0.5688283008140675 0.43117169918593246 0.3641931926045491 0.635806807395451 0.02957089537173968 0.9704291046282603 0.9850382522226904 0.014961747777309612 0.45865807877305237 0.5413419212269476 0.4807896598007774 0.5192103401992225 0.4791700698173667 0.5208299301826332 0.18011705141331283 0.8198829485866873 0.23133633124335823 0.7686636687566418 0.3958482151137693 0.6041517848862308 0.4759332836449049 0.524066716355095 0.5773153167126279 0.4226846832873722 0.14495919281279568 0.8550408071872043 0.691843589225599 0.308156410774401 0.22169384666059883 0.7783061533394011 0.3005253179348421 0.6994746820651578 0.5882393299070152 0.4117606700929848 0.7266673768671605 0.27333262313283946 0.44068506286084397 0.559314937139156 0.21651850984908813 0.7834814901509117 0.45041469301209375 0.5495853069879062 0.3436484282826665 0.6563515717173335 0.09119093505102695 0.9088090649489731 0.27354748214955443 0.7264525178504456 0.5710543505855302 0.4289456494144697 0.46591598497319964 0.5340840150268004 0.33845249365709823 0.6615475063429018 0.5589766071556085 0.44102339284439157 0.26207206756783746 0.7379279324321625 0.3273746262550565 0.6726253737449435 0.6495483658863329 0.35045163411366725 0.8499924747837652 0.15000752521623484 0.9411679120258053 0.05883208797419467 0.1152192170846144 0.8847807829153856 0.5282413568709458 0.4717586431290542 0.638586518076488 0.36141348192351197 0.6446241005807817 0.35537589941921827 0.40170807415623705 0.598291925843763 0.007453166339384771 0.9925468336606152 0.13666790772171694 0.863332092278283 0.9121621286649011 0.0878378713350989 0.7391359330409172 0.26086406695908293 0.6581215632103957 0.34187843678960433 0.2918563941531547 0.7081436058468453 0.6207546442556483 0.37924535574435153 0.4964258062812247 0.5035741937187753 0.5395837711768854 0.46041622882311456 0.9750234354225499 0.024976564577450074 0.9167202342160262 0.0832797657839738 0.3664788252434689 0.633521174756531 0.19408097806617747 0.8059190219338225 0.0398443534573817 0.9601556465426183 0.843413934136926 0.15658606586307405 0.42661561854718993 0.5733843814528101 0.30364514968412276 0.6963548503158772 0.5099573913339495 0.49004260866605054 0.6702855186189821 0.329714481381018 0.43486186969927004 0.56513813030073 0.7543046019676181 0.2456953980323819 0.1025868380284254 0.8974131619715747 0.874766224273835 0.1252337757261649 0.2683652136707865 0.7316347863292134 0.037199655837046874 0.9628003441629531 0.5718620908794704 0.42813790912052957 0.146381473332847 0.853618526667153 0.7077977809489826 0.29220221905101745 0.4538043691460674 0.5461956308539325 0.776237203208867 0.223762796791133 0.06767898248972919 0.9323210175102709 0.7406470824640844 0.25935291753591566 0.5917040983291758 0.40829590167082425 0.5682367022836001 0.43176329771639976 0.6920687077434806 0.30793129225651933 0.38506673588109724 0.6149332641189028 0.3675517201475862 0.6324482798524138 0.5872735534575062 0.41272644654249385 0.6148963004811484 0.38510369951885165 0.16092018924346296 0.839079810756537 0.8510207833699238 0.14897921663007618 0.5518915002661177 0.44810849973388234 0.8087227933307939 0.19127720666920614 0.5085165646916653 0.4914834353083347 0.45940191630706495 0.540598083692935 0.6056554466034034 0.3943445533965965 0.4651903907925575 0.5348096092074426 0.07356956907966027 0.9264304309203397 0.42824974459658277 0.5717502554034173 0.39655607784204705 0.603443922157953 0.8436419029627118 0.1563580970372882 0.44115371176024265 0.5588462882397573 0.6305345711516427 0.3694654288483573 0.1273608129154443 0.8726391870845557 0.6748563425429025 0.3251436574570975 0.07861609543531706 0.9213839045646829 0.4221041565093822 0.5778958434906177 0.663060206484844 0.33693979351515596 0.983619747989926 0.016380252010073985 0.6130686984356243 0.38693130156437566 0.26076815363984407 0.739231846360156 0.5366556284994198 0.46334437150058017 0.37804048209919505 0.621959517900805 0.6463336478038898 0.35366635219611015 0.1961679284775906 0.8038320715224094 0.47804254023760484 0.5219574597623953 0.5200297415740867 0.4799702584259134 0.7783446972694926 0.22165530273050738 0.6703654790477984 0.3296345209522015 0.5988384309862124 0.4011615690137876 0.04325754288905435 0.9567424571109456 0.8477359579913908 0.15226404200860919 0.30775035823393077 0.6922496417660693 0.814907947455908 0.18509205254409197 0.43706712005316894 0.5629328799468309 0.633573255610899 0.36642674438910094 0.8091773399706308 0.19082266002936918 0.7329072048636754 0.26709279513632456 0.6442550424576962 0.35574495754230384 0.47803809836775596 0.5219619016322441 0.8739516958708161 0.12604830412918383 0.041362122541257915 0.9586378774587421 0.4751276507893723 0.5248723492106276 0.7228917063341352 0.2771082936658647 0.9707613935831746 0.029238606416825536 0.02922283397244432 0.9707771660275557 0.3050920960081644 0.6949079039918356 0.941234157525008 0.05876584247499197 0.41585332206986336 0.5841466779301367 0.4820472461749062 0.5179527538250938 0.03690864399331194 0.963091356006688 0.5533222131472512 0.44667778685274884 0.6761001938376263 0.3238998061623737 0.5101243702249354 0.48987562977506466 0.04367944440636489 0.9563205555936352 0.5919787201420268 0.40802127985797326 0.035937699350579964 0.96406230064942 0.14268621734461495 0.857313782655385 0.5996711252567759 0.4003288747432241 0.10415815156913145 0.8958418484308686 0.6402055699692254 0.3597944300307746 0.3791024233707998 0.6208975766292002 0.43867895116146466 0.5613210488385353 0.6171301155498 0.38286988445020004 0.7836852103706372 0.21631478962936282 0.5140113520884495 0.48598864791155044 0.4491215363969686 0.5508784636030313 0.4394199779867836 0.5605800220132164 0.2131088851669004 0.7868911148330996 0.9031336324679956 0.09686636753200444 0.2319378619938872 0.7680621380061128 0.22421983700368592 0.7757801629963141 0.6998394571456045 0.3001605428543956 0.8610655920523681 0.13893440794763195 0.0636827851377683 0.9363172148622317 0.5242361896603385 0.47576381033966153 0.7807420870504749 0.21925791294952504 0.8773972782360396 0.12260272176396042 0.5375986276488891 0.4624013723511109 0.4513073343761906 0.5486926656238094 0.5818549692182299 0.4181450307817702 0.35776315539526543 0.6422368446047345 0.44551440108188417 0.5544855989181158 0.6741026036809259 0.3258973963190741 0.9558715001741968 0.04412849982580325 0.9686583563564575 0.03134164364354257 0.5065669784346464 0.4934330215653535 0.10039744288100648 0.8996025571189935 0.4396809769381582 0.5603190230618418 0.5621676837544386 0.4378323162455613 0.6455041038578051 0.35449589614219496 0.8173201886765177 0.18267981132348238 0.027103172954441278 0.9728968270455587 0.24470868566656373 0.7552913143334362 0.6179187381120879 0.38208126188791214 0.7102600499787621 0.28973995002123787 0.38515529563049083 0.6148447043695092 0.7365300990305899 0.26346990096941025 0.6837016188872604 0.31629838111273967 0.5193671231820591 0.480632876817941 0.6817334510985129 0.31826654890148703 0.41017221387276986 0.5898277861272302 0.537324605166202 0.46267539483379805 0.4925278526991323 0.5074721473008676 0.456251212019389 0.543748787980611 0.8645793323832964 0.13542066761670357 0.39247952619084014 0.6075204738091599 0.9685197540725241 0.0314802459274759 0.6921454530104638 0.30785454698953624 0.5233879884282322 0.4766120115717678 0.5222182582772065 0.47778174172279353 0.38265935684043284 0.6173406431595672 0.8433062355513342 0.15669376444866578 0.3194447588751651 0.680555241124835 0.6827804534702034 0.31721954652979656 0.7781093342251697 0.22189066577483027 0.004569658993612835 0.9954303410063872 0.7492043734384327 0.25079562656156723 0.25325471274162836 0.7467452872583716 0.8510969219913082 0.14890307800869182 0.4897054325270986 0.5102945674729013 0.5555474661006127 0.4444525338993873 0.28485691352728715 0.7151430864727129 0.9791699032274318 0.020830096772568227 0.3810431379951802 0.6189568620048198 0.7274640149397343 0.2725359850602656 0.5843273587366016 0.4156726412633984 0.2907778886919874 0.7092221113080126 0.4912305191752337 0.5087694808247663 0.635927493363425 0.364072506636575 0.8651290380978806 0.13487096190211956 0.541744115694719 0.45825588430528097 0.40566975585551956 0.5943302441444804 0.5542206447690669 0.4457793552309332 0.5353419562546375 0.46465804374536235 0.39452746165946856 0.6054725383405315 0.5952146316911736 0.40478536830882633 0.49116568278032513 0.5088343172196749 0.8607506195296801 0.13924938047031993 0.01704796334376528 0.9829520366562348 0.14965262080301575 0.8503473791969842 0.5402925933718108 0.4597074066281892 0.33904324072899245 0.6609567592710075 0.3044959102329601 0.6955040897670398 0.15589785880785006 0.8441021411921499 0.5166260183781223 0.48337398162187784 0.5195671654143207 0.48043283458567926 0.6978631276832225 0.3021368723167776 0.47557775815293746 0.5244222418470625 0.6429916989828534 0.3570083010171467 0.4683368258038671 0.5316631741961328 0.4853084137232418 0.5146915862767583 0.2836821004743474 0.7163178995256526 0.4194769317532976 0.5805230682467024 0.36671563461448226 0.6332843653855178 0.2571797503071927 0.7428202496928074 0.8894251629715624 0.11057483702843758 0.9162514635361986 0.08374853646380138 0.5696898001234733 0.4303101998765268 0.4662587902972044 0.5337412097027956 0.5073477666549476 0.4926522333450523 0.5468815646536082 0.45311843534639185 0.8220281988894718 0.1779718011105282 0.04628231426670589 0.9537176857332941 0.08345328349796681 0.9165467165020332 0.26188207568434346 0.7381179243156565 0.815040188440915 0.18495981155908509 0.5113903637951585 0.4886096362048415 0.5922308982736235 0.4077691017263764 0.9540413285511334 0.0459586714488666 0.012173114326873997 0.987826885673126 0.9837519968065374 0.0162480031934626 0.20748488121778638 0.7925151187822136 0.5160230728570521 0.4839769271429478 0.3368814145842068 0.6631185854157932 0.2989430881743762 0.7010569118256238 0.6331400839408466 0.3668599160591533 0.21264788677661778 0.7873521132233823 0.7482354072494939 0.2517645927505061 0.5446199602080132 0.4553800397919867 0.41429334835629306 0.5857066516437068 0.3245002622416904 0.6754997377583096 0.2182623959531166 0.7817376040468834 0.3845481123483649 0.615451887651635 0.6401532660493613 0.3598467339506387 0.6058908046885882 0.39410919531141175 0.5891522443383636 0.41084775566163645 0.08622226407299265 0.9137777359270074 0.6713833724563617 0.32861662754363824 0.5380460864172151 0.4619539135827849 0.5037067766035672 0.4962932233964328 0.13269488719094402 0.867305112809056 0.33531119035253076 0.6646888096474692 0.567310276445019 0.43268972355498103 0.3659478721531261 0.634052127846874 0.6993563750752961 0.30064362492470376 0.8344606451553133 0.1655393548446868 0.4409068106586702 0.5590931893413298 0.6859223249576482 0.3140776750423518 0.41766935566626656 0.5823306443337334 0.7536026055346217 0.2463973944653783 0.2486865483161852 0.7513134516838148 0.32648793470617427 0.6735120652938258 0.5523755292587053 0.4476244707412948 0.41619013064811405 0.583809869351886 0.4978652307032624 0.5021347692967376 0.2913824716778022 0.7086175283221978 0.7632803675027562 0.2367196324972438 0.8809679044735302 0.11903209552646977 0.5373898385098466 0.4626101614901535 0.539875694638656 0.46012430536134385 0.9796197463256151 0.020380253674384875 0.05031808344386104 0.949681916556139 0.3023613388143903 0.6976386611856097 0.8765382273657623 0.12346177263423778 0.851616346158777 0.14838365384122304 0.3838921994236805 0.6161078005763194 0.4258423091334146 0.5741576908665854 0.5830426952912715 0.41695730470872855 0.1789963941774925 0.8210036058225075 0.6199038546066783 0.38009614539332165 0.23540715373814394 0.7645928462618562 0.8377782790372231 0.16222172096277693 0.49650820147468877 0.5034917985253111 0.14132936229097212 0.8586706377090279 0.46695797374095876 0.5330420262590412 0.6106975813987443 0.38930241860125564 0.6720392824905392 0.32796071750946076 0.6601708489912386 0.33982915100876143 0.5235848441852713 0.4764151558147287 0.7431374327568473 0.2568625672431527 0.6089760789956511 0.39102392100434896 0.8819117415400448 0.11808825845995524 0.21212498633208232 0.7878750136679177 0.39639077835709857 0.6036092216429014 0.13853339102847312 0.8614666089715268 0.9184657773001712 0.08153422269982884 0.44115868407690817 0.5588413159230918 0.15828520896878664 0.8417147910312134 0.08298872553558193 0.9170112744644181 0.41147930220973944 0.5885206977902606 0.295680262974417 0.7043197370255829 0.5617851274243627 0.4382148725756373 0.6657807510324345 0.33421924896756555 0.3293197477077198 0.6706802522922801 0.41235231775751896 0.587647682242481 0.6577979419992979 0.34220205800070214 0.6899270312732182 0.3100729687267818 0.7363363966564562 0.2636636033435437 0.34416535310942176 0.6558346468905782 0.16772431270923835 0.8322756872907616 0.3868569011011856 0.6131430988988144 0.5813431591459671 0.418656840854033 0.21627986852632675 0.7837201314736733 0.03537182638221378 0.9646281736177862 0.7075236542792847 0.29247634572071535 0.41991626947234795 0.580083730527652 0.7560354958532789 0.24396450414672105 0.39896023751684495 0.601039762483155 0.5157881680526587 0.48421183194734124 0.3063474065497181 0.693652593450282 0.3573607503707134 0.6426392496292866 0.4601605123894888 0.5398394876105111 0.7643878514140707 0.23561214858592933 0.08097166775228222 0.9190283322477177 0.4948118253574064 0.5051881746425936 0.7324222553891415 0.26757774461085854 0.48390206330379604 0.516097936696204 0.1900053503718585 0.8099946496281416 0.6881089879884331 0.3118910120115668 0.4459815250192456 0.5540184749807544 0.6963922120574392 0.3036077879425608 0.26339830325946184 0.7366016967405381 0.11008599132272207 0.889914008677278 0.6360857995755593 0.36391420042444067 0.23601527312621418 0.7639847268737857 0.8156750062655537 0.18432499373444639 0.06426030578382258 0.9357396942161774 0.12453984569340781 0.8754601543065922 0.9434933981960258 0.05650660180397415 0.6122214558701868 0.3877785441298132 0.3553205883032485 0.6446794116967515 0.8226963628282229 0.17730363717177697 0.05639912259141208 0.9436008774085879 0.6299867973721762 0.3700132026278238 0.5480605326735357 0.45193946732646434 0.09103593091618102 0.9089640690838191 0.7808739886817788 0.21912601131822118 0.572846293177357 0.427153706822643 0.4814208307932917 0.5185791692067083 0.4880761071151422 0.5119238928848577 0.15001402683170403 0.8499859731682959 0.28156679009173863 0.7184332099082613 0.8907612374655529 0.10923876253444721 0.4918744572012352 0.5081255427987648 0.8902152580423797 0.10978474195762038 0.5947049938311104 0.40529500616888964 0.2084259319059595 0.7915740680940406 0.48063340575292335 0.5193665942470765 0.720506918223207 0.27949308177679305 0.31595670337286164 0.6840432966271384 0.33098059731528684 0.669019402684713 0.19963219201491375 0.8003678079850862 0.47972056677202424 0.5202794332279758 0.1691023385180943 0.8308976614819057 0.7804768652324432 0.21952313476755686 0.45954425122484677 0.5404557487751532 0.44889626330409177 0.5511037366959083 0.48699696040836177 0.5130030395916383 0.724849117786092 0.275150882213908 0.27741678949995 0.72258321050005 0.512436952694837 0.48756304730516303 0.3538946810878593 0.6461053189121407 0.7064349723148117 0.2935650276851884 0.48350543536910046 0.5164945646308996 0.9556830088620435 0.04431699113795649 0.08680925855155702 0.9131907414484429 0.7332756507915102 0.26672434920848975 0.5650454453953018 0.43495455460469823 0.744510655278775 0.2554893447212249 0.44625335210529704 0.553746647894703 0.40420885876029894 0.5957911412397011 0.4364055044806318 0.5635944955193681 0.49465300030296044 0.5053469996970396 0.5497499214209569 0.45025007857904314 0.4058639480862393 0.5941360519137606 0.5343614714372985 0.4656385285627014 0.9467054372495001 0.05329456275049992 0.3680581788742651 0.6319418211257348 0.5532904168749185 0.4467095831250814 0.6483986880290615 0.3516013119709384 0.49305927063000604 0.5069407293699939 0.26607935728135607 0.7339206427186439 0.3233529504465505 0.6766470495534495 </TABLE>
    </DEFINITION>
    <DEFINITION>
      <FOR>16</FOR>
      <GIVEN>2</GIVEN>
      <GIVEN>11</GIVEN>
      <GIVEN>13</GIVEN>
      <GIVEN>15</GIVEN>
      <GIVEN>3</GIVEN>
      <GIVEN>4</GIVEN>
      <GIVEN>5</GIVEN>
      <GIVEN>14</GIVEN>
      <GIVEN>1</GIVEN>
      <GIVEN>7</GIVEN>
      <TABLE>0.20059955383775435 0.7994004461622457 0.8254077801399308 0.17459221986006923 0.5479987029848469 0.45200129701515307 0.5042332014555969 0.4957667985444031 0.5837231620473725 0.41627683795262765 0.20353272643387565 0.7964672735661243 0.4959053238196327 0.5040946761803673 0.9979689942559723 0.0020310057440277363 0.3808650479358657 0.6191349520641344 0.544116258326949 0.455883741673051 0.5498006848392855 0.4501993151607145 0.5948676221282012 0.40513237787179884 0.3796957932239699 0.6203042067760302 0.40516321494754926 0.5948367850524507 0.3198517203048789 0.6801482796951211 0.8576280830704235 0.14237191692957651 0.49595714745212754 0.5040428525478725 0.4703856920785363 0.5296143079214637 0.8836731169129277 0.11632688308707234 0.39959245924881825 0.6004075407511819 0.7139079137463561 0.28609208625364396 0.6531777070950779 0.346822292904922 0.2528040169986074 0.7471959830013926 0.9351237684057527 0.06487623159424726 0.35383279013852287 0.6461672098614771 0.6987719474209843 0.30122805257901575 0.56286890109823 0.4371310989017701 0.8602067494525037 0.13979325054749622 0.5788423584207493 0.42115764157925073 0.6876777955979886 0.3123222044020115 0.9133170013176655 0.08668299868233457 0.525242511082234 0.474757488917766 0.5592773986186363 0.4407226013813636 0.23252558321669345 0.7674744167833065 0.7330362261498029 0.2669637738501971 0.4028628023868448 0.5971371976131552 0.6079961939178794 0.39200380608212054 0.3139078135093591 0.6860921864906409 0.6731295994579313 0.32687040054206873 0.6752301769562744 0.3247698230437256 0.575614412658526 0.4243855873414739 0.29855164744233664 0.7014483525576634 0.7522461020194787 0.24775389798052128 0.24280976058808607 0.757190239411914 0.4565758619557589 0.543424138044241 0.384314558757471 0.615685441242529 0.5969377913466546 0.4030622086533454 0.7938175014487566 0.2061824985512434 0.5487129288048229 0.451287071195177 0.8021376793344227 0.19786232066557732 0.5641621476636108 0.43583785233638905 0.5629306884283917 0.43706931157160833 0.9468167542737908 0.0531832457262092 0.4065749416679799 0.5934250583320201 0.3762513622464358 0.6237486377535643 0.651061508801015 0.34893849119898496 0.9982339795193634 0.001766020480636608 0.80911341009793 0.19088658990206983 0.011087772753530675 0.9889122272464693 0.6069949719808404 0.3930050280191596 0.9612339548912079 0.038766045108792106 0.19770593647129708 0.8022940635287029 0.792652118880494 0.207347881119506 0.10933681404366419 0.8906631859563358 0.7195380035703176 0.2804619964296824 0.879081730656083 0.12091826934391707 0.9776665522055841 0.022333447794415925 0.46972687006658287 0.5302731299334172 0.5150099506881375 0.4849900493118624 0.6844241016496124 0.3155758983503875 0.46016153726986053 0.5398384627301394 0.46132433375523574 0.5386756662447643 0.3347555034760356 0.6652444965239643 0.18813542966900285 0.8118645703309971 0.25764527096826734 0.7423547290317326 0.6697370107657663 0.33026298923423364 0.4302252098003145 0.5697747901996855 0.5410857860288283 0.4589142139711717 0.5910991951000755 0.40890080489992453 0.11458422750510744 0.8854157724948925 0.12712266226916008 0.87287733773084 0.4976362044446632 0.5023637955553367 0.6908393323310376 0.30916066766896255 0.5089706681073658 0.4910293318926342 0.9323819146075848 0.06761808539241519 0.49527746056255517 0.5047225394374448 0.054995374490077846 0.9450046255099221 0.8334794332270817 0.1665205667729183 0.9216674235739537 0.07833257642604632 0.8202636757492651 0.1797363242507349 0.38389713513134244 0.6161028648686576 0.2633490674488044 0.7366509325511955 0.14051960983377948 0.8594803901662206 0.013881950613983387 0.9861180493860167 0.3250153213501095 0.6749846786498904 0.5911717481285838 0.4088282518714162 0.5534511181719999 0.4465488818280002 0.5133053477659943 0.48669465223400565 0.41306654803465226 0.5869334519653479 0.6545501467760436 0.3454498532239563 0.30676050452213105 0.693239495477869 0.4112893751015167 0.5887106248984834 0.7556004193810145 0.2443995806189855 0.4881674264140415 0.5118325735859585 0.6202900914316509 0.37970990856834913 0.4419297011850222 0.5580702988149778 0.9116632118419563 0.08833678815804372 0.6062378907478191 0.39376210925218097 0.006756876835489421 0.9932431231645106 0.552575458856462 0.4474245411435381 0.7769870026998008 0.2230129973001992 0.499971307779184 0.500028692220816 0.03400332359522703 0.9659966764047729 0.9893525687086747 0.010647431291325294 0.11329287800848807 0.8867071219915119 0.631177176384576 0.3688228236154239 0.9801059284523669 0.01989407154763317 0.24519169640191305 0.7548083035980869 0.6511523544846298 0.3488476455153702 0.7508422356209725 0.24915776437902748 0.813970310047943 0.186029689952057 0.46610117707841897 0.533898822921581 0.10172392971470468 0.8982760702852953 0.08758340092427987 0.9124165990757201 0.6741461265203978 0.3258538734796022 0.48289868383172413 0.5171013161682759 0.18260093183265177 0.8173990681673482 0.4487875708897435 0.5512124291102565 0.5115479314827853 0.4884520685172146 0.6135966292331206 0.38640337076687936 0.5866148418521666 0.4133851581478334 0.967970331753171 0.03202966824682893 0.3981932357668858 0.6018067642331141 0.13900464861962003 0.86099535138038 0.5030632587895634 0.4969367412104367 0.9598520007544149 0.04014799924558508 0.490995084914985 0.509004915085015 0.6135450167946335 0.3864549832053665 0.4303272696439727 0.5696727303560273 0.3424180387481677 0.6575819612518323 0.7150893902426715 0.28491060975732857 0.350766573363105 0.649233426636895 0.006620315022064609 0.9933796849779354 0.7262489809595172 0.2737510190404828 0.5810472195724911 0.418952780427509 0.5937309033665265 0.40626909663347366 0.5034448611631926 0.4965551388368074 0.8659726791422672 0.13402732085773278 0.317228092103888 0.682771907896112 0.9222886698435967 0.07771133015640332 0.655661070744147 0.34433892925585297 0.5166203400885006 0.4833796599114994 0.14984215239119364 0.8501578476088064 0.884470493415807 0.115529506584193 0.49099982629188366 0.5090001737081163 0.5292403506082664 0.4707596493917337 0.039055348889930425 0.9609446511100695 0.40033329761986663 0.5996667023801333 0.04399278529003762 0.9560072147099624 0.39106335948272014 0.6089366405172799 0.5286184707712805 0.4713815292287194 0.2579386587791805 0.7420613412208196 0.5235870688186026 0.4764129311813974 0.23562167878964266 0.7643783212103573 0.6342841981937691 0.365715801806231 0.2989218049366492 0.7010781950633508 0.4002397503195511 0.5997602496804489 0.8442725560977055 0.15572744390229454 0.47577404863919165 0.5242259513608083 0.9290236289721245 0.0709763710278755 0.580818600951211 0.4191813990487891 0.776412003723164 0.22358799627683604 0.39611262148102216 0.6038873785189778 0.451231730049232 0.548768269950768 0.5347898081926681 0.46521019180733186 0.9630718877669484 0.03692811223305164 0.44809392701651873 0.5519060729834813 0.23362574331313196 0.7663742566868681 0.21939623864277327 0.7806037613572266 0.08358391108439739 0.9164160889156026 0.6433252581808455 0.35667474181915454 0.3980326633939567 0.6019673366060433 0.564465725614469 0.43553427438553105 0.6009099241593238 0.39909007584067624 0.2685044799871169 0.7314955200128831 0.2258262521861313 0.7741737478138687 0.705396945798018 0.29460305420198196 0.7578254234986648 0.24217457650133528 0.6547031758469095 0.34529682415309065 0.4578045677507027 0.5421954322492973 0.6860079814421898 0.3139920185578102 0.7580260499509098 0.24197395004909 0.4602683481805992 0.5397316518194009 0.4821323516425533 0.5178676483574467 0.5761119201808721 0.42388807981912785 0.0864021888014625 0.9135978111985376 0.5019914913430005 0.4980085086569996 0.28646259443444305 0.713537405565557 0.9013485676329492 0.09865143236705078 0.5107724897023481 0.4892275102976518 0.26646870524856553 0.7335312947514343 0.7992896601988533 0.20071033980114672 0.9644022513958287 0.03559774860417136 0.5977285858230164 0.40227141417698364 0.5250108748995944 0.4749891251004055 0.7973235890339944 0.2026764109660056 0.40608294287663027 0.5939170571233697 0.47123834833802514 0.5287616516619749 0.5182741352534491 0.48172586474655094 0.3003581456689212 0.6996418543310788 0.40084372840832283 0.5991562715916772 0.3957846980766542 0.6042153019233458 0.9214209263461123 0.07857907365388775 0.3390515759844348 0.6609484240155653 0.5357641615840122 0.46423583841598776 0.19951605113773543 0.8004839488622646 0.6083978530676254 0.3916021469323745 0.7624133593280956 0.23758664067190438 0.38746221958080734 0.6125377804191926 0.41024226975166705 0.5897577302483329 0.4402859480553694 0.5597140519446305 0.30189727186509013 0.6981027281349098 0.4404330427729306 0.5595669572270694 0.4785218393140249 0.5214781606859751 0.48330910623088047 0.5166908937691196 0.48460965122743216 0.5153903487725678 0.36424042124826433 0.6357595787517357 0.6795901634118707 0.3204098365881294 0.4924725822230322 0.5075274177769677 0.3111440138614938 0.6888559861385062 0.509926189134536 0.49007381086546387 0.6761818384015561 0.32381816159844395 0.270217632946458 0.729782367053542 0.518734463215589 0.481265536784411 0.1949003138148612 0.8050996861851388 0.30413679084096146 0.6958632091590385 0.4720235112469727 0.5279764887530273 0.4771035307584633 0.5228964692415367 0.7983754879363106 0.2016245120636893 0.09547049450277796 0.904529505497222 0.39693973377161473 0.6030602662283854 0.9610796345231332 0.0389203654768668 0.7585129650531732 0.24148703494682677 0.5422592962519841 0.4577407037480158 0.5352911057502531 0.4647088942497469 0.23536311991122683 0.7646368800887732 0.7554707791834041 0.24452922081659587 0.5869899638080919 0.4130100361919081 0.9499396736917751 0.05006032630822492 0.23181538127816226 0.7681846187218377 0.47108460876746794 0.5289153912325321 0.5595368924083214 0.4404631075916786 0.40711346399387244 0.5928865360061275 0.027483528183811418 0.9725164718161886 0.5511297263573192 0.4488702736426808 0.8074380251668991 0.19256197483310092 0.10482001687046764 0.8951799831295324 0.6408444528661358 0.35915554713386416 0.9303500235237079 0.06964997647629212 0.3776133588968741 0.622386641103126 0.2879363244070806 0.7120636755929194 0.36014272395945585 0.6398572760405441 0.7949690708584721 0.20503092914152785 0.4254037910905926 0.5745962089094074 0.9356537436856842 0.06434625631431574 0.41348650151951877 0.5865134984804812 0.14261065389379238 0.8573893461062077 0.6416402254314394 0.35835977456856055 0.11685759628787777 0.8831424037121223 0.5094799904623245 0.4905200095376756 0.49873433388310545 0.5012656661168945 0.5452362583436302 0.4547637416563698 0.17768308987171955 0.8223169101282805 0.8361407260171452 0.16385927398285483 0.373345321042582 0.6266546789574179 0.4474491792128623 0.5525508207871377 0.43079994519481085 0.5692000548051892 0.4725211436966748 0.5274788563033252 0.3208802140079936 0.6791197859920065 0.23062871919771655 0.7693712808022836 0.6061654101036196 0.39383458989638037 0.0763372603908627 0.9236627396091374 0.6604005663009168 0.33959943369908324 0.5848246250484421 0.41517537495155776 0.2507266403175745 0.7492733596824255 0.7094842193751454 0.29051578062485467 0.4991592628158399 0.50084073718416 0.5024428048130383 0.4975571951869618 0.24918433324209557 0.7508156667579043 0.5851112772108085 0.41488872278919153 0.6580108568334923 0.3419891431665077 0.45759429673297725 0.5424057032670226 0.5521044445681494 0.44789555543185045 0.5895502119405405 0.4104497880594596 0.6603160734766838 0.3396839265233164 0.24553475768476973 0.7544652423152302 0.7558426793036869 0.24415732069631316 0.80945361763113 0.19054638236887003 0.06952814674080837 0.9304718532591916 0.14923577800971308 0.8507642219902869 0.6009529717096789 0.3990470282903212 0.33329647083770725 0.6667035291622928 0.8418724148904203 0.15812758510957972 0.5914204037746491 0.40857959622535084 0.7449558737224339 0.25504412627756623 0.5044380149529988 0.49556198504700116 0.3856968774563532 0.6143031225436467 0.34105406882947903 0.658945931170521 0.8940586960178889 0.10594130398211121 0.2844179561570505 0.7155820438429494 0.3181646614546241 0.6818353385453759 0.05014256958271117 0.9498574304172889 0.8644125493160603 0.13558745068393963 0.26025244494899724 0.7397475550510028 0.47834809424956354 0.5216519057504365 0.5244796003030914 0.47552039969690857 0.5820315304777752 0.4179684695222247 0.5036479597678538 0.4963520402321463 0.37460837527497537 0.6253916247250246 0.49083328149181377 0.5091667185081863 0.34337253987503286 0.6566274601249672 0.6323003205433768 0.3676996794566232 0.8163431420015266 0.18365685799847342 0.6234883272810403 0.3765116727189596 0.5549763800599098 0.4450236199400903 0.22152861501878293 0.7784713849812172 0.6843922944258292 0.3156077055741709 0.18014904069586382 0.8198509593041362 0.2738407888474556 0.7261592111525443 0.2689416973982883 0.7310583026017116 0.7482574113495732 0.25174258865042687 0.4092129224825031 0.5907870775174969 0.7073497801390949 0.2926502198609051 0.387633559462055 0.612366440537945 0.544008022826685 0.45599197717331497 0.6278043018836941 0.372195698116306 0.5804104425113623 0.41958955748863774 0.5193688243940661 0.480631175605934 0.5832510103351742 0.41674898966482576 0.4386375361128564 0.5613624638871436 0.34529620205892014 0.6547037979410798 0.01568471110539613 0.9843152888946038 0.6000812342077885 0.3999187657922114 0.65784754797085 0.34215245202915 0.42941675256153167 0.5705832474384683 0.48669775167943274 0.5133022483205673 0.7992909625407718 0.2007090374592282 0.9746081308634726 0.0253918691365274 0.7824640014118219 0.21753599858817804 0.050382521727958623 0.9496174782720413 0.16224394858025512 0.8377560514197449 0.5695952460118575 0.43040475398814243 0.6671114790863971 0.3328885209136028 0.5972885621319592 0.40271143786804087 0.5911645957293704 0.4088354042706296 0.42161990628688756 0.5783800937131124 0.33681252623304403 0.6631874737669561 0.9983031947382005 0.0016968052617994393 0.00036530997762664784 0.9996346900223734 0.39780201600878956 0.6021979839912104 0.39363069280293767 0.6063693071970623 0.48152867837765895 0.5184713216223411 0.8832267877127351 0.11677321228726487 0.4264122585596106 0.5735877414403894 0.046106100603096105 0.9538938993969039 0.08293094188910549 0.9170690581108946 0.8242053520022364 0.1757946479977635 0.7720071765589511 0.22799282344104888 0.30092626453483823 0.6990737354651618 0.8983983488693874 0.10160165113061259 0.42908623630913195 0.570913763690868 0.4713153719827603 0.5286846280172397 0.3074160461479806 0.6925839538520194 0.040824239419583894 0.9591757605804161 0.9522962833767721 0.047703716623227976 0.5589379870526054 0.4410620129473946 0.4486684911632049 0.5513315088367952 0.33004396496461647 0.6699560350353835 0.2596198811852262 0.7403801188147738 0.5156020980470661 0.48439790195293386 0.7856494187790025 0.21435058122099745 0.6967166514579054 0.30328334854209454 0.9578465422266857 0.0421534577733142 0.9307455979863988 0.06925440201360128 0.5248522012135952 0.47514779878640484 0.5318310991561839 0.4681689008438161 0.39840105338007165 0.6015989466199283 0.7472101152183461 0.25278988478165393 0.13372999222659038 0.8662700077734096 0.347120431081863 0.6528795689181369 0.5544623030648757 0.4455376969351243 0.24643426803212873 0.7535657319678712 0.00629526720783035 0.9937047327921696 0.0010293919249749184 0.9989706080750251 0.25057720012426 0.74942279987574 0.8743458584388565 0.12565414156114352 0.49853285718214924 0.5014671428178508 0.5628044193255725 0.43719558067442754 0.8514907470879005 0.14850925291209952 0.1101224407157596 0.8898775592842403 0.14105724468414196 0.8589427553158581 0.7060962233409261 0.29390377665907386 0.12921293018732977 0.8707870698126702 0.6265376097760725 0.3734623902239275 0.9986246184942588 0.0013753815057412498 0.5286748627724795 0.4713251372275205 0.5391697087293714 0.4608302912706286 0.47062981461168163 0.5293701853883183 0.09503424327483267 0.9049657567251673 0.5890094540537314 0.41099054594626866 0.8739181591086878 0.1260818408913122 0.9511381015100112 0.04886189848998877 0.5217932879658961 0.4782067120341039 0.10109564892413185 0.8989043510758682 0.8340639483928475 0.16593605160715258 0.30957180308518834 0.6904281969148117 0.5405523442534145 0.4594476557465856 0.9715124747209939 0.028487525279006137 0.6037354802253065 0.39626451977469346 0.9369288279147672 0.06307117208523279 0.5915667337659274 0.4084332662340726 0.3054389964509782 0.6945610035490218 0.5449459727617495 0.4550540272382505 0.9396452594684359 0.060354740531564054 0.3903885268866479 0.6096114731133521 0.9122904180533864 0.08770958194661359 0.3473550821800244 0.6526449178199755 0.32849254510984444 0.6715074548901554 0.15460425758404922 0.8453957424159507 0.00852153981399538 0.9914784601860046 0.7009936314714494 0.29900636852855067 0.80697837075071 0.19302162924928998 0.49484160564782365 0.5051583943521764 0.9155568314775371 0.08444316852246289 0.6007074690057775 0.3992925309942225 0.1302793679203623 0.8697206320796377 0.44656483342500725 0.5534351665749927 0.09521862570102863 0.9047813742989714 0.49642181690165005 0.5035781830983499 0.5166824794335316 0.48331752056646854 0.8885558673238494 0.11144413267615057 0.8737945291306929 0.12620547086930717 0.7131295955619664 0.2868704044380337 0.6511962645214034 0.34880373547859655 0.15203377260755185 0.8479662273924481 0.5046937508166992 0.49530624918330063 0.11567901656182057 0.8843209834381794 0.12526796983179286 0.8747320301682071 0.2560460665360559 0.743953933463944 0.3283554403535068 0.6716445596464933 0.3235512860323091 0.6764487139676909 0.6638342344441845 0.3361657655558154 0.7156945695632283 0.28430543043677164 0.08020316842303904 0.9197968315769609 0.3696518862196659 0.6303481137803342 0.14186018900627906 0.8581398109937209 0.8861224337462054 0.11387756625379467 0.5155271526361718 0.4844728473638283 0.19225504294166307 0.8077449570583369 0.6062035792775684 0.39379642072243165 0.6373993982402045 0.3626006017597956 0.3661329850030654 0.6338670149969347 0.020247990134652637 0.9797520098653474 0.6351647642817684 0.3648352357182316 0.8539770617534453 0.1460229382465546 0.39046012571742233 0.6095398742825776 0.9622490138804355 0.037750986119564546 0.5210712522433995 0.4789287477566006 0.429879155595556 0.570120844404444 0.5227614817544177 0.47723851824558233 0.45801090198103583 0.5419890980189641 0.5002934065078062 0.49970659349219376 0.29820172425651303 0.701798275743487 0.33585609725895266 0.6641439027410473 0.5596304633643624 0.44036953663563766 0.6307453344980558 0.3692546655019443 0.25280805654943506 0.7471919434505649 0.9659923751805161 0.034007624819483974 0.20387393502531764 0.7961260649746824 0.31567086581530673 0.6843291341846934 0.567392683880687 0.4326073161193131 0.8403585452528176 0.1596414547471824 0.8772042725509707 0.12279572744902931 0.6327820531048253 0.3672179468951747 0.030945934218339185 0.9690540657816609 0.9580763333413294 0.04192366665867069 0.9893453688611135 0.010654631138886548 0.4314825250620879 0.5685174749379122 0.2823997268304907 0.7176002731695093 0.6732411588191815 0.32675884118081855 0.04077806432622678 0.9592219356737732 0.654250746236844 0.345749253763156 0.5934321833304106 0.4065678166695893 0.11889941922226001 0.88110058077774 0.48379069897581173 0.5162093010241883 0.532767683556973 0.46723231644302693 0.8462893355117164 0.15371066448828363 0.37520905975277363 0.6247909402472264 0.6809485994778678 0.31905140052213216 0.8995764332283785 0.10042356677162141 0.4370444849702856 0.5629555150297144 0.6246350162942111 0.37536498370578886 0.09585025180271697 0.904149748197283 0.6224147154544978 0.3775852845455021 0.7967030986154494 0.2032969013845506 0.49537109834389637 0.5046289016561036 0.6583958063624404 0.34160419363755945 0.07872238493947535 0.9212776150605246 0.4405649530342481 0.559435046965752 0.5668509408450272 0.43314905915497287 0.561363510728235 0.438636489271765 0.5054452897539378 0.4945547102460623 0.6075326877491465 0.3924673122508536 0.48881591199237845 0.5111840880076216 0.9411817944888393 0.05881820551116073 0.4423927093214869 0.5576072906785131 0.466212436919312 0.533787563080688 0.3412691865557096 0.6587308134442903 0.27606457934932077 0.7239354206506793 0.7350846432707998 0.26491535672920014 0.8440324181688794 0.15596758183112044 0.42969097909093773 0.5703090209090622 0.09437168447176066 0.9056283155282393 0.5286527062328089 0.47134729376719103 0.42205016428654696 0.577949835713453 0.632220210691865 0.36777978930813504 0.41722629936822286 0.5827737006317771 0.9297582329658561 0.07024176703414389 0.16207428903415058 0.8379257109658494 0.15141231532895333 0.8485876846710466 0.8045971494927275 0.19540285050727246 0.722183974044459 0.27781602595554095 0.41260347415439147 0.5873965258456085 0.1388289744421762 0.8611710255578238 0.7615138423637272 0.23848615763627273 0.9033407974457511 0.09665920255424876 0.4466509786282334 0.5533490213717667 0.9731050177095079 0.026894982290492156 0.25989510570653834 0.7401048942934617 0.5108604653993115 0.48913953460068854 0.5703434840241138 0.42965651597588617 0.5805613435939381 0.419438656406062 0.10953190623025191 0.8904680937697481 0.21889830691473308 0.7811016930852669 0.5528944445040068 0.44710555549599323 0.4244682655170214 0.5755317344829787 0.6428196644430539 0.3571803355569461 0.5718701983946516 0.4281298016053485 0.6242602147927631 0.37573978520723694 0.899426898775288 0.10057310122471197 0.4566258765233689 0.5433741234766312 0.4671985641654274 0.5328014358345725 0.8211780304502494 0.17882196954975055 0.816492505759194 0.18350749424080595 0.5109186012962385 0.4890813987037615 0.38360907473339423 0.6163909252666058 0.44871486089444707 0.551285139105553 0.9349163721991275 0.06508362780087251 0.9993401434252436 0.0006598565747564597 0.4698662030678792 0.5301337969321208 0.3775022770607038 0.6224977229392962 0.9419091535418916 0.05809084645810835 0.9429900225634137 0.05700997743658627 0.5348131696280098 0.46518683037199016 0.42516822193214576 0.5748317780678542 0.34692562889678813 0.6530743711032119 0.42448956569076884 0.5755104343092311 0.25900104057424855 0.7409989594257514 0.33578166555193806 0.664218334448062 0.8220471165741496 0.1779528834258504 0.4031904125829694 0.5968095874170306 0.4641110188540863 0.5358889811459138 0.2848428182215187 0.7151571817784814 0.3189496720386823 0.6810503279613177 0.5479475884235574 0.45205241157644266 0.36658767619112564 0.6334123238088744 0.7980842875794592 0.2019157124205408 0.3354408420662637 0.6645591579337363 0.451057037127098 0.5489429628729021 0.740658997479637 0.25934100252036296 0.050144808388913546 0.9498551916110864 0.5449739504188664 0.45502604958113363 0.09082391647317431 0.9091760835268257 0.6707443066598926 0.32925569334010746 0.4995981552719332 0.5004018447280668 0.2530840408554861 0.7469159591445139 0.710738577421495 0.28926142257850496 0.41750772881484965 0.5824922711851503 0.5186655340115481 0.4813344659884519 0.1632293116014834 0.8367706883985166 0.8384366052734777 0.16156339472652229 0.6344864824239742 0.36551351757602574 0.6962652383837439 0.3037347616162562 0.4911115369563191 0.5088884630436808 0.9506129928416907 0.04938700715830935 0.4790005608754647 0.5209994391245353 0.2639734275339039 0.736026572466096 0.7806316397183177 0.2193683602816823 0.646839618051017 0.35316038194898286 0.553907402425887 0.446092597574113 0.6295059996192207 0.37049400038077934 0.21465194044116287 0.785348059558837 0.5982456208224496 0.40175437917755036 0.013389047325720937 0.9866109526742791 0.8207709176448809 0.17922908235511917 0.4096664868321429 0.590333513167857 0.9775635801718726 0.022436419828127406 0.29387527794357743 0.7061247220564226 0.20114373242281222 0.7988562675771878 0.7749252632620157 0.2250747367379843 0.6152984666369915 0.3847015333630085 0.5720696625355903 0.4279303374644097 0.5770868399999686 0.4229131600000315 0.385969826104571 0.614030173895429 0.9970472420837364 0.0029527579162635614 0.48441782423550084 0.515582175764499 0.7637068777710262 0.23629312222897383 0.7357389118917612 0.26426108810823873 0.1024630394106273 0.8975369605893727 0.3586516669254803 0.6413483330745198 0.36863093326478075 0.6313690667352192 0.6995317275715348 0.30046827242846513 0.616197659355875 0.383802340644125 0.26798621671679457 0.7320137832832054 0.3789785876386306 0.6210214123613694 0.05260829931344588 0.9473917006865541 0.5661955025023212 0.4338044974976789 0.4451634616442341 0.5548365383557659 0.6015235653343964 0.3984764346656035 0.9644048597517497 0.03559514024825022 0.7363049471765202 0.26369505282347994 0.8729923231245792 0.1270076768754208 0.12746159430114845 0.8725384056988515 0.4165267086833219 0.5834732913166781 0.023975862240162866 0.9760241377598371 0.504196169487951 0.49580383051204896 0.2735107326847216 0.7264892673152784 0.23868452565155288 0.7613154743484472 0.6628900539469444 0.33710994605305555 0.5314643154995404 0.46853568450045957 0.4054231304825068 0.5945768695174932 0.042551429673315794 0.9574485703266842 0.10000184117258112 0.8999981588274188 0.807164225633292 0.19283577436670798 0.5347178774601904 0.4652821225398096 0.02974618909014587 0.9702538109098541 0.2926893808649513 0.7073106191350488 0.6294496253090227 0.3705503746909773 0.4139784859161857 0.5860215140838143 0.5801216303737015 0.4198783696262985 0.6066096525744904 0.3933903474255095 0.5541186904485269 0.4458813095514731 0.06795907614242057 0.9320409238575794 0.44120276406162034 0.5587972359383797 0.6604952272655603 0.33950477273443963 0.7083635370454557 0.2916364629545442 0.469167919908756 0.530832080091244 0.6878828529598826 0.3121171470401174 0.9225171347329674 0.07748286526703266 0.4847264887796067 0.5152735112203933 0.4058217026264518 0.5941782973735482 0.7327700144395145 0.2672299855604855 0.511166957035928 0.48883304296407204 0.8865814460458267 0.11341855395417336 0.641029020420545 0.35897097957945506 0.9395060010109847 0.060493998989015293 0.3837017238835284 0.6162982761164716 0.4948140039842312 0.5051859960157689 0.9116307372188251 0.08836926278117481 0.6712605367691792 0.32873946323082076 0.7317162896146927 0.26828371038530724 0.49994243362861046 0.5000575663713895 0.9285912811492935 0.07140871885070654 0.2534570764087121 0.7465429235912878 0.6583048801118873 0.3416951198881127 0.20139295940747368 0.7986070405925263 0.6808899240841677 0.31911007591583224 0.58651685646684 0.41348314353316 0.5989161701017323 0.40108382989826774 0.2039609402560858 0.7960390597439142 0.611082834031943 0.38891716596805714 0.595713850530877 0.40428614946912306 0.38964076336200226 0.6103592366379978 0.21977124569476097 0.7802287543052391 0.3812182934768019 0.6187817065231981 0.2702556621142554 0.7297443378857447 0.30172763151486237 0.6982723684851375 0.5371954572160342 0.4628045427839658 0.9099381072625727 0.09006189273742737 0.7843954351701711 0.21560456482982898 0.8362282882323107 0.16377171176768937 0.7439814559213966 0.2560185440786034 0.16703346257806986 0.8329665374219302 0.27218618130951094 0.7278138186904891 0.5573602031431345 0.4426397968568655 0.5398093819062109 0.46019061809378903 0.4899418069040376 0.5100581930959623 0.2296594478631376 0.7703405521368624 0.5269385746684812 0.47306142533151896 0.18710713345015356 0.8128928665498464 0.5869346504308957 0.41306534956910435 0.8128969133128404 0.18710308668715947 0.17991590998153867 0.8200840900184613 0.7748875822020607 0.22511241779793928 0.5335273056084155 0.46647269439158445 0.4828563973676829 0.5171436026323171 0.8522267881864686 0.1477732118135314 0.5559023388250823 0.4440976611749176 0.5083930374498494 0.4916069625501505 0.5075352589307299 0.4924647410692701 0.49938561908406853 0.5006143809159315 0.6436213637778347 0.3563786362221652 0.5159286014959353 0.4840713985040648 0.9245829831115432 0.07541701688845684 0.26499672226630716 0.7350032777336928 0.08630576002676674 0.9136942399732333 0.36497471766826667 0.6350252823317333 0.9693510591113064 0.03064894088869368 0.4989943045888816 0.5010056954111184 0.31104992654720054 0.6889500734527995 0.41898562220027635 0.5810143777997238 0.6485854261374601 0.3514145738625399 0.806770668145343 0.19322933185465693 0.2441403496889919 0.7558596503110081 0.052653942908731016 0.9473460570912688 0.5692307693539799 0.4307692306460201 0.5640485021680235 0.43595149783197645 0.5694437707043237 0.4305562292956763 0.6213166395122308 0.37868336048776907 0.7311167469645811 0.268883253035419 0.48511564333996776 0.5148843566600322 0.5771302776417645 0.4228697223582355 0.3618688811866239 0.6381311188133761 0.7328866821732607 0.26711331782673925 0.3347648499600531 0.6652351500399469 0.07728236396898468 0.9227176360310153 0.4865292427605121 0.5134707572394879 0.3408166511364934 0.6591833488635066 0.8752430041703857 0.12475699582961428 0.7162914881365932 0.28370851186340684 0.2627918423622842 0.7372081576377157 0.3346380046115702 0.6653619953884299 0.16852695248496644 0.8314730475150336 0.7586242581409363 0.24137574185906363 0.7133075303653658 0.28669246963463424 0.112558181893314 0.887441818106686 0.5152585976487115 0.4847414023512885 0.6079423355758384 0.3920576644241616 0.511205259447108 0.48879474055289196 0.5124016129885114 0.48759838701148867 0.7548277707199319 0.24517222928006815 0.2726494087160624 0.7273505912839375 0.6493723678004096 0.3506276321995903 0.35491070752663717 0.6450892924733629 0.2057153782989194 0.7942846217010805 0.360609505871658 0.6393904941283419 0.4550737577265572 0.5449262422734428 0.3070586941196666 0.6929413058803334 0.37919737435478823 0.6208026256452117 0.688945151878797 0.311054848121203 0.7363575653413026 0.2636424346586974 0.3564695945524262 0.6435304054475738 0.5224819145819685 0.4775180854180316 0.6835564847868602 0.3164435152131398 0.904062043678242 0.09593795632175801 0.3389428285524476 0.6610571714475524 0.7739571514687231 0.22604284853127693 0.9759385816840765 0.024061418315923407 0.23426167174359463 0.7657383282564054 0.43466471347915736 0.5653352865208426 0.704037549480074 0.29596245051992587 0.0520979763970252 0.9479020236029749 0.25994824767846797 0.7400517523215321 0.5740035180772304 0.42599648192276957 0.4387376715605662 0.5612623284394338 0.528662518009913 0.47133748199008696 0.6577804787371829 0.34221952126281713 0.9392672177706383 0.060732782229361695 0.5360227886027115 0.46397721139728854 0.26664786568149956 0.7333521343185004 0.8807981545508992 0.11920184544910083 0.513495676365127 0.4865043236348729 0.5702393570245056 0.42976064297549454 0.6843374202126213 0.3156625797873786 0.31385255936651946 0.6861474406334807 0.23185351272071306 0.7681464872792869 0.11986818221858847 0.8801318177814116 0.9630580463043555 0.0369419536956445 0.4965935324772149 0.5034064675227851 0.04537600955755541 0.9546239904424447 0.0845423038144435 0.9154576961855565 0.1502945255404227 0.8497054744595773 0.5680954242562469 0.43190457574375307 0.3786755021594468 0.6213244978405531 0.881092974848044 0.11890702515195596 0.6968458632287882 0.3031541367712119 0.5139845329561135 0.48601546704388654 0.7980332594191393 0.20196674058086062 0.2148666393563144 0.7851333606436857 0.9693711424914184 0.030628857508581565 0.6606158987914181 0.33938410120858187 0.7830882446309437 0.21691175536905621 0.41423702272402296 0.5857629772759771 0.720416397266347 0.27958360273365307 0.5469471773344486 0.4530528226655514 0.024705830963944762 0.9752941690360553 0.7501786027145203 0.2498213972854796 0.8147992885600075 0.1852007114399925 0.9226847173608194 0.07731528263918064 0.665698611209064 0.33430138879093596 0.5227141897852902 0.47728581021470984 0.3856969344531855 0.6143030655468145 0.703365836647755 0.29663416335224496 0.46996173009026226 0.5300382699097377 0.9735773038331406 0.0264226961668594 0.23675367227134034 0.7632463277286596 0.986478213841165 0.01352178615883502 0.5890284942586931 0.4109715057413069 0.4979329905021237 0.5020670094978764 0.6019919951219513 0.3980080048780486 0.3959597369169125 0.6040402630830874 0.3978001145198427 0.6021998854801573 0.39674707010512256 0.6032529298948773 0.4760787703088402 0.5239212296911598 0.4629865077945088 0.5370134922054912 0.2927460134383122 0.7072539865616878 0.5409284415532604 0.4590715584467395 0.6589697549409349 0.3410302450590651 0.6531318273987736 0.34686817260122643 0.7976668179807048 0.20233318201929518 0.3479170528210616 0.6520829471789384 0.8750272234812233 0.12497277651877671 0.12888420236524437 0.8711157976347557 0.7193106830052511 0.28068931699474875 0.27208122468689777 0.7279187753131022 0.389358446822857 0.610641553177143 0.18651482236432404 0.813485177635676 0.1076826682281164 0.8923173317718837 0.6140814337426045 0.38591856625739557 0.5072555119316745 0.4927444880683255 0.6786709037434614 0.3213290962565386 0.7340094271081758 0.2659905728918241 0.4411412272331765 0.5588587727668235 0.8333250908575046 0.1666749091424954 0.8720215768653593 0.1279784231346407 0.21438594506943298 0.785614054930567 0.5233855211848452 0.4766144788151548 0.39774968536267136 0.6022503146373287 0.519934970926464 0.48006502907353593 0.9097718261780645 0.0902281738219355 0.27046281404103484 0.7295371859589652 0.1744392287398372 0.8255607712601628 0.6723757247585251 0.3276242752414748 0.5395851625505501 0.46041483744944994 0.5498063145306393 0.4501936854693607 0.412144459904076 0.587855540095924 0.5225844783099489 0.4774155216900511 0.9018572240687596 0.09814277593124039 0.5771534543723472 0.42284654562765284 0.9045641494904408 0.09543585050955916 0.48719186764889727 0.5128081323511027 0.8457851181323066 0.15421488186769344 0.6072778695957016 0.39272213040429843 0.5444907577064768 0.4555092422935232 0.5144094559837603 0.48559054401623974 0.785023446713532 0.21497655328646803 0.27626225465730136 0.7237377453426986 0.11864971876340437 0.8813502812365956 0.4677511223398448 0.5322488776601553 0.39583830948964677 0.6041616905103532 0.9859432754403952 0.01405672455960479 0.2096555843050588 0.7903444156949412 0.2707276780022331 0.7292723219977669 0.5948001467284958 0.40519985327150426 0.02836883137400908 0.971631168625991 0.44948915976486237 0.5505108402351376 0.2579909651619278 0.7420090348380722 0.10069052660295168 0.8993094733970484 0.4429551755493259 0.5570448244506742 0.41191429977384664 0.5880857002261534 0.8822282513493223 0.11777174865067772 0.3098152582526329 0.6901847417473671 0.2613079378724663 0.7386920621275337 0.5110002050400339 0.4889997949599661 0.1810910668566552 0.8189089331433448 0.8213744687594221 0.17862553124057787 0.13240228538539872 0.8675977146146013 0.3325968144905033 0.6674031855094967 0.4104035206779152 0.5895964793220848 0.21126580526313204 0.788734194736868 0.5038515001655353 0.4961484998344647 0.487598347733856 0.512401652266144 0.563261833732121 0.43673816626787904 0.7500962159197672 0.2499037840802329 0.4709501760995266 0.5290498239004734 0.6322112565435749 0.36778874345642526 0.422644200842484 0.5773557991575161 0.7814443671813742 0.21855563281862583 0.12546451921255028 0.8745354807874497 0.8694482043377229 0.1305517956622772 0.37000963063472336 0.6299903693652766 0.8023585650471021 0.1976414349528979 0.17799574599843823 0.8220042540015617 0.4821406619646464 0.5178593380353537 0.6118934600196435 0.3881065399803565 0.6503912797054896 0.34960872029451046 0.6555974278503534 0.3444025721496466 0.39078840308693996 0.60921159691306 0.9344122716406321 0.06558772835936788 0.49224726283300607 0.507752737166994 0.4550280195870066 0.5449719804129934 0.31129645361194336 0.6887035463880566 0.5465827712910555 0.4534172287089446 0.7847781998958742 0.2152218001041259 0.5076682669957968 0.4923317330042031 0.5714713175081287 0.42852868249187126 0.2319058306595654 0.7680941693404347 0.268701239679908 0.731298760320092 0.4747626219201475 0.5252373780798525 0.6686641013709576 0.3313358986290425 0.24424215447416675 0.7557578455258332 0.6463486562177614 0.3536513437822385 0.8205938718681091 0.17940612813189094 0.5093302645660712 0.49066973543392867 0.5322998679992411 0.4677001320007588 0.7254270595838743 0.27457294041612573 0.09423758177348193 0.905762418226518 0.3491148449671348 0.6508851550328651 0.4942346142740006 0.5057653857259994 0.5850050118331889 0.4149949881668111 0.49958852018540134 0.5004114798145987 0.6651952857982544 0.33480471420174557 0.5451099746749184 0.45489002532508155 0.6454017886804727 0.3545982113195273 0.3353402342021658 0.6646597657978341 0.7488051905704067 0.2511948094295933 0.15274250207112336 0.8472574979288766 0.14941402456351485 0.8505859754364852 0.2936580633017128 0.7063419366982872 0.6685272377075698 0.3314727622924301 0.3054622061047612 0.6945377938952388 0.5207217272614874 0.47927827273851253 0.24784516740464857 0.7521548325953514 0.27011737265484137 0.7298826273451586 0.47245774813808683 0.5275422518619132 0.09921996664124423 0.9007800333587558 0.29070931335763306 0.7092906866423669 0.3558352344360429 0.6441647655639572 0.5976962618233193 0.40230373817668086 0.5968866108166992 0.4031133891833007 0.29858626859019716 0.7014137314098028 0.6673249697049692 0.3326750302950308 0.514576021970158 0.4854239780298421 0.13659228975041576 0.8634077102495842 0.2130515850631537 0.7869484149368462 0.37674422511900296 0.623255774880997 0.48545663366574304 0.5145433663342569 0.23886635326657898 0.761133646733421 0.4932937081759781 0.5067062918240219 0.46617465848939466 0.5338253415106053 0.16506108577714262 0.8349389142228574 0.6835459939582113 0.31645400604178886 0.6079597857417655 0.39204021425823443 0.5053328448585915 0.49466715514140847 0.5119167639850786 0.48808323601492126 0.3513908713415754 0.6486091286584247 0.9091527442433085 0.0908472557566915 0.5747562601100071 0.42524373988999287 0.5249175247322884 0.4750824752677117 0.742127592058175 0.2578724079418248 0.5913505855999348 0.4086494144000651 0.5823689180468803 0.4176310819531197 0.19897480125471628 0.8010251987452838 0.5556347533117851 0.44436524668821487 0.5414758988020276 0.45852410119797243 0.5278612301117309 0.47213876988826914 0.6161236630800416 0.3838763369199583 0.3154890112707586 0.6845109887292413 0.6589451571510628 0.34105484284893717 0.4849326165318685 0.5150673834681315 0.22431543961272987 0.7756845603872701 0.6898741488655007 0.31012585113449936 0.5306920815064498 0.4693079184935503 0.4069555484029421 0.5930444515970579 0.31219287264944096 0.687807127350559 0.8217542393222537 0.17824576067774633 0.2415321022419041 0.7584678977580959 0.3644357895145948 0.6355642104854052 0.31144985588700014 0.6885501441129999 0.6971986109147975 0.3028013890852026 0.6473055539845942 0.35269444601540584 0.9661496870947008 0.033850312905299176 0.46642689099575113 0.5335731090042489 0.3976733429171509 0.602326657082849 0.3517227798083459 0.6482772201916542 0.7475526309334428 0.2524473690665573 0.06229359383119879 0.9377064061688012 0.15987457961676577 0.8401254203832343 0.5244995901554795 0.4755004098445204 0.643484372824134 0.35651562717586605 0.7418691798471486 0.25813082015285144 0.3700548228970305 0.6299451771029695 0.5021515322308918 0.4978484677691082 0.5863674478562744 0.4136325521437257 0.3835739518417097 0.6164260481582903 0.5749668832892082 0.4250331167107918 0.3984148515705276 0.6015851484294724 0.9143406875693361 0.08565931243066394 0.3220664383400076 0.6779335616599925 0.5702936700087837 0.4297063299912163 0.32374663619627164 0.6762533638037284 0.8108768792783181 0.18912312072168194 0.3598366643673308 0.6401633356326691 0.48608260300106065 0.5139173969989393 0.2048839022305407 0.7951160977694594 0.49054260943901534 0.5094573905609846 0.9324059859910503 0.06759401400894972 0.6449081140175504 0.3550918859824495 0.6066777450276539 0.393322254972346 0.7514370712194645 0.2485629287805355 0.9359389834655906 0.06406101653440932 0.5034648764575795 0.49653512354242046 0.7888207890400531 0.21117921095994685 0.2567332304447444 0.7432667695552556 </TABLE>
    </DEFINITION>
    <DEFINITION>
      <FOR>17</FOR>
      <GIVEN>0</GIVEN>
      <GIVEN>2</GIVEN>
      <GIVEN>11</GIVEN>
      <GIVEN>13</GIVEN>
      <GIVEN>15</GIVEN>
      <GIVEN>3</GIVEN>
      <GIVEN>4</GIVEN>
      <GIVEN>16</GIVEN>
      <GIVEN>1</GIVEN>
      <GIVEN>7</GIVEN>
