<?xml version='1.0' encoding='utf-8'?>
<BIF VERSION="0.3">
  <NETWORK>
    <NAME>UNTITLED</NAME>
    <VARIABLE TYPE="nature">
      <NAME>0</NAME>
      <OUTCOME>0</OUTCOME>
      <OUTCOME>1</OUTCOME>
      <PROPERTY>weight = None</PROPERTY>
    </VARIABLE>
    <VARIABLE TYPE="nature">
      <NAME>1</NAME>
      <OUTCOME>0</OUTCOME>
      <OUTCOME>1</OUTCOME>
      <PROPERTY>weight = None</PROPERTY>
    </VARIABLE>
    <VARIABLE TYPE="nature">
      <NAME>10</NAME>
      <OUTCOME>0</OUTCOME>
      <OUTCOME>1</OUTCOME>
      <PROPERTY>weight = None</PROPERTY>
    </VARIABLE>
    <VARIABLE TYPE="nature">
      <NAME>11</NAME>
      <OUTCOME>0</OUTCOME>
      <OUTCOME>1</OUTCOME>
      <PROPERTY>weight = None</PROPERTY>
    </VARIABLE>
    <VARIABLE TYPE="nature">
      <NAME>12</NAME>
      <OUTCOME>0</OUTCOME>
      <OUTCOME>1</OUTCOME>
      <PROPERTY>weight = None</PROPERTY>
    </VARIABLE>
    <VARIABLE TYPE="nature">
      <NAME>13</NAME>
      <OUTCOME>0</OUTCOME>
      <OUTCOME>1</OUTCOME>
      <PROPERTY>weight = None</PROPERTY>
    </VARIABLE>
    <VARIABLE TYPE="nature">
      <NAME>14</NAME>
      <OUTCOME>0</OUTCOME>
      <OUTCOME>1</OUTCOME>
      <PROPERTY>weight = None</PROPERTY>
    </VARIABLE>
    <VARIABLE TYPE="nature">
      <NAME>15</NAME>
      <OUTCOME>0</OUTCOME>
      <OUTCOME>1</OUTCOME>
      <PROPERTY>weight = None</PROPERTY>
    </VARIABLE>
    <VARIABLE TYPE="nature">
      <NAME>16</NAME>
      <OUTCOME>0</OUTCOME>
      <OUTCOME>1</OUTCOME>
      <PROPERTY>weight = None</PROPERTY>
    </VARIABLE>
    <VARIABLE TYPE="nature">
      <NAME>17</NAME>
      <OUTCOME>0</OUTCOME>
      <OUTCOME>1</OUTCOME>
      <PROPERTY>weight = None</PROPERTY>
    </VARIABLE>
    <VARIABLE TYPE="nature">
      <NAME>18</NAME>
      <OUTCOME>0</OUTCOME>
      <OUTCOME>1</OUTCOME>
      <PROPERTY>weight = None</PROPERTY>
    </VARIABLE>
    <VARIABLE TYPE="nature">
      <NAME>2</NAME>
      <OUTCOME>0</OUTCOME>
      <OUTCOME>1</OUTCOME>
      <PROPERTY>weight = None</PROPERTY>
    </VARIABLE>
    <VARIABLE TYPE="nature">
      <NAME>3</NAME>
      <OUTCOME>0</OUTCOME>
      <OUTCOME>1</OUTCOME>
      <PROPERTY>weight = None</PROPERTY>
    </VARIABLE>
    <VARIABLE TYPE="nature">
      <NAME>4</NAME>
      <OUTCOME>0</OUTCOME>
      <OUTCOME>1</OUTCOME>
      <PROPERTY>weight = None</PROPERTY>
    </VARIABLE>
    <VARIABLE TYPE="nature">
      <NAME>5</NAME>
      <OUTCOME>0</OUTCOME>
      <OUTCOME>1</OUTCOME>
      <PROPERTY>weight = None</PROPERTY>
    </VARIABLE>
    <VARIABLE TYPE="nature">
      <NAME>6</NAME>
      <OUTCOME>0</OUTCOME>
      <OUTCOME>1</OUTCOME>
      <PROPERTY>weight = None</PROPERTY>
    </VARIABLE>
    <VARIABLE TYPE="nature">
      <NAME>7</NAME>
      <OUTCOME>0</OUTCOME>
      <OUTCOME>1</OUTCOME>
      <PROPERTY>weight = None</PROPERTY>
    </VARIABLE>
    <VARIABLE TYPE="nature">
      <NAME>8</NAME>
      <OUTCOME>0</OUTCOME>
      <OUTCOME>1</OUTCOME>
      <PROPERTY>weight = None</PROPERTY>
    </VARIABLE>
    <VARIABLE TYPE="nature">
      <NAME>9</NAME>
      <OUTCOME>0</OUTCOME>
      <OUTCOME>1</OUTCOME>
      <PROPERTY>weight = None</PROPERTY>
    </VARIABLE>
    <DEFINITION>
      <FOR>0</FOR>
      <TABLE>0.3982252920029855 0.6017747079970144 </TABLE>
    </DEFINITION>
    <DEFINITION>
      <FOR>1</FOR>
      <TABLE>0.2734912642314931 0.7265087357685068 </TABLE>
    </DEFINITION>
    <DEFINITION>
      <FOR>10</FOR>
      <GIVEN>0</GIVEN>
      <GIVEN>2</GIVEN>
      <GIVEN>4</GIVEN>
      <GIVEN>6</GIVEN>
      <GIVEN>9</GIVEN>
      <GIVEN>5</GIVEN>
      <GIVEN>7</GIVEN>
      <GIVEN>8</GIVEN>
      <GIVEN>3</GIVEN>
      <TABLE>0.761835988434067 0.238164011565933 0.3160664974324888 0.6839335025675111 0.5043196442641749 0.49568035573582514 0.9382202332225539 0.06177976677744612 0.29380428869336545 0.7061957113066345 0.9833261275135051 0.016673872486494882 0.4516161489744422 0.5483838510255578 0.04098823091636957 0.9590117690836304 0.5156799173695179 0.4843200826304821 0.6761723261670534 0.32382767383294664 0.364645953472177 0.635354046527823 0.9019150125721604 0.09808498742783955 0.2242540169396851 0.7757459830603148 0.3904719557358836 0.6095280442641164 0.3429179911057116 0.6570820088942884 0.018830814259745778 0.9811691857402542 0.8844636933704011 0.11553630662959892 0.6965202831527124 0.3034797168472876 0.39720323080783837 0.6027967691921616 0.4555410462089027 0.5444589537910973 0.815306994685225 0.18469300531477495 0.38457588599202 0.61542411400798 0.4156338756575518 0.5843661243424482 0.3898045248186805 0.6101954751813196 0.985755421446955 0.014244578553044906 0.6624651405068533 0.33753485949314666 0.6412019381534347 0.35879806184656526 0.2348277585651742 0.7651722414348258 0.1989109067463118 0.8010890932536882 0.3193284094224425 0.6806715905775574 0.7573418949411191 0.24265810505888083 0.09776390975262424 0.9022360902473757 0.38441731744830226 0.6155826825516977 0.7702637005915675 0.22973629940843251 0.7190383232575577 0.2809616767424424 0.47932458668033956 0.5206754133196605 0.6351238987123082 0.3648761012876918 0.08565863071526164 0.9143413692847383 0.7396482448060872 0.26035175519391285 0.9251854677506751 0.07481453224932491 0.3281240456033051 0.6718759543966949 0.6297137072806527 0.37028629271934727 0.3921451155595081 0.6078548844404918 0.3556564736737516 0.6443435263262485 0.5590898561544966 0.4409101438455034 0.5307728282861286 0.4692271717138713 0.48231499179470877 0.5176850082052913 0.029196103548908402 0.9708038964510916 0.11009302025218884 0.8899069797478112 0.5051779457147066 0.4948220542852934 0.6759652114572776 0.32403478854272244 0.9145400446461859 0.0854599553538141 0.12742442649077257 0.8725755735092274 0.924897848431465 0.0751021515685349 0.49425864433706446 0.5057413556629355 0.6195706700463172 0.38042932995368284 0.3038027712191891 0.6961972287808108 0.625653182257067 0.374346817742933 0.6509225298782925 0.3490774701217076 0.43398990446737784 0.566010095532622 0.388626230577354 0.6113737694226459 0.6692353308922503 0.3307646691077497 0.7672350750941206 0.2327649249058793 0.5604854398055934 0.43951456019440654 0.9645642492073789 0.03543575079262111 0.490573445602023 0.509426554397977 0.6111228308593559 0.38887716914064413 0.3037133034817896 0.6962866965182104 0.3621747984896787 0.6378252015103213 0.16402867774815866 0.8359713222518413 0.48619232646860855 0.5138076735313915 0.17556040705665943 0.8244395929433406 0.2891753340266061 0.7108246659733939 0.31276444056517455 0.6872355594348254 0.3182100482332979 0.6817899517667021 0.42625880877953887 0.5737411912204612 0.2723143801020287 0.7276856198979713 0.5677906507871274 0.43220934921287246 0.5433802475525829 0.4566197524474172 0.8954474541241196 0.10455254587588031 0.6048941760173607 0.3951058239826394 0.8257366707844337 0.1742633292155664 0.6812653556140614 0.31873464438593857 0.3238871631076276 0.6761128368923724 0.9792371801811844 0.020762819818815594 0.22919788539403893 0.770802114605961 0.46660862499401246 0.5333913750059875 0.4846854615147637 0.5153145384852362 0.8023154541726474 0.19768454582735265 0.6903211629389573 0.30967883706104266 0.2330106114274857 0.7669893885725144 0.5978719799607555 0.4021280200392445 0.3333125427872508 0.6666874572127491 0.4786664319688543 0.5213335680311457 0.4376363067082966 0.5623636932917034 0.055409194336439434 0.9445908056635606 0.7476800914870351 0.25231990851296493 0.16536031175793608 0.8346396882420639 0.12533153009154568 0.8746684699084544 0.3977906875364252 0.6022093124635748 0.3614078115974572 0.6385921884025427 0.40081358882514057 0.5991864111748595 0.4582760616986279 0.5417239383013721 0.5476518317107907 0.4523481682892093 0.19269633743135772 0.8073036625686423 0.46660164224931633 0.5333983577506837 0.5582048789459952 0.44179512105400476 0.23700345639816967 0.7629965436018303 0.6305536465301774 0.3694463534698226 0.4921525338412456 0.5078474661587544 0.8060015148247018 0.19399848517529827 0.5032215914359331 0.4967784085640668 0.6393440332888374 0.36065596671116257 0.5107188129434007 0.48928118705659934 0.8210468246799634 0.1789531753200366 0.5456065946891824 0.4543934053108176 0.3666269545702816 0.6333730454297185 0.5030762369693276 0.4969237630306725 0.10238486662813802 0.8976151333718619 0.3746647284614528 0.6253352715385473 0.160476857011004 0.839523142988996 0.3098280329472268 0.6901719670527732 0.5616779534872473 0.4383220465127528 0.9916512282419133 0.008348771758086706 0.38609055150532257 0.6139094484946774 0.8074913400326122 0.19250865996738775 0.45169659075028845 0.5483034092497115 0.6669598926022873 0.3330401073977127 0.5627555493189446 0.4372444506810554 0.006456334053747441 0.9935436659462525 0.6135617335274206 0.38643826647257945 0.7600480102772298 0.23995198972277018 0.9033026353544222 0.09669736464557781 0.25750792913904463 0.7424920708609554 0.2205943431261071 0.779405656873893 0.505307201905225 0.49469279809477495 0.18491665191219916 0.8150833480878008 0.36656580915524756 0.6334341908447524 0.15691821726913316 0.8430817827308669 0.5254034420608172 0.4745965579391828 0.6831767651957011 0.31682323480429886 0.6222772141138945 0.3777227858861054 0.40960733241666236 0.5903926675833376 0.4369633391523043 0.5630366608476957 0.5189156000235907 0.4810843999764093 0.35356898759441285 0.6464310124055871 0.8191499912719883 0.18085000872801174 0.49457091619830507 0.5054290838016949 0.35563291134292413 0.6443670886570758 0.34832483856252033 0.6516751614374797 0.5317017304748034 0.4682982695251966 0.9969097641962315 0.003090235803768548 0.32226741116865837 0.6777325888313417 0.6823329701240392 0.31766702987596096 0.1904985724195474 0.8095014275804526 0.5800086884357951 0.4199913115642049 0.49925021673928793 0.500749783260712 0.5048691091480513 0.49513089085194867 0.6211338539296491 0.37886614607035074 0.6021193729519067 0.39788062704809335 0.5381337612039439 0.46186623879605615 0.6217186955099115 0.3782813044900885 0.7716992873380449 0.22830071266195506 0.7523230456587362 0.24767695434126383 0.6062072361118708 0.3937927638881293 0.6670465912858468 0.3329534087141533 0.16723234035777326 0.8327676596422268 0.16854437571506511 0.8314556242849349 0.40014927147368046 0.5998507285263196 0.5969909448136675 0.4030090551863325 0.5090622470992905 0.4909377529007095 0.27870798521862655 0.7212920147813735 0.07639277185454232 0.9236072281454577 0.8824315484008515 0.11756845159914849 0.021022680428511707 0.9789773195714883 0.4733770084518984 0.5266229915481017 0.5331024481262804 0.46689755187371956 0.5610462442902151 0.4389537557097849 0.535181475540117 0.4648185244598831 0.3588853370510935 0.6411146629489065 0.7855664105403726 0.2144335894596274 0.564906691548961 0.4350933084510391 0.37468350163524633 0.6253164983647537 0.5500099522267854 0.44999004777321466 0.5763373634985927 0.42366263650140734 0.3702585188706786 0.6297414811293215 0.6429950531887763 0.35700494681122386 0.14052883193795127 0.8594711680620487 0.7337278166461644 0.2662721833538357 0.9722478566985676 0.027752143301432376 0.43797043728155965 0.5620295627184404 0.27583131965454694 0.7241686803454531 0.3370659171362109 0.6629340828637891 0.3012675961060774 0.6987324038939227 0.6933054000139581 0.30669459998604187 0.5689224291453789 0.43107757085462106 0.35823289971347655 0.6417671002865234 0.9382090979932112 0.06179090200678882 0.004545058950763836 0.9954549410492362 0.3343382342581223 0.6656617657418777 0.9297470319777011 0.07025296802229884 0.3843159002442775 0.6156840997557226 0.46473734615813006 0.5352626538418699 0.1541429325350113 0.8458570674649887 0.251479710193093 0.748520289806907 0.44371048491716353 0.5562895150828364 0.08367214242938356 0.9163278575706164 0.6668458074701027 0.33315419252989736 0.9539483160452022 0.046051683954797716 0.9321690770905372 0.06783092290946276 0.9139104809463582 0.08608951905364186 0.5499520519716006 0.4500479480283993 0.2396398135773762 0.7603601864226238 0.5993661942724164 0.40063380572758356 0.449124662008508 0.550875337991492 0.5572346842133995 0.44276531578660044 0.39689105986139833 0.6031089401386017 0.3466948722339551 0.6533051277660448 0.20488842953478667 0.7951115704652133 0.17826282960568005 0.8217371703943199 0.38644871076431947 0.6135512892356805 0.6694630078578114 0.33053699214218857 0.4378847749805654 0.5621152250194346 0.5677447416626199 0.4322552583373801 0.8947653499836193 0.10523465001638069 0.5573280132023243 0.4426719867976758 0.7280268523828953 0.2719731476171046 0.3624132745389643 0.6375867254610357 0.5804211770017875 0.4195788229982126 0.5733724501079883 0.4266275498920116 0.4267429037526811 0.573257096247319 0.43231921250714256 0.5676807874928574 0.47336088949818417 0.5266391105018158 0.2618684761626684 0.7381315238373316 0.2083407240725055 0.7916592759274945 0.6108476995913674 0.3891523004086325 0.11877854974817613 0.8812214502518239 0.5190621954336505 0.4809378045663495 0.4355384468990298 0.5644615531009701 0.32554488716075336 0.6744551128392465 0.0931168776832899 0.90688312231671 0.3506322529255615 0.6493677470744386 0.4683949061243478 0.5316050938756521 0.40866259308114167 0.5913374069188583 0.780788135378695 0.21921186462130507 0.8688458265829704 0.1311541734170296 0.4266563682536385 0.5733436317463615 0.7980183488856553 0.2019816511143447 0.7798572543379614 0.22014274566203845 0.9117071967430542 0.08829280325694572 0.5585788802336391 0.4414211197663609 0.2838633527854479 0.7161366472145523 0.6125753180504054 0.38742468194959456 0.1597721883754654 0.8402278116245346 0.4389330268815412 0.5610669731184588 0.13766242029243062 0.8623375797075695 0.5279860075863275 0.4720139924136724 0.07397415932944099 0.926025840670559 0.2423601945415495 0.7576398054584504 0.14067689233252484 0.8593231076674752 0.38151829368185014 0.6184817063181499 0.9421669026161058 0.05783309738389418 0.390481736523562 0.609518263476438 0.451226869702064 0.548773130297936 0.2528410503947417 0.7471589496052583 0.5085478858870388 0.49145211411296125 0.6092812637961831 0.39071873620381686 0.702623435780848 0.2973765642191521 0.022735135406461028 0.977264864593539 0.6246069580294232 0.3753930419705768 0.9110191374328769 0.08898086256712308 0.2693436045023856 0.7306563954976144 0.39160269927328534 0.6083973007267147 0.7925456864308491 0.20745431356915095 0.3013787102046182 0.6986212897953819 0.40054522935155934 0.5994547706484407 0.982768303071458 0.01723169692854198 0.5458972423778178 0.45410275762218216 0.49257752264670224 0.5074224773532978 0.5751265197184807 0.4248734802815193 0.5657719016990866 0.4342280983009133 0.7831821520746639 0.2168178479253361 0.534206683089376 0.465793316910624 0.6766628638734302 0.32333713612656984 0.4131575102668986 0.5868424897331014 0.47870551288194396 0.521294487118056 0.8667800431211021 0.1332199568788979 0.9014998918170881 0.09850010818291194 0.2261908706108183 0.7738091293891816 0.8460560461156743 0.15394395388432566 0.42058275574327986 0.5794172442567201 0.1154822733045442 0.8845177266954558 0.5247142203143116 0.4752857796856884 0.258667254252337 0.741332745747663 0.43347582456018763 0.5665241754398124 0.2390405087673824 0.7609594912326177 0.8134533328198282 0.18654666718017177 0.1537758372348698 0.8462241627651302 0.7089805949577423 0.29101940504225765 0.9089992671784775 0.09100073282152255 0.8532332607695157 0.14676673923048433 0.505535705228029 0.4944642947719709 0.5915559373831771 0.4084440626168229 0.6297025577924668 0.37029744220753313 0.33833548603732855 0.6616645139626713 0.5014542497314008 0.49854575026859915 0.552022513103974 0.44797748689602607 0.2554791894680932 0.7445208105319068 0.641977541657556 0.35802245834244395 0.19725820395770696 0.802741796042293 0.4084497881973921 0.5915502118026079 0.5138438551286014 0.48615614487139863 0.2853954620388677 0.7146045379611323 0.5611802513340175 0.4388197486659825 0.20139845831289477 0.7986015416871052 0.2311294399821652 0.7688705600178348 0.928804590277714 0.07119540972228594 0.5550838844020428 0.44491611559795724 0.5750034863779052 0.4249965136220948 0.41560900474458423 0.5843909952554158 0.47357269617375686 0.526427303826243 0.1386781680393549 0.861321831960645 0.5263195539511926 0.4736804460488074 0.9387978439599033 0.06120215604009672 0.6308300100568427 0.36916998994315736 0.12784683358956037 0.8721531664104396 0.20823970352165017 0.7917602964783499 0.008560825942853987 0.991439174057146 0.8720059633485321 0.12799403665146789 0.7599125338479465 0.2400874661520535 0.042822215634016246 0.9571777843659838 0.7954238602184739 0.20457613978152606 0.12912394383622292 0.8708760561637771 0.5506622285244341 0.4493377714755659 0.4104019874047104 0.5895980125952897 0.7810092775037801 0.21899072249621984 0.9886615507758376 0.011338449224162434 0.47520819192986047 0.5247918080701395 0.4902986442127614 0.5097013557872386 0.4699551804447874 0.5300448195552125 0.1466256310637287 0.8533743689362713 0.4384790270675387 0.5615209729324613 0.5773904920411754 0.42260950795882457 0.7844589032785978 0.21554109672140223 0.43349831908072906 0.5665016809192709 0.46279995716875194 0.5372000428312481 0.6028247288660462 0.3971752711339537 0.9872896786384178 0.012710321361582188 0.6734166263727783 0.3265833736272217 0.2553241017787178 0.7446758982212821 0.1750419172469413 0.8249580827530587 0.6549607293014175 0.3450392706985825 0.6204130513838028 0.3795869486161973 0.7213710071200362 0.2786289928799639 0.952301946074019 0.047698053925980984 0.10106886219314863 0.8989311378068515 0.17892671649007663 0.8210732835099234 0.771626317942208 0.22837368205779196 0.8644797390213457 0.13552026097865427 0.43096871052224595 0.569031289477754 0.6867165872032073 0.3132834127967927 0.5881229378417729 0.411877062158227 0.45784825003061097 0.5421517499693891 0.3078108801867508 0.6921891198132493 0.08856364199214602 0.9114363580078539 0.6709246074291446 0.3290753925708554 0.4789328928513093 0.5210671071486906 0.7704151414657174 0.2295848585342825 0.466697937828094 0.5333020621719059 0.5910414401635586 0.4089585598364413 0.38805315057439393 0.6119468494256062 0.5346383511657735 0.4653616488342265 0.2333490022345405 0.7666509977654595 0.11238139513467386 0.8876186048653262 0.47433578723029046 0.5256642127697094 0.514882291266515 0.48511770873348503 0.7614594405696664 0.23854055943033362 0.21484508222161774 0.7851549177783823 0.8234683980566729 0.17653160194332712 0.9844306707258567 0.015569329274143392 0.5778428883316499 0.4221571116683501 0.5070768693863208 0.49292313061367904 0.6941317720819885 0.3058682279180115 0.7230303415405475 0.27696965845945254 0.5989055432365123 0.4010944567634876 0.3784046441203973 0.6215953558796027 0.49420206830473323 0.5057979316952669 0.9058782069306236 0.09412179306937637 0.6642182008144594 0.33578179918554063 0.7835543397363901 0.21644566026360992 0.7503823667965392 0.24961763320346078 0.6520326843425586 0.34796731565744154 0.6754877000200036 0.3245122999799964 0.721052929514445 0.278947070485555 0.079112384781288 0.920887615218712 0.5077044748552909 0.49229552514470915 0.5132480396648844 0.4867519603351157 0.9431274560798061 0.05687254392019404 0.06748609651358434 0.9325139034864156 0.9420413377456771 0.05795866225432293 0.8546526829010991 0.14534731709890095 0.3014220391091668 0.6985779608908332 0.9087290325106943 0.09127096748930578 0.4886993248041153 0.5113006751958847 0.3845888370729471 0.6154111629270528 0.4298521215206428 0.5701478784793571 0.3334547720871388 0.6665452279128611 0.662283556472066 0.33771644352793395 0.8265213212699293 0.1734786787300707 0.6806174187339964 0.3193825812660037 0.4848954345787111 0.5151045654212889 0.7913926677749147 0.20860733222508535 0.6713265508461258 0.32867344915387425 0.578835045401785 0.421164954598215 0.3115876985206223 0.6884123014793777 0.9511179808561205 0.0488820191438795 0.528914549931702 0.47108545006829805 0.7483148553339527 0.25168514466604736 0.8705553149813315 0.1294446850186684 0.7301296002950816 0.26987039970491855 0.3002871118508091 0.6997128881491909 0.5693809440454469 0.4306190559545531 0.4754150216781903 0.5245849783218097 0.4166648644051777 0.5833351355948223 0.6342874022803803 0.3657125977196197 0.39716000510684696 0.6028399948931531 0.4022774904573736 0.5977225095426264 0.4972183496683382 0.5027816503316619 0.7985467340219617 0.20145326597803825 0.9583941069571985 0.041605893042801434 0.3578376903797278 0.6421623096202723 0.530704939709129 0.4692950602908709 0.5105029817554819 0.4894970182445181 0.5157574693212345 0.48424253067876555 0.34680691506639144 0.6531930849336085 0.3207354428474385 0.6792645571525615 0.5329526779212512 0.4670473220787487 0.5925572563519287 0.4074427436480713 0.563488834754094 0.436511165245906 0.7763593050035893 0.22364069499641068 0.4893477885640211 0.5106522114359788 0.908241338523606 0.09175866147639399 0.5434020638593012 0.45659793614069866 0.08701013476518983 0.9129898652348102 0.3181625389719686 0.6818374610280313 0.10119165924084797 0.8988083407591521 0.5423707137085593 0.4576292862914407 0.590128450024323 0.40987154997567704 0.3705385164509582 0.6294614835490419 0.34751502336481327 0.6524849766351868 0.6045898407335962 0.3954101592664037 0.8727736522179881 0.1272263477820119 0.6387614106965226 0.36123858930347735 0.4691450739219681 0.530854926078032 0.5546921857624871 0.4453078142375129 0.5983654931883984 0.4016345068116017 0.21081034644533472 0.7891896535546653 0.9937800126322769 0.006219987367723077 0.16515738639462982 0.8348426136053702 0.43969530901647713 0.5603046909835229 0.4390548403600995 0.5609451596399005 0.03616080641125744 0.9638391935887426 0.13614990934383386 0.8638500906561661 0.4511314181539258 0.5488685818460741 0.2475294226453 0.7524705773547 0.6326158172214877 0.36738418277851237 0.36290487432563096 0.637095125674369 0.29534637042152434 0.7046536295784758 0.13869573654910036 0.8613042634508996 0.34785390329731586 0.6521460967026842 0.23985157782046776 0.7601484221795323 0.4718863549917668 0.5281136450082332 0.25354403982877777 0.7464559601712222 0.3378739559413249 0.662126044058675 0.5187625671097503 0.4812374328902496 0.49622675563196283 0.5037732443680372 0.49420485420249943 0.5057951457975005 0.5326965432157575 0.4673034567842425 0.4561954239100426 0.5438045760899574 0.5448822123487645 0.45511778765123556 0.5340579928614216 0.46594200713857836 0.3523718976972931 0.6476281023027068 0.8573233186347361 0.1426766813652639 0.6805261923722815 0.3194738076277185 0.36228164860406403 0.637718351395936 0.7030823519492136 0.2969176480507864 0.2710479384442502 0.7289520615557499 0.6130684100939452 0.3869315899060547 0.5661597858147587 0.4338402141852414 0.41965433420680376 0.5803456657931964 0.28042852042783717 0.7195714795721628 0.21980376194347404 0.7801962380565259 0.5164232048264449 0.48357679517355506 0.3851095856538971 0.614890414346103 0.6502738024216542 0.3497261975783458 0.18670038181344092 0.813299618186559 0.4315027133444068 0.5684972866555932 0.3003277139419799 0.6996722860580201 0.8625033536059381 0.13749664639406192 0.3701985743541996 0.6298014256458004 0.10767128045784985 0.8923287195421501 0.5727452558009422 0.4272547441990579 0.8342851987096702 0.1657148012903298 0.41662439518537964 0.5833756048146203 0.18239242627347646 0.8176075737265235 0.7333393600102097 0.2666606399897903 0.4227312873707201 0.5772687126292798 0.5840036378860998 0.41599636211390023 0.40432624910004716 0.5956737508999529 0.06759518710322043 0.9324048128967796 0.2451201849496239 0.754879815050376 0.47120894529939683 0.5287910547006032 </TABLE>
    </DEFINITION>
    <DEFINITION>
      <FOR>11</FOR>
      <GIVEN>2</GIVEN>
      <GIVEN>4</GIVEN>
      <GIVEN>6</GIVEN>
      <GIVEN>9</GIVEN>
      <GIVEN>5</GIVEN>
      <GIVEN>1</GIVEN>
      <TABLE>0.6953247733865845 0.3046752266134155 0.7850050860290053 0.21499491397099477 0.528469833055665 0.4715301669443351 0.6095595365738542 0.39044046342614575 0.43517914328424046 0.5648208567157595 0.6044959044478537 0.3955040955521464 0.1126856303581945 0.8873143696418055 0.7309689432473839 0.26903105675261607 0.7044511507097384 0.2955488492902616 0.5049287660539611 0.49507123394603897 0.40889749089562344 0.5911025091043767 0.7733476009768531 0.22665239902314707 0.46391403310766316 0.5360859668923369 0.529753962698235 0.470246037301765 0.459304710719064 0.540695289280936 0.4971359061884906 0.5028640938115094 0.5603172433030975 0.43968275669690243 0.7515770708462054 0.24842292915379463 0.9088988588846133 0.09110114111538666 0.559036305072426 0.44096369492757403 0.4638405730983157 0.5361594269016843 0.5586123317396431 0.44138766826035697 0.41347012170189346 0.5865298782981065 0.20176856443252042 0.7982314355674796 0.15911158169010947 0.8408884183098906 0.41381901993497777 0.5861809800650224 0.7936019271477435 0.2063980728522565 0.30600934412222386 0.6939906558777762 0.5038297874308264 0.4961702125691736 0.3659576166699478 0.6340423833300521 0.06483312944972308 0.9351668705502769 0.22393486225110543 0.7760651377488945 0.9781987581725462 0.021801241827453775 0.876429926983832 0.12357007301616779 0.12786479945720522 0.8721352005427948 0.5253417732151376 0.47465822678486236 0.7524085781352403 0.24759142186475966 0.2116014539002212 0.7883985460997788 0.09389165380998694 0.906108346190013 0.8871687862576212 0.11283121374237881 0.3447472223837175 0.6552527776162824 0.610648505109379 0.389351494890621 0.8801025227722906 0.11989747722770938 0.35456847209783005 0.6454315279021698 0.5040472425706478 0.49595275742935213 0.40617562582402683 0.5938243741759732 0.4587144371618428 0.5412855628381571 0.3439858979980917 0.6560141020019082 0.7237053924701753 0.2762946075298249 0.38814415653319967 0.6118558434668004 0.6499717909263854 0.35002820907361465 0.5023205073549015 0.4976794926450985 0.6949652174876093 0.30503478251239063 0.6183203772282955 0.38167962277170453 0.32787593584676317 0.6721240641532369 0.586852551006132 0.41314744899386796 0.7299159514167142 0.2700840485832859 0.21547711367657083 0.7845228863234291 0.21912085622371658 0.7808791437762834 0.07362185647609776 0.9263781435239022 0.3837796593093041 0.6162203406906959 0.11118220965213722 0.8888177903478628 0.5544238911271983 0.44557610887280175 0.6956603066400568 0.3043396933599431 </TABLE>
    </DEFINITION>
    <DEFINITION>
      <FOR>12</FOR>
      <GIVEN>2</GIVEN>
      <GIVEN>4</GIVEN>
      <GIVEN>9</GIVEN>
      <GIVEN>5</GIVEN>
      <GIVEN>8</GIVEN>
      <GIVEN>1</GIVEN>
      <GIVEN>3</GIVEN>
      <TABLE>0.5460260732426547 0.4539739267573453 0.803322152996868 0.19667784700313184 0.35930033309954534 0.6406996669004547 0.8659271377447797 0.13407286225522028 0.546195248640436 0.45380475135956405 0.5066997118131942 0.4933002881868058 0.7471310173203523 0.25286898267964775 0.674324874586552 0.32567512541344806 0.6804137421051687 0.31958625789483125 0.7597552856967306 0.24024471430326944 0.5360357156940988 0.4639642843059011 0.5856393669351404 0.4143606330648596 0.288028183030354 0.7119718169696461 0.3718638588533384 0.6281361411466616 0.6428757935900404 0.35712420640995957 0.4719606676059859 0.528039332394014 0.8469231131271057 0.15307688687289428 0.5321028961076241 0.46789710389237593 0.3690906365480483 0.6309093634519517 0.8930405758711006 0.10695942412889937 0.89780278578848 0.10219721421151998 0.5682938716222794 0.4317061283777205 0.36977219947589623 0.6302278005241038 0.7856638173411181 0.2143361826588819 0.6836247662933379 0.3163752337066621 0.6486489180095399 0.35135108199046006 0.3145141671332886 0.6854858328667114 0.7724482271754314 0.22755177282456857 0.5068661132436646 0.4931338867563353 0.6661807008051153 0.3338192991948847 0.4684604200366642 0.5315395799633357 0.5281461924724128 0.47185380752758715 0.5517161394857859 0.44828386051421404 0.3266675134128662 0.6733324865871338 0.5284015025893122 0.47159849741068777 0.436802262059652 0.563197737940348 0.9547932212685629 0.04520677873143709 0.23759644735554636 0.7624035526444537 0.49155552949595493 0.5084444705040451 0.9711323781412731 0.02886762185872695 0.20666149726126282 0.7933385027387372 0.10809323864162514 0.891906761358375 0.34539593373456184 0.654604066265438 0.5042989895033424 0.49570101049665766 0.31852866058437607 0.681471339415624 0.5778810202092446 0.42211897979075536 0.8694152900330716 0.13058470996692845 0.5136413370330684 0.48635866296693164 0.5259412010412359 0.474058798958764 0.6834135873784871 0.31658641262151277 0.06389606926237382 0.9361039307376262 0.37406496977918374 0.6259350302208163 0.35745926777104486 0.6425407322289551 0.10503692657475483 0.8949630734252451 0.184289646457787 0.815710353542213 0.641868557018887 0.358131442981113 0.6343456788699084 0.36565432113009155 0.6696588031061229 0.33034119689387714 0.676741599619169 0.32325840038083103 0.22233675973613581 0.7776632402638642 0.43149649358892433 0.5685035064110757 0.1825440897720186 0.8174559102279814 0.55478670494665 0.4452132950533501 0.4520614699581235 0.5479385300418765 0.2043880913511023 0.7956119086488976 0.11513551742463134 0.8848644825753686 0.17638059016604937 0.8236194098339507 0.6034764824489176 0.39652351755108245 0.4242174769839133 0.5757825230160867 0.00013506185525090974 0.9998649381447491 0.5731820038194947 0.4268179961805053 0.4120085757434489 0.5879914242565512 0.5061642017651997 0.4938357982348004 0.7812514432723503 0.21874855672764976 0.39252228188135835 0.6074777181186417 0.21409157128673223 0.7859084287132678 0.03510506175669447 0.9648949382433055 0.061274210260898805 0.9387257897391011 0.7409220822486154 0.2590779177513845 0.3370157805201061 0.6629842194798938 0.011551493042511931 0.9884485069574881 0.3095301446885906 0.6904698553114096 0.29734916489304575 0.7026508351069543 0.5993883947411811 0.4006116052588189 0.6374525202174625 0.3625474797825376 0.30240349030526414 0.6975965096947359 0.5601884428720406 0.4398115571279594 0.8369078608205252 0.1630921391794749 0.41535976935070557 0.5846402306492945 0.4349389188524803 0.5650610811475197 0.25785292076628574 0.7421470792337143 0.7435699179589202 0.25643008204107975 0.14397546045977933 0.8560245395402207 0.4536874163994824 0.5463125836005176 0.06738866216034026 0.9326113378396597 0.1804925376976049 0.8195074623023951 0.06765190078125846 0.9323480992187415 0.6091974440139784 0.3908025559860217 0.674138676639127 0.3258613233608731 0.6762420630983542 0.3237579369016459 0.28672223370661526 0.7132777662933849 0.7620030703070293 0.23799692969297082 0.49909021252843694 0.5009097874715631 0.6884776399254995 0.31152236007450046 0.4168379009521154 0.5831620990478845 0.6136507593647998 0.38634924063520015 0.7718036774379581 0.22819632256204192 0.6936100782650607 0.3063899217349393 0.6478696987055494 0.35213030129445066 0.6252119735057367 0.37478802649426346 0.603238546860482 0.39676145313951794 0.5304608560115276 0.46953914398847235 0.0152936361418463 0.9847063638581537 0.472177025997112 0.527822974002888 0.21198051869148288 0.7880194813085172 0.13309287039373502 0.866907129606265 0.5027132541494843 0.49728674585051563 0.5113647297502276 0.48863527024977227 0.9363325787346317 0.06366742126536833 0.6872396377126038 0.31276036228739623 0.1254770536311335 0.8745229463688665 0.6805000450993725 0.3194999549006276 0.3371349579013189 0.6628650420986812 0.08689147299202502 0.913108527007975 0.37442824086682547 0.6255717591331746 0.7058775168714412 0.2941224831285589 0.34728106684270443 0.6527189331572957 0.2549079378244561 0.7450920621755439 </TABLE>
    </DEFINITION>
    <DEFINITION>
      <FOR>13</FOR>
      <GIVEN>0</GIVEN>
      <GIVEN>2</GIVEN>
      <GIVEN>9</GIVEN>
      <GIVEN>1</GIVEN>
      <GIVEN>3</GIVEN>
      <TABLE>0.5280378276670443 0.47196217233295573 0.2869371985125815 0.7130628014874185 0.8727884646753072 0.12721153532469276 0.7966352707142188 0.20336472928578117 0.40851917926641873 0.5914808207335812 0.7173809924818837 0.28261900751811636 0.22813817436649478 0.7718618256335051 0.2150447231408679 0.7849552768591321 0.49166210058891646 0.5083378994110835 0.8790399801463765 0.12096001985362353 0.5196159705167855 0.48038402948321446 0.6770560498871178 0.32294395011288224 0.41759952398518785 0.5824004760148122 0.48727726706928604 0.5127227329307139 0.6154438980131898 0.38455610198681023 0.37879207748507887 0.6212079225149211 0.23307998499907048 0.7669200150009294 0.8236047981466399 0.1763952018533601 0.07751303570687115 0.9224869642931288 0.7769751410382856 0.2230248589617144 0.5799997608094463 0.4200002391905538 0.46030036446178285 0.5396996355382172 0.4398241566210367 0.5601758433789633 0.3003821353779868 0.6996178646220131 0.17460297232180053 0.8253970276781994 0.42392570727031764 0.5760742927296822 0.6141573349636715 0.38584266503632836 0.3709912365548552 0.6290087634451448 0.4591468412806244 0.5408531587193756 0.32306725842630757 0.6769327415736924 0.5749138177155766 0.42508618228442324 0.5137584698557236 0.4862415301442764 </TABLE>
    </DEFINITION>
    <DEFINITION>
      <FOR>14</FOR>
      <GIVEN>10</GIVEN>
      <GIVEN>5</GIVEN>
      <GIVEN>7</GIVEN>
      <GIVEN>8</GIVEN>
      <GIVEN>12</GIVEN>
      <GIVEN>1</GIVEN>
      <TABLE>0.5848986373219074 0.4151013626780926 0.12034080680366749 0.8796591931963325 0.5222383438745064 0.4777616561254935 0.2944820732429868 0.7055179267570132 0.4384713662030205 0.5615286337969795 0.5752792136558469 0.4247207863441531 0.76891998436526 0.2310800156347399 0.633556521510729 0.366443478489271 0.9103250357357224 0.08967496426427743 0.8597032061196581 0.1402967938803419 0.8412389590202998 0.15876104097970026 0.18049496764247464 0.8195050323575254 0.46880612612823913 0.5311938738717609 0.8260893535709877 0.1739106464290123 0.5895952050894746 0.41040479491052545 0.48886203949667717 0.5111379605033228 0.27309137841955416 0.7269086215804459 0.9465567385301635 0.05344326146983646 0.7609453303214774 0.23905466967852254 0.03490964432211437 0.9650903556778856 0.6675660878200864 0.3324339121799135 0.1389973385609296 0.8610026614390703 0.5484352269796808 0.4515647730203192 0.5091392188659446 0.4908607811340554 0.6435380081540998 0.35646199184590033 0.4510830556663056 0.5489169443336944 0.7167991866020782 0.28320081339792186 0.5464109939541639 0.4535890060458361 0.3977855266665524 0.6022144733334476 0.8134814756037404 0.18651852439625957 0.5871838257426406 0.4128161742573594 0.7019770267954647 0.29802297320453536 0.6083517340884597 0.3916482659115403 0.40706120402376583 0.5929387959762341 0.20871119156664242 0.7912888084333576 0.4007314796709462 0.5992685203290538 0.8279697943639202 0.1720302056360797 0.7722399786756156 0.22776002132438447 0.2828541056760664 0.7171458943239336 0.3489523861789277 0.6510476138210722 0.7180820380843781 0.2819179619156219 0.2881249237959006 0.7118750762040994 0.26375010813028527 0.7362498918697147 0.6892695065968523 0.3107304934031478 0.158197918814933 0.841802081185067 0.4777530921457593 0.5222469078542408 0.8420010371349259 0.15799896286507412 0.9563015360077821 0.04369846399221787 0.40952344630840126 0.5904765536915987 0.6045815775103618 0.3954184224896382 0.8836430053036523 0.1163569946963478 0.5263349832830478 0.4736650167169521 0.4453939668834348 0.5546060331165651 0.8827241366917424 0.11727586330825758 0.42989641198510387 0.570103588014896 0.6256791613933417 0.3743208386066583 0.5366569255381536 0.4633430744618464 0.5457479559343884 0.4542520440656115 0.5346130917404549 0.46538690825954515 0.6331191103801609 0.3668808896198391 0.3381510760896042 0.6618489239103958 0.41657636149098703 0.5834236385090129 0.4648354358205834 0.5351645641794166 0.4916504384938086 0.5083495615061914 </TABLE>
    </DEFINITION>
    <DEFINITION>
      <FOR>15</FOR>
      <GIVEN>2</GIVEN>
      <GIVEN>4</GIVEN>
      <GIVEN>9</GIVEN>
      <GIVEN>7</GIVEN>
      <GIVEN>8</GIVEN>
      <GIVEN>11</GIVEN>
      <GIVEN>14</GIVEN>
      <GIVEN>1</GIVEN>
      <GIVEN>3</GIVEN>
      <TABLE>0.5915255437202505 0.4084744562797495 0.5708548268547395 0.4291451731452604 0.6293429072454895 0.3706570927545104 0.3827325254007054 0.6172674745992945 0.9061877458507455 0.09381225414925448 0.5257330248420626 0.47426697515793736 0.6334447030390639 0.36655529696093614 0.3439559197819412 0.6560440802180588 0.7500457898469829 0.24995421015301703 0.4711625942074603 0.5288374057925397 0.5379462105287702 0.4620537894712297 0.5263184391727928 0.47368156082720736 0.2887366994129649 0.711263300587035 0.34528580510043316 0.6547141948995668 0.9957255002532488 0.004274499746751254 0.04489344678075144 0.9551065532192485 0.5518319776257513 0.4481680223742487 0.032206831632741656 0.9677931683672584 0.9391974981693657 0.06080250183063426 0.5997108847800297 0.40028911521997035 0.5830832871124734 0.41691671288752663 0.013122806003436616 0.9868771939965634 0.22269121860526886 0.7773087813947313 0.10516635414377136 0.8948336458562286 0.7841714964982384 0.21582850350176178 0.11171322925009293 0.888286770749907 0.7872253426476017 0.2127746573523982 0.8525386982388258 0.14746130176117422 0.24800171155762898 0.751998288442371 0.3417739259844453 0.6582260740155548 0.6768648367171538 0.3231351632828461 0.3529516235371192 0.6470483764628809 0.6583659203609064 0.34163407963909365 0.10804769125394002 0.89195230874606 0.5018154754469814 0.4981845245530186 0.7827941764866434 0.21720582351335666 0.22256284402208745 0.7774371559779125 0.6137326592694398 0.3862673407305604 0.2128154183238518 0.7871845816761481 0.39120047882301945 0.6087995211769804 0.6531224532090742 0.3468775467909259 0.5304848221357701 0.4695151778642299 0.2928700628304921 0.707129937169508 0.7987976442970832 0.2012023557029168 0.3874187736717856 0.6125812263282144 0.9133609054774088 0.08663909452259122 0.5773829468686669 0.42261705313133313 0.44009645841487494 0.559903541585125 0.5429209510084624 0.4570790489915376 0.45290869644341425 0.5470913035565858 0.36780218945614196 0.6321978105438582 0.9873510175528433 0.012648982447156685 0.7376743944932551 0.2623256055067449 0.8700711841261769 0.12992881587382304 0.4933740789070078 0.5066259210929922 0.3577151753301806 0.6422848246698194 0.42235105302122145 0.5776489469787786 0.3359239155131102 0.6640760844868898 0.5261295141614298 0.47387048583857017 0.3433341142474159 0.6566658857525842 0.23973363387155888 0.7602663661284411 0.6665860415110063 0.33341395848899363 0.09416175570081083 0.9058382442991891 0.40028272960269645 0.5997172703973036 0.8336591624365628 0.1663408375634372 0.004605713215445587 0.9953942867845544 0.9240435412958627 0.07595645870413724 0.28498681727333275 0.7150131827266673 0.9010752429704285 0.09892475702957154 0.7304900481372959 0.26950995186270416 0.6711340560609487 0.32886594393905133 0.5791266852345427 0.4208733147654572 0.45151801949363524 0.5484819805063649 0.5216178785896216 0.47838212141037834 0.6759232984002732 0.32407670159972674 0.4603538319198058 0.5396461680801943 0.5562585257351951 0.4437414742648049 0.19274166652771 0.80725833347229 0.9435202470231596 0.05647975297684039 0.5389346308686072 0.4610653691313928 0.41811791974959683 0.5818820802504031 0.37647497833521154 0.6235250216647885 0.2988141981236327 0.7011858018763673 0.5211693140141677 0.4788306859858323 0.30450329087309647 0.6954967091269035 0.6232821565734606 0.37671784342653936 0.4854260062571296 0.5145739937428704 0.7935258337417188 0.20647416625828122 0.1626596879818043 0.8373403120181958 0.38455661405630287 0.6154433859436972 0.37112035475499366 0.6288796452450063 0.6657637139575323 0.33423628604246763 0.5429378133933803 0.45706218660661974 0.6496245386257247 0.3503754613742754 0.3671555764431073 0.6328444235568927 0.8531944142917236 0.14680558570827643 0.4004517478186575 0.5995482521813426 0.977752720405991 0.022247279594008983 0.12394726076950831 0.8760527392304917 0.7128182267762048 0.2871817732237953 0.4877052476484936 0.5122947523515065 0.5229219834321353 0.47707801656786475 0.7877244962302037 0.2122755037697963 0.6785079857889245 0.3214920142110755 0.3131434612581689 0.6868565387418311 0.9871964998617637 0.01280350013823633 0.39252170869090247 0.6074782913090976 0.6695030786033639 0.3304969213966361 0.6540672371376478 0.3459327628623522 0.21021778558874096 0.7897822144112591 0.43829316574335675 0.5617068342566433 0.4952707448353273 0.5047292551646727 0.810120505431733 0.18987949456826705 0.6723833827481732 0.3276166172518268 0.026949155833389013 0.973050844166611 0.5163769974373686 0.48362300256263124 0.6859530087844876 0.31404699121551244 0.2926737434837394 0.7073262565162607 0.014801113193036284 0.9851988868069638 0.5008049984132078 0.4991950015867922 0.6115493776817521 0.388450622318248 0.8794264410473852 0.12057355895261478 0.4874476518983396 0.5125523481016604 0.5585074345755736 0.44149256542442644 0.35048621271611874 0.6495137872838813 0.8995119177643843 0.10048808223561563 0.4784947411591038 0.5215052588408962 0.1031820434619211 0.8968179565380789 0.43781482221477663 0.5621851777852234 0.7456183472979675 0.25438165270203245 0.5511429346054245 0.4488570653945755 0.6383655060002281 0.36163449399977193 0.46888496052647327 0.5311150394735268 0.5805685507227266 0.41943144927727344 0.4146576242111925 0.5853423757888074 0.41870102624968175 0.5812989737503182 0.4838133030258219 0.5161866969741782 0.991231370309669 0.008768629690330938 0.5565114138236902 0.44348858617630976 0.8204889965900704 0.17951100340992976 0.7512103325127962 0.24878966748720374 0.6277698633594857 0.37223013664051424 0.5351190215907599 0.4648809784092402 0.8983053102919006 0.10169468970809938 0.642241737781205 0.35775826221879503 0.28958971362508557 0.7104102863749144 0.9011411717876859 0.09885882821231409 0.13124437997006144 0.8687556200299386 0.625241322481412 0.37475867751858805 0.569842966577427 0.430157033422573 0.31464097593494167 0.6853590240650583 0.5787552687190982 0.4212447312809018 0.939464341158995 0.06053565884100497 0.5771622359897335 0.42283776401026657 0.5331554885214048 0.4668445114785951 0.78338983210502 0.21661016789498003 0.5933168927737208 0.40668310722627926 0.8080616583527768 0.19193834164722323 0.3394691103888217 0.6605308896111782 0.5790358381262585 0.4209641618737415 0.10782780803375769 0.8921721919662423 0.41405179166151335 0.5859482083384866 0.43117581577578606 0.568824184224214 0.5272875557069004 0.47271244429309944 0.133552767502514 0.866447232497486 0.47471504288211586 0.5252849571178841 0.7421797536976711 0.2578202463023289 0.19887546778055146 0.8011245322194486 0.10566199693695447 0.8943380030630456 0.6125776805252895 0.38742231947471045 0.5887137781747968 0.4112862218252032 0.5275235144886008 0.4724764855113992 0.6809113251484525 0.31908867485154746 0.7484664519345782 0.25153354806542183 0.35480961501996655 0.6451903849800333 0.6326388288349426 0.36736117116505734 0.5511297135264891 0.4488702864735109 0.565923557396494 0.434076442603506 0.7926213201539909 0.20737867984600925 0.2583084628854033 0.7416915371145967 0.5189794149161406 0.48102058508385936 0.26010260779842315 0.7398973922015768 0.22549356634459633 0.7745064336554036 0.9289669355316903 0.07103306446830973 0.057220149121688796 0.9427798508783112 0.5197942317570148 0.4802057682429852 0.9545306945475746 0.04546930545242541 0.17454858777550555 0.8254514122244945 0.3352955243710688 0.6647044756289312 0.516793390767899 0.483206609232101 0.7330416805893472 0.26695831941065284 0.18678601862389374 0.8132139813761062 0.3279542666449336 0.6720457333550663 0.44026363939727103 0.5597363606027289 0.4660205870109875 0.5339794129890125 0.5172352459953306 0.48276475400466945 0.491116842347116 0.5088831576528839 0.8482897331503101 0.15171026684968988 0.5708743347538962 0.42912566524610385 0.46118239513010617 0.5388176048698938 0.6533805015821788 0.34661949841782114 0.3377578754079564 0.6622421245920436 0.805438788214747 0.19456121178525285 0.8061585733652195 0.1938414266347805 0.13842633482264236 0.8615736651773578 0.4061094865478021 0.5938905134521979 0.30394627688525006 0.69605372311475 0.5677801686819414 0.4322198313180586 0.6804608558423917 0.31953914415760826 0.5136811611356629 0.4863188388643371 0.797475913573002 0.20252408642699798 0.09756946845452034 0.9024305315454797 0.8483900778895835 0.15160992211041646 0.3841652498746459 0.6158347501253542 0.6670392418935908 0.33296075810640935 0.48868401956742397 0.511315980432576 0.2615687330971033 0.7384312669028967 0.799296859540782 0.20070314045921805 0.6208311740217343 0.37916882597826573 0.3944169586872043 0.6055830413127957 0.3569213859415621 0.6430786140584378 0.10243364290477777 0.8975663570952221 0.45177787649094814 0.5482221235090519 0.26864501000564994 0.73135498999435 0.28061301715882003 0.71938698284118 0.22029342854731238 0.7797065714526876 0.4589256350121866 0.5410743649878134 0.4668880639259032 0.5331119360740968 0.5774737065413065 0.4225262934586935 0.0951105327320828 0.9048894672679172 0.5285342951817884 0.4714657048182116 0.7818641814428242 0.21813581855717584 0.2929155640415381 0.7070844359584618 0.5459193856417688 0.45408061435823105 0.306028474553825 0.693971525446175 0.1900030410111386 0.8099969589888615 0.3416896413314684 0.6583103586685316 0.7452352777954593 0.2547647222045407 0.3411304359022789 0.6588695640977211 0.7307749055764398 0.2692250944235603 0.5342991951942664 0.46570080480573367 0.2142310107448965 0.7857689892551035 0.05251883446231644 0.9474811655376836 0.8101223856745081 0.1898776143254918 0.6604733013617428 0.3395266986382573 0.5929113047969027 0.4070886952030973 0.49175362371234477 0.5082463762876552 0.07725689339371937 0.9227431066062807 0.2264306752965445 0.7735693247034555 0.0927687945513225 0.9072312054486775 0.5088822619436696 0.4911177380563304 0.4210316774697381 0.5789683225302619 0.8737326610547992 0.12626733894520079 0.1283984350779891 0.8716015649220109 0.8072822458491663 0.19271775415083384 0.8069089685880126 0.19309103141198733 0.7232534605802193 0.2767465394197808 0.6464871968504449 0.35351280314955513 0.8545773721755311 0.14542262782446894 0.42523135451255584 0.5747686454874442 0.2513528250383441 0.7486471749616559 0.39071551647160374 0.6092844835283963 0.4658243555816305 0.5341756444183694 0.7363565708802569 0.26364342911974314 0.4696830196460185 0.5303169803539816 0.413184399061242 0.5868156009387581 0.6855027126773021 0.3144972873226978 0.2300157799441195 0.7699842200558805 0.8256904545824122 0.17430954541758775 0.11930260726572818 0.8806973927342718 0.7885131878605739 0.2114868121394261 0.2636841277751886 0.7363158722248113 0.3939650425460376 0.6060349574539624 0.578432437897189 0.42156756210281093 0.0641172271312475 0.9358827728687525 0.7836371569963266 0.21636284300367326 0.42624813323494093 0.5737518667650591 0.6825447598072054 0.31745524019279464 0.2833125397475628 0.7166874602524371 0.21783059434475002 0.78216940565525 0.23142620377135084 0.7685737962286491 0.6429208006018791 0.3570791993981209 0.9020827109030605 0.09791728909693956 0.1973051193261665 0.8026948806738334 0.2311632438452115 0.7688367561547885 0.5817490317612355 0.4182509682387645 0.4477528111217516 0.5522471888782484 0.1829938339821979 0.8170061660178021 0.9131824268662574 0.0868175731337426 0.6308290885832512 0.369170911416749 0.563894727369774 0.43610527263022597 0.8122062839568763 0.1877937160431237 0.5098648160500597 0.4901351839499403 0.24805299082484047 0.7519470091751597 0.053243379385328804 0.9467566206146711 0.8056608275840155 0.19433917241598453 0.994675643823614 0.0053243561763860105 0.7623097442426076 0.23769025575739242 0.47594392415209574 0.5240560758479041 0.3144795497212633 0.6855204502787368 0.1714083896996486 0.8285916103003513 0.6222566069568785 0.3777433930431216 0.19652662647808358 0.8034733735219164 0.36574818047249685 0.6342518195275031 0.38866769119250333 0.6113323088074966 0.9513640125136497 0.048635987486350375 0.9218479453145305 0.07815205468546951 0.48279653716437976 0.5172034628356202 0.519258464418507 0.480741535581493 0.48126220429351363 0.5187377957064865 0.5855366632056171 0.4144633367943829 0.493980025914237 0.506019974085763 0.7277673533864596 0.27223264661354046 0.20953203898645992 0.7904679610135401 0.3246133140807442 0.6753866859192558 0.5269340214000291 0.4730659785999709 0.8923559763661862 0.10764402363381377 0.5964144672705012 0.4035855327294988 0.5803661649303015 0.4196338350696986 0.44914044355222293 0.5508595564477771 0.4688820964532085 0.5311179035467914 0.042547561247171656 0.9574524387528284 0.40727496785415424 0.5927250321458458 0.43441679813423334 0.5655832018657666 0.5741598245814541 0.42584017541854596 0.43555844932565824 0.5644415506743418 0.7855162735109836 0.21448372648901634 0.6222203362705869 0.377779663729413 0.3021631122360975 0.6978368877639025 0.4513923600120566 0.5486076399879434 0.8121396088995104 0.18786039110048947 0.9694405336917633 0.03055946630823667 0.9221151864280838 0.07788481357191626 0.5116815845533206 0.4883184154466794 0.5853643458938784 0.41463565410612147 0.3492452188297039 0.6507547811702962 0.09026253474426792 0.9097374652557321 0.3879341233467447 0.6120658766532554 0.06576165386489684 0.9342383461351031 0.7102521023212843 0.28974789767871567 0.5899695290005745 0.4100304709994255 0.41195688012773596 0.588043119872264 0.5339745169700754 0.4660254830299245 0.2328024091761115 0.7671975908238885 0.2955534032664553 0.7044465967335447 0.08240981840160103 0.9175901815983991 0.3493733077777154 0.6506266922222845 0.22560001480605982 0.77439998519394 0.4822934107500495 0.5177065892499505 0.4309368738623214 0.5690631261376785 0.6301946842200862 0.36980531577991377 0.8016697533873538 0.1983302466126462 0.35682588079676203 0.643174119203238 0.8064619905602171 0.19353800943978294 0.9584624631121227 0.04153753688787733 0.5421407378506677 0.45785926214933215 0.8534042406351836 0.14659575936481642 0.5399112348670977 0.46008876513290226 0.5188418811081866 0.4811581188918133 0.9725025412701798 0.027497458729820255 0.6416732883992718 0.35832671160072815 0.6184054267662177 0.38159457323378226 0.608391123672093 0.39160887632790703 0.6541193119264651 0.34588068807353495 0.23100113218755408 0.768998867812446 0.15430473277031428 0.8456952672296857 0.3768421579848995 0.6231578420151005 0.6907978194143332 0.3092021805856669 0.4189981494236719 0.581001850576328 0.5230493691347009 0.47695063086529904 0.2433900172867716 0.7566099827132285 0.9959218466229702 0.0040781533770298 0.5061879895175928 0.49381201048240725 0.2717958359947619 0.7282041640052381 0.9295985491766081 0.07040145082339189 0.6349851348660385 0.3650148651339616 0.48695434428442996 0.5130456557155699 0.18946403571578907 0.8105359642842108 0.7024100837088026 0.2975899162911974 0.289901683270024 0.710098316729976 0.9111419661811022 0.08885803381889773 0.5025346313630034 0.4974653686369966 0.5848214916148976 0.41517850838510234 0.47818359140895866 0.5218164085910413 0.2831513339919456 0.7168486660080544 0.48547307472944773 0.5145269252705522 0.38325518016876775 0.6167448198312322 0.5491898213741867 0.45081017862581324 0.5675455135279813 0.4324544864720187 0.01625709246014555 0.9837429075398545 0.34671375230829937 0.6532862476917006 0.353269847834483 0.646730152165517 0.4416117956572679 0.5583882043427322 0.5191304959835605 0.48086950401643946 0.8262439088854685 0.17375609111453152 0.4691850592330562 0.5308149407669438 0.37068843075836283 0.6293115692416372 0.220615987546854 0.779384012453146 0.5949860230288238 0.4050139769711762 0.6388800629209862 0.36111993707901374 0.40910230780954804 0.590897692190452 0.20743971936609204 0.7925602806339079 0.23866872481241605 0.7613312751875839 0.664832936455573 0.335167063544427 0.7478308584929597 0.2521691415070402 0.394519806587128 0.605480193412872 0.445403635514866 0.554596364485134 0.780388544175848 0.21961145582415192 0.8537880839627128 0.1462119160372872 0.2297025674892209 0.7702974325107791 0.595235183793199 0.40476481620680094 0.061496516109799684 0.9385034838902002 0.7008799776573553 0.2991200223426447 0.1119508943378883 0.8880491056621117 0.2997390410441142 0.7002609589558858 0.4673828253590547 0.5326171746409453 0.5179456088430835 0.48205439115691656 0.5096933906928811 0.49030660930711895 0.9681090078671399 0.03189099213286011 0.43179919432677477 0.5682008056732252 0.44067103202032554 0.5593289679796746 0.38069313985949915 0.6193068601405008 0.17564272007441528 0.8243572799255847 0.6459779197796073 0.35402208022039267 0.8727258223398192 0.1272741776601808 0.4297618498290265 0.5702381501709736 0.6736445512453854 0.3263554487546146 0.5189656245244426 0.48103437547555733 0.5323121736029546 0.46768782639704554 0.49575582837997956 0.5042441716200203 0.789290142677666 0.21070985732233408 0.4715863590411967 0.5284136409588034 0.3303022828280021 0.6696977171719979 0.36677420852517384 0.6332257914748262 0.08408396995927075 0.9159160300407293 0.5920742546046883 0.4079257453953117 0.23637240210541924 0.7636275978945808 0.9260125588700003 0.07398744112999969 0.4664257195323527 0.5335742804676473 0.6085946573858544 0.3914053426141456 0.4516816234215893 0.5483183765784106 0.778707209030474 0.22129279096952598 0.7206976440381799 0.27930235596182 0.28089949006621867 0.7191005099337813 0.16130016527050633 0.8386998347294937 0.1827992229478276 0.8172007770521723 0.10828238383111904 0.891717616168881 0.4778072183030075 0.5221927816969925 0.49439539618559136 0.5056046038144087 0.5359369454018128 0.46406305459818725 0.03525279462670821 0.9647472053732918 0.3151907715559439 0.6848092284440561 0.37431777417731193 0.6256822258226881 0.4032050427258427 0.5967949572741573 0.58411796508184 0.41588203491816006 0.4905801458276419 0.5094198541723581 0.3701147742601794 0.6298852257398206 0.019797018235010528 0.9802029817649894 0.408593217832831 0.5914067821671689 0.056205665477183614 0.9437943345228165 0.9571935907939296 0.04280640920607038 0.7866414695223749 0.21335853047762515 0.8932185475530675 0.10678145244693245 0.826540186492757 0.17345981350724318 0.6118253543094355 0.3881746456905645 0.16549201976027814 0.8345079802397218 0.6381956430180279 0.36180435698197216 0.17115370668282215 0.8288462933171779 0.21670367746358282 0.7832963225364172 0.3691180658922483 0.6308819341077516 0.9930663860090725 0.006933613990927541 0.4750023698435616 0.5249976301564384 0.4673420566525238 0.5326579433474761 0.44194268610973086 0.5580573138902691 0.5311064804768152 0.46889351952318475 0.8017578433623544 0.1982421566376457 0.36740541090827167 0.6325945890917283 0.1355534042923151 0.8644465957076849 0.841614749177747 0.158385250822253 0.2579426873336599 0.7420573126663401 0.22201773858374632 0.7779822614162536 0.9369230105230765 0.06307698947692358 0.641989756323247 0.358010243676753 0.6470405706618787 0.35295942933812136 0.56548333113488 0.43451666886512 0.49060426976771526 0.5093957302322848 0.6029635040797963 0.39703649592020385 0.7120346966728751 0.28796530332712483 0.8811223980535658 0.11887760194643417 0.5827084905378664 0.4172915094621337 0.3954917064859816 0.6045082935140184 0.47876480153462164 0.5212351984653784 0.05650583357534717 0.9434941664246528 0.22585639270858007 0.77414360729142 0.5648827636489102 0.43511723635108984 0.20793068097410178 0.7920693190258983 0.6007347264441221 0.3992652735558779 0.24041919332800288 0.7595808066719971 0.09174072057068157 0.9082592794293184 0.5769076414387624 0.42309235856123767 0.30145394261613323 0.6985460573838668 0.37135595830302665 0.6286440416969733 0.766217253913281 0.23378274608671906 0.760642765763564 0.239357234236436 0.5530034494827347 0.4469965505172652 0.28413060468028534 0.7158693953197147 0.5946852984176219 0.40531470158237803 0.5131449546315934 0.4868550453684066 0.6869689649572328 0.3130310350427672 0.8750314674083511 0.12496853259164889 0.4656839467853284 0.5343160532146717 0.4595434733357355 0.5404565266642646 </TABLE>
    </DEFINITION>
    <DEFINITION>
      <FOR>16</FOR>
      <GIVEN>2</GIVEN>
      <GIVEN>6</GIVEN>
      <GIVEN>9</GIVEN>
      <GIVEN>5</GIVEN>
      <GIVEN>11</GIVEN>
      <GIVEN>12</GIVEN>
      <GIVEN>14</GIVEN>
      <TABLE>0.6235681472154263 0.37643185278457364 0.41438935192589504 0.5856106480741049 0.6116165034873512 0.38838349651264886 0.21301751328406474 0.7869824867159353 0.82876100016956 0.17123899983043997 0.3758194724802705 0.6241805275197295 0.471354695519547 0.528645304480453 0.9539536296483125 0.04604637035168745 0.5811614933248103 0.41883850667518974 0.7912524898442653 0.20874751015573476 0.6348843683619798 0.3651156316380202 0.02139457113597113 0.9786054288640289 0.32869982880622955 0.6713001711937704 0.5762539366912225 0.4237460633087774 0.4541749262510009 0.5458250737489991 0.5080782928898538 0.49192170711014616 0.06671134370151764 0.9332886562984823 0.45509755354027337 0.5449024464597265 0.09097567683853906 0.909024323161461 0.4571434161370422 0.5428565838629578 0.36268061478569935 0.6373193852143006 0.20731099085498642 0.7926890091450137 0.381626173114131 0.618373826885869 0.6885462709991157 0.31145372900088436 0.8254466462101745 0.17455335378982556 0.6539828132480678 0.34601718675193216 0.6249206022236735 0.3750793977763264 0.6654698865233922 0.3345301134766077 0.020326008540815465 0.9796739914591845 0.677993294476266 0.32200670552373406 0.5364342816784796 0.46356571832152044 0.2332057794314327 0.7667942205685673 0.6577935375817797 0.3422064624182203 0.6148177330767807 0.38518226692321933 0.4960173684048089 0.5039826315951911 0.5971369044765786 0.40286309552342137 0.7592366084396771 0.24076339156032292 0.829569132140087 0.17043086785991307 0.3788105131586184 0.6211894868413816 0.5298422232636887 0.4701577767363113 0.45914645141187926 0.5408535485881207 0.8182694850178202 0.1817305149821799 0.4714934362189097 0.5285065637810904 0.9217670189734736 0.07823298102652641 0.34188863288096993 0.6581113671190301 0.39555661884091103 0.6044433811590891 0.3420074071157498 0.6579925928842503 0.34798647292398693 0.6520135270760131 0.19554217933330514 0.8044578206666948 0.21600522723827612 0.7839947727617239 0.9193903399740252 0.08060966002597479 0.4623289244037961 0.537671075596204 0.36589349595904946 0.6341065040409505 0.38589184361542817 0.6141081563845718 0.46614865053089355 0.5338513494691065 0.40184593965282894 0.5981540603471709 0.29167019598728733 0.7083298040127126 0.5894717503162133 0.41052824968378665 0.4415684987967442 0.5584315012032558 0.409986869864489 0.5900131301355109 0.6186943257345947 0.3813056742654052 0.6727450193407397 0.32725498065926023 0.05852446150194464 0.9414755384980553 0.714664294692097 0.2853357053079029 0.48172866383394575 0.5182713361660543 0.1899501157926533 0.8100498842073467 0.03699256653671626 0.9630074334632838 0.4106718288854003 0.5893281711145997 0.3813473138113121 0.618652686188688 0.3709501385255774 0.6290498614744225 0.6452290792536831 0.35477092074631683 0.9993950725187435 0.0006049274812565526 0.6021820429854137 0.39781795701458633 0.9015076377940037 0.09849236220599634 0.9645037961721609 0.03549620382783908 0.2562170790740865 0.7437829209259136 0.6161960929078173 0.38380390709218265 0.9213314887827708 0.07866851121722919 0.9745126459128532 0.025487354087146728 0.8072607157753355 0.19273928422466444 0.21063801674945626 0.7893619832505437 0.22800342791267664 0.7719965720873233 0.6041037405347796 0.39589625946522045 0.10115095800618855 0.8988490419938114 0.4273463532619781 0.5726536467380219 0.622853642739677 0.377146357260323 0.8184263096126845 0.18157369038731555 0.24916060426148706 0.750839395738513 0.6929888973356491 0.3070111026643509 0.9938307918596551 0.006169208140344979 0.5937738291513813 0.4062261708486187 0.7748640575932869 0.22513594240671309 0.3351965763747639 0.6648034236252361 0.3087096041330292 0.6912903958669708 0.5559584984386219 0.444041501561378 0.530913604769971 0.469086395230029 0.37993926539304945 0.6200607346069504 0.6853876790145016 0.3146123209854984 0.629051143858166 0.370948856141834 0.6327946763556512 0.3672053236443487 0.16327937516625832 0.8367206248337417 0.1389196698238428 0.8610803301761571 0.2219353297518777 0.7780646702481223 0.14906761240345096 0.8509323875965492 0.15581137384877022 0.8441886261512298 0.7382067879188651 0.26179321208113493 0.8423926152914015 0.15760738470859847 0.37811425397500675 0.6218857460249932 0.7942471240684317 0.2057528759315682 0.04861263837103324 0.9513873616289668 0.5466982429937787 0.4533017570062214 0.3646824231263748 0.6353175768736252 0.6166557391100315 0.3833442608899684 0.31041397938435444 0.6895860206156457 0.014379551698452377 0.9856204483015475 0.10212944655346617 0.8978705534465338 0.18604634574307755 0.8139536542569223 0.4610906523523699 0.5389093476476301 0.6488112077915561 0.35118879220844396 0.6020438028669068 0.39795619713309316 0.9809062906451654 0.019093709354834565 0.7193201733246942 0.2806798266753058 0.5308483859090234 0.46915161409097667 0.48472656297892236 0.5152734370210776 0.43731578043003577 0.5626842195699643 0.9192144285174811 0.08078557148251889 0.9580282188623495 0.04197178113765051 0.24847788170112833 0.7515221182988716 </TABLE>
    </DEFINITION>
    <DEFINITION>
      <FOR>17</FOR>
      <GIVEN>0</GIVEN>
      <GIVEN>2</GIVEN>
      <GIVEN>4</GIVEN>
      <GIVEN>6</GIVEN>
      <GIVEN>9</GIVEN>
      <GIVEN>7</GIVEN>
      <GIVEN>8</GIVEN>
      <GIVEN>11</GIVEN>
      <GIVEN>16</GIVEN>
      <GIVEN>3</GIVEN>
      <TABLE>0.5282686279616209 0.47173137203837906 0.4239500626628418 0.5760499373371584 0.9884764139602304 0.011523586039769535 0.389631878751154 0.6103681212488459 0.2790977686516386 0.7209022313483614 0.4517751976236088 0.5482248023763913 0.3588990574523399 0.64110094254766 0.4099019460750571 0.590098053924943 0.41784906239501807 0.5821509376049818 0.445780799777124 0.5542192002228761 0.2869399080700899 0.71306009192991 0.47077343239111497 0.5292265676088851 0.5164470975118124 0.48355290248818755 0.2803710400987155 0.7196289599012845 0.4886770840087599 0.51132291599124 0.3754893448686627 0.6245106551313373 0.4641485975960159 0.5358514024039842 0.9306359322606181 0.06936406773938188 0.9502080931984618 0.049791906801538215 0.39299181981837294 0.607008180181627 0.29874741100818275 0.7012525889918172 0.5071644789280588 0.4928355210719412 0.4718720383183102 0.5281279616816897 0.04412710556163681 0.9558728944383632 0.4032622868216559 0.5967377131783441 0.7417146045494178 0.25828539545058216 0.2789961466527517 0.7210038533472484 0.8537039144625763 0.1462960855374237 0.6812873103430036 0.31871268965699634 0.05134418330074545 0.9486558166992546 0.5816087368939803 0.41839126310601976 0.33454163351861155 0.6654583664813885 0.11320424191266469 0.8867957580873354 0.6601929280902138 0.3398070719097862 0.5844659165150736 0.4155340834849264 0.21841446379240453 0.7815855362075954 0.48247927343937463 0.5175207265606253 0.8771941093404616 0.1228058906595384 0.019307141953905472 0.9806928580460945 0.37697303326221765 0.6230269667377824 0.3998079864401344 0.6001920135598656 0.38436313041301995 0.61563686958698 0.3675585107872581 0.6324414892127418 0.495393365032561 0.5046066349674391 0.3227067444089444 0.6772932555910556 0.1118857260748207 0.8881142739251793 0.25638726651117777 0.7436127334888223 0.7395739921339953 0.26042600786600467 0.5952093966717614 0.40479060332823846 0.4127881389435933 0.5872118610564068 0.7404080180776268 0.25959198192237326 0.499498858823298 0.500501141176702 0.3035443125779986 0.6964556874220015 0.11855615395693447 0.8814438460430655 0.6246816372138616 0.37531836278613834 0.5684443946698123 0.4315556053301876 0.5668627216271671 0.4331372783728329 0.24492497067993857 0.7550750293200615 0.8237524424602353 0.1762475575397648 0.2709003420399762 0.7290996579600237 0.39426145164812976 0.6057385483518702 0.6813969480818513 0.31860305191814875 0.47477108186198375 0.5252289181380163 0.535717549127834 0.46428245087216596 0.4565481305927828 0.5434518694072172 0.7190888270583999 0.2809111729416 0.501451098707722 0.49854890129227797 0.3128209777257097 0.6871790222742903 0.6537511543978246 0.3462488456021755 0.42177847914057626 0.5782215208594238 0.34030272083349083 0.6596972791665092 0.4670676202037561 0.5329323797962439 0.41303318228398866 0.5869668177160113 0.4913754243858711 0.5086245756141289 0.09333054426923403 0.906669455730766 0.6170140754200325 0.38298592457996755 0.2194817974220921 0.7805182025779079 0.6368770502723959 0.36312294972760406 0.9013434317561635 0.09865656824383648 0.595453954529573 0.4045460454704271 0.2968597357295212 0.7031402642704788 0.03634024535764205 0.963659754642358 0.5331976233827798 0.46680237661722024 0.5392886157279128 0.4607113842720873 0.5382669522925886 0.4617330477074114 0.22486742236353252 0.7751325776364675 0.0659630349211753 0.9340369650788247 0.6510570262085892 0.3489429737914108 0.19570727583124778 0.8042927241687522 0.3430323073335395 0.6569676926664604 0.5327726077207967 0.46722739227920324 0.984457627763273 0.015542372236727088 0.7842513375638593 0.21574866243614066 0.8141717497813505 0.1858282502186494 0.15549024168994519 0.8445097583100548 0.7004375522748205 0.29956244772517954 0.3049549960222878 0.6950450039777121 0.6800817829610902 0.3199182170389097 0.6141597476002049 0.38584025239979525 0.12518814159242161 0.8748118584075784 0.06923934464554257 0.9307606553544574 0.6660091441437682 0.3339908558562318 0.5878590393393407 0.41214096066065925 0.6627297054217441 0.3372702945782558 0.7246397051263791 0.27536029487362096 0.6881303356293493 0.31186966437065067 0.647250412156968 0.3527495878430321 0.6694565203351279 0.33054347966487213 0.17768551248757347 0.8223144875124265 0.4769886304005814 0.5230113695994185 0.5262430507874136 0.4737569492125863 0.3022806631951597 0.6977193368048402 0.39126682938443763 0.6087331706155624 0.45894072908357453 0.5410592709164256 0.2090412254103972 0.7909587745896028 0.3139872416369468 0.6860127583630532 0.612580649429217 0.387419350570783 0.5173736796419985 0.4826263203580015 0.8834899035645705 0.11651009643542952 0.048714289997399664 0.9512857100026003 0.15229902652167934 0.8477009734783206 0.7261095803492192 0.2738904196507807 0.4069483106296594 0.5930516893703407 0.24668123100480854 0.7533187689951916 0.4858896950702489 0.5141103049297511 0.07881158733623421 0.9211884126637659 0.5881342210715396 0.41186577892846044 0.34013353028567433 0.6598664697143256 0.7652860555740529 0.23471394442594706 0.582770898100217 0.41722910189978296 0.4560891854118184 0.5439108145881817 0.1530141972859139 0.8469858027140861 0.5323787014691402 0.46762129853085976 0.6225803084621905 0.3774196915378097 0.4174402835236293 0.5825597164763708 0.6328523044293143 0.3671476955706857 0.3198756899150261 0.6801243100849739 0.45171825697475165 0.5482817430252482 0.46717682712585723 0.5328231728741427 0.2641893083931981 0.7358106916068019 0.27877500625588564 0.7212249937441144 0.603637152987018 0.39636284701298197 0.73149507198809 0.26850492801190984 0.5520572255137338 0.4479427744862663 0.13165881698305074 0.8683411830169493 0.656678374121591 0.34332162587840903 0.6409650841717844 0.3590349158282155 0.4710910812738725 0.5289089187261273 0.4909921148511804 0.5090078851488197 0.2603313571471973 0.7396686428528028 0.7254313303668051 0.274568669633195 0.4903523788947453 0.5096476211052547 0.40114715821777475 0.5988528417822253 0.7128584203242898 0.28714157967571025 0.7438522104317008 0.25614778956829914 0.24618647258233495 0.753813527417665 0.7188405441422687 0.2811594558577312 0.45340959571145906 0.546590404288541 0.6775310505369319 0.32246894946306814 0.713164725962694 0.28683527403730613 0.6324663753222414 0.3675336246777586 0.01181855548407327 0.9881814445159267 0.5610022961147557 0.43899770388524434 0.5170161081846504 0.4829838918153498 0.2705087448723297 0.7294912551276703 0.2983242588984934 0.7016757411015067 0.4004820430826086 0.5995179569173914 0.5925424898768935 0.40745751012310655 0.4267069718329262 0.5732930281670737 0.21571668877536324 0.7842833112246368 0.9745854022150271 0.025414597784972928 0.4284837984953593 0.5715162015046408 0.4061946491479569 0.5938053508520432 0.9310349412263345 0.06896505877366552 0.5761287017090875 0.4238712982909125 0.7316949139298831 0.2683050860701169 0.242045702703818 0.7579542972961821 0.7800648585917659 0.2199351414082341 0.5944066664665121 0.4055933335334879 0.09468052759279523 0.9053194724072048 0.11784914413910427 0.8821508558608957 0.6988264983647035 0.3011735016352966 0.4199879473334366 0.5800120526665634 0.4453226445192544 0.5546773554807456 0.564716028472415 0.4352839715275851 0.5304004280113526 0.4695995719886475 0.22754050935327064 0.7724594906467294 0.9251519790032833 0.07484802099671675 0.6541668314486198 0.34583316855138013 0.6232323134627878 0.37676768653721215 0.3526112405255274 0.6473887594744727 0.9134218442478029 0.08657815575219706 0.4875435989635331 0.5124564010364668 0.8647620365431887 0.1352379634568113 0.36474642379716593 0.635253576202834 0.5452806997307024 0.4547193002692976 0.4306222769821082 0.5693777230178918 0.2649248060493836 0.7350751939506164 0.5434664684519005 0.45653353154809945 0.9698597707375052 0.03014022926249485 0.482882800756532 0.517117199243468 0.7086187516863477 0.29138124831365236 0.5927568496572151 0.40724315034278485 0.7848092895093209 0.21519071049067895 0.26107906847364765 0.7389209315263523 0.4829433273003652 0.5170566726996347 0.06281494729303964 0.9371850527069604 0.7447136910855767 0.2552863089144232 0.24973669574031485 0.750263304259685 0.370298110999767 0.629701889000233 0.7184802723560924 0.28151972764390776 0.5526857573001036 0.44731424269989634 0.5854903590753927 0.4145096409246074 0.6743573176566342 0.3256426823433658 0.413878234998455 0.586121765001545 0.6124271388328449 0.387572861167155 0.3486660461437829 0.651333953856217 0.6508959544169307 0.34910404558306923 0.3339901543155704 0.6660098456844296 0.44725305597021264 0.5527469440297874 0.4814013592770275 0.5185986407229726 0.42454870298899927 0.5754512970110008 0.2637275718917396 0.7362724281082603 0.36315031976320417 0.6368496802367958 0.8984116937715104 0.10158830622848963 0.6685176272481077 0.33148237275189224 0.4539582149766084 0.5460417850233916 0.15974231311827403 0.8402576868817261 0.5663056145734963 0.43369438542650374 0.5686875496518692 0.43131245034813076 0.30357819955552023 0.6964218004444798 0.9442735959077402 0.05572640409225987 0.7558783766204158 0.24412162337958415 0.6712268932589619 0.328773106741038 0.764898184525047 0.23510181547495312 0.6514885749158538 0.34851142508414623 0.5580407836994015 0.4419592163005986 0.36577169929703884 0.6342283007029611 0.495079793459516 0.5049202065404841 0.9245210332141551 0.07547896678584486 0.39406070071506766 0.6059392992849323 0.15151194114329009 0.8484880588567099 0.7809309867191785 0.21906901328082148 0.2597287802195767 0.7402712197804233 0.581514705150894 0.418485294849106 0.3835370410598591 0.6164629589401409 0.5895297393589678 0.4104702606410322 0.5169793805297697 0.48302061947023023 0.26504391978085806 0.7349560802191419 0.5728483949755302 0.42715160502446975 0.006213569036240405 0.9937864309637596 0.6536505510889914 0.34634944891100866 0.5971111247830143 0.4028888752169858 0.32518156773809503 0.674818432261905 0.298811799250735 0.701188200749265 0.6852822499322242 0.3147177500677758 0.49838597584365985 0.5016140241563403 0.16017474037015197 0.839825259629848 0.1576909630775847 0.8423090369224153 0.43671057673232794 0.563289423267672 0.5615648289648507 0.43843517103514923 0.27957289570811605 0.720427104291884 0.5628244022204038 0.43717559777959625 0.8229802350884962 0.17701976491150387 0.37001748706770005 0.6299825129322999 0.9309864727162092 0.06901352728379079 0.7141119124408325 0.28588808755916745 0.5368802650944804 0.4631197349055196 0.33076757286275343 0.6692324271372465 0.3873708842639134 0.6126291157360866 0.4355042076870295 0.5644957923129705 0.6429257251248135 0.3570742748751865 0.28469665469301075 0.7153033453069891 0.7699468792633147 0.2300531207366853 0.7462030324607446 0.2537969675392553 0.7968645820052289 0.20313541799477106 0.39582176178561007 0.60417823821439 0.19616160720244347 0.8038383927975565 0.6130382549890272 0.3869617450109728 0.4958496298408701 0.5041503701591299 0.6337723744989406 0.3662276255010594 0.9094098250087521 0.09059017499124787 0.822212405619626 0.17778759438037406 0.8756485423870065 0.12435145761299356 0.5082810923899457 0.49171890761005443 0.9989273356241756 0.0010726643758244574 0.363649990118916 0.636350009881084 0.14873041217906174 0.8512695878209382 0.6912379003474196 0.30876209965258045 0.4190082676208599 0.58099173237914 0.5456281634999176 0.4543718365000824 0.4452565997340555 0.5547434002659445 0.7650245451061596 0.2349754548938404 0.9362660558194551 0.06373394418054486 0.5636907269527476 0.43630927304725237 0.5771609069856359 0.42283909301436406 0.7813169275185533 0.21868307248144675 0.24731249144307388 0.7526875085569261 0.7462488070771817 0.2537511929228184 0.8710620144923307 0.12893798550766927 0.6442207703364979 0.35577922966350206 0.25002876972439797 0.749971230275602 0.11599894095642754 0.8840010590435724 0.411468579344976 0.5885314206550241 0.08366078464454811 0.9163392153554519 0.7887736660388311 0.2112263339611688 0.2574440628191418 0.7425559371808582 0.059566180230431934 0.9404338197695681 0.8385843073344799 0.16141569266552014 0.40358102435544135 0.5964189756445586 0.3509708112093945 0.6490291887906054 0.44365631175202924 0.5563436882479708 0.5483257800077229 0.4516742199922771 0.6315811877520288 0.3684188122479712 0.8526426065785402 0.14735739342145976 0.6181256908242153 0.3818743091757847 0.13796972587964076 0.8620302741203593 0.746402852907136 0.253597147092864 0.16476420544731346 0.8352357945526865 0.9449926007129178 0.05500739928708217 0.7633388509495084 0.2366611490504916 0.7719656121941547 0.22803438780584534 0.963231459048597 0.03676854095140306 0.5368692520308723 0.46313074796912773 0.5305133718783788 0.4694866281216213 0.7833495191475506 0.21665048085244937 0.5692778672832178 0.4307221327167821 0.24378593864721995 0.75621406135278 0.6970771170846072 0.3029228829153928 0.6810350935473852 0.31896490645261466 0.5971836063431625 0.40281639365683763 0.5487953748227973 0.4512046251772026 0.8434618326655281 0.156538167334472 0.52675899256422 0.47324100743577996 0.05972923463313317 0.9402707653668668 0.2886508719013707 0.7113491280986294 0.09022667224114377 0.9097733277588562 0.9112065535708311 0.08879344642916888 0.32399502115330003 0.6760049788467 0.11976157461350202 0.8802384253864981 0.9293384286737988 0.07066157132620125 0.5869143030871121 0.4130856969128878 0.7747679135024796 0.22523208649752036 0.7914701684650554 0.20852983153494462 0.4791679216206518 0.5208320783793482 0.12406207254071448 0.8759379274592856 0.23113358107402612 0.7688664189259738 0.31517472087636883 0.6848252791236311 0.4659928786256928 0.5340071213743072 0.6872000229792127 0.3127999770207873 0.5303989331094333 0.46960106689056663 0.3656785381471261 0.6343214618528739 0.8524214947902194 0.14757850520978064 0.6368004827891709 0.36319951721082905 0.8930824742224746 0.10691752577752553 0.5994788596445398 0.4005211403554601 0.45015948817962687 0.5498405118203732 0.8152883066664653 0.18471169333353463 0.6479346255622548 0.3520653744377452 0.3628546421926958 0.6371453578073042 0.28589638127190625 0.7141036187280938 0.6119889199947028 0.38801108000529716 0.7303288897498513 0.2696711102501486 0.30089976820405684 0.6991002317959432 0.050753074941748896 0.9492469250582511 0.37773350712254533 0.6222664928774546 0.9953504597460542 0.0046495402539458 0.4974258026874487 0.5025741973125514 0.07254736192782836 0.9274526380721716 0.7702043543876748 0.22979564561232524 0.8346111257157292 0.1653888742842709 0.10786043368272304 0.892139566317277 0.779568040937635 0.22043195906236507 0.07453095121956249 0.9254690487804376 0.3369716080247274 0.6630283919752724 0.4254324416557346 0.5745675583442653 0.33649770005022955 0.6635022999497704 0.8190857962061107 0.18091420379388937 0.43719830227534684 0.562801697724653 0.9025656380603357 0.09743436193966422 0.5174622129333587 0.48253778706664135 0.6787049928861016 0.32129500711389836 0.3156091372882029 0.6843908627117972 0.48871680595017286 0.5112831940498272 0.7620958401255258 0.23790415987447422 0.45720431273949175 0.5427956872605083 0.020768545283920692 0.9792314547160793 0.012117643228573529 0.9878823567714264 0.4925313534116851 0.5074686465883149 0.42466114457212184 0.5753388554278782 0.08169438046864513 0.9183056195313548 0.5240739758554545 0.4759260241445456 0.5531434409268869 0.4468565590731131 0.49558213116798655 0.5044178688320136 0.667712039160319 0.33228796083968104 0.7331027845272484 0.26689721547275164 0.11797759127817016 0.8820224087218298 0.5179500428503311 0.482049957149669 0.34395608543734524 0.6560439145626548 0.8141843151591526 0.18581568484084743 0.6637216424540747 0.3362783575459252 0.8207917347576222 0.17920826524237773 0.4675746292729988 0.5324253707270011 0.2377844564710141 0.7622155435289859 0.31563943784352627 0.6843605621564738 0.7722040156132592 0.22779598438674073 0.043082293969927944 0.9569177060300721 0.7343093364452595 0.26569066355474047 0.5254322553804613 0.4745677446195386 0.8007025032603065 0.19929749673969352 0.40229055129055663 0.5977094487094434 0.3789486831554688 0.6210513168445313 0.2579453306082023 0.7420546693917978 0.6319548393303616 0.3680451606696385 0.7750914321484315 0.22490856785156857 0.6012443785147268 0.3987556214852732 0.4744513073324475 0.5255486926675526 0.5311893925542787 0.46881060744572134 0.4385289668684706 0.5614710331315295 0.00819310532275805 0.9918068946772419 0.057429426979038 0.9425705730209619 0.4776660781938536 0.5223339218061464 0.7648975594347805 0.23510244056521956 0.5202939270625317 0.47970607293746814 0.21477710279183593 0.7852228972081641 0.7092632073168733 0.2907367926831267 0.16419316857948502 0.8358068314205149 0.36382182446885647 0.6361781755311435 0.4546667511596608 0.5453332488403392 0.12586349938992653 0.8741365006100735 0.49215848033067044 0.5078415196693296 0.5146274542989633 0.48537254570103666 0.48067110567152 0.51932889432848 0.41411122887550994 0.58588877112449 0.8234471096892094 0.17655289031079052 0.5898285769049919 0.4101714230950082 0.42212762729869274 0.5778723727013074 0.8119560791845211 0.1880439208154789 0.6963423249635856 0.3036576750364144 0.49593727453487113 0.5040627254651288 0.511448103222525 0.48855189677747496 0.555531097812962 0.44446890218703794 0.5767166775476481 0.42328332245235184 0.5652517249221575 0.4347482750778425 0.8181537411928188 0.18184625880718122 0.487362141110827 0.512637858889173 0.6271388003009786 0.3728611996990215 0.39401399488430905 0.605986005115691 0.9138800572503418 0.08611994274965816 0.8243233788269516 0.1756766211730484 0.10183597939474343 0.8981640206052566 0.28172573472685863 0.7182742652731414 0.616551029856649 0.383448970143351 0.4645329704370047 0.5354670295629953 0.6520398606034852 0.3479601393965149 0.5002418975568971 0.499758102443103 0.8980473197208874 0.10195268027911263 0.5901507046312638 0.40984929536873616 0.40747327372288294 0.592526726277117 0.33406386196996374 0.6659361380300363 0.9403179991543614 0.0596820008456386 0.52128845661369 0.47871154338630995 0.17249739076054332 0.8275026092394566 0.7216853056808864 0.27831469431911354 0.507823084106002 0.492176915893998 0.7241021373784373 0.2758978626215628 0.4474724654211904 0.5525275345788095 0.19958173126061016 0.8004182687393897 0.9517354692419805 0.04826453075801952 0.7902894901939018 0.20971050980609812 0.2960421818470408 0.7039578181529593 0.5827246025703059 0.41727539742969416 0.611498046021006 0.388501953978994 0.47360431672408027 0.5263956832759197 0.41658193194497417 0.5834180680550258 0.9927820865930492 0.0072179134069507616 0.423712759663008 0.576287240336992 0.6547496527514894 0.34525034724851056 0.4595949601909664 0.5404050398090335 0.6162673834871484 0.3837326165128517 0.7139892547595251 0.28601074524047493 0.39080412754038163 0.6091958724596184 0.5940727049420534 0.40592729505794645 0.21350974285345117 0.7864902571465489 0.7473282186367162 0.2526717813632839 0.5370211857948827 0.46297881420511733 0.5440178230776256 0.45598217692237436 0.9130532076078299 0.08694679239217012 0.42173860962066384 0.5782613903793361 0.1402270166627496 0.8597729833372504 0.6521749153257624 0.34782508467423773 0.2518398476775866 0.7481601523224134 0.4834024179407613 0.5165975820592387 0.6641789346798311 0.3358210653201689 0.41342371137714745 0.5865762886228526 0.06400702772052512 0.9359929722794749 0.6606229503533464 0.3393770496466536 0.6001432168432504 0.3998567831567495 0.7212203840419114 0.2787796159580888 0.024375114200276465 0.9756248857997235 0.759385747745762 0.24061425225423808 0.6178981903958889 0.38210180960411116 0.6724496368132397 0.32755036318676023 0.5606322376155327 0.4393677623844673 0.46024577088363233 0.5397542291163676 0.6001209625818525 0.39987903741814745 0.2981335632098733 0.7018664367901267 0.4229858770113909 0.5770141229886091 0.5770815253653799 0.42291847463462 0.9543458528595509 0.04565414714044911 0.38330066402920443 0.6166993359707956 0.18990948056479592 0.810090519435204 0.36980677799598644 0.6301932220040136 0.2951374384341314 0.7048625615658686 0.5096004190248848 0.4903995809751151 0.5451766274406208 0.4548233725593792 0.37659254839738704 0.6234074516026129 0.5186736003554903 0.48132639964450963 0.42584951371502766 0.5741504862849723 0.04324825116012124 0.9567517488398788 0.16448384419380585 0.8355161558061941 0.4057575300039978 0.5942424699960023 0.9979094770597795 0.002090522940220441 0.5410015797450024 0.4589984202549976 0.856753068565379 0.143246931434621 0.4718501877091882 0.5281498122908117 0.21059704037546514 0.7894029596245348 0.2983947978963731 0.701605202103627 0.5013873884523409 0.49861261154765923 0.6854369469412355 0.31456305305876453 0.4478883258735946 0.5521116741264053 0.6439574749444629 0.35604252505553713 0.6919679763325255 0.3080320236674745 0.2048697985533733 0.7951302014466267 0.3958154470501684 0.6041845529498315 0.0073619208641119505 0.9926380791358881 0.13193436833155722 0.8680656316684427 0.532376727649743 0.46762327235025714 0.7257964334116668 0.2742035665883331 0.9447164310581339 0.055283568941866104 0.6760771565930863 0.3239228434069137 0.7890293273540551 0.21097067264594493 0.4811163855267889 0.5188836144732111 0.26349685398759715 0.736503146012403 0.7631577073846959 0.23684229261530412 0.8953221783914861 0.10467782160851397 0.9028801688202494 0.09711983117975065 0.6418899402094329 0.3581100597905671 0.520571269085145 0.47942873091485505 0.3883266651406558 0.6116733348593443 0.9524142936984352 0.04758570630156479 0.8459920286776661 0.1540079713223339 0.4859886045520904 0.5140113954479096 0.3660044535962104 0.6339955464037896 0.5140316594255626 0.4859683405744374 0.3007433204310504 0.6992566795689497 0.40247528340508726 0.5975247165949127 0.4438885673969075 0.5561114326030925 0.49952964841877856 0.5004703515812214 0.6914550959969712 0.3085449040030287 0.6155717801170265 0.38442821988297343 0.6650037482888796 0.33499625171112046 0.9049090936687672 0.09509090633123284 0.2636528319600093 0.7363471680399907 0.4004500645798244 0.5995499354201757 0.631595433414561 0.3684045665854391 0.4808982834332501 0.5191017165667499 0.2856237005396183 0.7143762994603817 0.12332294496230482 0.8766770550376952 0.8930446815138836 0.10695531848611638 0.5237100186791774 0.47628998132082256 0.7735323731457712 0.22646762685422886 0.9290371906078961 0.07096280939210399 0.4722794045155691 0.527720595484431 0.7558092535711779 0.24419074642882205 0.405783533095628 0.594216466904372 0.2135311497127686 0.7864688502872313 0.4111263378817823 0.5888736621182177 0.41222039090860946 0.5877796090913905 0.6517891375003643 0.34821086249963573 0.3513194756321946 0.6486805243678053 0.25807394188630417 0.7419260581136958 0.49159530589006284 0.5084046941099373 0.3820465968174569 0.6179534031825431 0.06509722782068023 0.9349027721793198 0.5835022733260101 0.4164977266739898 0.5869213713236072 0.4130786286763928 0.6074788218289325 0.39252117817106746 0.3218818150583501 0.6781181849416499 0.3739093176296697 0.6260906823703303 0.3185572438507232 0.6814427561492767 0.5965443596807917 0.4034556403192084 0.5213456311905117 0.47865436880948825 0.8387331378775158 0.16126686212248423 0.5451021549236257 0.4548978450763743 0.4739369641435161 0.5260630358564838 0.2934298369252723 0.7065701630747278 0.2396734617163701 0.7603265382836298 0.7885416414262186 0.2114583585737813 0.37982814328093667 0.6201718567190634 0.5578143085414271 0.44218569145857284 0.5211332117410095 0.47886678825899054 0.44145337486942626 0.5585466251305738 0.6086131200432746 0.3913868799567254 0.11482796772152114 0.8851720322784788 0.04747915437127297 0.9525208456287271 0.405595047877211 0.5944049521227889 0.14430320460372745 0.8556967953962725 0.572427052147202 0.427572947852798 0.5300638332325878 0.46993616676741223 0.4326885493062073 0.5673114506937927 0.30845111115488455 0.6915488888451155 0.48857320130118176 0.5114267986988182 0.7560740084976414 0.24392599150235858 0.8365109102077314 0.16348908979226862 0.18651702505598555 0.8134829749440144 0.293389201090441 0.7066107989095591 0.5359539798128538 0.46404602018714625 0.287804631597064 0.7121953684029358 0.9102808274451379 0.08971917255486205 0.27367140760342396 0.726328592396576 0.8154559005410317 0.18454409945896835 0.8545867564265816 0.14541324357341837 0.257637971177561 0.7423620288224391 0.7908178856764612 0.2091821143235388 0.7577593570613749 0.24224064293862524 0.24601406614445245 0.7539859338555476 0.800469389465534 0.19953061053446594 0.2434997851549227 0.7565002148450772 0.4478343289568982 0.5521656710431018 0.4069598063033577 0.5930401936966423 0.5930521300041797 0.4069478699958203 0.6888780307637191 0.3111219692362809 0.45727957595247565 0.5427204240475244 0.343049563685632 0.6569504363143679 0.2979205561779665 0.7020794438220336 0.3962450886226495 0.6037549113773504 0.806804384225189 0.19319561577481117 0.6641344099576484 0.33586559004235156 0.20300591300803797 0.7969940869919621 0.35071545137581883 0.6492845486241812 0.5957543713824489 0.40424562861755114 0.4059913323550293 0.5940086676449707 0.1338141871394115 0.8661858128605885 0.8372146995712858 0.16278530042871414 0.5107229580524237 0.48927704194757626 0.5712535681568566 0.4287464318431434 0.5025040400370236 0.4974959599629764 0.5433415071585361 0.45665849284146376 0.2520447073353273 0.7479552926646728 0.6828782556856474 0.31712174431435247 0.36935068491099654 0.6306493150890035 0.034613877395932156 0.9653861226040679 0.5157559693407539 0.48424403065924604 0.47716811552157573 0.5228318844784242 0.4034054482025014 0.5965945517974985 0.2797221647314588 0.7202778352685413 0.6702035051246844 0.3297964948753156 0.05013467523251087 0.9498653247674891 0.6233336509370199 0.3766663490629801 0.37940950728414263 0.6205904927158574 0.6049132889098651 0.395086711090135 0.7257503214036286 0.27424967859637134 0.3002658150928823 0.6997341849071176 0.6955445388868775 0.30445546111312244 0.5982556324510855 0.40174436754891457 0.18480940748372027 0.8151905925162797 0.6205528807844624 0.3794471192155376 0.32537002353060046 0.6746299764693995 0.5513338496540723 0.44866615034592766 0.6995669610022786 0.30043303899772145 0.7113039821988227 0.2886960178011773 0.650748309560776 0.349251690439224 0.37051892819162063 0.6294810718083794 0.24312485184465454 0.7568751481553455 0.5651469142505293 0.4348530857494707 0.6801658743332788 0.3198341256667212 0.5476449126183306 0.4523550873816694 0.34056510202633283 0.6594348979736671 0.9711333368276133 0.028866663172386706 0.2640691863624628 0.7359308136375372 0.08889155675731883 0.9111084432426811 0.1304442514941051 0.8695557485058949 0.3772117036151815 0.6227882963848185 0.23479385867409985 0.7652061413259001 0.6410614718154766 0.3589385281845233 0.5392657372257277 0.46073426277427226 0.6163109644985352 0.38368903550146477 0.48247632891074255 0.5175236710892573 0.3048306571682133 0.6951693428317868 0.07690273950609813 0.9230972604939018 0.8994402504807604 0.10055974951923967 0.3663328616441976 0.6336671383558025 0.5464727502078351 0.4535272497921648 0.3976016513642549 0.602398348635745 0.4179053947254459 0.582094605274554 0.3132513672365927 0.6867486327634073 0.24617107918625397 0.7538289208137461 0.5790187052656554 0.4209812947343446 0.9212561418616941 0.07874385813830595 0.6677873965853303 0.3322126034146697 0.5189171637160989 0.4810828362839012 0.6589957720988139 0.3410042279011862 0.36243017313735393 0.6375698268626461 0.6573377198502277 0.34266228014977224 0.44964092745818995 0.55035907254181 0.5593054370588504 0.4406945629411496 0.9085824031281813 0.09141759687181875 0.47415385898863965 0.5258461410113604 0.04673119887120584 0.9532688011287942 0.41729461196583745 0.5827053880341625 0.039844325624285186 0.9601556743757148 0.2459449238924378 0.7540550761075622 0.9322292787367213 0.06777072126327868 0.6577797582555475 0.3422202417444525 0.592657890132734 0.40734210986726604 0.4083195554218607 0.5916804445781393 0.13540506816468342 0.8645949318353164 0.5034510390929408 0.4965489609070592 0.583020026454642 0.41697997354535793 0.6108084836570389 0.3891915163429612 0.09432236966699438 0.9056776303330056 0.49609002382658013 0.5039099761734198 0.7006396263827948 0.29936037361720524 0.465089222683148 0.534910777316852 0.21668313214071436 0.7833168678592857 0.31393603070992193 0.6860639692900781 0.7126821923412205 0.2873178076587794 0.4401900899348071 0.5598099100651928 0.07060846174462859 0.9293915382553714 0.43103537021951316 0.5689646297804869 0.02091581389860631 0.9790841861013937 0.964954199615006 0.035045800384993935 0.3274292368074844 0.6725707631925155 0.3173782617989806 0.6826217382010193 0.459922359451914 0.5400776405480859 0.02273582497592032 0.9772641750240797 0.6416214839326807 0.3583785160673193 0.5414905732961228 0.4585094267038771 0.6918929234822909 0.30810707651770913 0.5594450648571757 0.4405549351428244 0.5456273570935614 0.45437264290643864 0.9174498054133823 0.08255019458661776 0.6716419582465549 0.328358041753445 0.3272485505107673 0.6727514494892327 0.5310136447278218 0.46898635527217825 0.24000344026705578 0.7599965597329441 0.6148768031215595 0.3851231968784406 0.603637789579339 0.39636221042066105 0.6414844868532169 0.35851551314678304 0.522341031983398 0.47765896801660196 0.6408700936785195 0.35912990632148045 0.4229417290949515 0.5770582709050486 0.5470871004341509 0.4529128995658491 0.13816707957400787 0.8618329204259921 0.884537793473257 0.11546220652674302 0.2878460119232203 0.7121539880767797 0.9831343773009458 0.016865622699054172 0.08428700954730646 0.9157129904526935 0.9087682498108078 0.09123175018919201 0.8827629770089013 0.1172370229910987 0.6272749330900734 0.3727250669099265 0.04912060584132438 0.9508793941586756 0.48450275298611306 0.5154972470138869 0.6397840812765333 0.36021591872346664 0.1377754197698659 0.8622245802301342 0.0027657350312496475 0.9972342649687503 0.7290177614768121 0.2709822385231879 0.14094015575403548 0.8590598442459645 0.48695256226507616 0.5130474377349238 0.4929867449529045 0.5070132550470956 0.1733697016137139 0.8266302983862861 0.5451106457903027 0.4548893542096972 0.8576443019513059 0.14235569804869405 0.4272763759308323 0.5727236240691677 0.48079519398577586 0.5192048060142241 0.31115935622208446 0.6888406437779155 0.7013760530037854 0.29862394699621464 0.8361780592910308 0.16382194070896916 0.4189480167632624 0.5810519832367376 0.508871028829271 0.49112897117072896 0.5522065338062899 0.4477934661937101 0.2845703923147479 0.7154296076852521 0.5857978917877418 0.4142021082122582 0.2087612886615747 0.7912387113384253 0.9982832516664656 0.0017167483335344467 0.30546628541161963 0.6945337145883804 0.522238042878461 0.477761957121539 0.60136865112207 0.39863134887792995 0.4283745309732457 0.5716254690267543 0.24271059498854924 0.7572894050114508 0.1022834092445427 0.8977165907554573 0.21709450199722752 0.7829054980027725 0.41946147664143935 0.5805385233585607 0.0074899324517033235 0.9925100675482966 0.7710101410265717 0.22898985897342825 0.0012819715051087864 0.9987180284948912 0.8400651808748177 0.1599348191251823 0.8507485645808582 0.14925143541914182 0.195288190577805 0.804711809422195 0.048874488189953366 0.9511255118100467 0.6879544737631642 0.3120455262368358 0.6135189586371677 0.3864810413628325 0.35686566196355723 0.6431343380364427 0.28924846983391117 0.7107515301660887 0.6630662391881965 0.3369337608118034 0.5101931008324557 0.4898068991675442 0.4850317672477727 0.5149682327522274 0.7256553424550749 0.2743446575449251 0.676231078505697 0.3237689214943031 0.976442892072642 0.023557107927358045 0.5877164655287425 0.41228353447125754 0.829134286226737 0.17086571377326298 0.522547210987986 0.4774527890120141 0.606279106786912 0.39372089321308806 0.45468129708391375 0.5453187029160863 0.3158802768171828 0.6841197231828172 0.4939649702419514 0.5060350297580486 0.47292488252558756 0.5270751174744125 0.5084427396513674 0.4915572603486325 0.4256777182957266 0.5743222817042734 0.5378091135691963 0.46219088643080375 0.4354790522728646 0.5645209477271353 0.11228734566402061 0.8877126543359793 0.32232256212132426 0.6776774378786758 0.8810759647968586 0.1189240352031414 0.9713938716685466 0.02860612833145338 0.7927447327953335 0.20725526720466653 0.6341638023688927 0.3658361976311073 0.11779021043044671 0.8822097895695533 0.5417383287282693 0.4582616712717306 0.5857758935192799 0.41422410648072006 0.0697818952742371 0.9302181047257629 0.4748676445216599 0.5251323554783401 0.6738566313308034 0.32614336866919663 0.8122421240117227 0.1877578759882773 0.6488393480826863 0.35116065191731366 0.5374223769542561 0.4625776230457439 0.3118592825376985 0.6881407174623015 0.6680578167451706 0.3319421832548292 0.1482570075213773 0.8517429924786227 0.6678943291820066 0.33210567081799336 0.7340569741405413 0.2659430258594588 0.2300705218374385 0.7699294781625615 0.3213514331539999 0.6786485668460002 0.43386392169540183 0.5661360783045982 0.6331393382950221 0.366860661704978 0.49987810289221685 0.5001218971077832 0.7241356535585982 0.27586434644140173 0.5024715018346773 0.4975284981653227 0.9244650125070769 0.07553498749292306 0.3065863818999997 0.6934136181000002 0.6396305165293424 0.36036948347065756 0.315942884719428 0.684057115280572 0.5345880567381458 0.4654119432618542 0.13907532187934982 0.8609246781206502 0.6138678478016619 0.38613215219833813 0.11486654246870429 0.8851334575312957 0.4332674580145782 0.5667325419854218 0.3318469163103072 0.6681530836896928 0.3325192213942857 0.6674807786057143 0.5085350734800985 0.4914649265199015 0.7636318591563196 0.23636814084368038 0.42124091177446144 0.5787590882255387 0.2549942688499779 0.7450057311500221 0.6230552428676998 0.3769447571323003 0.6670562891827043 0.3329437108172956 0.6712235031226753 0.3287764968773246 0.3088805981573834 0.6911194018426166 0.557315786922326 0.4426842130776741 0.3692255500233535 0.6307744499766466 0.7443638818962129 0.25563611810378717 0.37001726549134023 0.6299827345086597 0.7572172356118342 0.24278276438816582 0.45704855349599327 0.5429514465040067 0.29838429134796074 0.7016157086520393 0.7699024028166369 0.2300975971833631 0.83370897334109 0.16629102665891 0.21555673331247496 0.7844432666875251 0.07252220208034278 0.9274777979196572 0.386363190323308 0.613636809676692 0.5391682631537034 0.4608317368462967 0.5923351438367199 0.40766485616327996 0.5621966121014527 0.4378033878985473 0.22790929378394117 0.7720907062160588 0.43091915961553373 0.5690808403844663 0.45997503723084643 0.5400249627691536 0.3780204264136093 0.6219795735863907 0.4210204043079176 0.5789795956920825 0.24935692510425023 0.7506430748957498 0.6021076739331058 0.39789232606689423 0.17729465936108807 0.822705340638912 0.7476896577940328 0.25231034220596715 0.26496000860941993 0.7350399913905801 0.748521871484268 0.25147812851573204 0.25855523123511737 0.7414447687648826 0.6225348683216391 0.377465131678361 0.9513735494060538 0.048626450593946186 0.39398421409000356 0.6060157859099964 0.2518251984914082 0.7481748015085917 0.29757929722068277 0.7024207027793173 0.5701425295616364 0.42985747043836353 0.7892764166396472 0.21072358336035285 0.3461836113255766 0.6538163886744234 0.20967894724158942 0.7903210527584106 0.45674128128867036 0.5432587187113296 0.09446053792845592 0.9055394620715442 0.836200663649869 0.16379933635013103 0.019138572322128993 0.980861427677871 0.1894359233459029 0.8105640766540971 0.15077038529585687 0.8492296147041432 0.22529911176017078 0.7747008882398292 0.5900547832243733 0.40994521677562673 0.48816380089291733 0.5118361991070826 0.24786058504094408 0.7521394149590559 0.33317841219682126 0.6668215878031787 0.18089647182467883 0.8191035281753212 0.40317025052049593 0.5968297494795041 0.7877624962684363 0.21223750373156364 0.08557019757172264 0.9144298024282773 0.19379757739322856 0.8062024226067714 0.2641187633825812 0.7358812366174188 0.17959377938351564 0.8204062206164844 0.5624629716269095 0.43753702837309044 0.48449042064633335 0.5155095793536666 0.9675026593301663 0.0324973406698337 0.1973258136637953 0.8026741863362047 0.6768657550471279 0.3231342449528722 0.21281851082858852 0.7871814891714115 0.8426059559565978 0.15739404404340215 0.3571516466279355 0.6428483533720645 0.5998072249545533 0.40019277504544665 0.02741420405321385 0.9725857959467862 0.4422128137132491 0.5577871862867508 0.5060651142289034 0.49393488577109657 0.6886340467457833 0.3113659532542166 0.45978380010005193 0.5402161998999481 0.7335341824966035 0.26646581750339643 0.6391724242544228 0.3608275757455771 0.48927646489900195 0.5107235351009981 0.567152886528439 0.432847113471561 0.4924769530819455 0.5075230469180545 0.43303605526033906 0.5669639447396609 0.3700851444855744 0.6299148555144257 0.1565868681442929 0.8434131318557071 0.15462469378802707 0.845375306211973 0.596890990962978 0.4031090090370219 0.8662465028111568 0.13375349718884325 0.20332830240393546 0.7966716975960646 0.6318875320698658 0.3681124679301342 0.5742636414276365 0.42573635857236347 0.20066870596530298 0.799331294034697 0.27276513721114404 0.727234862788856 0.5894798609688806 0.41052013903111945 0.26683050388798935 0.7331694961120108 0.6286571252452534 0.37134287475474653 0.5593340448995364 0.4406659551004636 0.4289797312273105 0.5710202687726894 0.7332447006342063 0.26675529936579356 0.8848654491070944 0.11513455089290574 0.580450160003069 0.419549839996931 0.6093657596246427 0.39063424037535727 0.8563099680250393 0.1436900319749607 0.6511752452992245 0.34882475470077545 0.3537937133247813 0.6462062866752186 0.8631841701159961 0.13681582988400381 0.20407679695801076 0.7959232030419893 0.4093388878852871 0.5906611121147128 0.4331114799560172 0.5668885200439828 0.5111395534689894 0.48886044653101063 0.41845405352958376 0.5815459464704162 0.5462312047847613 0.45376879521523866 0.7473877537486087 0.25261224625139134 0.8468306461414258 0.15316935385857416 0.44063241308461276 0.5593675869153871 0.8092949180875274 0.19070508191247262 0.9904969149372014 0.009503085062798662 0.4975970354248152 0.5024029645751849 0.34100125215461596 0.658998747845384 0.0534958130793417 0.9465041869206583 0.8583524966641917 0.1416475033358083 0.6044601474467342 0.39553985255326585 0.7409203959948109 0.2590796040051891 0.674661327749404 0.325338672250596 0.10323862871004498 0.896761371289955 0.5844633471748037 0.4155366528251963 0.4824981690890826 0.5175018309109174 0.6186966058302948 0.38130339416970527 0.7163320646004806 0.2836679353995194 0.041149177355634656 0.9588508226443654 0.03301213332222348 0.9669878666777765 0.24764981520006726 0.7523501847999328 0.5599751880217834 0.44002481197821663 0.2661311125271379 0.7338688874728622 0.44880318597424573 0.5511968140257543 0.4956834493358725 0.5043165506641275 0.5128972009126088 0.4871027990873911 0.868131691115668 0.13186830888433196 0.4276344134474187 0.5723655865525813 0.640862163668784 0.3591378363312159 0.4805635418632996 0.5194364581367005 0.9697967102801999 0.03020328971980015 0.46740643824248174 0.5325935617575183 0.5989984064598975 0.40100159354010245 0.4214004154333815 0.5785995845666184 0.6071415890325551 0.39285841096744484 0.32873320248284255 0.6712667975171575 0.8143463512424062 0.1856536487575937 0.5613810200001256 0.4386189799998745 0.9436587437930027 0.05634125620699722 0.28932716153234683 0.7106728384676532 0.769311480588896 0.23068851941110405 0.17180956669567307 0.828190433304327 0.6203119648188813 0.3796880351811187 0.4193114659096085 0.5806885340903915 0.5144251488389606 0.4855748511610394 0.18641542420541396 0.813584575794586 0.3925166929771236 0.6074833070228765 0.5849191786302911 0.41508082136970886 0.3586426020792018 0.6413573979207982 0.46055329653352334 0.5394467034664767 0.8692618215660337 0.1307381784339662 0.44488102286413533 0.5551189771358647 0.8468847243667146 