<?xml version='1.0' encoding='utf-8'?>
<BIF VERSION="0.3">
  <NETWORK>
    <NAME>UNTITLED</NAME>
    <VARIABLE TYPE="nature">
      <NAME>0</NAME>
      <OUTCOME>0</OUTCOME>
      <OUTCOME>1</OUTCOME>
      <PROPERTY>weight = None</PROPERTY>
    </VARIABLE>
    <VARIABLE TYPE="nature">
      <NAME>1</NAME>
      <OUTCOME>0</OUTCOME>
      <OUTCOME>1</OUTCOME>
      <PROPERTY>weight = None</PROPERTY>
    </VARIABLE>
    <VARIABLE TYPE="nature">
      <NAME>10</NAME>
      <OUTCOME>0</OUTCOME>
      <OUTCOME>1</OUTCOME>
      <PROPERTY>weight = None</PROPERTY>
    </VARIABLE>
    <VARIABLE TYPE="nature">
      <NAME>11</NAME>
      <OUTCOME>0</OUTCOME>
      <OUTCOME>1</OUTCOME>
      <PROPERTY>weight = None</PROPERTY>
    </VARIABLE>
    <VARIABLE TYPE="nature">
      <NAME>12</NAME>
      <OUTCOME>0</OUTCOME>
      <OUTCOME>1</OUTCOME>
      <PROPERTY>weight = None</PROPERTY>
    </VARIABLE>
    <VARIABLE TYPE="nature">
      <NAME>13</NAME>
      <OUTCOME>0</OUTCOME>
      <OUTCOME>1</OUTCOME>
      <PROPERTY>weight = None</PROPERTY>
    </VARIABLE>
    <VARIABLE TYPE="nature">
      <NAME>14</NAME>
      <OUTCOME>0</OUTCOME>
      <OUTCOME>1</OUTCOME>
      <PROPERTY>weight = None</PROPERTY>
    </VARIABLE>
    <VARIABLE TYPE="nature">
      <NAME>2</NAME>
      <OUTCOME>0</OUTCOME>
      <OUTCOME>1</OUTCOME>
      <PROPERTY>weight = None</PROPERTY>
    </VARIABLE>
    <VARIABLE TYPE="nature">
      <NAME>3</NAME>
      <OUTCOME>0</OUTCOME>
      <OUTCOME>1</OUTCOME>
      <PROPERTY>weight = None</PROPERTY>
    </VARIABLE>
    <VARIABLE TYPE="nature">
      <NAME>4</NAME>
      <OUTCOME>0</OUTCOME>
      <OUTCOME>1</OUTCOME>
      <PROPERTY>weight = None</PROPERTY>
    </VARIABLE>
    <VARIABLE TYPE="nature">
      <NAME>5</NAME>
      <OUTCOME>0</OUTCOME>
      <OUTCOME>1</OUTCOME>
      <PROPERTY>weight = None</PROPERTY>
    </VARIABLE>
    <VARIABLE TYPE="nature">
      <NAME>6</NAME>
      <OUTCOME>0</OUTCOME>
      <OUTCOME>1</OUTCOME>
      <PROPERTY>weight = None</PROPERTY>
    </VARIABLE>
    <VARIABLE TYPE="nature">
      <NAME>7</NAME>
      <OUTCOME>0</OUTCOME>
      <OUTCOME>1</OUTCOME>
      <PROPERTY>weight = None</PROPERTY>
    </VARIABLE>
    <VARIABLE TYPE="nature">
      <NAME>8</NAME>
      <OUTCOME>0</OUTCOME>
      <OUTCOME>1</OUTCOME>
      <PROPERTY>weight = None</PROPERTY>
    </VARIABLE>
    <VARIABLE TYPE="nature">
      <NAME>9</NAME>
      <OUTCOME>0</OUTCOME>
      <OUTCOME>1</OUTCOME>
      <PROPERTY>weight = None</PROPERTY>
    </VARIABLE>
    <DEFINITION>
      <FOR>0</FOR>
      <TABLE>0.9483187883086879 0.05168121169131216 </TABLE>
    </DEFINITION>
    <DEFINITION>
      <FOR>1</FOR>
      <GIVEN>0</GIVEN>
      <TABLE>0.541492828090924 0.458507171909076 0.634373930485975 0.365626069514025 </TABLE>
    </DEFINITION>
    <DEFINITION>
      <FOR>10</FOR>
      <GIVEN>0</GIVEN>
      <GIVEN>1</GIVEN>
      <GIVEN>2</GIVEN>
      <GIVEN>4</GIVEN>
      <GIVEN>8</GIVEN>
      <TABLE>0.5690763655515252 0.43092363444847487 0.26976919525884535 0.7302308047411546 0.8915808507376539 0.10841914926234611 0.5020461419151839 0.49795385808481607 0.4524467639421551 0.547553236057845 0.5227970450531365 0.47720295494686343 0.47716913099380676 0.5228308690061932 0.2875252822777991 0.712474717722201 0.7186458257866863 0.2813541742133137 0.9404801380754214 0.05951986192457861 0.1000515845746376 0.8999484154253624 0.8660099449132388 0.13399005508676115 0.21926063254811914 0.7807393674518809 0.7446516759777936 0.25534832402220636 0.49281598057244536 0.5071840194275546 0.8494795857821379 0.15052041421786214 0.5197819660242917 0.4802180339757082 0.4084978397811692 0.5915021602188308 0.11169240053110074 0.8883075994688993 0.7283591298954637 0.27164087010453625 0.7894878130908546 0.2105121869091454 0.6463061278114165 0.35369387218858356 0.442052349152779 0.557947650847221 0.6140085090894408 0.3859914909105591 0.6564134111897092 0.3435865888102909 0.7676832272088923 0.23231677279110774 0.47053290839965145 0.5294670916003485 0.4187798679006372 0.5812201320993627 0.5262799558064846 0.47372004419351543 0.36607273731250867 0.6339272626874913 0.7452844622258328 0.2547155377741674 0.5732410289959857 0.42675897100401433 </TABLE>
    </DEFINITION>
    <DEFINITION>
      <FOR>11</FOR>
      <GIVEN>0</GIVEN>
      <GIVEN>7</GIVEN>
      <GIVEN>9</GIVEN>
      <GIVEN>4</GIVEN>
      <GIVEN>6</GIVEN>
      <TABLE>0.2400506763750143 0.7599493236249857 0.4295085085290266 0.5704914914709733 0.7840952809047721 0.21590471909522785 0.49661387823170156 0.5033861217682984 0.21705215853247628 0.7829478414675237 0.595651751606703 0.40434824839329697 0.9410066188032 0.05899338119679996 0.4218989900489336 0.5781010099510664 0.7009745199642202 0.29902548003577983 0.28400626540139123 0.7159937345986087 0.5001114365592875 0.49988856344071264 0.3832993987013763 0.6167006012986237 0.7632133660064914 0.2367866339935086 0.4471159555614489 0.5528840444385511 0.7161652454992422 0.2838347545007578 0.2997199716578729 0.7002800283421271 0.35266008996637327 0.6473399100336267 0.0026394241298976066 0.9973605758701024 0.4870423290044069 0.5129576709955931 0.31990815722468113 0.680091842775319 0.7836795691165682 0.21632043088343184 0.9439019141950064 0.05609808580499362 0.5908580147313106 0.4091419852686894 0.7668138930569535 0.23318610694304656 0.944861281462597 0.05513871853740306 0.8575607597603784 0.14243924023962173 0.07784132783970514 0.922158672160295 0.05329446050232973 0.9467055394976702 0.481340415713237 0.5186595842867631 0.17805488640399658 0.8219451135960034 0.23264948139600664 0.7673505186039934 0.3621988551313126 0.6378011448686874 </TABLE>
    </DEFINITION>
    <DEFINITION>
      <FOR>12</FOR>
      <GIVEN>0</GIVEN>
      <GIVEN>3</GIVEN>
      <GIVEN>7</GIVEN>
      <GIVEN>9</GIVEN>
      <GIVEN>11</GIVEN>
      <GIVEN>8</GIVEN>
      <GIVEN>5</GIVEN>
      <TABLE>0.6130061909024141 0.3869938090975858 0.8794352580488956 0.12056474195110442 0.5779298538492397 0.42207014615076033 0.2863008957209961 0.7136991042790038 0.8618643531103529 0.13813564688964702 0.5930099348311887 0.40699006516881137 0.6198009114803542 0.3801990885196458 0.833154207167902 0.16684579283209794 0.5975522553696768 0.4024477446303233 0.7572582519881902 0.24274174801180967 0.6305101880852135 0.3694898119147865 0.15591749050089235 0.8440825094991077 0.24843285067038265 0.7515671493296174 0.5577207208115431 0.44227927918845683 0.4751590834164494 0.5248409165835506 0.43536084007642256 0.5646391599235774 0.06827597048241407 0.9317240295175859 0.3637381772362231 0.636261822763777 0.41516676412460307 0.584833235875397 0.21616310451489767 0.7838368954851023 0.736913789463793 0.2630862105362069 0.10204728420188906 0.897952715798111 0.007589300140807072 0.992410699859193 0.3469255468647609 0.6530744531352392 0.21793417637851645 0.7820658236214837 0.5197777277425549 0.48022227225744507 0.22866649902561564 0.7713335009743844 0.06448975573874792 0.9355102442612521 0.7807731933240974 0.21922680667590258 0.7267203880621025 0.27327961193789746 0.4601100358864471 0.539889964113553 0.26878638395533055 0.7312136160446694 0.28528782936336405 0.714712170636636 0.5021533459044406 0.49784665409555945 0.15463456506098777 0.8453654349390123 0.854918309313296 0.1450816906867039 0.723706142898184 0.276293857101816 0.3708000091629796 0.6291999908370204 0.7506414309104208 0.24935856908957907 0.49469413041328886 0.5053058695867111 0.010074401327316575 0.9899255986726834 0.13279372726015456 0.8672062727398454 0.5105901854975146 0.4894098145024854 0.5184314062631548 0.4815685937368453 0.46610598579016066 0.5338940142098394 0.22219826645059054 0.7778017335494094 0.12848143419168456 0.8715185658083155 0.43812225180257436 0.5618777481974258 0.5021870831253281 0.497812916874672 0.18178024405585205 0.818219755944148 0.5261632414164086 0.4738367585835914 0.48461406648351674 0.5153859335164833 0.28516304384918423 0.7148369561508158 0.33660123345623155 0.6633987665437684 0.7352538298865267 0.2647461701134733 0.35276788715794877 0.6472321128420513 0.5633198337708865 0.43668016622911354 0.5925833687952567 0.4074166312047433 0.26711534639816376 0.7328846536018362 0.43201166415712616 0.5679883358428739 0.7812453491138808 0.2187546508861192 0.36102528057200445 0.6389747194279956 0.5833610196560398 0.4166389803439601 0.5235645694367335 0.4764354305632666 0.5566308057089392 0.44336919429106075 0.5810574683496015 0.4189425316503986 0.5974838859163445 0.40251611408365556 0.14849631581450712 0.8515036841854929 0.13009109771266705 0.8699089022873329 0.08072832039210485 0.9192716796078951 0.6105481197697584 0.38945188023024163 0.367209731208924 0.632790268791076 0.35924303880689273 0.6407569611931073 0.8166754741417813 0.18332452585821865 0.5753854511832329 0.42461454881676713 0.9743015340473451 0.025698465952654945 0.012272603781244125 0.9877273962187558 0.6491073127556349 0.35089268724436506 0.7870141446461183 0.21298585535388176 0.3662454005025761 0.633754599497424 0.43875238805262484 0.5612476119473753 0.38423469301491503 0.615765306985085 0.7262797742830054 0.2737202257169946 0.5690235360295425 0.43097646397045747 0.5610054623377125 0.43899453766228735 0.8711711225698416 0.12882887743015822 0.3538938708879324 0.6461061291120677 0.4998832965129477 0.5001167034870523 0.37051122520878577 0.6294887747912142 0.6549888778053036 0.34501112219469643 0.2817536624261848 0.7182463375738152 0.4457312721588156 0.5542687278411844 0.42042761609565427 0.5795723839043457 0.7893060544464092 0.21069394555359075 0.5496441521658434 0.45035584783415666 0.5223587381796146 0.47764126182038524 0.44240678597901684 0.5575932140209832 0.6243096647222811 0.3756903352777189 0.22181890163146917 0.7781810983685308 0.596880168766567 0.40311983123343287 0.5269779833731773 0.4730220166268228 0.3381994561242172 0.6618005438757828 0.4986578423256002 0.5013421576743998 0.3656401590649283 0.6343598409350717 0.33639165874476123 0.6636083412552388 0.5840247422694275 0.4159752577305726 0.6471155304569917 0.3528844695430083 0.9754338847642096 0.024566115235790432 0.37097748955701426 0.6290225104429857 0.3192810563258458 0.6807189436741542 0.16444848037940257 0.8355515196205974 0.3845450854011791 0.6154549145988208 0.44433080976220524 0.5556691902377948 0.9138523777207466 0.08614762227925347 0.5290302437210297 0.47096975627897025 0.24613853931286866 0.7538614606871313 0.2252305726305496 0.7747694273694503 0.22447436264238355 0.7755256373576164 0.38847964270227536 0.6115203572977247 0.5726145716776123 0.4273854283223878 0.57237843929141 0.4276215607085901 0.2603951842314681 0.7396048157685319 0.2168990493023081 0.7831009506976918 0.4889421461293176 0.5110578538706825 0.4776164222437238 0.5223835777562761 0.6266555668746379 0.3733444331253621 0.1323002324570684 0.8676997675429315 0.49717523967936317 0.5028247603206368 </TABLE>
    </DEFINITION>
    <DEFINITION>
      <FOR>13</FOR>
      <GIVEN>0</GIVEN>
      <GIVEN>1</GIVEN>
      <GIVEN>2</GIVEN>
      <GIVEN>7</GIVEN>
      <GIVEN>9</GIVEN>
      <GIVEN>4</GIVEN>
      <GIVEN>6</GIVEN>
      <TABLE>0.47126045339048867 0.5287395466095113 0.45738762436319796 0.5426123756368021 0.004607530662139541 0.9953924693378604 0.48379004386900576 0.5162099561309943 0.4743696559155671 0.5256303440844329 0.1900553518941515 0.8099446481058485 0.3976873947795585 0.6023126052204414 0.9229926127104909 0.07700738728950902 0.42267709214924853 0.5773229078507515 0.6731999759401509 0.32680002405984915 0.4716845751203162 0.5283154248796837 0.2433233801860675 0.7566766198139326 0.3016370762961978 0.6983629237038023 0.27845899595446916 0.7215410040455309 0.4763570578463458 0.5236429421536541 0.7471273275011167 0.25287267249888334 0.5105395206365928 0.4894604793634071 0.6062739803619247 0.3937260196380753 0.8357228123796743 0.16427718762032575 0.1659867369159109 0.8340132630840891 0.7045313987418548 0.2954686012581451 0.43861224840085483 0.5613877515991452 0.2762242999308997 0.7237757000691003 0.34794695005775217 0.6520530499422478 0.8540998867184865 0.14590011328151353 0.1711981257023355 0.8288018742976645 0.3778586869970403 0.6221413130029597 0.6512982612337416 0.3487017387662584 0.44180652250336117 0.558193477496639 0.42466305624114037 0.5753369437588597 0.7135882011951938 0.28641179880480616 0.7268191686528755 0.2731808313471245 0.36976323085863916 0.6302367691413608 0.2655589679813225 0.7344410320186775 0.21872584445601126 0.7812741555439886 0.7309688752046053 0.26903112479539465 0.30586449908627633 0.6941355009137237 0.6782365207554376 0.3217634792445622 0.8077268335462728 0.1922731664537271 0.38533707717689436 0.6146629228231055 0.053853449497161344 0.9461465505028387 0.5167180652711199 0.4832819347288802 0.3192563119210885 0.6807436880789115 0.7640153094675167 0.23598469053248328 0.5266559244925334 0.4733440755074666 0.5185963826116259 0.4814036173883741 0.09439591278320118 0.9056040872167989 0.28957304882505064 0.7104269511749493 0.8072342554556339 0.19276574454436604 0.48605793635799466 0.5139420636420052 0.37445210366235304 0.625547896337647 0.7587591389973756 0.24124086100262435 0.7749115958758037 0.2250884041241963 0.4960830422262207 0.5039169577737792 0.7055606353315318 0.29443936466846826 0.5063351980586757 0.49366480194132434 0.47548552107721437 0.5245144789227857 0.13747468567016013 0.8625253143298398 0.6837522187389813 0.31624778126101866 0.6465385338310771 0.35346146616892293 0.4474530812374096 0.5525469187625904 0.5794406448460243 0.4205593551539757 0.8624881575840554 0.13751184241594472 0.3153038044366502 0.6846961955633498 0.5795167892453282 0.42048321075467177 0.5637659228978535 0.43623407710214646 0.6472009791951948 0.35279902080480513 0.9553033684771847 0.04469663152281535 0.66284872901869 0.3371512709813099 0.5383702385426415 0.4616297614573585 0.4830597404020992 0.5169402595979008 0.4666500323453972 0.5333499676546029 0.18912800655808207 0.810871993441918 0.5681827261230301 0.43181727387696994 0.6408835132432313 0.3591164867567687 0.6007256225412222 0.39927437745877786 0.7945192567538302 0.20548074324616986 0.4589244123434278 0.5410755876565722 0.40191003104374184 0.5980899689562581 0.21777851238750187 0.7822214876124981 0.5931520010467021 0.40684799895329793 0.4930007090917216 0.5069992909082784 0.14793053303888823 0.8520694669611117 0.11270616213989064 0.8872938378601094 0.5880717957601213 0.41192820423987875 0.16689734594681152 0.8331026540531885 0.6264232041200092 0.3735767958799909 0.09947792638872946 0.9005220736112706 0.5226109428663132 0.47738905713368684 0.5761756987768182 0.42382430122318177 0.6706028980712332 0.32939710192876676 0.20165494151758426 0.7983450584824158 0.2056572302638547 0.7943427697361453 0.5471388099559666 0.45286119004403336 0.3128898887522133 0.6871101112477866 0.5267725098907841 0.47322749010921594 0.7273105786690877 0.2726894213309123 0.4123611606276628 0.5876388393723372 0.7667614724010421 0.2332385275989579 0.5351659504698278 0.4648340495301721 0.6215245420841458 0.37847545791585424 0.35069705651063354 0.6493029434893665 0.2725303897137293 0.7274696102862708 0.2814784239970648 0.7185215760029352 0.6387737922593192 0.36122620774068087 0.21159907282068896 0.788400927179311 0.32893412027500446 0.6710658797249955 0.1625674126166419 0.8374325873833581 0.25494162816530686 0.7450583718346931 0.6999596845442844 0.30004031545571563 0.4632260993943118 0.5367739006056882 0.4818053905178994 0.5181946094821007 0.02192759251533339 0.9780724074846666 0.7972294267084187 0.20277057329158132 0.5923740241951462 0.40762597580485377 0.5552835505345807 0.4447164494654192 0.008593923647700666 0.9914060763522994 0.9036607293455546 0.09633927065444539 0.371871740427514 0.6281282595724861 0.6922836862629064 0.3077163137370937 0.42803235859904926 0.5719676414009508 0.8345525900124466 0.16544740998755342 0.7178628912171032 0.2821371087828968 0.2637383736021113 0.7362616263978887 0.1325755858570973 0.8674244141429027 0.1823991431824507 0.8176008568175493 0.700868992356693 0.299131007643307 0.4540067863168871 0.5459932136831128 </TABLE>
    </DEFINITION>
    <DEFINITION>
      <FOR>14</FOR>
      <GIVEN>3</GIVEN>
      <GIVEN>9</GIVEN>
      <GIVEN>10</GIVEN>
      <GIVEN>11</GIVEN>
      <TABLE>0.5586628521718268 0.44133714782817324 0.42255584461135764 0.5774441553886424 0.6697647193537074 0.33023528064629265 0.6272156389590383 0.3727843610409617 0.34685942953816473 0.6531405704618353 0.4203427293389068 0.5796572706610932 0.4323457263875082 0.5676542736124919 0.6786125848833273 0.32138741511667274 0.7778339360461339 0.22216606395386607 0.503708744675129 0.49629125532487106 0.9753749467000018 0.02462505329999818 0.4728676156879652 0.5271323843120347 0.7379684603626708 0.26203153963732906 0.7392865461321753 0.26071345386782474 0.5291285649870445 0.4708714350129555 0.4603906709044189 0.5396093290955811 </TABLE>
    </DEFINITION>
    <DEFINITION>
      <FOR>2</FOR>
      <GIVEN>0</GIVEN>
      <TABLE>0.7041621936043461 0.29583780639565393 0.5752453842834176 0.42475461571658235 </TABLE>
    </DEFINITION>
    <DEFINITION>
      <FOR>3</FOR>
      <GIVEN>0</GIVEN>
      <GIVEN>2</GIVEN>
      <TABLE>0.9636760740204429 0.0363239259795571 0.16141718146117842 0.8385828185388216 0.9524397149489107 0.047560285051089335 0.32591973230202864 0.6740802676979714 </TABLE>
    </DEFINITION>
    <DEFINITION>
      <FOR>4</FOR>
      <GIVEN>1</GIVEN>
      <GIVEN>3</GIVEN>
      <TABLE>0.6728840661773389 0.3271159338226612 0.3875991958535926 0.6124008041464074 0.6910706848174144 0.30892931518258554 0.9494590963557423 0.05054090364425765 </TABLE>
    </DEFINITION>
    <DEFINITION>
      <FOR>5</FOR>
      <GIVEN>2</GIVEN>
      <GIVEN>3</GIVEN>
      <GIVEN>4</GIVEN>
      <TABLE>0.5221003095996284 0.4778996904003716 0.538904568004529 0.461095431995471 0.4126365755306158 0.5873634244693843 0.4099159833959855 0.5900840166040145 0.3559125840604318 0.6440874159395683 0.5385213088204086 0.4614786911795915 0.5008375016295415 0.49916249837045845 0.5734355836664871 0.426564416333513 </TABLE>
    </DEFINITION>
    <DEFINITION>
      <FOR>6</FOR>
      <GIVEN>2</GIVEN>
      <GIVEN>3</GIVEN>
      <GIVEN>4</GIVEN>
      <TABLE>0.5644651701775747 0.4355348298224254 0.3679926866091245 0.6320073133908755 0.46698591409704954 0.5330140859029504 0.4302041053481298 0.5697958946518702 0.5388561370569649 0.4611438629430351 0.004243902948339549 0.9957560970516605 0.8328584256034769 0.16714157439652308 0.656566689865183 0.34343331013481704 </TABLE>
    </DEFINITION>
    <DEFINITION>
      <FOR>7</FOR>
      <GIVEN>0</GIVEN>
      <GIVEN>1</GIVEN>
      <GIVEN>6</GIVEN>
      <TABLE>0.2199001393134159 0.7800998606865841 0.2724487855048045 0.7275512144951956 0.48025562016550244 0.5197443798344975 0.5605949812923391 0.43940501870766097 0.6418837208778394 0.35811627912216054 0.7139668826043382 0.28603311739566184 0.5039322523874149 0.4960677476125851 0.43431644305149886 0.5656835569485011 </TABLE>
    </DEFINITION>
    <DEFINITION>
      <FOR>8</FOR>
      <GIVEN>1</GIVEN>
      <GIVEN>3</GIVEN>
      <GIVEN>4</GIVEN>
      <GIVEN>6</GIVEN>
      <TABLE>0.4875348600743536 0.5124651399256464 0.9319339523192229 0.06806604768077705 0.4601622643217384 0.5398377356782617 0.7021165506881412 0.2978834493118588 0.37965168575497316 0.6203483142450269 0.384007540499787 0.615992459500213 0.8820944125101858 0.11790558748981415 0.9128990622225481 0.08710093777745184 0.9608387006835057 0.03916129931649424 0.23521602342517312 0.764783976574827 0.4607164661910973 0.5392835338089028 0.8170814397152797 0.1829185602847203 0.46283966866300275 0.5371603313369974 0.8038858265206698 0.19611417347933022 0.28808177382187594 0.7119182261781241 0.9841358452262338 0.01586415477376629 </TABLE>
    </DEFINITION>
    <DEFINITION>
      <FOR>9</FOR>
      <GIVEN>0</GIVEN>
      <GIVEN>1</GIVEN>
      <GIVEN>3</GIVEN>
      <GIVEN>7</GIVEN>
      <GIVEN>4</GIVEN>
      <GIVEN>8</GIVEN>
      <GIVEN>5</GIVEN>
      <TABLE>0.2737024363711815 0.7262975636288184 0.44673978868908293 0.5532602113109171 0.4547843425626921 0.5452156574373079 0.4900805224768601 0.5099194775231398 0.5015079459282784 0.4984920540717216 0.650788885750763 0.349211114249237 0.7611791749452793 0.23882082505472058 0.36688392460164687 0.633116075398353 0.4859123798235286 0.5140876201764715 0.08675356531738715 0.9132464346826128 0.7799599605033347 0.22004003949666534 0.4618206787147205 0.5381793212852796 0.15708691415894588 0.8429130858410542 0.7683848482427086 0.23161515175729147 0.02392699346898587 0.9760730065310141 0.945958476406693 0.05404152359330701 0.5507255759118496 0.4492744240881505 0.6589971144489319 0.3410028855510681 0.6501520582684519 0.34984794173154804 0.1811068829478511 0.818893117052149 0.0843880570316467 0.9156119429683534 0.7097804992878912 0.2902195007121088 0.035046162176832645 0.9649538378231673 0.5037505857269253 0.49624941427307456 0.18576882962154326 0.8142311703784567 0.4018116059422037 0.5981883940577963 0.6692523561877085 0.3307476438122915 0.17317369259273507 0.8268263074072649 0.614945268852635 0.3850547311473651 0.418344993546511 0.581655006453489 0.3950470437595569 0.6049529562404431 0.4689508349414439 0.531049165058556 0.5517148530324372 0.4482851469675628 0.4309581619688545 0.5690418380311455 0.6412081585881977 0.35879184141180226 0.3748303657439332 0.6251696342560668 0.5429546603749067 0.4570453396250933 0.6231181740826618 0.3768818259173382 0.35038280513987197 0.649617194860128 0.44747111814974966 0.5525288818502503 0.44196030910040224 0.5580396908995977 0.43050809317020666 0.5694919068297934 0.4840333151520485 0.5159666848479515 0.08160568803308794 0.918394311966912 0.6209554507897151 0.3790445492102849 0.9279972318636107 0.07200276813638933 0.9229788572593889 0.07702114274061107 0.23248156409650947 0.7675184359034907 0.20891289260853424 0.7910871073914657 0.8225799423954951 0.17742005760450485 0.3150170416760794 0.6849829583239205 0.9720513862072954 0.02794861379270468 0.6458220738243757 0.35417792617562427 0.26979914670750704 0.730200853292493 0.4791849129211348 0.5208150870788651 0.4565412481548973 0.5434587518451027 0.41721437329202526 0.5827856267079747 0.2105138961105639 0.7894861038894361 0.26324127888350335 0.7367587211164967 0.6828297698113065 0.31717023018869345 0.35395353415928105 0.646046465840719 0.9460451281053486 0.05395487189465145 0.7144081082583433 0.2855918917416567 0.05694178575109861 0.9430582142489013 0.9681985430693868 0.031801456930613245 0.5099980982902789 0.4900019017097211 0.49514260873784993 0.5048573912621501 0.004070252803688583 0.9959297471963114 0.47524525741251533 0.5247547425874848 0.06812934084471957 0.9318706591552804 0.18109518359531498 0.818904816404685 0.4218777737774836 0.5781222262225163 0.29710062805921905 0.7028993719407809 0.6467544515692981 0.35324554843070183 0.48829527167077114 0.5117047283292289 0.49195003675126586 0.5080499632487341 0.9456055355726167 0.054394464427383236 0.05073040057047237 0.9492695994295276 0.7352469277963541 0.2647530722036459 0.6588711642054936 0.3411288357945065 0.053335826729837214 0.9466641732701628 0.42605099755625586 0.5739490024437442 0.9257622839329256 0.07423771606707441 0.5937610886812748 0.4062389113187253 0.1590107197911993 0.8409892802088007 0.7010239895772877 0.29897601042271227 0.7243913120708988 0.2756086879291011 0.4037413410253981 0.5962586589746018 0.4768358304265223 0.5231641695734778 0.2384761016108645 0.7615238983891355 0.20405805930506724 0.7959419406949327 0.08341751043169307 0.916582489568307 0.6973156101565277 0.30268438984347235 0.25077118643141966 0.7492288135685803 0.6693152228325562 0.3306847771674438 0.5153055986211783 0.4846944013788217 0.3316123677598289 0.6683876322401712 0.8411089112396892 0.15889108876031077 0.328475735097996 0.6715242649020039 0.42037307636349747 0.5796269236365025 0.2052704177854118 0.7947295822145882 0.6331668089031978 0.3668331910968023 0.54834232131515 0.45165767868485 0.7004048934929484 0.2995951065070516 0.4626399259434511 0.537360074056549 0.5784028976317213 0.4215971023682788 0.06819970822971709 0.9318002917702829 0.6097675565740189 0.3902324434259811 0.21971609163804004 0.7802839083619599 0.8548824331521625 0.14511756684783753 0.5772452379685804 0.42275476203141954 0.9363171922190754 0.0636828077809245 0.6055776204259103 0.39442237957408954 0.3606518690239691 0.6393481309760309 0.447942997106707 0.5520570028932931 0.5546003508015028 0.44539964919849717 0.22351045225603047 0.7764895477439695 0.4618958867215355 0.5381041132784645 0.7655822245893369 0.23441777541066308 0.3677737885751382 0.6322262114248618 0.3551488819689128 0.6448511180310872 0.40629756974276904 0.5937024302572309 0.7739080049632486 0.22609199503675131 0.31575399759436223 0.6842460024056377 0.7112760347268684 0.2887239652731315 0.5258484592373461 0.47415154076265387 0.17508057122562906 0.824919428774371 0.3723141777537513 0.6276858222462487 </TABLE>
    </DEFINITION>
  </NETWORK>
</BIF>
