<?xml version='1.0' encoding='utf-8'?>
<BIF VERSION="0.3">
  <NETWORK>
    <NAME>UNTITLED</NAME>
    <VARIABLE TYPE="nature">
      <NAME>0</NAME>
      <OUTCOME>0</OUTCOME>
      <OUTCOME>1</OUTCOME>
      <PROPERTY>weight = None</PROPERTY>
    </VARIABLE>
    <VARIABLE TYPE="nature">
      <NAME>1</NAME>
      <OUTCOME>0</OUTCOME>
      <OUTCOME>1</OUTCOME>
      <PROPERTY>weight = None</PROPERTY>
    </VARIABLE>
    <VARIABLE TYPE="nature">
      <NAME>10</NAME>
      <OUTCOME>0</OUTCOME>
      <OUTCOME>1</OUTCOME>
      <PROPERTY>weight = None</PROPERTY>
    </VARIABLE>
    <VARIABLE TYPE="nature">
      <NAME>11</NAME>
      <OUTCOME>0</OUTCOME>
      <OUTCOME>1</OUTCOME>
      <PROPERTY>weight = None</PROPERTY>
    </VARIABLE>
    <VARIABLE TYPE="nature">
      <NAME>12</NAME>
      <OUTCOME>0</OUTCOME>
      <OUTCOME>1</OUTCOME>
      <PROPERTY>weight = None</PROPERTY>
    </VARIABLE>
    <VARIABLE TYPE="nature">
      <NAME>13</NAME>
      <OUTCOME>0</OUTCOME>
      <OUTCOME>1</OUTCOME>
      <PROPERTY>weight = None</PROPERTY>
    </VARIABLE>
    <VARIABLE TYPE="nature">
      <NAME>14</NAME>
      <OUTCOME>0</OUTCOME>
      <OUTCOME>1</OUTCOME>
      <PROPERTY>weight = None</PROPERTY>
    </VARIABLE>
    <VARIABLE TYPE="nature">
      <NAME>15</NAME>
      <OUTCOME>0</OUTCOME>
      <OUTCOME>1</OUTCOME>
      <PROPERTY>weight = None</PROPERTY>
    </VARIABLE>
    <VARIABLE TYPE="nature">
      <NAME>16</NAME>
      <OUTCOME>0</OUTCOME>
      <OUTCOME>1</OUTCOME>
      <PROPERTY>weight = None</PROPERTY>
    </VARIABLE>
    <VARIABLE TYPE="nature">
      <NAME>17</NAME>
      <OUTCOME>0</OUTCOME>
      <OUTCOME>1</OUTCOME>
      <PROPERTY>weight = None</PROPERTY>
    </VARIABLE>
    <VARIABLE TYPE="nature">
      <NAME>18</NAME>
      <OUTCOME>0</OUTCOME>
      <OUTCOME>1</OUTCOME>
      <PROPERTY>weight = None</PROPERTY>
    </VARIABLE>
    <VARIABLE TYPE="nature">
      <NAME>19</NAME>
      <OUTCOME>0</OUTCOME>
      <OUTCOME>1</OUTCOME>
      <PROPERTY>weight = None</PROPERTY>
    </VARIABLE>
    <VARIABLE TYPE="nature">
      <NAME>2</NAME>
      <OUTCOME>0</OUTCOME>
      <OUTCOME>1</OUTCOME>
      <PROPERTY>weight = None</PROPERTY>
    </VARIABLE>
    <VARIABLE TYPE="nature">
      <NAME>20</NAME>
      <OUTCOME>0</OUTCOME>
      <OUTCOME>1</OUTCOME>
      <PROPERTY>weight = None</PROPERTY>
    </VARIABLE>
    <VARIABLE TYPE="nature">
      <NAME>21</NAME>
      <OUTCOME>0</OUTCOME>
      <OUTCOME>1</OUTCOME>
      <PROPERTY>weight = None</PROPERTY>
    </VARIABLE>
    <VARIABLE TYPE="nature">
      <NAME>22</NAME>
      <OUTCOME>0</OUTCOME>
      <OUTCOME>1</OUTCOME>
      <PROPERTY>weight = None</PROPERTY>
    </VARIABLE>
    <VARIABLE TYPE="nature">
      <NAME>23</NAME>
      <OUTCOME>0</OUTCOME>
      <OUTCOME>1</OUTCOME>
      <PROPERTY>weight = None</PROPERTY>
    </VARIABLE>
    <VARIABLE TYPE="nature">
      <NAME>3</NAME>
      <OUTCOME>0</OUTCOME>
      <OUTCOME>1</OUTCOME>
      <PROPERTY>weight = None</PROPERTY>
    </VARIABLE>
    <VARIABLE TYPE="nature">
      <NAME>4</NAME>
      <OUTCOME>0</OUTCOME>
      <OUTCOME>1</OUTCOME>
      <PROPERTY>weight = None</PROPERTY>
    </VARIABLE>
    <VARIABLE TYPE="nature">
      <NAME>5</NAME>
      <OUTCOME>0</OUTCOME>
      <OUTCOME>1</OUTCOME>
      <PROPERTY>weight = None</PROPERTY>
    </VARIABLE>
    <VARIABLE TYPE="nature">
      <NAME>6</NAME>
      <OUTCOME>0</OUTCOME>
      <OUTCOME>1</OUTCOME>
      <PROPERTY>weight = None</PROPERTY>
    </VARIABLE>
    <VARIABLE TYPE="nature">
      <NAME>7</NAME>
      <OUTCOME>0</OUTCOME>
      <OUTCOME>1</OUTCOME>
      <PROPERTY>weight = None</PROPERTY>
    </VARIABLE>
    <VARIABLE TYPE="nature">
      <NAME>8</NAME>
      <OUTCOME>0</OUTCOME>
      <OUTCOME>1</OUTCOME>
      <PROPERTY>weight = None</PROPERTY>
    </VARIABLE>
    <VARIABLE TYPE="nature">
      <NAME>9</NAME>
      <OUTCOME>0</OUTCOME>
      <OUTCOME>1</OUTCOME>
      <PROPERTY>weight = None</PROPERTY>
    </VARIABLE>
    <DEFINITION>
      <FOR>0</FOR>
      <TABLE>0.30866902101265525 0.6913309789873449 </TABLE>
    </DEFINITION>
    <DEFINITION>
      <FOR>1</FOR>
      <TABLE>0.1309197392517366 0.8690802607482634 </TABLE>
    </DEFINITION>
    <DEFINITION>
      <FOR>10</FOR>
      <GIVEN>0</GIVEN>
      <GIVEN>1</GIVEN>
      <TABLE>0.4970070208604965 0.5029929791395036 0.6476932121287715 0.3523067878712285 0.2807569030415277 0.7192430969584722 0.489467222093717 0.5105327779062829 </TABLE>
    </DEFINITION>
    <DEFINITION>
      <FOR>11</FOR>
      <GIVEN>2</GIVEN>
      <GIVEN>5</GIVEN>
      <GIVEN>7</GIVEN>
      <GIVEN>8</GIVEN>
      <GIVEN>10</GIVEN>
      <TABLE>0.1610177834583889 0.8389822165416111 0.9217802751963958 0.07821972480360419 0.23408403660209207 0.7659159633979079 0.7275510626625938 0.2724489373374061 0.5709811160516571 0.4290188839483429 0.5606015146666051 0.43939848533339476 0.37018790855927963 0.6298120914407204 0.48307926725755734 0.5169207327424425 0.6093106473154395 0.39068935268456045 0.8504673093216408 0.14953269067835914 0.9435941758015458 0.056405824198454156 0.7684809172980789 0.2315190827019211 0.49741955089381457 0.5025804491061855 0.7676700661811854 0.2323299338188146 0.0807150726809268 0.9192849273190731 0.4759771278969047 0.5240228721030953 0.21816779591827667 0.7818322040817234 0.720529393952479 0.2794706060475211 0.8635382948071806 0.13646170519281942 0.5856644699358527 0.4143355300641472 0.8454769485507194 0.1545230514492806 0.7511748091470153 0.2488251908529847 0.104076067405878 0.895923932594122 0.4389459935036508 0.5610540064963491 0.9001166992879417 0.09988330071205834 0.5008206021838486 0.4991793978161514 0.40164408020687103 0.5983559197931289 0.7636400608288691 0.23635993917113088 0.5587599520142662 0.4412400479857339 0.03511131852021349 0.9648886814797865 0.37486495102247525 0.6251350489775247 0.3748974861462463 0.6251025138537537 </TABLE>
    </DEFINITION>
    <DEFINITION>
      <FOR>12</FOR>
      <GIVEN>2</GIVEN>
      <GIVEN>4</GIVEN>
      <GIVEN>5</GIVEN>
      <GIVEN>10</GIVEN>
      <GIVEN>11</GIVEN>
      <TABLE>0.3420231849150272 0.6579768150849729 0.22689260568070124 0.7731073943192988 0.5510201878774527 0.4489798121225473 0.01001220201756429 0.9899877979824357 0.125085741539032 0.874914258460968 0.12080707173607208 0.8791929282639279 0.5366207307367414 0.4633792692632586 0.37817725516620304 0.621822744833797 0.01406180650868342 0.9859381934913166 0.6364155000751219 0.36358449992487807 0.6446226613586428 0.3553773386413573 0.6384122020885612 0.3615877979114388 0.09223629307588874 0.9077637069241112 0.579649599613008 0.4203504003869922 0.3443507225131556 0.6556492774868443 0.17464097971234768 0.8253590202876524 0.5397607495297236 0.4602392504702763 0.5909975618327797 0.4090024381672204 0.5425336446307918 0.45746635536920827 0.2309013558228211 0.7690986441771788 0.47896459039296657 0.5210354096070333 0.2690066865165379 0.7309933134834621 0.46237028765121 0.53762971234879 0.3233941816758715 0.6766058183241285 0.45766089094358003 0.54233910905642 0.35971612200296266 0.6402838779970372 0.27577847105829545 0.7242215289417047 0.5673316154829011 0.4326683845170989 0.7948564972683312 0.20514350273166876 0.7677412138323799 0.2322587861676201 0.25840661094721296 0.7415933890527869 0.6355204601376513 0.36447953986234866 </TABLE>
    </DEFINITION>
    <DEFINITION>
      <FOR>13</FOR>
      <GIVEN>2</GIVEN>
      <GIVEN>3</GIVEN>
      <GIVEN>4</GIVEN>
      <GIVEN>5</GIVEN>
      <GIVEN>7</GIVEN>
      <GIVEN>8</GIVEN>
      <GIVEN>11</GIVEN>
      <GIVEN>6</GIVEN>
      <GIVEN>1</GIVEN>
      <TABLE>0.13571631029594114 0.8642836897040589 0.4079313649707219 0.5920686350292782 0.7726439568355347 0.22735604316446528 0.7257804654351605 0.2742195345648395 0.5978529661710642 0.4021470338289359 0.455316644853437 0.5446833551465631 0.356819031205838 0.643180968794162 0.4702726699835997 0.5297273300164003 0.49358335443493345 0.5064166455650665 0.11047627187100327 0.8895237281289967 0.8721104486860026 0.12788955131399743 0.19665245534375672 0.8033475446562433 0.5310792575251183 0.46892074247488175 0.4638457761346904 0.5361542238653096 0.8780754723987545 0.1219245276012455 0.13929378883072494 0.860706211169275 0.4024148030916685 0.5975851969083315 0.29396050477204677 0.7060394952279533 0.5176385429760403 0.48236145702395966 0.2611100574146933 0.7388899425853067 0.6475616925890506 0.35243830741094934 0.9549717896733166 0.0450282103266834 0.6358020723284183 0.36419792767158166 0.5016727108939113 0.4983272891060887 0.4846822240171277 0.5153177759828723 0.6004037814245412 0.3995962185754588 0.5020696603699153 0.49793033963008476 0.9836330286316829 0.016366971368317086 0.6783486185610217 0.32165138143897826 0.4517738898262817 0.5482261101737184 0.7525403423839598 0.2474596576160402 0.5529196660708832 0.4470803339291169 0.4932742207300789 0.5067257792699211 0.05262837160254108 0.9473716283974589 0.5754296387686971 0.4245703612313028 0.9192293615498633 0.08077063845013663 0.6416958300413824 0.3583041699586176 0.41276490450389736 0.5872350954961026 0.37972638118459245 0.6202736188154075 0.5268789207910436 0.4731210792089563 0.7860525438634526 0.2139474561365473 0.5100394635091698 0.48996053649083027 0.36509568767022754 0.6349043123297725 0.39218131840521675 0.6078186815947832 0.8152708498803268 0.18472915011967322 0.534436556767905 0.465563443232095 0.15600010606758183 0.8439998939324181 0.25816510266611326 0.7418348973338867 0.49862429138794634 0.5013757086120537 0.29408439688933036 0.7059156031106698 0.550141639853644 0.44985836014635616 0.35138442746452997 0.6486155725354701 0.5390465239925667 0.4609534760074332 0.9270185892699193 0.07298141073008066 0.6334864631739487 0.3665135368260514 0.6210338710584069 0.378966128941593 0.7075554704644533 0.2924445295355466 0.8038286962517551 0.19617130374824493 0.48059100277164357 0.5194089972283564 0.9701506006937175 0.029849399306282505 0.49730913178786434 0.5026908682121357 0.682662187349495 0.317337812650505 0.439783997684828 0.5602160023151721 0.48623779074360673 0.5137622092563932 0.009184988161959758 0.9908150118380402 0.378529737945958 0.621470262054042 0.7743144045991949 0.22568559540080516 0.1847855983601044 0.8152144016398956 0.049033076372318206 0.9509669236276818 0.3074832701215657 0.6925167298784343 0.8985136912015974 0.10148630879840258 0.6913448447535754 0.3086551552464246 0.4890499285533165 0.5109500714466835 0.20372043665482953 0.7962795633451705 0.4899610373850148 0.5100389626149853 0.5959535963270003 0.4040464036729997 0.46799769270108477 0.5320023072989153 0.41655020518801206 0.583449794811988 0.6053851824320814 0.3946148175679186 0.5522579783330372 0.4477420216669628 0.055906925952300984 0.944093074047699 0.4017558034202126 0.5982441965797874 0.4384834372671566 0.5615165627328433 0.8504124622174357 0.14958753778256426 0.5055103992886666 0.49448960071133335 0.23262331502256514 0.7673766849774347 0.33033227097446066 0.6696677290255393 0.4954779424528917 0.5045220575471083 0.7663226395676426 0.23367736043235746 0.5863681873920797 0.4136318126079203 0.5956380108092444 0.40436198919075556 0.5098259161331367 0.4901740838668633 0.24924723962304995 0.75075276037695 0.17615046772250825 0.8238495322774918 0.5310654118613438 0.46893458813865624 0.5377637007595737 0.46223629924042625 0.13249487213067904 0.867505127869321 0.8081325897263245 0.19186741027367546 0.2710713966811224 0.7289286033188777 0.7282327229009105 0.2717672770990896 0.19830350616473302 0.8016964938352669 0.3340311759071276 0.6659688240928723 0.5742847416077446 0.4257152583922553 0.44376194902700467 0.5562380509729953 0.5471927128904389 0.4528072871095611 0.32184404427463925 0.6781559557253608 0.40341846712170265 0.5965815328782974 0.6047664801902478 0.3952335198097522 0.64368786560442 0.35631213439558 0.40607761117522434 0.5939223888247757 0.5484292919316687 0.4515707080683313 0.8067460792426729 0.19325392075732703 0.5111160463127951 0.488883953687205 0.6494886305102873 0.35051136948971273 0.8469976135815508 0.15300238641844915 0.1437440555957368 0.8562559444042632 0.2834497785387531 0.7165502214612469 0.15827219021800693 0.841727809781993 0.8007000946896897 0.19929990531031025 0.31227082613466584 0.6877291738653342 0.8571218326668687 0.1428781673331313 0.360672902932733 0.639327097067267 0.6891040996453377 0.3108959003546623 0.7026219331002123 0.29737806689978785 0.5014008185304594 0.4985991814695406 0.7513590473395558 0.24864095266044417 0.9001365934420011 0.09986340655799884 0.1901619968078604 0.8098380031921397 0.5167925378063559 0.48320746219364413 0.5147848990536863 0.48521510094631365 0.48769130397345806 0.5123086960265419 0.4038557905250798 0.5961442094749202 0.8307762323867056 0.16922376761329436 0.319415604202472 0.6805843957975279 0.49620816177558574 0.5037918382244142 0.881015230051082 0.1189847699489179 0.9482675301313452 0.05173246986865477 0.21739313003215077 0.7826068699678492 0.8761405573610833 0.12385944263891666 0.6652866152954305 0.3347133847045695 0.9631584402012714 0.03684155979872865 0.15156112316619927 0.8484388768338007 0.8427186940332678 0.1572813059667322 0.49681055322652673 0.5031894467734732 0.42594049582444254 0.5740595041755575 0.5325660994981222 0.4674339005018778 0.6012550873694326 0.39874491263056744 0.8896006206435725 0.11039937935642757 0.4790501327506372 0.5209498672493629 0.18203002157670295 0.8179699784232971 0.2780281934540046 0.7219718065459955 0.4808609198882751 0.5191390801117248 0.31538322607060676 0.6846167739293931 0.3483834176720255 0.6516165823279745 0.5610562659665356 0.43894373403346437 0.4878020943665842 0.5121979056334158 0.0462803228027614 0.9537196771972386 0.404118630736387 0.5958813692636129 0.34073414884134307 0.6592658511586569 0.519857463915204 0.48014253608479596 0.6370283169626647 0.3629716830373354 0.6659782017404702 0.33402179825952977 0.6186098977593674 0.3813901022406326 0.5364871204636555 0.46351287953634446 0.5260176847341871 0.47398231526581286 0.3974188228464023 0.6025811771535977 0.6043782727965897 0.3956217272034102 0.30214579218052007 0.69785420781948 0.6549677564512074 0.3450322435487926 0.5811766088311143 0.4188233911688857 0.6143354206532251 0.38566457934677484 0.5481031726300253 0.4518968273699746 0.5833530507551106 0.41664694924488943 0.4704649279515777 0.5295350720484223 0.5050124274439217 0.4949875725560783 0.9324393513982963 0.06756064860170378 0.7338002050712841 0.26619979492871587 0.2653965343459374 0.7346034656540625 0.3905570325995163 0.6094429674004836 0.906749105656479 0.09325089434352095 0.5617931114463496 0.4382068885536504 0.9958506372069509 0.004149362793049131 0.8749069936980962 0.12509300630190373 0.2023133975603461 0.797686602439654 0.9669426058704668 0.0330573941295332 0.5316547951033845 0.4683452048966155 0.552638290832956 0.44736170916704393 0.41887329351050234 0.5811267064894976 0.5187119871433623 0.4812880128566378 0.901681381003619 0.0983186189963809 0.6337573046962194 0.36624269530378056 0.3866057688943058 0.6133942311056941 0.768165439521312 0.23183456047868806 0.39051897300341004 0.60948102699659 0.40022619515406943 0.5997738048459306 0.5746032772624873 0.4253967227375128 0.3452676415429799 0.6547323584570202 0.5395746550684314 0.46042534493156867 0.007179638687890502 0.9928203613121095 0.41390881764027837 0.5860911823597217 0.3261965365735996 0.6738034634264003 0.054351226488061864 0.9456487735119381 0.7853683275863255 0.21463167241367453 0.5328273464728756 0.4671726535271244 0.7693963019478415 0.23060369805215858 0.09264122139537147 0.9073587786046285 0.5688383526166433 0.43116164738335677 0.9104683745250698 0.08953162547493021 0.5211425787077673 0.47885742129223274 0.782365777970039 0.21763422202996094 0.47001154879023627 0.5299884512097638 0.13873590984117978 0.8612640901588202 0.3858051749525492 0.6141948250474508 0.9210041503540679 0.07899584964593213 0.6046809657234948 0.39531903427650517 0.7753873316291595 0.2246126683708405 0.32636937734049803 0.6736306226595019 0.5402444284963047 0.45975557150369534 0.6695480053463562 0.3304519946536439 0.38401038756185696 0.6159896124381431 0.15975540795567036 0.8402445920443297 0.33255142244133545 0.6674485775586645 0.06580318509143962 0.9341968149085603 0.515395642205497 0.484604357794503 0.46259726356632824 0.5374027364336718 0.6208475831266215 0.37915241687337853 0.6744566370293023 0.3255433629706976 0.39487212636640967 0.6051278736335903 0.673840134438135 0.3261598655618651 0.6446805442755573 0.3553194557244427 0.5384414557481001 0.4615585442518999 0.933645093202881 0.06635490679711903 0.2000027943531022 0.7999972056468978 0.5123503004076181 0.4876496995923819 0.6575986078021201 0.34240139219787985 0.6272984723628745 0.3727015276371255 0.2549690634561442 0.7450309365438559 0.3180012268937163 0.6819987731062838 0.6694271349377303 0.3305728650622697 0.5832051675928016 0.4167948324071984 0.18523437122739184 0.8147656287726082 0.03521599208937285 0.9647840079106271 0.5741979059112424 0.4258020940887577 0.5200541339857481 0.47994586601425193 0.6190347634418643 0.38096523655813574 0.7752038579914539 0.22479614200854617 0.8614486602146556 0.13855133978534442 0.5189484866407342 0.4810515133592657 0.5623367794772127 0.4376632205227874 0.2729289606753066 0.7270710393246934 0.05519781534404687 0.9448021846559531 0.4440756987628761 0.5559243012371239 0.6391349717113789 0.3608650282886211 0.3922414603205758 0.6077585396794242 0.8038877982771613 0.19611220172283877 0.7828543048355637 0.2171456951644364 0.5068996230788023 0.4931003769211976 0.6103745780672916 0.3896254219327085 0.5118371866175816 0.48816281338241835 0.2585271501470234 0.7414728498529766 0.44423297337542744 0.5557670266245726 0.31090535677354486 0.6890946432264552 0.4283276229230858 0.5716723770769142 0.09761495454392696 0.902385045456073 0.9311505246808547 0.06884947531914531 0.18343658638865318 0.8165634136113469 0.9326851607008733 0.06731483929912672 0.10012397887366124 0.8998760211263388 0.4356612001659723 0.5643387998340277 0.9865675418597127 0.01343245814028725 0.1577635126774801 0.84223648732252 0.5843897213203665 0.4156102786796336 0.5716822926182841 0.42831770738171593 0.6341800398134604 0.36581996018653956 0.19518790034005118 0.8048120996599488 0.7760314754650298 0.22396852453497018 0.44515867521725316 0.5548413247827468 0.8001294785399652 0.1998705214600348 0.2890312639885436 0.7109687360114564 0.7207316092598429 0.2792683907401571 0.54204682333782 0.45795317666218005 0.34364479563028394 0.656355204369716 0.3730877818357269 0.6269122181642731 0.4377666581250398 0.5622333418749603 0.19846525416059282 0.8015347458394072 0.5750099887009813 0.42499001129901876 0.509979336924373 0.490020663075627 0.379644303185279 0.6203556968147211 0.6099864701954324 0.39001352980456766 0.4649634187299691 0.535036581270031 0.42648919724345646 0.5735108027565434 0.5899732648999427 0.4100267351000573 0.8776491269580612 0.12235087304193883 0.5236380550971705 0.47636194490282946 0.9225705226840063 0.07742947731599369 0.2660107307865125 0.7339892692134874 0.6793400840655539 0.3206599159344462 0.5724122430456607 0.4275877569543392 0.7049115285174794 0.2950884714825206 0.3397482650535552 0.6602517349464448 0.6792680789153543 0.32073192108464577 0.7207741435580326 0.2792258564419674 0.4273624032028378 0.5726375967971622 0.4042353467615145 0.5957646532384856 0.4618264585226194 0.5381735414773805 0.21375834578577732 0.7862416542142227 0.9169443574059458 0.08305564259405422 0.32544581695868613 0.6745541830413139 0.687310135530084 0.312689864469916 0.17007251807716545 0.8299274819228346 0.7797601430857322 0.2202398569142678 0.3006224294355993 0.6993775705644008 0.9682015656168486 0.03179843438315142 0.5082241406552538 0.4917758593447462 0.5139614177061539 0.486038582293846 0.47609637584619874 0.5239036241538012 0.4690262117930744 0.5309737882069256 0.5672823680491456 0.4327176319508544 0.6536113703656545 0.34638862963434547 0.5082805530801797 0.4917194469198202 0.4546130100088268 0.5453869899911733 0.5557383588458789 0.4442616411541211 0.6101999010651527 0.38980009893484735 0.5580921918117783 0.44190780818822173 0.61057993568495 0.38942006431505005 0.19026261236106026 0.8097373876389398 0.40316076103229187 0.5968392389677082 0.5940521197005744 0.40594788029942563 0.8753353861754722 0.12466461382452772 0.9669553540165716 0.03304464598342833 0.5464143594843928 0.4535856405156073 0.8602915456844006 0.13970845431559945 0.5205765271961798 0.47942347280382025 0.239893134895745 0.760106865104255 0.5326575182797784 0.46734248172022164 0.3825384150998879 0.617461584900112 0.7319217086498611 0.26807829135013894 0.36466171160915295 0.635338288390847 0.4955390006963464 0.5044609993036536 0.3946970985641121 0.6053029014358878 0.6867752516093544 0.3132247483906457 0.28379313231755393 0.716206867682446 0.6538468894136693 0.3461531105863307 0.21211475471818525 0.7878852452818147 0.48284737189200116 0.5171526281079989 0.40272624935997453 0.5972737506400255 0.27358998724443523 0.7264100127555647 0.4378853049954808 0.5621146950045192 0.7698796269141457 0.23012037308585429 0.05811007769933759 0.9418899223006624 0.46032868856580444 0.5396713114341956 0.5718147686063685 0.4281852313936315 0.5507980242959355 0.44920197570406434 0.6785288412410224 0.3214711587589775 0.4003639898013511 0.599636010198649 0.3453245840034981 0.6546754159965019 0.6428111704540795 0.3571888295459205 0.7480149211968388 0.2519850788031613 0.4851083914547947 0.5148916085452054 0.3174365296422162 0.6825634703577838 0.39211976155193357 0.6078802384480665 0.6700757859365748 0.3299242140634252 0.5088592467655351 0.491140753234465 0.3444870862846418 0.6555129137153582 0.9978130880372889 0.002186911962711152 0.4962604560889277 0.5037395439110723 0.7468977840839944 0.2531022159160055 0.40125054998526954 0.5987494500147306 0.44480970543429416 0.5551902945657058 0.020608085561249146 0.9793919144387508 0.3222672784172689 0.6777327215827311 0.4356200953045599 0.5643799046954402 0.2343592961327966 0.7656407038672034 0.02041964472376058 0.9795803552762394 0.34703983976308483 0.6529601602369152 0.5156431669681378 0.4843568330318622 0.5750036633305388 0.42499633666946135 0.39327467217173523 0.6067253278282648 0.3958772953005183 0.6041227046994817 0.7490589964741233 0.2509410035258767 0.21850400496511335 0.7814959950348866 0.6822539126719788 0.31774608732802123 0.7617174136747594 0.23828258632524052 0.62352048590879 0.37647951409121017 0.5622426352032946 0.4377573647967054 0.49002764099196255 0.5099723590080374 0.6125455780979173 0.3874544219020827 0.6297058345580582 0.3702941654419419 0.4305808216669965 0.5694191783330034 0.5244874368741321 0.4755125631258679 0.4077969176069534 0.5922030823930466 0.4116057270257976 0.5883942729742024 0.729139764200337 0.270860235799663 0.5405389449105833 0.4594610550894167 0.4605868455566096 0.5394131544433904 0.8414409189399322 0.15855908106006775 0.2006578984724381 0.7993421015275619 0.5036400253835458 0.4963599746164542 0.995441699925667 0.004558300074333002 0.5606469922280088 0.4393530077719912 0.5768388863525022 0.42316111364749776 0.6207706287415392 0.37922937125846085 0.3951661909525979 0.604833809047402 0.7110843754121062 0.2889156245878938 0.21051927447097774 0.7894807255290223 0.546823515322182 0.45317648467781807 0.30839533643058015 0.6916046635694199 0.8421577118568302 0.15784228814316983 0.3234247903475513 0.6765752096524488 0.5308305773447147 0.4691694226552853 0.7108089060712451 0.28919109392875486 0.42347489456362497 0.576525105436375 0.39566006578140656 0.6043399342185934 0.4499444356718296 0.5500555643281704 0.4101597075426241 0.5898402924573759 0.5326925838459486 0.46730741615405147 0.7038614861454262 0.2961385138545738 0.7535112897729052 0.24648871022709473 0.36900248266182556 0.6309975173381744 0.6625959605109745 0.33740403948902564 0.9727198831848181 0.027280116815181967 0.3644930740830519 0.635506925916948 0.4430910485428711 0.5569089514571288 0.44368358080699344 0.5563164191930066 0.4152052538768787 0.5847947461231213 0.8839747252962455 0.11602527470375448 0.25481293313393283 0.7451870668660672 0.7613029390924887 0.23869706090751122 0.2571655541885402 0.7428344458114599 0.5388702997566021 0.46112970024339783 0.15946400575947486 0.8405359942405252 0.5662736372960683 0.4337263627039317 0.3182197833500493 0.6817802166499507 0.4585359943940849 0.5414640056059152 0.5286443438840526 0.4713556561159474 0.16219752649571892 0.837802473504281 0.8448855834275805 0.1551144165724195 0.1798783381007204 0.8201216618992796 0.5685262469222867 0.4314737530777133 0.5839425268587101 0.41605747314129 0.7178648156856738 0.28213518431432616 0.8379859965202441 0.1620140034797559 0.6731637403585579 0.3268362596414422 0.40176788022920046 0.5982321197707996 0.5062382577841942 0.4937617422158058 0.591849631200724 0.40815036879927613 0.5780280913390113 0.42197190866098866 0.6883099926236277 0.3116900073763723 0.03373189798686848 0.9662681020131315 0.8927451710339787 0.10725482896602127 0.0016710829981006615 0.9983289170018993 0.12021904492555283 0.8797809550744473 0.7372531877933647 0.26274681220663537 0.49804544164227305 0.5019545583577271 0.3945397727597353 0.6054602272402647 0.43370237143462165 0.5662976285653785 0.7258157636243192 0.27418423637568085 0.24864941700258908 0.7513505829974109 0.25218030672850006 0.7478196932714999 0.585858105141651 0.4141418948583489 0.3282361001592264 0.6717638998407737 0.4803616259840659 0.519638374015934 0.15575070894879198 0.8442492910512079 0.5700009816973454 0.42999901830265463 0.46952286447072134 0.5304771355292787 0.7148244681678895 0.28517553183211053 0.9864628158162175 0.013537184183782448 0.5204766264819842 0.47952337351801577 0.44005249425018067 0.5599475057498194 0.9636381920714735 0.03636180792852647 0.48764722089584334 0.5123527791041567 0.22482801451584014 0.7751719854841598 0.186556122824977 0.813443877175023 0.26876680274249387 0.7312331972575061 0.19232517720195694 0.807674822798043 0.10473085617483831 0.8952691438251617 0.2617704412586688 0.7382295587413312 0.07454339886214044 0.9254566011378595 0.3669167471417052 0.6330832528582947 0.7795516734476288 0.2204483265523712 0.4100030907373154 0.5899969092626846 0.2594090104741411 0.7405909895258589 0.7289133222917477 0.27108667770825234 0.526293923310622 0.47370607668937803 0.7622294342584998 0.23777056574150024 0.7304513647036842 0.2695486352963157 0.5092071677280038 0.4907928322719962 0.5510848178326979 0.44891518216730203 0.8635419830866614 0.1364580169133386 0.19376618752957656 0.8062338124704234 0.42046526126509826 0.5795347387349017 0.950210474015703 0.04978952598429696 0.08068741511575898 0.9193125848842411 0.22252865308163855 0.7774713469183615 0.5502078776339495 0.4497921223660505 0.558514751039102 0.441485248960898 0.370777660154072 0.629222339845928 0.39901300276299706 0.6009869972370031 0.4381695014876294 0.5618304985123707 0.7136731255589599 0.2863268744410401 0.7717509615165379 0.22824903848346217 0.07277572207425818 0.9272242779257418 0.8385219550995137 0.1614780449004863 0.1882772757221079 0.8117227242778922 0.3486332049976596 0.6513667950023404 0.07797884332261208 0.9220211566773879 0.731033189627552 0.26896681037244796 0.5330046483608103 0.4669953516391898 0.17595206322758836 0.8240479367724116 0.7741949445973287 0.2258050554026713 0.30905396847688993 0.6909460315231101 0.2918130708426852 0.7081869291573147 </TABLE>
    </DEFINITION>
    <DEFINITION>
      <FOR>14</FOR>
      <GIVEN>4</GIVEN>
      <GIVEN>8</GIVEN>
      <GIVEN>9</GIVEN>
      <GIVEN>10</GIVEN>
      <GIVEN>11</GIVEN>
      <GIVEN>1</GIVEN>
      <TABLE>0.6911984735311029 0.3088015264688971 0.40917868284186426 0.5908213171581358 0.2125179003664408 0.7874820996335592 0.22790222752263023 0.7720977724773698 0.12708751840235202 0.8729124815976479 0.2322098370446921 0.7677901629553079 0.36218874817429797 0.637811251825702 0.20204204904048276 0.7979579509595172 0.5148493102949696 0.4851506897050304 0.5006329858032414 0.4993670141967585 0.37585939178891137 0.6241406082110886 0.2720280757728016 0.7279719242271985 0.6823220786983394 0.3176779213016606 0.6692705898763872 0.3307294101236128 0.2724562153728735 0.7275437846271265 0.13457278277306936 0.8654272172269306 0.5313518561912923 0.46864814380870773 0.507353045347874 0.49264695465212605 0.20144583726936785 0.7985541627306322 0.5500616133455463 0.4499383866544537 0.6878106017153417 0.3121893982846583 0.651405076148009 0.348594923851991 0.2848895427064479 0.715110457293552 0.27115152948695354 0.7288484705130465 0.7973752329388244 0.2026247670611756 0.8157221830004766 0.18427781699952342 0.09393794320975803 0.906062056790242 0.887905339959456 0.11209466004054407 0.3550084786020161 0.644991521397984 0.6909882487529699 0.30901175124703 0.06118699881870546 0.9388130011812945 0.5752245359684197 0.42477546403158034 0.8089168954585143 0.19108310454148555 0.5449656313305863 0.45503436866941377 0.986495743802238 0.01350425619776197 0.3688820502144969 0.6311179497855032 0.5788242271455727 0.42117577285442725 0.5249165036617832 0.4750834963382168 0.5562340943624648 0.44376590563753515 0.054512199024098706 0.9454878009759013 0.2538264262700323 0.7461735737299676 0.8494456977549937 0.15055430224500627 0.7928209071864442 0.20717909281355576 0.4445378239472686 0.5554621760527313 0.391687481361898 0.608312518638102 0.8272682478771177 0.17273175212288222 0.0377281290569198 0.9622718709430803 0.5921103829169009 0.40788961708309907 0.7464320219964192 0.2535679780035808 0.7582201378932236 0.24177986210677638 0.5784422706485943 0.42155772935140556 0.5756033937895214 0.4243966062104786 0.9692333783370799 0.03076662166292012 0.8333298121428762 0.16667018785712384 0.2939783100080311 0.7060216899919689 0.29609016127348514 0.7039098387265149 0.17750806371181058 0.8224919362881894 0.3571797993203795 0.6428202006796204 0.8841735074209823 0.11582649257901773 0.988028512176932 0.011971487823068021 0.4049138992150547 0.5950861007849453 0.27854608116384005 0.72145391883616 0.4647880321341919 0.5352119678658082 0.7326503428288839 0.2673496571711161 </TABLE>
    </DEFINITION>
    <DEFINITION>
      <FOR>15</FOR>
      <GIVEN>3</GIVEN>
      <GIVEN>4</GIVEN>
      <GIVEN>5</GIVEN>
      <GIVEN>10</GIVEN>
      <GIVEN>11</GIVEN>
      <GIVEN>13</GIVEN>
      <GIVEN>6</GIVEN>
      <GIVEN>14</GIVEN>
      <GIVEN>1</GIVEN>
      <TABLE>0.4923922626685935 0.5076077373314064 0.455354405674215 0.5446455943257851 0.32307426663749966 0.6769257333625003 0.36189460323727224 0.6381053967627277 0.5818022599324864 0.41819774006751353 0.7765473819894925 0.2234526180105075 0.5855070105215715 0.41449298947842855 0.43127141310043826 0.5687285868995618 0.46998714079944653 0.5300128592005535 0.13000451204118435 0.8699954879588156 0.16891356604099522 0.8310864339590047 0.6451428014639753 0.35485719853602465 0.29226427828749124 0.7077357217125088 0.13495009405290748 0.8650499059470925 0.4792851223644919 0.5207148776355082 0.42984579662820827 0.5701542033717918 0.2225505135864511 0.7774494864135489 0.09142337016717628 0.9085766298328237 0.15889191559353344 0.8411080844064666 0.39121606357239214 0.6087839364276079 0.4849533473409999 0.5150466526590001 0.5037606264987116 0.4962393735012884 0.541336130794974 0.458663869205026 0.8369931722891368 0.16300682771086317 0.5075866598511687 0.4924133401488313 0.7871093337911007 0.21289066620889932 0.10488108564767018 0.8951189143523298 0.4930405482476414 0.5069594517523586 0.1518103934205394 0.8481896065794606 0.6280687652160784 0.3719312347839216 0.26634886244079253 0.7336511375592074 0.5757551800769749 0.42424481992302504 0.8308344345261545 0.1691655654738455 0.6082757852356511 0.3917242147643489 0.20473818382968106 0.7952618161703189 0.09434296899182769 0.9056570310081723 0.6106029185936338 0.38939708140636625 0.3638537010582041 0.636146298941796 0.47728237790260186 0.5227176220973981 0.49080972064232814 0.5091902793576718 0.3435180213093671 0.656481978690633 0.6286383230094121 0.3713616769905877 0.2211656029591584 0.7788343970408417 0.7790868236056316 0.22091317639436833 0.41622586688135904 0.583774133118641 0.47829395927187857 0.5217060407281214 0.49777280662243906 0.5022271933775609 0.22844635540848415 0.7715536445915159 0.8650051402627247 0.1349948597372753 0.6913896489227 0.3086103510773 0.4350244192420774 0.5649755807579225 0.027921304156540195 0.9720786958434599 0.32107000444753997 0.67892999555246 0.6545228641902505 0.3454771358097495 0.4191473382461502 0.5808526617538498 0.4457874310965259 0.554212568903474 0.7573232847838028 0.2426767152161972 0.9447255488418455 0.05527445115815459 0.6602432626695215 0.33975673733047856 0.6638143265442222 0.33618567345577777 0.8808350988474846 0.11916490115251548 0.8085063673921692 0.1914936326078308 0.46042676818288525 0.5395732318171147 0.8109868490043879 0.18901315099561214 0.48956762458598485 0.5104323754140152 0.5176757236536931 0.4823242763463068 0.5970866032106109 0.40291339678938903 0.6415742906364109 0.35842570936358914 0.7841438656809887 0.21585613431901135 0.016173929577888903 0.9838260704221111 0.17480205866649395 0.8251979413335061 0.0962229021756137 0.9037770978243863 0.5541043466141883 0.4458956533858117 0.22632897561719534 0.7736710243828047 0.41400163721392563 0.5859983627860743 0.44725501548677465 0.5527449845132254 0.36935959007315333 0.6306404099268467 0.24920477324866516 0.7507952267513348 0.2125496199090198 0.7874503800909802 0.41257079823557863 0.5874292017644214 0.26068078908371156 0.7393192109162885 0.40077591804583235 0.5992240819541678 0.3194054721815044 0.6805945278184956 0.008221936180329022 0.9917780638196709 0.5394776467281018 0.4605223532718981 0.748863789980666 0.2511362100193339 0.3929010228710164 0.6070989771289835 0.5333061990598329 0.46669380094016705 0.010245725672390663 0.9897542743276093 0.5035137295743065 0.4964862704256935 0.4142853222004945 0.5857146777995055 0.45644330718731063 0.5435566928126894 0.26513519330975216 0.7348648066902478 0.6639789581116073 0.33602104188839277 0.733294084899038 0.26670591510096214 0.6646592079270108 0.3353407920729891 0.7737647095313869 0.22623529046861318 0.7415546579018625 0.2584453420981376 0.6820051465100461 0.31799485348995393 0.5120063356647967 0.48799366433520336 0.577078077481017 0.422921922518983 0.5956745084085734 0.4043254915914265 0.8844082495034588 0.11559175049654125 0.6404779273149159 0.35952207268508407 0.554941087507813 0.44505891249218704 0.936041654234151 0.06395834576584902 0.161666862031327 0.838333137968673 0.03951997755671064 0.9604800224432893 0.09823085740017186 0.9017691425998281 0.8257945951596438 0.17420540484035615 0.7843780385260817 0.21562196147391838 0.9193380381808403 0.08066196181915976 0.37578766336925534 0.6242123366307446 0.27855259085547524 0.7214474091445249 0.3963139369201059 0.603686063079894 0.38400750903321057 0.6159924909667894 0.7212429462401474 0.2787570537598527 0.840927413798261 0.15907258620173906 0.45562184532299466 0.5443781546770055 0.6509953328879762 0.34900466711202377 0.8159412812452222 0.18405871875477775 0.8310599009039519 0.16894009909604824 0.7118849934904012 0.2881150065095986 0.5245930008933438 0.4754069991066562 0.7315000270294905 0.26849997297050954 0.8440670564838273 0.15593294351617265 0.31799581999265103 0.6820041800073489 0.6965999667699824 0.30340003323001763 0.515693950132159 0.48430604986784087 0.6480832545843134 0.3519167454156865 0.5271839641163185 0.4728160358836815 0.3038741814155781 0.6961258185844219 0.7259715961812818 0.27402840381871824 0.4844675401791505 0.5155324598208495 0.8554553461471391 0.1445446538528608 0.26880549136064497 0.7311945086393551 0.07516346756949174 0.9248365324305082 0.5172034434975211 0.4827965565024789 0.8282255173658505 0.1717744826341495 0.25539047091352246 0.7446095290864776 0.3692866086158621 0.630713391384138 0.6122474909944533 0.3877525090055467 0.7712023242655551 0.22879767573444484 0.3812725647747657 0.6187274352252343 0.4454988876357383 0.5545011123642617 0.8147519843101314 0.18524801568986862 0.8263891594346066 0.17361084056539347 0.29527302619289797 0.704726973807102 0.5973014830797336 0.4026985169202665 0.6992296614923437 0.30077033850765633 0.49008600032093064 0.5099139996790694 0.2560841606099051 0.743915839390095 0.46485673382471937 0.5351432661752806 0.4289677666466188 0.5710322333533812 0.25021435588046664 0.7497856441195333 0.7418578793518157 0.25814212064818437 0.6641660328915481 0.33583396710845187 0.4956782125468297 0.5043217874531704 0.8015836446547573 0.19841635534524266 0.4017154650369954 0.5982845349630047 0.5516625287909712 0.4483374712090289 0.7449508818385392 0.2550491181614608 0.5722617486295766 0.4277382513704235 0.08463729035736406 0.915362709642636 0.578301024655443 0.42169897534455697 0.5958687463102496 0.40413125368975034 0.36751292910756744 0.6324870708924326 0.045335123835350766 0.9546648761646492 0.5662816534850442 0.43371834651495583 0.8730701779771484 0.1269298220228516 0.45999170108794235 0.5400082989120577 0.5113720278014697 0.4886279721985303 0.39038067268332494 0.6096193273166751 0.6686961539717867 0.3313038460282133 0.7455291487737332 0.2544708512262669 0.9816631183359241 0.01833688166407585 0.8064837224731146 0.1935162775268854 0.49213036824475836 0.5078696317552416 0.5144319697191551 0.485568030280845 0.4737163263275634 0.5262836736724366 0.05398194083604507 0.946018059163955 0.09687551341236622 0.9031244865876338 0.8635652112109858 0.13643478878901433 0.6336357814753578 0.36636421852464224 0.876275288129453 0.12372471187054705 0.6944534836683893 0.30554651633161073 0.5414850358155546 0.45851496418444526 0.4741306800086416 0.5258693199913584 0.11908899526019076 0.8809110047398092 0.8444830726508875 0.15551692734911243 0.8317738076559684 0.16822619234403155 0.33478121314675313 0.6652187868532468 0.52337313910417 0.47662686089583 0.4272466221731135 0.5727533778268864 0.3600030807838931 0.6399969192161069 0.6606646957313128 0.33933530426868724 0.4611527952160617 0.5388472047839383 0.8390367710672673 0.1609632289327328 0.6547911376675435 0.34520886233245657 0.7386641279925126 0.2613358720074874 0.5709277332693167 0.42907226673068327 0.8258535993707473 0.17414640062925266 0.7795094148986228 0.22049058510137723 0.35193145486930955 0.6480685451306905 0.37666082589917976 0.6233391741008203 0.6824212165306873 0.3175787834693127 0.6802916901958739 0.31970830980412607 0.43467403445614716 0.5653259655438528 0.3064779707875843 0.6935220292124157 0.9258438142268144 0.07415618577318558 0.17411301705345605 0.825886982946544 0.8605679834532103 0.1394320165467898 0.1904224873240161 0.8095775126759839 0.1151646657669631 0.8848353342330368 0.3878266191428712 0.6121733808571289 0.4416453246418007 0.5583546753581994 0.11467281959740405 0.885327180402596 0.5076586933893565 0.49234130661064346 0.4321506915393097 0.5678493084606904 0.6128717344876777 0.38712826551232227 0.9359464227664079 0.06405357723359206 0.03504548473698326 0.9649545152630168 0.1018217752670919 0.8981782247329081 0.5627013100510531 0.4372986899489469 0.21080775025495807 0.789192249745042 0.4455786525190034 0.5544213474809967 0.409349159530181 0.590650840469819 0.9950732167031752 0.0049267832968248135 0.6480152477905256 0.3519847522094745 0.4029982495893169 0.597001750410683 0.7789359318095969 0.22106406819040314 0.038546442534289724 0.9614535574657103 0.004602983055188339 0.9953970169448116 0.19766362929773146 0.8023363707022685 0.5287958387009157 0.4712041612990844 0.4783739683635486 0.5216260316364514 0.10489770108716122 0.8951022989128388 0.22657925476525706 0.7734207452347429 0.8283558680252205 0.17164413197477943 0.6108777122164041 0.3891222877835959 0.3527854297705567 0.6472145702294433 0.6261952799650059 0.3738047200349941 0.37051584275911875 0.6294841572408811 0.29645103471329864 0.7035489652867013 0.18361850523892304 0.816381494761077 0.39742406224175497 0.602575937758245 0.5885088307342247 0.41149116926577534 0.5792040443858222 0.4207959556141777 0.31082051455717313 0.6891794854428268 0.18839559924298876 0.8116044007570112 0.8279097380707324 0.17209026192926768 0.4854388048101618 0.5145611951898382 0.07504392912632925 0.9249560708736707 0.589795088879257 0.410204911120743 0.8951527185933182 0.10484728140668181 0.4688821826995763 0.5311178173004236 0.4975978525498463 0.5024021474501537 0.48897632779089967 0.5110236722091003 0.4857841110554483 0.5142158889445516 0.015808770120808845 0.9841912298791912 0.4640193997288996 0.5359806002711003 0.8135853593301419 0.186414640669858 0.49791627666641025 0.5020837233335897 0.1669537629748672 0.8330462370251328 0.14543708104289188 0.8545629189571081 0.17489739895382925 0.8251026010461707 0.6304081292889298 0.36959187071107036 0.08891756294855188 0.9110824370514481 0.13384996383807138 0.8661500361619286 0.5585492585190616 0.4414507414809385 0.15174911635410043 0.8482508836458995 0.33701697156811006 0.6629830284318899 0.1822690703078118 0.8177309296921881 0.11321347041170644 0.8867865295882935 0.40509111707158113 0.5949088829284188 0.8620969887655523 0.1379030112344477 0.9791113711237288 0.020888628876271194 0.6391529292062622 0.36084707079373785 0.6459650680573641 0.354034931942636 0.8706201671921351 0.12937983280786494 0.6058463550719849 0.394153644928015 0.48470098059243755 0.5152990194075625 0.27712403161874233 0.7228759683812577 0.5660597507549775 0.43394024924502245 0.6129297360439887 0.38707026395601124 0.17898245932123297 0.8210175406787671 0.5851045239524345 0.4148954760475655 0.2752234451258342 0.7247765548741658 0.3625107507422757 0.6374892492577243 0.7563693076811835 0.24363069231881654 0.550976503833665 0.44902349616633497 0.4056229373770072 0.5943770626229927 0.34600660446390546 0.6539933955360946 0.11788945999303507 0.882110540006965 0.5949108407791373 0.40508915922086275 0.27526261088381176 0.7247373891161882 0.46779945924609956 0.5322005407539003 0.23826182965780027 0.7617381703421997 0.1843267662975215 0.8156732337024785 0.7547136958149566 0.2452863041850434 0.4962800886551842 0.5037199113448158 0.9959910743727626 0.004008925627237409 0.014526831758743855 0.9854731682412562 0.5884443408983377 0.4115556591016622 0.9681113946733557 0.031888605326644254 0.7618591931476296 0.23814080685237038 0.7082161303215712 0.29178386967842884 0.4903091637171323 0.5096908362828677 0.9924868277587034 0.007513172241296528 0.5271803522479866 0.4728196477520133 0.6300316989958265 0.3699683010041736 0.396016250762935 0.6039837492370651 0.4549002522350908 0.5450997477649092 0.3653406538569418 0.6346593461430582 0.7937290254978406 0.20627097450215942 0.9851831213137474 0.01481687868625263 0.009169922625621179 0.9908300773743788 0.595162033047068 0.40483796695293195 0.68057480418174 0.31942519581826007 0.5961353807251479 0.40386461927485207 0.279564010663215 0.720435989336785 0.9741387750042427 0.025861224995757253 0.26419493102222097 0.735805068977779 0.4199502301771912 0.5800497698228088 0.5755038995615223 0.4244961004384777 0.07490651691344412 0.9250934830865559 0.7535750435110528 0.24642495648894722 0.1719050876667039 0.828094912333296 0.5638578362305828 0.43614216376941717 0.22352037418306106 0.7764796258169391 0.7860738055069234 0.21392619449307654 0.4556127208188246 0.5443872791811755 0.5498582272424909 0.45014177275750916 0.5403809245452579 0.4596190754547422 0.1338912376690407 0.8661087623309593 0.582376490091334 0.41762350990866604 0.026800642299433096 0.9731993577005669 0.5049473980316094 0.49505260196839057 0.08787337150646701 0.912126628493533 0.36066748129909265 0.6393325187009073 0.7118040586251274 0.28819594137487264 0.541374248055321 0.458625751944679 0.6033013312344584 0.3966986687655416 0.12185868381794607 0.8781413161820539 0.0024214192246698567 0.9975785807753301 0.4149057156035317 0.5850942843964683 0.23837706347431706 0.7616229365256829 0.19805855013037393 0.801941449869626 0.3945036950677584 0.6054963049322416 0.41863209047265953 0.5813679095273404 0.5193095569952234 0.4806904430047765 0.4953710562299327 0.5046289437700673 0.17109020796972757 0.8289097920302724 0.6566484584404346 0.3433515415595655 0.10993310982851787 0.8900668901714821 0.5922507925925611 0.407749207407439 0.36558567876743786 0.6344143212325621 0.04763070477247933 0.9523692952275207 0.5851471499476335 0.41485285005236655 0.35897616643149766 0.6410238335685023 0.5369825781700316 0.4630174218299684 0.6582635001826337 0.34173649981736626 0.25965655925004316 0.740343440749957 0.19668919117808073 0.8033108088219193 0.503255521728959 0.4967444782710409 0.20501246355106217 0.7949875364489378 0.6050922819617163 0.3949077180382837 0.23895047634219851 0.7610495236578014 0.031879086164525276 0.9681209138354747 0.6598086601947761 0.34019133980522387 0.12480671213558067 0.8751932878644193 0.3090255475271188 0.6909744524728813 0.7044417332343372 0.29555826676566277 0.8758912314540707 0.12410876854592938 0.47933959098035256 0.5206604090196474 0.31133137318346893 0.6886686268165311 0.837206768832248 0.16279323116775202 0.8098518166938986 0.19014818330610142 0.5989199966168631 0.40108000338313693 0.16536679478328523 0.8346332052167148 0.7027355792901789 0.2972644207098209 0.4774955762928683 0.5225044237071317 0.7374306998581363 0.26256930014186375 0.21273092938450638 0.7872690706154937 0.054517933857995686 0.9454820661420044 0.1792770838377822 0.8207229161622178 0.6170650279280421 0.38293497207195804 0.4093992253042674 0.5906007746957327 0.3400769327814912 0.6599230672185088 0.5428820850080641 0.45711791499193577 0.7077950842552703 0.29220491574472973 0.3989295755284248 0.6010704244715752 0.794158090462842 0.20584190953715797 0.948073580925619 0.051926419074381024 0.613776694472149 0.386223305527851 0.21435516015800785 0.7856448398419921 0.3511274673527906 0.6488725326472093 0.43943672337749246 0.5605632766225077 0.8463698926429916 0.15363010735700847 0.4184746497864717 0.5815253502135282 0.4340649885203538 0.5659350114796462 0.9378950065292481 0.062104993470751976 0.9975671443555608 0.0024328556444391494 0.43550157617401286 0.5644984238259872 0.5155751444918469 0.48442485550815306 0.44351954919479986 0.5564804508052001 0.6173504796804397 0.38264952031956045 0.3294097311470429 0.670590268852957 0.5729662933852406 0.42703370661475937 0.7385063574764963 0.2614936425235036 0.5307989840588476 0.4692010159411523 0.8052958587229223 0.1947041412770777 0.6350720333896671 0.3649279666103329 0.33906105820264526 0.6609389417973548 0.7261828395241762 0.27381716047582383 0.5902309644048909 0.4097690355951091 0.25979164900138385 0.7402083509986161 0.4187678096164261 0.581232190383574 0.6641626382203065 0.33583736177969353 0.057358052153928286 0.9426419478460717 0.3353329843542654 0.6646670156457346 0.4840642148854962 0.5159357851145038 0.7372841763795128 0.26271582362048723 0.44874912052536764 0.5512508794746324 0.13085571007592123 0.8691442899240787 0.3343341387996816 0.6656658612003185 0.6829913829544613 0.3170086170455387 0.19015114662352905 0.809848853376471 0.7909512773964372 0.2090487226035628 0.6156171743654321 0.384382825634568 0.417205994650193 0.5827940053498069 0.6775472257737098 0.3224527742262902 0.715946567742896 0.28405343225710394 0.57401305818698 0.42598694181302005 0.462599135981002 0.537400864018998 0.3567965069056646 0.6432034930943354 0.5194595874869324 0.4805404125130676 0.7269606844005911 0.27303931559940886 0.6150589955862121 0.38494100441378787 0.35601669439511124 0.6439833056048888 0.5471077650134084 0.4528922349865915 0.1060408902862061 0.8939591097137939 0.4025170700294613 0.5974829299705386 0.5487021982825435 0.45129780171745654 0.2784710201087535 0.7215289798912464 0.46236171579368474 0.5376382842063152 0.9859021668502935 0.014097833149706496 0.2570002403961413 0.7429997596038587 0.2092889157756987 0.7907110842243013 0.8822771105896906 0.11772288941030941 0.1268829186303163 0.8731170813696837 0.626997998078735 0.3730020019212649 0.39773794371073656 0.6022620562892634 0.7391179066242276 0.26088209337577245 0.40322122655228587 0.5967787734477141 0.3338198534382074 0.6661801465617927 0.31343008399030137 0.6865699160096986 0.4274163807355514 0.5725836192644487 0.6034950074893026 0.39650499251069726 0.3347254973773528 0.6652745026226472 0.8432279952045673 0.15677200479543274 0.5456364670296039 0.45436353297039617 0.767170841166662 0.232829158833338 0.32933406424306555 0.6706659357569345 0.4212138304529276 0.5787861695470724 0.40062662790070447 0.5993733720992956 0.388745460909473 0.6112545390905271 0.8811030303622168 0.11889696963778314 0.3372689501481211 0.6627310498518789 0.47199520508037757 0.5280047949196225 0.4814398983668841 0.5185601016331159 0.33449879069187594 0.6655012093081241 0.3135320714483501 0.68646792855165 0.13774221722053998 0.86225778277946 0.9766933979646363 0.023306602035363742 0.053011473625305124 0.9469885263746949 0.4553851000120704 0.5446148999879296 0.7463092630889765 0.25369073691102345 0.41900526239634 0.5809947376036599 0.5812723513614 0.41872764863859996 0.31831404593660134 0.6816859540633987 0.69123625288123 0.30876374711876997 0.43292526956594707 0.567074730434053 0.397565980505344 0.602434019494656 0.2431581957386391 0.7568418042613609 0.3534511449854783 0.6465488550145218 0.38127840884135955 0.6187215911586404 0.732611718625531 0.26738828137446896 0.5035078449872596 0.49649215501274047 0.8311740937430516 0.16882590625694843 0.5842967736538728 0.4157032263461271 0.35689037308308535 0.6431096269169145 0.4379309586483952 0.5620690413516048 0.2908497206935698 0.7091502793064302 0.08524768439854709 0.9147523156014529 0.7367589668708127 0.2632410331291874 0.9633674887582268 0.036632511241773226 0.3766633152879985 0.6233366847120014 0.08127461714738941 0.9187253828526106 0.08363973974394655 0.9163602602560534 0.08502263250685131 0.9149773674931487 0.04645708915095756 0.9535429108490424 0.3968478972426839 0.6031521027573161 0.1892454205460355 0.8107545794539645 0.3866225762044134 0.6133774237955866 0.05728234342931826 0.9427176565706816 0.5817064280396869 0.418293571960313 0.6056950845169988 0.3943049154830012 0.39429250938152727 0.6057074906184727 0.7488431753482863 0.25115682465171374 0.4892767934746433 0.5107232065253566 0.5954241051569662 0.4045758948430339 </TABLE>
    </DEFINITION>
    <DEFINITION>
      <FOR>16</FOR>
      <GIVEN>0</GIVEN>
      <GIVEN>2</GIVEN>
      <GIVEN>4</GIVEN>
      <GIVEN>12</GIVEN>
      <GIVEN>6</GIVEN>
      <GIVEN>1</GIVEN>
      <TABLE>0.393044505517064 0.6069554944829361 0.28552814896103085 0.714471851038969 0.6508797896489541 0.349120210351046 0.7519999784264675 0.24800002157353251 0.284901829121769 0.7150981708782311 0.49429980620500436 0.5057001937949956 0.40020438934902913 0.5997956106509709 0.466849148309749 0.533150851690251 0.3641862379338098 0.6358137620661902 0.29154894400253734 0.7084510559974626 0.33187267934259335 0.6681273206574065 0.35151084893385814 0.6484891510661419 0.04293384257834878 0.9570661574216512 0.19241338406829978 0.8075866159317002 0.806954600361723 0.193045399638277 0.9071527397839858 0.09284726021601414 0.6347035344515654 0.3652964655484346 0.5912016650505358 0.40879833494946416 0.6235288049499478 0.3764711950500523 0.14278871210757801 0.857211287892422 0.7652648956263757 0.23473510437362435 0.8839192505232965 0.11608074947670358 0.46444395298875546 0.5355560470112445 0.5104135165168606 0.4895864834831395 0.5773812888473107 0.4226187111526894 0.4472387703583242 0.552761229641676 0.4245181642043259 0.5754818357956741 0.549173920011771 0.450826079988229 0.8416106494891976 0.15838935051080236 0.6737248872509867 0.32627511274901333 0.9260756764279282 0.07392432357207175 0.36211706509657654 0.6378829349034234 0.7692649331236175 0.2307350668763824 0.23247485894951567 0.7675251410504843 0.2058147831614823 0.7941852168385176 0.4366855301253641 0.5633144698746358 0.5168534994400311 0.4831465005599689 0.43993719280342447 0.5600628071965755 0.4308230360854796 0.5691769639145203 0.6084721228967573 0.39152787710324266 0.13773472526121708 0.8622652747387829 0.500976702995398 0.49902329700460196 0.38530132998015054 0.6146986700198495 0.3394475746242583 0.6605524253757417 0.6505568831611963 0.3494431168388037 0.4800459997021438 0.5199540002978562 0.9812817400035686 0.01871825999643138 0.5130788420597071 0.48692115794029284 0.4594769014499707 0.5405230985500292 0.9479316490749229 0.052068350925077216 0.7433151419060997 0.2566848580939003 0.0031147181297702664 0.9968852818702297 0.4721880717515337 0.5278119282484662 0.5712626609682562 0.42873733903174377 0.23417161793806854 0.7658283820619315 0.5630926166635432 0.43690738333645684 0.525186418424955 0.474813581575045 0.4266295352453336 0.5733704647546665 0.3066641851291227 0.6933358148708774 0.5108515553405097 0.48914844465949026 0.3412715867316872 0.6587284132683128 0.7862689299548821 0.21373107004511796 0.4726805248157932 0.5273194751842067 0.08717644694301559 0.9128235530569844 </TABLE>
    </DEFINITION>
    <DEFINITION>
      <FOR>17</FOR>
      <GIVEN>0</GIVEN>
      <GIVEN>3</GIVEN>
      <GIVEN>5</GIVEN>
      <GIVEN>7</GIVEN>
      <GIVEN>8</GIVEN>
      <GIVEN>10</GIVEN>
      <GIVEN>16</GIVEN>
      <GIVEN>11</GIVEN>
      <TABLE>0.16826861619119096 0.8317313838088091 0.9123491515713326 0.08765084842866748 0.5538261862432023 0.4461738137567977 0.5353456570707551 0.4646543429292449 0.5109590153066192 0.4890409846933808 0.22461767247924644 0.7753823275207535 0.5780533639848328 0.4219466360151673 0.47346129918718954 0.5265387008128104 0.9340682771511989 0.06593172284880106 0.3356267660405602 0.6643732339594398 0.5465867347907428 0.4534132652092572 0.6359068645628797 0.36409313543712024 0.7723683837116467 0.22763161628835327 0.45783972005636964 0.5421602799436304 0.5402227521286649 0.45977724787133517 0.6125475509355109 0.38745244906448906 0.4648576450052692 0.5351423549947307 0.9937834013609208 0.006216598639079238 0.418649500556799 0.581350499443201 0.10663051942177895 0.8933694805782211 0.49088544073067103 0.5091145592693289 0.4616964603013554 0.5383035396986445 0.8999290043298687 0.10007099567013131 0.04594559878044299 0.954054401219557 0.4124682202764641 0.5875317797235359 0.21671874423851495 0.783281255761485 0.6477894923546876 0.3522105076453124 0.5879323017647323 0.41206769823526773 0.8751515897712675 0.12484841022873248 0.21381563929202757 0.7861843607079725 0.22239296431684047 0.7776070356831595 0.5952641700109874 0.40473582998901264 0.3733292653237564 0.6266707346762437 0.33469800444949666 0.6653019955505034 0.7415805018637192 0.25841949813628085 0.18265677689140053 0.8173432231085995 0.5859708068207401 0.4140291931792599 0.3990206311355527 0.6009793688644472 0.27738509723566585 0.7226149027643342 0.7971707073121596 0.20282929268784053 0.43540582904885117 0.5645941709511488 0.36963625997894956 0.6303637400210504 0.3535930540610272 0.6464069459389727 0.5056159881955019 0.49438401180449815 0.6294086203006626 0.3705913796993375 0.8037579476341244 0.19624205236587552 0.7158441032570974 0.28415589674290265 0.8032133545762633 0.19678664542373667 0.29640712307916167 0.7035928769208384 0.6306249214613568 0.36937507853864315 0.49442137703544875 0.5055786229645512 0.11222701377405211 0.8877729862259479 0.0636546374425364 0.9363453625574636 0.8215521541776574 0.17844784582234266 0.4411340195338962 0.5588659804661038 0.5930637220140881 0.4069362779859119 0.8210982006954739 0.17890179930452613 0.011325263509558037 0.988674736490442 0.529812128801794 0.47018787119820604 0.4798724000098014 0.5201275999901985 0.8207835072438676 0.17921649275613238 0.166094847184895 0.833905152815105 0.5277207780083226 0.4722792219916773 0.9237556638855562 0.07624433611444376 0.5262594681229774 0.47374053187702264 0.22548611240137387 0.7745138875986262 0.8140186993257706 0.18598130067422938 0.579242068381763 0.4207579316182371 0.48458998365704137 0.5154100163429587 0.4285481406311052 0.5714518593688949 0.7531347656494678 0.24686523435053223 0.8666098947869953 0.1333901052130046 0.21068585070891765 0.7893141492910823 0.5554625208158842 0.4445374791841159 0.46380517816384653 0.5361948218361534 0.27101220084687333 0.7289877991531265 0.5111477379933649 0.4888522620066352 0.6622834812929479 0.33771651870705216 0.18957813662994216 0.8104218633700578 0.31510685784216247 0.6848931421578375 0.7281471231765269 0.2718528768234732 0.39285242297269635 0.6071475770273037 0.3977613513409816 0.6022386486590183 0.5712768208315652 0.428723179168435 0.07047478468537345 0.9295252153146265 0.8184533469938781 0.181546653006122 0.9783731041823428 0.021626895817657192 0.6621281612380541 0.3378718387619459 0.8782083511321551 0.12179164886784487 0.5542102742298619 0.44578972577013815 0.9992338400821903 0.0007661599178096811 0.31190118634286806 0.6880988136571319 0.8047715384128964 0.19522846158710355 0.09603146751778208 0.9039685324822179 0.28115037569371687 0.7188496243062832 0.31467432454115846 0.6853256754588416 0.5008059866091322 0.4991940133908678 0.1926413253529838 0.807358674647016 0.37285589178965506 0.627144108210345 0.4953863451213105 0.5046136548786895 0.8112121111257682 0.18878788887423184 0.3226627677290396 0.6773372322709604 0.6467464185795225 0.3532535814204775 0.38004748567836866 0.6199525143216313 0.4349164659647984 0.5650835340352017 0.26048917828360685 0.7395108217163932 0.9779665200468851 0.022033479953114932 0.9837150355641638 0.01628496443583617 0.1549185913489929 0.8450814086510071 0.5177271971948432 0.4822728028051569 0.36964317636904415 0.6303568236309559 0.6183557323268183 0.3816442676731817 0.8906626687272907 0.10933733127270927 0.047262902783601055 0.952737097216399 0.6008501399536831 0.399149860046317 0.8483519307920031 0.15164806920799678 0.0830152723084999 0.9169847276915001 0.3869438793631046 0.6130561206368954 0.31717259476631393 0.6828274052336861 0.5213178958320426 0.4786821041679575 0.6944523354685843 0.30554766453141574 0.9118286800065091 0.08817131999349095 0.7201182447580773 0.27988175524192277 0.7989299846870437 0.20107001531295635 0.4321342690646268 0.5678657309353732 0.6057294985934079 0.39427050140659203 0.6990685906775428 0.30093140932245727 0.5759950590459657 0.4240049409540343 0.3381778624772149 0.6618221375227852 0.599472485616042 0.40052751438395784 0.504121673439204 0.495878326560796 0.8253771507213994 0.17462284927860058 0.011039078616832038 0.9889609213831679 0.39075649871726503 0.609243501282735 0.3718420682932087 0.6281579317067914 0.6815218625162738 0.3184781374837263 0.3797087311915533 0.6202912688084468 0.2386256323481555 0.7613743676518445 0.6015037354398924 0.3984962645601076 0.3007096750912072 0.6992903249087927 0.6617238508185009 0.33827614918149906 0.033358887838516996 0.966641112161483 0.9012766682021374 0.09872333179786259 0.6316830613235577 0.3683169386764424 0.02718961536541746 0.9728103846345826 0.6505676026183679 0.34943239738163206 0.588862203002033 0.4111377969979671 0.5265399201032305 0.4734600798967696 0.08917790524410577 0.9108220947558943 0.167753640150344 0.8322463598496559 0.4117044554481749 0.5882955445518251 0.36323379687257423 0.6367662031274257 0.018367069347964216 0.9816329306520358 0.10336531069997694 0.8966346893000231 0.5560451166875835 0.4439548833124164 0.8529976316505801 0.1470023683494199 0.1834045043556432 0.8165954956443567 0.4794277688569323 0.5205722311430677 0.5479376573993521 0.45206234260064787 0.6335837143064952 0.36641628569350493 0.5277471569494343 0.47225284305056575 0.27760706989425327 0.7223929301057467 0.5318743824503702 0.46812561754962984 0.3097784670500521 0.6902215329499479 0.4724746720454567 0.5275253279545433 0.5185914859817319 0.48140851401826806 0.2498737579865639 0.7501262420134361 0.5827256165361857 0.41727438346381435 0.9215832533416255 0.07841674665837453 0.9568087717516619 0.0431912282483381 0.4555271922957315 0.5444728077042685 0.34770884351997433 0.6522911564800257 0.8784720898133246 0.12152791018667544 0.2203180371656194 0.7796819628343805 0.49783902418960735 0.5021609758103927 0.34631532907173274 0.6536846709282672 0.21488665185852532 0.7851133481414748 0.34288330973639985 0.6571166902636002 0.8214650951762904 0.17853490482370957 0.3005288428606857 0.6994711571393142 0.36945933463424613 0.6305406653657539 0.8928356386060812 0.10716436139391879 0.1847728939660133 0.8152271060339868 0.8384922326177315 0.16150776738226852 0.026520034666900387 0.9734799653330997 0.20478724671681503 0.795212753283185 0.3377953349719582 0.6622046650280419 0.7926078171011157 0.20739218289888428 0.359900784401782 0.6400992155982179 0.6629509726555106 0.3370490273444894 0.7013417006491518 0.2986582993508482 0.324378155280114 0.675621844719886 0.29912211866180377 0.7008778813381963 0.5544071018017787 0.44559289819822134 0.24271520398030258 0.7572847960196973 0.7768698487845624 0.2231301512154376 0.34601570425593803 0.653984295744062 0.4590777543974919 0.540922245602508 0.48711973414914467 0.5128802658508553 0.5934781248895795 0.4065218751104204 0.3458107845252484 0.6541892154747516 0.6600489561253183 0.33995104387468167 0.5042882360181797 0.49571176398182026 0.07188180412667235 0.9281181958733277 0.23141126520576621 0.7685887347942337 0.5984193510372403 0.40158064896275963 0.2003800288482986 0.7996199711517014 0.4435552332335081 0.5564447667664919 0.42784933477979276 0.5721506652202072 0.5870661899637512 0.41293381003624874 0.8960299396423763 0.10397006035762366 0.36463241151325243 0.6353675884867476 0.6254428275578239 0.3745571724421762 0.22733975279247529 0.7726602472075247 0.5671288931121544 0.4328711068878457 0.9349703306315764 0.06502966936842353 0.7392568202075477 0.2607431797924524 0.7048846592777412 0.2951153407222587 0.33050322541984056 0.6694967745801594 0.6038948732623659 0.39610512673763404 0.6863838423487119 0.31361615765128803 0.4584384019440715 0.5415615980559286 0.3079098568639308 0.6920901431360692 0.2910391500382263 0.7089608499617738 0.5753316545000147 0.4246683454999853 0.6657311390526233 0.3342688609473766 0.2067087399659352 0.7932912600340648 0.1577616173131183 0.8422383826868817 0.5540245526688242 0.44597544733117583 0.3094958575767534 0.6905041424232465 0.29825116429470583 0.7017488357052942 0.5159334419186514 0.4840665580813486 0.3015295021525985 0.6984704978474015 0.4001224033718064 0.5998775966281936 0.8570121592616566 0.14298784073834342 0.15300481402411312 0.8469951859758869 0.2819253424571708 0.7180746575428292 0.08407584733170638 0.9159241526682936 0.4235803135794552 0.5764196864205448 0.30822764234823896 0.691772357651761 0.8444077162670438 0.15559228373295625 0.683763174326373 0.316236825673627 0.04559850241335235 0.9544014975866476 0.987887927157263 0.01211207284273694 0.2957836340151516 0.7042163659848484 0.5865087086007356 0.4134912913992645 0.8617891225201284 0.13821087747987146 0.6350425019482943 0.36495749805170563 0.17898972482816203 0.8210102751718381 0.6867363200991514 0.31326367990084864 0.6135847610367381 0.38641523896326185 0.3699312351526129 0.630068764847387 0.5825536792270972 0.41744632077290283 0.22522026150627006 0.7747797384937298 0.3767728274481745 0.6232271725518255 0.9363913047384992 0.06360869526150086 </TABLE>
    </DEFINITION>
    <DEFINITION>
      <FOR>18</FOR>
      <GIVEN>2</GIVEN>
      <GIVEN>3</GIVEN>
      <GIVEN>4</GIVEN>
      <GIVEN>8</GIVEN>
      <GIVEN>9</GIVEN>
      <GIVEN>16</GIVEN>
      <GIVEN>17</GIVEN>
      <GIVEN>11</GIVEN>
      <GIVEN>12</GIVEN>
      <GIVEN>13</GIVEN>
      <GIVEN>6</GIVEN>
      <GIVEN>1</GIVEN>
      <TABLE>0.2836009837636364 0.7163990162363636 0.6231106097635295 0.37688939023647045 0.7068024236018705 0.29319757639812954 0.645794044125794 0.35420595587420595 0.9256154853686954 0.07438451463130452 0.931839303928088 0.06816069607191196 0.8304780598811679 0.16952194011883215 0.5150793742829756 0.4849206257170244 0.2935145349035428 0.7064854650964573 0.6789587051809579 0.32104129481904203 0.5706962658202929 0.4293037341797072 0.7169716540183637 0.2830283459816363 0.6188951065880511 0.38110489341194886 0.2865171626423858 0.7134828373576141 0.4486670256387487 0.5513329743612513 0.48403992820800534 0.5159600717919945 0.9068406879867845 0.09315931201321545 0.5144483424239852 0.4855516575760149 0.5080366065224202 0.4919633934775798 0.5026539389011095 0.4973460610988904 0.6512998476933077 0.34870015230669227 0.4412054226866856 0.5587945773133144 0.9152743524531868 0.0847256475468132 0.03451431216449421 0.9654856878355058 0.3198684924395437 0.6801315075604564 0.3431793809919075 0.6568206190080925 0.7181174330763885 0.2818825669236113 0.6117162046650305 0.38828379533496954 0.8353102449108091 0.16468975508919095 0.5768368548637809 0.4231631451362191 0.4076031662248629 0.5923968337751371 0.26799251083206865 0.7320074891679315 0.4372753393079062 0.5627246606920938 0.6723073100268412 0.32769268997315876 0.7933690302980876 0.2066309697019124 0.527122269453837 0.47287773054616294 0.5092214162506191 0.4907785837493808 0.3628225032787496 0.6371774967212503 0.9978508322467526 0.00214916775324738 0.5414357476578956 0.4585642523421045 0.5684671461420301 0.43153285385796986 0.38332396880818465 0.6166760311918154 0.7339930469205251 0.2660069530794749 0.5806389432912465 0.4193610567087534 0.25398483051205817 0.7460151694879418 0.23524322120244262 0.7647567787975573 0.24146834552378826 0.7585316544762118 0.07354337716713943 0.9264566228328606 0.5460955931199605 0.4539044068800395 0.6903535695184908 0.30964643048150914 0.7041629329644326 0.2958370670355674 0.5153938160967458 0.4846061839032541 0.40920640499688515 0.5907935950031149 0.7052423637255428 0.2947576362744573 0.7066633580668413 0.2933366419331586 0.9268570821679608 0.07314291783203923 0.4978408258000077 0.5021591741999922 0.9511217430240307 0.0488782569759693 0.9135467910481174 0.0864532089518827 0.5150435473000221 0.48495645269997795 0.5696932638772767 0.43030673612272324 0.524598332050994 0.47540166794900596 0.6884390533383533 0.3115609466616467 0.4567824671537816 0.5432175328462184 0.48659693041821467 0.5134030695817854 0.6856436898172131 0.31435631018278687 0.19048311241584365 0.8095168875841563 0.5049312149071301 0.4950687850928699 0.5072868547982923 0.4927131452017078 0.48670952120169564 0.5132904787983043 0.5924467523608824 0.4075532476391176 0.20270007969920517 0.7972999203007949 0.5429161034178346 0.45708389658216547 0.9269119934297143 0.07308800657028564 0.7219488419862118 0.2780511580137882 0.9122562805578016 0.0877437194421984 0.5409773817783021 0.45902261822169793 0.6017756035578302 0.3982243964421698 0.7608650622024378 0.23913493779756229 0.9525258021820209 0.04747419781797916 0.2859817123392492 0.7140182876607509 0.7479632449274133 0.2520367550725867 0.9253286134577859 0.07467138654221409 0.8443631602803444 0.15563683971965553 0.47446213007636306 0.525537869923637 0.9627019928477346 0.03729800715226541 0.4406512941652615 0.5593487058347385 0.9379008473297421 0.062099152670257944 0.7429997026453515 0.2570002973546484 0.792082221625187 0.207917778374813 0.45754123534333263 0.5424587646566673 0.5625254334394927 0.43747456656050737 0.6660820891467951 0.3339179108532049 0.4450310929875382 0.5549689070124619 0.33967586822981477 0.6603241317701853 0.6072653922464933 0.3927346077535066 0.7597886592601975 0.2402113407398025 0.5724884611656726 0.4275115388343274 0.09580174929617231 0.9041982507038278 0.7634938474351299 0.23650615256487006 0.953662357471212 0.04633764252878801 0.49062054025375107 0.5093794597462489 0.8138603009186565 0.18613969908134356 0.538810774308766 0.461189225691234 0.7401882318212754 0.2598117681787247 0.1674926170669156 0.8325073829330844 0.3252641884920545 0.6747358115079455 0.10754076759412896 0.892459232405871 0.2504195449141148 0.7495804550858853 0.06292483434190288 0.9370751656580971 0.5400948021441851 0.4599051978558148 0.6293526697384808 0.37064733026151925 0.5537853462637324 0.44621465373626756 0.8390159052507221 0.16098409474927786 0.6872568567981165 0.31274314320188357 0.2506769409008942 0.7493230590991058 0.4810364444292988 0.5189635555707011 0.452394567800827 0.547605432199173 0.40841936296816655 0.5915806370318335 0.21620533930271918 0.7837946606972809 0.5203464602546023 0.47965353974539765 0.3540967328252587 0.6459032671747412 0.35033833122617436 0.6496616687738256 0.5461315085272682 0.4538684914727318 0.11483390897979871 0.8851660910202013 0.46596692983983706 0.534033070160163 0.19391434035749205 0.8060856596425079 0.6048836782474483 0.3951163217525518 0.20058231712856295 0.799417682871437 0.25698836146739396 0.7430116385326061 0.1727512722002505 0.8272487277997496 0.6209271916789681 0.3790728083210319 0.4825192030997644 0.5174807969002356 0.10868013751682286 0.8913198624831772 0.10243539590646152 0.8975646040935384 0.568451950403889 0.43154804959611104 0.7855111846915939 0.2144888153084062 0.4449210405699515 0.5550789594300485 0.11828061921145332 0.8817193807885467 0.3229696168882975 0.6770303831117025 0.9804608766841473 0.019539123315852766 0.4506927144953745 0.5493072855046255 0.6730245624982498 0.3269754375017502 0.518046932140849 0.481953067859151 0.08411175583399311 0.9158882441660069 0.524008450818062 0.475991549181938 0.31550085402386235 0.6844991459761376 0.9043292653916158 0.09567073460838414 0.8699417135038251 0.13005828649617485 0.6633274753715757 0.3366725246284244 0.38351620567185746 0.6164837943281425 0.7969720697870694 0.20302793021293067 0.1778897067463761 0.8221102932536238 0.2002095203883931 0.799790479611607 0.4851348939850076 0.5148651060149924 0.3798499914295616 0.6201500085704383 0.5516022662664772 0.44839773373352276 0.6236082320497853 0.3763917679502146 0.7099655065903729 0.290034493409627 0.8124810423618551 0.18751895763814494 0.6380653184473838 0.3619346815526161 0.26351381743149793 0.7364861825685022 0.21884616332919732 0.7811538366708026 0.1162072193750274 0.8837927806249726 0.20476320104059512 0.7952367989594049 0.25352313696308737 0.7464768630369126 0.2739108236657996 0.7260891763342004 0.5683372361658624 0.4316627638341376 0.43401964613996513 0.5659803538600348 0.5018205108937437 0.49817948910625626 0.25727492951259584 0.7427250704874042 0.4488843969896357 0.5511156030103642 0.2007390931016879 0.799260906898312 0.18034690333945608 0.8196530966605439 0.15095799319887868 0.8490420068011213 0.502802158024096 0.497197841975904 0.4946966582338802 0.5053033417661197 0.5766261959498392 0.42337380405016073 0.6622871576667848 0.33771284233321514 0.3599660419496687 0.6400339580503313 0.5847758784821472 0.4152241215178529 0.25856506704484455 0.7414349329551554 0.9184387386387445 0.08156126136125556 0.05193769685599491 0.9480623031440051 0.17634252978161852 0.8236574702183814 0.4147915172274001 0.5852084827726 0.5414286780338416 0.45857132196615835 0.06640411509769029 0.9335958849023096 0.75813615979174 0.24186384020826004 0.5817157159827752 0.4182842840172248 0.49093206946935375 0.5090679305306463 0.46115379237850307 0.5388462076214969 0.8758129841151986 0.12418701588480144 0.8221430073107434 0.17785699268925662 0.5769626511585152 0.4230373488414848 0.9392926720614273 0.06070732793857264 0.665621409781997 0.33437859021800315 0.4740448807784069 0.5259551192215931 0.5475882471683826 0.4524117528316174 0.4867908022974906 0.5132091977025094 0.7783022450381708 0.2216977549618292 0.5046846311626912 0.4953153688373088 0.1755093410998316 0.8244906589001684 0.5058710615952944 0.4941289384047056 0.7513900175562597 0.24860998244374038 0.8325056897482445 0.16749431025175554 0.179956859216559 0.820043140783441 0.9946072141892501 0.005392785810749895 0.3858315788599008 0.6141684211400991 0.3316545654109053 0.6683454345890947 0.8819139355103469 0.11808606448965311 0.43301935472539105 0.566980645274609 0.9795066247113183 0.020493375288681698 0.22042468435851711 0.7795753156414829 0.22121812971572033 0.7787818702842796 0.14846771572719736 0.8515322842728026 0.3230887653879713 0.6769112346120286 0.5476337439964559 0.45236625600354397 0.19500039842829792 0.8049996015717021 0.20940270787569285 0.7905972921243072 0.5711693041925298 0.42883069580747024 0.5594075234385578 0.4405924765614422 0.12047332358389069 0.8795266764161093 0.521057211405417 0.478942788594583 0.4561240388870878 0.5438759611129123 0.7597904180216792 0.24020958197832076 0.5014610429747437 0.49853895702525636 0.49507754939968845 0.5049224506003115 0.4998308475135539 0.5001691524864461 0.1522197950874322 0.8477802049125678 0.12796839245904165 0.8720316075409583 0.5888582942430267 0.41114170575697323 0.6037896913450089 0.3962103086549911 0.43291544306009694 0.5670845569399031 0.5153364586319479 0.48466354136805206 0.5585330305634957 0.4414669694365043 0.8481800568410109 0.15181994315898917 0.9182171072434384 0.0817828927565616 0.3349177506424597 0.6650822493575403 0.7764313109733398 0.22356868902666013 0.7048181777964656 0.2951818222035344 0.29694262483371026 0.7030573751662897 0.5036060680586146 0.49639393194138537 0.6152993879125175 0.3847006120874826 0.00870460969533194 0.9912953903046681 0.08645113127546106 0.9135488687245389 0.9759101910135984 0.024089808986401607 0.2914467573742211 0.7085532426257789 0.2320503746322191 0.7679496253677809 0.6757441741522454 0.32425582584775453 0.4936481542069439 0.5063518457930561 0.3265788418350638 0.6734211581649362 0.8965157628011218 0.10348423719887818 0.42605556941940786 0.5739444305805922 0.07685715454397135 0.9231428454560286 0.23014927275039285 0.7698507272496071 0.9898488989710488 0.010151101028951195 0.9233478161589539 0.07665218384104605 0.4314663262484467 0.5685336737515533 0.9134501932723817 0.0865498067276183 0.6538611381158776 0.34613886188412235 0.3378150089288262 0.6621849910711738 0.3237624341285115 0.6762375658714884 0.588579663459011 0.411420336540989 0.6525699014193066 0.3474300985806934 0.5544303292575944 0.4455696707424055 0.2280512255395006 0.7719487744604994 0.6985534356363919 0.30144656436360806 0.026044225680914093 0.9739557743190859 0.04447217713298673 0.9555278228670133 0.9438087831914463 0.05619121680855375 0.7214678775407276 0.27853212245927234 0.5241774683578366 0.4758225316421634 0.47500896428147177 0.5249910357185282 0.8435276010288182 0.15647239897118176 0.328965291917148 0.6710347080828519 0.5007554362947133 0.4992445637052868 0.3774728005441915 0.6225271994558085 0.03384868029495115 0.9661513197050489 0.7458398113874833 0.25416018861251655 0.5007792936911517 0.4992207063088483 0.5585728911730445 0.4414271088269554 0.561972569044062 0.438027430955938 0.5413968687489877 0.45860313125101226 0.5728168892757912 0.4271831107242087 0.8202384421252229 0.17976155787477713 0.9599794882939205 0.04002051170607948 0.3612489667875179 0.6387510332124821 0.7714106429480888 0.2285893570519112 0.49167943868060043 0.5083205613193995 0.8257783450690187 0.17422165493098124 0.5160572995165773 0.48394270048342275 0.4421707597998603 0.5578292402001398 0.5393982553981567 0.46060174460184344 0.7221405427915231 0.27785945720847693 0.649951337332071 0.3500486626679291 0.23146833379212142 0.7685316662078786 0.8624404702197722 0.1375595297802278 0.9971288173888282 0.0028711826111717915 0.08152914775956063 0.9184708522404393 0.15758742591933456 0.8424125740806654 0.7857749814381757 0.21422501856182427 0.66763992127253 0.33236007872747 0.6674307354689112 0.3325692645310888 0.41707838990375795 0.5829216100962421 0.5316872686644745 0.46831273133552553 0.11972696003182835 0.8802730399681716 0.574071619593354 0.425928380406646 0.36655417605566254 0.6334458239443375 0.56413407229476 0.43586592770524 0.5119099260910593 0.4880900739089406 0.43502265967638676 0.5649773403236131 0.7853516752374082 0.21464832476259177 0.4693636882315184 0.5306363117684816 0.3218479470166716 0.6781520529833284 0.0471434166096483 0.9528565833903518 0.8762547588480698 0.12374524115193015 0.7091420671212678 0.2908579328787322 0.24841740363300588 0.7515825963669941 0.07535785103253839 0.9246421489674617 0.5922802761046123 0.4077197238953877 0.500228436327747 0.4997715636722529 0.3016268423739376 0.6983731576260623 0.47258680391814195 0.5274131960818581 0.5247257115871897 0.4752742884128103 0.037684725472612764 0.9623152745273872 0.22841273515471372 0.7715872648452862 0.5607648705275317 0.43923512947246834 0.6020917841005631 0.397908215899437 0.35377559893859467 0.6462244010614053 0.5551762203478459 0.44482377965215414 0.581978979498578 0.41802102050142187 0.6381914303212706 0.3618085696787293 0.9230255157830928 0.07697448421690721 0.8705478867584966 0.12945211324150338 0.3094688476879954 0.6905311523120046 0.2287273521370158 0.7712726478629842 0.5365064924632066 0.4634935075367934 0.8376879824701753 0.1623120175298247 0.4732912718165888 0.5267087281834112 0.12153228087224865 0.8784677191277513 0.8541148381717115 0.14588516182828848 0.34522123133223026 0.6547787686677697 0.5619297810517638 0.43807021894823606 0.4132389720789003 0.5867610279210997 0.5276292242937343 0.4723707757062657 0.5128798326692735 0.48712016733072644 0.4519638506902415 0.5480361493097586 0.054883721398182095 0.9451162786018179 0.6541680722146971 0.3458319277853029 0.7522019530482398 0.24779804695176025 0.6418238914552438 0.3581761085447563 0.3266863586141167 0.6733136413858833 0.18122018874874707 0.818779811251253 0.31796203944089707 0.6820379605591029 0.6451866162822397 0.3548133837177602 0.05829194593932933 0.9417080540606707 0.27727909781404086 0.7227209021859592 0.5666651964279614 0.4333348035720386 0.8300046641528018 0.16999533584719817 0.42664838971793484 0.5733516102820652 0.4170663070734352 0.5829336929265648 0.427403996795642 0.572596003204358 0.9762176360160054 0.02378236398399458 0.19683992330249764 0.8031600766975023 0.42615790429290973 0.5738420957070902 0.6804946675926293 0.31950533240737056 0.24642735992729128 0.7535726400727087 0.1759713483780307 0.8240286516219694 0.7072924584472262 0.2927075415527738 0.4343475963086922 0.5656524036913078 0.44201139681365925 0.5579886031863407 0.5589954818776615 0.4410045181223386 0.5914733867272074 0.4085266132727926 0.374635208402287 0.6253647915977131 0.15944653206589599 0.8405534679341039 0.21035496866617082 0.7896450313338291 0.6774952631325791 0.32250473686742087 0.289442486514937 0.710557513485063 0.564494257262011 0.4355057427379891 0.9085612503647064 0.0914387496352936 0.16973632025127622 0.8302636797487238 0.5108071934213576 0.48919280657864234 0.07254872409691009 0.92745127590309 0.8170503850020344 0.1829496149979656 0.7928805350677611 0.2071194649322389 0.9772782986753553 0.022721701324644666 0.008526027249632619 0.9914739727503674 0.13657549528210897 0.863424504717891 0.5141429871328487 0.4858570128671514 0.23043331524265587 0.7695666847573441 0.2534880349669662 0.7465119650330337 0.3795737099885747 0.6204262900114252 0.4530888788318524 0.5469111211681477 0.5142556493898962 0.48574435061010385 0.7104183346922733 0.28958166530772667 0.9221757716615376 0.07782422833846238 0.31323598007737025 0.6867640199226298 0.5577624541715626 0.44223754582843744 0.08477729066050166 0.9152227093394982 0.27297347296195756 0.7270265270380424 0.5117229495807675 0.4882770504192325 0.4850467824772358 0.5149532175227642 0.6003719610630964 0.3996280389369035 0.3842635066742627 0.6157364933257373 0.6850412120645158 0.31495878793548426 0.7076993223788746 0.2923006776211254 0.02800499881530295 0.9719950011846971 0.6169951762325837 0.3830048237674163 0.6781706650259368 0.3218293349740632 0.3774457698239787 0.6225542301760213 0.6168972895221897 0.38310271047781036 0.22252316189887258 0.7774768381011274 0.01369707447606882 0.9863029255239312 0.3508370758898708 0.6491629241101291 0.7170919266810643 0.2829080733189357 0.49507318935082567 0.5049268106491742 0.6446422480935582 0.35535775190644175 0.0908231031204496 0.9091768968795504 0.524696122889171 0.47530387711082905 0.17140913598497878 0.8285908640150212 0.14731342541143982 0.8526865745885602 0.5728734314943255 0.4271265685056746 0.9883183539558721 0.011681646044127905 0.39779048384414983 0.6022095161558502 0.9887880600660811 0.01121193993391887 0.7856924327819699 0.21430756721803 0.6300444193690132 0.36995558063098677 0.9927299056618408 0.007270094338159184 0.049267533232928686 0.9507324667670713 0.38045824354943153 0.6195417564505684 0.4886697843865919 0.5113302156134081 0.7631317565344863 0.23686824346551377 0.831670617249996 0.16832938275000395 0.101210101110956 0.8987898988890439 0.955358038239688 0.04464196176031198 0.5485548476702435 0.4514451523297564 0.4690301649226167 0.5309698350773833 0.9114469376108343 0.0885530623891657 0.21739280260620908 0.7826071973937909 0.1519290554150594 0.8480709445849406 0.721767775742045 0.2782322242579551 0.30367986258266155 0.6963201374173384 0.5341627032612832 0.4658372967387168 0.9689319014812107 0.031068098518789347 0.7828995967478285 0.21710040325217156 0.12142877429842985 0.8785712257015701 0.5465049230308051 0.4534950769691949 0.7875171044615097 0.2124828955384903 0.6974677842340676 0.30253221576593237 0.6462081804901364 0.35379181950986366 0.44207258604918975 0.5579274139508102 0.15025718015358328 0.8497428198464168 0.8399974069237305 0.16000259307626954 0.6490375512879824 0.3509624487120177 0.6842002130177207 0.3157997869822793 0.6228655351462502 0.37713446485374974 0.7791259940485205 0.2208740059514795 0.3477666081838378 0.6522333918161622 0.3251684302680741 0.6748315697319258 0.3490725289946542 0.6509274710053458 0.4496452734622602 0.5503547265377398 0.525335096698798 0.474664903301202 0.29197777987248813 0.7080222201275118 0.618613145109393 0.381386854890607 0.9108711755671826 0.0891288244328175 0.7973294484795365 0.20267055152046357 0.47950505452693876 0.5204949454730613 0.32365209665277994 0.6763479033472201 0.5548161529621709 0.4451838470378291 0.6232975082636766 0.37670249173632353 0.5800525092176188 0.4199474907823813 0.5875854221469893 0.4124145778530108 0.7484499615236299 0.2515500384763701 0.807986140982791 0.19201385901720905 0.19095177934145924 0.8090482206585407 0.49625620086545835 0.5037437991345417 0.6970174419368478 0.30298255806315216 0.27893259852011265 0.7210674014798872 0.5916570484139955 0.4083429515860045 0.8351736248223408 0.16482637517765933 0.25432591794672516 0.745674082053275 0.5472110039864695 0.4527889960135306 0.9481803507956623 0.05181964920433767 0.4897557810363579 0.510244218963642 0.530333509471658 0.469666490528342 0.21533014069481007 0.78466985930519 0.32747031633856244 0.6725296836614375 0.5342283112828111 0.46577168871718905 0.770081955753354 0.22991804424664597 0.740093873520695 0.259906126479305 0.5031763022695905 0.4968236977304095 0.6893564904914085 0.31064350950859143 0.2518746021735495 0.7481253978264505 0.6161825677150571 0.38381743228494297 0.7332270928827275 0.26677290711727253 0.020760651864006403 0.9792393481359936 0.9419315995714651 0.05806840042853489 0.5438342678088489 0.4561657321911511 0.6074821436791328 0.3925178563208672 0.4637565008341956 0.5362434991658044 0.1641866262160971 0.835813373783903 0.31872672785868217 0.6812732721413178 0.1861254749167962 0.8138745250832038 0.49421536757186746 0.5057846324281325 0.3082361262721683 0.6917638737278317 0.9551044517337066 0.044895548266293335 0.36961335663566725 0.6303866433643328 0.9736117058851006 0.026388294114899447 0.5084742860903085 0.4915257139096915 0.41965134232821283 0.5803486576717872 0.5549768701456029 0.4450231298543971 0.7806650592679762 0.2193349407320239 0.6663990085550415 0.3336009914449585 0.5080763187714757 0.4919236812285243 0.605582542693007 0.39441745730699296 0.9556888170343444 0.04431118296565559 0.2516228084379142 0.7483771915620857 0.2550968222607 0.7449031777393 0.48520524159717227 0.5147947584028277 0.30995313213497677 0.6900468678650231 0.06578223878271403 0.934217761217286 0.5746898577239389 0.4253101422760611 0.15187249875962583 0.8481275012403742 0.45820719514142866 0.5417928048585713 0.28467970967555883 0.7153202903244411 0.5521511046380325 0.4478488953619675 0.8819007796959912 0.11809922030400881 0.47432136708535855 0.5256786329146415 0.3273545037683591 0.6726454962316409 0.09432075611258516 0.9056792438874148 0.4460529387855748 0.5539470612144252 0.6909029515059557 0.30909704849404424 0.4775638581988868 0.5224361418011132 0.9007788182964644 0.09922118170353544 0.2605761576836583 0.7394238423163416 0.5535451243194939 0.446454875680506 0.8753088708201838 0.12469112917981619 0.5196576769263411 0.4803423230736589 0.4564241397139539 0.5435758602860461 0.07988656500420441 0.9201134349957956 0.6260868327678012 0.3739131672321988 0.09701764074348905 0.9029823592565109 0.016621385775615657 0.9833786142243843 0.0018825123599797429 0.9981174876400203 0.36165722414096896 0.638342775859031 0.5049980494690376 0.4950019505309624 0.07839559864341253 0.9216044013565875 0.6466934439902762 0.35330655600972377 0.5895996472975733 0.4104003527024267 0.49450383430712913 0.5054961656928709 0.31994472198115964 0.6800552780188404 0.5290730595980421 0.470926940401958 0.26943823668601524 0.7305617633139848 0.3783943324252422 0.6216056675747578 0.13586652027689208 0.864133479723108 0.8925920368894664 0.1074079631105336 0.877959387851786 0.1220406121482141 0.45946899555157217 0.5405310044484278 0.5852868209544518 0.41471317904554805 0.15662675459306946 0.8433732454069305 0.0864401005614994 0.9135598994385006 0.46558239891012465 0.5344176010898753 0.9676014753635042 0.03239852463649584 0.6084627239022271 0.39153727609777284 0.49343068208584995 0.50656931791415 0.7821507677136244 0.2178492322863755 0.13559100175841038 0.8644089982415896 0.692180511174175 0.307819488825825 0.7762221616838286 0.22377783831617135 0.12247370903414158 0.8775262909658584 0.31351010365066634 0.6864898963493337 0.4563082373310762 0.5436917626689238 0.6976767130675785 0.30232328693242144 0.7354590406928007 0.26454095930719934 0.4291765901376277 0.5708234098623723 0.3854468575138323 0.6145531424861678 0.9062369807628788 0.09376301923712112 0.4597472720359662 0.5402527279640338 0.07545261968307149 0.9245473803169285 0.42997014141225176 0.5700298585877484 0.831301424268707 0.16869857573129293 0.9636331956367249 0.03636680436327512 0.7021200058496542 0.29787999415034594 0.5358862291560523 0.46411377084394767 0.5409370397275952 0.45906296027240473 0.5183332452736948 0.48166675472630516 0.8192287555797072 0.18077124442029277 0.24707773569314942 0.7529222643068506 0.4632111426778565 0.5367888573221434 0.5123011750576639 0.48769882494233613 0.35364810212812536 0.6463518978718746 0.21032945827623678 0.7896705417237632 0.23872642752154233 0.7612735724784576 0.12573065944546108 0.874269340554539 0.17066342357061304 0.829336576429387 0.17032217643071212 0.8296778235692879 0.7075529341767212 0.29244706582327884 0.5762806883733637 0.4237193116266363 0.6846529395130406 0.3153470604869593 0.98562751751762 0.014372482482379982 0.5735247474395936 0.42647525256040647 0.21453208210264257 0.7854679178973574 0.6371051132266341 0.3628948867733659 0.4392721762454614 0.5607278237545387 0.930684458470631 0.069315541529369 0.009008926005539757 0.9909910739944603 0.5806081519894104 0.4193918480105897 0.5114116805239934 0.48858831947600667 0.6632188936594112 0.33678110634058883 0.22211614706717425 0.7778838529328258 0.52151344786001 0.47848655213999003 0.5774920055455244 0.4225079944544757 0.40978229772432817 0.5902177022756718 0.6279315939343714 0.37206840606562847 0.09474771311068803 0.905252286889312 0.5034464127522386 0.49655358724776144 0.19223586168013326 0.8077641383198667 0.9826282189136476 0.01737178108635235 0.3765712900697372 0.6234287099302628 0.4842378734975015 0.5157621265024985 0.6827735744365393 0.3172264255634607 0.6090331518171623 0.39096684818283767 0.3609557854645667 0.6390442145354334 0.5057314510047262 0.4942685489952739 0.9194897956961602 0.08051020430383986 0.5810251604261931 0.4189748395738069 0.3935724914676485 0.6064275085323516 0.4560579705518722 0.5439420294481278 0.18693483743701794 0.8130651625629822 0.7915654837838378 0.20843451621616219 0.6645269046886451 0.335473095311355 0.7378585919295723 0.2621414080704277 0.2691167101494828 0.7308832898505172 0.6304879273588392 0.3695120726411608 0.3527502975948442 0.6472497024051558 0.1316556149168269 0.8683443850831731 0.9226905009302988 0.07730949906970112 0.23843472438049124 0.7615652756195088 0.29822567456964555 0.7017743254303545 0.32210929481478806 0.6778907051852119 0.8455494350373709 0.15445056496262913 0.25467229583934264 0.7453277041606573 0.20931649404613636 0.7906835059538636 0.5865668310671123 0.41343316893288773 0.2431570694420106 0.7568429305579893 0.699871481265697 0.30012851873430296 0.22860037743205402 0.771399622567946 0.8880832835955218 0.11191671640447814 0.487949542603789 0.512050457396211 0.44988643928579386 0.550113560714206 0.4648888788726453 0.5351111211273547 0.617487305361477 0.38251269463852305 0.17039274997413908 0.8296072500258609 0.22998678616837046 0.7700132138316297 0.5034872503417385 0.49651274965826153 0.5640380851842692 0.4359619148157309 0.5967726976793231 0.40322730232067694 0.23360269916110019 0.7663973008388998 0.9103922741896275 0.08960772581037248 0.5844598104842993 0.4155401895157007 0.737951665057872 0.262048334942128 0.8603358874367951 0.1396641125632048 0.24310603744770706 0.7568939625522929 0.5266014412269403 0.47339855877305964 0.3364523285245349 0.6635476714754651 0.3634956604109321 0.6365043395890679 0.5599098299780425 0.4400901700219575 0.6424749723492986 0.3575250276507013 0.5429884015309125 0.4570115984690875 0.4140014725684822 0.5859985274315178 0.27226927709948134 0.7277307229005188 0.4945814796937033 0.5054185203062966 0.8200631009740973 0.1799368990259027 0.6804594830291828 0.31954051697081726 0.20511984384858978 0.7948801561514102 0.4150049636403368 0.5849950363596632 0.6346994939207746 0.3653005060792253 0.18775718004107067 0.8122428199589292 0.4903951020896647 0.5096048979103353 0.46152690806805946 0.5384730919319404 0.5578034744226208 0.4421965255773791 0.4238395006098434 0.5761604993901566 0.5231719293156872 0.47682807068431277 0.49230209439902817 0.5076979056009718 0.6805222197469525 0.3194777802530475 0.6836688560853427 0.31633114391465733 0.3863633800300362 0.613636619969964 0.8782539878919684 0.12174601210803161 0.875292660360702 0.12470733963929807 0.5288761332898484 0.47112386671015155 0.3774589243437677 0.6225410756562323 0.9110550888648831 0.08894491113511696 0.170737778629073 0.829262221370927 0.4622773071440976 0.5377226928559025 0.9724191562964092 0.027580843703590804 0.31594431432532144 0.6840556856746786 0.4273146400950263 0.5726853599049737 0.7744602814830698 0.22553971851693025 0.5516809354528226 0.4483190645471774 0.4800620682651393 0.5199379317348607 0.7931538316745765 0.2068461683254235 0.7387432488982982 0.26125675110170177 0.4226210389961481 0.5773789610038519 0.038601776252949596 0.9613982237470504 0.3090110471346374 0.6909889528653627 0.21183558719068507 0.7881644128093149 0.010010718466772898 0.9899892815332271 0.013947188232743931 0.9860528117672561 0.7333158925205882 0.26668410747941185 0.4498501471121876 0.5501498528878124 0.075811894119642 0.924188105880358 0.26573039549346844 0.7342696045065316 0.19593744079717623 0.8040625592028239 0.3020332625032937 0.6979667374967063 0.6359894597868561 0.364010540213144 0.8193693122889841 0.18063068771101587 0.7788132927990814 0.22118670720091865 0.33085934688084817 0.6691406531191518 0.46751125417470424 0.5324887458252957 0.7204961797272171 0.2795038202727828 0.9024356194807488 0.09756438051925118 0.23921480031510886 0.7607851996848911 0.4299849288158869 0.5700150711841131 0.5103689611737965 0.48963103882620357 0.3769285199559798 0.6230714800440202 0.5522109211532581 0.447789078846742 0.2690582429273758 0.7309417570726242 0.6704687477274587 0.3295312522725413 0.9278931473583656 0.07210685264163445 0.7101013595730916 0.28989864042690844 0.8067519634096497 0.19324803659035014 0.01305013713194489 0.9869498628680551 0.4315461280238166 0.5684538719761834 0.024949849522873983 0.9750501504771261 0.9046913981659076 0.09530860183409236 0.2526605443149539 0.7473394556850462 0.5993964874155621 0.40060351258443794 0.45291525266357824 0.5470847473364218 0.6611208471511695 0.3388791528488305 0.18448253148045013 0.8155174685195499 0.38579135757860805 0.614208642421392 0.27948024342658023 0.7205197565734197 0.627270042105036 0.372729957894964 0.9253351607272366 0.07466483927276336 0.3186082960569882 0.6813917039430119 0.4953973356678113 0.5046026643321887 0.7856150439846035 0.2143849560153964 0.5132238919797919 0.4867761080202082 0.46509484750438773 0.5349051524956123 0.5070248001678413 0.4929751998321587 0.5273940193777964 0.47260598062220366 0.37937019536518873 0.6206298046348113 0.5902936293489782 0.4097063706510218 0.28888328458662127 0.7111167154133788 0.1891198390568537 0.8108801609431463 0.8148582121901706 0.18514178780982937 0.7183773883478215 0.28162261165217856 0.527877773144288 0.4721222268557121 0.5495566296873775 0.45044337031262244 0.5591355000495852 0.44086449995041477 0.8044070189687242 0.19559298103127568 0.5121979482539629 0.487802051746037 0.9038173586947541 0.0961826413052459 0.600634578351589 0.39936542164841116 0.42147300844176905 0.578526991558231 0.08552568620723332 0.9144743137927667 0.44220460429127784 0.5577953957087222 0.46096578562270163 0.5390342143772984 0.7923482000174826 0.20765179998251737 0.4590992950923532 0.5409007049076469 0.13063966118358192 0.869360338816418 0.7485932577016423 0.25140674229835785 0.3329731831598735 0.6670268168401264 0.7547598159515073 0.2452401840484926 0.6509842630181626 0.34901573698183747 0.4921271221893781 0.5078728778106218 0.34075605783446905 0.6592439421655308 0.4309517622703064 0.5690482377296936 0.10692493707705636 0.8930750629229437 0.6658242354547337 0.33417576454526643 0.5223567055231216 0.47764329447687837 0.2520669432013988 0.7479330567986012 0.2685014004373457 0.7314985995626542 0.7457650577840613 0.2542349422159387 0.7657082483737617 0.2342917516262383 0.5998908921111216 0.40010910788887843 0.4289386453889262 0.5710613546110738 0.6988120756891327 0.3011879243108672 0.5029838363609157 0.49701616363908424 0.14709578060846207 0.8529042193915379 0.5285659251852622 0.47143407481473776 0.5765173731982675 0.42348262680173265 0.38436929454404717 0.6156307054559529 0.4372455862019565 0.5627544137980435 0.6354829445366157 0.36451705546338425 0.33077556040298345 0.6692244395970166 0.7167603872608829 0.2832396127391171 0.8172635839013815 0.1827364160986185 0.07360474801217504 0.9263952519878249 0.38212773741492645 0.6178722625850736 0.43911447469711434 0.5608855253028856 0.6971563747507864 0.3028436252492136 0.3976552051935463 0.6023447948064539 0.48170710078329015 0.5182928992167098 0.5774329826086811 0.42256701739131874 0.6995265286966514 0.30047347130334856 0.68246113127564 0.31753886872435994 0.3334198092208421 0.6665801907791579 0.4104901768916487 0.5895098231083514 0.39146967697832513 0.6085303230216749 0.6060985291578653 0.39390147084213467 0.5207769295852883 0.4792230704147116 0.5865102014396827 0.41348979856031726 0.587746293014338 0.41225370698566194 0.4641390360517669 0.5358609639482331 0.9237096359337181 0.07629036406628187 0.24708295005201994 0.75291704994798 0.7373934541040901 0.26260654589590987 0.18621494005972933 0.8137850599402706 0.6863755566063982 0.31362444339360185 0.6673582944841592 0.3326417055158408 0.6303824997448446 0.36961750025515533 0.8261215272037538 0.17387847279624627 0.2652190643662077 0.7347809356337923 0.8451688098772935 0.1548311901227065 0.3107749207380092 0.6892250792619907 0.19191362336947826 0.8080863766305216 0.496055623098064 0.5039443769019359 0.5540662053861112 0.4459337946138889 0.47820566872381043 0.5217943312761896 0.7445938990799775 0.2554061009200225 0.1334601546591985 0.8665398453408014 0.14075925248820217 0.8592407475117978 0.5192048832877603 0.48079511671223973 0.5973832384882337 0.40261676151176623 0.5098409007862293 0.4901590992137706 0.8953711214443563 0.10462887855564375 0.6799249716862833 0.3200750283137168 0.23096200812941634 0.7690379918705836 0.7590321376226616 0.2409678623773385 0.2227420038381527 0.7772579961618473 0.5367569669430784 0.4632430330569217 0.33924005343052416 0.6607599465694759 0.6208792710830804 0.37912072891691967 0.4576619121736066 0.5423380878263934 0.6434072951393597 0.3565927048606404 0.6188545583018669 0.3811454416981331 0.16561347151379344 0.8343865284862064 0.477489834759965 0.522510165240035 0.39444691371448104 0.6055530862855188 0.3382549156483489 0.661745084351651 0.6628682491157942 0.33713175088420577 0.3693216930388263 0.6306783069611738 0.6522238512113032 0.3477761487886967 0.819357456370442 0.18064254362955798 0.1460462725067787 0.8539537274932213 0.384922208657596 0.6150777913424039 0.9248146997213844 0.07518530027861559 0.4194718953640929 0.5805281046359071 0.47710941019384734 0.5228905898061528 0.4962623467591501 0.5037376532408498 0.35478793622049165 0.6452120637795083 0.16661403003957564 0.8333859699604242 0.1137236017023654 0.8862763982976346 0.036497759652720056 0.9635022403472799 0.18575777359631443 0.8142422264036856 0.25797096313886153 0.7420290368611384 0.377842474927529 0.622157525072471 0.10685500841634017 0.8931449915836598 0.27569839873209756 0.7243016012679024 0.431193848093152 0.5688061519068479 0.6345004878266929 0.3654995121733071 0.77817551315263 0.22182448684737008 0.9852323250519485 0.014767674948051542 0.07414977015907526 0.9258502298409247 0.4328072824666091 0.5671927175333908 0.4543406068533929 0.5456593931466072 0.20447044132053954 0.7955295586794604 0.11776846749874836 0.8822315325012516 0.4865256140854393 0.5134743859145606 0.7472931572888445 0.2527068427111555 0.3919971046851081 0.6080028953148919 0.36295285174010944 0.6370471482598906 0.6141713970994791 0.3858286029005209 0.249329571079698 0.750670428920302 0.49687634675101955 0.5031236532489805 0.3093465062664536 0.6906534937335465 0.616498687056124 0.3835013129438761 0.003676351846915063 0.9963236481530849 0.502359510819483 0.49764048918051695 0.3278647379191843 0.6721352620808158 0.28177441174258544 0.7182255882574146 0.10375275018250685 0.8962472498174932 0.12386451118096511 0.876135488819035 0.6585535351130797 0.34144646488692026 0.8357422968509056 0.16425770314909433 0.9422988324151884 0.057701167584811565 0.6998501735339016 0.3001498264660985 0.4059533254030994 0.5940466745969006 0.5537781255672881 0.4462218744327119 0.8275900011169376 0.17240999888306244 0.5021259369613608 0.49787406303863924 0.3990855541496297 0.6009144458503703 0.6827289544973177 0.31727104550268226 0.9436508035725586 0.05634919642744138 0.46093226812736326 0.5390677318726367 0.3138442070631757 0.6861557929368243 0.16243845902821216 0.8375615409717878 0.561977103282255 0.4380228967177449 0.12251700982374819 0.8774829901762519 0.5802746436718829 0.4197253563281171 0.397901784160793 0.6020982158392071 0.7329304548835113 0.26706954511648884 0.5918487808551223 0.4081512191448778 0.9668937927282649 0.03310620727173509 0.9259722102094851 0.07402778979051493 0.7075742526345511 0.2924257473654488 0.4452897870137667 0.5547102129862334 0.5858072358913435 0.4141927641086565 0.1530718129483448 0.8469281870516552 0.6341747618492007 0.36582523815079937 0.09615245653984138 0.9038475434601586 0.6857453184547132 0.31425468154528674 0.6073474881591397 0.39265251184086025 0.8700477802931315 0.12995221970686854 0.8965098568943952 0.10349014310560481 0.11877346840483635 0.8812265315951636 0.4769902126738262 0.5230097873261739 0.5487718036956001 0.4512281963043999 0.7460677367081645 0.25393226329183544 0.2932744820773495 0.7067255179226505 0.16695130392772342 0.8330486960722766 0.03387266327768794 0.9661273367223121 0.36092469982839914 0.6390753001716007 0.08636227623452147 0.9136377237654786 0.3960805942792695 0.6039194057207306 0.4402192987815318 0.5597807012184682 0.5346385666200352 0.4653614333799649 0.17282065744737182 0.8271793425526281 0.15037136971606374 0.8496286302839362 0.37039832815623125 0.6296016718437688 0.4295997886046332 0.5704002113953667 0.31616674784962584 0.683833252150374 0.7879248195812171 0.21207518041878293 0.18340844410765225 0.8165915558923478 0.17767529434259202 0.822324705657408 0.46681509782847697 0.5331849021715231 0.33688568585079004 0.66311431414921 0.19510073754505441 0.8048992624549456 0.1930837546551497 0.8069162453448502 0.05360498804977507 0.9463950119502249 0.8307659588629279 0.16923404113707205 0.36212935542752794 0.6378706445724721 0.5184911078903632 0.48150889210963677 0.22048004860763862 0.7795199513923614 0.32267405321873593 0.6773259467812641 0.622831850305691 0.3771681496943091 0.6264933080280561 0.37350669197194386 0.710668552179379 0.289331447820621 0.8239601870731436 0.17603981292685641 0.30239394101058836 0.6976060589894116 