<?xml version='1.0' encoding='UTF-8'?>
<BIF VERSION="0.3">
  <NETWORK>
    <NAME>UNTITLED</NAME>
    <VARIABLE TYPE="nature">
      <NAME>0</NAME>
      <OUTCOME>0</OUTCOME>
      <OUTCOME>1</OUTCOME>
      <PROPERTY>weight = None</PROPERTY>
    </VARIABLE>
    <VARIABLE TYPE="nature">
      <NAME>1</NAME>
      <OUTCOME>0</OUTCOME>
      <OUTCOME>1</OUTCOME>
      <PROPERTY>weight = None</PROPERTY>
    </VARIABLE>
    <VARIABLE TYPE="nature">
      <NAME>10</NAME>
      <OUTCOME>0</OUTCOME>
      <OUTCOME>1</OUTCOME>
      <PROPERTY>weight = None</PROPERTY>
    </VARIABLE>
    <VARIABLE TYPE="nature">
      <NAME>11</NAME>
      <OUTCOME>0</OUTCOME>
      <OUTCOME>1</OUTCOME>
      <PROPERTY>weight = None</PROPERTY>
    </VARIABLE>
    <VARIABLE TYPE="nature">
      <NAME>12</NAME>
      <OUTCOME>0</OUTCOME>
      <OUTCOME>1</OUTCOME>
      <PROPERTY>weight = None</PROPERTY>
    </VARIABLE>
    <VARIABLE TYPE="nature">
      <NAME>13</NAME>
      <OUTCOME>0</OUTCOME>
      <OUTCOME>1</OUTCOME>
      <PROPERTY>weight = None</PROPERTY>
    </VARIABLE>
    <VARIABLE TYPE="nature">
      <NAME>14</NAME>
      <OUTCOME>0</OUTCOME>
      <OUTCOME>1</OUTCOME>
      <PROPERTY>weight = None</PROPERTY>
    </VARIABLE>
    <VARIABLE TYPE="nature">
      <NAME>15</NAME>
      <OUTCOME>0</OUTCOME>
      <OUTCOME>1</OUTCOME>
      <PROPERTY>weight = None</PROPERTY>
    </VARIABLE>
    <VARIABLE TYPE="nature">
      <NAME>16</NAME>
      <OUTCOME>0</OUTCOME>
      <OUTCOME>1</OUTCOME>
      <PROPERTY>weight = None</PROPERTY>
    </VARIABLE>
    <VARIABLE TYPE="nature">
      <NAME>17</NAME>
      <OUTCOME>0</OUTCOME>
      <OUTCOME>1</OUTCOME>
      <PROPERTY>weight = None</PROPERTY>
    </VARIABLE>
    <VARIABLE TYPE="nature">
      <NAME>18</NAME>
      <OUTCOME>0</OUTCOME>
      <OUTCOME>1</OUTCOME>
      <PROPERTY>weight = None</PROPERTY>
    </VARIABLE>
    <VARIABLE TYPE="nature">
      <NAME>19</NAME>
      <OUTCOME>0</OUTCOME>
      <OUTCOME>1</OUTCOME>
      <PROPERTY>weight = None</PROPERTY>
    </VARIABLE>
    <VARIABLE TYPE="nature">
      <NAME>2</NAME>
      <OUTCOME>0</OUTCOME>
      <OUTCOME>1</OUTCOME>
      <PROPERTY>weight = None</PROPERTY>
    </VARIABLE>
    <VARIABLE TYPE="nature">
      <NAME>20</NAME>
      <OUTCOME>0</OUTCOME>
      <OUTCOME>1</OUTCOME>
      <PROPERTY>weight = None</PROPERTY>
    </VARIABLE>
    <VARIABLE TYPE="nature">
      <NAME>21</NAME>
      <OUTCOME>0</OUTCOME>
      <OUTCOME>1</OUTCOME>
      <PROPERTY>weight = None</PROPERTY>
    </VARIABLE>
    <VARIABLE TYPE="nature">
      <NAME>22</NAME>
      <OUTCOME>0</OUTCOME>
      <OUTCOME>1</OUTCOME>
      <PROPERTY>weight = None</PROPERTY>
    </VARIABLE>
    <VARIABLE TYPE="nature">
      <NAME>23</NAME>
      <OUTCOME>0</OUTCOME>
      <OUTCOME>1</OUTCOME>
      <PROPERTY>weight = None</PROPERTY>
    </VARIABLE>
    <VARIABLE TYPE="nature">
      <NAME>24</NAME>
      <OUTCOME>0</OUTCOME>
      <OUTCOME>1</OUTCOME>
      <PROPERTY>weight = None</PROPERTY>
    </VARIABLE>
    <VARIABLE TYPE="nature">
      <NAME>25</NAME>
      <OUTCOME>0</OUTCOME>
      <OUTCOME>1</OUTCOME>
      <PROPERTY>weight = None</PROPERTY>
    </VARIABLE>
    <VARIABLE TYPE="nature">
      <NAME>26</NAME>
      <OUTCOME>0</OUTCOME>
      <OUTCOME>1</OUTCOME>
      <PROPERTY>weight = None</PROPERTY>
    </VARIABLE>
    <VARIABLE TYPE="nature">
      <NAME>27</NAME>
      <OUTCOME>0</OUTCOME>
      <OUTCOME>1</OUTCOME>
      <PROPERTY>weight = None</PROPERTY>
    </VARIABLE>
    <VARIABLE TYPE="nature">
      <NAME>28</NAME>
      <OUTCOME>0</OUTCOME>
      <OUTCOME>1</OUTCOME>
      <PROPERTY>weight = None</PROPERTY>
    </VARIABLE>
    <VARIABLE TYPE="nature">
      <NAME>29</NAME>
      <OUTCOME>0</OUTCOME>
      <OUTCOME>1</OUTCOME>
      <PROPERTY>weight = None</PROPERTY>
    </VARIABLE>
    <VARIABLE TYPE="nature">
      <NAME>3</NAME>
      <OUTCOME>0</OUTCOME>
      <OUTCOME>1</OUTCOME>
      <PROPERTY>weight = None</PROPERTY>
    </VARIABLE>
    <VARIABLE TYPE="nature">
      <NAME>30</NAME>
      <OUTCOME>0</OUTCOME>
      <OUTCOME>1</OUTCOME>
      <PROPERTY>weight = None</PROPERTY>
    </VARIABLE>
    <VARIABLE TYPE="nature">
      <NAME>31</NAME>
      <OUTCOME>0</OUTCOME>
      <OUTCOME>1</OUTCOME>
      <PROPERTY>weight = None</PROPERTY>
    </VARIABLE>
    <VARIABLE TYPE="nature">
      <NAME>32</NAME>
      <OUTCOME>0</OUTCOME>
      <OUTCOME>1</OUTCOME>
      <PROPERTY>weight = None</PROPERTY>
    </VARIABLE>
    <VARIABLE TYPE="nature">
      <NAME>33</NAME>
      <OUTCOME>0</OUTCOME>
      <OUTCOME>1</OUTCOME>
      <PROPERTY>weight = None</PROPERTY>
    </VARIABLE>
    <VARIABLE TYPE="nature">
      <NAME>34</NAME>
      <OUTCOME>0</OUTCOME>
      <OUTCOME>1</OUTCOME>
      <PROPERTY>weight = None</PROPERTY>
    </VARIABLE>
    <VARIABLE TYPE="nature">
      <NAME>35</NAME>
      <OUTCOME>0</OUTCOME>
      <OUTCOME>1</OUTCOME>
      <PROPERTY>weight = None</PROPERTY>
    </VARIABLE>
    <VARIABLE TYPE="nature">
      <NAME>36</NAME>
      <OUTCOME>0</OUTCOME>
      <OUTCOME>1</OUTCOME>
      <PROPERTY>weight = None</PROPERTY>
    </VARIABLE>
    <VARIABLE TYPE="nature">
      <NAME>37</NAME>
      <OUTCOME>0</OUTCOME>
      <OUTCOME>1</OUTCOME>
      <PROPERTY>weight = None</PROPERTY>
    </VARIABLE>
    <VARIABLE TYPE="nature">
      <NAME>38</NAME>
      <OUTCOME>0</OUTCOME>
      <OUTCOME>1</OUTCOME>
      <PROPERTY>weight = None</PROPERTY>
    </VARIABLE>
    <VARIABLE TYPE="nature">
      <NAME>39</NAME>
      <OUTCOME>0</OUTCOME>
      <OUTCOME>1</OUTCOME>
      <PROPERTY>weight = None</PROPERTY>
    </VARIABLE>
    <VARIABLE TYPE="nature">
      <NAME>4</NAME>
      <OUTCOME>0</OUTCOME>
      <OUTCOME>1</OUTCOME>
      <PROPERTY>weight = None</PROPERTY>
    </VARIABLE>
    <VARIABLE TYPE="nature">
      <NAME>40</NAME>
      <OUTCOME>0</OUTCOME>
      <OUTCOME>1</OUTCOME>
      <PROPERTY>weight = None</PROPERTY>
    </VARIABLE>
    <VARIABLE TYPE="nature">
      <NAME>41</NAME>
      <OUTCOME>0</OUTCOME>
      <OUTCOME>1</OUTCOME>
      <PROPERTY>weight = None</PROPERTY>
    </VARIABLE>
    <VARIABLE TYPE="nature">
      <NAME>42</NAME>
      <OUTCOME>0</OUTCOME>
      <OUTCOME>1</OUTCOME>
      <PROPERTY>weight = None</PROPERTY>
    </VARIABLE>
    <VARIABLE TYPE="nature">
      <NAME>43</NAME>
      <OUTCOME>0</OUTCOME>
      <OUTCOME>1</OUTCOME>
      <PROPERTY>weight = None</PROPERTY>
    </VARIABLE>
    <VARIABLE TYPE="nature">
      <NAME>44</NAME>
      <OUTCOME>0</OUTCOME>
      <OUTCOME>1</OUTCOME>
      <PROPERTY>weight = None</PROPERTY>
    </VARIABLE>
    <VARIABLE TYPE="nature">
      <NAME>45</NAME>
      <OUTCOME>0</OUTCOME>
      <OUTCOME>1</OUTCOME>
      <PROPERTY>weight = None</PROPERTY>
    </VARIABLE>
    <VARIABLE TYPE="nature">
      <NAME>46</NAME>
      <OUTCOME>0</OUTCOME>
      <OUTCOME>1</OUTCOME>
      <PROPERTY>weight = None</PROPERTY>
    </VARIABLE>
    <VARIABLE TYPE="nature">
      <NAME>47</NAME>
      <OUTCOME>0</OUTCOME>
      <OUTCOME>1</OUTCOME>
      <PROPERTY>weight = None</PROPERTY>
    </VARIABLE>
    <VARIABLE TYPE="nature">
      <NAME>48</NAME>
      <OUTCOME>0</OUTCOME>
      <OUTCOME>1</OUTCOME>
      <PROPERTY>weight = None</PROPERTY>
    </VARIABLE>
    <VARIABLE TYPE="nature">
      <NAME>49</NAME>
      <OUTCOME>0</OUTCOME>
      <OUTCOME>1</OUTCOME>
      <PROPERTY>weight = None</PROPERTY>
    </VARIABLE>
    <VARIABLE TYPE="nature">
      <NAME>5</NAME>
      <OUTCOME>0</OUTCOME>
      <OUTCOME>1</OUTCOME>
      <PROPERTY>weight = None</PROPERTY>
    </VARIABLE>
    <VARIABLE TYPE="nature">
      <NAME>50</NAME>
      <OUTCOME>0</OUTCOME>
      <OUTCOME>1</OUTCOME>
      <PROPERTY>weight = None</PROPERTY>
    </VARIABLE>
    <VARIABLE TYPE="nature">
      <NAME>51</NAME>
      <OUTCOME>0</OUTCOME>
      <OUTCOME>1</OUTCOME>
      <PROPERTY>weight = None</PROPERTY>
    </VARIABLE>
    <VARIABLE TYPE="nature">
      <NAME>52</NAME>
      <OUTCOME>0</OUTCOME>
      <OUTCOME>1</OUTCOME>
      <PROPERTY>weight = None</PROPERTY>
    </VARIABLE>
    <VARIABLE TYPE="nature">
      <NAME>53</NAME>
      <OUTCOME>0</OUTCOME>
      <OUTCOME>1</OUTCOME>
      <PROPERTY>weight = None</PROPERTY>
    </VARIABLE>
    <VARIABLE TYPE="nature">
      <NAME>54</NAME>
      <OUTCOME>0</OUTCOME>
      <OUTCOME>1</OUTCOME>
      <PROPERTY>weight = None</PROPERTY>
    </VARIABLE>
    <VARIABLE TYPE="nature">
      <NAME>55</NAME>
      <OUTCOME>0</OUTCOME>
      <OUTCOME>1</OUTCOME>
      <PROPERTY>weight = None</PROPERTY>
    </VARIABLE>
    <VARIABLE TYPE="nature">
      <NAME>56</NAME>
      <OUTCOME>0</OUTCOME>
      <OUTCOME>1</OUTCOME>
      <PROPERTY>weight = None</PROPERTY>
    </VARIABLE>
    <VARIABLE TYPE="nature">
      <NAME>57</NAME>
      <OUTCOME>0</OUTCOME>
      <OUTCOME>1</OUTCOME>
      <PROPERTY>weight = None</PROPERTY>
    </VARIABLE>
    <VARIABLE TYPE="nature">
      <NAME>58</NAME>
      <OUTCOME>0</OUTCOME>
      <OUTCOME>1</OUTCOME>
      <PROPERTY>weight = None</PROPERTY>
    </VARIABLE>
    <VARIABLE TYPE="nature">
      <NAME>59</NAME>
      <OUTCOME>0</OUTCOME>
      <OUTCOME>1</OUTCOME>
      <PROPERTY>weight = None</PROPERTY>
    </VARIABLE>
    <VARIABLE TYPE="nature">
      <NAME>6</NAME>
      <OUTCOME>0</OUTCOME>
      <OUTCOME>1</OUTCOME>
      <PROPERTY>weight = None</PROPERTY>
    </VARIABLE>
    <VARIABLE TYPE="nature">
      <NAME>60</NAME>
      <OUTCOME>0</OUTCOME>
      <OUTCOME>1</OUTCOME>
      <PROPERTY>weight = None</PROPERTY>
    </VARIABLE>
    <VARIABLE TYPE="nature">
      <NAME>61</NAME>
      <OUTCOME>0</OUTCOME>
      <OUTCOME>1</OUTCOME>
      <PROPERTY>weight = None</PROPERTY>
    </VARIABLE>
    <VARIABLE TYPE="nature">
      <NAME>62</NAME>
      <OUTCOME>0</OUTCOME>
      <OUTCOME>1</OUTCOME>
      <PROPERTY>weight = None</PROPERTY>
    </VARIABLE>
    <VARIABLE TYPE="nature">
      <NAME>63</NAME>
      <OUTCOME>0</OUTCOME>
      <OUTCOME>1</OUTCOME>
      <PROPERTY>weight = None</PROPERTY>
    </VARIABLE>
    <VARIABLE TYPE="nature">
      <NAME>64</NAME>
      <OUTCOME>0</OUTCOME>
      <OUTCOME>1</OUTCOME>
      <PROPERTY>weight = None</PROPERTY>
    </VARIABLE>
    <VARIABLE TYPE="nature">
      <NAME>65</NAME>
      <OUTCOME>0</OUTCOME>
      <OUTCOME>1</OUTCOME>
      <PROPERTY>weight = None</PROPERTY>
    </VARIABLE>
    <VARIABLE TYPE="nature">
      <NAME>66</NAME>
      <OUTCOME>0</OUTCOME>
      <OUTCOME>1</OUTCOME>
      <PROPERTY>weight = None</PROPERTY>
    </VARIABLE>
    <VARIABLE TYPE="nature">
      <NAME>67</NAME>
      <OUTCOME>0</OUTCOME>
      <OUTCOME>1</OUTCOME>
      <PROPERTY>weight = None</PROPERTY>
    </VARIABLE>
    <VARIABLE TYPE="nature">
      <NAME>68</NAME>
      <OUTCOME>0</OUTCOME>
      <OUTCOME>1</OUTCOME>
      <PROPERTY>weight = None</PROPERTY>
    </VARIABLE>
    <VARIABLE TYPE="nature">
      <NAME>69</NAME>
      <OUTCOME>0</OUTCOME>
      <OUTCOME>1</OUTCOME>
      <PROPERTY>weight = None</PROPERTY>
    </VARIABLE>
    <VARIABLE TYPE="nature">
      <NAME>7</NAME>
      <OUTCOME>0</OUTCOME>
      <OUTCOME>1</OUTCOME>
      <PROPERTY>weight = None</PROPERTY>
    </VARIABLE>
    <VARIABLE TYPE="nature">
      <NAME>70</NAME>
      <OUTCOME>0</OUTCOME>
      <OUTCOME>1</OUTCOME>
      <PROPERTY>weight = None</PROPERTY>
    </VARIABLE>
    <VARIABLE TYPE="nature">
      <NAME>71</NAME>
      <OUTCOME>0</OUTCOME>
      <OUTCOME>1</OUTCOME>
      <PROPERTY>weight = None</PROPERTY>
    </VARIABLE>
    <VARIABLE TYPE="nature">
      <NAME>72</NAME>
      <OUTCOME>0</OUTCOME>
      <OUTCOME>1</OUTCOME>
      <PROPERTY>weight = None</PROPERTY>
    </VARIABLE>
    <VARIABLE TYPE="nature">
      <NAME>73</NAME>
      <OUTCOME>0</OUTCOME>
      <OUTCOME>1</OUTCOME>
      <PROPERTY>weight = None</PROPERTY>
    </VARIABLE>
    <VARIABLE TYPE="nature">
      <NAME>74</NAME>
      <OUTCOME>0</OUTCOME>
      <OUTCOME>1</OUTCOME>
      <PROPERTY>weight = None</PROPERTY>
    </VARIABLE>
    <VARIABLE TYPE="nature">
      <NAME>75</NAME>
      <OUTCOME>0</OUTCOME>
      <OUTCOME>1</OUTCOME>
      <PROPERTY>weight = None</PROPERTY>
    </VARIABLE>
    <VARIABLE TYPE="nature">
      <NAME>76</NAME>
      <OUTCOME>0</OUTCOME>
      <OUTCOME>1</OUTCOME>
      <PROPERTY>weight = None</PROPERTY>
    </VARIABLE>
    <VARIABLE TYPE="nature">
      <NAME>77</NAME>
      <OUTCOME>0</OUTCOME>
      <OUTCOME>1</OUTCOME>
      <PROPERTY>weight = None</PROPERTY>
    </VARIABLE>
    <VARIABLE TYPE="nature">
      <NAME>78</NAME>
      <OUTCOME>0</OUTCOME>
      <OUTCOME>1</OUTCOME>
      <PROPERTY>weight = None</PROPERTY>
    </VARIABLE>
    <VARIABLE TYPE="nature">
      <NAME>79</NAME>
      <OUTCOME>0</OUTCOME>
      <OUTCOME>1</OUTCOME>
      <PROPERTY>weight = None</PROPERTY>
    </VARIABLE>
    <VARIABLE TYPE="nature">
      <NAME>8</NAME>
      <OUTCOME>0</OUTCOME>
      <OUTCOME>1</OUTCOME>
      <PROPERTY>weight = None</PROPERTY>
    </VARIABLE>
    <VARIABLE TYPE="nature">
      <NAME>9</NAME>
      <OUTCOME>0</OUTCOME>
      <OUTCOME>1</OUTCOME>
      <PROPERTY>weight = None</PROPERTY>
    </VARIABLE>
    <DEFINITION>
      <FOR>0</FOR>
      <TABLE>0.16691396640677694 0.8330860335932231 </TABLE>
    </DEFINITION>
    <DEFINITION>
      <FOR>1</FOR>
      <TABLE>0.23312494910321316 0.7668750508967869 </TABLE>
    </DEFINITION>
    <DEFINITION>
      <FOR>2</FOR>
      <TABLE>0.9053902023199618 0.09460979768003816 </TABLE>
    </DEFINITION>
    <DEFINITION>
      <FOR>3</FOR>
      <TABLE>0.5816800194476972 0.4183199805523028 </TABLE>
    </DEFINITION>
    <DEFINITION>
      <FOR>4</FOR>
      <TABLE>0.4677391411067297 0.5322608588932702 </TABLE>
    </DEFINITION>
    <DEFINITION>
      <FOR>5</FOR>
      <TABLE>0.489282097045883 0.510717902954117 </TABLE>
    </DEFINITION>
    <DEFINITION>
      <FOR>6</FOR>
      <TABLE>0.5203704509124735 0.4796295490875265 </TABLE>
    </DEFINITION>
    <DEFINITION>
      <FOR>7</FOR>
      <TABLE>0.9484301433628081 0.0515698566371919 </TABLE>
    </DEFINITION>
    <DEFINITION>
      <FOR>8</FOR>
      <TABLE>0.934399647275906 0.06560035272409409 </TABLE>
    </DEFINITION>
    <DEFINITION>
      <FOR>9</FOR>
      <GIVEN>8</GIVEN>
      <TABLE>0.4796417532811616 0.5203582467188383 0.4027784992965645 0.5972215007034354 </TABLE>
    </DEFINITION>
    <DEFINITION>
      <FOR>10</FOR>
      <TABLE>0.2662134464645107 0.7337865535354893 </TABLE>
    </DEFINITION>
    <DEFINITION>
      <FOR>11</FOR>
      <TABLE>0.4442936370696801 0.5557063629303199 </TABLE>
    </DEFINITION>
    <DEFINITION>
      <FOR>12</FOR>
      <TABLE>0.4473898029870925 0.5526101970129075 </TABLE>
    </DEFINITION>
    <DEFINITION>
      <FOR>13</FOR>
      <TABLE>0.8334548240936277 0.16654517590637227 </TABLE>
    </DEFINITION>
    <DEFINITION>
      <FOR>14</FOR>
      <TABLE>0.3547703292530532 0.6452296707469468 </TABLE>
    </DEFINITION>
    <DEFINITION>
      <FOR>15</FOR>
      <TABLE>0.20158311885669883 0.7984168811433012 </TABLE>
    </DEFINITION>
    <DEFINITION>
      <FOR>16</FOR>
      <GIVEN>3</GIVEN>
      <TABLE>0.730364981135223 0.2696350188647771 0.7787224579464714 0.22127754205352854 </TABLE>
    </DEFINITION>
    <DEFINITION>
      <FOR>17</FOR>
      <TABLE>0.9333129831857827 0.06668701681421725 </TABLE>
    </DEFINITION>
    <DEFINITION>
      <FOR>18</FOR>
      <TABLE>0.003663530196648996 0.996336469803351 </TABLE>
    </DEFINITION>
    <DEFINITION>
      <FOR>19</FOR>
      <GIVEN>14</GIVEN>
      <TABLE>0.5096257249719303 0.49037427502806963 0.4712399999410218 0.5287600000589782 </TABLE>
    </DEFINITION>
    <DEFINITION>
      <FOR>20</FOR>
      <TABLE>0.25773193289856955 0.7422680671014305 </TABLE>
    </DEFINITION>
    <DEFINITION>
      <FOR>21</FOR>
      <GIVEN>8</GIVEN>
      <TABLE>0.7913039571738625 0.20869604282613752 0.5408473328258007 0.45915266717419934 </TABLE>
    </DEFINITION>
    <DEFINITION>
      <FOR>22</FOR>
      <TABLE>0.5914004831568703 0.4085995168431297 </TABLE>
    </DEFINITION>
    <DEFINITION>
      <FOR>23</FOR>
      <TABLE>0.7763625688288411 0.2236374311711589 </TABLE>
    </DEFINITION>
    <DEFINITION>
      <FOR>24</FOR>
      <TABLE>0.9347215480566442 0.06527845194335577 </TABLE>
    </DEFINITION>
    <DEFINITION>
      <FOR>25</FOR>
      <GIVEN>12</GIVEN>
      <TABLE>0.670595909304839 0.3294040906951611 0.2474164424915236 0.7525835575084763 </TABLE>
    </DEFINITION>
    <DEFINITION>
      <FOR>26</FOR>
      <GIVEN>14</GIVEN>
      <TABLE>0.9214626586456307 0.07853734135436927 0.08558931256268223 0.9144106874373179 </TABLE>
    </DEFINITION>
    <DEFINITION>
      <FOR>27</FOR>
      <TABLE>0.45551292889181255 0.5444870711081875 </TABLE>
    </DEFINITION>
    <DEFINITION>
      <FOR>28</FOR>
      <TABLE>0.794417077033074 0.205582922966926 </TABLE>
    </DEFINITION>
    <DEFINITION>
      <FOR>29</FOR>
      <TABLE>0.21176807674298448 0.7882319232570155 </TABLE>
    </DEFINITION>
    <DEFINITION>
      <FOR>30</FOR>
      <TABLE>0.406507035216853 0.593492964783147 </TABLE>
    </DEFINITION>
    <DEFINITION>
      <FOR>31</FOR>
      <GIVEN>25</GIVEN>
      <GIVEN>24</GIVEN>
      <TABLE>0.3902075188559703 0.6097924811440296 0.014321864764933977 0.985678135235066 0.48663116848179305 0.5133688315182069 0.9538350952755937 0.046164904724406285 </TABLE>
    </DEFINITION>
    <DEFINITION>
      <FOR>32</FOR>
      <GIVEN>1</GIVEN>
      <TABLE>0.334396367199277 0.665603632800723 0.49462199851576516 0.5053780014842348 </TABLE>
    </DEFINITION>
    <DEFINITION>
      <FOR>33</FOR>
      <TABLE>0.4692703349367227 0.5307296650632773 </TABLE>
    </DEFINITION>
    <DEFINITION>
      <FOR>34</FOR>
      <GIVEN>9</GIVEN>
      <GIVEN>19</GIVEN>
      <GIVEN>24</GIVEN>
      <TABLE>0.032898005300990324 0.9671019946990097 0.09372050032701872 0.9062794996729813 0.45768472320232895 0.542315276797671 0.680342006187585 0.31965799381241494 0.5156294394075961 0.4843705605924039 0.6738345883536488 0.32616541164635116 0.44647624229657895 0.5535237577034211 0.6130485856153817 0.3869514143846184 </TABLE>
    </DEFINITION>
    <DEFINITION>
      <FOR>35</FOR>
      <TABLE>0.571637841690359 0.4283621583096411 </TABLE>
    </DEFINITION>
    <DEFINITION>
      <FOR>36</FOR>
      <GIVEN>35</GIVEN>
      <TABLE>0.3604796200573697 0.6395203799426303 0.40882801165635 0.59117198834365 </TABLE>
    </DEFINITION>
    <DEFINITION>
      <FOR>37</FOR>
      <TABLE>0.9292315023554648 0.0707684976445352 </TABLE>
    </DEFINITION>
    <DEFINITION>
      <FOR>38</FOR>
      <TABLE>0.803569040771637 0.1964309592283629 </TABLE>
    </DEFINITION>
    <DEFINITION>
      <FOR>39</FOR>
      <GIVEN>8</GIVEN>
      <GIVEN>34</GIVEN>
      <TABLE>0.3365317236262758 0.6634682763737242 0.7844571550673196 0.2155428449326804 0.9629057430497462 0.03709425695025379 0.05067375189442851 0.9493262481055715 </TABLE>
    </DEFINITION>
    <DEFINITION>
      <FOR>40</FOR>
      <GIVEN>17</GIVEN>
      <TABLE>0.5542209323173893 0.44577906768261066 0.6689843398794297 0.3310156601205703 </TABLE>
    </DEFINITION>
    <DEFINITION>
      <FOR>41</FOR>
      <TABLE>0.18648473370586494 0.8135152662941351 </TABLE>
    </DEFINITION>
    <DEFINITION>
      <FOR>42</FOR>
      <GIVEN>1</GIVEN>
      <GIVEN>25</GIVEN>
      <GIVEN>40</GIVEN>
      <TABLE>0.9101559057289623 0.08984409427103766 0.47215291183967145 0.5278470881603287 0.4538787077925477 0.5461212922074523 0.458530522697466 0.5414694773025339 0.5207505822705124 0.4792494177294876 0.6484560076612848 0.35154399233871536 0.9726404876576162 0.027359512342383752 0.6292833423665402 0.37071665763345985 </TABLE>
    </DEFINITION>
    <DEFINITION>
      <FOR>43</FOR>
      <GIVEN>42</GIVEN>
      <GIVEN>38</GIVEN>
      <TABLE>0.4490867229157653 0.5509132770842348 0.5100126940474731 0.4899873059525269 0.2506671764914203 0.7493328235085798 0.6518170757134644 0.3481829242865357 </TABLE>
    </DEFINITION>
    <DEFINITION>
      <FOR>44</FOR>
      <GIVEN>20</GIVEN>
      <TABLE>0.2486905708590624 0.7513094291409376 0.43904199565607915 0.560958004343921 </TABLE>
    </DEFINITION>
    <DEFINITION>
      <FOR>45</FOR>
      <GIVEN>19</GIVEN>
      <GIVEN>20</GIVEN>
      <GIVEN>22</GIVEN>
      <TABLE>0.9119481587973508 0.0880518412026492 0.5072503044676415 0.4927496955323584 0.16660124898374865 0.8333987510162513 0.07448100644217563 0.9255189935578244 0.5002172000934871 0.49978279990651286 0.36959050546315153 0.6304094945368486 0.349268754183831 0.6507312458161689 0.22848646679922138 0.7715135332007785 </TABLE>
    </DEFINITION>
    <DEFINITION>
      <FOR>46</FOR>
      <GIVEN>32</GIVEN>
      <GIVEN>4</GIVEN>
      <GIVEN>27</GIVEN>
      <TABLE>0.8346662827988106 0.16533371720118936 0.2359716038200874 0.7640283961799127 0.5854367635336943 0.41456323646630566 0.24685154341538354 0.7531484565846164 0.5673934225166907 0.43260657748330933 0.6608217768954724 0.33917822310452767 0.5071587829059754 0.49284121709402456 0.466887703051496 0.5331122969485039 </TABLE>
    </DEFINITION>
    <DEFINITION>
      <FOR>47</FOR>
      <GIVEN>16</GIVEN>
      <GIVEN>33</GIVEN>
      <TABLE>0.2615449746190835 0.7384550253809165 0.6316963677987163 0.3683036322012837 0.4489969669730959 0.5510030330269041 0.029850754628956738 0.9701492453710433 </TABLE>
    </DEFINITION>
    <DEFINITION>
      <FOR>48</FOR>
      <GIVEN>16</GIVEN>
      <GIVEN>5</GIVEN>
      <GIVEN>14</GIVEN>
      <TABLE>0.48737272981339536 0.5126272701866046 0.3547090820103163 0.6452909179896836 0.497184516301275 0.502815483698725 0.8798195609247538 0.12018043907524625 0.23429490128444755 0.7657050987155525 0.25213227023480256 0.7478677297651974 0.9000002665768982 0.0999997334231017 0.465407638949846 0.534592361050154 </TABLE>
    </DEFINITION>
    <DEFINITION>
      <FOR>49</FOR>
      <GIVEN>18</GIVEN>
      <GIVEN>44</GIVEN>
      <TABLE>0.6211205424790969 0.37887945752090313 0.6056787804839299 0.3943212195160701 0.5356561212217222 0.4643438787782778 0.43750449982812345 0.5624955001718766 </TABLE>
    </DEFINITION>
    <DEFINITION>
      <FOR>50</FOR>
      <TABLE>0.46035631587329856 0.5396436841267014 </TABLE>
    </DEFINITION>
    <DEFINITION>
      <FOR>51</FOR>
      <GIVEN>50</GIVEN>
      <TABLE>0.7912538212243763 0.20874617877562385 0.15549195267270083 0.8445080473272992 </TABLE>
    </DEFINITION>
    <DEFINITION>
      <FOR>52</FOR>
      <GIVEN>43</GIVEN>
      <TABLE>0.9695162260418039 0.03048377395819615 0.5697596437148831 0.43024035628511687 </TABLE>
    </DEFINITION>
    <DEFINITION>
      <FOR>53</FOR>
      <GIVEN>41</GIVEN>
      <TABLE>0.4157858440810037 0.5842141559189963 0.44550650820853477 0.5544934917914652 </TABLE>
    </DEFINITION>
    <DEFINITION>
      <FOR>54</FOR>
      <GIVEN>22</GIVEN>
      <TABLE>0.6162169179559828 0.3837830820440172 0.5017484787419949 0.498251521258005 </TABLE>
    </DEFINITION>
    <DEFINITION>
      <FOR>55</FOR>
      <TABLE>0.5049067271169388 0.4950932728830612 </TABLE>
    </DEFINITION>
    <DEFINITION>
      <FOR>56</FOR>
      <GIVEN>32</GIVEN>
      <GIVEN>12</GIVEN>
      <GIVEN>49</GIVEN>
      <TABLE>0.3704108675661764 0.6295891324338235 0.5751542090327151 0.4248457909672849 0.3620172876192586 0.6379827123807413 0.6546900356685912 0.34530996433140876 0.7504655763783049 0.24953442362169498 0.8644080596693791 0.1355919403306209 0.8027493485361171 0.19725065146388282 0.6862450329477608 0.3137549670522393 </TABLE>
    </DEFINITION>
    <DEFINITION>
      <FOR>57</FOR>
      <GIVEN>0</GIVEN>
      <TABLE>0.07755890499788033 0.9224410950021197 0.6382438386056377 0.3617561613943623 </TABLE>
    </DEFINITION>
    <DEFINITION>
      <FOR>58</FOR>
      <GIVEN>54</GIVEN>
      <GIVEN>24</GIVEN>
      <GIVEN>29</GIVEN>
      <GIVEN>36</GIVEN>
      <TABLE>0.15351819891080565 0.8464818010891944 0.29708799294458393 0.702912007055416 0.9132492761550056 0.0867507238449944 0.5898374918149486 0.4101625081850513 0.40350142905588293 0.5964985709441171 0.43847617653081655 0.5615238234691835 0.8126498505463093 0.1873501494536907 0.930683263664022 0.069316736335978 0.3938167127208165 0.6061832872791836 0.5502391659436988 0.44976083405630113 0.38048039271429096 0.619519607285709 0.8794804584740552 0.12051954152594481 0.34881195304762097 0.6511880469523791 0.8193773773355294 0.18062262266447054 0.41677935075646316 0.5832206492435368 0.5707930404128426 0.4292069595871574 </TABLE>
    </DEFINITION>
    <DEFINITION>
      <FOR>59</FOR>
      <GIVEN>32</GIVEN>
      <GIVEN>10</GIVEN>
      <GIVEN>37</GIVEN>
      <TABLE>0.22717085412535992 0.7728291458746401 0.7140891623207545 0.2859108376792455 0.08533339520814152 0.9146666047918585 0.4119830489671437 0.5880169510328563 0.8967995183983253 0.10320048160167476 0.7083902489027519 0.291609751097248 0.4628892510287413 0.5371107489712588 0.8396998170740849 0.16030018292591505 </TABLE>
    </DEFINITION>
    <DEFINITION>
      <FOR>60</FOR>
      <GIVEN>3</GIVEN>
      <GIVEN>21</GIVEN>
      <TABLE>0.45102951255325807 0.5489704874467418 0.5519648701802438 0.4480351298197563 0.5969976241225299 0.40300237587747 0.6049621560536078 0.39503784394639224 </TABLE>
    </DEFINITION>
    <DEFINITION>
      <FOR>61</FOR>
      <GIVEN>52</GIVEN>
      <TABLE>0.23852070931918695 0.7614792906808131 0.6930535353650961 0.306946464634904 </TABLE>
    </DEFINITION>
    <DEFINITION>
      <FOR>62</FOR>
      <GIVEN>3</GIVEN>
      <GIVEN>60</GIVEN>
      <GIVEN>27</GIVEN>
      <GIVEN>33</GIVEN>
      <GIVEN>53</GIVEN>
      <TABLE>0.614393464125409 0.38560653587459104 0.40588997412802297 0.594110025871977 0.47350423093456073 0.5264957690654392 0.24105521468628444 0.7589447853137156 0.5532495870238126 0.44675041297618756 0.31134481135640696 0.688655188643593 0.27570680392737335 0.7242931960726267 0.3432551513655939 0.6567448486344061 0.231507366489607 0.768492633510393 0.4693459055992104 0.5306540944007896 0.4158536321346019 0.5841463678653981 0.5264844599155916 0.47351554008440844 0.5885731863904918 0.41142681360950806 0.788561936154825 0.21143806384517502 0.5482981915810726 0.4517018084189274 0.019193729083611208 0.9808062709163888 0.4378756405607096 0.5621243594392904 0.7037457797947101 0.2962542202052899 0.5158997944928237 0.48410020550717625 0.5351418605474211 0.4648581394525788 0.7381313522685693 0.2618686477314307 0.4279246861721682 0.5720753138278317 0.2636899439931465 0.7363100560068535 0.5985669190931726 0.40143308090682744 0.6404468329501161 0.35955316704988394 0.4435758939212464 0.5564241060787535 0.6734523195739096 0.3265476804260904 0.6904008281628349 0.30959917183716507 0.6060474886594442 0.3939525113405556 0.2220672639608736 0.7779327360391264 0.02656375162034987 0.9734362483796501 0.5586405678763792 0.44135943212362083 </TABLE>
    </DEFINITION>
    <DEFINITION>
      <FOR>63</FOR>
      <GIVEN>19</GIVEN>
      <GIVEN>43</GIVEN>
      <TABLE>0.850605481847751 0.14939451815224908 0.31610956123489425 0.6838904387651058 0.45287190292220586 0.5471280970777942 0.670272628120301 0.329727371879699 </TABLE>
    </DEFINITION>
    <DEFINITION>
      <FOR>64</FOR>
      <GIVEN>48</GIVEN>
      <TABLE>0.14888453749961636 0.8511154625003836 0.33563392636488243 0.6643660736351175 </TABLE>
    </DEFINITION>
    <DEFINITION>
      <FOR>65</FOR>
      <GIVEN>46</GIVEN>
      <GIVEN>6</GIVEN>
      <GIVEN>10</GIVEN>
      <GIVEN>56</GIVEN>
      <GIVEN>58</GIVEN>
      <TABLE>0.7249985994014774 0.2750014005985226 0.5458346562453569 0.4541653437546432 0.19574161264805962 0.8042583873519404 0.5712294078213102 0.4287705921786898 0.5498672737499815 0.45013272625001866 0.7617728878683535 0.23822711213164646 0.5461521625391992 0.4538478374608008 0.5569726071542247 0.4430273928457753 0.8619480027207399 0.13805199727926007 0.48632733323191873 0.5136726667680813 0.5799943689940077 0.42000563100599236 0.4729945908674374 0.5270054091325626 0.39539441658711727 0.6046055834128826 0.20981605940333423 0.7901839405966657 0.6515437761093275 0.34845622389067243 0.3420929704602229 0.657907029539777 0.5224397063002008 0.4775602936997992 0.7946097706393243 0.2053902293606757 0.5336412950699044 0.46635870493009557 0.4887086635640171 0.5112913364359829 0.2649151942924037 0.7350848057075962 0.5436164711083329 0.45638352889166717 0.6188798811559795 0.3811201188440204 0.4075026574752646 0.5924973425247354 0.642394370777109 0.357605629222891 0.34765889989929494 0.652341100100705 0.47255204930015327 0.5274479506998467 0.47403777381878126 0.5259622261812187 0.6046906604886049 0.3953093395113951 0.9829678872874845 0.01703211271251544 0.2929910339685378 0.7070089660314621 0.6565849647150922 0.34341503528490774 </TABLE>
    </DEFINITION>
    <DEFINITION>
      <FOR>66</FOR>
      <TABLE>0.3547259204238333 0.6452740795761667 </TABLE>
    </DEFINITION>
    <DEFINITION>
      <FOR>67</FOR>
      <GIVEN>16</GIVEN>
      <GIVEN>55</GIVEN>
      <TABLE>0.11205275771777273 0.8879472422822273 0.546558150252654 0.453441849747346 0.6207405607307425 0.37925943926925754 0.5358136070147687 0.4641863929852314 </TABLE>
    </DEFINITION>
    <DEFINITION>
      <FOR>68</FOR>
      <GIVEN>40</GIVEN>
      <GIVEN>63</GIVEN>
      <GIVEN>66</GIVEN>
      <TABLE>0.21918372032213512 0.7808162796778648 0.9043891933989674 0.09561080660103251 0.266225591591849 0.733774408408151 0.04874721063661648 0.9512527893633835 0.3717821050512213 0.6282178949487787 0.40796798072070994 0.5920320192792902 0.0335267076434474 0.9664732923565525 0.5275745398946705 0.47242546010532943 </TABLE>
    </DEFINITION>
    <DEFINITION>
      <FOR>69</FOR>
      <GIVEN>3</GIVEN>
      <GIVEN>9</GIVEN>
      <GIVEN>11</GIVEN>
      <GIVEN>64</GIVEN>
      <GIVEN>51</GIVEN>
      <TABLE>0.46476115093454795 0.535238849065452 0.49488758882084327 0.5051124111791568 0.4513248417896151 0.5486751582103849 0.36997869201533284 0.630021307984667 0.7322075936712278 0.2677924063287724 0.5543391803935906 0.4456608196064093 0.6541844490635784 0.3458155509364216 0.14206977343655874 0.8579302265634412 0.3579040557962873 0.6420959442037127 0.7338479267987076 0.2661520732012924 0.6279093366878867 0.3720906633121134 0.8393727004007454 0.16062729959925456 0.780047550377859 0.21995244962214097 0.521729082428204 0.478270917571796 0.4093709086642767 0.5906290913357233 0.04499453291443484 0.9550054670855651 0.5143201588433618 0.48567984115663826 0.44606483934406327 0.5539351606559367 0.8595320172412336 0.14046798275876637 0.3665086947115529 0.6334913052884471 0.34008628628131055 0.6599137137186895 0.6018768146988474 0.39812318530115265 0.5067338104481326 0.49326618955186735 0.44613702511921755 0.5538629748807824 0.8751204406317542 0.12487955936824574 0.10819753826314574 0.8918024617368543 0.6102907411535747 0.3897092588464253 0.2529003317583041 0.7470996682416959 0.38610789749398344 0.6138921025060166 0.027859781741795372 0.9721402182582046 0.3156387892170701 0.68436121078293 0.3673740293359377 0.6326259706640623 </TABLE>
    </DEFINITION>
    <DEFINITION>
      <FOR>70</FOR>
      <TABLE>0.24381815548003563 0.7561818445199644 </TABLE>
    </DEFINITION>
    <DEFINITION>
      <FOR>71</FOR>
      <GIVEN>54</GIVEN>
      <GIVEN>38</GIVEN>
      <TABLE>0.1846913779500586 0.8153086220499414 0.6460654401243202 0.3539345598756798 0.9314772048241865 0.0685227951758135 0.21999304148208473 0.7800069585179152 </TABLE>
    </DEFINITION>
    <DEFINITION>
      <FOR>72</FOR>
      <GIVEN>33</GIVEN>
      <GIVEN>52</GIVEN>
      <TABLE>0.6496624536998048 0.35033754630019526 0.07004819090384495 0.929951809096155 0.44129056046937637 0.5587094395306237 0.09362971064351254 0.9063702893564874 </TABLE>
    </DEFINITION>
    <DEFINITION>
      <FOR>73</FOR>
      <GIVEN>62</GIVEN>
      <GIVEN>8</GIVEN>
      <GIVEN>19</GIVEN>
      <GIVEN>18</GIVEN>
      <TABLE>0.21178157979661702 0.788218420203383 0.5213049707540172 0.4786950292459829 0.4132474186247592 0.5867525813752408 0.2674160733931986 0.7325839266068014 0.5591025185013165 0.4408974814986836 0.7817075842399821 0.21829241576001793 0.2917756427188375 0.7082243572811625 0.5833440531296616 0.41665594687033836 0.9224681650413638 0.07753183495863629 0.6299726497827091 0.370027350217291 0.7699644358133192 0.2300355641866808 0.3438474632036891 0.6561525367963109 0.39113543339725354 0.6088645666027465 0.8104765792575166 0.18952342074248338 0.7641010225978112 0.2358989774021889 0.5756112580128983 0.4243887419871018 </TABLE>
    </DEFINITION>
    <DEFINITION>
      <FOR>74</FOR>
      <GIVEN>6</GIVEN>
      <GIVEN>27</GIVEN>
      <GIVEN>71</GIVEN>
      <GIVEN>70</GIVEN>
      <TABLE>0.22150598542263994 0.7784940145773601 0.4122720778918523 0.5877279221081477 0.19058602473911154 0.8094139752608884 0.9302496344039437 0.06975036559605631 0.5837822609316611 0.41621773906833887 0.8265074732896668 0.17349252671033324 0.5811525963814965 0.4188474036185036 0.76153031751333 0.23846968248667003 0.2695975824228822 0.7304024175771179 0.6620875142053416 0.3379124857946584 0.464794143128973 0.535205856871027 0.12423564558117128 0.8757643544188287 0.6271789057922718 0.3728210942077282 0.6965187800171004 0.3034812199828997 0.7267971642547424 0.27320283574525767 0.44856449351924915 0.5514355064807509 </TABLE>
    </DEFINITION>
    <DEFINITION>
      <FOR>75</FOR>
      <TABLE>0.30629707112825344 0.6937029288717466 </TABLE>
    </DEFINITION>
    <DEFINITION>
      <FOR>76</FOR>
      <GIVEN>69</GIVEN>
      <GIVEN>23</GIVEN>
      <TABLE>0.4306226377759095 0.5693773622240905 0.8844136191256506 0.11558638087434933 0.4863818700874412 0.5136181299125588 0.4513547257039312 0.5486452742960688 </TABLE>
    </DEFINITION>
    <DEFINITION>
      <FOR>77</FOR>
      <GIVEN>4</GIVEN>
      <GIVEN>71</GIVEN>
      <TABLE>0.9676745236023234 0.03232547639767655 0.4305906182377321 0.5694093817622679 0.5292277283341897 0.47077227166581015 0.9071813498266721 0.09281865017332788 </TABLE>
    </DEFINITION>
    <DEFINITION>
      <FOR>78</FOR>
      <GIVEN>57</GIVEN>
      <GIVEN>69</GIVEN>
      <GIVEN>77</GIVEN>
      <GIVEN>68</GIVEN>
      <TABLE>0.4870071546722285 0.5129928453277715 0.18569178396143296 0.8143082160385671 0.3301897441506713 0.6698102558493286 0.6761523233184352 0.3238476766815647 0.7454589258993146 0.25454107410068544 0.9021170847818731 0.09788291521812688 0.8057212381832776 0.1942787618167224 0.27880947951589696 0.721190520484103 0.2605720217543868 0.7394279782456131 0.936026220262268 0.06397377973773195 0.3080233756125639 0.691976624387436 0.40405478118715654 0.5959452188128433 0.6615999499979486 0.33840005000205137 0.4873595953463941 0.5126404046536058 0.299320884586851 0.7006791154131491 0.5350918297500542 0.46490817024994585 </TABLE>
    </DEFINITION>
    <DEFINITION>
      <FOR>79</FOR>
      <GIVEN>0</GIVEN>
      <GIVEN>67</GIVEN>
      <GIVEN>63</GIVEN>
      <GIVEN>37</GIVEN>
      <GIVEN>52</GIVEN>
      <TABLE>0.49324595824124673 0.5067540417587533 0.8711493336412589 0.1288506663587411 0.3208414135225827 0.6791585864774173 0.9956351590279139 0.004364840972086131 0.6683066465578974 0.3316933534421026 0.15791247920487464 0.8420875207951254 0.32299204717755725 0.6770079528224427 0.5947397362601382 0.40526026373986174 0.48459897214588377 0.5154010278541162 0.5562214286338434 0.44377857136615656 0.4801539435252925 0.5198460564747076 0.17831653778028617 0.8216834622197138 0.24380186018948233 0.7561981398105176 0.45831744317811457 0.5416825568218855 0.45392254445657315 0.5460774555434268 0.6759464209287482 0.32405357907125176 0.9138988097272776 0.08610119027272248 0.2848326026980698 0.7151673973019302 0.1336219877619951 0.8663780122380049 0.0467270944616696 0.9532729055383304 0.5328868172452078 0.4671131827547922 0.8075743099028952 0.19242569009710475 0.7016617447229998 0.29833825527700025 0.3826152022364812 0.6173847977635187 0.6071439963152069 0.392856003684793 0.14056432426576587 0.8594356757342342 0.48023646754084576 0.5197635324591543 0.5764438445559609 0.42355615544403913 0.40494135365721995 0.59505864634278 0.5260377085380483 0.4739622914619516 0.033571407339634346 0.9664285926603656 0.18189332103421227 0.8181066789657877 </TABLE>
    </DEFINITION>
  </NETWORK>
</BIF>
