<?xml version='1.0' encoding='UTF-8'?>
<BIF VERSION="0.3">
  <NETWORK>
    <NAME>UNTITLED</NAME>
    <VARIABLE TYPE="nature">
      <NAME>0</NAME>
      <OUTCOME>0</OUTCOME>
      <OUTCOME>1</OUTCOME>
      <PROPERTY>weight = None</PROPERTY>
    </VARIABLE>
    <VARIABLE TYPE="nature">
      <NAME>1</NAME>
      <OUTCOME>0</OUTCOME>
      <OUTCOME>1</OUTCOME>
      <PROPERTY>weight = None</PROPERTY>
    </VARIABLE>
    <VARIABLE TYPE="nature">
      <NAME>10</NAME>
      <OUTCOME>0</OUTCOME>
      <OUTCOME>1</OUTCOME>
      <PROPERTY>weight = None</PROPERTY>
    </VARIABLE>
    <VARIABLE TYPE="nature">
      <NAME>11</NAME>
      <OUTCOME>0</OUTCOME>
      <OUTCOME>1</OUTCOME>
      <PROPERTY>weight = None</PROPERTY>
    </VARIABLE>
    <VARIABLE TYPE="nature">
      <NAME>12</NAME>
      <OUTCOME>0</OUTCOME>
      <OUTCOME>1</OUTCOME>
      <PROPERTY>weight = None</PROPERTY>
    </VARIABLE>
    <VARIABLE TYPE="nature">
      <NAME>13</NAME>
      <OUTCOME>0</OUTCOME>
      <OUTCOME>1</OUTCOME>
      <PROPERTY>weight = None</PROPERTY>
    </VARIABLE>
    <VARIABLE TYPE="nature">
      <NAME>14</NAME>
      <OUTCOME>0</OUTCOME>
      <OUTCOME>1</OUTCOME>
      <PROPERTY>weight = None</PROPERTY>
    </VARIABLE>
    <VARIABLE TYPE="nature">
      <NAME>15</NAME>
      <OUTCOME>0</OUTCOME>
      <OUTCOME>1</OUTCOME>
      <PROPERTY>weight = None</PROPERTY>
    </VARIABLE>
    <VARIABLE TYPE="nature">
      <NAME>16</NAME>
      <OUTCOME>0</OUTCOME>
      <OUTCOME>1</OUTCOME>
      <PROPERTY>weight = None</PROPERTY>
    </VARIABLE>
    <VARIABLE TYPE="nature">
      <NAME>17</NAME>
      <OUTCOME>0</OUTCOME>
      <OUTCOME>1</OUTCOME>
      <PROPERTY>weight = None</PROPERTY>
    </VARIABLE>
    <VARIABLE TYPE="nature">
      <NAME>18</NAME>
      <OUTCOME>0</OUTCOME>
      <OUTCOME>1</OUTCOME>
      <PROPERTY>weight = None</PROPERTY>
    </VARIABLE>
    <VARIABLE TYPE="nature">
      <NAME>19</NAME>
      <OUTCOME>0</OUTCOME>
      <OUTCOME>1</OUTCOME>
      <PROPERTY>weight = None</PROPERTY>
    </VARIABLE>
    <VARIABLE TYPE="nature">
      <NAME>2</NAME>
      <OUTCOME>0</OUTCOME>
      <OUTCOME>1</OUTCOME>
      <PROPERTY>weight = None</PROPERTY>
    </VARIABLE>
    <VARIABLE TYPE="nature">
      <NAME>20</NAME>
      <OUTCOME>0</OUTCOME>
      <OUTCOME>1</OUTCOME>
      <PROPERTY>weight = None</PROPERTY>
    </VARIABLE>
    <VARIABLE TYPE="nature">
      <NAME>21</NAME>
      <OUTCOME>0</OUTCOME>
      <OUTCOME>1</OUTCOME>
      <PROPERTY>weight = None</PROPERTY>
    </VARIABLE>
    <VARIABLE TYPE="nature">
      <NAME>22</NAME>
      <OUTCOME>0</OUTCOME>
      <OUTCOME>1</OUTCOME>
      <PROPERTY>weight = None</PROPERTY>
    </VARIABLE>
    <VARIABLE TYPE="nature">
      <NAME>23</NAME>
      <OUTCOME>0</OUTCOME>
      <OUTCOME>1</OUTCOME>
      <PROPERTY>weight = None</PROPERTY>
    </VARIABLE>
    <VARIABLE TYPE="nature">
      <NAME>24</NAME>
      <OUTCOME>0</OUTCOME>
      <OUTCOME>1</OUTCOME>
      <PROPERTY>weight = None</PROPERTY>
    </VARIABLE>
    <VARIABLE TYPE="nature">
      <NAME>25</NAME>
      <OUTCOME>0</OUTCOME>
      <OUTCOME>1</OUTCOME>
      <PROPERTY>weight = None</PROPERTY>
    </VARIABLE>
    <VARIABLE TYPE="nature">
      <NAME>26</NAME>
      <OUTCOME>0</OUTCOME>
      <OUTCOME>1</OUTCOME>
      <PROPERTY>weight = None</PROPERTY>
    </VARIABLE>
    <VARIABLE TYPE="nature">
      <NAME>27</NAME>
      <OUTCOME>0</OUTCOME>
      <OUTCOME>1</OUTCOME>
      <PROPERTY>weight = None</PROPERTY>
    </VARIABLE>
    <VARIABLE TYPE="nature">
      <NAME>3</NAME>
      <OUTCOME>0</OUTCOME>
      <OUTCOME>1</OUTCOME>
      <PROPERTY>weight = None</PROPERTY>
    </VARIABLE>
    <VARIABLE TYPE="nature">
      <NAME>4</NAME>
      <OUTCOME>0</OUTCOME>
      <OUTCOME>1</OUTCOME>
      <PROPERTY>weight = None</PROPERTY>
    </VARIABLE>
    <VARIABLE TYPE="nature">
      <NAME>5</NAME>
      <OUTCOME>0</OUTCOME>
      <OUTCOME>1</OUTCOME>
      <PROPERTY>weight = None</PROPERTY>
    </VARIABLE>
    <VARIABLE TYPE="nature">
      <NAME>6</NAME>
      <OUTCOME>0</OUTCOME>
      <OUTCOME>1</OUTCOME>
      <PROPERTY>weight = None</PROPERTY>
    </VARIABLE>
    <VARIABLE TYPE="nature">
      <NAME>7</NAME>
      <OUTCOME>0</OUTCOME>
      <OUTCOME>1</OUTCOME>
      <PROPERTY>weight = None</PROPERTY>
    </VARIABLE>
    <VARIABLE TYPE="nature">
      <NAME>8</NAME>
      <OUTCOME>0</OUTCOME>
      <OUTCOME>1</OUTCOME>
      <PROPERTY>weight = None</PROPERTY>
    </VARIABLE>
    <VARIABLE TYPE="nature">
      <NAME>9</NAME>
      <OUTCOME>0</OUTCOME>
      <OUTCOME>1</OUTCOME>
      <PROPERTY>weight = None</PROPERTY>
    </VARIABLE>
    <DEFINITION>
      <FOR>0</FOR>
      <TABLE>0.1712979922106368 0.8287020077893633 </TABLE>
    </DEFINITION>
    <DEFINITION>
      <FOR>1</FOR>
      <TABLE>0.25718080224274864 0.7428191977572514 </TABLE>
    </DEFINITION>
    <DEFINITION>
      <FOR>2</FOR>
      <TABLE>0.8688645223451646 0.13113547765483533 </TABLE>
    </DEFINITION>
    <DEFINITION>
      <FOR>3</FOR>
      <TABLE>0.17963864436035382 0.8203613556396461 </TABLE>
    </DEFINITION>
    <DEFINITION>
      <FOR>4</FOR>
      <TABLE>0.39544403017177926 0.6045559698282207 </TABLE>
    </DEFINITION>
    <DEFINITION>
      <FOR>5</FOR>
      <TABLE>0.4268789995416128 0.5731210004583872 </TABLE>
    </DEFINITION>
    <DEFINITION>
      <FOR>6</FOR>
      <TABLE>0.6569685648923269 0.3430314351076731 </TABLE>
    </DEFINITION>
    <DEFINITION>
      <FOR>7</FOR>
      <TABLE>0.11384774441709171 0.8861522555829083 </TABLE>
    </DEFINITION>
    <DEFINITION>
      <FOR>8</FOR>
      <TABLE>0.2867270393603852 0.7132729606396149 </TABLE>
    </DEFINITION>
    <DEFINITION>
      <FOR>9</FOR>
      <TABLE>0.5605014197181934 0.4394985802818066 </TABLE>
    </DEFINITION>
    <DEFINITION>
      <FOR>10</FOR>
      <TABLE>0.5815261283100926 0.41847387168990735 </TABLE>
    </DEFINITION>
    <DEFINITION>
      <FOR>11</FOR>
      <TABLE>0.3148269696597371 0.6851730303402629 </TABLE>
    </DEFINITION>
    <DEFINITION>
      <FOR>12</FOR>
      <TABLE>0.4035519993194107 0.5964480006805895 </TABLE>
    </DEFINITION>
    <DEFINITION>
      <FOR>13</FOR>
      <TABLE>0.9890171386396505 0.01098286136034959 </TABLE>
    </DEFINITION>
    <DEFINITION>
      <FOR>14</FOR>
      <TABLE>0.5108869314282616 0.4891130685717384 </TABLE>
    </DEFINITION>
    <DEFINITION>
      <FOR>15</FOR>
      <TABLE>0.3404258870100451 0.6595741129899549 </TABLE>
    </DEFINITION>
    <DEFINITION>
      <FOR>16</FOR>
      <TABLE>0.25549302690125625 0.7445069730987438 </TABLE>
    </DEFINITION>
    <DEFINITION>
      <FOR>17</FOR>
      <GIVEN>11</GIVEN>
      <TABLE>0.438536881666975 0.561463118333025 0.3867152817959186 0.6132847182040815 </TABLE>
    </DEFINITION>
    <DEFINITION>
      <FOR>18</FOR>
      <TABLE>0.03832692621343529 0.9616730737865647 </TABLE>
    </DEFINITION>
    <DEFINITION>
      <FOR>19</FOR>
      <GIVEN>10</GIVEN>
      <TABLE>0.4052998281675743 0.5947001718324257 0.7014692559380334 0.29853074406196667 </TABLE>
    </DEFINITION>
    <DEFINITION>
      <FOR>20</FOR>
      <TABLE>0.06209441609580767 0.9379055839041923 </TABLE>
    </DEFINITION>
    <DEFINITION>
      <FOR>21</FOR>
      <GIVEN>8</GIVEN>
      <GIVEN>19</GIVEN>
      <TABLE>0.34449787067446686 0.6555021293255333 0.5748253695631024 0.42517463043689746 0.38769883221416934 0.6123011677858307 0.42477394363108684 0.5752260563689132 </TABLE>
    </DEFINITION>
    <DEFINITION>
      <FOR>22</FOR>
      <GIVEN>19</GIVEN>
      <GIVEN>20</GIVEN>
      <TABLE>0.9686419619222726 0.03135803807772741 0.7511848017412626 0.2488151982587375 0.5403955654240307 0.45960443457596933 0.727088996183004 0.2729110038169959 </TABLE>
    </DEFINITION>
    <DEFINITION>
      <FOR>23</FOR>
      <GIVEN>3</GIVEN>
      <GIVEN>20</GIVEN>
      <TABLE>0.3431199591004866 0.6568800408995134 0.2973723716220402 0.7026276283779598 0.7796037718390144 0.22039622816098553 0.43925590439229917 0.5607440956077008 </TABLE>
    </DEFINITION>
    <DEFINITION>
      <FOR>24</FOR>
      <GIVEN>16</GIVEN>
      <TABLE>0.8661058035557999 0.13389419644420014 0.20013986327588548 0.7998601367241145 </TABLE>
    </DEFINITION>
    <DEFINITION>
      <FOR>25</FOR>
      <TABLE>0.6839847221900625 0.3160152778099375 </TABLE>
    </DEFINITION>
    <DEFINITION>
      <FOR>26</FOR>
      <GIVEN>9</GIVEN>
      <GIVEN>17</GIVEN>
      <TABLE>0.2635720305168574 0.7364279694831426 0.7536160581659149 0.2463839418340851 0.18590082291695265 0.8140991770830474 0.019317741117807846 0.9806822588821922 </TABLE>
    </DEFINITION>
    <DEFINITION>
      <FOR>27</FOR>
      <TABLE>0.8204030011641453 0.17959699883585462 </TABLE>
    </DEFINITION>
  </NETWORK>
</BIF>
